parameters : {"minimum_performance":-1,"block_timeout":5000,"response_timeout":1000,"task_kappa":0,"task_stimuli":0,"task_component":0,"task_feature":0,"task_sign":-1,"task_weights":[-1,0,0,0,0,0,0,0]}
edata : {"exp_subject":"1ESnH1bipzmQ","exp_sex":"male","exp_age":"21-30","exp_task":"jan/131004_primate1","exp_starttime":1381408906831,"exp_finishtime":1381411205690}
numbers : {"stimuli":2,"components":2,"features":2,"weights":8,"blocks":40,"trials":25,"indices":1000}
sdata : {"vb_index":[1,2,3,4,5,6,7,8,9,10,11,12,13,14,15,16,17,18,19,20,21,22,23,24,25,26,27,28,29,30,31,32,33,34,35,36,37,38,39,40,41,42,43,44,45,46,47,48,49,50,51,52,53,54,55,56,57,58,59,60,61,62,63,64,65,66,67,68,69,70,71,72,73,74,75,76,77,78,79,80,81,82,83,84,85,86,87,88,89,90,91,92,93,94,95,96,97,98,99,100,101,102,103,104,105,106,107,108,109,110,111,112,113,114,115,116,117,118,119,120,121,122,123,124,125,126,127,128,129,130,131,132,133,134,135,136,137,138,139,140,141,142,143,144,145,146,147,148,149,150,151,152,153,154,155,156,157,158,159,160,161,162,163,164,165,166,167,168,169,170,171,172,173,174,175,176,177,178,179,180,181,182,183,184,185,186,187,188,189,190,191,192,193,194,195,196,197,198,199,200,201,202,203,204,205,206,207,208,209,210,211,212,213,214,215,216,217,218,219,220,221,222,223,224,225,226,227,228,229,230,231,232,233,234,235,236,237,238,239,240,241,242,243,244,245,246,247,248,249,250,251,252,253,254,255,256,257,258,259,260,261,262,263,264,265,266,267,268,269,270,271,272,273,274,275,276,277,278,279,280,281,282,283,284,285,286,287,288,289,290,291,292,293,294,295,296,297,298,299,300,301,302,303,304,305,306,307,308,309,310,311,312,313,314,315,316,317,318,319,320,321,322,323,324,325,326,327,328,329,330,331,332,333,334,335,336,337,338,339,340,341,342,343,344,345,346,347,348,349,350,351,352,353,354,355,356,357,358,359,360,361,362,363,364,365,366,367,368,369,370,371,372,373,374,375,376,377,378,379,380,381,382,383,384,385,386,387,388,389,390,391,392,393,394,395,396,397,398,399,400,401,402,403,404,405,406,407,408,409,410,411,412,413,414,415,416,417,418,419,420,421,422,423,424,425,426,427,428,429,430,431,432,433,434,435,436,437,438,439,440,441,442,443,444,445,446,447,448,449,450,451,452,453,454,455,456,457,458,459,460,461,462,463,464,465,466,467,468,469,470,471,472,473,474,475,476,477,478,479,480,481,482,483,484,485,486,487,488,489,490,491,492,493,494,495,496,497,498,499,500,501,502,503,504,505,506,507,508,509,510,511,512,513,514,515,516,517,518,519,520,521,522,523,524,525,526,527,528,529,530,531,532,533,534,535,536,537,538,539,540,541,542,543,544,545,546,547,548,549,550,551,552,553,554,555,556,557,558,559,560,561,562,563,564,565,566,567,568,569,570,571,572,573,574,575,576,577,578,579,580,581,582,583,584,585,586,587,588,589,590,591,592,593,594,595,596,597,598,599,600,601,602,603,604,605,606,607,608,609,610,611,612,613,614,615,616,617,618,619,620,621,622,623,624,625,626,627,628,629,630,631,632,633,634,635,636,637,638,639,640,641,642,643,644,645,646,647,648,649,650,651,652,653,654,655,656,657,658,659,660,661,662,663,664,665,666,667,668,669,670,671,672,673,674,675,676,677,678,679,680,681,682,683,684,685,686,687,688,689,690,691,692,693,694,695,696,697,698,699,700,701,702,703,704,705,706,707,708,709,710,711,712,713,714,715,716,717,718,719,720,721,722,723,724,725,726,727,728,729,730,731,732,733,734,735,736,737,738,739,740,741,742,743,744,745,746,747,748,749,750,751,752,753,754,755,756,757,758,759,760,761,762,763,764,765,766,767,768,769,770,771,772,773,774,775,776,777,778,779,780,781,782,783,784,785,786,787,788,789,790,791,792,793,794,795,796,797,798,799,800,801,802,803,804,805,806,807,808,809,810,811,812,813,814,815,816,817,818,819,820,821,822,823,824,825,826,827,828,829,830,831,832,833,834,835,836,837,838,839,840,841,842,843,844,845,846,847,848,849,850,851,852,853,854,855,856,857,858,859,860,861,862,863,864,865,866,867,868,869,870,871,872,873,874,875,876,877,878,879,880,881,882,883,884,885,886,887,888,889,890,891,892,893,894,895,896,897,898,899,900,901,902,903,904,905,906,907,908,909,910,911,912,913,914,915,916,917,918,919,920,921,922,923,924,925,926,927,928,929,930,931,932,933,934,935,936,937,938,939,940,941,942,943,944,945,946,947,948,949,950,951,952,953,954,955,956,957,958,959,960,961,962,963,964,965,966,967,968,969,970,971,972,973,974,975,976,977,978,979,980,981,982,983,984,985,986,987,988,989,990,991,992,993,994,995,996,997,998,999,1000],"vb_block":[1,1,1,1,1,1,1,1,1,1,1,1,1,1,1,1,1,1,1,1,1,1,1,1,1,2,2,2,2,2,2,2,2,2,2,2,2,2,2,2,2,2,2,2,2,2,2,2,2,2,3,3,3,3,3,3,3,3,3,3,3,3,3,3,3,3,3,3,3,3,3,3,3,3,3,4,4,4,4,4,4,4,4,4,4,4,4,4,4,4,4,4,4,4,4,4,4,4,4,4,5,5,5,5,5,5,5,5,5,5,5,5,5,5,5,5,5,5,5,5,5,5,5,5,5,6,6,6,6,6,6,6,6,6,6,6,6,6,6,6,6,6,6,6,6,6,6,6,6,6,7,7,7,7,7,7,7,7,7,7,7,7,7,7,7,7,7,7,7,7,7,7,7,7,7,8,8,8,8,8,8,8,8,8,8,8,8,8,8,8,8,8,8,8,8,8,8,8,8,8,9,9,9,9,9,9,9,9,9,9,9,9,9,9,9,9,9,9,9,9,9,9,9,9,9,10,10,10,10,10,10,10,10,10,10,10,10,10,10,10,10,10,10,10,10,10,10,10,10,10,11,11,11,11,11,11,11,11,11,11,11,11,11,11,11,11,11,11,11,11,11,11,11,11,11,12,12,12,12,12,12,12,12,12,12,12,12,12,12,12,12,12,12,12,12,12,12,12,12,12,13,13,13,13,13,13,13,13,13,13,13,13,13,13,13,13,13,13,13,13,13,13,13,13,13,14,14,14,14,14,14,14,14,14,14,14,14,14,14,14,14,14,14,14,14,14,14,14,14,14,15,15,15,15,15,15,15,15,15,15,15,15,15,15,15,15,15,15,15,15,15,15,15,15,15,16,16,16,16,16,16,16,16,16,16,16,16,16,16,16,16,16,16,16,16,16,16,16,16,16,17,17,17,17,17,17,17,17,17,17,17,17,17,17,17,17,17,17,17,17,17,17,17,17,17,18,18,18,18,18,18,18,18,18,18,18,18,18,18,18,18,18,18,18,18,18,18,18,18,18,19,19,19,19,19,19,19,19,19,19,19,19,19,19,19,19,19,19,19,19,19,19,19,19,19,20,20,20,20,20,20,20,20,20,20,20,20,20,20,20,20,20,20,20,20,20,20,20,20,20,21,21,21,21,21,21,21,21,21,21,21,21,21,21,21,21,21,21,21,21,21,21,21,21,21,22,22,22,22,22,22,22,22,22,22,22,22,22,22,22,22,22,22,22,22,22,22,22,22,22,23,23,23,23,23,23,23,23,23,23,23,23,23,23,23,23,23,23,23,23,23,23,23,23,23,24,24,24,24,24,24,24,24,24,24,24,24,24,24,24,24,24,24,24,24,24,24,24,24,24,25,25,25,25,25,25,25,25,25,25,25,25,25,25,25,25,25,25,25,25,25,25,25,25,25,26,26,26,26,26,26,26,26,26,26,26,26,26,26,26,26,26,26,26,26,26,26,26,26,26,27,27,27,27,27,27,27,27,27,27,27,27,27,27,27,27,27,27,27,27,27,27,27,27,27,28,28,28,28,28,28,28,28,28,28,28,28,28,28,28,28,28,28,28,28,28,28,28,28,28,29,29,29,29,29,29,29,29,29,29,29,29,29,29,29,29,29,29,29,29,29,29,29,29,29,30,30,30,30,30,30,30,30,30,30,30,30,30,30,30,30,30,30,30,30,30,30,30,30,30,31,31,31,31,31,31,31,31,31,31,31,31,31,31,31,31,31,31,31,31,31,31,31,31,31,32,32,32,32,32,32,32,32,32,32,32,32,32,32,32,32,32,32,32,32,32,32,32,32,32,33,33,33,33,33,33,33,33,33,33,33,33,33,33,33,33,33,33,33,33,33,33,33,33,33,34,34,34,34,34,34,34,34,34,34,34,34,34,34,34,34,34,34,34,34,34,34,34,34,34,35,35,35,35,35,35,35,35,35,35,35,35,35,35,35,35,35,35,35,35,35,35,35,35,35,36,36,36,36,36,36,36,36,36,36,36,36,36,36,36,36,36,36,36,36,36,36,36,36,36,37,37,37,37,37,37,37,37,37,37,37,37,37,37,37,37,37,37,37,37,37,37,37,37,37,38,38,38,38,38,38,38,38,38,38,38,38,38,38,38,38,38,38,38,38,38,38,38,38,38,39,39,39,39,39,39,39,39,39,39,39,39,39,39,39,39,39,39,39,39,39,39,39,39,39,40,40,40,40,40,40,40,40,40,40,40,40,40,40,40,40,40,40,40,40,40,40,40,40,40],"vb_trial":[1,2,3,4,5,6,7,8,9,10,11,12,13,14,15,16,17,18,19,20,21,22,23,24,25,1,2,3,4,5,6,7,8,9,10,11,12,13,14,15,16,17,18,19,20,21,22,23,24,25,1,2,3,4,5,6,7,8,9,10,11,12,13,14,15,16,17,18,19,20,21,22,23,24,25,1,2,3,4,5,6,7,8,9,10,11,12,13,14,15,16,17,18,19,20,21,22,23,24,25,1,2,3,4,5,6,7,8,9,10,11,12,13,14,15,16,17,18,19,20,21,22,23,24,25,1,2,3,4,5,6,7,8,9,10,11,12,13,14,15,16,17,18,19,20,21,22,23,24,25,1,2,3,4,5,6,7,8,9,10,11,12,13,14,15,16,17,18,19,20,21,22,23,24,25,1,2,3,4,5,6,7,8,9,10,11,12,13,14,15,16,17,18,19,20,21,22,23,24,25,1,2,3,4,5,6,7,8,9,10,11,12,13,14,15,16,17,18,19,20,21,22,23,24,25,1,2,3,4,5,6,7,8,9,10,11,12,13,14,15,16,17,18,19,20,21,22,23,24,25,1,2,3,4,5,6,7,8,9,10,11,12,13,14,15,16,17,18,19,20,21,22,23,24,25,1,2,3,4,5,6,7,8,9,10,11,12,13,14,15,16,17,18,19,20,21,22,23,24,25,1,2,3,4,5,6,7,8,9,10,11,12,13,14,15,16,17,18,19,20,21,22,23,24,25,1,2,3,4,5,6,7,8,9,10,11,12,13,14,15,16,17,18,19,20,21,22,23,24,25,1,2,3,4,5,6,7,8,9,10,11,12,13,14,15,16,17,18,19,20,21,22,23,24,25,1,2,3,4,5,6,7,8,9,10,11,12,13,14,15,16,17,18,19,20,21,22,23,24,25,1,2,3,4,5,6,7,8,9,10,11,12,13,14,15,16,17,18,19,20,21,22,23,24,25,1,2,3,4,5,6,7,8,9,10,11,12,13,14,15,16,17,18,19,20,21,22,23,24,25,1,2,3,4,5,6,7,8,9,10,11,12,13,14,15,16,17,18,19,20,21,22,23,24,25,1,2,3,4,5,6,7,8,9,10,11,12,13,14,15,16,17,18,19,20,21,22,23,24,25,1,2,3,4,5,6,7,8,9,10,11,12,13,14,15,16,17,18,19,20,21,22,23,24,25,1,2,3,4,5,6,7,8,9,10,11,12,13,14,15,16,17,18,19,20,21,22,23,24,25,1,2,3,4,5,6,7,8,9,10,11,12,13,14,15,16,17,18,19,20,21,22,23,24,25,1,2,3,4,5,6,7,8,9,10,11,12,13,14,15,16,17,18,19,20,21,22,23,24,25,1,2,3,4,5,6,7,8,9,10,11,12,13,14,15,16,17,18,19,20,21,22,23,24,25,1,2,3,4,5,6,7,8,9,10,11,12,13,14,15,16,17,18,19,20,21,22,23,24,25,1,2,3,4,5,6,7,8,9,10,11,12,13,14,15,16,17,18,19,20,21,22,23,24,25,1,2,3,4,5,6,7,8,9,10,11,12,13,14,15,16,17,18,19,20,21,22,23,24,25,1,2,3,4,5,6,7,8,9,10,11,12,13,14,15,16,17,18,19,20,21,22,23,24,25,1,2,3,4,5,6,7,8,9,10,11,12,13,14,15,16,17,18,19,20,21,22,23,24,25,1,2,3,4,5,6,7,8,9,10,11,12,13,14,15,16,17,18,19,20,21,22,23,24,25,1,2,3,4,5,6,7,8,9,10,11,12,13,14,15,16,17,18,19,20,21,22,23,24,25,1,2,3,4,5,6,7,8,9,10,11,12,13,14,15,16,17,18,19,20,21,22,23,24,25,1,2,3,4,5,6,7,8,9,10,11,12,13,14,15,16,17,18,19,20,21,22,23,24,25,1,2,3,4,5,6,7,8,9,10,11,12,13,14,15,16,17,18,19,20,21,22,23,24,25,1,2,3,4,5,6,7,8,9,10,11,12,13,14,15,16,17,18,19,20,21,22,23,24,25,1,2,3,4,5,6,7,8,9,10,11,12,13,14,15,16,17,18,19,20,21,22,23,24,25,1,2,3,4,5,6,7,8,9,10,11,12,13,14,15,16,17,18,19,20,21,22,23,24,25,1,2,3,4,5,6,7,8,9,10,11,12,13,14,15,16,17,18,19,20,21,22,23,24,25,1,2,3,4,5,6,7,8,9,10,11,12,13,14,15,16,17,18,19,20,21,22,23,24,25],"vb_x":[[-0.5681436192244291,0,-0.6380049078725278,0,0.4039785391651094,0,0.26537322625517845,0],[-0.27997079491615295,0,-0.7042206358164549,0,0.3888836009427905,0,-0.7645359742455184,0],[0.24524704134091735,0,0.6496842755004764,0,-0.5060127400793135,0,-0.40601460728794336,0],[-0.28318984108045697,0,-0.28095538169145584,0,-0.8413252830505371,0,-0.8438083464279771,0],[-0.9147832775488496,0,-0.561645854730159,0,-0.039887722581624985,0,0.21905559860169888,0],[0.9477308900095522,0,0.49823922105133533,0,0.44484934071078897,0,0.29659121623262763,0],[0.06565106473863125,0,-0.532347328029573,0,-0.4247205317951739,0,0.010796910151839256,0],[0.2889610677957535,0,-0.721968608442694,0,-0.0035292054526507854,0,0.19337550457566977,0],[-0.7209102679044008,0,0.7904768059961498,0,-0.6254361844621599,0,0.6731120264157653,0],[0.5486769233830273,0,0.4964368552900851,0,0.45646178908646107,0,-0.5430078725330532,0],[-0.46826151572167873,0,-0.7313310359604657,0,-0.018317666370421648,0,0.7557102022692561,0],[-0.7538358205929399,0,-0.9423009203746915,0,-0.9771328745409846,0,-0.42097298987209797,0],[-0.9166056220419705,0,-0.4602421778254211,0,-0.45294491574168205,0,0.06737232999876142,0],[-0.3977898503653705,0,0.16273965733125806,0,0.1272334447130561,0,-0.12127866875380278,0],[0.049491601064801216,0,-0.7598333493806422,0,-0.716911890078336,0,-0.2840572679415345,0],[0.018245853018015623,0,-0.8605719371698797,0,0.33985281409695745,0,-0.11156652541831136,0],[0.5559724434278905,0,0.5795243349857628,0,-0.5909234406426549,0,-0.6862259660847485,0],[0.42956966115161777,0,-0.439276821911335,0,0.14170369738712907,0,-0.9399799448437989,0],[-0.019240244291722775,0,-0.08008561190217733,0,0.5541270566172898,0,-0.17350673815235496,0],[0.03319388907402754,0,-0.7458942206576467,0,-0.29466928029432893,0,0.9728865502402186,0],[-0.8886125632561743,0,-0.290475245565176,0,-0.9962081513367593,0,0.9520359965972602,0],[0.7395355715416372,0,0.15113602858036757,0,0.11996092973276973,0,-0.984133614692837,0],[0.5920495796017349,0,0.45167618431150913,0,0.21169781684875488,0,-0.7506478019058704,0],[-0.6320837275125086,0,0.3972951420582831,0,0.5604359959252179,0,0.41681327763944864,0],[0.39335783338174224,0,-0.05957385338842869,0,0.6631551533937454,0,-0.5289534120820463,0],[0.8043358772993088,0,-0.9815995646640658,0,0.23114097444340587,0,0.07128458097577095,0],[-0.2221802924759686,0,-0.3860325561836362,0,-0.5265226075425744,0,0.9841999285854399,0],[-0.0659657446667552,0,-0.4175742850638926,0,-0.9512862120755017,0,-0.22591293370351195,0],[-0.007041313219815493,0,-0.3554270821623504,0,-0.8188833929598331,0,-0.15699438704177737,0],[-0.3833669968880713,0,-0.8294777157716453,0,-0.5050384593196213,0,0.978112583514303,0],[-0.42594224866479635,0,-0.710361207369715,0,-0.017835918348282576,0,-0.31604501232504845,0],[-0.8986831502988935,0,-0.9524685088545084,0,-0.43546283431351185,0,0.15933717228472233,0],[0.3573224376887083,0,-0.9920241227373481,0,0.8333290000446141,0,-0.5088884378783405,0],[-0.6343052797019482,0,-0.8494714386761189,0,-0.30061587505042553,0,0.20274374028667808,0],[0.2546059717424214,0,0.5355218527838588,0,0.36060837702825665,0,-0.6612610286101699,0],[-0.12522900896146894,0,-0.9916625791229308,0,-0.19111538818106055,0,-0.5787094254046679,0],[-0.5390285928733647,0,0.9919829373247921,0,-0.42694608541205525,0,-0.27237372705712914,0],[0.5628456054255366,0,-0.8792898366227746,0,-0.3222529371269047,0,0.49514364218339324,0],[-0.9287651022896171,0,0.2695870781317353,0,0.3039019643329084,0,0.31871853303164244,0],[-0.37610180862247944,0,-0.6737254061736166,0,-0.8267307030037045,0,-0.25824415870010853,0],[-0.9394163182005286,0,-0.09304057387635112,0,0.27321568969637156,0,-0.21832221327349544,0],[0.4916169233620167,0,0.6918597775511444,0,0.9288373603485525,0,-0.2750404137186706,0],[-0.8774223038926721,0,0.29708028165623546,0,-0.5441342522390187,0,0.9936978677287698,0],[-0.363557041157037,0,0.5682393433526158,0,0.8230441100895405,0,-0.9770271419547498,0],[-0.39532241271808743,0,-0.540687978733331,0,-0.18511734623461962,0,-0.8753041005693376,0],[-0.3636262468062341,0,-0.5104958326555789,0,0.17369683692231774,0,0.29133793618530035,0],[0.21400709357112646,0,-0.5536438236013055,0,-0.9243475822731853,0,0.2784305699169636,0],[0.30171157605946064,0,-0.43535907519981265,0,-0.5150727378204465,0,-0.5175861162133515,0],[-0.12751779006794095,0,-0.7752595623023808,0,-0.23893257277086377,0,-0.3523026881739497,0],[0.13590648816898465,0,0.10707093635573983,0,-0.2674036715179682,0,-0.3916512178257108,0],[-0.4010521210730076,0,-0.051727584563195705,0,0.36298889899626374,0,-0.9102259939536452,0],[0.16725278459489346,0,0.5162394070066512,0,-0.9817602848634124,0,0.5261118919588625,0],[-0.48486989084631205,0,-0.490525524597615,0,-0.07678611949086189,0,0.32165213488042355,0],[-0.9480432001873851,0,0.8120353636331856,0,-0.9894354995340109,0,0.49963525030761957,0],[-0.7223457079380751,0,-0.07885243138298392,0,0.8034964967519045,0,0.6933111525140703,0],[-0.029554130043834448,0,-0.5278680915944278,0,-0.7557821203954518,0,-0.3837194414809346,0],[0.45122090727090836,0,0.18080145632848144,0,0.3520432263612747,0,0.40141319390386343,0],[-0.44033535989001393,0,-0.3597186552360654,0,-0.45271965535357594,0,-0.0010037720203399658,0],[-0.14385763090103865,0,-0.2274548951536417,0,-0.9672964233905077,0,0.5956198237836361,0],[0.16762433713302016,0,-0.23275386402383447,0,0.2283308315090835,0,0.2793530002236366,0],[-0.5080523807555437,0,-0.1987427375279367,0,-0.32226779824122787,0,-0.7092308816500008,0],[0.9228265308775008,0,-0.1040443112142384,0,-0.9366439203731716,0,-0.04933884833008051,0],[-0.15035335486754775,0,0.28310323879122734,0,0.7223386643454432,0,0.7060802355408669,0],[0.7658295980654657,0,-0.9463434754870832,0,-0.7206270056776702,0,-0.41725997580215335,0],[-0.9515115600079298,0,0.5676508843898773,0,0.20326474541798234,0,-0.3020761557854712,0],[0.4261352722533047,0,-0.23100874898955226,0,0.5528389625251293,0,0.8296286086551845,0],[0.167653304990381,0,0.9961397466249764,0,-0.8080265615135431,0,0.18479573028162122,0],[0.4950858852826059,0,-0.5085386396385729,0,0.3814566028304398,0,0.06047133123502135,0],[0.41235626582056284,0,-0.6049163420684636,0,0.4704322861507535,0,0.4131349246017635,0],[0.3352611428126693,0,0.0388371217995882,0,0.7484281896613538,0,-0.015663123223930597,0],[0.5201516859233379,0,0.3460763287730515,0,0.3124112174846232,0,0.48141162609681487,0],[0.4461052534170449,0,0.6890108068473637,0,-0.33924612449482083,0,0.18316791346296668,0],[-0.37181499833241105,0,-0.08321134140715003,0,-0.28486204938963056,0,0.11438331520184875,0],[-0.8281031092628837,0,0.5885250438004732,0,-0.8889400837942958,0,0.49240905651822686,0],[0.8643301073461771,0,-0.08261022297665477,0,0.934031433891505,0,0.4485509069636464,0],[0.3116872999817133,0,0.10231345519423485,0,-0.7931745322421193,0,0.25533126713708043,0],[0.9443347305059433,0,0.1912447246722877,0,0.0896981437690556,0,-0.4383049379102886,0],[-0.10828054649755359,0,0.7526222504675388,0,-0.21652353834360838,0,0.8293673493899405,0],[-0.6475348151288927,0,-0.6347080911509693,0,-0.08917717076838017,0,-0.07531864801421762,0],[0.3641680795699358,0,0.13438143860548735,0,-0.13322925986722112,0,0.011215168982744217,0],[-0.05334976548328996,0,-0.24088981002569199,0,0.15952954022213817,0,0.08450828772038221,0],[-0.362522192299366,0,-0.028246707282960415,0,-0.8433626303449273,0,-0.5539274024777114,0],[-0.7957295374944806,0,-0.4000589093193412,0,-0.1803329549729824,0,0.1087744552642107,0],[-0.15143771236762404,0,0.9489664952270687,0,-0.7414698088541627,0,-0.5746055929921567,0],[-0.8524329890497029,0,0.9270153734833002,0,-0.2126677855849266,0,-0.30071816267445683,0],[0.10139216994866729,0,-0.7175566372461617,0,-0.499835591763258,0,-0.6905676792375743,0],[-0.5433044098317623,0,0.19307690812274814,0,-0.7267305189743638,0,0.4190692421980202,0],[-0.5601690714247525,0,0.40205380227416754,0,-0.8447313685901463,0,-0.2734362203627825,0],[0.8804460130631924,0,0.6995600908994675,0,-0.24781989166513085,0,0.9468735000118613,0],[0.00866678124293685,0,-0.45519446302205324,0,-0.9284171783365309,0,0.8357853083871305,0],[0.3995060115121305,0,-0.4132085768505931,0,0.7827125387266278,0,-0.7397547676227987,0],[-0.6956613999791443,0,-0.3433038331568241,0,-0.7883029961958528,0,-0.6935997968539596,0],[-0.2973328409716487,0,0.6115057007409632,0,0.14362110244110227,0,0.06659040180966258,0],[-0.2637854600325227,0,-0.042884454131126404,0,0.9555840943939984,0,0.7165405577979982,0],[-0.920098016038537,0,-0.2725509302690625,0,-0.6417461535893381,0,-0.7100983741693199,0],[0.5225628726184368,0,0.0672074006870389,0,0.24953576689586043,0,-0.6294643632136285,0],[0.7733718669041991,0,0.6991072897799313,0,0.8910484020598233,0,-0.22260849829763174,0],[0.4537665843963623,0,-0.23479371657595038,0,0.38810259383171797,0,-0.9930272786878049,0],[0.3001138735562563,0,0.6307098977267742,0,-0.18413364561274648,0,0.5508318650536239,0],[0.45627291360870004,0,-0.8496392373926938,0,-0.8760706218890846,0,-0.7689247685484588,0],[0.009525255765765905,0,-0.4829249563626945,0,0.91543223336339,0,0.5901013473048806,0],[-0.5205177939496934,0,0.5070452787913382,0,-0.8861105935648084,0,-0.8325797957368195,0],[0.19589146692305803,0,0.16905453708022833,0,-0.2740910490974784,0,-0.22036085464060307,0],[-0.605230170302093,0,0.6693083336576819,0,-0.315103504806757,0,0.4406161280348897,0],[0.5568147585727274,0,-0.07060558767989278,0,0.0038462993688881397,0,-0.707839434966445,0],[-0.7768243532627821,0,-0.095497434027493,0,0.8702540788799524,0,-0.6204970562830567,0],[0.19778922200202942,0,-0.03404353465884924,0,-0.31320014549419284,0,-0.3448796635493636,0],[-0.23697131453081965,0,0.8512103394605219,0,-0.492678037378937,0,-0.7395845442079008,0],[-0.45063266856595874,0,-0.18682701559737325,0,-0.3572717057541013,0,-0.9337886078283191,0],[0.577675954438746,0,0.23190972115844488,0,-0.11049196915701032,0,0.4617877989076078,0],[0.03957654023543,0,-0.15981614915654063,0,0.8311753296293318,0,0.548340214882046,0],[0.12754681566730142,0,0.44735038047656417,0,-0.5461604096926749,0,0.04320833971723914,0],[-0.22013479843735695,0,-0.05546581884846091,0,0.10162780620157719,0,0.55727310013026,0],[-0.9639054490253329,0,0.7614297741092741,0,0.0991039858199656,0,-0.1055307718925178,0],[-0.07275316352024674,0,0.5050084153190255,0,0.4822095581330359,0,-0.722464142832905,0],[0.9885767591185868,0,0.180725141428411,0,-0.007488129660487175,0,0.5567616405896842,0],[0.6891953856684268,0,0.06163997948169708,0,0.10708412993699312,0,-0.42751325434073806,0],[-0.508533164858818,0,-0.4335060943849385,0,-0.4456592630594969,0,-0.9261022298596799,0],[-0.4532380420714617,0,0.36105938348919153,0,-0.8511044904589653,0,-0.13613167218863964,0],[0.7599007552489638,0,0.4958402537740767,0,0.059516101609915495,0,0.5996035309508443,0],[0.9481407445855439,0,0.8296582037582994,0,-0.5586059726774693,0,-0.625217785127461,0],[-0.8236922631040215,0,0.21715310728177428,0,-0.820881481282413,0,0.6402344927191734,0],[0.7441557818092406,0,0.8266591685824096,0,-0.8467147368937731,0,0.48265266325324774,0],[0.5682957344688475,0,-0.24399061175063252,0,0.7073841239325702,0,0.5663658189587295,0],[-0.47660478623583913,0,-0.38098341040313244,0,-0.5855992008000612,0,-0.06271049473434687,0],[0.8130865055136383,0,0.7750238557346165,0,0.3295793407596648,0,-0.7462326898239553,0],[0.1203155368566513,0,-0.49434381024912,0,-0.21981741301715374,0,-0.6288767093792558,0],[0.8195742391981184,0,0.9778929390013218,0,-0.9842576677910984,0,-0.6539821033366024,0],[0.08059048373252153,0,0.31054697558283806,0,0.9484451324678957,0,-0.6985331433825195,0],[-0.1038142777979374,0,-0.6486982395872474,0,-0.7826191857457161,0,-0.31087521370500326,0],[0.7122552082873881,0,-0.7862737621180713,0,-0.7098087021149695,0,-0.686521949712187,0],[-0.8530052797868848,0,0.3005596841685474,0,-0.2202796614728868,0,-0.21440660674124956,0],[-0.45475010108202696,0,-0.9047036697156727,0,0.2676417431794107,0,0.2028708108700812,0],[-0.7987344665452838,0,0.4644546015188098,0,-0.05513683659955859,0,0.28714688681066036,0],[-0.3868569824844599,0,0.46777173271402717,0,0.09789209952577949,0,-0.21453267196193337,0],[0.706340754404664,0,0.3599048564210534,0,0.2816998306661844,0,0.7946063163690269,0],[0.9366180193610489,0,-0.46452005580067635,0,-0.6128032766282558,0,-0.25307939015328884,0],[0.8961774185299873,0,-0.6639459948055446,0,-0.21240398800000548,0,-0.3313158145174384,0],[0.08386357314884663,0,-0.6281627067364752,0,-0.40927433129400015,0,-0.8220188482664526,0],[0.11143390787765384,0,0.46380453556776047,0,0.7668212978169322,0,-0.4720945041626692,0],[0.6250725761055946,0,0.5751595771871507,0,-0.1758667454123497,0,0.9608195689506829,0],[0.31602320028468966,0,-0.7082757917232811,0,-0.030320667661726475,0,-0.3933488014154136,0],[0.01855308748781681,0,0.6854713438078761,0,0.714981134980917,0,0.9827953614294529,0],[-0.3474210677668452,0,-0.16032504476606846,0,0.2673796219751239,0,0.5069105261936784,0],[-0.4305746960453689,0,-0.9071991029195487,0,0.40786940651014447,0,0.4540168414823711,0],[-0.5736724073067307,0,-0.06851468421518803,0,-0.7184141539037228,0,-0.8583862828090787,0],[-0.2725988836027682,0,-0.2062432453967631,0,-0.274452808778733,0,-0.4591967547312379,0],[0.21965987514704466,0,0.1231345790438354,0,0.05451578088104725,0,-0.40092714596539736,0],[0.02435736171901226,0,-0.38771363720297813,0,-0.10433335928246379,0,0.37625578697770834,0],[0.2577576064504683,0,-0.25723416032269597,0,-0.3741668495349586,0,-0.029654578771442175,0],[-0.6379002607427537,0,-0.3788159894756973,0,0.9624641970731318,0,-0.46400702744722366,0],[-0.5196365574374795,0,0.8513728533871472,0,-0.5285651977173984,0,-0.03313284972682595,0],[0.3531274339184165,0,0.6958593763411045,0,-0.05792628787457943,0,-0.2547884276136756,0],[0.5678811315447092,0,0.7193215885199606,0,0.4630547594279051,0,0.8556375177577138,0],[-0.6021869024261832,0,-0.10235351230949163,0,0.005805414170026779,0,-0.9360190909355879,0],[0.9947709878906608,0,-0.6763765965588391,0,0.016056889668107033,0,0.879390356130898,0],[-0.45866336580365896,0,-0.11804455751553178,0,0.39085759734734893,0,-0.21459763078019023,0],[-0.6061257673427463,0,-0.6161687173880637,0,-0.051975758746266365,0,0.12065071938559413,0],[0.948736259713769,0,0.7338316938839853,0,-0.26937848422676325,0,-0.7911294186487794,0],[-0.25539076793938875,0,0.7440473986789584,0,-0.2595389955677092,0,0.3561230134218931,0],[-0.5782948522828519,0,-0.4399279304780066,0,0.8953261645510793,0,0.3668713038787246,0],[0.5933809811249375,0,-0.4474006867967546,0,0.3195066414773464,0,0.7496799887157977,0],[0.6473410548642278,0,0.6956845666281879,0,0.39939930057153106,0,0.014199441764503717,0],[0.27823272766545415,0,0.9869542755186558,0,0.20730911055579782,0,0.40015453193336725,0],[0.934529266320169,0,0.6208358346484601,0,-0.1274679242633283,0,0.23924231017008424,0],[0.08609156776219606,0,0.3786118538118899,0,-0.3321206793189049,0,0.5862309001386166,0],[-0.7137172082439065,0,0.17780291941016912,0,0.6807343885302544,0,-0.09423839161172509,0],[0.9767025294713676,0,0.036805436946451664,0,0.5408347938209772,0,-0.8087814976461232,0],[-0.8591983178630471,0,-0.05132715171203017,0,0.6000096304342151,0,0.5848921523429453,0],[-0.5720292730256915,0,-0.1978116799145937,0,-0.1683153761550784,0,0.06604978861287236,0],[0.4480690970085561,0,0.7290682280436158,0,0.5498159257695079,0,0.1690409742295742,0],[-0.17543932236731052,0,0.7940223948098719,0,-0.6708779218606651,0,-0.08163186395540833,0],[-0.3945715860463679,0,-0.5804905137047172,0,-0.10285133169963956,0,0.6712511056102812,0],[0.211437972728163,0,-0.12657373864203691,0,0.15747626405209303,0,-0.13069049874320626,0],[-0.3947075279429555,0,0.15116199059411883,0,-0.7538654459640384,0,-0.5049342717975378,0],[-0.3037949767895043,0,-0.7207618858665228,0,-0.7476307079195976,0,0.5456605590879917,0],[-0.6403542091138661,0,-0.6425619735382497,0,-0.7055897382088006,0,0.6359807783737779,0],[-0.13094066781923175,0,0.6716135763563216,0,0.33777732867747545,0,-0.02263132482767105,0],[-0.4591622706502676,0,-0.5465715867467225,0,-0.5742764100432396,0,-0.8033708473667502,0],[-0.5147303738631308,0,-0.9042860339395702,0,-0.6391284046694636,0,0.6532309311442077,0],[-0.6231328966096044,0,0.17957903258502483,0,-0.950521974824369,0,0.5788143924437463,0],[-0.11566422646865249,0,0.9218838540837169,0,-0.38921799743548036,0,-0.6211715866811574,0],[0.6936550457030535,0,0.9620791305787861,0,0.39796446869149804,0,-0.3997951433993876,0],[0.007818549405783415,0,0.9493072368204594,0,0.6917753648012877,0,-0.4288940862752497,0],[0.09378000488504767,0,0.5318513414822519,0,0.23446864634752274,0,-0.583802493289113,0],[-0.013989923521876335,0,0.8193502491340041,0,-0.8935269080102444,0,0.770217431243509,0],[0.4907553577795625,0,-0.9254548735916615,0,0.773129491135478,0,-0.7292393404059112,0],[-0.8674283758737147,0,-0.4545482387766242,0,-0.5773966941051185,0,-0.8213382600806653,0],[-0.5518461219035089,0,0.8517557210288942,0,0.7600385276600718,0,0.5353824710473418,0],[0.4104070980101824,0,0.583280015271157,0,0.09858286194503307,0,-0.7505302494391799,0],[0.5427487618289888,0,0.19456576136872172,0,0.2948975241743028,0,-0.9535546116530895,0],[0.42799300979822874,0,0.07031196728348732,0,0.26668448094278574,0,0.02409276645630598,0],[0.500779218506068,0,0.6690815426409245,0,0.507995231077075,0,-0.5219930252060294,0],[-0.3741271994076669,0,0.7330134199000895,0,0.11776229832321405,0,-0.7848353399895132,0],[-0.5266877361573279,0,0.6423475579358637,0,0.14028635108843446,0,-0.011436359491199255,0],[0.14250720338895917,0,0.9810934979468584,0,0.2646501208655536,0,-0.06018510600551963,0],[-0.05916410870850086,0,0.5313659957610071,0,-0.1728407801128924,0,-0.2625583610497415,0],[-0.40955799957737327,0,-0.15706781297922134,0,-0.6392929279245436,0,-0.2056041290052235,0],[0.5886353882960975,0,-0.6242017294280231,0,0.6438706140033901,0,-0.8409604839980602,0],[0.10588257061317563,0,0.6877863104455173,0,-0.3217067699879408,0,-0.9820698765106499,0],[-0.16875137574970722,0,-0.2867868673056364,0,0.40104165906086564,0,0.27152910362929106,0],[-0.6117480453103781,0,-0.4818811626173556,0,0.3992538945749402,0,-0.5446420945227146,0],[-0.3183555663563311,0,0.15492429863661528,0,-0.6084256791509688,0,-0.3367464505136013,0],[-0.03324880823493004,0,-0.1509750932455063,0,0.9952529272995889,0,-0.6504160868935287,0],[0.15609286446124315,0,0.629115407820791,0,0.22036048118025064,0,-0.32927879225462675,0],[-0.9908110424876213,0,0.6207405533641577,0,0.7781255524605513,0,-0.09866566676646471,0],[0.14492165949195623,0,-0.15267473086714745,0,-0.5103982463479042,0,-0.23386823059991002,0],[0.15154879819601774,0,-0.06554950680583715,0,-0.42439223174005747,0,-0.14314515935257077,0],[-0.26480050245299935,0,0.9386545503512025,0,-0.5609570667147636,0,0.048148327972739935,0],[-0.8612889451906085,0,-0.477735741995275,0,-0.9937490304000676,0,0.34820821322500706,0],[-0.3290959191508591,0,-0.7727637868374586,0,-0.38041687617078424,0,0.8117816061712801,0],[-0.4558529695495963,0,-0.22733971802517772,0,-0.4965964015573263,0,0.13843432907015085,0],[0.35160313080996275,0,0.16430462384596467,0,0.7762884339317679,0,-0.10297344764694571,0],[0.40072922175750136,0,-0.8355374396778643,0,0.1358834165148437,0,0.4388292939402163,0],[-0.07925629988312721,0,0.15660181548446417,0,-0.7075516749173403,0,-0.4124312372878194,0],[-0.42121994867920876,0,0.5008570398204029,0,0.9632066702470183,0,-0.27758575417101383,0],[0.4291593232192099,0,0.5647084922529757,0,-0.20067684724926949,0,-0.6885672369971871,0],[-0.5398858217522502,0,-0.7921963334083557,0,-0.8243090035393834,0,-0.09775148890912533,0],[0.9851765222847462,0,-0.24101701145991683,0,-0.19977650977671146,0,-0.18380711693316698,0],[0.7321665091440082,0,-0.8856613533571362,0,0.7584183588624,0,-0.6197265856899321,0],[-0.3586680390872061,0,0.17849744530394673,0,-0.533862663898617,0,0.14262680150568485,0],[0.041909982450306416,0,0.8777612806297839,0,0.5991805694065988,0,-0.7701201634481549,0],[-0.5821938752196729,0,-0.8782557691447437,0,-0.5661574541591108,0,-0.7009384729899466,0],[0.8138265032321215,0,0.12007222604006529,0,0.0371882077306509,0,0.5754241975955665,0],[-0.763350595254451,0,-0.8391923368908465,0,0.3359412276186049,0,0.0972958910278976,0],[-0.3800639654509723,0,0.4914178345352411,0,0.5556050837039948,0,0.6135859047062695,0],[0.7679918725043535,0,0.34203148214146495,0,0.7719930647872388,0,0.15469063632190228,0],[0.9556445074267685,0,-0.3918836140073836,0,-0.38179579889401793,0,-0.31551607185974717,0],[0.479901057202369,0,0.10982832498848438,0,-0.44976853765547276,0,0.6399798784404993,0],[-0.31058830861002207,0,0.40657438011839986,0,-0.10382940759882331,0,0.9623549054376781,0],[-0.8055348717607558,0,0.36893370654433966,0,0.03909294959157705,0,0.7525234404020011,0],[-0.8725867536850274,0,-0.7504181996919215,0,-0.5214582369662821,0,-0.12958415923640132,0],[-0.36934344470500946,0,0.5325275864452124,0,0.6525046904571354,0,0.041114989668130875,0],[0.19405796565115452,0,-0.858474934939295,0,-0.24874242721125484,0,-0.9622056265361607,0],[-0.09553869534283876,0,-0.017899205442517996,0,0.8794988445006311,0,0.22892437735572457,0],[-0.25752077950164676,0,0.4595953985117376,0,0.26616866514086723,0,0.23437474155798554,0],[-0.6096051069907844,0,-0.20218611229211092,0,-0.6195556628517807,0,0.7193321348167956,0],[0.3625855864956975,0,0.6612438918091357,0,0.17802437720820308,0,-0.19587858254089952,0],[0.057343593798577785,0,-0.9075447446666658,0,0.2703620274551213,0,-0.30662074917927384,0],[0.5188712114468217,0,-0.3197195930406451,0,-0.7820109813474119,0,0.654859384521842,0],[0.5652749314904213,0,0.5969096114858985,0,-0.1714535029605031,0,-0.8712504934519529,0],[0.41321621742099524,0,0.19173664972186089,0,-0.29955382412299514,0,-0.5952252405695617,0],[0.9980071135796607,0,0.6687399507500231,0,-0.4634393034502864,0,0.6907502664253116,0],[0.5872667403891683,0,-0.16553297964856029,0,0.28555585676804185,0,0.026998152025043964,0],[-0.6568443891592324,0,0.7801629770547152,0,0.7681304751895368,0,-0.5443741078488529,0],[0.9426662642508745,0,-0.8900034236721694,0,-0.5083011952228844,0,0.45645149843767285,0],[-0.07795347645878792,0,0.8374384865164757,0,-0.5051436079666018,0,0.7940017315559089,0],[0.4006976746022701,0,0.2992836278863251,0,-0.4554760861210525,0,0.5520768077112734,0],[-0.1982199577614665,0,0.8957096850499511,0,-0.12857825635001063,0,0.4281667317263782,0],[0.9009425095282495,0,-0.45673010405153036,0,-0.23492922028526664,0,-0.09646488633006811,0],[0.7101324433460832,0,-0.040645517874509096,0,0.07484260760247707,0,-0.6350118266418576,0],[-0.349074297118932,0,0.9484845525585115,0,0.09344016341492534,0,0.6906283432617784,0],[0.9783500321209431,0,0.9262326643802226,0,0.962423144839704,0,0.1786303329281509,0],[-0.9589737043716013,0,-0.8657042342238128,0,-0.7327903639525175,0,-0.4780740160495043,0],[-0.8131513260304928,0,-0.8869912982918322,0,-0.11781436810269952,0,-0.8008944685570896,0],[-0.4726740103214979,0,0.47731191245839,0,-0.3581807925365865,0,0.38261637883260846,0],[-0.8464204245246947,0,0.3534405995160341,0,-0.5602668486535549,0,-0.31323262630030513,0],[0.2536532091908157,0,-0.7560615390539169,0,-0.34812363190576434,0,0.11062843166291714,0],[0.515331557020545,0,-0.4240750363096595,0,-0.5440569766797125,0,0.8838306614197791,0],[-0.7318065245635808,0,-0.7031212248839438,0,0.33812535973265767,0,-0.5988863199017942,0],[0.11866253660991788,0,-0.8932292344979942,0,0.7089281785301864,0,-0.2899301312863827,0],[-0.652586193755269,0,0.9018832258880138,0,-0.773949989117682,0,-0.06424082955345511,0],[-0.5159878134727478,0,0.9959176331758499,0,-0.6233434667810798,0,-0.9313289881683886,0],[0.1394981788471341,0,0.3538897247053683,0,0.6852111192420125,0,0.9049862110987306,0],[0.33969712210819125,0,0.8954137121327221,0,-0.021547264885157347,0,0.098722780123353,0],[0.8931397381238639,0,0.3664407613687217,0,0.3674831558018923,0,-0.07409199187532067,0],[0.10032945917919278,0,-0.7296410319395363,0,-0.443882099352777,0,0.9165935628116131,0],[0.488623580429703,0,0.4982616058550775,0,-0.42844782257452607,0,-0.8500969312153757,0],[-0.7903851987794042,0,0.5480005233548582,0,-0.17992589669302106,0,-0.9350645039230585,0],[0.2301184507086873,0,0.14829056011512876,0,-0.022715809755027294,0,0.23328237142413855,0],[0.3980791661888361,0,-0.09352888818830252,0,-0.9733494035899639,0,-0.1995535735040903,0],[-0.7632661242969334,0,0.7570384736172855,0,-0.9825986288487911,0,-0.3238307861611247,0],[-0.39196846541017294,0,0.006791298743337393,0,-0.7056075157597661,0,-0.06777667161077261,0],[0.9071886269375682,0,0.14098499901592731,0,-0.36640002438798547,0,-0.5549199283123016,0],[-0.5074276626110077,0,-0.7207768107764423,0,-0.6648834678344429,0,0.6556230448186398,0],[-0.8550579668954015,0,-0.5482705375179648,0,-0.5188079355284572,0,-0.8608611584641039,0],[0.47423113929107785,0,-0.6493005775846541,0,-0.7502792654559016,0,0.5166113139130175,0],[-0.26700837817043066,0,0.6931149293668568,0,-0.8374219154939055,0,-0.6356530440971255,0],[0.5225164713338017,0,-0.7485142685472965,0,0.16279746778309345,0,-0.8551490898244083,0],[-0.17094220407307148,0,-0.541448250412941,0,-0.8091140161268413,0,0.6567071140743792,0],[0.34366956911981106,0,-0.5401285281404853,0,0.19798744330182672,0,-0.9446169715374708,0],[-0.06886169034987688,0,-0.3500866126269102,0,-0.8295000353828073,0,-0.9139685854315758,0],[0.08052115002647042,0,0.23805446969345212,0,0.5351545331068337,0,-0.9416086669079959,0],[0.11701996251940727,0,-0.6352914129383862,0,-0.47138433065265417,0,0.7811506483703852,0],[-0.6383280227892101,0,-0.1904237326234579,0,-0.39961482398211956,0,-0.06499804276973009,0],[0.0654338956810534,0,0.29972450667992234,0,-0.4629840082488954,0,-0.023250867146998644,0],[-0.25367086194455624,0,-0.789497900288552,0,-0.8350051823072135,0,0.029243329539895058,0],[-0.7274832241237164,0,-0.034278619568794966,0,0.5011629899963737,0,-0.3765197587199509,0],[-0.15110939694568515,0,0.8083243458531797,0,-0.1032437696121633,0,0.36679126415401697,0],[-0.19453706918284297,0,0.31931457156315446,0,-0.3862819536589086,0,0.4662393694743514,0],[0.8215708830393851,0,-0.9361469666473567,0,-0.4506532116793096,0,0.9218575116246939,0],[0.2627706089988351,0,0.6520670768804848,0,0.2982874917797744,0,0.37584530794993043,0],[-0.8793983962386847,0,-0.7443522876128554,0,0.7755848024971783,0,0.9571058228611946,0],[-0.6152181085199118,0,-0.8867307016626,0,0.25914832344278693,0,-0.8181965271942317,0],[0.42199758160859346,0,-0.3543983814306557,0,-0.2968460125848651,0,0.04665936157107353,0],[-0.8575690146535635,0,-0.3968956829048693,0,0.4949083812534809,0,0.5892512644641101,0],[-0.7183566857129335,0,0.9979306664317846,0,-0.8991342424415052,0,-0.5324651813134551,0],[0.37870361329987645,0,-0.8315550033003092,0,-0.7702732072211802,0,0.6007409798912704,0],[-0.23204408679157495,0,-0.8250602213665843,0,-0.906779816839844,0,0.5714379316195846,0],[0.38812406780198216,0,0.06811857549473643,0,-0.5008251653052866,0,0.23199263121932745,0],[0.704102898016572,0,-0.22387322364374995,0,-0.8801742237992585,0,0.12313196202740073,0],[-0.8098609065636992,0,-0.8204816291108727,0,-0.8630910599604249,0,0.9847872559912503,0],[0.15670373244211078,0,-0.598499923478812,0,-0.07654259353876114,0,0.9403625461272895,0],[0.5804143664427102,0,0.43337608128786087,0,0.5045170141384006,0,-0.6261281175538898,0],[0.3251180509105325,0,0.7494274247437716,0,-0.5092743588611484,0,0.0928701818920672,0],[-0.22000084398314357,0,0.3283076989464462,0,-0.16610578121617436,0,-0.9395627449266613,0],[0.12031758530065417,0,0.14879346685484052,0,-0.15499463072046638,0,-0.4241049513220787,0],[0.990138762164861,0,-0.8778159744106233,0,0.4246296784840524,0,0.6107425866648555,0],[-0.43281533755362034,0,0.6923911310732365,0,0.6176109365187585,0,0.2761573763564229,0],[0.21098181186243892,0,-0.04381127329543233,0,0.35851331055164337,0,-0.4639948415569961,0],[0.008979792706668377,0,0.5403311112895608,0,-0.1571876904927194,0,0.23145353887230158,0],[-0.4012949992902577,0,0.6366380075924098,0,-0.6625229776836932,0,-0.3541225758381188,0],[-0.32568361423909664,0,0.9302342357113957,0,0.6265190867707133,0,0.8485366525128484,0],[-0.4884741334244609,0,0.7727224878035486,0,0.2825079741887748,0,-0.7791182068176568,0],[0.49642319418489933,0,-0.5196091043762863,0,-0.044300532434135675,0,0.8142397091723979,0],[-0.3080145684070885,0,0.13410552218556404,0,-0.17589184874668717,0,-0.5562751898542047,0],[-0.38493167608976364,0,0.8979027629829943,0,-0.21763488231226802,0,0.7946215663105249,0],[-0.36614835774526,0,-0.7478671278804541,0,0.23152843257412314,0,0.4099894636310637,0],[0.6915505323559046,0,-0.6221964624710381,0,-0.38323454558849335,0,0.9925119555555284,0],[0.49064234597608447,0,-0.11807757243514061,0,0.14616513019427657,0,-0.13102815207093954,0],[-0.8590051596984267,0,-0.5164570263586938,0,0.13078181352466345,0,-0.7388413362205029,0],[0.27029375033453107,0,0.485623677726835,0,0.08680706843733788,0,-0.9144254457205534,0],[0.7166065401397645,0,0.9285097098909318,0,-0.5416646068915725,0,-0.6849273671396077,0],[-0.2749525401741266,0,-0.8179180473089218,0,-0.9869186384603381,0,-0.13656616117805243,0],[-0.9457213175483048,0,0.877769976388663,0,-0.14264716627076268,0,-0.9312197351828218,0],[-0.24126341473311186,0,0.4777064295485616,0,0.11936691263690591,0,-0.8825439144857228,0],[-0.7200733446516097,0,-0.9194926843047142,0,0.8980465950444341,0,-0.8332339860498905,0],[-0.18076883209869266,0,-0.23729284387081861,0,0.6234333007596433,0,-0.3570755198597908,0],[0.35926229879260063,0,0.5533927557989955,0,-0.4104446563869715,0,0.7350079067982733,0],[-0.8087971224449575,0,-0.8050318602472544,0,-0.22659366438165307,0,0.9290458662435412,0],[-0.9064054763875902,0,-0.10830254713073373,0,0.3432382633909583,0,0.13644948741421103,0],[0.3385975486598909,0,-0.13946359092369676,0,0.586785975843668,0,0.0747858309186995,0],[0.14577470859512687,0,0.6251467666588724,0,0.8386244904249907,0,-0.0031456532888114452,0],[0.2049993798136711,0,-0.3965208465233445,0,-0.9353022039867938,0,-0.15204390278086066,0],[-0.6345666293054819,0,-0.32633648393675685,0,0.30500449053943157,0,-0.3780705793760717,0],[0.6088263751007617,0,0.9086590567603707,0,0.21196673158556223,0,-0.44097630167379975,0],[-0.5896605425514281,0,-0.852394734043628,0,0.2258765147998929,0,0.51886927196756,0],[-0.5895163374952972,0,0.3911141059361398,0,-0.16370254661887884,0,-0.8679112754762173,0],[-0.5222084196284413,0,0.4539904147386551,0,0.7005687076598406,0,0.03564209630712867,0],[0.2972785821184516,0,0.35917156515643,0,-0.37952395156025887,0,0.5539400819689035,0],[-0.718127173371613,0,0.19459790363907814,0,-0.6143584353849292,0,-0.36984593514353037,0],[-0.6161602134816349,0,0.29267717618495226,0,0.11209155013784766,0,0.2063413099385798,0],[-0.9913944671861827,0,-0.8010068936273456,0,-0.8074089731089771,0,0.13956589251756668,0],[0.61898671137169,0,-0.9714380609802902,0,-0.5420632963068783,0,0.09363263845443726,0],[-0.10025213519111276,0,-0.15887630637735128,0,0.26697712065652013,0,-0.13628375716507435,0],[0.4227809295989573,0,-0.9201637473888695,0,0.5301552847959101,0,-0.30057172989472747,0],[-0.2973541193641722,0,-0.44237342895939946,0,0.08306653704494238,0,-0.1821368564851582,0],[0.08758102403953671,0,0.28286658180877566,0,0.8851340562105179,0,-0.10416270373389125,0],[0.0769998044706881,0,0.800860199611634,0,-0.10560489445924759,0,-0.10766552621498704,0],[0.13776932749897242,0,0.37935534911230206,0,0.5993888196535408,0,0.5279652373865247,0],[0.29958628164604306,0,-0.7952065616846085,0,-0.4945077118463814,0,-0.8450540010817349,0],[0.3666413901373744,0,-0.6319213509559631,0,-0.642354634590447,0,0.3155780518427491,0],[-0.3564717206172645,0,0.4504332481883466,0,-0.6375105124898255,0,0.5862493044696748,0],[0.17709526978433132,0,-0.4797447631135583,0,0.9574755528010428,0,-0.4128479706123471,0],[-0.042855875100940466,0,0.3563522733747959,0,-0.1961279301904142,0,0.3428758657537401,0],[-0.30089095421135426,0,-0.20487218257039785,0,-0.6305096624419093,0,0.8502021231688559,0],[0.43747725524008274,0,0.8381265923380852,0,0.32507059816271067,0,0.042382807936519384,0],[0.26921652304008603,0,-0.5353585975244641,0,-0.13276496715843678,0,-0.4168080482631922,0],[-0.8892947603017092,0,0.49617877323180437,0,0.7096860273741186,0,0.784058048389852,0],[-0.447864196728915,0,0.9838798129931092,0,-0.456960067152977,0,0.8605487053282559,0],[0.6438231682404876,0,-0.37873873859643936,0,-0.12261821469292045,0,0.347712560556829,0],[-0.03261885093525052,0,-0.3407806409522891,0,-0.17924213828518987,0,-0.49637798964977264,0],[-0.5022132103331387,0,0.09575446881353855,0,0.6673832996748388,0,-0.3667407324537635,0],[0.0635943771339953,0,0.7568216272629797,0,-0.18918852135539055,0,0.43464955128729343,0],[0.9659264627844095,0,-0.24714042898267508,0,0.6834795600734651,0,-0.21208351710811257,0],[-0.1003750660456717,0,-0.941216351930052,0,0.3044717591255903,0,-0.16884244000539184,0],[0.44721229933202267,0,0.44357253471389413,0,-0.16295715887099504,0,-0.6332751968875527,0],[-0.4900070601142943,0,-0.8256916184909642,0,0.47419318789616227,0,0.5240148711018264,0],[-0.09013186488300562,0,0.5425171800889075,0,-0.17360875383019447,0,-0.06115524936467409,0],[-0.026137265842407942,0,0.8817703179083765,0,-0.834497578907758,0,0.9511945764534175,0],[0.47334840381518006,0,0.38119208300486207,0,0.8971644230186939,0,-0.6423298260197043,0],[-0.37342982552945614,0,-0.8928228165023029,0,-0.03940057987347245,0,-0.48450807947665453,0],[0.1346168639138341,0,0.6489981142804027,0,0.4977480676025152,0,0.2756722755730152,0],[0.9764763163402677,0,-0.04247255390509963,0,-0.7521242103539407,0,-0.7730268337763846,0],[-0.26256212405860424,0,-0.43756069615483284,0,-0.404781436547637,0,0.04186180094256997,0],[0.30687103560194373,0,-0.25883487425744534,0,0.3630080418661237,0,0.28669850435107946,0],[-0.6350481011904776,0,-0.5687466659583151,0,0.10620356211438775,0,-0.8232967862859368,0],[-0.14190477272495627,0,-0.3490073764696717,0,-0.914010510314256,0,-0.06421307334676385,0],[0.002602103166282177,0,0.6609882740303874,0,-0.10464999312534928,0,0.5344169605523348,0],[-0.002485450357198715,0,0.38843457540497184,0,-0.3759839772246778,0,0.4126989310607314,0],[-0.17428249586373568,0,-0.22620360739529133,0,0.7725184010341763,0,0.0339164468459785,0],[-0.35327340057119727,0,-0.5174243291839957,0,0.5665096021257341,0,0.576005776412785,0],[0.864261097740382,0,0.8253767765127122,0,0.3232309757731855,0,0.022369528654962778,0],[-0.10579942539334297,0,0.4687591469846666,0,-0.954826301895082,0,-0.805402047932148,0],[0.4350213874131441,0,0.5100466250441968,0,0.49622420873492956,0,-0.20313181029632688,0],[0.5411807489581406,0,0.09482118999585509,0,-0.6558947940357029,0,-0.053286369889974594,0],[0.8277555839158595,0,-0.15733186854049563,0,0.35982837388291955,0,-0.09857120690867305,0],[-0.2987787751480937,0,-0.8743645739741623,0,-0.08415045775473118,0,-0.875491592567414,0],[0.3668470177799463,0,-0.3186189546249807,0,-0.47028698772192,0,0.6659334497526288,0],[0.10238211927935481,0,-0.4638394848443568,0,0.02873519714921713,0,-0.24337973911315203,0],[0.8734709173440933,0,0.8671255842782557,0,0.7695957822725177,0,0.3863959680311382,0],[-0.22015842702239752,0,-0.09925160789862275,0,0.8530451040714979,0,0.8651780979707837,0],[0.0985740446485579,0,0.909861525055021,0,0.563208588398993,0,-0.1366557078436017,0],[0.41942733572795987,0,-0.7280319198034704,0,-0.1024904390797019,0,0.9037478384561837,0],[0.8382864091545343,0,0.5462658083997667,0,0.8153178142383695,0,-0.06800900818780065,0],[-0.8029479044489563,0,-0.2877521417103708,0,-0.6445716428570449,0,-0.2485293224453926,0],[-0.9990324834361672,0,0.8236651313491166,0,0.9936604578979313,0,-0.07337726093828678,0],[-0.2020748625509441,0,-0.7970147039741278,0,0.46444124495610595,0,0.9211398214101791,0],[-0.02915706066414714,0,-0.8878340646624565,0,-0.768046579323709,0,-0.10086855851113796,0],[-0.1580319106578827,0,0.9961820938624442,0,-0.5287516410462558,0,0.10372558608651161,0],[0.3453640486113727,0,-0.9084230307489634,0,0.9241745909675956,0,0.6557354014366865,0],[-0.460139443166554,0,-0.06278473138809204,0,-0.2672742046415806,0,-0.8143325969576836,0],[-0.6246266327798367,0,0.585007225163281,0,0.29297453444451094,0,-0.6735251564532518,0],[0.8451313055120409,0,0.13481914484873414,0,-0.19202010426670313,0,-0.9940381585620344,0],[0.15423397533595562,0,0.7955638617277145,0,0.46698379050940275,0,0.6741115320473909,0],[-0.7443360863253474,0,0.18455248093232512,0,0.8881344343535602,0,-0.7849559248425066,0],[-0.9606886669062078,0,0.05556997423991561,0,0.6751462230458856,0,-0.17788482643663883,0],[-0.9796483814716339,0,0.6226694416254759,0,-0.7840806869789958,0,0.39176836516708136,0],[0.46861024759709835,0,-0.1619972218759358,0,0.5214259438216686,0,0.4717892496846616,0],[-0.8758049700409174,0,-0.0787209845148027,0,-0.032911268062889576,0,-0.22380532044917345,0],[-0.7156205386854708,0,0.26248880522325635,0,0.43138770665973425,0,0.16884547844529152,0],[-0.9484237721189857,0,-0.340648568700999,0,0.3537258976139128,0,0.5084619130939245,0],[0.17298580426722765,0,0.21607795963063836,0,-0.06074928352609277,0,-0.5768459071405232,0],[-0.48610223922878504,0,0.8960128710605204,0,-0.7718110382556915,0,-0.7518456885591149,0],[-0.42404253873974085,0,0.21793872257694602,0,-0.0711626778356731,0,-0.9648427627980709,0],[0.6932494943030179,0,-0.24366598902270198,0,-0.7965432312339544,0,0.07229363219812512,0],[0.7301219082437456,0,0.01088914554566145,0,0.005031212233006954,0,-0.5185851436108351,0],[-0.8031064714305103,0,0.3801713502034545,0,-0.4669445315375924,0,0.9473110833205283,0],[0.1727747325785458,0,0.1078270454891026,0,0.5204846011474729,0,0.7934817550703883,0],[0.7884750026278198,0,0.7132195294834673,0,-0.9138712189160287,0,0.32309260312467813,0],[-0.1355905425734818,0,-0.735735422000289,0,-0.2268783189356327,0,0.9053457216359675,0],[-0.1076009045355022,0,0.7896088631823659,0,0.21027494361624122,0,0.7158184200525284,0],[-0.09327996848151088,0,0.970635034609586,0,-0.7954063806682825,0,0.6255460218526423,0],[0.8014593501575291,0,-0.5209419797174633,0,0.3407248994335532,0,0.015536684542894363,0],[-0.03820166131481528,0,-0.8099401420913637,0,0.4857672224752605,0,0.5739004835486412,0],[0.3641375629231334,0,-0.660516981035471,0,0.23519320972263813,0,0.18854240188375115,0],[0.6796379568986595,0,0.11223569931462407,0,-0.20042259385809302,0,-0.21402880223467946,0],[0.7090893862769008,0,-0.4276218502782285,0,-0.6194991949014366,0,-0.17997439019382,0],[0.32116203056648374,0,-0.038572775200009346,0,0.631744874175638,0,0.5420553935691714,0],[0.4993861517868936,0,-0.1988488775677979,0,-0.8296727035194635,0,-0.8235776033252478,0],[0.1118929018266499,0,0.1310547604225576,0,0.03695267345756292,0,-0.9067289009690285,0],[-0.351826807949692,0,-0.012647053226828575,0,0.3964414391666651,0,-0.8326700092293322,0],[0.6017890172079206,0,-0.7317443466745317,0,-0.3636156958527863,0,-0.7975282822735608,0],[0.9394150217995048,0,-0.35010622488334775,0,-0.82722507417202,0,-0.5326926722191274,0],[0.21630039811134338,0,-0.680951826274395,0,-0.5451910393312573,0,-0.09961730008944869,0],[0.21005364041775465,0,-0.27211331157013774,0,0.17759367171674967,0,0.2032781452871859,0],[-0.5502596739679575,0,-0.14374576602131128,0,-0.7076451126486063,0,0.8066780809313059,0],[0.8833426386117935,0,-0.998629932757467,0,0.2493613064289093,0,-0.41201148042455316,0],[0.7679162523709238,0,-0.9196951515041292,0,0.5729173123836517,0,0.12747844960540533,0],[-0.38217078195884824,0,0.022243344224989414,0,-0.39366443967446685,0,0.17790690436959267,0],[0.5823009992018342,0,-0.7867977148853242,0,0.7981315013021231,0,0.7681295941583812,0],[-0.3999641723930836,0,-0.6290135877206922,0,-0.06718096975237131,0,-0.7550438069738448,0],[-0.919999121222645,0,0.38421745924279094,0,-0.14477713126689196,0,0.4534588437527418,0],[0.7681096829473972,0,0.8069011969491839,0,-0.6140430863015354,0,-0.7620733729563653,0],[0.9957008678466082,0,0.8468721653334796,0,0.2467629578895867,0,0.9814220941625535,0],[0.4278305754996836,0,0.23981816973537207,0,-0.2790695670992136,0,0.20570589555427432,0],[0.6313208905048668,0,0.8031586352735758,0,0.7572307507507503,0,-0.5940910456702113,0],[0.6709166653454304,0,-0.6172964288853109,0,-0.7471354873850942,0,0.5209813117980957,0],[0.36212021252140403,0,-0.22528358781710267,0,-0.06964200921356678,0,0.04868863755837083,0],[-0.26831686589866877,0,-0.9979276210069656,0,-0.5488050123676658,0,-0.2692865519784391,0],[0.5242543485946953,0,-0.9998557181097567,0,-0.6232220497913659,0,-0.699600413441658,0],[-0.38672366132959723,0,0.9808899480849504,0,-0.39231801545247436,0,-0.46062695095315576,0],[-0.9985174830071628,0,-0.919013942591846,0,0.8580615622922778,0,0.64846982806921,0],[0.6618377203121781,0,-0.7286827233619988,0,-0.024338049814105034,0,0.8998208059929311,0],[-0.985346304718405,0,-0.3328759237192571,0,0.12531864922493696,0,-0.22770954109728336,0],[0.5554673015139997,0,-0.7934317565523088,0,-0.07949568703770638,0,-0.927039994392544,0],[-0.10467558773234487,0,-0.8842285661958158,0,0.4074309435673058,0,0.6533496300689876,0],[-0.5190334795042872,0,-0.7081484096124768,0,-0.032590075861662626,0,0.6194945550523698,0],[0.18173264479264617,0,0.43135902704671025,0,-0.27191235357895494,0,-0.4148756987415254,0],[-0.35402200650423765,0,0.25277523044496775,0,0.5031867492944002,0,-0.18878644984215498,0],[-0.05956896720454097,0,0.36136279720813036,0,0.229296431876719,0,0.42914359038695693,0],[0.7060039839707315,0,0.40519973263144493,0,-0.9144933745265007,0,-0.17041916633024812,0],[-0.19331326289102435,0,0.8937685010023415,0,0.3227159436792135,0,-0.8809795822016895,0],[0.52195432363078,0,-0.8545554187148809,0,-0.22072749538347125,0,0.5412092669866979,0],[-0.934197187423706,0,0.88178301602602,0,-0.3423090470023453,0,0.7992857964709401,0],[-0.19610045617446303,0,0.4663211163133383,0,0.08115958608686924,0,0.1029589450918138,0],[-0.4498370345681906,0,-0.010788197629153728,0,-0.45092379162088037,0,0.8581170905381441,0],[-0.9422155045904219,0,-0.24890160514041781,0,0.36560439597815275,0,0.2953919265419245,0],[0.5741082951426506,0,0.21462834859266877,0,0.8658047653734684,0,0.8858992960304022,0],[0.6054865862242877,0,-0.0801720842719078,0,0.03128535859286785,0,-0.2698234315030277,0],[0.9753428250551224,0,0.9848531745374203,0,-0.2153169116936624,0,0.9212219770997763,0],[-0.40642563439905643,0,0.5865840371698141,0,-0.73970270389691,0,0.9226294602267444,0],[0.5415507056750357,0,-0.34183630999177694,0,0.1844132482074201,0,-0.6243534828536212,0],[0.9975993526168168,0,-0.5888276821933687,0,0.0474568591453135,0,-0.021935164462774992,0],[-0.550746834371239,0,-0.1530692079104483,0,0.04623086890205741,0,-0.018722043372690678,0],[0.5596171705983579,0,0.6866439962759614,0,-0.967625874094665,0,-0.5384560022503138,0],[0.7335369437932968,0,-0.4481088235042989,0,0.7874409430660307,0,0.24352599075064063,0],[0.2723546475172043,0,-0.48397835344076157,0,-0.43779725022614,0,0.7935348362661898,0],[0.80011136084795,0,-0.8229915597476065,0,-0.8383887917734683,0,0.3998741740360856,0],[-0.9335387428291142,0,-0.8893730831332505,0,0.8186274850741029,0,-0.8000684170983732,0],[0.09955923305824399,0,-0.5944248912855983,0,0.6322604194283485,0,0.9824096006341279,0],[0.6588425538502634,0,-0.4485681396909058,0,-0.1557672806084156,0,0.5834068530239165,0],[0.5895250095054507,0,0.46464527677744627,0,-0.18281694129109383,0,0.20452976087108254,0],[-0.5325212003663182,0,0.9651511488482356,0,0.6573519771918654,0,0.4094944433309138,0],[-0.29974005511030555,0,0.5861808881163597,0,-0.37761326925829053,0,0.4942907392978668,0],[0.13871271023526788,0,-0.6320852595381439,0,-0.19117102399468422,0,-0.060255544260144234,0],[-0.7439037011936307,0,0.9504306544549763,0,0.5574398222379386,0,-0.3573133274912834,0],[0.019020143896341324,0,0.5937433484941721,0,-0.5979884113185108,0,0.6406168532557786,0],[0.8010598700493574,0,0.14267769595608115,0,0.9716879767365754,0,-0.7937170108780265,0],[-0.7034282237291336,0,0.1868239319883287,0,0.9107373049482703,0,0.2931568128988147,0],[-0.9580354210920632,0,0.7320349109359086,0,0.8072040476836264,0,0.2071617920883,0],[-0.9957393617369235,0,0.8979323906823993,0,0.49675205210223794,0,0.13028094731271267,0],[-0.6816237848252058,0,-0.8374438462778926,0,-0.1342687364667654,0,-0.24396921880543232,0],[0.6509413798339665,0,0.7787356399931014,0,-0.5189817948266864,0,0.9085524366237223,0],[-0.8906841543503106,0,0.656304975040257,0,-0.6496630511246622,0,0.7480866182595491,0],[-0.7599769374355674,0,-0.14684739708900452,0,0.4932942013256252,0,-0.6175916353240609,0],[0.881542936898768,0,0.12126982165500522,0,-0.7534148329868913,0,0.8273259298875928,0],[0.7251318469643593,0,0.1613112878985703,0,0.5098218084312975,0,0.37706194818019867,0],[0.9277464537881315,0,-0.765183821786195,0,0.5454545640386641,0,0.845325049944222,0],[-0.4581661503762007,0,-0.3203978822566569,0,0.9560651751235127,0,-0.020272393245249987,0],[0.6520805130712688,0,0.7769783907569945,0,0.11360790999606252,0,-0.19443851569667459,0],[-0.3571436181664467,0,-0.9840700719505548,0,0.7378353038802743,0,0.47417640406638384,0],[-0.6218893928453326,0,0.24793767277151346,0,0.18075561709702015,0,0.48297531995922327,0],[-0.3141097114421427,0,-0.09369759308174253,0,0.1792603307403624,0,0.5965789617039263,0],[-0.08613147772848606,0,0.17220599297434092,0,0.3878727965056896,0,0.05328353168442845,0],[0.34283600049093366,0,0.9321514694020152,0,0.9689308456145227,0,0.2622814388014376,0],[-0.2571916375309229,0,0.7424485003575683,0,-0.37296488834545016,0,0.46386501006782055,0],[-0.11352525372058153,0,-0.4930316819809377,0,-0.7243640520609915,0,-0.27574752923101187,0],[0.3934234594926238,0,0.4444372784346342,0,-0.8425761861726642,0,-0.34151197178289294,0],[-0.3462687865830958,0,-0.6419668570160866,0,0.9475224316120148,0,0.027580844704061747,0],[0.12305185291916132,0,0.6068477197550237,0,-0.3139236429706216,0,-0.8044132380746305,0],[0.785439683124423,0,0.1759108924306929,0,0.10633934428915381,0,0.3601034553721547,0],[-0.8668324491009116,0,-0.3007875052280724,0,-0.7298009553924203,0,-0.3681389377452433,0],[-0.16529545933008194,0,0.9467853750102222,0,-0.9442657851614058,0,0.6923127714544535,0],[-0.5009361719712615,0,-0.5699269738979638,0,-0.7681622747331858,0,0.17541430797427893,0],[0.14489934872835875,0,-0.912639198359102,0,-0.3659693617373705,0,-0.623374832328409,0],[0.27068066503852606,0,0.18552802642807364,0,-0.5176131604239345,0,0.5343065001070499,0],[-0.766460448037833,0,0.7357273939996958,0,-0.500422032084316,0,0.22521093441173434,0],[0.488165476359427,0,-0.9438919024541974,0,-0.883288661018014,0,-0.40012754313647747,0],[-0.20465841703116894,0,-0.009406337980180979,0,-0.8701551053673029,0,0.2548309722915292,0],[-0.6053866939619184,0,0.06176361860707402,0,-0.48986676847562194,0,0.15634378278627992,0],[0.2984927701763809,0,-0.7436197944916785,0,-0.5366416913457215,0,-0.023909630719572306,0],[0.8999343262985349,0,-0.28812948800623417,0,0.7684163670055568,0,0.1764971506781876,0],[0.09095046343281865,0,0.1424097502604127,0,-0.5239075156860054,0,-0.9107959293760359,0],[0.4399035554379225,0,-0.622797179967165,0,0.11485645081847906,0,-0.00001221662387251854,0],[0.27728991862386465,0,-0.07346679922193289,0,-0.632455441635102,0,0.7309158542193472,0],[0.45274118334054947,0,0.3740061381831765,0,-0.016429901123046875,0,0.753360575530678,0],[0.029072985984385014,0,-0.8852077685296535,0,0.32117723301053047,0,0.601212271489203,0],[-0.5871260352432728,0,-0.9741762857884169,0,-0.09076514793559909,0,0.087132110260427,0],[-0.7534511289559305,0,-0.29757434083148837,0,-0.053981087636202574,0,0.1018789829686284,0],[0.6006938279606402,0,-0.4071421572007239,0,-0.189387580845505,0,0.7642962723039091,0],[-0.6601303960196674,0,-0.9613758749328554,0,0.8461608905345201,0,0.40873305685818195,0],[0.41754317563027143,0,0.43160930182784796,0,-0.2114240350201726,0,0.7035754173994064,0],[-0.24579072650521994,0,-0.7136500240303576,0,-0.4724349332973361,0,-0.20075397985056043,0],[0.6041241004131734,0,-0.45317033026367426,0,0.32127958070486784,0,-0.3024083594791591,0],[-0.09329518489539623,0,0.12904230365529656,0,-0.26730314129963517,0,-0.8519648471847177,0],[0.40151462564244866,0,-0.12719326047226787,0,-0.7547870296984911,0,0.40914310421794653,0],[0.6146809491328895,0,0.19658563984557986,0,-0.41376216104254127,0,0.8761433996260166,0],[0.08027985086664557,0,0.7425170601345599,0,0.8363392166793346,0,0.6242199745029211,0],[-0.8135654502548277,0,-0.8531962893903255,0,-0.6625284384936094,0,0.9516194188036025,0],[-0.8351577497087419,0,0.841858756262809,0,0.0033012516796588898,0,-0.6304756090976298,0],[0.44172573275864124,0,-0.6192840682342649,0,-0.1734282555989921,0,-0.899854423943907,0],[0.03620612807571888,0,0.5858296263031662,0,-0.4180022897198796,0,-0.8073013829998672,0],[0.14990662643685937,0,-0.7565428735688329,0,0.14292006567120552,0,0.7197868651710451,0],[-0.31482929131016135,0,0.6369848381727934,0,-0.6436952608637512,0,-0.982432103715837,0],[0.6315354537218809,0,-0.6488031456246972,0,0.30712606105953455,0,-0.547821435611695,0],[-0.3394834380596876,0,-0.622875380795449,0,-0.38130412716418505,0,0.4030291847884655,0],[0.07397024240344763,0,0.4321823278442025,0,-0.2695382130332291,0,0.38489472959190607,0],[0.165378472302109,0,-0.11502040037885308,0,0.37784472154453397,0,0.08889812557026744,0],[0.5572249460965395,0,0.47488004714250565,0,-0.8222348215058446,0,-0.5696543240919709,0],[-0.6754020191729069,0,-0.29667307576164603,0,0.13954320596531034,0,0.20377644430845976,0],[0.31324556190520525,0,0.33473729295656085,0,-0.44489871244877577,0,0.11398586677387357,0],[-0.12217500433325768,0,-0.40494155045598745,0,-0.24030761513859034,0,0.32975722569972277,0],[0.6436182395555079,0,-0.7091633081436157,0,-0.5772758461534977,0,-0.05577972996979952,0],[-0.8774377349764109,0,0.2188568077981472,0,0.950042056851089,0,-0.5629587266594172,0],[0.3618336603976786,0,-0.2433947124518454,0,-0.7547945883125067,0,0.23739767540246248,0],[-0.5236381702125072,0,0.692184925545007,0,-0.0566151374951005,0,0.28070831997320056,0],[0.554882830940187,0,-0.6893014335073531,0,0.1960811847820878,0,0.3001690716482699,0],[-0.20124409860000014,0,0.22423752956092358,0,0.5874701230786741,0,0.5837695524096489,0],[-0.5113864596933126,0,-0.5704101198352873,0,0.7247519823722541,0,-0.7807416059076786,0],[-0.7962054554373026,0,0.4749079458415508,0,0.05510878982022405,0,-0.03462185291573405,0],[0.027684095315635204,0,0.8251089178957045,0,0.3740789438597858,0,0.7845199974253774,0],[0.3809032835997641,0,0.9409018405713141,0,-0.41795471822842956,0,-0.4776164023205638,0],[0.8028575405478477,0,-0.8496203613467515,0,-0.9188098227605224,0,-0.5910181757062674,0],[-0.916333588771522,0,-0.7917548702098429,0,0.3201110092923045,0,-0.19333145255222917,0],[-0.9212465872988105,0,0.701365964487195,0,0.7086220062337816,0,-0.1188549785874784,0],[-0.7583746029995382,0,0.19085093960165977,0,-0.658574047498405,0,-0.9600694444961846,0],[0.9648724356666207,0,-0.7595311971381307,0,-0.8369645359925926,0,0.34819903410971165,0],[0.1329183941707015,0,-0.2988842143677175,0,0.8202248024754226,0,0.3622754914686084,0],[0.3675511567853391,0,0.5735603030771017,0,-0.08174877893179655,0,-0.2299806079827249,0],[-0.48944491939619184,0,-0.39674433739855886,0,-0.42654115054756403,0,-0.525569626595825,0],[0.21178069012239575,0,0.9768143314868212,0,0.910333760548383,0,0.28813130501657724,0],[-0.6912219864316285,0,0.5234434995800257,0,-0.5922257737256587,0,-0.1230653584934771,0],[0.20226242020726204,0,0.9153520166873932,0,0.9688002089969814,0,-0.1125157973729074,0],[-0.6951838857494295,0,0.19630909245461226,0,-0.821958836633712,0,0.8379210536368191,0],[-0.5354779246263206,0,-0.6229334305971861,0,-0.248296189121902,0,0.35285887168720365,0],[-0.38293825509026647,0,-0.4620166327804327,0,-0.36884565744549036,0,0.24689827300608158,0],[0.12771784700453281,0,-0.29069916624575853,0,-0.5681921816430986,0,-0.9235975570045412,0],[-0.8997032176703215,0,0.7546333433128893,0,0.7858021850697696,0,-0.5099896220490336,0],[0.25296958861872554,0,-0.3821119931526482,0,0.5666019227355719,0,-0.7374922293238342,0],[-0.2352895843796432,0,-0.030010500457137823,0,0.8485227250494063,0,0.49200862599536777,0],[0.3782219518907368,0,-0.7711878274567425,0,0.11736432556062937,0,-0.780748819001019,0],[0.3374696779064834,0,-0.4222219670191407,0,0.30748702632263303,0,-0.5382513287477195,0],[-0.40151110012084246,0,-0.039064271841198206,0,-0.4921221127733588,0,-0.5318334884941578,0],[-0.0760977272875607,0,0.02069145441055298,0,0.5062826578505337,0,-0.5369925736449659,0],[0.5175028601661325,0,-0.45396781899034977,0,0.12534986389800906,0,-0.4009384149685502,0],[-0.234691197052598,0,-0.03795196441933513,0,-0.13968606432899833,0,-0.8158165849745274,0],[-0.8897211691364646,0,0.9961348082870245,0,0.7577463570050895,0,0.055041203275322914,0],[0.837769906502217,0,0.22371434047818184,0,-0.3239497235044837,0,0.3196178008802235,0],[-0.7065158127807081,0,-0.29172120383009315,0,0.7486309711821377,0,-0.48308742325752974,0],[-0.8302861680276692,0,-0.6134025175124407,0,0.0738145848736167,0,0.24526807153597474,0],[-0.1406416716054082,0,0.11549852229654789,0,-0.4338384182192385,0,-0.2663729232735932,0],[-0.8854026775807142,0,0.47472534189000726,0,-0.4308507274836302,0,0.8102937093935907,0],[0.4841339732520282,0,0.21561247343197465,0,0.35844582226127386,0,-0.7617030083201826,0],[-0.7867583106271923,0,0.7933270139619708,0,0.6116048106923699,0,-0.8551859110593796,0],[-0.3245750283822417,0,-0.9947209898382425,0,0.8249935661442578,0,-0.42043130099773407,0],[0.04177426407113671,0,0.6295615155249834,0,-0.19205949967727065,0,-0.8560915952548385,0],[0.8612510361708701,0,0.05549681792035699,0,-0.768630662932992,0,-0.29371218662709,0],[-0.6311040315777063,0,-0.7940657581202686,0,-0.5874241953715682,0,0.64203224144876,0],[0.2680545784533024,0,0.5805819486267865,0,-0.7353255725465715,0,-0.6383507731370628,0],[0.5021336590871215,0,0.32392008090391755,0,-0.07837545312941074,0,-0.12189687322825193,0],[0.8391132969409227,0,0.8502813228406012,0,0.7990970322862267,0,0.9299475587904453,0],[-0.03041148465126753,0,0.8087261873297393,0,0.48278526309877634,0,0.23630509292706847,0],[0.4431357514113188,0,0.38943420723080635,0,0.1506655258126557,0,-0.6210952727124095,0],[-0.8770241569727659,0,-0.13167143240571022,0,-0.3884847373701632,0,0.3292550961486995,0],[-0.4595126612111926,0,-0.5826558880507946,0,0.9830546285957098,0,-0.2962421774864197,0],[0.31786613492295146,0,0.5393918249756098,0,0.8725103791803122,0,-0.29279680410400033,0],[-0.5594158796593547,0,-0.4610537840053439,0,0.7296173018403351,0,-0.5024818447418511,0],[-0.9995117033831775,0,0.6670444956980646,0,-0.38808613549917936,0,-0.4775294652208686,0],[-0.8188193356618285,0,-0.05163496686145663,0,-0.6864446857944131,0,-0.16006510565057397,0],[-0.39001892507076263,0,-0.6763582704588771,0,-0.5095321852713823,0,0.7677083169110119,0],[-0.013966667465865612,0,0.6384592414833605,0,0.9044042364694178,0,0.894828949123621,0],[-0.5987952668219805,0,0.13455899199470878,0,-0.03171507362276316,0,0.6081007178872824,0],[0.3669873639009893,0,0.32553134486079216,0,-0.6090004071593285,0,-0.744965014513582,0],[-0.7202942240983248,0,0.05182025767862797,0,-0.12729842076078057,0,-0.24641881650313735,0],[0.9257859289646149,0,0.3956617754884064,0,-0.651678366586566,0,0.7070806948468089,0],[-0.9843927612528205,0,0.15521492715924978,0,-0.3329114764928818,0,-0.5325873638503253,0],[-0.5787840457633138,0,-0.7736530830152333,0,0.07525396905839443,0,0.5493955677375197,0],[-0.4261623742058873,0,0.9877126105129719,0,0.5097629893571138,0,0.6074347128160298,0],[0.8073381702415645,0,0.9606148335151374,0,0.8260671608150005,0,0.6183620919473469,0],[-0.024144276976585388,0,0.6213916237466037,0,-0.7752650519832969,0,-0.2607847391627729,0],[-0.7916759243234992,0,-0.9876173273660243,0,-0.7674496090039611,0,0.6060097781009972,0],[-0.22468827618286014,0,-0.5698927971534431,0,0.005965691525489092,0,0.18831738457083702,0],[-0.5908020338974893,0,-0.5646404167637229,0,0.84335508197546,0,0.1004475699737668,0],[-0.3827183344401419,0,-0.35010280879214406,0,-0.08050748193636537,0,0.6548267109319568,0],[-0.4938292936421931,0,0.4333899118937552,0,0.48386333510279655,0,-0.2112205154262483,0],[0.48223029216751456,0,0.05369352921843529,0,-0.6602059709839523,0,0.33097454346716404,0],[0.9235556442290545,0,-0.5699291499331594,0,-0.2315818527713418,0,0.795116389170289,0],[-0.28414099710062146,0,-0.06960573932155967,0,0.8687348840758204,0,0.062022318597882986,0],[0.43068100791424513,0,-0.9918055715970695,0,-0.12734030652791262,0,-0.816195547580719,0],[-0.4144815471954644,0,-0.0928373085334897,0,0.7413641149178147,0,-0.4024574584327638,0],[-0.22408674098551273,0,0.7683779611252248,0,-0.22382389521226287,0,0.3924522283487022,0],[-0.2704953905194998,0,-0.9133206219412386,0,-0.052907977253198624,0,0.611294677015394,0],[0.16877175122499466,0,0.5440803524106741,0,-0.8248418522998691,0,-0.45986956683918834,0],[-0.34145643655210733,0,0.8757198732346296,0,0.3845340684056282,0,0.9082027659751475,0],[-0.07586487336084247,0,0.3258169563487172,0,-0.8289662320166826,0,0.1486774981021881,0],[-0.3231966500170529,0,0.10045938426628709,0,0.6861098655499518,0,-0.29679356468841434,0],[0.755038873758167,0,0.9003529413603246,0,-0.8215860310010612,0,0.9807047252543271,0],[0.41932712169364095,0,-0.5075749303214252,0,-0.9102795254439116,0,0.06392047740519047,0],[0.18169077159836888,0,0.41584494058042765,0,0.44306769222021103,0,-0.3487501787021756,0],[-0.28966242633759975,0,0.8166948365978897,0,0.37477605463936925,0,0.5839412426576018,0],[-0.618974169716239,0,0.41862288350239396,0,0.40806545317173004,0,0.8665572521276772,0],[0.18397925328463316,0,-0.9309469177387655,0,0.31101455772295594,0,-0.6899721072986722,0],[0.6962301060557365,0,0.34296636283397675,0,-0.6580277062021196,0,-0.18299722438678145,0],[-0.8966481825336814,0,-0.5287308129481971,0,0.41229785047471523,0,0.8125664312392473,0],[0.45168476132676005,0,0.6002996070310473,0,0.16218322003260255,0,-0.05027914512902498,0],[0.7294397843070328,0,-0.4791592857800424,0,-0.7596857594326138,0,-0.07607259880751371,0],[-0.3216614774428308,0,-0.40677308617159724,0,0.7117880154401064,0,-0.7112878342159092,0],[0.12750644236803055,0,0.653878090903163,0,-0.9775704746134579,0,-0.8983301958069205,0],[-0.723863385617733,0,0.8124729334376752,0,-0.42279959050938487,0,-0.01591997593641281,0],[-0.2675946499221027,0,0.5070277634076774,0,-0.20971832145005465,0,0.23167113168165088,0],[-0.7912159445695579,0,-0.20682008704170585,0,-0.87492415914312,0,-0.7931602741591632,0],[0.5404928736388683,0,-0.6167584462091327,0,-0.7459004004485905,0,-0.0577741046436131,0],[-0.19561393791809678,0,-0.013782985042780638,0,-0.33240991411730647,0,-0.2149192150682211,0],[0.7792939366772771,0,0.9983735252171755,0,0.7678343378938735,0,0.7764171385206282,0],[-0.7281820317730308,0,-0.18539070477709174,0,-0.691698812879622,0,0.5842693382874131,0],[0.3330817627720535,0,0.6329322271049023,0,-0.6301444522105157,0,0.19372080033645034,0],[0.632547655608505,0,0.22102471627295017,0,0.12754981173202395,0,0.9138166233897209,0],[0.7867153505794704,0,-0.7602618020027876,0,0.2873705020174384,0,-0.12233773153275251,0],[-0.8659333386458457,0,-0.4030236485414207,0,0.5447150194086134,0,-0.019000406842678785,0],[0.84325798926875,0,0.997931498568505,0,-0.13659015204757452,0,-0.34408267168328166,0],[-0.01589624909684062,0,-0.6638721041381359,0,0.09096211614087224,0,-0.09191846894100308,0],[0.07820282783359289,0,0.13431708933785558,0,-0.16468435199931264,0,0.23987033870071173,0],[-0.7714169719256461,0,-0.8488598484545946,0,0.39583922550082207,0,0.47820221027359366,0],[0.4740570727735758,0,0.3781050918623805,0,-0.5886088837869465,0,-0.5004746001213789,0],[0.8800880326889455,0,0.2714209044352174,0,0.5458921948447824,0,0.10496927797794342,0],[-0.4913804540410638,0,0.7524834559299052,0,0.4701492451131344,0,0.6574644139036536,0],[0.7809852533973753,0,-0.6453646998852491,0,-0.5888637010939419,0,-0.6894323457963765,0],[0.7618536003865302,0,0.728112097363919,0,-0.7409854317083955,0,-0.3197266338393092,0],[0.40020722104236484,0,0.9270679634064436,0,0.8819023496471345,0,-0.5687313294038177,0],[-0.7737156292423606,0,-0.15259886672720313,0,0.7669158210046589,0,-0.13452380057424307,0],[0.9057749221101403,0,0.05227124923840165,0,-0.19397074868902564,0,0.2693637302145362,0],[-0.37065848149359226,0,0.8525400194339454,0,0.7036128914915025,0,-0.36731273774057627,0],[0.03603036142885685,0,-0.799293264746666,0,-0.03796865185722709,0,0.02991042658686638,0],[0.5082721775397658,0,-0.14787997212260962,0,-0.39196944748982787,0,0.3345737745985389,0],[0.38255425821989775,0,0.23140490241348743,0,-0.9477576948702335,0,-0.3337406315840781,0],[0.10340649075806141,0,-0.4795936862938106,0,-0.13543356768786907,0,0.24700103513896465,0],[0.7504082727245986,0,0.5682842000387609,0,0.38839724427089095,0,0.8073189021088183,0],[-0.4945357539691031,0,-0.9077432760968804,0,0.7705755652859807,0,0.015030715614557266,0],[0.7411012430675328,0,-0.5547689371742308,0,-0.52566286502406,0,-0.47285249130800366,0],[0.32341114804148674,0,0.5398148708045483,0,0.4504409390501678,0,-0.38760193483904004,0],[0.3845299053937197,0,-0.14102913113310933,0,0.9048685422167182,0,-0.2606649696826935,0],[0.37388128181919456,0,-0.3065026509575546,0,-0.24575121002271771,0,0.11991138197481632,0],[0.06878402270376682,0,0.577269115485251,0,0.42557734716683626,0,0.1641268040984869,0],[-0.8277948624454439,0,0.039403701201081276,0,0.8318401742726564,0,-0.6612908923998475,0],[0.19379439437761903,0,0.15736450674012303,0,0.0068152667954564095,0,0.8416752903722227,0],[0.1467984183691442,0,0.9624935518950224,0,0.05250052735209465,0,0.004228182137012482,0],[-0.5875358614139259,0,0.21581988595426083,0,-0.03680868959054351,0,0.8064845856279135,0],[0.6091951229609549,0,-0.7662649643607438,0,0.24191620480269194,0,0.2838013805449009,0],[0.7729060407727957,0,0.8679241822101176,0,0.6827451135031879,0,-0.6788422968238592,0],[-0.8222405649721622,0,0.829837491735816,0,0.9906930783763528,0,0.8123526922427118,0],[0.3822712074033916,0,-0.23593370988965034,0,-0.8224243866279721,0,-0.20491846790537238,0],[-0.170155790168792,0,0.27809143951162696,0,0.0991139505058527,0,0.644444971345365,0],[0.4224915546365082,0,0.1392298759892583,0,0.409654030110687,0,0.8104715337976813,0],[-0.6327341166324914,0,-0.45968423038721085,0,-0.1966754705645144,0,0.21706440346315503,0],[-0.9249614435248077,0,0.0375107959844172,0,0.41821785271167755,0,0.4570294660516083,0],[0.49696399830281734,0,0.18977997405454516,0,-0.8020691322162747,0,0.28303083777427673,0],[-0.43526696134358644,0,-0.9866971713490784,0,0.3401965657249093,0,-0.7096977080218494,0],[-0.4207245516590774,0,0.31621712958440185,0,-0.026451266836374998,0,0.992330830078572,0],[0.6866751965135336,0,0.03771667694672942,0,-0.39246387779712677,0,-0.2571588698774576,0],[-0.6036015502177179,0,0.5414945278316736,0,-0.8585517187602818,0,0.31456248881295323,0],[0.4354892959818244,0,0.720529587008059,0,-0.7103009913116693,0,-0.7223753007128835,0],[-0.4163097282871604,0,0.286926600150764,0,0.07531970785930753,0,0.796885690651834,0],[-0.46086271200329065,0,0.45367197366431355,0,-0.3923762463964522,0,0.2770467479713261,0],[0.3800821672193706,0,0.2094682427123189,0,-0.7337225042283535,0,0.3952894452959299,0],[0.4727106629870832,0,0.9819780373945832,0,-0.07742034178227186,0,0.603355367667973,0],[-0.8264367626979947,0,0.09251572098582983,0,0.9998513157479465,0,-0.9353744620457292,0],[-0.45980352628976107,0,0.18538597971200943,0,-0.3942520930431783,0,0.46458287443965673,0],[0.8458606358617544,0,-0.5824940809980035,0,0.6018052436411381,0,-0.243777041323483,0],[0.3414344429038465,0,0.034005175810307264,0,-0.5216346606612206,0,0.46433599991723895,0],[-0.8144532833248377,0,-0.6512936558574438,0,0.4556739814579487,0,-0.05897092865779996,0],[-0.863556956872344,0,0.8323365254327655,0,-0.5965920547023416,0,0.4070987799204886,0],[-0.4247695836238563,0,0.8786484012380242,0,-0.3833289472386241,0,0.15632378263399005,0],[0.6070288848131895,0,0.2959515042603016,0,0.8667015316896141,0,-0.5014324248768389,0],[-0.1406691293232143,0,-0.0927600827999413,0,-0.4852506201714277,0,-0.7972920192405581,0],[0.34253315767273307,0,-0.4632672071456909,0,-0.3331104195676744,0,0.08847408602014184,0],[-0.3327089655213058,0,0.6553224003873765,0,0.21882831491529942,0,-0.016763750929385424,0],[0.8548337663523853,0,-0.6289116214029491,0,-0.46256673289462924,0,-0.3357033249922097,0],[0.4098585620522499,0,0.8604584289714694,0,-0.18154191551730037,0,0.34192563965916634,0],[0.9737031906843185,0,0.06662047514691949,0,0.9434917862527072,0,0.6156372423283756,0],[-0.7856249660253525,0,-0.4684230829589069,0,0.1340587455779314,0,0.8034330210648477,0],[0.6132482048124075,0,-0.7394620580598712,0,-0.608795658685267,0,-0.7202564915642142,0],[0.7868073368445039,0,-0.9852982559241354,0,0.8902873620390892,0,0.34244810603559017,0],[0.8007900598458946,0,0.9924374553374946,0,0.8690838231705129,0,-0.3442830378189683,0],[0.08212927263230085,0,0.558153610676527,0,0.5053408397361636,0,-0.37127454997971654,0],[0.044236688409000635,0,0.6492118751630187,0,0.655003025662154,0,-0.6174575770273805,0],[0.7389525668695569,0,-0.9299730705097318,0,-0.8047713786363602,0,-0.8234019102528691,0],[-0.3959055067971349,0,0.07036542659625411,0,0.8734538303688169,0,0.8152415500953794,0],[-0.34682031301781535,0,-0.4965008618310094,0,0.33578429697081447,0,-0.4560116226784885,0],[0.24576149601489305,0,0.9128433088771999,0,-0.7461628606542945,0,-0.7412912580184639,0],[0.1109699816443026,0,-0.017763708718121052,0,0.8888057977892458,0,-0.7125482219271362,0],[0.05870511895045638,0,-0.09675857331603765,0,-0.5967961861751974,0,-0.919010691344738,0],[-0.005793520715087652,0,-0.1033744141459465,0,-0.6485231081023812,0,-0.7395769925788045,0],[0.6693903561681509,0,0.2962877880781889,0,-0.8423488740809262,0,-0.806411923840642,0],[0.06404784508049488,0,-0.8134842705912888,0,0.9424122250638902,0,0.29490405693650246,0],[-0.3268708158284426,0,0.3389108572155237,0,0.47141536232084036,0,-0.4548550001345575,0],[0.08004165068268776,0,-0.835118968039751,0,-0.8434989075176418,0,0.7116901483386755,0],[0.05168159585446119,0,0.18080849573016167,0,0.707064367365092,0,0.271841028239578,0],[0.02593304542824626,0,-0.875332691706717,0,-0.6748548219911754,0,0.21341318497434258,0],[0.16342024970799685,0,0.9842359153553843,0,-0.4311877037398517,0,-0.6241332669742405,0],[-0.9916807455010712,0,0.7850562608800828,0,0.31662757555022836,0,-0.022622003220021725,0],[-0.604538292158395,0,0.8533347877673805,0,-0.39636078756302595,0,0.4518865616992116,0],[-0.16032239515334368,0,-0.8126374003477395,0,-0.4819181556813419,0,-0.6808145432732999,0],[-0.5093473307788372,0,0.11230532312765718,0,-0.9983942857943475,0,0.9137814580462873,0],[0.47271181689575315,0,0.9389555142261088,0,0.8028870518319309,0,-0.7816850543022156,0],[0.12613331293687224,0,-0.3205697597004473,0,-0.9721369184553623,0,0.7883152300491929,0],[0.26919799856841564,0,-0.8850811957381666,0,0.4793400694616139,0,0.19229712150990963,0],[0.7807485307566822,0,-0.957417487166822,0,-0.9549046843312681,0,-0.17893873946741223,0],[-0.8124082535505295,0,0.8105678241699934,0,-0.4640587419271469,0,-0.2831815052777529,0],[-0.157729750033468,0,-0.9205531007610261,0,0.791817641351372,0,-0.6110061868093908,0],[-0.2562254914082587,0,0.4830954768694937,0,-0.9023457099683583,0,0.3526354362256825,0],[0.5071031064726412,0,-0.5032188449986279,0,-0.7239735326729715,0,0.5044498634524643,0],[0.26295965164899826,0,-0.4454817343503237,0,-0.5013659694232047,0,-0.4153902027755976,0],[0.10202850634232163,0,0.5429148310795426,0,0.9900406734086573,0,-0.5117749124765396,0],[-0.31243489449843764,0,-0.25810857582837343,0,0.41046603163704276,0,-0.6620421512052417,0],[-0.7494987156242132,0,0.45429212925955653,0,0.9588772733695805,0,-0.5006075045093894,0],[0.802064707968384,0,0.17865087743848562,0,-0.2583690877072513,0,0.4132065922021866,0],[0.22320306580513716,0,0.6352089601568878,0,-0.279554380569607,0,-0.04879855690523982,0],[-0.3959893281571567,0,0.33454452408477664,0,0.8479148843325675,0,0.883045359980315,0],[-0.8425010736100376,0,0.011348973028361797,0,-0.6263999254442751,0,0.8899092469364405,0],[-0.6675810175947845,0,-0.8530537053011358,0,-0.25180454505607486,0,-0.586135177873075,0],[-0.39134718012064695,0,0.389560726005584,0,-0.4091415349394083,0,-0.6346899028867483,0],[0.674248737283051,0,0.9914277335628867,0,0.431417896412313,0,0.9297646433115005,0],[0.5211660205386579,0,-0.8485073819756508,0,0.05388613138347864,0,0.17515460774302483,0],[-0.9235422536730766,0,0.28339005587622523,0,-0.662054241169244,0,-0.9243101845495403,0],[0.10879950225353241,0,0.19872486824169755,0,-0.6830930979922414,0,-0.6095764497295022,0],[-0.31856476701796055,0,0.37267538672313094,0,0.9049671716056764,0,0.11313568986952305,0],[-0.8022969691082835,0,0.6368930391035974,0,0.38391337310895324,0,-0.17192032979801297,0],[-0.31954380916431546,0,0.46246054908260703,0,-0.44746223744004965,0,-0.4140541646629572,0],[0.7929728501476347,0,-0.5339104095473886,0,0.9198871566914022,0,-0.42585910204797983,0],[-0.49597929138690233,0,0.399591984692961,0,0.4219025303609669,0,0.4516330515034497,0],[-0.3451266288757324,0,0.49103551590815187,0,-0.0781912449747324,0,0.6646794714033604,0],[-0.5123836598359048,0,0.30454591382294893,0,0.5082818511873484,0,0.20746929571032524,0],[-0.8056221990846097,0,0.2979031400755048,0,-0.722392164170742,0,0.7495078281499445,0],[0.26566119538620114,0,0.5564473541453481,0,-0.9505375195294619,0,-0.849587554577738,0],[-0.7105931295081973,0,-0.5971977463923395,0,0.2180987480096519,0,0.8081319746561348,0],[0.6538855889812112,0,-0.9272419190965593,0,-0.7795876772142947,0,0.5397143540903926,0],[-0.6935630198568106,0,-0.4848045217804611,0,0.515165685210377,0,0.01583757484331727,0],[0.4717046618461609,0,0.8920803954824805,0,0.39518977515399456,0,0.5559724546037614,0],[0.5814266675151885,0,-0.5744136874563992,0,-0.99825694039464,0,-0.07129074214026332,0],[0.41720649087801576,0,0.442506265360862,0,0.4504887079820037,0,-0.8329202639870346,0],[-0.8684585662558675,0,-0.6070988867431879,0,0.1932749506086111,0,-0.422726278193295,0],[-0.9338435376994312,0,0.7470847903750837,0,-0.9627903047949076,0,0.562662485986948,0],[-0.9752578767947853,0,-0.8214030060917139,0,-0.056915493216365576,0,0.0032912935130298138,0],[-0.9292751220054924,0,-0.044586833100765944,0,-0.3188976952806115,0,0.34794649574905634,0],[-0.6020715828053653,0,-0.8498230618424714,0,0.1801116205751896,0,0.04812039574608207,0],[0.5088700028136373,0,0.7312633013352752,0,0.15972161991521716,0,-0.4861543853767216,0],[-0.013897444121539593,0,-0.3169505666010082,0,-0.04528145492076874,0,-0.6951465024612844,0],[-0.2032252848148346,0,-0.34864947758615017,0,0.924272587057203,0,0.06653706263750792,0],[-0.7432559090666473,0,0.36932593071833253,0,0.46951349964365363,0,0.4217619812116027,0],[-0.8747878582216799,0,-0.9450409142300487,0,0.9401992661878467,0,0.10762617504224181,0],[0.8309851977974176,0,-0.6746733789332211,0,0.08329311478883028,0,0.493035193067044,0],[0.240176388528198,0,0.8491422198712826,0,0.7444280027411878,0,-0.09629112621769309,0],[-0.7862250013276935,0,0.5983187421225011,0,0.4064363003708422,0,0.8036780590191483,0],[-0.43135882215574384,0,-0.1596567681990564,0,0.09405559301376343,0,0.09220225876197219,0],[0.8434898313134909,0,0.7929930188693106,0,0.37433870788663626,0,0.9096414921805263,0],[-0.14802559511736035,0,0.6529229311272502,0,-0.20210875570774078,0,0.9871622556820512,0],[0.8134499760344625,0,0.9230678793974221,0,-0.5213227919302881,0,-0.03829670650884509,0],[0.25206474168226123,0,-0.9800278884358704,0,-0.7857094649225473,0,-0.3074771645478904,0],[-0.413831387180835,0,-0.5674226270057261,0,0.8438379634171724,0,0.7431872757151723,0],[0.5722491154447198,0,-0.09532593935728073,0,0.7316671428270638,0,-0.3410218907520175,0],[0.5968160554766655,0,-0.6548063117079437,0,0.4408733663149178,0,-0.9373347274959087,0],[-0.44459265237674117,0,-0.7124666604213417,0,-0.22195548610761762,0,0.9720149282366037,0],[0.4022736712358892,0,0.6495423694141209,0,-0.971652670763433,0,-0.7159059098921716,0],[-0.5466803284361959,0,0.23884341027587652,0,0.5803198530338705,0,-0.18052627332508564,0],[0.4786212593317032,0,-0.29784423019737005,0,0.852439028210938,0,0.7721395744010806,0],[0.3882091548293829,0,-0.48179314006119967,0,-0.5336893917992711,0,0.8862196593545377,0],[0.6281953910365701,0,-0.7719333348795772,0,-0.3599147261120379,0,0.8541942751035094,0],[-0.9016133425757289,0,-0.8573355632834136,0,0.775760920252651,0,-0.7525776885449886,0],[-0.909642999060452,0,-0.014883237890899181,0,-0.5585574074648321,0,-0.30298435129225254,0],[-0.5156808388419449,0,0.36641996167600155,0,-0.8618614813312888,0,0.179245512932539,0],[-0.7329011661931872,0,-0.0901926844380796,0,0.05255648447200656,0,0.9653686392121017,0],[0.4451038143597543,0,0.142759061884135,0,0.684840377420187,0,-0.6821603337302804,0],[0.5341473845764995,0,0.6781734777614474,0,0.5569247314706445,0,-0.7497069626115263,0],[0.5635029398836195,0,-0.7441291729919612,0,-0.08208708930760622,0,-0.034497903659939766,0],[0.6382340048439801,0,0.9039245583117008,0,-0.7729262984357774,0,0.15105719724670053,0],[-0.6716451942920685,0,-0.48089560586959124,0,0.924389885738492,0,-0.018555764574557543,0],[0.7561862701550126,0,-0.5285118208266795,0,0.9161126022227108,0,0.5185402226634324,0],[0.7717677461914718,0,-0.11789915664121509,0,0.8251122501678765,0,0.1941042710095644,0],[0.05718032596632838,0,0.13414260279387236,0,-0.12230272870510817,0,0.5337385372258723,0],[-0.5063561405986547,0,-0.7600858602672815,0,-0.5878277295269072,0,-0.1796389203518629,0],[-0.09359858650714159,0,-0.8555103717371821,0,-0.6553485444746912,0,-0.0017774878069758415,0],[-0.42036488838493824,0,-0.934046127833426,0,0.7047893479466438,0,0.5556809608824551,0],[-0.21171646658331156,0,0.555790794081986,0,-0.5154516422189772,0,0.2305346205830574,0],[-0.9517358127050102,0,-0.1311692730523646,0,0.46489568008109927,0,-0.06198715325444937,0],[0.07124123675748706,0,0.39311826741322875,0,0.9646499422378838,0,-0.42528124107047915,0],[0.39057151647284627,0,-0.4826470739208162,0,-0.14713575085625052,0,-0.4481883910484612,0],[0.03251680266112089,0,-0.9030567887239158,0,-0.8776494753547013,0,-0.8967814981006086,0],[-0.5348649714142084,0,-0.28070243587717414,0,0.2949127107858658,0,-0.11018799059092999,0],[0.24348158901557326,0,-0.9537236033938825,0,0.6495001520961523,0,-0.32571223471313715,0],[-0.5110589051619172,0,0.425460213329643,0,0.6059603169560432,0,0.29566854471340775,0],[-0.15244085714221,0,-0.14670096896588802,0,0.8450762182474136,0,0.7482261857949197,0],[-0.2520404211245477,0,-0.8796454211696982,0,-0.26531177246943116,0,0.08969595143571496,0],[-0.00791684864088893,0,-0.29976272815838456,0,0.051509094424545765,0,0.6921914108097553,0],[0.8008479364216328,0,0.8111518146470189,0,0.30225470196455717,0,-0.6673597157932818,0],[-0.08918899251148105,0,0.0550230722874403,0,-0.8407303122803569,0,0.26341440295800567,0],[0.101847970392555,0,-0.007851989008486271,0,0.5400005932897329,0,-0.7624652232043445,0],[0.0680387276224792,0,0.39009123761206865,0,-0.522158236708492,0,-0.35870964359492064,0],[-0.6308396849781275,0,0.4855025913566351,0,-0.8131985822692513,0,-0.7576690930873156,0],[-0.47981677297502756,0,0.975704304408282,0,-0.05481592519208789,0,0.28498667292296886,0],[0.4383795130997896,0,-0.5900241695344448,0,-0.5537438420578837,0,0.4814288909547031,0],[-0.5406812485307455,0,0.011046741157770157,0,0.1601598267443478,0,-0.1346850786358118,0],[-0.1910645398311317,0,0.35730263590812683,0,0.35255412152037024,0,0.20950477570295334,0],[-0.323133182246238,0,0.3480610642582178,0,0.32435945654287934,0,-0.6413353411480784,0],[-0.13071288214996457,0,-0.6173930102959275,0,0.6593877081759274,0,-0.5299015287309885,0],[-0.2050227439031005,0,0.656743401195854,0,0.6032742280513048,0,0.8688822826370597,0],[0.48013164289295673,0,0.15600297041237354,0,0.5743166217580438,0,-0.6178373992443085,0],[-0.6723184040747583,0,-0.5452387728728354,0,0.9268835885450244,0,0.9452582555823028,0],[0.5019873194396496,0,-0.907496115192771,0,-0.30266826692968607,0,0.6846648105420172,0],[-0.8975459872744977,0,0.6566169229336083,0,0.4583986052311957,0,0.35462420154362917,0],[-0.39990868605673313,0,0.5104566728696227,0,0.7676305789500475,0,-0.6572663099505007,0],[0.7613322846591473,0,0.9782439088448882,0,0.0182824176736176,0,0.746066786814481,0],[-0.8208615384064615,0,0.1818535071797669,0,-0.7637542532756925,0,0.12869901629164815,0],[-0.44907484436407685,0,-0.5288487826474011,0,0.7248621680773795,0,0.06728695146739483,0],[0.39708641543984413,0,0.015429895836859941,0,0.44402129482477903,0,-0.3368724645115435,0],[-0.5279403594322503,0,0.9278779933229089,0,0.6554079889319837,0,-0.17505127377808094,0],[0.45785821974277496,0,-0.7996770311146975,0,0.9696443811990321,0,-0.9765500035136938,0],[-0.7350335959345102,0,0.36453645303845406,0,-0.52126833377406,0,-0.6123474971391261,0],[0.5140338963828981,0,-0.7920923274941742,0,0.027213667519390583,0,0.8068531304597855,0],[0.20356203569099307,0,-0.9377782782539725,0,-0.5966275134123862,0,-0.6923286789096892,0],[0.6196283884346485,0,-0.1898351488634944,0,-0.9871032759547234,0,-0.2831866922788322,0],[-0.721791657153517,0,0.01926834136247635,0,0.9533115457743406,0,-0.5320875844918191,0],[-0.8795980396680534,0,-0.8098439085297287,0,0.20293466141447425,0,0.43437938392162323,0],[-0.08298117481172085,0,-0.1564419185742736,0,-0.8376341662369668,0,-0.3578395410440862,0],[0.42898232163861394,0,-0.33707837760448456,0,0.44898695265874267,0,-0.096184644382447,0],[0.38613729318603873,0,-0.3650466310791671,0,-0.6470482237637043,0,0.6998469582758844,0],[-0.40028288355097175,0,0.3332046838477254,0,-0.10803870623931289,0,0.2653162139467895,0],[0.7408763761632144,0,0.635546256788075,0,-0.27992093097418547,0,-0.8797940351068974,0],[-0.4554973808117211,0,-0.3343490306288004,0,-0.9123120750300586,0,-0.9712995770387352,0],[-0.04140537464991212,0,0.6406508549116552,0,0.7685139453969896,0,-0.915642196778208,0],[-0.4233540128916502,0,-0.4442698806524277,0,-0.8532852791249752,0,-0.929526639636606,0],[-0.46580248372629285,0,-0.972528601065278,0,-0.08339619217440486,0,-0.9617747785523534,0],[-0.4300960013642907,0,0.30281539913266897,0,0.745337350293994,0,-0.4038845393806696,0],[0.5434644282795489,0,-0.4162963409908116,0,0.4092530710622668,0,-0.4544734633527696,0],[0.42744667921215296,0,0.8688904787413776,0,0.012904278002679348,0,0.011948275845497847,0],[0.9045254602096975,0,-0.9097792999818921,0,-0.1535199019126594,0,-0.558111703954637,0],[-0.5828268034383655,0,-0.8084497121162713,0,-0.6201811423525214,0,0.5608930788002908,0],[0.6372518693096936,0,-0.35648689651861787,0,-0.7145499708130956,0,0.1614277339540422,0],[0.8054430996999145,0,0.5891340975649655,0,0.9982238868251443,0,0.6237240238115191,0],[0.030438285786658525,0,-0.3848573719151318,0,0.45567407412454486,0,0.29409620398655534,0],[-0.9613454393111169,0,-0.4694717451930046,0,-0.31731565948575735,0,-0.8639990030787885,0],[0.11673515848815441,0,-0.0989588052034378,0,-0.45245765009894967,0,-0.9094822220504284,0],[-0.25830703880637884,0,0.3403941299766302,0,-0.0454121483489871,0,-0.46362180914729834,0],[0.030513879377394915,0,-0.4574584858492017,0,0.09061144944280386,0,-0.029143229592591524,0],[0.5534532177262008,0,-0.14866915391758084,0,-0.8782446039840579,0,-0.1665283041074872,0],[0.1716547468677163,0,0.6066958140581846,0,-0.9492979692295194,0,-0.7173965210095048,0],[0.27425955003127456,0,0.10111278062686324,0,-0.27310505509376526,0,0.023635985795408487,0],[-0.29325150372460485,0,-0.18492196686565876,0,0.21260496228933334,0,0.685879715718329,0],[-0.4478979567065835,0,-0.4375736229121685,0,0.1494409153237939,0,0.145309092476964,0],[-0.8340294710360467,0,0.41345858154818416,0,-0.5002482254058123,0,0.3176212967373431,0],[0.8578356155194342,0,-0.4920876412652433,0,-0.6088728359900415,0,-0.18475730484351516,0],[0.4945662161335349,0,-0.0915779685601592,0,0.8825056683272123,0,0.9973462326452136,0],[-0.7209777715615928,0,-0.2400736417621374,0,-0.8308469401672482,0,-0.025708270259201527,0],[-0.6892164787277579,0,-0.8987483442761004,0,-0.31113861640915275,0,0.6369339800439775,0],[0.7997073545120656,0,0.5810852814465761,0,0.9412451176904142,0,0.09903508517891169,0],[-0.2859855783171952,0,-0.0013643531128764153,0,-0.09205111162737012,0,-0.3176234131678939,0],[-0.6623904062435031,0,-0.38958602445200086,0,-0.5910811903886497,0,-0.7205309420824051,0],[0.9364219405688345,0,0.8825290007516742,0,-0.5766575187444687,0,-0.04087474336847663,0],[0.6490361415781081,0,0.3094585668295622,0,0.7527850964106619,0,0.08232267806306481,0],[-0.7659710887819529,0,0.6473521147854626,0,0.41254039434716105,0,0.20753551507368684,0],[-0.27464670315384865,0,-0.38670865911990404,0,-0.4823743696324527,0,-0.042104892898350954,0],[0.6964398422278464,0,-0.9669294622726738,0,-0.2673863801173866,0,-0.4123367816209793,0],[0.6291542481631041,0,0.8983484408818185,0,0.011505478527396917,0,0.6471998058259487,0],[0.677610395476222,0,0.32010010024532676,0,0.0768714970909059,0,-0.614349399227649,0],[0.7608093698509037,0,0.06776743102818727,0,0.7718723616562784,0,-0.570559139829129,0],[0.48202106170356274,0,-0.6470858589746058,0,0.7965473388321698,0,-0.099335593637079,0],[0.20889444090425968,0,0.6766927195712924,0,-0.30088450107723475,0,-0.2511919788084924,0],[0.8602282209321856,0,0.42760799964889884,0,0.16311389207839966,0,-0.3449175083078444,0],[-0.24356575310230255,0,-0.1583332079462707,0,0.9616765226237476,0,0.9109244770370424,0],[-0.5631550834514201,0,-0.7161162723787129,0,-0.7545334636233747,0,0.239699297118932,0],[-0.2817595046944916,0,0.5268380264751613,0,-0.5791128920391202,0,0.6904839128255844,0],[-0.32442039623856544,0,-0.3330958844162524,0,-0.5698549165390432,0,0.3938610488548875,0],[-0.018132268451154232,0,0.8336465395987034,0,-0.05501666711643338,0,-0.8216740600764751,0],[-0.8191099353134632,0,0.27592746121808887,0,0.4645540937781334,0,0.4750045342370868,0],[0.6373218549415469,0,0.31660293648019433,0,0.8209219365380704,0,-0.221933554392308,0],[0.70249188458547,0,-0.46340943593531847,0,0.003161182627081871,0,-0.5279753031209111,0],[-0.0013849670067429543,0,0.167549601290375,0,0.9520007930696011,0,-0.46959203062579036,0],[0.1249561058357358,0,-0.8182925321161747,0,-0.7306360751390457,0,-0.8236266546882689,0],[-0.2787882690317929,0,0.322138799354434,0,0.6150288176722825,0,-0.3906586025841534,0],[0.24741709046065807,0,0.06813394604250789,0,0.7627918557263911,0,0.226423273794353,0],[0.3099084780551493,0,0.30269920267164707,0,0.4422540399245918,0,-0.600324297323823,0],[-0.7587463418021798,0,-0.07748709246516228,0,-0.2520120912231505,0,-0.13400929979979992,0],[0.3804297484457493,0,0.32019810564816,0,0.13346982700750232,0,-0.7354783322662115,0],[0.9151990986429155,0,-0.826275072991848,0,0.9677188587374985,0,0.7207364933565259,0],[-0.3796208226121962,0,0.4241737718693912,0,0.24559063371270895,0,0.6969719217158854,0],[0.26626483583822846,0,0.3005929049104452,0,-0.9323191116563976,0,0.8311254689469934,0],[-0.5034533282741904,0,0.7657972951419652,0,-0.44701630948111415,0,-0.8011894915252924,0],[0.8348546014167368,0,-0.5732821463607252,0,0.7295611668378115,0,-0.206773663405329,0],[-0.9173849751241505,0,-0.759945550467819,0,0.08577296836301684,0,-0.22185717150568962,0],[-0.5748549588024616,0,0.6918529798276722,0,0.6314348825253546,0,0.28451220178976655,0],[-0.15311100473627448,0,-0.2302918266505003,0,-0.3645455059595406,0,0.1033479506149888,0],[-0.7670842902734876,0,0.1596303633414209,0,-0.15867048548534513,0,0.6612493698485196,0],[-0.3855367712676525,0,0.22393293678760529,0,0.9597025155089796,0,-0.9024771070107818,0],[-0.5815511266700923,0,-0.7862680829130113,0,-0.5128623363561928,0,-0.6042081727646291,0],[0.990158696193248,0,0.09606579504907131,0,-0.36422490095719695,0,-0.6955671114847064,0],[0.4584284611046314,0,-0.4889321606606245,0,0.7174802520312369,0,0.6613132716156542,0],[0.8347265627235174,0,-0.20854693884029984,0,0.6288921306841075,0,0.16701649082824588,0],[-0.6310815862379968,0,-0.38678854797035456,0,-0.8605926935561001,0,-0.33078270219266415,0],[-0.944015497341752,0,-0.22682614624500275,0,0.8472723490558565,0,0.6888206820003688,0],[0.7056358307600021,0,0.6705557401292026,0,0.9138606358319521,0,-0.5524410810321569,0],[-0.09620833490043879,0,-0.3113334937952459,0,-0.48512751515954733,0,-0.7670657131820917,0],[0.8320388593710959,0,-0.42508646938949823,0,-0.16104441415518522,0,-0.9983773115091026,0],[0.0921701705083251,0,-0.90341651532799,0,0.5866701249033213,0,0.7947050365619361,0],[0.6946078580804169,0,0.9710008837282658,0,-0.9081041230820119,0,-0.6279008062556386,0],[0.1453297333791852,0,-0.7719521895051003,0,-0.7734437971375883,0,-0.07513352576643229,0],[0.07693965500220656,0,-0.5851331795565784,0,0.4297012980096042,0,-0.4593275967054069,0],[-0.5116025926545262,0,-0.3465175009332597,0,0.7099994150921702,0,0.07726965378969908,0],[0.18613356864079833,0,0.9996507377363741,0,0.023727526422590017,0,0.8981199720874429,0],[0.26619014889001846,0,-0.8068099766969681,0,-0.6887105596251786,0,0.5027799028903246,0],[-0.16727195493876934,0,0.8943167962133884,0,-0.09880254231393337,0,0.6920187240466475,0],[0.7160130608826876,0,0.2717351387254894,0,0.4035963276401162,0,-0.03336492273956537,0],[-0.17512627225369215,0,-0.5223837452940643,0,-0.28048538509756327,0,-0.2644901038147509,0],[-0.5472492165863514,0,0.3753199684433639,0,-0.31642249180004,0,-0.644363836850971,0],[0.3440425037406385,0,-0.9563989080488682,0,-0.3954666187055409,0,0.2585744634270668,0],[-0.25236571626737714,0,0.43147752480581403,0,0.3952467767521739,0,0.7974931574426591,0],[0.9206819306127727,0,0.8625351120717824,0,-0.1190689317882061,0,-0.013135068584233522,0],[-0.2735033528879285,0,-0.28182248678058386,0,-0.4527329383417964,0,-0.8157014511525631,0],[0.5565166301093996,0,0.8391355071216822,0,-0.07581852050498128,0,0.5853088391013443,0],[-0.8140172073617578,0,0.6319255470298231,0,-0.04946737829595804,0,-0.6889407457783818,0],[-0.025982685387134552,0,-0.2261900114826858,0,0.34739350946620107,0,0.3620203537866473,0],[0.6592915132641792,0,0.4884347068145871,0,-0.3617142220027745,0,-0.4407872692681849,0],[-0.9372526267543435,0,-0.4598297784104943,0,0.8819414051249623,0,0.9964117165654898,0],[0.6888313191011548,0,0.050146520137786865,0,-0.6838953723199666,0,0.013612647075206041,0],[-0.7586106499657035,0,-0.8392330412752926,0,0.8036761982366443,0,-0.6392856338061392,0],[0.9471029178239405,0,-0.8940855171531439,0,0.16226477921009064,0,0.36943150823935866,0],[-0.3504161355085671,0,-0.9808522681705654,0,0.26859535928815603,0,0.4446232649497688,0],[0.18963850336149335,0,-0.6290814848616719,0,0.5636877445504069,0,0.21716348035261035,0],[0.40241670049726963,0,-0.9120472492650151,0,0.8588057719171047,0,0.4521192410029471,0],[0.23264575051143765,0,0.2622309885919094,0,-0.6019665794447064,0,0.3327449010685086,0],[0.4468550584279001,0,0.3099802820943296,0,-0.6599452951923013,0,-0.5786718651652336,0],[0.44548973347991705,0,-0.7595324711874127,0,0.13348046457394958,0,0.9634220940060914,0],[0.4994349302724004,0,-0.08135935477912426,0,0.1139990990050137,0,-0.20845904713496566,0],[-0.7355663357302547,0,0.8199222227558494,0,0.9429651577956975,0,-0.7455336209386587,0],[0.23248052829876542,0,-0.4416712266393006,0,0.7778325909748673,0,-0.8561016288585961,0],[0.1075616623274982,0,0.46952286129817367,0,-0.6752664051018655,0,-0.8915590867400169,0],[-0.981220924295485,0,0.5894902683794498,0,-0.8081503896974027,0,-0.019736540503799915,0],[-0.7780013694427907,0,-0.48841266706585884,0,-0.42605201061815023,0,0.929012892767787,0],[0.20155738620087504,0,0.012766947038471699,0,0.6194485914893448,0,0.382033362518996,0],[0.2732360386289656,0,0.05348825640976429,0,-0.2037716875784099,0,-0.12939734011888504,0],[0.7380689159035683,0,-0.9656812753528357,0,0.8866251418367028,0,-0.2428291137330234,0],[-0.15256849071010947,0,-0.20026059076189995,0,0.3608510917983949,0,0.5706052123568952,0],[-0.9208098058588803,0,-0.44209046149626374,0,-0.23547906009480357,0,-0.2694407282397151,0],[-0.17655485402792692,0,-0.7976853935979307,0,-0.2631973917596042,0,-0.1549807875417173,0],[0.2974784760735929,0,0.20964730717241764,0,-0.10782422171905637,0,-0.5625987211242318,0],[0.06159635493531823,0,-0.7996916607953608,0,0.9985636095516384,0,-0.7447100533172488,0],[0.7467899192124605,0,-0.3470928962342441,0,0.18684594985097647,0,-0.7110161012969911,0],[0.5817777765914798,0,0.1823893953114748,0,-0.007992290426045656,0,0.19248213293030858,0],[-0.8939974778331816,0,0.9277602825313807,0,-0.3743378506042063,0,-0.9057204579003155,0],[-0.6699324478395283,0,0.5921185547485948,0,-0.20603192644193769,0,0.42785715078935027,0],[-0.09123551985248923,0,0.5796898975968361,0,-0.7284783385694027,0,0.41396500542759895,0],[-0.6636754949577153,0,0.9990367675200105,0,0.9125622897408903,0,-0.4397496790625155,0],[-0.6460285894572735,0,0.7543595377355814,0,-0.4411930413916707,0,-0.8995196716859937,0],[-0.7407968672923744,0,-0.4035372231155634,0,0.820766240824014,0,0.18319194437935948,0],[0.5574432890862226,0,0.40461753495037556,0,0.5881450399756432,0,-0.9581877286545932,0],[-0.25272443564608693,0,0.3763606324791908,0,0.8652190221473575,0,-0.9190175943076611,0],[-0.9922678624279797,0,0.5739488070830703,0,-0.7932765376754105,0,0.8532550395466387,0],[-0.7278443118557334,0,0.06134436000138521,0,-0.7492332928813994,0,0.23249408416450024,0],[-0.30333897517994046,0,-0.7080523236654699,0,0.9551517618820071,0,-0.7183292102999985,0],[0.9605394382961094,0,-0.1569291027262807,0,0.25217264937236905,0,0.2416536333039403,0],[0.991349243093282,0,0.4983922364190221,0,-0.7547964346595109,0,-0.7193727628327906,0]],"vb_b":[[-1,0,0,0,0,0,0,0],[-1,0,0,0,0,0,0,0],[-1,0,0,0,0,0,0,0],[-1,0,0,0,0,0,0,0],[-1,0,0,0,0,0,0,0],[-1,0,0,0,0,0,0,0],[-1,0,0,0,0,0,0,0],[-1,0,0,0,0,0,0,0],[-1,0,0,0,0,0,0,0],[-1,0,0,0,0,0,0,0],[-1,0,0,0,0,0,0,0],[-1,0,0,0,0,0,0,0],[-1,0,0,0,0,0,0,0],[-1,0,0,0,0,0,0,0],[-1,0,0,0,0,0,0,0],[-1,0,0,0,0,0,0,0],[-1,0,0,0,0,0,0,0],[-1,0,0,0,0,0,0,0],[-1,0,0,0,0,0,0,0],[-1,0,0,0,0,0,0,0],[-1,0,0,0,0,0,0,0],[-1,0,0,0,0,0,0,0],[-1,0,0,0,0,0,0,0],[-1,0,0,0,0,0,0,0],[-1,0,0,0,0,0,0,0],[-1,0,0,0,0,0,0,0],[-1,0,0,0,0,0,0,0],[-1,0,0,0,0,0,0,0],[-1,0,0,0,0,0,0,0],[-1,0,0,0,0,0,0,0],[-1,0,0,0,0,0,0,0],[-1,0,0,0,0,0,0,0],[-1,0,0,0,0,0,0,0],[-1,0,0,0,0,0,0,0],[-1,0,0,0,0,0,0,0],[-1,0,0,0,0,0,0,0],[-1,0,0,0,0,0,0,0],[-1,0,0,0,0,0,0,0],[-1,0,0,0,0,0,0,0],[-1,0,0,0,0,0,0,0],[-1,0,0,0,0,0,0,0],[-1,0,0,0,0,0,0,0],[-1,0,0,0,0,0,0,0],[-1,0,0,0,0,0,0,0],[-1,0,0,0,0,0,0,0],[-1,0,0,0,0,0,0,0],[-1,0,0,0,0,0,0,0],[-1,0,0,0,0,0,0,0],[-1,0,0,0,0,0,0,0],[-1,0,0,0,0,0,0,0],[-1,0,0,0,0,0,0,0],[-1,0,0,0,0,0,0,0],