parameters : {"minimum_performance":-1,"block_timeout":5000,"response_timeout":1000,"task_kappa":0,"task_stimuli":1,"task_component":1,"task_feature":0,"task_sign":-1,"task_weights":[0,0,0,0,0,0,-1,0]}
edata : {"exp_subject":"BFMeVPiK0fi8","exp_sex":"male","exp_age":"31-40","exp_task":"jan/131004_primate1","exp_starttime":1381454227536,"exp_finishtime":1381456232736}
numbers : {"stimuli":2,"components":2,"features":2,"weights":8,"blocks":40,"trials":25,"indices":1000}
sdata : {"vb_index":[1,2,3,4,5,6,7,8,9,10,11,12,13,14,15,16,17,18,19,20,21,22,23,24,25,26,27,28,29,30,31,32,33,34,35,36,37,38,39,40,41,42,43,44,45,46,47,48,49,50,51,52,53,54,55,56,57,58,59,60,61,62,63,64,65,66,67,68,69,70,71,72,73,74,75,76,77,78,79,80,81,82,83,84,85,86,87,88,89,90,91,92,93,94,95,96,97,98,99,100,101,102,103,104,105,106,107,108,109,110,111,112,113,114,115,116,117,118,119,120,121,122,123,124,125,126,127,128,129,130,131,132,133,134,135,136,137,138,139,140,141,142,143,144,145,146,147,148,149,150,151,152,153,154,155,156,157,158,159,160,161,162,163,164,165,166,167,168,169,170,171,172,173,174,175,176,177,178,179,180,181,182,183,184,185,186,187,188,189,190,191,192,193,194,195,196,197,198,199,200,201,202,203,204,205,206,207,208,209,210,211,212,213,214,215,216,217,218,219,220,221,222,223,224,225,226,227,228,229,230,231,232,233,234,235,236,237,238,239,240,241,242,243,244,245,246,247,248,249,250,251,252,253,254,255,256,257,258,259,260,261,262,263,264,265,266,267,268,269,270,271,272,273,274,275,276,277,278,279,280,281,282,283,284,285,286,287,288,289,290,291,292,293,294,295,296,297,298,299,300,301,302,303,304,305,306,307,308,309,310,311,312,313,314,315,316,317,318,319,320,321,322,323,324,325,326,327,328,329,330,331,332,333,334,335,336,337,338,339,340,341,342,343,344,345,346,347,348,349,350,351,352,353,354,355,356,357,358,359,360,361,362,363,364,365,366,367,368,369,370,371,372,373,374,375,376,377,378,379,380,381,382,383,384,385,386,387,388,389,390,391,392,393,394,395,396,397,398,399,400,401,402,403,404,405,406,407,408,409,410,411,412,413,414,415,416,417,418,419,420,421,422,423,424,425,426,427,428,429,430,431,432,433,434,435,436,437,438,439,440,441,442,443,444,445,446,447,448,449,450,451,452,453,454,455,456,457,458,459,460,461,462,463,464,465,466,467,468,469,470,471,472,473,474,475,476,477,478,479,480,481,482,483,484,485,486,487,488,489,490,491,492,493,494,495,496,497,498,499,500,501,502,503,504,505,506,507,508,509,510,511,512,513,514,515,516,517,518,519,520,521,522,523,524,525,526,527,528,529,530,531,532,533,534,535,536,537,538,539,540,541,542,543,544,545,546,547,548,549,550,551,552,553,554,555,556,557,558,559,560,561,562,563,564,565,566,567,568,569,570,571,572,573,574,575,576,577,578,579,580,581,582,583,584,585,586,587,588,589,590,591,592,593,594,595,596,597,598,599,600,601,602,603,604,605,606,607,608,609,610,611,612,613,614,615,616,617,618,619,620,621,622,623,624,625,626,627,628,629,630,631,632,633,634,635,636,637,638,639,640,641,642,643,644,645,646,647,648,649,650,651,652,653,654,655,656,657,658,659,660,661,662,663,664,665,666,667,668,669,670,671,672,673,674,675,676,677,678,679,680,681,682,683,684,685,686,687,688,689,690,691,692,693,694,695,696,697,698,699,700,701,702,703,704,705,706,707,708,709,710,711,712,713,714,715,716,717,718,719,720,721,722,723,724,725,726,727,728,729,730,731,732,733,734,735,736,737,738,739,740,741,742,743,744,745,746,747,748,749,750,751,752,753,754,755,756,757,758,759,760,761,762,763,764,765,766,767,768,769,770,771,772,773,774,775,776,777,778,779,780,781,782,783,784,785,786,787,788,789,790,791,792,793,794,795,796,797,798,799,800,801,802,803,804,805,806,807,808,809,810,811,812,813,814,815,816,817,818,819,820,821,822,823,824,825,826,827,828,829,830,831,832,833,834,835,836,837,838,839,840,841,842,843,844,845,846,847,848,849,850,851,852,853,854,855,856,857,858,859,860,861,862,863,864,865,866,867,868,869,870,871,872,873,874,875,876,877,878,879,880,881,882,883,884,885,886,887,888,889,890,891,892,893,894,895,896,897,898,899,900,901,902,903,904,905,906,907,908,909,910,911,912,913,914,915,916,917,918,919,920,921,922,923,924,925,926,927,928,929,930,931,932,933,934,935,936,937,938,939,940,941,942,943,944,945,946,947,948,949,950,951,952,953,954,955,956,957,958,959,960,961,962,963,964,965,966,967,968,969,970,971,972,973,974,975,976,977,978,979,980,981,982,983,984,985,986,987,988,989,990,991,992,993,994,995,996,997,998,999,1000],"vb_block":[1,1,1,1,1,1,1,1,1,1,1,1,1,1,1,1,1,1,1,1,1,1,1,1,1,2,2,2,2,2,2,2,2,2,2,2,2,2,2,2,2,2,2,2,2,2,2,2,2,2,3,3,3,3,3,3,3,3,3,3,3,3,3,3,3,3,3,3,3,3,3,3,3,3,3,4,4,4,4,4,4,4,4,4,4,4,4,4,4,4,4,4,4,4,4,4,4,4,4,4,5,5,5,5,5,5,5,5,5,5,5,5,5,5,5,5,5,5,5,5,5,5,5,5,5,6,6,6,6,6,6,6,6,6,6,6,6,6,6,6,6,6,6,6,6,6,6,6,6,6,7,7,7,7,7,7,7,7,7,7,7,7,7,7,7,7,7,7,7,7,7,7,7,7,7,8,8,8,8,8,8,8,8,8,8,8,8,8,8,8,8,8,8,8,8,8,8,8,8,8,9,9,9,9,9,9,9,9,9,9,9,9,9,9,9,9,9,9,9,9,9,9,9,9,9,10,10,10,10,10,10,10,10,10,10,10,10,10,10,10,10,10,10,10,10,10,10,10,10,10,11,11,11,11,11,11,11,11,11,11,11,11,11,11,11,11,11,11,11,11,11,11,11,11,11,12,12,12,12,12,12,12,12,12,12,12,12,12,12,12,12,12,12,12,12,12,12,12,12,12,13,13,13,13,13,13,13,13,13,13,13,13,13,13,13,13,13,13,13,13,13,13,13,13,13,14,14,14,14,14,14,14,14,14,14,14,14,14,14,14,14,14,14,14,14,14,14,14,14,14,15,15,15,15,15,15,15,15,15,15,15,15,15,15,15,15,15,15,15,15,15,15,15,15,15,16,16,16,16,16,16,16,16,16,16,16,16,16,16,16,16,16,16,16,16,16,16,16,16,16,17,17,17,17,17,17,17,17,17,17,17,17,17,17,17,17,17,17,17,17,17,17,17,17,17,18,18,18,18,18,18,18,18,18,18,18,18,18,18,18,18,18,18,18,18,18,18,18,18,18,19,19,19,19,19,19,19,19,19,19,19,19,19,19,19,19,19,19,19,19,19,19,19,19,19,20,20,20,20,20,20,20,20,20,20,20,20,20,20,20,20,20,20,20,20,20,20,20,20,20,21,21,21,21,21,21,21,21,21,21,21,21,21,21,21,21,21,21,21,21,21,21,21,21,21,22,22,22,22,22,22,22,22,22,22,22,22,22,22,22,22,22,22,22,22,22,22,22,22,22,23,23,23,23,23,23,23,23,23,23,23,23,23,23,23,23,23,23,23,23,23,23,23,23,23,24,24,24,24,24,24,24,24,24,24,24,24,24,24,24,24,24,24,24,24,24,24,24,24,24,25,25,25,25,25,25,25,25,25,25,25,25,25,25,25,25,25,25,25,25,25,25,25,25,25,26,26,26,26,26,26,26,26,26,26,26,26,26,26,26,26,26,26,26,26,26,26,26,26,26,27,27,27,27,27,27,27,27,27,27,27,27,27,27,27,27,27,27,27,27,27,27,27,27,27,28,28,28,28,28,28,28,28,28,28,28,28,28,28,28,28,28,28,28,28,28,28,28,28,28,29,29,29,29,29,29,29,29,29,29,29,29,29,29,29,29,29,29,29,29,29,29,29,29,29,30,30,30,30,30,30,30,30,30,30,30,30,30,30,30,30,30,30,30,30,30,30,30,30,30,31,31,31,31,31,31,31,31,31,31,31,31,31,31,31,31,31,31,31,31,31,31,31,31,31,32,32,32,32,32,32,32,32,32,32,32,32,32,32,32,32,32,32,32,32,32,32,32,32,32,33,33,33,33,33,33,33,33,33,33,33,33,33,33,33,33,33,33,33,33,33,33,33,33,33,34,34,34,34,34,34,34,34,34,34,34,34,34,34,34,34,34,34,34,34,34,34,34,34,34,35,35,35,35,35,35,35,35,35,35,35,35,35,35,35,35,35,35,35,35,35,35,35,35,35,36,36,36,36,36,36,36,36,36,36,36,36,36,36,36,36,36,36,36,36,36,36,36,36,36,37,37,37,37,37,37,37,37,37,37,37,37,37,37,37,37,37,37,37,37,37,37,37,37,37,38,38,38,38,38,38,38,38,38,38,38,38,38,38,38,38,38,38,38,38,38,38,38,38,38,39,39,39,39,39,39,39,39,39,39,39,39,39,39,39,39,39,39,39,39,39,39,39,39,39,40,40,40,40,40,40,40,40,40,40,40,40,40,40,40,40,40,40,40,40,40,40,40,40,40],"vb_trial":[1,2,3,4,5,6,7,8,9,10,11,12,13,14,15,16,17,18,19,20,21,22,23,24,25,1,2,3,4,5,6,7,8,9,10,11,12,13,14,15,16,17,18,19,20,21,22,23,24,25,1,2,3,4,5,6,7,8,9,10,11,12,13,14,15,16,17,18,19,20,21,22,23,24,25,1,2,3,4,5,6,7,8,9,10,11,12,13,14,15,16,17,18,19,20,21,22,23,24,25,1,2,3,4,5,6,7,8,9,10,11,12,13,14,15,16,17,18,19,20,21,22,23,24,25,1,2,3,4,5,6,7,8,9,10,11,12,13,14,15,16,17,18,19,20,21,22,23,24,25,1,2,3,4,5,6,7,8,9,10,11,12,13,14,15,16,17,18,19,20,21,22,23,24,25,1,2,3,4,5,6,7,8,9,10,11,12,13,14,15,16,17,18,19,20,21,22,23,24,25,1,2,3,4,5,6,7,8,9,10,11,12,13,14,15,16,17,18,19,20,21,22,23,24,25,1,2,3,4,5,6,7,8,9,10,11,12,13,14,15,16,17,18,19,20,21,22,23,24,25,1,2,3,4,5,6,7,8,9,10,11,12,13,14,15,16,17,18,19,20,21,22,23,24,25,1,2,3,4,5,6,7,8,9,10,11,12,13,14,15,16,17,18,19,20,21,22,23,24,25,1,2,3,4,5,6,7,8,9,10,11,12,13,14,15,16,17,18,19,20,21,22,23,24,25,1,2,3,4,5,6,7,8,9,10,11,12,13,14,15,16,17,18,19,20,21,22,23,24,25,1,2,3,4,5,6,7,8,9,10,11,12,13,14,15,16,17,18,19,20,21,22,23,24,25,1,2,3,4,5,6,7,8,9,10,11,12,13,14,15,16,17,18,19,20,21,22,23,24,25,1,2,3,4,5,6,7,8,9,10,11,12,13,14,15,16,17,18,19,20,21,22,23,24,25,1,2,3,4,5,6,7,8,9,10,11,12,13,14,15,16,17,18,19,20,21,22,23,24,25,1,2,3,4,5,6,7,8,9,10,11,12,13,14,15,16,17,18,19,20,21,22,23,24,25,1,2,3,4,5,6,7,8,9,10,11,12,13,14,15,16,17,18,19,20,21,22,23,24,25,1,2,3,4,5,6,7,8,9,10,11,12,13,14,15,16,17,18,19,20,21,22,23,24,25,1,2,3,4,5,6,7,8,9,10,11,12,13,14,15,16,17,18,19,20,21,22,23,24,25,1,2,3,4,5,6,7,8,9,10,11,12,13,14,15,16,17,18,19,20,21,22,23,24,25,1,2,3,4,5,6,7,8,9,10,11,12,13,14,15,16,17,18,19,20,21,22,23,24,25,1,2,3,4,5,6,7,8,9,10,11,12,13,14,15,16,17,18,19,20,21,22,23,24,25,1,2,3,4,5,6,7,8,9,10,11,12,13,14,15,16,17,18,19,20,21,22,23,24,25,1,2,3,4,5,6,7,8,9,10,11,12,13,14,15,16,17,18,19,20,21,22,23,24,25,1,2,3,4,5,6,7,8,9,10,11,12,13,14,15,16,17,18,19,20,21,22,23,24,25,1,2,3,4,5,6,7,8,9,10,11,12,13,14,15,16,17,18,19,20,21,22,23,24,25,1,2,3,4,5,6,7,8,9,10,11,12,13,14,15,16,17,18,19,20,21,22,23,24,25,1,2,3,4,5,6,7,8,9,10,11,12,13,14,15,16,17,18,19,20,21,22,23,24,25,1,2,3,4,5,6,7,8,9,10,11,12,13,14,15,16,17,18,19,20,21,22,23,24,25,1,2,3,4,5,6,7,8,9,10,11,12,13,14,15,16,17,18,19,20,21,22,23,24,25,1,2,3,4,5,6,7,8,9,10,11,12,13,14,15,16,17,18,19,20,21,22,23,24,25,1,2,3,4,5,6,7,8,9,10,11,12,13,14,15,16,17,18,19,20,21,22,23,24,25,1,2,3,4,5,6,7,8,9,10,11,12,13,14,15,16,17,18,19,20,21,22,23,24,25,1,2,3,4,5,6,7,8,9,10,11,12,13,14,15,16,17,18,19,20,21,22,23,24,25,1,2,3,4,5,6,7,8,9,10,11,12,13,14,15,16,17,18,19,20,21,22,23,24,25,1,2,3,4,5,6,7,8,9,10,11,12,13,14,15,16,17,18,19,20,21,22,23,24,25,1,2,3,4,5,6,7,8,9,10,11,12,13,14,15,16,17,18,19,20,21,22,23,24,25],"vb_x":[[-0.5003236181591115,0,-0.7009413973667382,0,-0.7781407129821281,0,-0.6243735315882541,0],[-0.4707501606940052,0,-0.6937098297607018,0,-0.25075730141592745,0,-0.6566360530929525,0],[0.9717202650614867,0,0.4813498832272989,0,0.4202218272340452,0,0.5881865901558094,0],[0.5382223721381072,0,0.7401729353642736,0,0.8066323170201462,0,-0.3013512793280746,0],[0.2816297583021481,0,0.5103761483070155,0,-0.26746117772314926,0,0.6681938349389376,0],[0.843062943598829,0,0.5499248893699524,0,0.8974108280856048,0,0.5339789447082055,0],[-0.20639354802215504,0,0.49810992223630524,0,0.10369337081586538,0,0.7281411787504748,0],[-0.36498334079662564,0,0.6371657021844812,0,0.8449376474789259,0,-0.6799653116350115,0],[0.23609302552764455,0,0.6963788696723758,0,0.12979553300315616,0,-0.1622686454526483,0],[-0.9932246056497467,0,-0.30344967582944826,0,0.848825302673569,0,0.6793439447719554,0],[0.9499211448411435,0,-0.1888091066789499,0,0.7351936673180794,0,-0.7405027605852057,0],[-0.1188934422496375,0,-0.9881553685380844,0,-0.9729979680174008,0,0.9835364735564043,0],[-0.4303130616259123,0,-0.13154867442321794,0,0.3081041911553264,0,0.9018298353779626,0],[-0.6702589094085705,0,-0.7083259093230954,0,0.6859240779138565,0,-0.531213858716908,0],[0.6774166377512669,0,0.2326338284760343,0,0.4589220547937285,0,-0.7840246441523115,0],[0.07158218827526985,0,-0.6034919255581441,0,-0.2670002106354501,0,0.34600410979036056,0],[-0.5324154709294759,0,0.8799680245523975,0,-0.9347261913985965,0,0.26356532131984367,0],[-0.5607018238331554,0,0.3084413937243111,0,0.14528801228258792,0,0.8823456174767996,0],[0.9625462030373213,0,-0.47229358820474654,0,-0.23212276305403035,0,0.18124056536389332,0],[-0.39663836285981846,0,0.1953366171820492,0,-0.09146641630190788,0,0.9305925994037993,0],[-0.18255082436210524,0,-0.27896768129834015,0,-0.41873173852632517,0,-0.2310668709740218,0],[-0.6574026568083586,0,0.9208893246731062,0,0.3406021852349985,0,-0.11702503422594979,0],[0.2536834651490911,0,-0.5208271615687503,0,0.7834591915342972,0,0.4283675258273647,0],[0.1503011932137175,0,0.8521783005109151,0,0.21337696867483436,0,-0.4740072898544616,0],[0.15993504655910362,0,0.6022774698737019,0,-0.2514103050320802,0,-0.8216555832895496,0],[-0.03500667985253991,0,-0.683736068803189,0,0.5871798206301853,0,-0.22719843736703638,0],[-0.10009602056434375,0,-0.7593734612509735,0,-0.11336628233575796,0,0.9733686688514838,0],[0.31486728648465157,0,0.5573968877198392,0,0.7717795149871691,0,0.749724553171226,0],[0.8657502048216632,0,0.8277306480908613,0,0.35422433605814296,0,-0.9478148195811062,0],[-0.8350019007958509,0,-0.4536005518147199,0,0.32804894962217457,0,-0.7865478148082543,0],[-0.6836704328458687,0,0.978884918308641,0,0.7006594580477774,0,0.5427840428650363,0],[0.25637154425880904,0,0.49378259884427034,0,0.524334774034628,0,-0.22450660892883434,0],[-0.4607180906030812,0,0.4567390426614151,0,0.11315066942329821,0,-0.9495620093034232,0],[0.22579731837766315,0,-0.5818396396848959,0,-0.8383989469419166,0,-0.08955971737241075,0],[0.8760349745748555,0,0.8054471120542726,0,0.4253775601472034,0,0.45533467888679513,0],[-0.7042317652176482,0,0.6215252072254913,0,-0.8185899204237006,0,0.22460834648326,0],[-0.3512151854895744,0,-0.24504133287617558,0,0.5534104087196885,0,0.646366007718133,0],[-0.1766712892606226,0,-0.5770543742649938,0,-0.029197467250433595,0,-0.03838426168123599,0],[-0.47148277128794147,0,-0.0029860668540984125,0,0.5230635440688369,0,0.41763752695658884,0],[-0.5029860060166835,0,0.002249632463515061,0,0.7781394837303368,0,0.22146304271560324,0],[0.3831311875349721,0,-0.5655942760879591,0,-0.2472583179462513,0,-0.7457405016036498,0],[0.47092347004300983,0,-0.29474432818614993,0,0.15396884770477381,0,-0.13032310070752118,0],[0.14472734695330014,0,-0.4949296706420141,0,0.7558420477587566,0,0.2339834384378121,0],[0.22499023766276127,0,-0.33788583612844425,0,-0.16902117105724446,0,-0.3869206762318722,0],[0.7351242034886927,0,0.6825702456198077,0,-0.07322519581575593,0,0.7712450491851159,0],[0.44050947478670377,0,0.07032173081757698,0,-0.04289929562678996,0,0.21874554351076902,0],[-0.41133564411580426,0,0.7545305109579037,0,-0.42533619124932165,0,0.4301775534414529,0],[0.6799880058157795,0,0.9939709717053697,0,-0.9041765225338421,0,-0.6472869744268137,0],[0.8113731985511765,0,-0.01940764440933096,0,-0.13120923043566735,0,-0.46684301716179943,0],[0.1603777565182638,0,0.030797828439461883,0,0.9077830906650399,0,0.015003786616609283,0],[0.5155324686746177,0,-0.2685547118718292,0,-0.14015489401662728,0,0.7914420486681442,0],[-0.5912446268071676,0,0.6985894873127501,0,-0.07231161457599278,0,0.04752261801893365,0],[-0.6312682084315868,0,-0.2894987776605129,0,-0.7589582043287586,0,0.6844715900714846,0],[0.08951088618019609,0,-0.10748491754302036,0,-0.6493533379934815,0,0.6913940457273415,0],[-0.10354017339787536,0,-0.6402276221083498,0,-0.9868300253879874,0,-0.18561856061665583,0],[-0.20789273781137463,0,-0.735058226965335,0,0.2419509237917956,0,0.6702999577962876,0],[0.5772982625989578,0,-0.44848390314213726,0,-0.28236517440561393,0,-0.03769634541201006,0],[-0.9315258125346102,0,-0.12070137556033367,0,0.08439173275128842,0,0.7763810618976175,0],[-0.7302193922468763,0,-0.8327914072450142,0,0.4015547616797772,0,0.07301048022912227,0],[0.5090978219713038,0,-0.010449119764156078,0,-0.9228441050478515,0,0.43526391202868986,0],[-0.9900212899580363,0,-0.3345897476326758,0,-0.02102279987960798,0,-0.10553444541222157,0],[0.1468694046544068,0,0.29684704019984687,0,-0.8996253803721963,0,0.22677677101339877,0],[-0.2811208829062275,0,-0.7599147925287111,0,-0.8477251412630642,0,0.498844590366748,0],[-0.022244670851517823,0,-0.4650986240990629,0,0.7593834153761139,0,0.8379162119347361,0],[-0.14138768420517378,0,0.6709371857703499,0,-0.4422149493420189,0,-0.5884112529523788,0],[0.8873506908239293,0,-0.2643258349265434,0,0.4227566501472635,0,-0.5753726474352359,0],[0.5765965284628778,0,-0.5326748818859199,0,-0.7002452412031721,0,0.5750523708164088,0],[-0.2276205241403415,0,-0.9730875002677437,0,-0.3318211551332253,0,0.8589599686573481,0],[-0.6233404619956986,0,-0.5926806062763852,0,0.5366540106713718,0,-0.126691992700533,0],[-0.853796740846926,0,0.31311360655998755,0,0.05021549324534913,0,-0.1618369327548732,0],[0.8562001443763374,0,-0.9265368803341618,0,-0.7160803356094474,0,-0.55532869822118,0],[0.01740132841707287,0,0.6914739070456042,0,0.6040456713360141,0,0.33228059793975095,0],[0.5484524714518846,0,-0.5132004405793165,0,0.09719261815122215,0,0.5085079023670722,0],[-0.669515466585201,0,0.9543855919902033,0,-0.0007808451155253415,0,-0.6531896083614521,0],[0.40891512893964244,0,-0.5592715472450349,0,0.800110390156231,0,0.932885323537709,0],[-0.24219444583633631,0,-0.9699562856578658,0,-0.24249949825175166,0,0.47698928775870186,0],[0.9850078971140832,0,-0.36374553699146284,0,0.9207180961987311,0,0.26963190039214036,0],[0.13172775294892003,0,-0.28727381407488806,0,-0.5511376147031959,0,-0.7697333264874386,0],[-0.19198133083504199,0,-0.7798105145692831,0,0.000560025143237386,0,-0.5166346410743883,0],[-0.6938845619112444,0,-0.46569092892634156,0,-0.7203090212050092,0,0.5935289642114898,0],[0.04640270797320567,0,0.8278713027135485,0,0.4405144670194139,0,-0.8989460477628002,0],[0.7362080172155729,0,0.12857954783844483,0,-0.012734368021505516,0,-0.17836246876607098,0],[-0.0405030627781906,0,0.731961707167835,0,0.04743385984867765,0,0.008671927986799721,0],[-0.434059832339154,0,-0.060090429474212614,0,0.45457565472477035,0,-0.07615725924445393,0],[0.1907119942007227,0,-0.8011138564451583,0,-0.054346330121194164,0,-0.37848741003129605,0],[0.5117710530511899,0,0.6278519932862667,0,-0.04046365527993889,0,-0.1753636434426067,0],[0.43926403405751024,0,0.6544773214673414,0,0.01743128158509566,0,0.654720674401198,0],[-0.6679153310004549,0,-0.9807774687565753,0,0.4726669697178163,0,-0.3243951044958566,0],[-0.45049058481582205,0,-0.23961447817483839,0,0.5363785952353277,0,0.22060743791222315,0],[-0.8287758765183029,0,-0.040770964244550845,0,0.917293124411191,0,0.29484659133968294,0],[-0.44305599782790095,0,0.002818031477743288,0,-0.8420498104776337,0,-0.5206899562899219,0],[-0.432777960909841,0,-0.08678849499571517,0,-0.19366381258390275,0,0.2105142424677411,0],[0.7299303501359602,0,-0.10482991224784044,0,0.9310490930327557,0,0.5693584492041179,0],[0.41228986785448085,0,-0.3294452017566021,0,-0.8302480741415432,0,0.2850464652543865,0],[-0.8537851802369827,0,0.3961099904565275,0,-0.5051857576718355,0,0.0447118136980964,0],[-0.34487158987186217,0,-0.9976633148629102,0,-0.8133187736181302,0,0.3966501798630322,0],[0.8432971865340124,0,-0.35531919211925955,0,0.12465007598378786,0,0.5448273164967223,0],[0.03412219412061068,0,0.6242738392725209,0,-0.5636248956225238,0,-0.8454037607888254,0],[-0.9182846849873176,0,-0.38601874020134974,0,-0.20843758313363314,0,0.9243236573678182,0],[0.6304801416852648,0,-0.6834719056470482,0,-0.8180432830675171,0,0.1248911919722775,0],[-0.23969258305327457,0,-0.21501207910843556,0,-0.10113758180071875,0,-0.4311983322353454,0],[-0.4696149571688151,0,0.551935587054527,0,-0.39891721538112423,0,0.5428877309619577,0],[0.5225143299667059,0,-0.557918091257527,0,-0.1396990773431308,0,0.12338473688452312,0],[0.385214011249837,0,-0.515778701229797,0,-0.6224331653055972,0,0.9893956704424758,0],[-0.40721582828700753,0,0.6918419465011298,0,0.18369630643645407,0,-0.639458444526072,0],[0.15889338209786663,0,-0.35223872250356547,0,-0.43197307584291234,0,-0.9931432363560948,0],[0.882142446927138,0,0.8066665024334063,0,0.22411778502120527,0,-0.586246610281862,0],[-0.14855080385321728,0,-0.7795445753847421,0,0.1576202701265248,0,0.13214539775107825,0],[0.4019891427739346,0,0.9947877160189105,0,0.2706869396579221,0,-0.8964113585547795,0],[0.48781701466289995,0,-0.7987268274691368,0,-0.7810725689079521,0,0.3225576878931433,0],[-0.474813677935777,0,-0.801760857741969,0,0.13105996280351628,0,-0.4172526012793818,0],[-0.839027477947327,0,0.3540340289424646,0,0.08804809397199764,0,0.2515516481347604,0],[-0.8665019970355687,0,-0.9796595738162466,0,0.8776529196282794,0,0.026637704882268798,0],[0.41844643711937946,0,0.2689866697182257,0,0.4719714830532098,0,0.4508007076860263,0],[-0.8095547462823622,0,-0.615739135266395,0,0.9196728665564211,0,-0.40395293034380786,0],[0.7812854134837006,0,0.3937479154021215,0,-0.09871621151834464,0,0.7751234142429364,0],[0.7786385740841917,0,0.02422459544804134,0,0.06501696001919188,0,0.3984707864897741,0],[0.6845216900549358,0,-0.6148353674314386,0,0.44227469160020094,0,0.16685145856501782,0],[0.14065062613714185,0,0.41091992049359605,0,-0.2638976185000874,0,0.6746602966206063,0],[0.6282141704832012,0,-0.3663388979492912,0,0.08250608515899449,0,-0.8038013911177986,0],[0.7624911924054061,0,0.2126751925527255,0,0.0036892865520334883,0,-0.06304634424356581,0],[0.8281232901479971,0,0.3116341949027519,0,0.7039050209909616,0,0.35419332998750286,0],[0.038747438901098,0,-0.10603603520623972,0,0.6027594697590903,0,0.2859505541225247,0],[0.1550820366891068,0,0.7974587938139259,0,-0.9425560913278845,0,-0.4252626671191322,0],[-0.4415483558539959,0,0.5528014887361914,0,-0.40548667415328543,0,0.6320950335367765,0],[0.6521259147688863,0,0.8266662627705412,0,-0.3465305833861265,0,0.9623522188731444,0],[0.5507387415767278,0,0.5985953963351516,0,-0.1614528120320471,0,-0.9512727951205273,0],[0.41844417636842746,0,0.22185803015478966,0,0.9817442762988202,0,-0.7978220905718247,0],[0.5293568348212967,0,-0.6279867687543932,0,-0.060725884889625714,0,0.9831680483911494,0],[0.14921461556833093,0,-0.44708268840599996,0,0.975262532136278,0,0.6287835504370116,0],[-0.3249077565347964,0,0.30842866721232043,0,0.830650194745058,0,-0.4476017425612213,0],[-0.8796149909242064,0,-0.42091909636133806,0,0.13190239294564066,0,0.4303553123591415,0],[-0.004827418473612344,0,0.7465095702844222,0,-0.3367309696654126,0,0.649894478026837,0],[0.9074631885243614,0,-0.17556608932988182,0,-0.7920218038806912,0,-0.03517794195320123,0],[0.7987095305652518,0,-0.016489735658715476,0,-0.8421130582438561,0,0.09018570773396206,0],[-0.37262184474420024,0,-0.8616099337268543,0,0.8977542546651891,0,0.6644822119024734,0],[0.5272442583062598,0,-0.3211698417492561,0,-0.9105588242722094,0,0.5176911946950107,0],[-0.007524509790866052,0,-0.40728048690348007,0,-0.5870166054183747,0,-0.4943058716109592,0],[-0.5205420357389245,0,-0.7925984737199601,0,-0.9343759731769263,0,0.3064035986870184,0],[0.9657086500624428,0,-0.43331286542953973,0,0.37653198418924094,0,-0.47980764523052644,0],[0.46910971346824315,0,-0.935530937983494,0,0.26407500224925684,0,-0.8230208129274528,0],[-0.693910910671923,0,0.37186382404469365,0,-0.05584527519144,0,-0.6754076605847075,0],[0.9552647103916267,0,-0.07667670293618567,0,0.292253439235997,0,-0.24220208131190657,0],[-0.2065420530637041,0,-0.7318270050455093,0,0.5684812875299488,0,0.14464641269439693,0],[0.6838746823542856,0,-0.5524491227001678,0,-0.1659452040054552,0,0.8165553821461313,0],[-0.5783588507767741,0,0.22273485168885943,0,-0.6807228137037671,0,-0.6891872873910816,0],[-0.6202263413395439,0,-0.540636316346234,0,0.2472319671118326,0,0.38894987377214574,0],[-0.6509488106012227,0,0.26307121650657384,0,-0.8259581785892753,0,-0.298299298242394,0],[-0.47184905110723174,0,0.5655696858805239,0,-0.2243145745151811,0,-0.4689734630582574,0],[0.8957972714976492,0,-0.22376688075016404,0,0.19300571116198006,0,-0.8880454843402872,0],[-0.21543543816611854,0,-0.15725202177403141,0,0.5406833777466815,0,-0.07825900132700125,0],[0.3763670937902204,0,-0.3945863975254602,0,-0.0074101692231376415,0,0.021137893323015744,0],[-0.9474432656107803,0,-0.31680981489358584,0,0.9750756309820987,0,-0.9576942187551829,0],[0.05694239179013105,0,0.2956086491015144,0,-0.5686108789032842,0,0.740182272819651,0],[-0.23206517313884922,0,0.40317123703900526,0,0.8645627600145607,0,-0.84111910348368,0],[-0.9735895719494156,0,-0.6601117469259614,0,-0.07725677970132705,0,-0.5880393148346941,0],[-0.5712204033220045,0,-0.2848884887687657,0,0.6600837217199906,0,0.8351719454215307,0],[0.27013466647326556,0,0.7778404060155535,0,-0.7120435934489011,0,0.842550653492018,0],[-0.08975635500778334,0,0.6651932029557854,0,-0.7746161814260002,0,0.20149783066895366,0],[0.7355465948044859,0,-0.0022496070981046223,0,-0.43577062720848314,0,0.6397474940137455,0],[0.6032021227569817,0,0.13799344365960486,0,0.6838261429858956,0,-0.2931091462226598,0],[-0.32137867790515795,0,-0.9059219345661524,0,0.6813657304868532,0,-0.3646084314983342,0],[-0.08418113677552852,0,0.529696003753259,0,-0.4714916698790399,0,0.5807913491807313,0],[-0.9197006232670033,0,0.6317953222115593,0,0.421315222814415,0,0.0680711976927515,0],[0.17708974435307434,0,-0.3085546969764599,0,-0.3402520853231057,0,-0.26910035856477355,0],[0.42191743613799626,0,0.16914653890243825,0,-0.4253839476148831,0,-0.4972359448083168,0],[-0.5185738350552289,0,0.7444039258654511,0,-0.4860019551898649,0,0.30374770177798927,0],[0.6087103988195719,0,0.3903942520098682,0,-0.29220010162837773,0,0.9639798986790589,0],[0.5133412575637151,0,-0.13192288904321536,0,-0.0517436728626981,0,-0.36544687384183683,0],[0.3304469785478763,0,0.2001127649285548,0,-0.544179387447403,0,0.25896619138725874,0],[0.8913008428888076,0,0.6634661427283297,0,0.04402952458295606,0,0.8129176768797595,0],[0.64826184228971,0,0.6305922034112661,0,-0.246429875567739,0,-0.032459590569920316,0],[0.06980200187100416,0,0.19261341389834263,0,0.4949163892606101,0,0.590933114284319,0],[0.09674642694920621,0,-0.08608486221019018,0,0.9205438115451352,0,0.07511003660453586,0],[0.3387419110980936,0,0.29610160796496077,0,0.7418709498268208,0,0.8602568437354716,0],[-0.9096389159589997,0,0.5702689100226224,0,-0.9872823716912087,0,-0.2745557044293232,0],[-0.040861031628510514,0,0.2900694878031296,0,0.5202093252568405,0,-0.5752802979981582,0],[0.9232309108512662,0,-0.13594453001257722,0,-0.6443001991225339,0,-0.9302412488617271,0],[0.9742690476128748,0,-0.3556933352460834,0,0.982421833138704,0,0.29502851260855545,0],[-0.848611918872576,0,-0.5206381558098498,0,-0.32678060373949225,0,0.6886763130255786,0],[0.7352792230296243,0,-0.25700982292050756,0,-0.9391465802692656,0,0.2321257491549551,0],[-0.35347718966551933,0,0.766353264826054,0,-0.2749858291728362,0,0.5636263549643048,0],[0.6803416377440725,0,0.3296250286542297,0,-0.765685119766073,0,0.7657690404769082,0],[0.11030548539674445,0,0.4101518290444144,0,0.8681804683976773,0,-0.9257548056060463,0],[0.40640999092600083,0,0.7377512038408209,0,-0.6373129528419954,0,-0.5851069794359114,0],[0.33834288372442134,0,-0.1262372985483986,0,-0.5439523822543182,0,0.9983398135324195,0],[-0.4273593221165195,0,0.5089802183926957,0,-0.2464192718430147,0,0.3363155567560385,0],[-0.9771694802944879,0,0.4666111916399487,0,0.4886389887642544,0,-0.009022574683926754,0],[0.6745419661222833,0,0.4999227835584805,0,-0.874885145664873,0,-0.8716484107157085,0],[-0.6170361800549007,0,0.3902520194225729,0,0.4287826190566133,0,-0.4807361174166713,0],[0.2279128692999568,0,0.0795708071425607,0,-0.3711249905485299,0,-0.984103607833055,0],[0.4121703591475432,0,0.6128145018929658,0,0.5979338831282051,0,0.72937283364033,0],[0.4016346103464654,0,0.5186960388543822,0,-0.4028843198076393,0,0.14354129480786804,0],[-0.9687735907333643,0,0.9237452879138777,0,-0.934227822831986,0,0.22238827985605125,0],[-0.36162260634006516,0,-0.8271723550726018,0,-0.8217323620190453,0,0.2032839276266707,0],[0.9363191546507217,0,0.020411584392773907,0,-0.5523649100263666,0,-0.7844766526037199,0],[-0.6977157697400098,0,-0.43962833990977024,0,0.5248137179872732,0,-0.8766041924457952,0],[0.4311181983368677,0,-0.021872889104005866,0,-0.47614863754431314,0,0.06527734759848958,0],[-0.10730473403587681,0,0.9374341101326262,0,0.6975952253716813,0,-0.954990181541955,0],[0.03191802514547204,0,-0.04483664557013611,0,-0.9049637596134197,0,0.6290938337889429,0],[0.8629744011730622,0,-0.5290887253105627,0,-0.04938846592921742,0,-0.6870106556497328,0],[-0.8650855344158899,0,0.48430909109778697,0,0.9874111337767872,0,-0.557917719613001,0],[0.5835009519760082,0,-0.3885914592415274,0,0.5603753316760187,0,0.7076429068430039,0],[-0.46532262244502887,0,0.2025396586768038,0,-0.3777901684620195,0,-0.8146345188496464,0],[-0.5121109796697874,0,0.7675512122673345,0,-0.1361140285941611,0,-0.35615451644119367,0],[0.08288200872939666,0,-0.629640382625106,0,0.0632347792404544,0,0.4226158139468259,0],[-0.05850337732880706,0,0.8832492179434197,0,-0.3307163619585336,0,-0.4358704009979335,0],[-0.7236381920731614,0,-0.9676197320886502,0,0.9566247596533259,0,0.08134194736578682,0],[0.8712877066440539,0,-0.9805214089361469,0,0.7032464461004249,0,-0.7476909515702481,0],[-0.9364549559463786,0,-0.8293044997312742,0,-0.7231029482587226,0,-0.34451049091613695,0],[-0.30389108840288426,0,-0.4578580535383858,0,-0.740806450353124,0,0.2941966623964849,0],[-0.3416625504041424,0,-0.29738230442157154,0,-0.706673236187999,0,0.6059175446177565,0],[0.5964439790109004,0,-0.9824295739667306,0,-0.28964413952770784,0,0.4119800006923444,0],[-0.34948596301655055,0,0.6743365137385242,0,0.670725269098696,0,0.9353133774079825,0],[0.6627081900443164,0,-0.5827699019162136,0,-0.9482218754022307,0,-0.10118363155273769,0],[0.2016818726858498,0,0.5020631385920142,0,-0.8813191879991917,0,-0.5858914815697711,0],[-0.03885454675096622,0,-0.2668054484030511,0,0.135313611104795,0,0.8802100745449088,0],[0.6158767636414166,0,-0.38777779768345333,0,-0.4966765930175425,0,0.4339581319700099,0],[0.05639016631414795,0,0.6059470134935556,0,0.7616747609144257,0,-0.37126537847902874,0],[-0.9261436885667078,0,-0.667745636814832,0,-0.16432342318889837,0,0.9653462736236464,0],[0.029757026235088135,0,-0.9339263743422088,0,0.2936017796785857,0,0.6586619275248484,0],[0.8201517374706733,0,0.3835913262154067,0,-0.9493413965211535,0,-0.4041201905074032,0],[-0.46767963957409564,0,0.9914111352881483,0,-0.04578787992790745,0,-0.17293880498614,0],[0.5919407408733124,0,-0.17163340620931922,0,-0.00920423601685516,0,0.12583330713997465,0],[0.9118464362909515,0,-0.618788783501423,0,-0.5254069686357872,0,0.1679304953344758,0],[0.578804582079655,0,-0.17857624932752336,0,-0.49129014821973493,0,0.6975071665263473,0],[0.9526406346994927,0,-0.9511165004654991,0,-0.7453002807729983,0,0.6859224172609548,0],[-0.29756895707115416,0,0.019185436376846665,0,0.10244267960568654,0,-0.06503807775641568,0],[-0.7326279342892745,0,0.8348807921280841,0,-0.29837824440477,0,0.836227429791192,0],[0.5053264711381726,0,-0.003055205567489949,0,-0.0023202398333215246,0,0.07069114917662,0],[0.8799384805682313,0,0.941287749793519,0,-0.09071994198226774,0,-0.08282329039848824,0],[0.4375989622575276,0,0.5261426259999056,0,-0.9090634988488508,0,-0.4642050656635772,0],[-0.9615665526362531,0,-0.5103232074888964,0,0.34361715282078475,0,-0.8978726466966911,0],[0.8308753654818182,0,-0.9368078583233832,0,0.6677681126802208,0,-0.009782714232806855,0],[0.7972787784997053,0,0.9037925991066884,0,0.6973430564245089,0,0.3371922464439172,0],[-0.6515854610680649,0,-0.6985858037581947,0,-0.6899331830316413,0,-0.7303908418509837,0],[0.4075843710655396,0,-0.7813714851607423,0,0.5782991762085254,0,0.831377136865576,0],[0.20047946627940139,0,-0.8623546677012512,0,-0.09349147310601258,0,0.22538027228389756,0],[0.05479813533281508,0,-0.08254306633986785,0,-0.8044968237845387,0,0.3656874078822938,0],[0.9140307348311205,0,-0.09491888476323251,0,-0.8197889217728573,0,-0.06549845780314212,0],[-0.01729163380072163,0,0.3983762903019745,0,0.7069366875478935,0,-0.8522326477917799,0],[0.9458034952110246,0,0.22391748780298926,0,-0.35233267039349836,0,0.25562130194117816,0],[0.5428614265019809,0,-0.3280626951936254,0,0.39313897266010667,0,0.4386335927311342,0],[-0.07216886708805959,0,0.3213523435831711,0,0.4230148424833122,0,-0.7919426008407904,0],[-0.7915434543133946,0,0.3914104142936208,0,-0.6793315915009148,0,0.6780664792447864,0],[-0.16552274968616687,0,-0.8274901460330661,0,-0.21829500681143377,0,-0.8497723528667354,0],[0.09178112429379359,0,0.8172579137519402,0,-0.34050493839110807,0,0.3352204664837697,0],[-0.13996049763387175,0,-0.6861494325395043,0,0.8976343767303487,0,0.23408152194186838,0],[0.004248183836828012,0,0.8173721893068568,0,-0.681613943759922,0,-0.7889826229195396,0],[-0.704013368789465,0,0.6806286685328424,0,0.6678000282743655,0,0.11209495570595363,0],[-0.4019008709859493,0,0.5046432230212363,0,-0.9376532149391386,0,0.41888386771209385,0],[0.19689231744787516,0,-0.6800396761707381,0,0.03854205207147188,0,-0.6266084553260396,0],[0.6288337747547577,0,0.6134178404714377,0,-0.2238197255406731,0,-0.2296035194831303,0],[0.12412735723811141,0,-0.6689356013699546,0,0.7474353775003091,0,0.6855518890199637,0],[0.8774308497454322,0,0.21641285197001658,0,0.038227172888095406,0,-0.2076037910052364,0],[-0.24362647038265495,0,0.8842386518244192,0,-0.10510628955177626,0,0.11867401057476434,0],[0.7714204371967393,0,-0.11635512839521467,0,0.6683489573627817,0,0.10213531972200873,0],[0.6560210357500038,0,-0.32986616033307503,0,0.25954744440206223,0,-0.3717526448743882,0],[0.24387202643414008,0,0.8849392182844167,0,-0.5857833671494068,0,0.3670190594494964,0],[0.9805121443430864,0,-0.3691118339659478,0,0.7714590912103356,0,0.17340268475456067,0],[0.8693598297876444,0,-0.4624194511500559,0,-0.5600321078105852,0,0.575504467373422,0],[-0.572306136286151,0,-0.6753155054528157,0,0.057237474347702655,0,-0.5528996778523552,0],[0.8159680399857598,0,0.30066737412260336,0,-0.21870527184832667,0,-0.15428118215970477,0],[0.2042417531971521,0,0.775292894390113,0,0.4711143787537213,0,0.6948196036878354,0],[0.6523988299185683,0,-0.2822665791282426,0,0.431024211973585,0,-0.5016395651847192,0],[0.3062175602734025,0,0.15816127791388657,0,0.5260453620128087,0,-0.40168819045112425,0],[0.5492454272482805,0,-0.19080220314174756,0,-0.7807449888906348,0,0.6204442394632208,0],[0.9008231388300199,0,0.17461609090963925,0,0.138897452371886,0,0.7009785782367652,0],[-0.08650760482005504,0,0.016207085849717195,0,0.152112107211267,0,0.8464544592469123,0],[-0.9015868587777371,0,0.46573606696190906,0,-0.3962136526665221,0,-0.6485602721751207,0],[0.9953063608414954,0,-0.7025687745449709,0,-0.626818025829363,0,-0.416532976195229,0],[0.9038290736567993,0,0.9174612302805085,0,-0.2923745342082824,0,-0.35814901368777985,0],[0.5061790096614298,0,0.48037624997097317,0,-0.5883088012384969,0,-0.593195760074775,0],[0.6361169840464329,0,-0.7915003035125436,0,0.9019495717571506,0,-0.682463865503931,0],[-0.21251475553340615,0,-0.5312239061849722,0,0.8814905504021371,0,-0.1472156546142258,0],[0.6056916549814366,0,0.4525949474953568,0,-0.0549249008796282,0,-0.8655055934847584,0],[0.5685188194266835,0,0.40762577777807674,0,-0.7050927111389866,0,0.3351279528287763,0],[-0.661990592946867,0,-0.7132839743543944,0,0.9286599402038762,0,0.6413468616936766,0],[-0.1469319653564447,0,0.4074188740255633,0,-0.8444718216413938,0,-0.5884154354128217,0],[-0.8671877787376043,0,-0.7432672579024784,0,0.10272522988350508,0,0.8622834520090672,0],[-0.026406004772946856,0,-0.0708483236109867,0,-0.006024405439910341,0,0.12734091631251432,0],[0.2480058370916769,0,0.8521391642006497,0,0.4132015751044853,0,0.8575737090547246,0],[0.3520738865449904,0,-0.5683438178851044,0,-0.4892606133745183,0,-0.33822532695490115,0],[-0.5027663143929508,0,0.0413871341146268,0,0.1660620976606697,0,-0.3617967036399783,0],[0.006571784390154711,0,-0.6171749284280279,0,-0.5098732234958347,0,0.005114594828803387,0],[-0.44978968745333536,0,-0.3406072891201737,0,0.7321047251608159,0,-0.5888008427774865,0],[0.34259946665314,0,-0.7637097890611819,0,0.649392942739172,0,0.891570978632406,0],[-0.2751246688017448,0,0.49877816737168157,0,0.7064469176143777,0,0.6322056082252108,0],[0.26832993895896573,0,-0.52488155448205,0,-0.9128850565028142,0,0.7154981344298363,0],[-0.4395681866581842,0,-0.5435883852219578,0,0.43679426618284345,0,-0.1581262937392527,0],[0.17272567892028956,0,-0.6759141340284638,0,-0.5051288656486677,0,-0.3428484153857845,0],[0.9603303815775126,0,0.5868068711312993,0,-0.665453744162773,0,-0.2373729710025323,0],[-0.19435519679650404,0,-0.7679056997760347,0,0.7962886908292344,0,-0.25539743583812213,0],[-0.8057373718071019,0,-0.5860533252852451,0,0.8828013884269652,0,-0.3676346527570198,0],[-0.40101312106159615,0,-0.27370886117955906,0,0.37752206180564607,0,-0.9216279214124015,0],[-0.45177444397685473,0,-0.6469094375260482,0,0.7553243767555413,0,0.25167002949478245,0],[-0.5320583120239988,0,0.7394565594112656,0,-0.4267757366024276,0,-0.05465261977072,0],[0.9117196978829081,0,-0.40586863638137616,0,-0.0394625875470076,0,0.7210720163835731,0],[-0.368597408980853,0,0.012219273052140434,0,-0.4279258774367487,0,-0.9514568949978417,0],[0.09114372761060885,0,0.29806122621463227,0,-0.5754012602187386,0,0.3449465480255618,0],[0.4906079342410976,0,-0.32833578275978725,0,-0.5940785752336146,0,0.5792695278294286,0],[-0.8615520638183003,0,-0.5418887389380027,0,0.9276302848428137,0,-0.3214039666676416,0],[-0.8949281079029425,0,0.5878941081377427,0,0.18661300040119588,0,-0.6417292399653616,0],[0.48410862597247295,0,0.2771259739781322,0,-0.19284250217732857,0,-0.8049162011178856,0],[0.3048683826587091,0,0.6101077255601584,0,0.2545617490431704,0,-0.2276049958239581,0],[-0.8365133242005196,0,0.4127359300324589,0,-0.6571765591436531,0,0.5483815816154589,0],[0.9783298813105927,0,-0.7162426352789935,0,0.4031212934943691,0,0.7333594958931671,0],[-0.07436780429431078,0,0.9418903721944716,0,-0.7635602721891344,0,-0.09060719739467604,0],[0.5742234131326254,0,0.15034771736296548,0,0.8428292908682815,0,-0.6148270215973126,0],[-0.4864019676198914,0,-0.6036867471574039,0,-0.8985628020624499,0,-0.6485857075508945,0],[-0.6425327961634786,0,0.23143886958716497,0,0.06958058766581998,0,0.7867774004406949,0],[0.905324565722661,0,-0.27955603153776964,0,0.37577808031756277,0,0.761599235689157,0],[0.45744927120260326,0,0.798416170748298,0,0.3007942146629199,0,-0.703527616356959,0],[0.8041581551096786,0,0.5034265093000554,0,0.5723928737855892,0,-0.7450166359398738,0],[0.2480115411928947,0,0.029588841163907587,0,0.6436358406950053,0,-0.11531598394960496,0],[0.16806628681940716,0,-0.6632915217842208,0,0.2812040121770467,0,-0.4323629383389944,0],[0.09816123262298015,0,0.65618035612739,0,-0.34064176425384374,0,0.10164102599136404,0],[0.06661081259742274,0,-0.351186503216697,0,-0.1632010415610925,0,-0.5944936195741151,0],[-0.9674278442046327,0,0.19877308492071255,0,-0.5121773709730637,0,-0.07347931720813383,0],[-0.3452567304055054,0,0.8688483783766674,0,-0.9341846512075083,0,0.22550442199721954,0],[-0.6590610048198133,0,-0.10423095487535017,0,0.19626308031504314,0,-0.7753729833718912,0],[-0.4475166114652589,0,-0.729691339201425,0,0.028100219540707405,0,0.42541660591624475,0],[-0.3247537470295172,0,0.9254303983119483,0,-0.4836433838677101,0,-0.9608366089530251,0],[0.4195441693990001,0,-0.6532558684934138,0,-0.8342934513442994,0,0.41918189118195803,0],[0.6740147894874815,0,-0.9769388549101261,0,-0.3663386764621148,0,-0.5558370109533539,0],[-0.9860343105362928,0,0.070847446256467,0,-0.226210989371054,0,-0.42588758688914474,0],[0.6525885164315997,0,-0.9051072037886412,0,-0.8065144743594508,0,-0.81486187134582,0],[0.5238201736140156,0,0.8885277871421675,0,0.2074614465628386,0,-0.5133861739337395,0],[-0.6014763723883823,0,-0.0697628384475768,0,-0.8127504091404945,0,0.8340126692474419,0],[0.4610509239051215,0,0.7995330035786208,0,-0.261320725810835,0,0.5729697527625917,0],[0.6111426698280389,0,-0.3865322925282608,0,-0.11659612743408876,0,-0.31510144133143725,0],[-0.09349258522688197,0,0.3761811540267155,0,0.4772082818110701,0,-0.5482485166760123,0],[0.024316479292988413,0,0.7373928776697509,0,0.46696446524521806,0,-0.8827200669898665,0],[0.3952393445844302,0,-0.9282341394178883,0,0.26974304575505825,0,-0.9055832430636841,0],[0.7515358541290023,0,-0.9804167100007812,0,-0.4482701583216453,0,-0.34683333151250495,0],[-0.7688881543829715,0,0.6701963495237702,0,-0.00876261609487683,0,0.22065908219636943,0],[-0.10766417558371577,0,-0.5767843469983642,0,-0.7707593317701724,0,-0.5652196050530132,0],[0.5198044196450586,0,0.22843565117070574,0,-0.8574909134722541,0,0.9150709074566321,0],[0.9391352396969703,0,0.3839957765573805,0,-0.18145498662555548,0,0.3493352429525338,0],[-0.29074349842534586,0,0.36329906893921793,0,0.16818150087262507,0,-0.058317649410838834,0],[-0.9764465821811104,0,-0.7552768819072975,0,0.9808320065099803,0,0.5274754846342558,0],[-0.07337863106361175,0,-0.7658245180217258,0,0.4090246726938809,0,-0.26706112602723153,0],[0.5412673647889024,0,0.49905955165579297,0,-0.637003882515996,0,0.4419334280262426,0],[0.9007915530018678,0,-0.9267658871840558,0,-0.8972416917477912,0,-0.4703206093903629,0],[-0.8055290332084022,0,0.9460645479852905,0,-0.5658054970654236,0,0.3329690247225998,0],[-0.2404417409085302,0,0.6146789816678473,0,-0.6526207549584384,0,-0.35132147009774006,0],[0.9909997683515626,0,0.35705967640089664,0,0.6794599325997488,0,-0.8128454941245686,0],[-0.5095335233742322,0,-0.7253862466536778,0,-0.5589242902979978,0,0.35431417646780305,0],[-0.7608170684899049,0,0.756384571935967,0,0.8144323526431765,0,-0.0039337336769209585,0],[-0.645570327704365,0,-0.5669204588520116,0,0.5127910662634618,0,-0.689076123589663,0],[-0.922514620953031,0,-0.08239306418495551,0,-0.8147297866572103,0,0.5214462240875206,0],[0.041165046548998996,0,-0.33017196906830226,0,-0.14250059231214496,0,0.09241237181744544,0],[-0.4219977022365924,0,-0.8232506167515461,0,-0.9821939065952072,0,-0.706604394813855,0],[0.8555129338448477,0,0.3053922960494533,0,-0.10974417203526432,0,0.7256720548611506,0],[-0.037130950439642874,0,0.16409524471092807,0,-0.3199929521046423,0,-0.9318364848927436,0],[0.7237025934711652,0,-0.9009817823147441,0,-0.8669168832196636,0,-0.2556199821200187,0],[0.9726482639968645,0,-0.4438642676549671,0,0.6218035713023524,0,0.4720925465399499,0],[-0.691373503837563,0,-0.5449814912645727,0,0.14875841436975246,0,-0.2702668519045892,0],[0.9257570557545249,0,-0.5507782153495835,0,-0.8436508028562839,0,-0.941715842763259,0],[-0.9768139761343431,0,-0.010887729313469707,0,-0.1644386847476278,0,0.8146843919965308,0],[0.5079969602566652,0,-0.5435181164874372,0,0.7467730610128998,0,-0.4974536492783479,0],[-0.7692289097781715,0,0.8063123647464989,0,-0.0029532948594270803,0,-0.8717575423899475,0],[0.8312485920950774,0,-0.8704304707388977,0,0.962488417053458,0,-0.8348138893999211,0],[0.42193592855963913,0,0.3419230349467781,0,0.6009043114601063,0,-0.34360259086275513,0],[-0.19960576953942555,0,-0.19319831728747738,0,0.7691191516311493,0,-0.25479098312499127,0],[0.6563335698694608,0,-0.882789473592918,0,0.6409678196385169,0,-0.5037650264821303,0],[0.32753008291044217,0,-0.5107478867929289,0,-0.6838932075426865,0,0.25348839071778584,0],[-0.9410282209050025,0,-0.7386910870368424,0,0.01643590812904616,0,-0.020198418730953627,0],[0.4325312677562896,0,0.8463605592633419,0,0.8860610553096788,0,-0.9685329631520705,0],[-0.3401472513066848,0,-0.8490760481450379,0,0.34236741357643585,0,0.6442829164556227,0],[-0.23096800343773394,0,0.9526215365522099,0,-0.8300841247385915,0,-0.9580465915704459,0],[-0.6339409951238109,0,-0.9806029842371295,0,-0.8944862013440527,0,0.5250585792852711,0],[-0.3851172993638734,0,-0.14308548062253168,0,0.5319534132215711,0,-0.8414247512622606,0],[0.3553481682102131,0,-0.11330776718628943,0,0.0795507316606614,0,0.7481951146442449,0],[-0.1338520013865765,0,-0.4139619064315456,0,0.42875907248261225,0,0.6804526686128487,0],[-0.3196810207148808,0,0.661868750733783,0,-0.5862281241374345,0,0.8989401143751434,0],[-0.9262933321279738,0,-0.3159887774176644,0,-0.3538304756603039,0,0.7986536692526602,0],[-0.6277888433780505,0,0.7696006746253845,0,-0.6906932575740212,0,0.1427795125021687,0],[0.06151678672034011,0,-0.11129707167968483,0,-0.48172380366779666,0,-0.7590056177153046,0],[0.8334013932223996,0,0.15230792074733435,0,-0.3030742205953725,0,0.5756213623505073,0],[0.16560835748584313,0,-0.9526460096085774,0,-0.20745271984530067,0,0.8217463959186768,0],[-0.1923415685399983,0,0.9994593585842881,0,0.8304945655020817,0,0.7796675740153942,0],[-0.3671337950817173,0,-0.12744709589868974,0,-0.6948698087529792,0,-0.8771860691401814,0],[0.7172190607784763,0,0.05561158789347043,0,0.2101402662257057,0,0.06153697563329241,0],[0.2186650875051177,0,-0.35977213194310953,0,0.13039728379105098,0,-0.9670567801182777,0],[-0.34425170917770087,0,0.8587454829728245,0,-0.25080773418268487,0,0.34920175805603426,0],[0.5224200694332899,0,-0.5687816023300973,0,0.36879706604821716,0,0.3715266014198402,0],[-0.17375458964563517,0,-0.23953699852696997,0,-0.4010403591476248,0,-0.7757003617997638,0],[-0.8998855962807049,0,-0.9820115900439463,0,-0.7629261461242662,0,-0.676436214607594,0],[-0.28704083031536554,0,0.07960726916589489,0,-0.4545916127312668,0,0.06638500766688948,0],[0.8928673334917099,0,0.9980431093141164,0,0.6249177646289148,0,0.9123430251272153,0],[0.7763740800867056,0,-0.7591327392001668,0,-0.6081997528471474,0,-0.21431929845113862,0],[-0.9893953569065772,0,0.27561302469891213,0,-0.21789184679964912,0,0.23640413206051214,0],[-0.03966933440515441,0,0.2499312358443555,0,0.24135594273641336,0,-0.8791068377171103,0],[0.40989393385405926,0,-0.5068333810982719,0,0.30021261592069726,0,0.6973468270455851,0],[0.800341645757263,0,-0.6432503616933316,0,-0.9059943376909505,0,0.9786540192717998,0],[0.5050078883335216,0,-0.4856852243513865,0,-0.947095917073421,0,-0.0549543354172457,0],[-0.5778326533258471,0,0.25847151511418165,0,-0.3287113630753944,0,0.7911495329301761,0],[0.2512769763464884,0,0.559669464398614,0,-0.7410413835413252,0,0.7668351579188013,0],[0.2197121549835226,0,-0.30638404799243135,0,0.8834645482985577,0,-0.6314983161615604,0],[-0.26020464169288315,0,0.09721859215136464,0,0.3319965400036222,0,0.6472269224728129,0],[0.5013047309780425,0,-0.2209584467419523,0,0.8528999329773277,0,-0.7775378976611742,0],[0.8425413646979869,0,0.08878057894248181,0,-0.31897112500713076,0,0.2247214671586888,0],[-0.10657532531555858,0,0.9412759558918558,0,0.9077906095435975,0,-0.1620174850499181,0],[-0.053024393152046434,0,0.6940999361792739,0,0.12587229111740061,0,-0.6277224611539505,0],[0.7909378991526939,0,-0.2062312823400343,0,0.4602844711300864,0,-0.13077669473426745,0],[0.3191792154100346,0,0.03414739939637235,0,-0.9085054381273707,0,0.12800077036128954,0],[0.6429031514667762,0,0.811628928686084,0,0.1830653570815124,0,0.7365631355558351,0],[0.13459471038103743,0,0.11518629691515647,0,0.24535318004941375,0,0.20261490979953667,0],[-0.6369873341188566,0,-0.8445888606492731,0,-0.6015380264918253,0,0.6011721655102256,0],[0.7154315669203783,0,-0.48483166654245635,0,0.7417896463261346,0,-0.7097224843402858,0],[-0.346271340562204,0,0.4955115652920141,0,0.09414333653009455,0,0.19371117359324952,0],[0.01379959175740586,0,-0.06597924667992094,0,-0.2624580484326584,0,0.9093031720560534,0],[0.5331791164040931,0,0.1887370146915679,0,0.47946370957735285,0,0.4737190727444909,0],[0.8796324277644196,0,0.20938777903683592,0,0.3424377808850616,0,0.9993559744077953,0],[0.8538743781710849,0,0.6586091096737714,0,-0.503480314262702,0,0.5962515282268481,0],[0.15246327330457898,0,-0.10061157575248902,0,-0.33066935285610044,0,-0.9983251982035684,0],[0.10230788064438734,0,0.3309666195157952,0,0.1999813285318155,0,-0.8376670541609472,0],[-0.8838841657135355,0,-0.9660463487949691,0,0.1473419439020156,0,-0.3511070673228738,0],[0.26850289849408493,0,-0.023572014241669548,0,0.41976045424900854,0,0.22978455319513946,0],[0.35537284885422915,0,-0.8636949538551382,0,-0.23752882982740608,0,0.19101487938373496,0],[-0.9254315256170904,0,0.8112766333970234,0,-0.379421688060813,0,0.06099091679376878,0],[0.5536847407091043,0,-0.8838625385903065,0,-0.6103634727636527,0,0.28411320510812477,0],[-0.6486738905828824,0,-0.7916681812032051,0,-0.627504896550414,0,-0.9158327251467944,0],[-0.7290197507471221,0,0.13606840849930268,0,-0.11979101074414378,0,0.26830734942701784,0],[-0.14792929413630151,0,-0.6306328832292709,0,-0.6535359980609401,0,0.044690609780140944,0],[0.24064300815942552,0,0.052916665840426313,0,0.06910179460254762,0,0.06158730056287065,0],[-0.7074724381042432,0,-0.1893605982261619,0,-0.7510281122702438,0,-0.1769434428739054,0],[0.22471486258246287,0,0.5353720956849055,0,-0.6345215850563684,0,-0.6039556062282463,0],[-0.09393188035184319,0,0.0130907087754486,0,-0.3901701079293074,0,0.8960247917775281,0],[0.9663896134835417,0,0.4596199236924756,0,-0.9088591255060088,0,0.6230718803296453,0],[-0.6967527054746088,0,0.08878533702220404,0,0.8371753567226285,0,0.9175153607624316,0],[0.278859275689479,0,-0.31551844988773303,0,-0.7693385980254621,0,-0.18590217036783319,0],[-0.07527588153170983,0,0.8151448057728385,0,0.45374867246818607,0,-0.6041814114816462,0],[0.8095752715645408,0,-0.1923656436421486,0,-0.24268042919590505,0,0.3834125171408569,0],[-0.12337074472157261,0,-0.11145675126586063,0,0.9285066193577738,0,0.943680860091868,0],[-0.48101277194814207,0,-0.9955268131624928,0,0.19890801437444372,0,-0.04034667737299302,0],[-0.5625593710314796,0,0.7488256923664787,0,-0.9823644623151828,0,-0.9221708683681422,0],[-0.5871782457340904,0,0.5511758357240846,0,-0.3925318284189767,0,-0.2674909320712646,0],[0.02543109576671454,0,0.8263114620616261,0,0.029026027006652688,0,-0.9555041671033153,0],[-0.43303608790596204,0,-0.8664645877587587,0,-0.4029801203841852,0,0.0012068633758093306,0],[0.9157491772256248,0,0.5628456232972161,0,0.9242722488848527,0,0.6475079797131018,0],[-0.015996377121623828,0,-0.45687866699485413,0,-0.38665395432251604,0,0.1513434368013764,0],[-0.5038033788487437,0,-0.9415390747119976,0,0.672258231015912,0,0.5555017289732975,0],[0.3205093203048026,0,0.8623324557483465,0,0.09989590168092821,0,-0.21337611981533922,0],[-0.6492355216450703,0,0.6952121260581519,0,0.7683933692575531,0,0.0648255831603266,0],[0.024092418773650648,0,-0.2600961205525132,0,-0.2761312558264464,0,0.24207001136120376,0],[0.9599905827748216,0,-0.4102538053651703,0,-0.6664399532377767,0,0.7946947435870146,0],[-0.08067662744081838,0,0.8584306420595029,0,-0.6734592752327244,0,0.20526091331567686,0],[0.30720067431320963,0,-0.7738300734393768,0,0.7068354326125896,0,-0.7088414174577908,0],[-0.2184364940198391,0,-0.8045296673736975,0,-0.23810243813095466,0,-0.3278316001631887,0],[-0.8203039331628039,0,-0.8792217252900425,0,0.9460504834787329,0,0.01644440408172554,0],[0.937774060440798,0,-0.8202127321927235,0,-0.7123647229171015,0,0.964149478311149,0],[-0.5460502122353865,0,0.8702053041360851,0,0.15024813618604127,0,0.7002395381636608,0],[-0.5666347770459237,0,0.3443010989658257,0,0.6725915141419407,0,0.03265881175490137,0],[0.1538743450026232,0,0.43456046198619025,0,-0.9818965386062355,0,0.5294743865224585,0],[-0.19585206198759564,0,-0.42269837929925025,0,0.6846702739001704,0,-0.22175703226144083,0],[0.5712229433525884,0,0.007112950379698946,0,-0.4436315929768406,0,0.15316910573133513,0],[-0.0075494329369640845,0,0.5734929002684179,0,-0.8766780175073807,0,-0.3896201115627853,0],[-0.7628127087524357,0,-0.677913687857947,0,0.35240305226900115,0,0.9789060243068033,0],[0.44646318255202955,0,-0.41357100947511394,0,-0.9393579906842309,0,-0.025274645439924193,0],[-0.9657460757558785,0,0.752125614957686,0,-0.6751432094050656,0,-0.26250923757303224,0],[0.9418716949046471,0,-0.91609632471837,0,0.4551496562448629,0,-0.9256709421717322,0],[-0.7626178585686423,0,-0.9529995087761312,0,-0.6334389801802709,0,0.7923642256231369,0],[-0.835155117471976,0,-0.592143147569236,0,-0.1976894887773557,0,-0.48861685746082717,0],[-0.2264346827339585,0,-0.9348943705923793,0,0.7936964149682095,0,-0.8296719911172543,0],[-0.40456378972037377,0,-0.9596399217607776,0,0.9858642025373043,0,-0.9239347502588855,0],[-0.5111610616835138,0,-0.6506782195277414,0,-0.9847029078491807,0,-0.20985403633157373,0],[-0.26953680643706135,0,0.5772436248480317,0,0.9940205512323037,0,0.4090391182717308,0],[0.7117970529182855,0,-0.10120042446964272,0,0.337154277209595,0,0.8655840917621878,0],[-0.8150731061515191,0,0.010927589277312189,0,0.664586172867003,0,0.7641744334571376,0],[0.9026803491140669,0,0.9882287265513732,0,-0.6858183169136196,0,-0.04054867527555439,0],[-0.2889661591544055,0,-0.5759800724862214,0,-0.8769153398187737,0,-0.4019507391527086,0],[0.6770976829908368,0,0.38615504039115134,0,-0.4346945966338487,0,-0.33479588716391295,0],[0.6738831012335478,0,-0.3047570165940974,0,-0.9220682726695659,0,0.2127972177206432,0],[-0.006555831521050548,0,0.8239078328727376,0,0.4649408686779912,0,0.392676711761055,0],[-0.9771191065144644,0,0.3192523545189816,0,0.6367292668084938,0,0.17886157234408695,0],[0.7930778742436928,0,0.06670012848222506,0,0.6251189730520081,0,0.23449995668718882,0],[-0.7020548740325923,0,-0.058090767458396586,0,-0.1922604939903636,0,-0.23578063750555112,0],[0.882317955611456,0,0.43846421750789655,0,-0.4176756509515891,0,0.3897710827350551,0],[-0.2904374590332335,0,-0.28743022272631036,0,0.3506027526105817,0,0.0966376487217091,0],[0.3453264310742492,0,-0.8480148202961844,0,-0.396892354562705,0,-0.8784628123225837,0],[0.8317609759447209,0,0.05495330253753705,0,0.14036037766042053,0,-0.7144754978781094,0],[0.27693647601802085,0,-0.7041053368159438,0,0.022535337588318383,0,-0.2753457151885432,0],[-0.05294106707238333,0,-0.04184783751021448,0,-0.2911536383535316,0,-0.7700629343827785,0],[0.12448913029416064,0,-0.16991257667939674,0,-0.9704615077848584,0,0.48058509336937894,0],[0.5824554590693471,0,0.3893459064372782,0,-0.8724907240589115,0,0.33930957163356434,0],[0.4277417244133066,0,-0.558876627712892,0,0.3132235248954982,0,-0.9243021131614775,0],[-0.7244774557972704,0,-0.07021831833609404,0,-0.1042725562475817,0,-0.10653644913540217,0],[0.24590969746342606,0,-0.3908224602866017,0,0.48420740019188924,0,0.4596285780011373,0],[0.10966218904436165,0,-0.7644158472740206,0,0.9986798831408923,0,0.2684625636697746,0],[-0.9390949331721941,0,0.7381000543430047,0,-0.31496008953758725,0,-0.37973111739439247,0],[0.05759146745852983,0,-0.5750433962011616,0,0.7988352844861786,0,-0.24512564065220444,0],[-0.5541666132823044,0,-0.2998506034752153,0,0.3037751404600184,0,-0.7480569167940365,0],[0.672117453322526,0,-0.006663462764281203,0,0.9251216994722278,0,-0.804997190266213,0],[-0.7121877679221797,0,-0.3530394007027706,0,-0.7952451418821713,0,0.7933355347269033,0],[0.16326460524204367,0,0.3580675690320454,0,0.8238394472947868,0,0.1656517922050209,0],[0.8541732385946026,0,-0.5616883372022972,0,-0.6093335100382264,0,-0.1882681941798079,0],[0.40081732902519773,0,-0.3658494977775102,0,0.13537951282773197,0,0.9329840390956206,0],[0.4911106012548587,0,0.5402501130749355,0,-0.4900620701901335,0,-0.789864238517568,0],[-0.11866015077215764,0,-0.2573637717298469,0,0.560810434190889,0,0.9060371733085715,0],[-0.7561615354838382,0,-0.25585761110826777,0,0.12353158587962776,0,0.23382519787800726,0],[0.1987366312193728,0,-0.5467776311002648,0,-0.6176045372826269,0,0.8154594553871648,0],[-0.812680802434196,0,0.5582087773577631,0,0.1452007643291684,0,-0.2470918290755728,0],[0.057414516506208546,0,-0.5373832296299552,0,-0.6978967837194614,0,0.34402756614231844,0],[0.7566258967003827,0,0.6231058816248234,0,-0.6307300550127437,0,0.7974433299384467,0],[-0.6328891888600559,0,-0.8897700436471885,0,-0.23782634631794686,0,-0.564490379349841,0],[0.8660009145878496,0,-0.9968802263818994,0,-0.49999769938238625,0,-0.17831448126832505,0],[0.4584482366276217,0,-0.16724063170891434,0,-0.5881972450260411,0,0.008434769140830412,0],[0.1056732369034008,0,-0.29546811045835786,0,0.5966166562227035,0,0.6740205962039847,0],[-0.04171980659042762,0,0.9592274845030324,0,-0.1159928159267285,0,-0.6986670468780571,0],[-0.19450267433508173,0,0.27272009097466654,0,0.34801618174980553,0,-0.25084939528701744,0],[-0.6361113976720532,0,-0.05196330839211449,0,-0.45326739833595764,0,0.5760069024145267,0],[0.2544754301954719,0,0.8195577986630964,0,0.09129159584992808,0,-0.7009070746565342,0],[0.855096656564293,0,-0.33239677694271474,0,0.39226754549536635,0,-0.5946015933746991,0],[-0.13477364243237844,0,-0.6673264824851719,0,-0.011938721639515038,0,0.37955489108183493,0],[-0.6166409078039914,0,-0.17786739378490668,0,-0.27097460131915163,0,0.27261257095969427,0],[-0.4275368644092934,0,-0.3818671298584253,0,0.2727106668309285,0,-0.59175260728874,0],[0.5768928015883465,0,0.12409942450722689,0,0.8397569740556197,0,0.7076608531030439,0],[-0.7454582295656849,0,0.7281064558335939,0,-0.013405994685473654,0,0.811699201752307,0],[0.5009094888009673,0,-0.6850065662467477,0,-0.7297435412861641,0,0.6884872914289897,0],[-0.5328560955218464,0,-0.7749148692304992,0,-0.8877402074346536,0,0.7371345766893487,0],[-0.1879861084197072,0,0.6358949137070877,0,-0.0873772449555732,0,-0.4671612340340259,0],[0.2781557701966002,0,0.1342059518416665,0,0.521763847229828,0,-0.6940226181752558,0],[-0.6541710140054067,0,0.8494416366452628,0,0.5471393349170619,0,-0.9924572065899722,0],[-0.5071941864655063,0,0.9352507822307556,0,0.6531312924685193,0,-0.6144568921906233,0],[0.6769118621958341,0,0.4147499316987304,0,0.006834330411716438,0,-0.1182450655888656,0],[-0.9418762150862112,0,-0.5541196608260892,0,0.32903079645207267,0,0.3554822169066336,0],[-0.3099784169429134,0,0.9168522714701637,0,-0.371215709331818,0,-0.34926156474715775,0],[0.9357834776125356,0,0.9476660843914821,0,-0.3682770774899575,0,-0.15446306780468966,0],[-0.29819765835949963,0,0.3522139639408626,0,-0.8437770442801149,0,-0.3432612068999743,0],[0.2323918669523326,0,0.40648248429707645,0,-0.7516543875478083,0,0.9211738357860837,0],[-0.8280558915868501,0,-0.6281083704710582,0,0.7555189686266717,0,0.33351528578917833,0],[-0.12371315506313185,0,0.1388218467407243,0,-0.799400911025475,0,0.6936551254139305,0],[-0.4571164969795336,0,0.0838954651576378,0,-0.687916436153466,0,-0.19890777015805616,0],[-0.3700935025072021,0,-0.2244047700145808,0,0.3728924705128589,0,0.8311107305683649,0],[-0.7528932611921357,0,-0.48368150326395054,0,-0.33072818956576233,0,-0.46270726216683045,0],[0.726792014647446,0,-0.12501981474580792,0,0.7530150252060774,0,0.9471739438087761,0],[0.4211181646618096,0,0.3427945089867648,0,-0.025660553615381554,0,-0.6473829913627143,0],[-0.07771301292052124,0,-0.9641202028765525,0,0.799394193419108,0,0.3437431409557685,0],[-0.634864090365761,0,-0.028152011866860782,0,0.79551776512142,0,0.3950276981668803,0],[-0.7530048057217993,0,0.8635539768148288,0,0.8490030819703502,0,0.08443163485817706,0],[0.2875778419971873,0,-0.3983021889158387,0,0.17426932060633926,0,-0.5887945974949278,0],[0.2520602784975565,0,-0.36101370453040094,0,-0.020020127562020873,0,-0.12473097381179676,0],[0.37339992933682,0,-0.6579221770854264,0,-0.7232133710529085,0,-0.009163988715992666,0],[0.0353285901766176,0,0.04354878767276116,0,0.2430216231724347,0,0.7292155744237041,0],[0.7153496003861208,0,0.004636229993284058,0,-0.19120320310806993,0,-0.979507081492401,0],[0.8374585245068349,0,0.7905268351191752,0,0.6756150414999689,0,0.8910526693480134,0],[0.1471968061530382,0,0.6634770250635402,0,0.8577338825604053,0,-0.9263233913699411,0],[-0.5029610091764969,0,0.5150671418341803,0,0.0131665120294715,0,0.9992120140110985,0],[-0.48199496168336653,0,-0.4125951797150651,0,-0.6736575298592358,0,-0.03642642309178723,0],[-0.44622134932949487,0,0.7741111045560738,0,-0.488905669923527,0,0.9611054222906967,0],[0.44650483853526257,0,0.6454371837092294,0,0.6217739211770621,0,-0.8149019593876927,0],[-0.7111708228366114,0,-0.4921243192778779,0,-0.2080549762148094,0,-0.48148166626444855,0],[-0.9053676006339593,0,-0.21285472594522448,0,0.7642385308566526,0,-0.5272222108343065,0],[-0.508695098343257,0,0.8144448474270023,0,0.13159681827064795,0,-0.02037076804854232,0],[-0.0007043734731511098,0,0.6993864371178449,0,-0.4207241583173311,0,0.20104773410621668,0],[-0.7599388682345476,0,-0.6109658438733023,0,-0.9013876809231678,0,0.09421760727623951,0],[-0.49856951328245147,0,-0.7590090555063567,0,-0.8622943872147357,0,-0.14648723974055744,0],[0.4897936706585624,0,0.47949012045107775,0,-0.03919660623289456,0,0.5486226947078514,0],[0.8114094891910235,0,0.7569653309512578,0,0.10732183136667417,0,-0.7122567248962242,0],[0.7505224028206272,0,0.709587761462056,0,0.7730702544370354,0,-0.9429840294415655,0],[-0.7501343829709646,0,0.8737745558387979,0,-0.8196073927394234,0,0.022165132223406436,0],[-0.3504791645506593,0,-0.37831137113416324,0,-0.4394226823654943,0,-0.47445064432354234,0],[0.7029935116100219,0,0.877266026008267,0,-0.7589720354282163,0,0.2716068340908202,0],[-0.33524528599594094,0,0.2903212367081558,0,-0.48867109754028104,0,0.265942213017901,0],[0.8313907344855134,0,-0.7252021304508016,0,0.43647859489415897,0,-0.04193343075668121,0],[-0.18110832442017544,0,-0.1417526503518831,0,-0.4077935358385607,0,-0.26493116591112753,0],[-0.9284981212722296,0,-0.35686667937114325,0,0.8164274221600176,0,0.42326143775232405,0],[-0.37705504568662995,0,-0.6534241949802131,0,0.5025304389032501,0,0.7771100235812576,0],[-0.03127282322641878,0,-0.6363353968941621,0,-0.29566270306135145,0,-0.9304786544558976,0],[-0.9413868229984808,0,0.590486725631866,0,0.37920888875449466,0,0.8448301041947612,0],[0.88125916658837,0,0.3465283967322901,0,-0.5350836724894952,0,-0.3444097358026059,0],[0.8883789502140766,0,0.6521286578807821,0,-0.8324643797516811,0,0.17654275725184854,0],[-0.4062910113302547,0,-0.654824843975504,0,-0.16823570035484603,0,-0.5261031251594139,0],[0.08242891783155648,0,0.562251117598499,0,-0.9282997811187703,0,0.4053276320465504,0],[-0.12041443720974443,0,-0.03704472541212711,0,-0.5407379350614363,0,-0.8641419174645457,0],[-0.34854259085544625,0,-0.25786523471400025,0,0.9990725983907767,0,0.5770605285860335,0],[-0.4483104998794558,0,0.9532842606680021,0,-0.13723346992605223,0,-0.808223578607683,0],[0.6744164607532375,0,-0.04261781510794527,0,-0.5876759249478984,0,0.053819638008862025,0],[0.0394848953245428,0,-0.08505057502457425,0,-0.588825964167415,0,0.31189544775123235,0],[0.8102746453281551,0,-0.8448686463222137,0,0.5034485046031134,0,0.2792300343912453,0],[-0.9674892500402352,0,-0.0158791126942468,0,-0.46408576332181295,0,0.2551744247961434,0],[0.08284717754644078,0,0.036254464402252884,0,-0.8962554467341186,0,-0.11769069544345001,0],[0.2288953058847909,0,-0.37537096952621574,0,-0.1795629239738621,0,-0.6476547514528057,0],[-0.7722403144388645,0,0.7141046791078858,0,0.24382319181696732,0,0.09637664370981858,0],[0.7280350847104933,0,0.11807098456577525,0,-0.8657443316242428,0,0.7298143938130799,0],[0.39060855045138365,0,-0.6886266881717746,0,-0.222298590331518,0,-0.03041209881877549,0],[-0.8934980731017539,0,-0.14469108922151364,0,0.4756071022716186,0,0.0009717422638788609,0],[0.46537979967986254,0,0.8466195575607964,0,0.985045835581239,0,-0.6563408127777337,0],[-0.283760545987354,0,-0.9690777642845403,0,-0.3132059502221125,0,-0.34853067547402006,0],[-0.13781073670988264,0,-0.7379640944225017,0,0.5656279325240381,0,0.07734112280728023,0],[-0.7558872903320182,0,0.8421766203103298,0,0.7062695093560898,0,-0.15496778901141983,0],[-0.006593231368303698,0,-0.05598883929974563,0,-0.05994624705411811,0,0.4912071331456156,0],[0.07187220896088364,0,-0.20592820065354567,0,0.5215271654989242,0,-0.12363572970102443,0],[-0.7327737372181053,0,0.5880540467015241,0,0.270830801143664,0,0.5103171963047985,0],[-0.5244038331704461,0,0.2120313588647289,0,-0.5131400546697242,0,0.9977109557303205,0],[-0.1222547506003866,0,0.75963941976555,0,0.1178338416027207,0,-0.5186796566580976,0],[0.20367217983548946,0,0.5637961850975213,0,-0.8299506699701598,0,-0.154358087095118,0],[0.18061487783717345,0,-0.9974599189288944,0,-0.8577669208387011,0,-0.8594419484996552,0],[0.47238193809300566,0,-0.3079149156457355,0,0.39204759896116936,0,0.19461591178317117,0],[-0.05667573503930945,0,0.84620605251884,0,-0.22705346502483348,0,0.7097311861194031,0],[-0.08184944523314464,0,-0.4404162140439982,0,0.62371605609987,0,-0.7361096847433062,0],[0.2591809686501356,0,-0.4362452035976929,0,-0.7503207456281247,0,-0.40430726287820584,0],[0.5455237769388679,0,-0.392173621012613,0,0.4036810441117282,0,-0.6956621594255603,0],[0.4140503440634964,0,0.03213369170281277,0,0.9566121987510283,0,-0.32907071115133046,0],[0.2099350675952545,0,0.3315300224344049,0,0.9413710489972384,0,-0.3082668015301151,0],[0.4949160145605551,0,0.5460182627083241,0,0.4608028168701266,0,-0.38870666500307083,0],[0.6743250923786066,0,0.16994681556353775,0,-0.43070349306278644,0,-0.7469282745313053,0],[-0.9706758563327891,0,-0.06299194621813631,0,0.16936007316654345,0,0.2675488856898789,0],[0.778676718443321,0,0.3167946366861256,0,0.20863569076175592,0,-0.947517122634038,0],[-0.555225738483498,0,-0.15031708417726275,0,-0.9805434307948679,0,0.5472934470116133,0],[-0.23847311813325378,0,0.5503295109602979,0,0.512188600601656,0,0.3633009824752358,0],[-0.3628814278119594,0,0.5260822091936208,0,0.11523974614046972,0,-0.21618182071378045,0],[0.27251907170471634,0,-0.31487798427120195,0,-0.15123870262865724,0,-0.9471444585071158,0],[-0.5629672811005715,0,0.9501691671162162,0,-0.27429467417610987,0,-0.931530849480589,0],[-0.8849418999318521,0,0.747100537364823,0,0.7930438106365065,0,0.10654399412068938,0],[-0.736379723801925,0,0.7038433862445015,0,-0.4424050364568588,0,0.52307192341736,0],[0.2581299377338915,0,-0.5265766036141242,0,-0.7149566110367351,0,0.5177490157728029,0],[-0.24578648602668474,0,-0.6139365052968153,0,0.7173809272981158,0,-0.011017533093858667,0],[-0.8436510149789103,0,-0.7612573004887591,0,-0.8768639098084541,0,-0.7298368099958508,0],[0.6594330451639485,0,-0.05335740822864121,0,0.2764001193271979,0,-0.8906740697880138,0],[-0.08270433824564072,0,0.009422158940494807,0,0.954798941665552,0,-0.3609167459031397,0],[-0.20743132153631372,0,0.7862792694581906,0,-0.14679990912509888,0,-0.7190127609987684,0],[-0.6447938354955896,0,-0.5727282773724995,0,0.42908529533494844,0,-0.4617633110639787,0],[-0.6776559568038585,0,-0.025613681587681514,0,0.1271592914095343,0,0.45291429168094344,0],[0.47007776666573786,0,0.6243610919145288,0,0.6749059206840295,0,0.1387030443264048,0],[-0.8018724092160912,0,-0.5637202056986601,0,-0.3025555433986893,0,0.24729776006258453,0],[0.3912509284167107,0,-0.12952495519324092,0,0.7691779686641815,0,-0.5135077208568435,0],[-0.003347683534042911,0,-0.538708990960935,0,-0.7986326386315241,0,-0.6198109377487528,0],[0.324532292476273,0,-0.3452273736493623,0,0.3589051393484428,0,0.3453432972296526,0],[-0.020693209213285435,0,0.38336386967717506,0,0.10620332076122918,0,-0.1418804864149774,0],[-0.45808048022180325,0,-0.6967868309001646,0,-0.8987494840687758,0,-0.008695920733021278,0],[-0.35093996177383113,0,0.7856999058215408,0,0.08853430574094379,0,0.9272826556207003,0],[-0.047008480563545785,0,-0.26668877996655693,0,0.08566517427457332,0,0.18565711306889487,0],[-0.4039176094416368,0,0.08101401933745422,0,-0.584821107288312,0,0.2518428434961777,0],[0.29702623411671336,0,-0.5522167077933429,0,0.9021352078157798,0,0.052751626834866006,0],[-0.07887408970994536,0,-0.1810374329528741,0,-0.7602285480744437,0,0.29793222577622047,0],[-0.5050918208181485,0,-0.6313515570072037,0,0.5196090402413249,0,-0.9106941639233004,0],[0.025724947144994292,0,0.5723072125150546,0,-0.7709462974103565,0,0.3998987053736378,0],[-0.8001111346980332,0,0.6133457313073472,0,0.6386683064919068,0,0.03174131969898131,0],[0.058281570335002586,0,-0.24662346984634653,0,0.43294025003462977,0,-0.5146327906323913,0],[0.08626210918169241,0,-0.1855694890306041,0,0.6825039807884459,0,-0.19188796440572742,0],[-0.1949033965039253,0,0.2123878887739037,0,-0.18757884173299688,0,0.935677318247216,0],[0.9150167809500005,0,-0.9155874023100139,0,0.09026098754032019,0,-0.6988092680168059,0],[-0.684590112556398,0,-0.03080797005290381,0,-0.6606359773689259,0,-0.4417411775572919,0],[-0.08447024717547302,0,0.22729822213927342,0,0.07681337615708794,0,-0.8507251672733167,0],[0.04951134699112725,0,-0.06999643134299371,0,-0.9177220746494437,0,-0.852491072775202,0],[0.5223612548688938,0,-0.7016009997028871,0,-0.47696740472963195,0,-0.6887250448280977,0],[-0.16101358751908101,0,0.9406785948121874,0,0.1921016641700628,0,-0.38926769869451183,0],[0.00621553656550855,0,0.11396955041688828,0,0.16061146892778022,0,0.6226477066254101,0],[-0.5518428810489597,0,0.028103184243010615,0,0.2020791882092532,0,-0.8642925034943647,0],[0.0381286078886498,0,-0.18776299729162038,0,0.7155063953644549,0,-0.9312640372814416,0],[-0.9742173726977106,0,0.18125454909610061,0,-0.444215890290657,0,-0.6235583360203556,0],[0.7259464205363086,0,0.067384612214765,0,0.1740601473965937,0,0.002078825101688997,0],[-0.7639194053021761,0,0.5234975484660329,0,0.7773563896974802,0,0.1336764238102499,0],[0.1621554865230157,0,0.058051752414075786,0,0.8358678993507203,0,0.030253850784484948,0],[0.35813240840193994,0,0.22767898953151144,0,0.1980132897661211,0,0.5067069177719024,0],[0.022128475228258226,0,-0.20808674002058036,0,0.3174487850672991,0,0.800813854867179,0],[-0.8572652019244131,0,0.025582574146347792,0,0.6528973154638795,0,-0.006922874406861235,0],[0.25184721823639156,0,0.8879002443155204,0,0.1707857758051301,0,-0.5901188080956405,0],[-0.28423965100322657,0,-0.33669386860908457,0,0.062323496814719936,0,-0.4872863615707774,0],[0.38416615480096716,0,0.41762501938150476,0,-0.7192038919206054,0,0.660961385512399,0],[-0.6829111797241676,0,0.15412487020291188,0,-0.6885112238345443,0,0.8330600012999598,0],[-0.47732211268983815,0,-0.09242732625116701,0,0.7057949757539541,0,0.9005394733982468,0],[0.16417302733008077,0,0.18040203927336074,0,-0.6572945534529315,0,-0.628224676778744,0],[-0.46775595650099544,0,0.10362168308456621,0,-0.8749852090734203,0,-0.34297937550377555,0],[-0.7706998056899586,0,0.49610999816978785,0,-0.1257780975118714,0,-0.14644208922035173,0],[0.47525357672108015,0,0.5994561853169957,0,0.5572426832242365,0,-0.1904217387198901,0],[0.21961264004989478,0,0.681524323668885,0,0.6596925421577069,0,0.7976581454190246,0],[-0.16732890992219995,0,-0.06956772202965733,0,0.5146385271459339,0,-0.4865282047198771,0],[0.5489496718097993,0,-0.8983470133148863,0,0.7023596804447032,0,0.3126419413340471,0],[-0.45106222234608717,0,0.23446106223368246,0,-0.744203520005347,0,-0.3916032828662315,0],[0.5905730453654712,0,-0.580036224879469,0,-0.6619900772014089,0,0.17496785685008143,0],[-0.5602126548600703,0,-0.9185294004642939,0,-0.697888380318713,0,0.7364290746943511,0],[0.999838864090465,0,-0.4810284937160314,0,-0.3992327813114249,0,-0.332059865042696,0],[0.002039458386655424,0,-0.42699042030372114,0,0.8815152758897145,0,0.896127751078369,0],[0.3958783500923444,0,-0.8207511550452236,0,0.7857857150584111,0,-0.8424000438827557,0],[0.16443318648062233,0,0.3135551793507936,0,-0.5363591325966421,0,0.6593557864140542,0],[0.1913497491005829,0,-0.6315783700106659,0,-0.37709571409282217,0,-0.1178817332057962,0],[0.018563300810008565,0,-0.6449127310316511,0,0.05048254268132468,0,-0.2226155021010181,0],[-0.14067585510591174,0,0.4917126894583135,0,-0.0246746929697097,0,0.9312514088473625,0],[-0.931018893051706,0,0.7164919388980675,0,-0.6133897008703679,0,-0.59715783653035,0],[0.4263673704603823,0,-0.5444042226302077,0,-0.5226193005595474,0,0.8924233453696881,0],[-0.9584768970410933,0,0.5793566666773571,0,-0.24699783547792475,0,0.6540695484759982,0],[0.48088095558710764,0,-0.10387771423714098,0,0.025447318764517668,0,0.13999578261526757,0],[0.7889298413026931,0,0.7617191572632775,0,0.5085581143940412,0,0.7484459033089168,0],[-0.5142356572186264,0,0.42348351261621864,0,-0.46392610542790647,0,0.24428964087446703,0],[-0.6671831276588525,0,-0.42866652517816295,0,0.04335653238124548,0,0.43124638517036384,0],[-0.3155394487416088,0,0.2343705582111526,0,0.8853828933328822,0,-0.5230799170906288,0],[-0.41893873579567087,0,0.6400147973818062,0,-0.6922836474929102,0,0.9265948746608548,0],[0.3894486086796791,0,-0.05630535470549414,0,0.4438089874179485,0,-0.1109929820106923,0],[-0.24033491472192403,0,0.8406256530286518,0,0.5811277020473788,0,-0.8629264274923867,0],[0.9422443790393256,0,-0.012769453371338502,0,-0.8797630176987332,0,-0.06117526444845689,0],[0.0981594781899,0,0.8882668613926514,0,-0.35488720183189204,0,0.3185524381373155,0],[-0.866027057534186,0,-0.5532550831036229,0,-0.6703983258617157,0,-0.8545480244206536,0],[0.8076109052632674,0,0.727234325473253,0,0.02408037890104997,0,-0.0431988481822585,0],[0.3755746768785393,0,0.6491726446811168,0,-0.20198782304653773,0,-0.2550142828065258,0],[-0.10970735702331891,0,0.3053056277106365,0,0.4582355855656295,0,-0.9275546939334041,0],[-0.5932924434834084,0,-0.6085960397360914,0,0.6194631469100529,0,0.8258810505317238,0],[-0.1799164624690528,0,0.8369176796546758,0,-0.7273920635481159,0,-0.3191698810005781,0],[0.8324083090172549,0,-0.8577563284784973,0,-0.5218046316117342,0,0.9199791766162255,0],[0.6326571735668471,0,0.15679882779928844,0,-0.19373972255152694,0,-0.3666461627491333,0],[-0.7234250688393649,0,0.07310626204465742,0,0.4507681144439215,0,-0.4742131609437239,0],[-0.5354766361715286,0,0.2656173652869491,0,-0.4342594403310065,0,0.5668335101936133,0],[0.44133268341722176,0,0.269008834708941,0,-0.698093583074002,0,0.5405687405480657,0],[-0.920015439528534,0,-0.33079084830322003,0,0.2668394340686926,0,-0.8125350098351465,0],[0.8613469723856326,0,0.9714240403926262,0,-0.311815369354953,0,-0.9221835880681277,0],[0.4250701537939001,0,-0.3870529792221098,0,0.4287160942501196,0,0.6159408686047376,0],[0.6421443322865141,0,0.20455627147508837,0,-0.816390200600084,0,-0.35334480892379316,0],[0.7475104395251357,0,-0.18718584319926257,0,0.6844545974905889,0,-0.9797125571425462,0],[-0.028494802278095532,0,-0.3633970531140982,0,0.541166908609326,0,0.16975231741348384,0],[-0.6781865560321747,0,-0.2152561339315584,0,0.4721134379167038,0,-0.7370154125478512,0],[0.6929902004066792,0,0.027563795809014247,0,0.10438838496633429,0,0.8162886487628902,0],[-0.6814935075634494,0,0.3737889226386255,0,-0.729669115019125,0,-0.21107033068217373,0],[0.7306628625175191,0,-0.8848396904611,0,-0.21698940158551983,0,-0.873444021915099,0],[0.8566055761777736,0,0.5846820952338461,0,0.04254822041515127,0,-0.5191908427679872,0],[-0.34592891008172955,0,0.29042831329655794,0,-0.49322013902590345,0,-0.5952567236330135,0],[0.7783745969297102,0,-0.684649040114615,0,-0.9460860022350939,0,-0.29155999626951457,0],[0.17254984616882374,0,0.9145456635894798,0,-0.42852972461376426,0,0.8564735859652155,0],[-0.8145627984199091,0,0.09494939505000666,0,0.7249311149509923,0,-0.7013572936580066,0],[0.8479078427100517,0,-0.37154214098931826,0,0.7911758535968794,0,-0.5523454819277327,0],[-0.724696371192876,0,-0.572032134633351,0,0.6859098090617417,0,0.6522097804041569,0],[-0.18543980600174126,0,0.5068640319969235,0,0.8709398093918521,0,0.961204749188816,0],[-0.4826248539488225,0,-0.15401425984115336,0,0.696288706550136,0,-0.26546903082080986,0],[-0.20382993330322097,0,0.40812573691217624,0,-0.08621692732392394,0,-0.7717811108764898,0],[-0.2925114267916986,0,-0.7313727984931115,0,-0.4071135133054422,0,-0.8335615980150091,0],[-0.7921382961681507,0,0.3716613149008494,0,0.476194825399455,0,0.010133368718251212,0],[0.9400630988640721,0,0.7752843903268569,0,0.9311468130390885,0,0.14183396483339616,0],[0.6330670036542059,0,0.41438766973155183,0,0.08614741954741634,0,-0.49154405665858825,0],[0.03691246660417358,0,-0.6108309378415084,0,0.4834388969566712,0,-0.6013386656680708,0],[0.4640685258518511,0,-0.42222724338346285,0,0.6376980748670409,0,0.9786209984097027,0],[-0.5282155757041918,0,0.9752560583723167,0,-0.7415238158616717,0,-0.03021483714174722,0],[-0.004698701429466379,0,-0.4229390688480046,0,-0.4237596425032557,0,-0.5754667321175111,0],[0.3296904393705451,0,0.8536811310966756,0,0.20591569206452554,0,0.9403402978973279,0],[0.7584758965560383,0,0.904233342777252,0,0.28846704740889684,0,0.8503628225415163,0],[0.34008776671779795,0,0.23015486295318843,0,-0.7297992276160636,0,-0.0618871470017579,0],[-0.6114148212240129,0,0.7362665778804787,0,-0.38889214223066104,0,-0.9538466123431135,0],[-0.47702341090252576,0,-0.955043841325572,0,-0.042290993308167435,0,0.5835162367581219,0],[-0.19014244183339857,0,0.5002511558036924,0,0.872504016454535,0,-0.6161936746883996,0],[0.48697489782627645,0,0.34206715400046117,0,-0.9187312304074262,0,-0.37427564037855277,0],[-0.9692811210622567,0,-0.5530665147940022,0,-0.6189180937683805,0,-0.3999962434041797,0],[0.9184331332916196,0,-0.23998794964742753,0,-0.15389375795576954,0,0.9915246033615377,0],[-0.6631743898310902,0,-0.9157572798749201,0,-0.22521104896618693,0,0.042632011553757954,0],[0.30065147656506364,0,0.2459628978725512,0,0.941285619108267,0,0.4734527283290506,0],[0.1712319228678203,0,-0.17763445794939048,0,-0.8544458912507646,0,0.3572688671931805,0],[-0.5977378158017421,0,0.5946742541805732,0,0.8007049060499325,0,-0.7162268771018787,0],[-0.509247102711728,0,-0.3180685452610148,0,0.3528345635313439,0,0.09029681942288414,0],[-0.4261603362418045,0,0.9138093987133475,0,0.6977100320111198,0,-0.7991344579851369,0],[0.8875866511963213,0,-0.5831291716784686,0,0.4403125724732755,0,-0.8147952385566415,0],[-0.6081999883674747,0,0.6172208793617537,0,0.8373894814862475,0,0.5345822310171826,0],[-0.7347422300080815,0,0.9035081751274423,0,-0.43019613406077784,0,0.8486404187641257,0],[0.6886538580511299,0,-0.9522525098756525,0,0.11061215792176604,0,0.6371367753457158,0],[0.3579443376367344,0,0.14745359412817338,0,0.38644049841267347,0,-0.23722338627245265,0],[0.5086736895117516,0,-0.668909737219133,0,0.6738709925942226,0,-0.8139120982374086,0],[-0.11774846955940976,0,0.7598542256746377,0,0.22919060713710215,0,-0.8794466926187661,0],[0.028038763398979816,0,0.5623303610636612,0,-0.9810055382554732,0,0.9659805998779494,0],[0.6104937895351681,0,0.2545686981373889,0,-0.8992223077131365,0,0.4603580892474972,0],[-0.02147959078905104,0,-0.07334921022108021,0,-0.30321086392904095,0,-0.62479317897456,0],[0.15454837017464196,0,0.01782713827804927,0,0.8110617120311103,0,0.7767079121981686,0],[0.6137695347820371,0,0.8558248818614289,0,0.35867499342488673,0,0.38464828719941013,0],[0.749342596616289,0,0.301938490165788,0,-0.7920553788703428,0,-0.11650619578993227,0],[0.7572692958286871,0,-0.17796630066784713,0,-0.7196232768801378,0,-0.825335602748106,0],[0.825037546214916,0,0.09460883205419135,0,-0.09013730887292382,0,-0.4936479156336566,0],[0.9710152091426405,0,0.8705752664388826,0,-0.9682668747729049,0,0.17698700310289905,0],[0.6569705063853228,0,0.2154320635033058,0,0.45392861331299095,0,0.08072377017548904,0],[0.38398547404360706,0,-0.5069722141495923,0,0.45668686469249664,0,-0.25191497173905675,0],[0.8824184661306405,0,0.49111619022619624,0,0.27378505196259817,0,-0.26783499678132516,0],[-0.7805362622878238,0,-0.05757055673992251,0,-0.3724820497530117,0,-0.7994384790288056,0],[-0.8267542542500157,0,0.3610073389040216,0,0.42123293214743995,0,0.4154709103541012,0],[-0.4397231247000988,0,0.5920372343912583,0,0.9373823783814086,0,0.41914496689876257,0],[0.8534978029058455,0,0.7644742377106502,0,-0.5543033786312166,0,0.689175623180885,0],[-0.608989666638255,0,0.4392277028826237,0,-0.004780851555063137,0,0.7878383626353271,0],[-0.24899644129456222,0,-0.3382846307033771,0,0.3455882313211811,0,-0.8980094697355225,0],[-0.5437364371956654,0,0.35610141209817536,0,0.48708796830687695,0,0.654787562012261,0],[0.07204951877280275,0,0.03955175549090706,0,0.005634257021014388,0,0.6677437083435407,0],[0.9740078067731519,0,-0.8116458265496231,0,-0.33199993312082166,0,-0.9385677972066591,0],[0.5881872432043487,0,-0.2462327324541389,0,-0.9657736525260798,0,-0.5946173482762318,0],[0.743109291212749,0,-0.6960225347710887,0,-0.3516953137407244,0,-0.03749887193843815,0],[0.9242372764718494,0,-0.940440534112664,0,0.4148589929822275,0,0.4206031417704459,0],[0.6840795321801496,0,0.6933503343665477,0,0.13869368469178767,0,-0.3365848520628607,0],[0.2365519107294478,0,0.18166350394526676,0,-0.11428319756518612,0,-0.49433343057966606,0],[-0.6478840284416978,0,-0.7777146507549269,0,0.8178869572191068,0,0.701659428470254,0],[-0.9294008365682103,0,-0.2242892857813088,0,-0.5385263956624544,0,0.7339680608863504,0],[-0.53850500202355,0,-0.8604085824865801,0,-0.01293914810032204,0,-0.10131181056715133,0],[-0.31306946356507015,0,-0.36761408383217664,0,0.0113657916069696,0,-0.9740816695767596,0],[-0.03961980794474562,0,0.44071530686404814,0,0.675082303365161,0,0.808924221370446,0],[0.6445951013999056,0,-0.5240555468604857,0,-0.6923970663530332,0,-0.837298792003635,0],[-0.3048921919199441,0,0.18902520428035174,0,-0.14138885528266143,0,-0.7075847073093076,0],[-0.06893753623053711,0,0.20865214855254166,0,0.458177464783424,0,-0.7755299213538256,0],[0.20301261434216755,0,-0.6037020420139465,0,0.9611331556231888,0,-0.5622891636818952,0],[-0.5722832223912009,0,0.45271099158955974,0,0.13813648747779417,0,0.9295448088614713,0],[-0.32714394045189477,0,-0.43602673689644833,0,0.2949861138938914,0,-0.438479892476785,0],[-0.000015234087842985744,0,-0.25876767298815984,0,0.5333779613306024,0,-0.14882737972855176,0],[0.6119195746122634,0,-0.5132632518234306,0,0.6104416319236003,0,0.5117159028101659,0],[-0.9988400664327008,0,0.20982028483783188,0,-0.5889663244541663,0,0.9884142922545067,0],[0.25882543916893574,0,-0.5800052383719285,0,-0.5840948802204364,0,-0.9997551622441418,0],[0.47898555505066387,0,-0.8596713598880195,0,-0.7694981727897754,0,-0.3322801458715783,0],[-0.7188524994214491,0,0.21280303882621854,0,0.23329640299967758,0,-0.8074923074605864,0],[0.8740591455858782,0,-0.79164772611709,0,0.709191379540977,0,0.2517540011304411,0],[0.7968747261069844,0,-0.4921874594323603,0,-0.5473264395935222,0,0.2797719704444679,0],[-0.500879613109185,0,-0.21398281442336864,0,0.7570408585431434,0,-0.36796384518888736,0],[0.2587894737214662,0,-0.39020644413396854,0,-0.04983762411679882,0,0.2611789710790018,0],[-0.41171447082974266,0,-0.8483696976103161,0,-0.8061257758338021,0,0.9819556851724844,0],[-0.7591763441029609,0,0.12430214961690389,0,-0.8667461646895298,0,0.6619083729614099,0],[0.20529064281071174,0,-0.04224757505973464,0,-0.8363443153604995,0,-0.253273991819583,0],[0.6654545477666378,0,0.968050390753189,0,-0.4224673860477972,0,-0.5859376857068672,0],[-0.20019392911782652,0,0.8092565531800582,0,0.6597071778609336,0,0.3468395511966116,0],[-0.48879648168312784,0,-0.1474569443454561,0,0.918898404344004,0,-0.37316822714854414,0],[0.7008847390254549,0,-0.6970661261776392,0,-0.9250505204524107,0,0.5715862121753243,0],[-0.46070048953161113,0,0.8425436878376964,0,0.16534307467613307,0,0.47250787457273136,0],[0.3366065397194251,0,0.380210323841488,0,-0.8087691442621214,0,-0.8608022924982739,0],[-0.9214298535884538,0,-0.9090678128499732,0,0.09234585045100951,0,0.9148999631841492,0],[-0.531018179964196,0,0.344535757979306,0,-0.47819537831470704,0,0.4001805982296456,0],[-0.592376956004506,0,-0.6484836226399437,0,-0.11405059490078151,0,-0.49327611998182075,0],[0.23317593655611568,0,-0.6049913204826491,0,0.42101903299487464,0,0.6604000170666304,0],[-0.22662068842944105,0,0.3713604555239354,0,0.6975789182235324,0,-0.01747778813799372,0],[-0.7298822871566473,0,0.027798726163171805,0,-0.12471863721906051,0,-0.899522801211553,0],[-0.4149774627610676,0,-0.23580792833297104,0,-0.7253332065601867,0,0.8736792854238216,0],[-0.2584458941303387,0,-0.8430705022196867,0,-0.6106410798551412,0,0.7680626725181807,0],[0.822424807779881,0,0.46645152330497175,0,-0.6688543839750469,0,-0.12790648436551333,0],[0.5166136634728575,0,0.3059843201419328,0,0.882079534303698,0,-0.38045194536071514,0],[0.19811329672189437,0,0.3775446792328472,0,0.8218717592186542,0,0.16906924561649816,0],[-0.6810585482278806,0,0.7222972185130825,0,0.005493827534840623,0,0.08777906073695818,0],[-0.8881610878754891,0,-0.7141371958175255,0,-0.2149577955119537,0,0.4959910878701208,0],[-0.8765326061342738,0,0.7651918591544251,0,-0.19843779640124937,0,0.15233140873850215,0],[-0.06318967997518432,0,-0.31786875849683693,0,-0.08333311970618462,0,-0.9066571699971842,0],[-0.40812863070655037,0,-0.5801691333371382,0,-0.8895716467356409,0,-0.6110867103705193,0],[-0.32334467415033075,0,0.5616496933322497,0,-0.45884075142038894,0,0.3346335122204731,0],[-0.16419329733791832,0,0.28823784310817024,0,0.6443423675120017,0,-0.0255438177755416,0],[0.5321724380103454,0,-0.18301318463000693,0,0.14210763723850395,0,-0.7682065597388428,0],[-0.7030548624030384,0,0.9090548694101572,0,0.14129596039296732,0,-0.8755438464504568,0],[-0.5830652997112373,0,-0.6773087154201431,0,-0.8827102949484453,0,-0.4513977507484479,0],[0.03290562477256431,0,0.7575978000142631,0,0.5124316255218859,0,-0.060870477620765806,0],[0.9608091089703072,0,-0.6864180771816943,0,-0.07800768616515463,0,-0.25128835194363663,0],[0.19812920062114814,0,-0.22222803260264468,0,-0.6027107138365435,0,0.13494352246751928,0],[-0.9595472970453658,0,-0.8418204735465362,0,-0.7353000457507424,0,-0.49517428043991196,0],[-0.9912370141729019,0,-0.20258928823023248,0,-0.9590481990462498,0,0.6380863049517234,0],[0.375849670979562,0,0.12884276145934326,0,-0.4807863725196837,0,-0.004399532321749611,0],[-0.019384911532356774,0,-0.32140087101209125,0,-0.09284724889286178,0,0.5164372889980791,0],[0.23195031086971452,0,0.27017049092292766,0,-0.9827371028912881,0,-0.28317402172416317,0],[-0.27075636537731684,0,-0.4454540562181797,0,-0.05859130928705869,0,-0.7733986193963445,0],[0.7644751865672184,0,-0.032766405194604165,0,-0.6143264054758968,0,0.03345313810976802,0],[0.1212417858202055,0,0.004565498980647176,0,-0.10176221904442428,0,-0.34743108201019357,0],[-0.9510529685103497,0,-0.6848021110644502,0,-0.40784618230299063,0,-0.8009723617767932,0],[0.06578186183189838,0,0.5187326337299558,0,-0.3534713561088201,0,-0.08743571764351521,0],[0.3320123879668755,0,0.8919017246173739,0,0.8637604235393317,0,0.06909363804221869,0],[-0.2645194675064262,0,0.1037730523314715,0,0.8671203582366995,0,0.41064537515929467,0],[0.5441161422495764,0,0.03494956290540374,0,-0.857891182418917,0,-0.764870317507867,0],[0.5056477649313289,0,-0.6182485648414746,0,0.056657417903253515,0,-0.8903835016527262,0],[0.6125907511260196,0,-0.7751148503666858,0,0.23938819649038634,0,-0.19442064730775455,0],[0.400982279629603,0,0.03311984857430206,0,0.25178136549130214,0,0.501817509275531,0],[-0.38577699328452275,0,-0.32399386340762737,0,-0.6407546697136188,0,0.5605392276450518,0],[-0.6612244092255515,0,-0.06431083275782634,0,0.3877216846830598,0,0.2543510565738347,0],[0.30636140207354834,0,-0.2636174320488933,0,-0.8534013029546097,0,0.7066664437635597,0],[0.9576874290116595,0,0.8510856038192154,0,-0.2946508908376917,0,0.005311081609661761,0],[-0.9243747992580629,0,0.19864234391153546,0,0.9304458036302468,0,-0.04113152564365197,0],[0.32115499458210484,0,0.01025549155586214,0,-0.8792472749969982,0,-0.7124252058418468,0],[0.8432792116510937,0,-0.876914351440361,0,0.32372626520235515,0,0.17533778844295322,0],[-0.7155016527644116,0,-0.5504200769455185,0,-0.028595394697900067,0,0.056720278737366625,0],[-0.03366431456734653,0,-0.7253091570421939,0,0.8443030747150344,0,-0.7275064807190672,0],[-0.1852152465853838,0,-0.550837504982048,0,-0.9470268099147519,0,-0.2003669421916412,0],[0.6734466928001521,0,-0.22442548920848826,0,-0.27887546916041295,0,0.6463931447038895,0],[0.05251413319661613,0,0.9248526712118554,0,-0.639150745431126,0,-0.299636574428219,0],[-0.9253516138462095,0,0.0744683513330564,0,0.5496290916098681,0,-0.17282397347025036,0],[0.4041885913987684,0,0.12556638924480001,0,0.4504457533131201,0,0.8397969993920125,0],[-0.7159789733916315,0,0.8347748172730807,0,-0.03954376681558913,0,0.5931020644583136,0],[-0.5451720481834306,0,-0.51253248882475,0,0.8303349214131879,0,-0.09429822220452877,0],[0.6943259540827456,0,0.8427645349093917,0,-0.034474672307861054,0,-0.7292527329861092,0],[-0.010505855110162665,0,0.996571967066801,0,-0.6977153793819131,0,0.3897131238940046,0],[-0.05731690047211879,0,-0.46252207421554403,0,0.1455450682177608,0,0.4479192416322988,0],[-0.08711302128510368,0,0.9113372527271155,0,0.662256670774436,0,-0.2521797835002626,0],[-0.3936495297484437,0,-0.736106811907413,0,0.3430163638637054,0,-0.174145191220614,0],[-0.6439262586347128,0,-0.803200347706897,0,-0.3235704431843409,0,-0.4990844185026171,0],[0.1676693117249548,0,-0.14907645131350078,0,-0.9752095568168457,0,0.4372623696713338,0],[-0.24058520808928252,0,-0.4781778699803778,0,-0.2536919718231936,0,-0.24802915659096647,0],[0.2872362725210802,0,0.6158060781147106,0,0.9782456104616717,0,0.9567715156059557,0],[-0.7792517413511495,0,0.17101468078899917,0,-0.8230178552318816,0,0.09640086106040391,0],[0.9243658734388329,0,-0.6035553632072466,0,0.505144288833856,0,-0.6696476852398443,0],[0.8978960466431303,0,0.7228904264253533,0,0.462598390695687,0,-0.5978211044547728,0],[-0.656094513368767,0,0.7132692596408412,0,0.7772334817881319,0,-0.5497329524151744,0],[-0.24544684450584775,0,-0.15418085697710904,0,0.5031048585193718,0,-0.5637348914927778,0],[-0.4515345745629602,0,-0.3378251397846648,0,0.5176507787844249,0,-0.8978837842952643,0],[-0.561375955742621,0,0.06334155107564188,0,0.16633358717232105,0,-0.1860887971508891,0],[0.1751261570191569,0,0.6401015765678155,0,-0.32780157440977153,0,-0.08945779359769279,0],[-0.4179330135477326,0,-0.15959381227174618,0,0.10948236925664001,0,0.2474035485915813,0],[-0.6043136737061612,0,0.5048187904929198,0,0.23454837482135127,0,0.5101525120986228,0],[0.3113104948023129,0,-0.15790820939603556,0,0.27405823167104515,0,0.5708071440556846,0],[0.859512485667002,0,0.2704762897881601,0,0.8894400475313067,0,0.6682251865559945,0],[-0.7426972860524059,0,0.716377236046785,0,0.9683455758373034,0,-0.4827269319840555,0],[-0.7819454978162823,0,-0.05951579714446975,0,0.6379342428762762,0,0.5857590183607275,0],[0.8542579352751296,0,0.2525223635653664,0,-0.048539012233803636,0,-0.2745279438802748,0],[0.27008799854318366,0,-0.4207153462725244,0,-0.9312150583992265,0,0.10343093949762627,0],[0.21616117681211278,0,0.26662105876332864,0,0.4330578979449058,0,0.9517164846911144,0],[-0.7332525431414494,0,0.22457737779464115,0,-0.5600084387975748,0,-0.960976835523957,0],[0.3800945203913406,0,0.0658901798632674,0,-0.5972575990680162,0,-0.035666679290941916,0],[-0.5845889713104913,0,0.7415621718121697,0,-0.7654049970547561,0,0.3828825927201762,0],[0.20544714741170367,0,-0.1567441359780144,0,0.20326438321728157,0,0.09685027637451671,0],[-0.8784987684300212,0,-0.7792396858461679,0,-0.6452212776235344,0,0.577974775968326,0],[0.718071439199701,0,-0.1461992163569914,0,-0.23845519270299653,0,-0.06344133417046005,0],[-0.992737439342348,0,0.020977456361735092,0,-0.38166167257090056,0,-0.3889044950655485,0],[0.18844820088194458,0,-0.2753664240404565,0,-0.6083970422054479,0,-0.8749861535626413,0],[0.2465795549777876,0,0.05897091172243285,0,0.7215816957244807,0,0.14180152721519557,0],[0.7329227936293266,0,0.7497442098090359,0,0.5834451979319082,0,-0.2529627362729676,0],[0.2548969578356277,0,0.4473833799811848,0,-0.6672776746045659,0,-0.6043759681589891,0],[-0.27292448269512604,0,0.5214068257968705,0,-0.30802153896307716,0,0.2847818615802631,0],[0.2733054959686696,0,0.08250560179151978,0,-0.5201716270196661,0,0.0481266061696457,0],[-0.17971213553680254,0,-0.2503069461888521,0,-0.059989602079701054,0,-0.38657686667194824,0],[-0.11414536610890091,0,0.28343098038964265,0,-0.10261027982036164,0,0.82637039154979,0],[-0.15943223578386534,0,-0.3783417171407599,0,-0.3506009081167496,0,-0.9849609196479079,0],[0.009155842902784928,0,0.08416408294555744,0,-0.5044342236550734,0,0.054349231237909246,0],[-0.6213038925352485,0,0.5517630378218672,0,0.11441460491632505,0,0.6872409813295444,0],[0.3933379349302273,0,0.28024565674909474,0,-0.3838233583859234,0,-0.13104352098637762,0],[0.3407570014600503,0,-0.3249074807593144,0,-0.9686248672600692,0,-0.2768825808477793,0],[0.1734177771544516,0,0.8314570710605143,0,0.23949948819642386,0,-0.6669526204362628,0],[-0.7418856120807507,0,0.9349362670200336,0,-0.10138031047965956,0,-0.9609451753355065,0],[0.5101486677501337,0,0.7221659406153595,0,-0.1940663957145934,0,-0.8278422794951747,0],[0.6438973683518598,0,0.11629060182747564,0,0.3008806810570044,0,-0.7730042227431,0],[0.8594081538713447,0,-0.11912381566005426,0,0.8165957345851191,0,-0.638556900751875,0],[0.1850569751305533,0,-0.32315319654841357,0,0.49211785514126904,0,-0.192301067592636,0],[0.909189017620839,0,-0.7394552925991702,0,-0.1230912404030744,0,-0.7106002719059312,0],[-0.9409436405679898,0,0.727026681523818,0,0.1908773008067155,0,0.8615620695267494,0],[0.7232550770278232,0,-0.3187733362563796,0,-0.6527540115975117,0,0.7249304204056493,0],[-0.8357422246673205,0,0.010628870391924172,0,0.0022367318514806556,0,0.5135711616251872,0],[0.13052432077707077,0,0.536613081668726,0,0.26469364515336546,0,0.3143175008117891,0],[-0.44693195193742286,0,0.23764763766223007,0,0.38040068164928575,0,0.24893807774298193,0],[0.8992424095223133,0,-0.03397795035982387,0,0.6999939283116603,0,0.8346656415399918,0],[0.8569053245567613,0,0.6208274040877759,0,-0.4539928424460786,0,0.5359890299009953,0],[-0.2649914888161915,0,0.5934066637298288,0,0.2137314463692963,0,0.9303768297654393,0],[0.9920497032784519,0,0.9675148090231034,0,0.27220930740811067,0,-0.2671333115613057,0],[0.6417162795455957,0,-0.56505791871749,0,-0.4241749634386327,0,-0.4407798746508931,0],[-0.06455992048256909,0,-0.821628704394705,0,-0.04640669626521188,0,-0.24539181819710176,0],[-0.31552774352327173,0,-0.9232457883478549,0,-0.5876119763791199,0,-0.1254414520374929,0],[-0.14052009255417985,0,0.5045085118180359,0,0.8719961620344934,0,0.47716147252173036,0],[-0.30644556741381734,0,-0.27564759650441095,0,-0.05598123882243389,0,-0.2297042619295211,0],[-0.5850858295686094,0,-0.5853909901400145,0,0.07328527991219946,0,-0.6450968848116483,0],[0.9484733211415453,0,0.22532894259627834,0,0.47958491517942825,0,0.8151049244847239,0],[-0.5491599328245957,0,-0.5764051172990641,0,0.7691623852771547,0,-0.7717810505841662,0],[0.38119793733446494,0,0.6668872875707361,0,-0.1704371597986174,0,-0.1974974699648786,0],[-0.03908595209815213,0,0.7344066563342733,0,-0.32194555970171934,0,-0.20228892368555185,0],[0.33760958906593563,0,-0.350237621029303,0,-0.697004626090789,0,-0.35667106682963357,0],[0.5448177528685461,0,0.0444552107196694,0,-0.7808460639610397,0,0.741593312202665,0],[0.436245439200728,0,-0.15990539359282785,0,0.45213045852562783,0,0.8271992087732778,0],[-0.8259549149043399,0,-0.6316912053952217,0,-0.02632897985436644,0,0.9528375591323064,0],[0.563394611353579,0,-0.09917936490122514,0,0.22880252875868456,0,-0.820514274747608,0],[0.5510730142855402,0,-0.7718219884720061,0,-0.6726396455499666,0,0.8726336286658483,0],[-0.4563901726634183,0,-0.5958567423840904,0,0.7166199244055067,0,0.14039588313118534,0],[-0.14902101542062418,0,0.06376133392936234,0,0.7083842954932851,0,-0.603274967007869,0],[0.5246956048945242,0,-0.1733570493174943,0,-0.8969797776118995,0,0.29270670828376577,0],[0.1345667929677068,0,0.21301317330552072,0,0.33457623360486344,0,-0.6688165264664379,0],[0.6162376280841921,0,-0.7714066822919408,0,0.055256493114483884,0,-0.6352805490720692,0],[0.22206382590140183,0,-0.6846025045305755,0,0.8841652216086318,0,-0.12581612942118237,0],[0.8207337377790964,0,0.7190432608244359,0,-0.835623609176956,0,0.43499624625113475,0],[0.31645222127474937,0,0.4891891131588668,0,0.0040252370506348445,0,-0.899656695155939,0],[0.7963905735103503,0,-0.6917715941730909,0,0.621257127506853,0,0.5654414364373015,0],[-0.8345037974226723,0,-0.8656143996489296,0,0.06951159482886538,0,-0.07581433020680173,0],[-0.5093526278923923,0,0.24887380423001604,0,0.788758702011845,0,0.5892905487431794,0],[-0.948471832712535,0,0.7127918562192224,0,0.10994634910239265,0,-0.48070499671116096,0],[-0.8165100142246924,0,0.4679509871806746,0,-0.16594256447221167,0,-0.7194317372065271,0],[-0.6019437915623675,0,0.3568400395708191,0,-0.6861840684830278,0,0.6697194017126065,0],[0.9796174446319987,0,-0.8095485598573757,0,0.0852230046298168,0,-0.3684206398787504,0],[0.28225527889554636,0,-0.34129269596495915,0,0.0277429689326536,0,0.03018909607408027,0],[0.28852339619109535,0,0.35673946878650664,0,0.2761010975952629,0,-0.5350059959759856,0],[-0.3575952482028686,0,0.49129415914715113,0,0.6632953041730876,0,0.7717097140785019,0],[-0.6684446422415546,0,-0.06495366871544617,0,-0.6564359642126325,0,-0.8929098344297792,0],[0.4693346909832501,0,0.21262533625418056,0,-0.5743058221167909,0,-0.4109053794030906,0],[0.2150138013006755,0,-0.2693313478523167,0,-0.05880772440784643,0,-0.6512839809584354,0],[0.7709434209635768,0,-0.8947638516973411,0,0.2784843714975831,0,0.5469979416541233,0],[0.6083537236376348,0,-0.20656663466700365,0,0.3334488495779746,0,-0.5794655181041013,0],[-0.40115094701377507,0,-0.5978931666197347,0,-0.9417711792509498,0,0.7410111660004464,0],[0.5665514814721202,0,0.024991888835094622,0,-0.16559020352552456,0,-0.7908875605859433,0],[0.9262369457889028,0,-0.24929300809634936,0,0.15329021659789732,0,-0.7496144000652485,0],[-0.4643009476281166,0,0.08750576358805295,0,-0.5448875848769386,0,0.4404172016444474,0],[-0.33403372084915284,0,-0.5332869307397008,0,0.6607618496914525,0,-0.6410564156540128,0],[-0.919111781904953,0,-0.7847135858120253,0,-0.0764156229055526,0,0.057282747709872295,0],[0.6179978827340777,0,-0.5710388720928663,0,-0.5643896208529013,0,0.520740317507095,0],[-0.6245524980738226,0,0.030951517582710197,0,-0.25838394533397113,0,-0.4825919184269891,0],[-0.36479444043992637,0,0.9671974882046992,0,0.9460932139022822,0,-0.952960613696533,0],[-0.009406075719531781,0,0.9676605925351838,0,0.4423382196861345,0,0.23845047784244233,0],[0.7966341343951779,0,0.5941897055070524,0,0.349512665883869,0,0.9911642219589651,0],[0.024562601958378893,0,0.3989920128848432,0,0.7126682895817673,0,-0.08322422219712378,0],[-0.12273411475445406,0,0.9337603286757381,0,0.7023693993276512,0,-0.7922118789943651,0],[-0.889723968209235,0,0.0780241617218056,0,-0.4553130964921359,0,0.9464285887572648,0],[0.9033586925430719,0,0.6963061906600396,0,-0.2810218747381017,0,-0.9367749971433466,0],[-0.6593839308443203,0,-0.012816638368107647,0,-0.9199920100064789,0,0.6648845021609893,0],[-0.9175825996896649,0,-0.9466346962171392,0,-0.0073927242757843015,0,-0.22671605294000807,0],[0.6503610828568196,0,-0.7995794320297749,0,0.3112040941820522,0,-0.34785274185840453,0],[-0.10313787378264405,0,0.26279442329880776,0,-0.9067939611407221,0,0.8452493686679523,0],[0.6938504474786034,0,-0.1407198691261724,0,-0.6956497100668988,0,0.8097530165877564,0],[0.6504547913007805,0,0.8961190687417653,0,0.45578047456553494,0,-0.39944996128717225,0],[0.7574391080275946,0,-0.13557787876740934,0,0.10674848958715866,0,0.4462442898719077,0],[-0.7434526172591307,0,0.5196193497506008,0,0.4734816597047915,0,0.25467885292733317,0],[-0.2541951302864176,0,0.38416172004413784,0,-0.9961051342869045,0,-0.9043236916621589,0],[-0.44278643680638496,0,-0.8192868376271305,0,-0.2905315978933829,0,-0.46907396584058914,0],[0.7811703281161593,0,0.7815874792963342,0,-0.7102466251692019,0,0.2957179116817048,0],[0.9623270357652369,0,-0.44879982295903553,0,0.6416064740036869,0,0.28448849118392516,0],[-0.5454971474506627,0,0.06182104483214257,0,0.21439677122617118,0,0.05190969265421508,0],[0.6976484718414728,0,0.07892831833103164,0,0.8540676938915603,0,-0.8864825021797906,0],[-0.7322457154497057,0,0.44098156495088436,0,0.27307877140284664,0,0.21464206735781066,0],[-0.5490165577165631,0,-0.0005540658183238456,0,-0.9101093266614597,0,0.4336675789707498,0]],"vb_b":[[0,0,0,0,0,0,-1,0],[0,0,0,0,0,0,-1,0],[0,0,0,0,0,0,-1,0],[0,0,0,0,0,0,-1,0],[0,0,0,0,0,0,-1,0],[0,0,0,0,0,0,-1,0],[0,0,0,0,0,0,-1,0],[0,0,0,0,0,0,-1,0],[0,0,0,0,0,0,-1,0],[0,0,0,0,0,0,-1,0],[0,0,0,0,0,0,-1,0],[0,0,0,0,0,0,-1,0],[0,0,0,0,0,0,-1,0],[0,0,0,0,0,0,-1,0],[0,0,0,0,0,0,-1,0],[0,0,0,0,0,0,-1,0],[0,0,0,0,0,0,-1,0],[0,0,0,0,0,0,-1,0],[0,0,0,0,0,0,-1,0],[0,0,0,0,0,0,-1,0],[0,0,0,0,0,0,-1,0],[0,0,0,0,0,0,-1,0],[0,0,0,0,0,0,-1,0],[0,0,0,0,0,0,-1,0],[0,0,0,0,0,0,-1,0],[0,0,0,0,0,0,-1,0],[0,0,0,0,0,0,-1,0],[0,0,0,0,0,0,-1,0],[0,0,0,0,0,0,-1,0],[0,0,0,0,0,0,-1,0],[0,0,0,0,0,0,-1,0],[0,0,0,0,0,0,-1,0],[0,0,0,0,0,0,-1,0],[0,0,0,0,0,0,-1,0],[0,0,0,0,0,0,-1,0],[0,0,0,0,0,0,-1,0],[0,0,0,0,0,0,-1,0],[0,0,0,0,0,0,-1,0],[0,0,0,0,0,0,-1,0],[0,0,0,0,0,0,-1,0],[0,0,0,0,0,0,-1,0],[0,0,0,0,0,0,-1,0],[0,0,0,0,0,0,-1,0],[0,0,0,0,0,0,-1,0],[0,0,0,0,0,0,-1,0],[0,0,0,0,0,0,-1,0],[0,0,0,0,0,0,-1,0],[0,0,0,0,0,0,-1,0],[0,0,0,0,0,0,-1,0],[0,0,0,0,0,0,-1,0],[0,0,0,0,0,0,-1,0],[0,0,0,0,0,0,-1,0],[0,0,0,0,0,0,-1,0],[0,0,0,0,0,0,-1,0],[0,0,0,0,0,0,-1,0],[0,0,0,0,0,0,-1,0],[0,0,0,0,