parameters : {"minimum_performance":-1,"block_timeout":5000,"response_timeout":1000,"task_kappa":0,"task_stimuli":0,"task_component":1,"task_feature":1,"task_sign":1,"task_weights":[0,0,0,1,0,0,0,0]}
edata : {"exp_subject":"BxW7hN4b4rTR","exp_sex":"female","exp_age":"61+","exp_task":"jan/131004_primate1","exp_starttime":1381261277710,"exp_finishtime":1381264515530}
numbers : {"stimuli":2,"components":2,"features":2,"weights":8,"blocks":40,"trials":25,"indices":1000}
sdata : {"vb_index":[1,2,3,4,5,6,7,8,9,10,11,12,13,14,15,16,17,18,19,20,21,22,23,24,25,26,27,28,29,30,31,32,33,34,35,36,37,38,39,40,41,42,43,44,45,46,47,48,49,50,51,52,53,54,55,56,57,58,59,60,61,62,63,64,65,66,67,68,69,70,71,72,73,74,75,76,77,78,79,80,81,82,83,84,85,86,87,88,89,90,91,92,93,94,95,96,97,98,99,100,101,102,103,104,105,106,107,108,109,110,111,112,113,114,115,116,117,118,119,120,121,122,123,124,125,126,127,128,129,130,131,132,133,134,135,136,137,138,139,140,141,142,143,144,145,146,147,148,149,150,151,152,153,154,155,156,157,158,159,160,161,162,163,164,165,166,167,168,169,170,171,172,173,174,175,176,177,178,179,180,181,182,183,184,185,186,187,188,189,190,191,192,193,194,195,196,197,198,199,200,201,202,203,204,205,206,207,208,209,210,211,212,213,214,215,216,217,218,219,220,221,222,223,224,225,226,227,228,229,230,231,232,233,234,235,236,237,238,239,240,241,242,243,244,245,246,247,248,249,250,251,252,253,254,255,256,257,258,259,260,261,262,263,264,265,266,267,268,269,270,271,272,273,274,275,276,277,278,279,280,281,282,283,284,285,286,287,288,289,290,291,292,293,294,295,296,297,298,299,300,301,302,303,304,305,306,307,308,309,310,311,312,313,314,315,316,317,318,319,320,321,322,323,324,325,326,327,328,329,330,331,332,333,334,335,336,337,338,339,340,341,342,343,344,345,346,347,348,349,350,351,352,353,354,355,356,357,358,359,360,361,362,363,364,365,366,367,368,369,370,371,372,373,374,375,376,377,378,379,380,381,382,383,384,385,386,387,388,389,390,391,392,393,394,395,396,397,398,399,400,401,402,403,404,405,406,407,408,409,410,411,412,413,414,415,416,417,418,419,420,421,422,423,424,425,426,427,428,429,430,431,432,433,434,435,436,437,438,439,440,441,442,443,444,445,446,447,448,449,450,451,452,453,454,455,456,457,458,459,460,461,462,463,464,465,466,467,468,469,470,471,472,473,474,475,476,477,478,479,480,481,482,483,484,485,486,487,488,489,490,491,492,493,494,495,496,497,498,499,500,501,502,503,504,505,506,507,508,509,510,511,512,513,514,515,516,517,518,519,520,521,522,523,524,525,526,527,528,529,530,531,532,533,534,535,536,537,538,539,540,541,542,543,544,545,546,547,548,549,550,551,552,553,554,555,556,557,558,559,560,561,562,563,564,565,566,567,568,569,570,571,572,573,574,575,576,577,578,579,580,581,582,583,584,585,586,587,588,589,590,591,592,593,594,595,596,597,598,599,600,601,602,603,604,605,606,607,608,609,610,611,612,613,614,615,616,617,618,619,620,621,622,623,624,625,626,627,628,629,630,631,632,633,634,635,636,637,638,639,640,641,642,643,644,645,646,647,648,649,650,651,652,653,654,655,656,657,658,659,660,661,662,663,664,665,666,667,668,669,670,671,672,673,674,675,676,677,678,679,680,681,682,683,684,685,686,687,688,689,690,691,692,693,694,695,696,697,698,699,700,701,702,703,704,705,706,707,708,709,710,711,712,713,714,715,716,717,718,719,720,721,722,723,724,725,726,727,728,729,730,731,732,733,734,735,736,737,738,739,740,741,742,743,744,745,746,747,748,749,750,751,752,753,754,755,756,757,758,759,760,761,762,763,764,765,766,767,768,769,770,771,772,773,774,775,776,777,778,779,780,781,782,783,784,785,786,787,788,789,790,791,792,793,794,795,796,797,798,799,800,801,802,803,804,805,806,807,808,809,810,811,812,813,814,815,816,817,818,819,820,821,822,823,824,825,826,827,828,829,830,831,832,833,834,835,836,837,838,839,840,841,842,843,844,845,846,847,848,849,850,851,852,853,854,855,856,857,858,859,860,861,862,863,864,865,866,867,868,869,870,871,872,873,874,875,876,877,878,879,880,881,882,883,884,885,886,887,888,889,890,891,892,893,894,895,896,897,898,899,900,901,902,903,904,905,906,907,908,909,910,911,912,913,914,915,916,917,918,919,920,921,922,923,924,925,926,927,928,929,930,931,932,933,934,935,936,937,938,939,940,941,942,943,944,945,946,947,948,949,950,951,952,953,954,955,956,957,958,959,960,961,962,963,964,965,966,967,968,969,970,971,972,973,974,975,976,977,978,979,980,981,982,983,984,985,986,987,988,989,990,991,992,993,994,995,996,997,998,999,1000],"vb_block":[1,1,1,1,1,1,1,1,1,1,1,1,1,1,1,1,1,1,1,1,1,1,1,1,1,2,2,2,2,2,2,2,2,2,2,2,2,2,2,2,2,2,2,2,2,2,2,2,2,2,3,3,3,3,3,3,3,3,3,3,3,3,3,3,3,3,3,3,3,3,3,3,3,3,3,4,4,4,4,4,4,4,4,4,4,4,4,4,4,4,4,4,4,4,4,4,4,4,4,4,5,5,5,5,5,5,5,5,5,5,5,5,5,5,5,5,5,5,5,5,5,5,5,5,5,6,6,6,6,6,6,6,6,6,6,6,6,6,6,6,6,6,6,6,6,6,6,6,6,6,7,7,7,7,7,7,7,7,7,7,7,7,7,7,7,7,7,7,7,7,7,7,7,7,7,8,8,8,8,8,8,8,8,8,8,8,8,8,8,8,8,8,8,8,8,8,8,8,8,8,9,9,9,9,9,9,9,9,9,9,9,9,9,9,9,9,9,9,9,9,9,9,9,9,9,10,10,10,10,10,10,10,10,10,10,10,10,10,10,10,10,10,10,10,10,10,10,10,10,10,11,11,11,11,11,11,11,11,11,11,11,11,11,11,11,11,11,11,11,11,11,11,11,11,11,12,12,12,12,12,12,12,12,12,12,12,12,12,12,12,12,12,12,12,12,12,12,12,12,12,13,13,13,13,13,13,13,13,13,13,13,13,13,13,13,13,13,13,13,13,13,13,13,13,13,14,14,14,14,14,14,14,14,14,14,14,14,14,14,14,14,14,14,14,14,14,14,14,14,14,15,15,15,15,15,15,15,15,15,15,15,15,15,15,15,15,15,15,15,15,15,15,15,15,15,16,16,16,16,16,16,16,16,16,16,16,16,16,16,16,16,16,16,16,16,16,16,16,16,16,17,17,17,17,17,17,17,17,17,17,17,17,17,17,17,17,17,17,17,17,17,17,17,17,17,18,18,18,18,18,18,18,18,18,18,18,18,18,18,18,18,18,18,18,18,18,18,18,18,18,19,19,19,19,19,19,19,19,19,19,19,19,19,19,19,19,19,19,19,19,19,19,19,19,19,20,20,20,20,20,20,20,20,20,20,20,20,20,20,20,20,20,20,20,20,20,20,20,20,20,21,21,21,21,21,21,21,21,21,21,21,21,21,21,21,21,21,21,21,21,21,21,21,21,21,22,22,22,22,22,22,22,22,22,22,22,22,22,22,22,22,22,22,22,22,22,22,22,22,22,23,23,23,23,23,23,23,23,23,23,23,23,23,23,23,23,23,23,23,23,23,23,23,23,23,24,24,24,24,24,24,24,24,24,24,24,24,24,24,24,24,24,24,24,24,24,24,24,24,24,25,25,25,25,25,25,25,25,25,25,25,25,25,25,25,25,25,25,25,25,25,25,25,25,25,26,26,26,26,26,26,26,26,26,26,26,26,26,26,26,26,26,26,26,26,26,26,26,26,26,27,27,27,27,27,27,27,27,27,27,27,27,27,27,27,27,27,27,27,27,27,27,27,27,27,28,28,28,28,28,28,28,28,28,28,28,28,28,28,28,28,28,28,28,28,28,28,28,28,28,29,29,29,29,29,29,29,29,29,29,29,29,29,29,29,29,29,29,29,29,29,29,29,29,29,30,30,30,30,30,30,30,30,30,30,30,30,30,30,30,30,30,30,30,30,30,30,30,30,30,31,31,31,31,31,31,31,31,31,31,31,31,31,31,31,31,31,31,31,31,31,31,31,31,31,32,32,32,32,32,32,32,32,32,32,32,32,32,32,32,32,32,32,32,32,32,32,32,32,32,33,33,33,33,33,33,33,33,33,33,33,33,33,33,33,33,33,33,33,33,33,33,33,33,33,34,34,34,34,34,34,34,34,34,34,34,34,34,34,34,34,34,34,34,34,34,34,34,34,34,35,35,35,35,35,35,35,35,35,35,35,35,35,35,35,35,35,35,35,35,35,35,35,35,35,36,36,36,36,36,36,36,36,36,36,36,36,36,36,36,36,36,36,36,36,36,36,36,36,36,37,37,37,37,37,37,37,37,37,37,37,37,37,37,37,37,37,37,37,37,37,37,37,37,37,38,38,38,38,38,38,38,38,38,38,38,38,38,38,38,38,38,38,38,38,38,38,38,38,38,39,39,39,39,39,39,39,39,39,39,39,39,39,39,39,39,39,39,39,39,39,39,39,39,39,40,40,40,40,40,40,40,40,40,40,40,40,40,40,40,40,40,40,40,40,40,40,40,40,40],"vb_trial":[1,2,3,4,5,6,7,8,9,10,11,12,13,14,15,16,17,18,19,20,21,22,23,24,25,1,2,3,4,5,6,7,8,9,10,11,12,13,14,15,16,17,18,19,20,21,22,23,24,25,1,2,3,4,5,6,7,8,9,10,11,12,13,14,15,16,17,18,19,20,21,22,23,24,25,1,2,3,4,5,6,7,8,9,10,11,12,13,14,15,16,17,18,19,20,21,22,23,24,25,1,2,3,4,5,6,7,8,9,10,11,12,13,14,15,16,17,18,19,20,21,22,23,24,25,1,2,3,4,5,6,7,8,9,10,11,12,13,14,15,16,17,18,19,20,21,22,23,24,25,1,2,3,4,5,6,7,8,9,10,11,12,13,14,15,16,17,18,19,20,21,22,23,24,25,1,2,3,4,5,6,7,8,9,10,11,12,13,14,15,16,17,18,19,20,21,22,23,24,25,1,2,3,4,5,6,7,8,9,10,11,12,13,14,15,16,17,18,19,20,21,22,23,24,25,1,2,3,4,5,6,7,8,9,10,11,12,13,14,15,16,17,18,19,20,21,22,23,24,25,1,2,3,4,5,6,7,8,9,10,11,12,13,14,15,16,17,18,19,20,21,22,23,24,25,1,2,3,4,5,6,7,8,9,10,11,12,13,14,15,16,17,18,19,20,21,22,23,24,25,1,2,3,4,5,6,7,8,9,10,11,12,13,14,15,16,17,18,19,20,21,22,23,24,25,1,2,3,4,5,6,7,8,9,10,11,12,13,14,15,16,17,18,19,20,21,22,23,24,25,1,2,3,4,5,6,7,8,9,10,11,12,13,14,15,16,17,18,19,20,21,22,23,24,25,1,2,3,4,5,6,7,8,9,10,11,12,13,14,15,16,17,18,19,20,21,22,23,24,25,1,2,3,4,5,6,7,8,9,10,11,12,13,14,15,16,17,18,19,20,21,22,23,24,25,1,2,3,4,5,6,7,8,9,10,11,12,13,14,15,16,17,18,19,20,21,22,23,24,25,1,2,3,4,5,6,7,8,9,10,11,12,13,14,15,16,17,18,19,20,21,22,23,24,25,1,2,3,4,5,6,7,8,9,10,11,12,13,14,15,16,17,18,19,20,21,22,23,24,25,1,2,3,4,5,6,7,8,9,10,11,12,13,14,15,16,17,18,19,20,21,22,23,24,25,1,2,3,4,5,6,7,8,9,10,11,12,13,14,15,16,17,18,19,20,21,22,23,24,25,1,2,3,4,5,6,7,8,9,10,11,12,13,14,15,16,17,18,19,20,21,22,23,24,25,1,2,3,4,5,6,7,8,9,10,11,12,13,14,15,16,17,18,19,20,21,22,23,24,25,1,2,3,4,5,6,7,8,9,10,11,12,13,14,15,16,17,18,19,20,21,22,23,24,25,1,2,3,4,5,6,7,8,9,10,11,12,13,14,15,16,17,18,19,20,21,22,23,24,25,1,2,3,4,5,6,7,8,9,10,11,12,13,14,15,16,17,18,19,20,21,22,23,24,25,1,2,3,4,5,6,7,8,9,10,11,12,13,14,15,16,17,18,19,20,21,22,23,24,25,1,2,3,4,5,6,7,8,9,10,11,12,13,14,15,16,17,18,19,20,21,22,23,24,25,1,2,3,4,5,6,7,8,9,10,11,12,13,14,15,16,17,18,19,20,21,22,23,24,25,1,2,3,4,5,6,7,8,9,10,11,12,13,14,15,16,17,18,19,20,21,22,23,24,25,1,2,3,4,5,6,7,8,9,10,11,12,13,14,15,16,17,18,19,20,21,22,23,24,25,1,2,3,4,5,6,7,8,9,10,11,12,13,14,15,16,17,18,19,20,21,22,23,24,25,1,2,3,4,5,6,7,8,9,10,11,12,13,14,15,16,17,18,19,20,21,22,23,24,25,1,2,3,4,5,6,7,8,9,10,11,12,13,14,15,16,17,18,19,20,21,22,23,24,25,1,2,3,4,5,6,7,8,9,10,11,12,13,14,15,16,17,18,19,20,21,22,23,24,25,1,2,3,4,5,6,7,8,9,10,11,12,13,14,15,16,17,18,19,20,21,22,23,24,25,1,2,3,4,5,6,7,8,9,10,11,12,13,14,15,16,17,18,19,20,21,22,23,24,25,1,2,3,4,5,6,7,8,9,10,11,12,13,14,15,16,17,18,19,20,21,22,23,24,25,1,2,3,4,5,6,7,8,9,10,11,12,13,14,15,16,17,18,19,20,21,22,23,24,25],"vb_x":[[0,-0.02439605677500367,0,-0.2669401215389371,0,-0.5300263045355678,0,0.8879178059287369],[0,0.5545858656987548,0,-0.7935673836618662,0,-0.1709196837618947,0,0.49990053893998265],[0,-0.1723167672753334,0,-0.6519297873601317,0,-0.9365277672186494,0,-0.11101389909163117],[0,0.79544249875471,0,-0.3952443329617381,0,0.371730653103441,0,-0.3552124248817563],[0,-0.6702912226319313,0,0.19325482193380594,0,-0.4404479474760592,0,0.745771340560168],[0,-0.9434081632643938,0,-0.4467384731397033,0,-0.16770559083670378,0,0.8707503476180136],[0,0.839371676556766,0,0.8911533150821924,0,0.1864374577999115,0,-0.6392781753093004],[0,-0.8067866517230868,0,0.31355027854442596,0,-0.9283327432349324,0,0.5837091291323304],[0,-0.8858052510768175,0,0.06809030566364527,0,-0.8560674777254462,0,-0.5085076373070478],[0,-0.8800039771012962,0,0.4137446857057512,0,0.22697453992441297,0,-0.7739626471884549],[0,-0.7189368256367743,0,-0.395674058701843,0,0.28182319505140185,0,-0.9066123990342021],[0,-0.6106335851363838,0,-0.36510566202923656,0,0.9355912609025836,0,-0.4931522593833506],[0,-0.3836948797106743,0,-0.08143993467092514,0,-0.08392078150063753,0,0.4126519956625998],[0,-0.46281975880265236,0,0.5176963615231216,0,0.2154485946521163,0,-0.6992516801692545],[0,0.5870186118409038,0,-0.9230889854952693,0,-0.8187610730528831,0,-0.22412030724808574],[0,-0.37184171099215746,0,0.2214714060537517,0,0.49110265681520104,0,-0.944316454231739],[0,0.007546686101704836,0,-0.08189176488667727,0,-0.3396304752677679,0,-0.8629570472985506],[0,0.6041147285141051,0,0.8957803854718804,0,-0.3714058045297861,0,0.4801244270056486],[0,0.08898911997675896,0,0.5376217444427311,0,0.5133157279342413,0,-0.9703237796202302],[0,-0.7750472440384328,0,0.7325179008767009,0,-0.031744427513331175,0,0.7748074075207114],[0,0.935887208674103,0,0.0070528145879507065,0,0.962274590972811,0,-0.44758623000234365],[0,-0.7840477116405964,0,-0.3248857920989394,0,-0.4119370300322771,0,-0.6951538599096239],[0,0.39166263211518526,0,0.40212336741387844,0,0.5359929376281798,0,-0.39705445850268006],[0,0.8405480762012303,0,-0.27173383720219135,0,-0.2578076720237732,0,-0.9775901166722178],[0,0.42927485005930066,0,0.9271468855440617,0,0.8417499428614974,0,-0.15418789675459266],[0,0.40731564722955227,0,-0.6767334430478513,0,-0.14244829071685672,0,0.9572093188762665],[0,-0.17408986249938607,0,0.7138239117339253,0,-0.8657660987228155,0,-0.8239799099974334],[0,0.5735476417466998,0,0.004162847530096769,0,0.86066361842677,0,-0.11228668643161654],[0,-0.07653329707682133,0,0.7488607317209244,0,-0.5195218338631094,0,-0.7191702839918435],[0,0.6564437160268426,0,0.1863645277917385,0,-0.9353720983490348,0,-0.5472175674512982],[0,-0.41759414970874786,0,0.9627114473842084,0,-0.4801254905760288,0,0.9030717378482223],[0,0.18587188655510545,0,0.48993049282580614,0,-0.5630467678420246,0,0.2817620295099914],[0,0.62842818768695,0,0.6842342554591596,0,0.997352113481611,0,0.8967001526616514],[0,0.049503290094435215,0,0.08163290098309517,0,0.5820897631347179,0,-0.9959813323803246],[0,0.40176704432815313,0,0.43318249750882387,0,-0.47286343201994896,0,-0.24563828017562628],[0,-0.5323607865720987,0,0.18555645644664764,0,0.7920692046172917,0,0.06734496541321278],[0,-0.8870597160421312,0,0.7818504832684994,0,-0.6254998059011996,0,-0.026450317818671465],[0,0.123947664629668,0,0.2058833623304963,0,0.2289217351935804,0,-0.44531783275306225],[0,0.5562190036289394,0,-0.9129460877738893,0,0.7298611151054502,0,-0.9125918047502637],[0,-0.6693207048811018,0,0.8584896139800549,0,0.3856832208111882,0,0.2334142131730914],[0,-0.14219315443187952,0,0.508639610838145,0,0.9624079549685121,0,0.38923709699884057],[0,-0.6322612087242305,0,0.48457798222079873,0,-0.8459619199857116,0,0.4677975457161665],[0,0.6669766511768103,0,-0.2577670067548752,0,0.678263392765075,0,0.336123900488019],[0,0.8903978853486478,0,-0.731582588981837,0,-0.10077821975573897,0,-0.05659517040476203],[0,-0.6375101376324892,0,0.3054897212423384,0,-0.5183256454765797,0,0.1601169784553349],[0,-0.28219768637791276,0,0.7457247944548726,0,0.8218525862321258,0,0.9060021862387657],[0,0.22245406126603484,0,-0.4715239875949919,0,-0.6525989309884608,0,-0.2641064724884927],[0,-0.7045902102254331,0,0.2591045768931508,0,-0.7674264004454017,0,0.34785851184278727],[0,-0.53948720311746,0,0.6067479266785085,0,0.9436325989663601,0,0.578599548432976],[0,0.5089175226166844,0,-0.8419290077872574,0,-0.3340888889506459,0,-0.9770469306968153],[0,0.5850403849035501,0,-0.6417369963601232,0,-0.14401619834825397,0,-0.21844620211049914],[0,-0.740042588673532,0,0.5639986651949584,0,0.45978440484032035,0,-0.7165263905189931],[0,0.6995609966106713,0,0.0038972715847194195,0,-0.6807376034557819,0,0.2749899351038039],[0,0.1007609162479639,0,-0.6859131562523544,0,0.05954694980755448,0,-0.893517741933465],[0,0.6495141815394163,0,-0.7271089968271554,0,0.8304381407797337,0,0.030765620060265064],[0,0.3646110384725034,0,0.11050003254786134,0,0.39222621358931065,0,-0.08083632029592991],[0,-0.9934207992628217,0,-0.8012266247533262,0,0.8219729796983302,0,0.9840559507720172],[0,-0.8963981135748327,0,0.815403216984123,0,-0.10029030637815595,0,0.042368946596980095],[0,-0.40707610780373216,0,0.9097031219862401,0,0.3311611548997462,0,0.33716473914682865],[0,-0.9917097534053028,0,0.07717469567433,0,0.0387319284491241,0,-0.8569909031502903],[0,0.3355682138353586,0,0.794628269970417,0,0.2063490287400782,0,0.2229799679480493],[0,-0.4894760665483773,0,0.33542830124497414,0,0.575424465816468,0,-0.7712659304961562],[0,0.6388287958689034,0,0.9667386440560222,0,0.7268107733689249,0,-0.43204859318211675],[0,-0.8675661548040807,0,0.9794615171849728,0,0.5670489063486457,0,0.1463725408539176],[0,-0.45465795835480094,0,-0.8523353296332061,0,0.4940633298829198,0,-0.17598203755915165],[0,0.9864588868804276,0,0.3218412883579731,0,-0.6086678761057556,0,0.272772706579417],[0,0.3884625919163227,0,0.11897208262234926,0,0.9585709413513541,0,0.43531118193641305],[0,0.020638240035623312,0,0.9759179656393826,0,-0.7571149817667902,0,-0.9674091818742454],[0,-0.3403418892994523,0,-0.9116334859281778,0,-0.8441969654522836,0,-0.4626154094003141],[0,-0.6745922258123755,0,-0.9314141375944018,0,0.31283588195219636,0,0.21110046980902553],[0,0.802926710806787,0,-0.9846364092081785,0,-0.3704484053887427,0,0.8247181070037186],[0,-0.8469151319004595,0,0.2997422432526946,0,0.30670073302462697,0,0.32774745393544436],[0,0.8277792930603027,0,-0.32985322875902057,0,0.7227166290394962,0,-0.9124975758604705],[0,0.5833726520650089,0,-0.17911475338041782,0,-0.14753019390627742,0,0.10809866851195693],[0,0.2864942471496761,0,0.8327515856362879,0,-0.002390385139733553,0,-0.2737556928768754],[0,0.981166317127645,0,-0.9237663010135293,0,-0.41940515162423253,0,-0.4616680545732379],[0,-0.1055351123213768,0,0.32853328669443727,0,0.37516063265502453,0,0.3943262882530689],[0,0.6583193386904895,0,0.6526897610165179,0,0.9556847126223147,0,0.025827113538980484],[0,-0.497104755602777,0,-0.5738732432946563,0,0.4598810039460659,0,-0.663787298835814],[0,0.03591360105201602,0,-0.6943096653558314,0,0.5489538027904928,0,-0.5389955407008529],[0,0.2822264893911779,0,-0.3031297163106501,0,0.18525003409013152,0,-0.7204994969069958],[0,0.45588397374376655,0,-0.31417659763246775,0,-0.053019892890006304,0,-0.7551575074903667],[0,0.15633542742580175,0,0.3640052005648613,0,0.8530780980363488,0,0.10955965472385287],[0,0.4960785210132599,0,-0.684840967413038,0,-0.03379556490108371,0,-0.8433681009337306],[0,0.0021952297538518906,0,-0.33922136668115854,0,0.549344097264111,0,-0.3540950552560389],[0,0.43047602660954,0,0.988614949863404,0,-0.6613677502609789,0,-0.18064586026594043],[0,-0.6557779260911047,0,0.8457220243290067,0,0.4080489305779338,0,-0.12965653091669083],[0,0.02927236445248127,0,-0.6702028489671648,0,0.670477089472115,0,-0.7244008355773985],[0,0.1880825087428093,0,-0.5585012212395668,0,0.7294565024785697,0,-0.6208170391619205],[0,0.44267602171748877,0,0.3915564683265984,0,-0.2564553669653833,0,-0.25626332545652986],[0,0.8607524684630334,0,-0.09380132658407092,0,-0.7477937801741064,0,-0.15895260125398636],[0,-0.889503859449178,0,-0.6383628118783236,0,-0.9350769058801234,0,-0.6429999698884785],[0,0.2898286646232009,0,0.10394270485267043,0,-0.8257874078117311,0,-0.3361278185620904],[0,0.6408845144324005,0,0.8687705378979445,0,-0.4369456288404763,0,-0.4698812710121274],[0,-0.6752800862304866,0,-0.4564431617036462,0,-0.5403123386204243,0,0.7201138269156218],[0,0.7440827637910843,0,-0.26635130029171705,0,-0.5569373206235468,0,-0.39955441607162356],[0,-0.4943131962791085,0,0.053524095099419355,0,0.8851292664185166,0,-0.865187706425786],[0,0.3767869360744953,0,0.222697792109102,0,-0.9943301207385957,0,-0.19127897080034018],[0,-0.8101012618280947,0,0.49131473898887634,0,-0.2130523375235498,0,-0.97448192210868],[0,-0.8176009384915233,0,-0.02375321788713336,0,-0.7173193129710853,0,0.34465850004926324],[0,0.8732864041812718,0,0.012316843494772911,0,0.5814377823844552,0,-0.16829085908830166],[0,0.42265044106170535,0,0.09500738931819797,0,-0.17946620052680373,0,0.4668191336095333],[0,0.5899226297624409,0,0.28737911209464073,0,-0.30354620097205043,0,0.24023930821567774],[0,-0.5366002824157476,0,0.38980796933174133,0,0.2903984463773668,0,-0.5945334960706532],[0,0.8731648386456072,0,0.35629629669710994,0,0.38632861198857427,0,-0.6141831940039992],[0,-0.3646726906299591,0,-0.97954724682495,0,0.10414101649075747,0,0.02682441519573331],[0,-0.7503205444663763,0,-0.5495103751309216,0,0.8344525275751948,0,-0.17083029868081212],[0,-0.8155572302639484,0,-0.7159746219404042,0,0.8481133179739118,0,-0.06397968670353293],[0,0.9551710351370275,0,0.7641460755839944,0,-0.5715803960338235,0,0.4956953744404018],[0,0.15468776039779186,0,0.7392089092172682,0,0.49175292951986194,0,0.025977881625294685],[0,0.4406608985736966,0,-0.09344734810292721,0,-0.033813467249274254,0,-0.8178519769571722],[0,-0.3619358316063881,0,-0.24210929358378053,0,-0.23251374531537294,0,0.1569997458718717],[0,-0.9432089757174253,0,-0.5679309079423547,0,-0.644338455516845,0,-0.004895674996078014],[0,0.9814782999455929,0,-0.6664186944253743,0,-0.6127378116361797,0,-0.3094023708254099],[0,-0.1032104417681694,0,-0.22365486482158303,0,0.9377198657020926,0,-0.11544005759060383],[0,-0.5167889795266092,0,0.80990981310606,0,-0.043939430732280016,0,0.900784851051867],[0,-0.2613411364145577,0,0.2438902808353305,0,0.811210376676172,0,-0.41061046440154314],[0,0.4851195109076798,0,-0.7465056101791561,0,-0.5764201544225216,0,0.802594093605876],[0,-0.22307773446664214,0,0.06445229006931186,0,0.7380728544667363,0,-0.5845712698064744],[0,0.3728868532925844,0,-0.938558213878423,0,-0.024089076556265354,0,-0.1398172713816166],[0,-0.48491761554032564,0,-0.8156798388808966,0,-0.05835037026554346,0,0.6319133597426116],[0,-0.7233826746232808,0,-0.25667191203683615,0,-0.610047013964504,0,-0.42506387922912836],[0,-0.4238009010441601,0,-0.9509997186250985,0,-0.23298254981637,0,-0.4053726359270513],[0,-0.35704563884064555,0,0.49061186145991087,0,-0.633854512590915,0,-0.9030513092875481],[0,-0.5057494314387441,0,0.3192653716541827,0,0.5510712214745581,0,-0.9422369715757668],[0,0.08379716938361526,0,0.08618224319070578,0,0.4264201819896698,0,-0.6374777788296342],[0,0.021907297894358635,0,0.09810576681047678,0,-0.387040629517287,0,-0.5125502743758261],[0,0.5259322775527835,0,0.4394762543961406,0,-0.2598566166125238,0,-0.4205279964953661],[0,-0.909528671298176,0,0.4958331650123,0,0.8486582105979323,0,-0.2942641330882907],[0,0.3881041747517884,0,-0.45200307527557015,0,0.33637392800301313,0,-0.40595656959339976],[0,0.78818394895643,0,-0.5006087310612202,0,0.00920034758746624,0,0.01531332265585661],[0,0.8023569798097014,0,0.6442616228014231,0,-0.030226861126720905,0,-0.3432626184076071],[0,0.9790906510315835,0,-0.536104048602283,0,0.26339494064450264,0,-0.3709808271378279],[0,0.5292220748960972,0,0.8924866556189954,0,0.6364799491129816,0,-0.06580831296741962],[0,-0.9809323777444661,0,0.11741931037977338,0,0.7425522841513157,0,-0.03797802422195673],[0,0.4598245359957218,0,-0.047860355116426945,0,-0.29683493077754974,0,-0.564838430378586],[0,0.7429031068459153,0,-0.6999703152105212,0,0.4659470818005502,0,-0.7029312951490283],[0,0.7150104544125497,0,-0.2890715547837317,0,0.8238996635191143,0,0.2586628277786076],[0,0.4575818250887096,0,-0.5339864436537027,0,0.5956750134937465,0,-0.783911305014044],[0,0.8936700597405434,0,-0.6784097170457244,0,0.06783063896000385,0,0.6493502683006227],[0,-0.5503026116639376,0,0.25948065891861916,0,0.8521007723174989,0,0.09631440043449402],[0,-0.22033573407679796,0,0.3345289002172649,0,-0.26669623935595155,0,-0.24765374744310975],[0,-0.16428972641006112,0,0.9163357466459274,0,-0.17336413776502013,0,-0.33230917900800705],[0,-0.7742189504206181,0,0.5245022885501385,0,0.2965095825493336,0,-0.7003102810122073],[0,-0.908011537976563,0,0.8578525185585022,0,-0.41554396972060204,0,0.9956979947164655],[0,0.4770196629688144,0,0.6142349014990032,0,-0.4280117191374302,0,0.43163852905854583],[0,-0.44723969884216785,0,0.17802264029160142,0,0.24028347246348858,0,0.7129909419454634],[0,-0.08547358820214868,0,-0.08468286227434874,0,0.052055217791348696,0,-0.9312495947815478],[0,-0.8357476769015193,0,-0.836145119741559,0,-0.058974322862923145,0,-0.38725824747234583],[0,-0.4599241013638675,0,0.9441098892129958,0,0.6459720018319786,0,0.4010397745296359],[0,0.6709523214958608,0,0.35729507356882095,0,0.035254844930022955,0,0.6251407396048307],[0,-0.02859910624101758,0,0.9278113292530179,0,-0.041885573882609606,0,0.10846004588529468],[0,-0.3863511006347835,0,0.037416206672787666,0,-0.8257606839761138,0,0.48182186763733625],[0,-0.06412127614021301,0,-0.9593397616408765,0,-0.9281644588336349,0,0.8776502530090511],[0,-0.04132130090147257,0,-0.9832275994122028,0,0.9976411801762879,0,0.28704888792708516],[0,0.8396168383769691,0,-0.670977798756212,0,0.25815486069768667,0,-0.6027581081725657],[0,0.8568553309887648,0,-0.31452362425625324,0,0.1123255337588489,0,0.07999243633821607],[0,-0.21052172873169184,0,0.31079207453876734,0,-0.2532464498654008,0,0.9713959465734661],[0,0.8223702413961291,0,0.30952357687056065,0,0.8012186284177005,0,-0.6037415908649564],[0,0.3271513395011425,0,-0.7184307337738574,0,0.9731250707991421,0,0.7573387306183577],[0,-0.7825471963733435,0,0.4993387605063617,0,0.5953756663948298,0,0.25481144478544593],[0,0.26961206272244453,0,-0.39024595357477665,0,-0.7389451349154115,0,0.7308936538174748],[0,0.7018395327031612,0,0.2309814323671162,0,-0.24763448676094413,0,-0.1648416155949235],[0,-0.7942621721886098,0,-0.50040711928159,0,-0.9467738871462643,0,-0.4624681551940739],[0,-0.33317691227421165,0,-0.8871214664541185,0,0.25187588622793555,0,0.8797836024314165],[0,-0.25870430236682296,0,0.47452560998499393,0,-0.20798641256988049,0,0.8450138680636883],[0,0.45230162190273404,0,-0.9830129789188504,0,0.4812632235698402,0,-0.7032644087448716],[0,0.16700376942753792,0,0.997435053344816,0,0.5647568511776626,0,-0.3693294133991003],[0,0.4473633524030447,0,0.20003701280802488,0,-0.052166170440614223,0,-0.858251316472888],[0,0.7014925410039723,0,0.8174026105552912,0,-0.8017411702312529,0,0.03450108226388693],[0,0.2213240135461092,0,0.37378426315262914,0,-0.4026493695564568,0,0.1880546724423766],[0,0.6946391607634723,0,-0.549238019157201,0,-0.02260176930576563,0,-0.5670851692557335],[0,-0.028223891276866198,0,-0.1551488945260644,0,-0.7040709052234888,0,-0.509325641207397],[0,0.38471842696890235,0,-0.2714528958313167,0,-0.06315988907590508,0,0.5359740164130926],[0,0.9155118828639388,0,-0.7558325501158834,0,-0.5388766750693321,0,-0.8267953344620764],[0,0.38520569633692503,0,0.8411572813056409,0,0.49347976595163345,0,-0.438453811686486],[0,-0.1781028602272272,0,-0.30894609075039625,0,-0.732670980039984,0,-0.5103911091573536],[0,-0.25623034592717886,0,0.5111475209705532,0,-0.9240945382043719,0,0.7576297335326672],[0,0.6831533443182707,0,0.26105434726923704,0,0.33308002492412925,0,0.682191638275981],[0,-0.029158174991607666,0,0.5790948551148176,0,0.602465474512428,0,-0.48814679589122534],[0,-0.6040901420637965,0,0.3912093355320394,0,-0.4948670333251357,0,0.6545584639534354],[0,-0.7435024841688573,0,-0.6249924348667264,0,0.7495268094353378,0,-0.8224215707741678],[0,0.06981442868709564,0,0.11099352734163404,0,0.6266154022887349,0,0.759564605075866],[0,0.8531622267328203,0,-0.3860133904963732,0,-0.7844200148247182,0,0.25526848109439015],[0,-0.44733948446810246,0,-0.38063855515792966,0,-0.722213925793767,0,0.7427338380366564],[0,-0.5079641356132925,0,-0.6754425661638379,0,-0.4188591679558158,0,-0.8212291360832751],[0,0.049985161516815424,0,-0.6384795466437936,0,0.07220834633335471,0,-0.34110825322568417],[0,0.4612167696468532,0,-0.7594567141495645,0,-0.18917322251945734,0,0.8966790386475623],[0,-0.28138525411486626,0,0.8440430578775704,0,-0.5764288152568042,0,-0.008579599671065807],[0,-0.3355398643761873,0,0.6276301625184715,0,-0.40499430475756526,0,0.9928965852595866],[0,-0.8236129055730999,0,-0.7740902444347739,0,0.1999434563331306,0,0.5402293605729938],[0,0.641335865482688,0,0.5018843756988645,0,0.4982561650685966,0,-0.42477567167952657],[0,0.7647424750030041,0,0.6631223908625543,0,0.16728785308077931,0,0.9549064366146922],[0,-0.9354005316272378,0,-0.42407583771273494,0,0.9120584069751203,0,0.42869360093027353],[0,0.5316297682002187,0,0.14554209215566516,0,-0.40569235011935234,0,-0.9432136816903949],[0,0.7175615620799363,0,0.9527624840848148,0,0.3220018348656595,0,0.7278793002478778],[0,0.954015045426786,0,-0.8115704962983727,0,-0.09585401322692633,0,-0.7159233917482197],[0,-0.8600783888250589,0,0.7787168365903199,0,0.3625990538857877,0,-0.20695322938263416],[0,-0.7838151189498603,0,0.06401320127770305,0,-0.9465310657396913,0,0.34369740867987275],[0,0.6857117982581258,0,0.10339271929115057,0,0.27111849235370755,0,-0.6413391213864088],[0,0.6908985134214163,0,-0.3470532693900168,0,0.3106732224114239,0,-0.1949094757437706],[0,-0.24867512471973896,0,0.7563682948239148,0,-0.2226392924785614,0,-0.6990711917169392],[0,0.5078566246666014,0,-0.576485909987241,0,0.921754963696003,0,-0.7482864796184003],[0,0.4564806171692908,0,-0.3323972159996629,0,-0.3626072867773473,0,-0.3750349450856447],[0,-0.6489838799461722,0,-0.5741794588975608,0,-0.6013701381161809,0,-0.8869206188246608],[0,0.638343449216336,0,-0.8243740880861878,0,0.16175985429435968,0,-0.6728777997195721],[0,0.052602438256144524,0,0.0577028002589941,0,-0.2857954897917807,0,-0.38821183098480105],[0,-0.5554775535129011,0,-0.08467569015920162,0,-0.5454669999890029,0,-0.3945367303676903],[0,-0.758044159039855,0,-0.9154157275334001,0,-0.666565066203475,0,0.34897004533559084],[0,-0.29672721726819873,0,-0.5507284174673259,0,-0.369098131544888,0,0.8763806810602546],[0,0.41455910773947835,0,0.5184866525232792,0,-0.9016625960357487,0,-0.6721436847001314],[0,0.8609113213606179,0,0.2996299657970667,0,0.08577415533363819,0,0.3524748161435127],[0,0.7397013739682734,0,-0.5307707954198122,0,-0.9602191168814898,0,0.21227120934054255],[0,-0.4096553106792271,0,0.44169601099565625,0,-0.13948361901566386,0,0.6637473367154598],[0,0.7410398777574301,0,-0.9315653834491968,0,0.8952372376807034,0,-0.9766392968595028],[0,-0.8468698668293655,0,-0.9477845262736082,0,0.9473367570899427,0,0.4570538215339184],[0,0.64443503273651,0,-0.5018708258867264,0,0.9662017356604338,0,0.09229226177558303],[0,-0.6827265550382435,0,-0.6445490862242877,0,-0.9646213301457465,0,-0.44773719692602754],[0,0.7269576978869736,0,0.2888401485979557,0,-0.3347100028768182,0,0.6034473399631679],[0,0.9142306479625404,0,0.7264298764057457,0,0.5826394991017878,0,0.755002309102565],[0,0.49677555821835995,0,0.6481513413600624,0,0.4270157562568784,0,-0.024938137736171484],[0,-0.8155925469473004,0,0.3004827508702874,0,-0.48861351888626814,0,-0.44705438800156116],[0,0.5702293957583606,0,0.9074247335083783,0,-0.6623094244860113,0,-0.04804764501750469],[0,0.8808276527561247,0,0.6176330833695829,0,-0.1377017442137003,0,-0.8041971218772233],[0,-0.007122885435819626,0,-0.468416525516659,0,0.3510284135118127,0,0.9332661954686046],[0,0.16179047618061304,0,0.6536687738262117,0,0.5225884369574487,0,-0.38903395738452673],[0,0.6133759552612901,0,-0.2836670526303351,0,-0.9190456885844469,0,0.9662122251465917],[0,0.6730366609990597,0,0.4348889575339854,0,0.27341284742578864,0,-0.44651010585948825],[0,0.49328043730929494,0,-0.2828378239646554,0,0.5222001089714468,0,-0.7841709698550403],[0,0.7390122506767511,0,-0.2794020581059158,0,0.2108053918927908,0,-0.6599156283773482],[0,0.92719044117257,0,-0.06788006378337741,0,0.7135635172016919,0,0.9814767958596349],[0,0.9279701458290219,0,-0.693123278208077,0,-0.1511588622815907,0,0.02297161752358079],[0,0.1695466237142682,0,0.18179786344990134,0,0.11824296228587627,0,0.2626368338242173],[0,-0.6873244890011847,0,-0.3836551830172539,0,0.28263259353116155,0,0.43203086545690894],[0,-0.11493239272385836,0,-0.014292651787400246,0,-0.7657930115237832,0,0.7116362662054598],[0,0.539785323664546,0,-0.6048413380049169,0,-0.984646120108664,0,-0.8112419852986932],[0,-0.36286196392029524,0,0.14553943229839206,0,0.1813051081262529,0,0.02565298927947879],[0,0.6382642150856555,0,-0.5216215122491121,0,0.9116904335096478,0,-0.011371619533747435],[0,0.21815362526103854,0,-0.6102746529504657,0,-0.7538866437971592,0,0.11917450837790966],[0,0.26468053832650185,0,-0.6276265662163496,0,-0.9270827788859606,0,0.34832894150167704],[0,-0.4069161517545581,0,0.11027019703760743,0,-0.19288326939567924,0,0.36086605209857225],[0,-0.5425611729733646,0,0.7062667752616107,0,0.17727553192526102,0,0.7601106520742178],[0,-0.9555615815334022,0,0.9165074825286865,0,-0.3028391436673701,0,-0.1525587337091565],[0,-0.21703298157081008,0,0.21228340780362487,0,-0.6206389684230089,0,-0.9133090623654425],[0,-0.15063894307240844,0,0.5569133558310568,0,-0.2836829540319741,0,0.6469273366965353],[0,-0.7024337938055396,0,-0.31206283206120133,0,-0.4559692284092307,0,0.9016251019202173],[0,0.4014739249832928,0,-0.9841399118304253,0,0.8582280422560871,0,-0.9997462285682559],[0,0.8640135522000492,0,-0.07513138465583324,0,-0.16361720254644752,0,-0.6278989794664085],[0,-0.6229494479484856,0,-0.8318129749968648,0,0.3017117092385888,0,0.27917743707075715],[0,0.1665236079134047,0,-0.9538443135097623,0,0.8156384378671646,0,0.48429898731410503],[0,-0.5763577362522483,0,0.5880978261120617,0,0.9076936957426369,0,-0.7537819785065949],[0,0.6818532166071236,0,-0.8845298020169139,0,0.07435336289927363,0,0.9044190179556608],[0,-0.42599542904645205,0,0.9902342343702912,0,0.23696301085874438,0,-0.26234037382528186],[0,0.2140301871113479,0,-0.15036751562729478,0,-0.8069720156490803,0,0.9645827999338508],[0,0.8701175022870302,0,0.0021202843636274338,0,0.6050620442256331,0,-0.27305831434205174],[0,-0.5811355733312666,0,-0.47667204728350043,0,-0.9797672140412033,0,0.16937767574563622],[0,0.2775566428899765,0,0.9013086664490402,0,0.14473285479471087,0,0.7802622523158789],[0,0.058670006692409515,0,0.3194912155158818,0,-0.921490490436554,0,-0.31389493541792035],[0,-0.11533950362354517,0,-0.7746710428036749,0,-0.058496614918112755,0,-0.84186549205333],[0,-0.9588112286292017,0,0.6138472808524966,0,-0.21721940860152245,0,0.8012821646407247],[0,-0.5200130888260901,0,0.37300805980339646,0,0.42526747193187475,0,-0.6328192655928433],[0,-0.6583480122499168,0,-0.3103724787943065,0,-0.5183022627606988,0,-0.29042057134211063],[0,-0.19587220577523112,0,0.34497036039829254,0,0.6433622087351978,0,0.5550950346514583],[0,-0.6846668431535363,0,-0.9020620859228075,0,0.1612014234997332,0,-0.45338651072233915],[0,0.4336143145337701,0,-0.48606066266074777,0,-0.3128186264075339,0,-0.755056525580585],[0,0.1750609534792602,0,0.6202493314631283,0,-0.09795543132349849,0,-0.6067686304450035],[0,0.12393533997237682,0,-0.5617782920598984,0,-0.8172765159979463,0,0.6437063310295343],[0,0.456360574811697,0,-0.5932008433155715,0,0.15294394316151738,0,-0.9321279535070062],[0,0.5540889999829233,0,-0.9686623220331967,0,-0.23240765649825335,0,-0.9303052928298712],[0,0.044897221494466066,0,-0.8201525225304067,0,0.2546382686123252,0,0.5291304681450129],[0,-0.18771760445088148,0,-0.5346488612703979,0,-0.5977779263630509,0,0.22954481979832053],[0,-0.6318229800090194,0,0.6653825948014855,0,-0.5379045265726745,0,-0.16765637043863535],[0,-0.08757191803306341,0,-0.389738033991307,0,-0.9402724513784051,0,-0.907373471185565],[0,0.7804265455342829,0,-0.004116878379136324,0,0.016911062877625227,0,-0.06428057001903653],[0,0.12282129004597664,0,0.2594321118667722,0,0.4821071568876505,0,-0.04568607872352004],[0,0.2781926956959069,0,-0.3327325517311692,0,-0.5947717661038041,0,-0.5070648854598403],[0,-0.8765658531337976,0,0.2647855803370476,0,0.6283492562361062,0,0.588307986035943],[0,0.4499856326729059,0,-0.4599439222365618,0,0.4805485927499831,0,-0.08038161881268024],[0,-0.18596570705994964,0,-0.9669047142378986,0,0.8806751733645797,0,-0.14794135838747025],[0,0.7360051097348332,0,0.13316110521554947,0,-0.19603575393557549,0,0.09304242860525846],[0,-0.18089153990149498,0,-0.9067260599695146,0,-0.7396145458333194,0,0.3186156442388892],[0,0.3570031854324043,0,0.17291569849476218,0,-0.3838410465978086,0,-0.8234325791709125],[0,0.8849469805136323,0,-0.9219708135351539,0,-0.3815132509917021,0,0.4160141418687999],[0,0.7471580873243511,0,0.528939900919795,0,0.6036875592544675,0,0.6403231690637767],[0,-0.3010499714873731,0,-0.07365928729996085,0,-0.00021346891298890114,0,-0.42405891651287675],[0,0.009292934089899063,0,-0.9874607087112963,0,0.05645818589255214,0,0.8394411550834775],[0,0.7552595264278352,0,-0.7398562883026898,0,0.6478726761415601,0,0.7362786857411265],[0,-0.48671140195801854,0,-0.2179270670749247,0,0.5050494708120823,0,-0.16409533564001322],[0,-0.9220718233846128,0,0.628855996299535,0,0.7133746081963181,0,0.1569649432785809],[0,0.0657692733220756,0,0.07754303142428398,0,-0.97470493754372,0,0.6145294131711125],[0,-0.8381066271103919,0,-0.04104350274428725,0,0.11491037858650088,0,-0.5831447350792587],[0,0.08152216905727983,0,-0.9402192141860723,0,0.19993443321436644,0,0.9121205471456051],[0,0.5544459549710155,0,-0.04159176629036665,0,-0.6979483580216765,0,0.4942106851376593],[0,-0.3688440374098718,0,-0.9288122421130538,0,-0.6683442508801818,0,0.28044697595760226],[0,0.6202256549149752,0,0.6766273686662316,0,0.1408153185620904,0,-0.6612899177707732],[0,-0.04703005449846387,0,0.7258770861662924,0,0.8828331828117371,0,0.33520309068262577],[0,-0.24846944585442543,0,0.3893848625011742,0,-0.04220384871587157,0,-0.03634160337969661],[0,-0.4824707768857479,0,-0.03564857225865126,0,-0.3852436328306794,0,0.909056443721056],[0,-0.20986140752211213,0,-0.8627275181934237,0,0.5438178475014865,0,0.9839474484324455],[0,-0.786350057926029,0,0.6688924138434231,0,0.5243470584973693,0,-0.6469958876259625],[0,-0.6338947331532836,0,-0.7537851850502193,0,0.8096961821429431,0,0.6835181606002152],[0,0.6884487569332123,0,0.5257640108466148,0,-0.9897922850213945,0,0.4251147033646703],[0,-0.35875444300472736,0,-0.08781479671597481,0,-0.9041797951795161,0,0.7346694772131741],[0,-0.6142061650753021,0,0.42952833510935307,0,0.46558747719973326,0,0.7808250137604773],[0,-0.37189673352986574,0,-0.4742641421034932,0,0.7145640603266656,0,0.4341022134758532],[0,0.6226025791838765,0,-0.06280685216188431,0,-0.9412270463071764,0,-0.10322146723046899],[0,-0.8181732976809144,0,-0.42435908410698175,0,0.9017743160948157,0,-0.522743308916688],[0,-0.3931499384343624,0,0.9000478317029774,0,0.8153696418739855,0,0.7277148119173944],[0,0.44282978121191263,0,-0.8623508154414594,0,0.4417323414236307,0,-0.68402133975178],[0,0.17102292506024241,0,-0.13296417007222772,0,-0.6810173913836479,0,-0.22435487434267998],[0,0.22959876200184226,0,0.3088050065562129,0,0.7858975972048938,0,-0.2643000273965299],[0,-0.6252208473160863,0,-0.41456259367987514,0,-0.3183343904092908,0,0.8883560695685446],[0,-0.5552664659917355,0,-0.4310957621783018,0,-0.9620869783684611,0,-0.05518364114686847],[0,-0.9469922557473183,0,-0.3330693361349404,0,0.37191485799849033,0,-0.8526519448496401],[0,-0.5731344898231328,0,-0.2557020182721317,0,-0.026381873060017824,0,0.7846144996583462],[0,-0.5242177210748196,0,-0.16880914103239775,0,0.8650663951411843,0,-0.27746470971032977],[0,-0.6223390102386475,0,-0.3264174982905388,0,0.16899233730509877,0,0.604419328738004],[0,-0.7736182287335396,0,-0.34013726748526096,0,0.348942746873945,0,-0.34502332797273993],[0,-0.9799496345221996,0,-0.25509991543367505,0,-0.10215086955577135,0,0.14559194771572948],[0,-0.303552801720798,0,0.9459261544980109,0,0.9847726211883128,0,-0.6418268433772027],[0,0.9915990782901645,0,-0.4503153273835778,0,0.7087934380397201,0,0.6271057035773993],[0,-0.6178885400295258,0,0.36652391077950597,0,-0.520421449560672,0,0.3965479857288301],[0,-0.6042909482493997,0,0.5948320142924786,0,-0.6964030205272138,0,0.8329571485519409],[0,-0.6517461077310145,0,0.5985153531655669,0,-0.6284802271984518,0,-0.44814056856557727],[0,-0.8469938323833048,0,-0.7522492627613246,0,0.7721007815562189,0,-0.7563147386536002],[0,-0.9437061906792223,0,-0.35077679390087724,0,-0.03870099503546953,0,0.6319754705764353],[0,-0.16030274610966444,0,0.9587450381368399,0,0.5398035170510411,0,0.488221334759146],[0,0.8649739264510572,0,-0.5125845167785883,0,0.5962286633439362,0,0.7021331014111638],[0,0.9335594065487385,0,-0.5338852168060839,0,0.0742861176840961,0,-0.11306482926011086],[0,-0.5157625456340611,0,0.6069496534764767,0,0.9931922852993011,0,0.3379300651140511],[0,-0.44761653523892164,0,0.7630170620977879,0,0.2649138909764588,0,0.7583678802475333],[0,-0.2988884439691901,0,-0.587238332722336,0,-0.6192015488632023,0,-0.6479830769822001],[0,0.5965440715663135,0,-0.9227007073350251,0,0.4333236236125231,0,-0.05392839293926954],[0,0.8632438015192747,0,-0.44965013209730387,0,-0.17407509125769138,0,-0.5630955928936601],[0,0.702537324745208,0,0.5567354219965637,0,0.46884976187720895,0,-0.12129949359223247],[0,0.42348805721849203,0,0.6070089670829475,0,0.4186817081645131,0,-0.5529918386600912],[0,-0.6902478300035,0,0.13356091314926744,0,0.7950706100091338,0,0.6541035221889615],[0,0.22733546188101172,0,0.40310378186404705,0,0.19550876738503575,0,0.2883018865250051],[0,0.873609425034374,0,0.6883940030820668,0,-0.3488922156393528,0,-0.31251390278339386],[0,0.5326226670295,0,0.06241763988509774,0,0.7016599597409368,0,0.419922174885869],[0,-0.2689147568307817,0,-0.3262573517858982,0,-0.386534096673131,0,0.7097649830393493],[0,0.21080039534717798,0,0.17352547636255622,0,-0.4351449985988438,0,0.9344704677350819],[0,-0.16974249994382262,0,0.8693694239482284,0,-0.673573762178421,0,0.5876254392787814],[0,0.42471024626865983,0,-0.004743978381156921,0,-0.9081416060216725,0,0.8212668150663376],[0,-0.01103223953396082,0,0.18764023715630174,0,0.1603685487061739,0,-0.1819382579997182],[0,0.5703160585835576,0,0.6543286219239235,0,0.20761677669361234,0,-0.2554335379973054],[0,0.2343385354615748,0,-0.9856730308383703,0,0.32329246029257774,0,-0.11259412905201316],[0,0.1971674021333456,0,-0.34834010899066925,0,0.7517894646152854,0,0.5205384250730276],[0,0.22772785276174545,0,-0.6634764983318746,0,0.5718969851732254,0,0.6812898884527385],[0,0.19268641667440534,0,-0.2406591116450727,0,-0.6137252924963832,0,-0.6411779476329684],[0,-0.16164416959509254,0,-0.35099723003804684,0,0.6939987512305379,0,0.7533340845257044],[0,-0.7487335815094411,0,-0.7916862056590617,0,-0.8448608168400824,0,0.0479341009631753],[0,-0.9833127441816032,0,0.2342882938683033,0,-0.07331212982535362,0,-0.8803303758613765],[0,-0.6231714929454029,0,0.030830920673906803,0,0.9351794086396694,0,-0.05043446226045489],[0,-0.30967635614797473,0,-0.4987701238133013,0,-0.17450576927512884,0,-0.5233803242444992],[0,0.2932704947888851,0,0.3150410423986614,0,0.7031807624734938,0,0.6516244350932539],[0,0.05638358788564801,0,0.04169356217607856,0,0.6231051622889936,0,-0.41335311345756054],[0,-0.9191401368007064,0,0.3724042670801282,0,0.46396938897669315,0,0.8825311101973057],[0,-0.29017862398177385,0,0.9346234994009137,0,0.6589847644791007,0,0.23517587454989552],[0,-0.4195425668731332,0,-0.8355570724233985,0,-0.3234210084192455,0,0.20141903450712562],[0,-0.28817945439368486,0,-0.4022197308950126,0,-0.18944078497588634,0,0.9533165176399052],[0,0.7127265892922878,0,0.6762700704857707,0,0.08073345432057977,0,-0.9484906983561814],[0,0.5194710502400994,0,0.6542300274595618,0,-0.03708547540009022,0,-0.09010606305673718],[0,0.05900462158024311,0,-0.7649560109712183,0,-0.07205687370151281,0,-0.57421899959445],[0,0.5836784136481583,0,0.7946285116486251,0,0.13612662814557552,0,0.518067907076329],[0,-0.7863101726397872,0,0.12079475075006485,0,0.6956872707232833,0,-0.026317950803786516],[0,0.5834012604318559,0,-0.9561549634672701,0,0.08422101987525821,0,-0.7165750693529844],[0,-0.10227823257446289,0,0.34395822510123253,0,-0.617592282127589,0,0.6093803774565458],[0,-0.09635747829452157,0,0.20024975016713142,0,-0.8578694695606828,0,-0.9546849876642227],[0,0.7282315362244844,0,-0.7583340611308813,0,-0.5970460614189506,0,0.5747093893587589],[0,0.2339454498142004,0,-0.7488291612826288,0,0.9723616167902946,0,-0.6346713667735457],[0,0.17475852882489562,0,-0.3649926111102104,0,-0.7542618564330041,0,0.5199138456955552],[0,0.5154902981594205,0,0.3389086411334574,0,0.1485744658857584,0,-0.9734783503226936],[0,0.10378807364031672,0,0.5914090853184462,0,-0.07081184256821871,0,-0.16894918074831367],[0,-0.2151083117350936,0,0.7337091928347945,0,0.012085231021046638,0,0.7784486534073949],[0,-0.9707350204698741,0,-0.5564202996902168,0,-0.5582726998254657,0,-0.45932647585868835],[0,0.04932728596031666,0,-0.10878027975559235,0,-0.5002761408686638,0,-0.3855537767522037],[0,0.7847430943511426,0,-0.9514331426471472,0,-0.6788981752470136,0,0.49152416409924626],[0,0.1452822620049119,0,0.2854795753955841,0,0.30125216487795115,0,-0.5192850334569812],[0,0.1748093138448894,0,0.3642979897558689,0,-0.12296313280239701,0,0.4207423045299947],[0,0.5576253924518824,0,0.84098653588444,0,-0.19848811393603683,0,0.3755893320776522],[0,-0.6426775800064206,0,0.18351753894239664,0,-0.7405185792595148,0,0.9173293458297849],[0,-0.9076249967329204,0,0.2795367995277047,0,-0.3153573777526617,0,0.2889555641449988],[0,-0.11582662584260106,0,0.937548958696425,0,-0.4554199264384806,0,-0.294028848875314],[0,0.9039397286251187,0,0.5489718955941498,0,0.46434026723727584,0,-0.18887983169406652],[0,-0.07033401448279619,0,0.2571076531894505,0,-0.5106083117425442,0,0.5344605995342135],[0,-0.8127527050673962,0,-0.9369637602940202,0,-0.5205905586481094,0,-0.8946343176066875],[0,0.1335462722927332,0,-0.7042618542909622,0,0.922318072989583,0,0.09022809751331806],[0,-0.3362072166055441,0,-0.21900340355932713,0,-0.6919140033423901,0,0.6714140754193068],[0,-0.14042091090232134,0,0.6955013046972454,0,-0.6996403699740767,0,-0.24975552735850215],[0,-0.20503055257722735,0,-0.24098211014643312,0,-0.9980797041207552,0,0.3917346163652837],[0,-0.2881446457467973,0,0.2084476500749588,0,0.9564602305181324,0,0.6796006723307073],[0,-0.3706403295509517,0,-0.4753388245590031,0,-0.19686535838991404,0,0.44862348260357976],[0,-0.47004617052152753,0,0.9227651716209948,0,0.10202822694554925,0,0.6371248373761773],[0,0.12144054239615798,0,0.24554160330444574,0,-0.969204951543361,0,-0.2649278943426907],[0,0.8960336023010314,0,-0.43139369785785675,0,0.7024349886924028,0,0.035796234384179115],[0,0.6195918172597885,0,-0.4051303747110069,0,0.3418182567693293,0,0.959613845217973],[0,0.7121034571900964,0,0.6403157757595181,0,0.28682565269991755,0,-0.048264818731695414],[0,0.12664267281070352,0,0.24865899328142405,0,-0.08764128992334008,0,-0.5525169540196657],[0,-0.5148647055029869,0,-0.04075949313119054,0,-0.9156244127079844,0,0.7451698696240783],[0,-0.22887984290719032,0,0.23470260435715318,0,-0.8923357827588916,0,-0.6686837789602578],[0,-0.2617397732101381,0,-0.4672530912794173,0,0.446561798453331,0,0.23151665972545743],[0,-0.5600039935670793,0,0.9503742274828255,0,0.05104240868240595,0,-0.34801078494638205],[0,-0.5971764703281224,0,0.31919993506744504,0,0.4343424695543945,0,-0.18997746193781495],[0,0.5911987931467593,0,-0.5227740514092147,0,0.4049632577225566,0,0.5605491762980819],[0,-0.4657893511466682,0,-0.2782847913913429,0,0.0413500708527863,0,-0.5801499993540347],[0,-0.9625393161550164,0,-0.5097404485568404,0,0.08730760775506496,0,0.14860906638205051],[0,0.9563419306650758,0,-0.870585108641535,0,-0.11943570245057344,0,0.9029768696054816],[0,-0.13173985900357366,0,0.5743420058861375,0,-0.000975409522652626,0,0.0030643302015960217],[0,0.48577013798058033,0,-0.7328793671913445,0,0.13459522742778063,0,0.4402550170198083],[0,-0.47608213406056166,0,-0.0996112609282136,0,-0.0495632030069828,0,-0.14764836430549622],[0,-0.8315895460546017,0,-0.7775961766019464,0,0.7652127733454108,0,0.6023428770713508],[0,0.8666937458328903,0,-0.4160406650044024,0,0.9122565831057727,0,0.14688296196982265],[0,0.23699564673006535,0,-0.4974741102196276,0,-0.6009183479472995,0,0.6627524322830141],[0,-0.7658487604930997,0,-0.9602759652771056,0,0.8438227842561901,0,0.6336887162178755],[0,-0.8253557193093002,0,0.782178373541683,0,0.5017717350274324,0,0.16754577215760946],[0,0.20764871966093779,0,-0.3911521374247968,0,0.2355653066188097,0,-0.29936845460906625],[0,0.6234436370432377,0,0.46210908330976963,0,0.5177315999753773,0,0.9827711139805615],[0,0.15521470690146089,0,0.3550346093252301,0,0.9043844272382557,0,0.9551868229173124],[0,0.42830740427598357,0,0.4578427695669234,0,-0.583176439628005,0,0.22531914059072733],[0,-0.4678014670498669,0,0.4052897412329912,0,0.2917271223850548,0,0.5521419732831419],[0,-0.7352180853486061,0,-0.6945710275322199,0,0.15151854418218136,0,0.8302319371141493],[0,-0.4642585776746273,0,-0.7388525097630918,0,0.9890501108020544,0,0.6803031233139336],[0,-0.23269039392471313,0,-0.04703513998538256,0,-0.03942329343408346,0,-0.9939222065731883],[0,-0.457294758874923,0,0.5932506397366524,0,-0.3501941775903106,0,-0.5966644869185984],[0,-0.0620587314479053,0,-0.503564493265003,0,0.09855018788948655,0,0.9463935876265168],[0,-0.2594618098810315,0,0.6913813245482743,0,0.9605764425359666,0,-0.18216637847945094],[0,0.1928900247439742,0,-0.39014699636027217,0,0.49433721601963043,0,-0.4706685785204172],[0,0.47965677874162793,0,-0.861009637825191,0,-0.5932157728821039,0,0.11264710268005729],[0,-0.7482989174313843,0,-0.4661250151693821,0,0.5255937138572335,0,0.5971393575891852],[0,-0.09139185724779963,0,-0.627768216188997,0,-0.23280241759493947,0,-0.22406309191137552],[0,0.4886122620664537,0,0.31972677120938897,0,-0.47990157827734947,0,-0.6757355402223766],[0,0.012460463214665651,0,0.6107883141376078,0,-0.6870135683566332,0,0.17461681878194213],[0,0.4139003832824528,0,-0.2725643231533468,0,0.8455315758474171,0,0.4719017934985459],[0,0.14228042447939515,0,-0.369474854785949,0,-0.8769988305866718,0,0.635519215837121],[0,0.15374255646020174,0,0.3758246977813542,0,0.6620447169989347,0,0.6806088099256158],[0,0.08902364782989025,0,-0.9883215161971748,0,-0.3719563717022538,0,-0.08278206968680024],[0,-0.7565792831592262,0,-0.34025196032598615,0,-0.9010450728237629,0,-0.17690205294638872],[0,0.8438311358913779,0,-0.3113422030583024,0,0.24346673535183072,0,0.43252503452822566],[0,0.7965316502377391,0,-0.3077419432811439,0,0.032603586092591286,0,0.7607564367353916],[0,-0.5882160849869251,0,-0.5385402296669781,0,0.46932534500956535,0,-0.20132747571915388],[0,-0.8439114987850189,0,-0.6398971793241799,0,0.8682057126425207,0,0.7017235923558474],[0,-0.845998365432024,0,0.8072121683508158,0,-0.3723205695860088,0,0.0049230908043682575],[0,-0.9953975025564432,0,-0.32731298077851534,0,-0.8038998618721962,0,0.21356754563748837],[0,-0.47844040812924504,0,0.7588002323172987,0,-0.0020101633854210377,0,0.20980848371982574],[0,-0.009032126050442457,0,-0.20219592656940222,0,0.9902997785247862,0,-0.7247667582705617],[0,0.8884088024497032,0,0.259157944470644,0,0.8403138495050371,0,0.4259512652643025],[0,-0.37365384493023157,0,-0.171475765760988,0,-0.5842581680044532,0,0.8109829463064671],[0,-0.45389921963214874,0,-0.11988519039005041,0,-0.6002169754356146,0,0.7574784932658076],[0,-0.10597528098151088,0,-0.25396801764145494,0,-0.11013354361057281,0,-0.9336918932385743],[0,-0.37748336000368,0,0.16169689735397696,0,0.8941190838813782,0,-0.8865689774975181],[0,-0.5318298628553748,0,-0.5131714874878526,0,0.8662399547174573,0,-0.6252961563877761],[0,-0.6569674583151937,0,-0.05053631775081158,0,0.45817566802725196,0,-0.44321494828909636],[0,0.21307179238647223,0,-0.045493743382394314,0,-0.7297268663533032,0,0.40009830752387643],[0,-0.302570519503206,0,-0.998864471912384,0,-0.2637020689435303,0,-0.5276275346986949],[0,0.19773710751906037,0,0.31887971609830856,0,0.9401916810311377,0,0.7870825044810772],[0,0.07827919395640492,0,-0.0871143233962357,0,-0.7017634701915085,0,-0.10910463146865368],[0,0.8773220055736601,0,-0.5530019360594451,0,0.41354228649288416,0,0.6934780511073768],[0,0.6500105960294604,0,-0.5257323780097067,0,-0.7857816750183702,0,-0.7385112075135112],[0,0.4276644731871784,0,0.8325406704097986,0,-0.47243858501315117,0,0.5575184798799455],[0,0.22185723576694727,0,0.13902754103764892,0,-0.10752177005633712,0,-0.029972235672175884],[0,-0.8370217611081898,0,-0.28490924229845405,0,-0.7928517530672252,0,0.14209902472794056],[0,-0.20743381464853883,0,-0.1858969978056848,0,-0.8628665120340884,0,0.9257839946076274],[0,0.781369052361697,0,-0.06644120626151562,0,0.18537333142012358,0,0.4607230839319527],[0,0.8832443775609136,0,0.813651081174612,0,-0.2264424874447286,0,0.30800188658759],[0,0.020429492462426424,0,0.15224155085161328,0,-0.2839148980565369,0,-0.48470099177211523],[0,-0.5340839736163616,0,-0.7823225306347013,0,-0.005507136229425669,0,0.9053517072461545],[0,0.5599902127869427,0,-0.8303681085817516,0,-0.553162241820246,0,-0.8508242312818766],[0,-0.6269141091033816,0,-0.6910889949649572,0,-0.8040824453346431,0,-0.3490777579136193],[0,-0.3533137305639684,0,0.2604768215678632,0,0.4247199739329517,0,0.32219791831448674],[0,0.6234789327718318,0,0.9143260330893099,0,-0.013266082853078842,0,0.8993924912065268],[0,-0.04401887487620115,0,0.22875789506360888,0,-0.9761665305122733,0,0.6348890070803463],[0,0.9730558423325419,0,0.15879164589568973,0,0.5730072646401823,0,0.985910433344543],[0,0.3535599005408585,0,-0.5158101110719144,0,-0.6569620897062123,0,-0.2988696852698922],[0,-0.8423698469996452,0,-0.5058078751899302,0,-0.22149207582697272,0,0.09135728748515248],[0,-0.44032823387533426,0,-0.16731181740760803,0,0.6795954471454024,0,-0.26570610934868455],[0,0.2991920253261924,0,-0.8718335242010653,0,-0.19027977949008346,0,-0.7917789262719452],[0,0.6619239845313132,0,-0.20258071972057223,0,0.4856745540164411,0,-0.3238624883815646],[0,-0.5402187099680305,0,-0.8246380034834146,0,0.5355101213790476,0,0.1990672703832388],[0,0.12765860371291637,0,0.9988095653243363,0,-0.6308849356137216,0,-0.669546932913363],[0,0.7546388967894018,0,-0.45305258966982365,0,0.5938153695315123,0,0.10692640114575624],[0,-0.788621278014034,0,0.8795595271512866,0,0.6628702944144607,0,0.7140430631116033],[0,-0.8682853262871504,0,-0.4116201065480709,0,-0.8519762097857893,0,-0.5234012953005731],[0,-0.3139413124881685,0,0.9716269304044545,0,-0.7334348689764738,0,0.0448320135474205],[0,-0.9958083862438798,0,-0.12323360471054912,0,0.18618468148633838,0,-0.9650648166425526],[0,-0.11440880736336112,0,0.8885336318053305,0,-0.4553544041700661,0,-0.725990769919008],[0,-0.844651366584003,0,0.5273321643471718,0,0.2774050496518612,0,0.02527218498289585],[0,0.5308912787586451,0,0.23126582335680723,0,0.16593798575922847,0,-0.5384668977931142],[0,0.2131879860535264,0,0.48557036789134145,0,-0.6261610793881118,0,-0.3772666873410344],[0,-0.7336460938677192,0,-0.047131997998803854,0,0.893289917614311,0,0.5563594386912882],[0,0.5273328670300543,0,-0.029005079995840788,0,-0.536429503466934,0,-0.012373644858598709],[0,-0.9151370115578175,0,-0.6033954340964556,0,-0.3443991243839264,0,-0.001392332836985588],[0,-0.5265382244251668,0,0.5337496064603329,0,-0.3883971832692623,0,0.7936430359259248],[0,0.7655723211355507,0,-0.6860382342711091,0,-0.40401312056928873,0,0.889676789753139],[0,-0.46075918478891253,0,0.013052795082330704,0,0.15064832847565413,0,0.8556458014063537],[0,-0.5498581123538315,0,-0.15474142506718636,0,0.1211350685916841,0,0.8665189864113927],[0,-0.871938506141305,0,-0.40208610985428095,0,0.5754710081964731,0,0.83545230794698],[0,0.7329151616431773,0,-0.47266774298623204,0,-0.9555920450948179,0,0.8515152013860643],[0,-0.4195338971912861,0,-0.057929844595491886,0,0.6888362681493163,0,-0.4315634937956929],[0,-0.5617624660953879,0,0.561336369253695,0,-0.8423883956857026,0,0.8493022634647787],[0,0.9037470798939466,0,-0.33873778535053134,0,-0.9740114146843553,0,-0.39677375089377165],[0,-0.143506720662117,0,-0.9489874672144651,0,-0.7924440819770098,0,-0.702484492212534],[0,0.17131491843611002,0,-0.23450130177661777,0,0.352274676784873,0,0.4679894964210689],[0,-0.6289255577139556,0,-0.8492792462930083,0,0.3496412723325193,0,-0.9640425126999617],[0,0.751875844784081,0,-0.5358347645960748,0,0.6130277370102704,0,-0.7375117228366435],[0,-0.1740276417694986,0,-0.2251543588936329,0,-0.12799754831939936,0,0.10513313254341483],[0,-0.9151164698414505,0,-0.10419515706598759,0,-0.5644067898392677,0,-0.280897397082299],[0,0.6620460692793131,0,0.4975171322003007,0,0.563400050625205,0,0.39717874210327864],[0,-0.8703283928334713,0,-0.8382494123652577,0,-0.2674486213363707,0,-0.5158254317939281],[0,-0.5513212340883911,0,0.4169481354765594,0,-0.10421191807836294,0,-0.8418537559919059],[0,0.5619470910169184,0,0.2324847588315606,0,0.7593140034005046,0,0.14275253005325794],[0,-0.20348908798769116,0,0.5873447582125664,0,0.9792681313119829,0,-0.2336875107139349],[0,-0.08718034718185663,0,-0.18291095132008195,0,-0.7857709736563265,0,0.3811863590963185],[0,0.3584380582906306,0,-0.43660722533240914,0,-0.6174675906077027,0,-0.6806759755127132],[0,-0.9223750391975045,0,-0.6252165208570659,0,-0.6463293465785682,0,-0.45558023219928145],[0,-0.7786047817207873,0,-0.9264715309254825,0,0.43505667382851243,0,0.2886328608728945],[0,-0.598415907472372,0,0.0513009624555707,0,0.5178323099389672,0,-0.7135482560843229],[0,-0.7742295563220978,0,-0.4181844308041036,0,0.025327498093247414,0,0.4763469872996211],[0,-0.342876685783267,0,0.1820309143513441,0,0.71536746295169,0,-0.6051714411005378],[0,-0.3244454408995807,0,-0.9731973446905613,0,-0.869869674090296,0,-0.15860586613416672],[0,-0.9769882764667273,0,-0.3901788820512593,0,-0.8559592291712761,0,0.43083204748108983],[0,-0.4594836812466383,0,0.14282203931361437,0,0.8508473397232592,0,0.6426004427485168],[0,-0.8267579986713827,0,-0.5883109890855849,0,0.8793955016881227,0,0.9545821589417756],[0,-0.5922036184929311,0,-0.14223829377442598,0,-0.13988522673025727,0,0.924432601314038],[0,0.5859689894132316,0,-0.07924790401011705,0,-0.6870557377114892,0,-0.29655343433842063],[0,0.8333168849349022,0,-0.5938623379915953,0,-0.14953340170904994,0,-0.9516068082302809],[0,-0.42479629861190915,0,0.7786770812235773,0,-0.3525119828991592,0,-0.6474299849942327],[0,-0.5943270893767476,0,-0.7877207254059613,0,0.2981931334361434,0,-0.30445189867168665],[0,0.9561765752732754,0,-0.6216159919276834,0,-0.6901151365600526,0,-0.4002249608747661],[0,0.5032908748835325,0,-0.1402796497568488,0,0.46087005781009793,0,0.4171769921667874],[0,0.49975807033479214,0,-0.23892552126199007,0,0.14261604100465775,0,0.86936818016693],[0,-0.4471532367169857,0,0.6699779108166695,0,0.9731033984571695,0,0.8656776575371623],[0,0.44846760435029864,0,-0.26493313210085034,0,0.7336234701797366,0,0.6041100453585386],[0,-0.7502429694868624,0,-0.715659526642412,0,-0.302567642647773,0,0.08404126018285751],[0,0.5380353350192308,0,-0.7051055780611932,0,0.30574185913428664,0,0.34230210492387414],[0,0.12840507924556732,0,0.4222816196270287,0,0.788850742392242,0,-0.8860905421897769],[0,-0.6146167777478695,0,-0.38710089679807425,0,-0.9901439999230206,0,0.45461844466626644],[0,0.1411979589611292,0,0.9445251803845167,0,0.4811679879203439,0,0.7188935982994735],[0,-0.5317080593667924,0,0.352697541937232,0,-0.27424144744873047,0,0.48496722942218184],[0,-0.7515086396597326,0,-0.49718818021938205,0,0.3729733512736857,0,0.4799170382320881],[0,-0.5829177657142282,0,0.08681611064821482,0,0.09057626873254776,0,0.3103374647907913],[0,-0.3463722178712487,0,-0.9696191940456629,0,-0.6552627678029239,0,0.5240345895290375],[0,-0.5927027179859579,0,-0.43933252431452274,0,0.46253245789557695,0,-0.3897731080651283],[0,-0.9262862503528595,0,0.4952914295718074,0,0.3881462193094194,0,0.3257335447706282],[0,0.742751230020076,0,0.7601594482548535,0,-0.6585253314115107,0,-0.10435175709426403],[0,0.30063051730394363,0,0.49796641431748867,0,0.2696975111030042,0,0.5139379631727934],[0,-0.35854289680719376,0,0.1674908804707229,0,-0.8687661834992468,0,0.3742669802159071],[0,0.3551130658015609,0,-0.3857682263478637,0,-0.18321956368163228,0,0.43923067348077893],[0,-0.6399934906512499,0,0.5771992546506226,0,0.2762160371057689,0,0.47852351795881987],[0,-0.8674865895882249,0,0.6274969563819468,0,-0.9232652578502893,0,0.12550088064745069],[0,0.11709426902234554,0,0.49862642539665103,0,0.15968307061120868,0,0.19424970634281635],[0,-0.9218646613880992,0,0.9593376726843417,0,0.1774238203652203,0,0.03719730256125331],[0,-0.7114255926571786,0,0.31478324718773365,0,-0.5958030358888209,0,0.1557607464492321],[0,0.37072519632056355,0,0.6506929649040103,0,0.3495930628851056,0,-0.7764474018476903],[0,-0.41193889221176505,0,0.15483471797779202,0,-0.7256886204704642,0,-0.679860751144588],[0,0.9404219826683402,0,0.9697923758067191,0,0.9939051223918796,0,-0.03790485765784979],[0,-0.35477581061422825,0,-0.8380005015060306,0,-0.638454623054713,0,-0.5024940907023847],[0,-0.12630885792896152,0,-0.46512884786352515,0,0.07729205908253789,0,-0.7473772349767387],[0,-0.4436593917198479,0,-0.06950470618903637,0,0.2183814411982894,0,0.8105291998945177],[0,-0.873676682356745,0,0.4934535063803196,0,0.38629814703017473,0,0.8664061254821718],[0,0.9714372237212956,0,-0.3078782260417938,0,-0.3368401061743498,0,-0.040586309507489204],[0,-0.8229784867726266,0,0.9272244581952691,0,-0.11337901605293155,0,-0.18143924279138446],[0,0.16161262057721615,0,-0.027116861194372177,0,0.5415545394644141,0,0.09036932047456503],[0,0.06707902904599905,0,-0.24098414042964578,0,-0.9222499579191208,0,0.8433010657317936],[0,-0.5569429406896234,0,0.885769004933536,0,0.535815064329654,0,-0.4928092020563781],[0,-0.9186612186022103,0,0.8543889033608139,0,-0.9662542594596744,0,0.8813059977255762],[0,-0.15832810290157795,0,0.8571537220850587,0,-0.287085946649313,0,-0.42294611083343625],[0,0.1439762506633997,0,0.6092396480962634,0,0.8613771004602313,0,0.32464448595419526],[0,-0.03699954645708203,0,-0.5090081142261624,0,-0.968108072411269,0,0.3452309253625572],[0,0.7015750482678413,0,0.5470300386659801,0,-0.4451330602169037,0,0.6878651441074908],[0,0.5004500499926507,0,0.998921503778547,0,0.3095550765283406,0,0.6627811649814248],[0,0.04573626630008221,0,0.7286898135207593,0,-0.25411546463146806,0,0.49788581812754273],[0,-0.8608801774680614,0,0.33944249572232366,0,0.638988452963531,0,-0.7717945482581854],[0,0.15242151776328683,0,-0.4618617529049516,0,-0.26784449024125934,0,0.47912260238081217],[0,0.6002553999423981,0,-0.8060653698630631,0,0.6003240863792598,0,-0.7942978069186211],[0,0.040030285250395536,0,-0.8423507488332689,0,0.5645261495374143,0,-0.7858048882335424],[0,-0.24686029087752104,0,-0.08900078618898988,0,0.2152095939964056,0,0.5309289400465786],[0,-0.3215875825844705,0,0.9259800687432289,0,-0.1400036672130227,0,-0.4024378708563745],[0,-0.37871434120461345,0,0.4222056930884719,0,0.4169761538505554,0,0.30660417629405856],[0,0.12979371333494782,0,0.4823672124184668,0,0.6581593519076705,0,-0.8561970414593816],[0,-0.853374533355236,0,-0.996217499487102,0,-0.22903264965862036,0,-0.06320583168417215],[0,0.4084188276901841,0,0.3087155078537762,0,-0.6978403655812144,0,0.21660055126994848],[0,0.5706827053800225,0,-0.9609961174428463,0,0.5781956603750587,0,-0.853369549382478],[0,0.37964505096897483,0,-0.5186719875782728,0,-0.6503930180333555,0,0.5704220635816455],[0,-0.2698525181040168,0,0.24106442276388407,0,0.38985556550323963,0,0.877286933362484],[0,-0.22615706268697977,0,-0.7948462809436023,0,0.6083928043954074,0,0.2883891020901501],[0,-0.8719036360271275,0,-0.750902155879885,0,0.6046062121167779,0,0.7340613366104662],[0,0.6535337227396667,0,0.03330143680796027,0,-0.37582387682050467,0,0.5442803166806698],[0,-0.6549895121715963,0,0.24375813780352473,0,-0.8321390678174794,0,-0.5666016414761543],[0,0.3894999003969133,0,0.23910836270079017,0,-0.6975036486983299,0,0.33131491765379906],[0,0.7684513051062822,0,-0.2566303457133472,0,-0.2423588796518743,0,0.8692725361324847],[0,-0.7850037557072937,0,0.7551904115825891,0,-0.8657605270855129,0,0.4905008072964847],[0,0.9936847928911448,0,-0.07513251155614853,0,0.2908216305077076,0,0.1070248568430543],[0,-0.3636563350446522,0,-0.7942592273466289,0,0.8864933024160564,0,0.9685683320276439],[0,-0.7210809336975217,0,0.4971551485359669,0,0.7406951584853232,0,0.05136875947937369],[0,-0.6905580763705075,0,-0.1108056171797216,0,-0.9054635278880596,0,-0.2747639170847833],[0,0.04817604925483465,0,-0.6902777580544353,0,0.02244367729872465,0,-0.715513892006129],[0,-0.8806735179387033,0,-0.7969181886874139,0,0.7847152310423553,0,-0.04207312408834696],[0,0.7226464478299022,0,0.3312821798026562,0,-0.6478936774656177,0,-0.5806934232823551],[0,-0.6346868257969618,0,-0.5370965800248086,0,0.8052461175248027,0,-0.5332487691193819],[0,0.9126287223771214,0,0.8059468017891049,0,-0.8848427948541939,0,-0.5827504834160209],[0,-0.481421887408942,0,0.16615764098241925,0,0.42105472926050425,0,0.7723265485838056],[0,0.5896362490020692,0,0.8872435498051345,0,0.8774245562963188,0,-0.41458237264305353],[0,0.9853199790231884,0,-0.09881825698539615,0,0.9961861306801438,0,-0.9304777984507382],[0,-0.6313292728736997,0,0.9855074170045555,0,0.6289405981078744,0,-0.8030841695144773],[0,0.8395669190213084,0,-0.6960725788958371,0,-0.6859014737419784,0,-0.4414565796032548],[0,0.7041459851898253,0,0.4248316930606961,0,0.11890989588573575,0,0.59867626382038],[0,0.5140666426159441,0,-0.3150379373691976,0,0.6761419828981161,0,0.26065442245453596],[0,0.2452157256193459,0,-0.5067850737832487,0,0.09773948369547725,0,-0.9473818736150861],[0,0.4601384182460606,0,0.3903533788397908,0,0.327232435811311,0,0.8134193904697895],[0,-0.4243870838545263,0,0.5684648957103491,0,0.709597340784967,0,0.24648674903437495],[0,0.3425535596907139,0,0.9912625951692462,0,-0.17055331636220217,0,0.5257925814948976],[0,0.9100939431227744,0,-0.2987803453579545,0,0.5704625584185123,0,0.5735432761721313],[0,-0.72228999203071,0,0.3599994773976505,0,-0.7225439054891467,0,-0.30021471716463566],[0,-0.978958775755018,0,0.4385762782767415,0,-0.43305165879428387,0,-0.5139442863874137],[0,0.25543895037844777,0,0.22865287261083722,0,-0.28687038319185376,0,-0.7428773851133883],[0,0.4048879723995924,0,-0.895004041492939,0,0.8633662392385304,0,0.38290454680100083],[0,0.6523881587199867,0,-0.9764516577124596,0,0.43131970660761,0,0.568702831864357],[0,0.9911418007686734,0,0.8254371932707727,0,-0.6654835366643965,0,-0.3450795216485858],[0,-0.9839521390385926,0,0.13532213773578405,0,-0.9432184440083802,0,-0.5739146932028234],[0,0.9413308426737785,0,0.9834766206331551,0,0.4021859406493604,0,0.70106195891276],[0,0.9434463009238243,0,-0.18333930894732475,0,0.16099632624536753,0,-0.2958613485097885],[0,-0.661895249504596,0,-0.4371054461225867,0,-0.1514006918296218,0,-0.5062371045351028],[0,-0.9993366538546979,0,-0.5458460412919521,0,-0.36542022973299026,0,0.40130350133404136],[0,0.8501982898451388,0,0.5858275908976793,0,0.08767300937324762,0,-0.9935878673568368],[0,-0.8453130410052836,0,-0.37312888260930777,0,0.2087559998035431,0,-0.9331122259609401],[0,0.30677254404872656,0,0.8205169723369181,0,0.10768921673297882,0,0.9370251330547035],[0,0.7327920263633132,0,0.579759874381125,0,-0.7775194067507982,0,0.2740954514592886],[0,-0.3768261172808707,0,0.906120028346777,0,0.9553966564126313,0,0.3805030360817909],[0,0.017974700778722763,0,0.8635716536082327,0,-0.1560096750035882,0,0.6757857301272452],[0,-0.3867959422059357,0,0.2490570922382176,0,-0.423671820666641,0,-0.06598417647182941],[0,-0.6706416998058558,0,-0.2784252786077559,0,0.6383172222413123,0,-0.5152433728799224],[0,-0.26114922389388084,0,0.8679635082371533,0,0.673202820122242,0,-0.10727463848888874],[0,0.8590312041342258,0,0.3013256033882499,0,-0.9170357561670244,0,0.4917108388617635],[0,0.448857007548213,0,0.4619177640415728,0,0.8443490834906697,0,-0.9320692112669349],[0,0.6075399708934128,0,0.35718549229204655,0,-0.2129971389658749,0,0.10332143353298306],[0,0.2992922095581889,0,-0.8171130050905049,0,0.975036789663136,0,-0.13829686306416988],[0,0.7001406024210155,0,-0.821377182379365,0,0.4102508914656937,0,-0.165000818669796],[0,-0.4232516377232969,0,-0.5620278152637184,0,-0.17633791035041213,0,0.4183978633955121],[0,0.02206353936344385,0,-0.4010077309794724,0,-0.07586436066776514,0,0.936598795466125],[0,0.12929473584517837,0,-0.9613118525594473,0,-0.09718727739527822,0,0.2876027529127896],[0,0.8507631062529981,0,-0.014082986861467361,0,0.5704435235820711,0,0.046959187369793653],[0,0.9607056411914527,0,0.14761629374697804,0,-0.7843226795084774,0,0.07695451891049743],[0,-0.08576904935762286,0,0.16145671717822552,0,-0.04345325846225023,0,-0.8240676270797849],[0,0.1540736802853644,0,0.24229412153363228,0,0.3474845737218857,0,0.30502201057970524],[0,0.6945810778997838,0,-0.6078711370937526,0,-0.5667732888832688,0,-0.47557173063978553],[0,0.4025485208258033,0,-0.8746807146817446,0,0.9531810712069273,0,0.5698712347075343],[0,-0.9756402191706002,0,0.7677453239448369,0,-0.5621994100511074,0,-0.30547690112143755],[0,0.732109900098294,0,-0.7319747558794916,0,-0.509576300624758,0,-0.36307770386338234],[0,-0.09208752494305372,0,-0.13958895998075604,0,-0.739754097070545,0,-0.8134365458972752],[0,0.11240830598399043,0,0.4503474719822407,0,0.9839052734896541,0,-0.34588323114439845],[0,-0.41708880476653576,0,-0.8040121397934854,0,0.2849674466997385,0,0.9748382968828082],[0,0.4048138279467821,0,-0.3678075629286468,0,-0.6907346774823964,0,0.8446142678149045],[0,-0.7922902712598443,0,0.9128948617726564,0,0.4978067437186837,0,-0.5355012370273471],[0,0.25810922076925635,0,0.31973898643627763,0,0.431676774751395,0,0.7371958191506565],[0,-0.5145874982699752,0,0.31350826984271407,0,0.5956091401167214,0,0.106494365260005],[0,0.6595276184380054,0,-0.9821869595907629,0,-0.26504272129386663,0,0.2434704271145165],[0,-0.29992306185886264,0,0.44863381888717413,0,0.05880450224503875,0,-0.4271808178164065],[0,-0.854412340093404,0,-0.721293177921325,0,-0.7993516996502876,0,0.774983559269458],[0,0.06770140491425991,0,0.9634552849456668,0,0.2022407092154026,0,-0.17581486841663718],[0,0.717382475733757,0,0.7967559229582548,0,-0.9306845567189157,0,0.24598250119015574],[0,-0.47949228854849935,0,-0.28331967536360025,0,0.02568171266466379,0,0.22981374943628907],[0,-0.3238789038732648,0,-0.890409086830914,0,-0.9955605384893715,0,0.7742788293398917],[0,0.908311165869236,0,0.032739273738116026,0,-0.8089465913362801,0,0.7684664004482329],[0,0.6801161398179829,0,0.17227686056867242,0,-0.4225574699230492,0,-0.757311062887311],[0,-0.09730914840474725,0,-0.3043734347447753,0,0.7976083471439779,0,0.5379964411258698],[0,-0.597290548030287,0,-0.36142711248248816,0,-0.14302952960133553,0,-0.43500015512108803],[0,0.7497624475508928,0,0.24932130658999085,0,0.35440962482243776,0,-0.5012187953107059],[0,-0.8464919510297477,0,-0.590021594427526,0,0.34275674354285,0,0.24333726102486253],[0,-0.639843053650111,0,-0.8285461934283376,0,0.15294471429660916,0,0.1658330443315208],[0,-0.7908393936231732,0,-0.6486768643371761,0,0.8863223250955343,0,0.22087933123111725],[0,-0.032229344360530376,0,-0.9872601889073849,0,0.13605091301724315,0,-0.5364450602792203],[0,-0.10569857805967331,0,0.1252290247939527,0,-0.8614933793433011,0,0.8037457731552422],[0,-0.9725122875533998,0,-0.5658417567610741,0,-0.8719030255451798,0,0.03493007505312562],[0,-0.8758771787397563,0,0.2659209379926324,0,-0.3203391460701823,0,-0.47202362585812807],[0,-0.42340846033766866,0,0.0065378472208976746,0,-0.757236341945827,0,-0.8623624141328037],[0,0.10706054791808128,0,0.9877058956772089,0,0.24025833839550614,0,-0.31592270731925964],[0,-0.7355357008054852,0,0.23224355652928352,0,-0.06360677210614085,0,-0.8036291915923357],[0,0.6088385586626828,0,0.09301308542490005,0,-0.9323382815346122,0,-0.06316464021801949],[0,-0.20598379988223314,0,0.8027627724222839,0,0.3895787335932255,0,-0.6819855086505413],[0,0.8218818483874202,0,-0.37677181884646416,0,0.6406145500950515,0,-0.3009257819503546],[0,0.5752700045704842,0,0.6812709788791835,0,0.3331445213407278,0,0.5206334381364286],[0,-0.028409372083842754,0,-0.7795733083039522,0,0.6026211120188236,0,0.012540988624095917],[0,0.5489433137699962,0,0.07629333809018135,0,0.7147541996091604,0,-0.6241820924915373],[0,0.21260042814537883,0,0.2846418605186045,0,-0.8758379393257201,0,0.7538519729860127],[0,-0.4034549333155155,0,-0.6229865965433419,0,0.25486831832677126,0,0.2999732615426183],[0,-0.9248919151723385,0,0.6181541890837252,0,-0.04597614658996463,0,-0.702742216642946],[0,0.8941634246148169,0,-0.29110619984567165,0,-0.20971323363482952,0,-0.5485168159939349],[0,0.22400322370231152,0,0.1206956785172224,0,-0.9744003908708692,0,0.7607364626601338],[0,-0.26313070161268115,0,-0.4176077116280794,0,0.5754191465675831,0,0.9705025590956211],[0,-0.4212535503320396,0,-0.08948121778666973,0,-0.19814056297764182,0,-0.30736422957852483],[0,0.5383212529122829,0,-0.4924954962916672,0,-0.783825621008873,0,-0.015668143518269062],[0,0.6505505754612386,0,-0.6858576014637947,0,0.6309869145043194,0,0.2327670124359429],[0,-0.7602404993958771,0,0.6906463378109038,0,0.8797414265573025,0,-0.972870213445276],[0,-0.6787679926492274,0,-0.7262329696677625,0,-0.671093616168946,0,0.42745459359139204],[0,-0.9127670959569514,0,0.7369395396672189,0,-0.09588656947016716,0,0.0428999112918973],[0,-0.08930811891332269,0,0.3012515907175839,0,-0.6238248995505273,0,0.6497016795910895],[0,0.6940135080367327,0,0.7535362495109439,0,0.5971518773585558,0,-0.9125107629224658],[0,0.6877660914324224,0,-0.32682982506230474,0,-0.666814454831183,0,-0.7846747278235853],[0,-0.7025292436592281,0,-0.10541428346186876,0,0.9101049518212676,0,0.919328891672194],[0,0.6362814879976213,0,-0.7983765443786979,0,0.02231968194246292,0,-0.6974286427721381],[0,-0.4743734421208501,0,-0.16443614475429058,0,-0.6321919159963727,0,-0.9727823850698769],[0,0.24549631727859378,0,0.44697856111451983,0,-0.7385322614572942,0,0.21371482033282518],[0,-0.5567004554904997,0,-0.5497552962042391,0,0.42735740449279547,0,0.19347241381183267],[0,0.6538117546588182,0,-0.40161161310970783,0,0.2020592619664967,0,0.6553459884598851],[0,-0.4685351359657943,0,0.4446129514835775,0,-0.015877108555287123,0,-0.02578053856268525],[0,0.004495303612202406,0,-0.2876370861195028,0,0.5563461603596807,0,0.058673936408013105],[0,0.2570613715797663,0,0.13121769716963172,0,0.3991560502909124,0,0.23211299628019333],[0,0.022179722785949707,0,0.5229015215300024,0,0.12669340195134282,0,-0.8949830466881394],[0,0.3676398415118456,0,0.9200631002895534,0,-0.6891352622769773,0,-0.07743961224332452],[0,-0.559642743319273,0,0.7195688621141016,0,-0.41430765576660633,0,0.09956524008885026],[0,0.8160926341079175,0,-0.9484298238530755,0,-0.16020041145384312,0,-0.1360615026205778],[0,0.6254627541638911,0,0.1971250823698938,0,-0.09434493398293853,0,0.6112729022279382],[0,0.6237273965962231,0,-0.9622543407604098,0,0.5659533655270934,0,0.6931948810815811],[0,-0.6051892735995352,0,-0.657776849810034,0,0.013822510372847319,0,-0.847815987188369],[0,-0.28586220229044557,0,-0.22242249408736825,0,0.7262699785642326,0,-0.1954119959846139],[0,-0.30987460212782025,0,0.6725248638540506,0,0.4596546618267894,0,-0.7774622836150229],[0,-0.7835723948664963,0,-0.9368054121732712,0,-0.002989130560308695,0,0.03167914226651192],[0,-0.7200672752223909,0,0.22011470794677734,0,-0.14256899897009134,0,-0.4657352049835026],[0,0.22277287393808365,0,0.8619447615928948,0,0.0668261544778943,0,0.07065192703157663],[0,0.3002202627249062,0,-0.7939002607017756,0,-0.23657765705138445,0,0.9995527248829603],[0,0.23282018397003412,0,-0.5663111684843898,0,0.4024290610104799,0,0.8695258102379739],[0,-0.5623050564900041,0,0.18942126957699656,0,0.6290342500433326,0,-0.18853322276845574],[0,-0.726851727347821,0,0.17324878508225083,0,-0.13366192113608122,0,0.3543321187607944],[0,0.8344248458743095,0,0.40825431887060404,0,0.3283780268393457,0,0.7061615884304047],[0,0.46834908751770854,0,-0.3961430466733873,0,0.5269756210036576,0,0.17726438492536545],[0,0.4312908607535064,0,-0.8307775668799877,0,-0.6748878085054457,0,-0.2835227781906724],[0,-0.9082412305288017,0,0.09469511546194553,0,0.15168923418968916,0,0.6749891834333539],[0,0.7819619723595679,0,-0.2381784119643271,0,0.7200541477650404,0,-0.5658059525303543],[0,-0.260540705639869,0,0.8914993675425649,0,-0.8226026124320924,0,0.2971022152341902],[0,0.21644523553550243,0,0.10804734518751502,0,0.15733690233901143,0,-0.435353375505656],[0,-0.2764873383566737,0,0.39338776422664523,0,0.44421179592609406,0,-0.7461604713462293],[0,0.38281656382605433,0,0.9488969598896801,0,-0.8714183131232858,0,0.495034365914762],[0,0.9663580772466958,0,0.2738412106409669,0,-0.6306238863617182,0,0.14717205055058002],[0,0.8256023926660419,0,-0.9490910819731653,0,0.13187019480392337,0,0.05233483947813511],[0,0.008458289317786694,0,-0.51699726190418,0,0.6138536604121327,0,-0.23339434107765555],[0,0.55092778429389,0,0.951962907332927,0,-0.31443358957767487,0,-0.9335680357180536],[0,0.07490988727658987,0,-0.3744914596900344,0,0.2558991448022425,0,0.9109851554967463],[0,0.6342223794199526,0,0.6733497073873878,0,-0.08123481692746282,0,0.3931765537708998],[0,-0.3807548829354346,0,-0.9971832036972046,0,0.5245392839424312,0,0.0949200470931828],[0,-0.660523297265172,0,-0.8157853274606168,0,-0.9437490212731063,0,-0.31910323025658727],[0,0.5207513505592942,0,0.7173509076237679,0,0.01511806482449174,0,0.3992070993408561],[0,0.618031298276037,0,0.28029448771849275,0,0.19058978836983442,0,-0.41190089378505945],[0,0.14570839470252395,0,-0.5776060288771987,0,0.4667108724825084,0,-0.8669903548434377],[0,0.1041627861559391,0,-0.9660019194707274,0,-0.1696002772077918,0,-0.872243408113718],[0,-0.5462920279242098,0,0.18997044721618295,0,-0.910672849509865,0,-0.712203694973141],[0,-0.35720193246379495,0,-0.2436838410794735,0,0.6318205515854061,0,-0.3997908001765609],[0,0.26070306496694684,0,-0.9394932724535465,0,0.3305203262716532,0,0.6685971519909799],[0,-0.7407129220664501,0,-0.15392933879047632,0,-0.17862781742587686,0,-0.5943185021169484],[0,-0.796461408957839,0,-0.6313593029044569,0,0.18639200646430254,0,-0.5973996594548225],[0,-0.32011817023158073,0,0.02732720598578453,0,0.7507368298247457,0,0.6411462863907218],[0,0.05124710965901613,0,-0.6219126167707145,0,-0.2883279896341264,0,0.9499616292305291],[0,0.04094943543896079,0,0.3733979891985655,0,-0.4477302129380405,0,-0.2029621689580381],[0,-0.376121720764786,0,-0.8192581641487777,0,-0.7150856941007078,0,-0.5628869514912367],[0,0.45520235737785697,0,-0.25964513747021556,0,0.18438866268843412,0,-0.4620276731438935],[0,0.7651551249437034,0,-0.006647553760558367,0,0.33384849037975073,0,0.2698957063257694],[0,0.7899820171296597,0,-0.5744907837361097,0,0.36290822364389896,0,0.4345809663645923],[0,-0.2742605064995587,0,0.36833183001726866,0,0.8949011391960084,0,-0.1906514703296125],[0,0.590872089844197,0,-0.6088877590373158,0,-0.4405111772939563,0,-0.3143078377470374],[0,0.4905921691097319,0,0.12333249812945724,0,0.31243354408070445,0,0.0010763956233859062],[0,-0.7892508320510387,0,-0.11520531261339784,0,-0.6765778139233589,0,-0.47577369678765535],[0,-0.22869938565418124,0,-0.3415559297427535,0,0.5702713266946375,0,-0.9237523823976517],[0,-0.11578460223972797,0,-0.006400175858289003,0,0.828250446356833,0,-0.894847163464874],[0,0.18789225677028298,0,-0.64905418548733,0,-0.2778453463688493,0,0.49439933616667986],[0,-0.29991781897842884,0,0.6580250752158463,0,-0.8384939120151103,0,-0.3025094741024077],[0,-0.8349061831831932,0,-0.3495649006217718,0,-0.26008037524297833,0,0.8982020644471049],[0,0.696521123405546,0,-0.8924091663211584,0,-0.0734235281124711,0,-0.12209418369457126],[0,-0.7842103582806885,0,-0.8829139936715364,0,0.523898561950773,0,-0.002054869197309017],[0,-0.22572720935568213,0,0.16110271122306585,0,0.48056080657988787,0,0.5109951575286686],[0,-0.5310412095859647,0,-0.739875188563019,0,0.8469541468657553,0,0.7386875189840794],[0,0.3199962079524994,0,0.2816336154937744,0,-0.05293397884815931,0,0.1080759190954268],[0,-0.05712329223752022,0,0.0801834212616086,0,0.11227228911593556,0,-0.5069693783298135],[0,0.43592170672491193,0,-0.8167481874115765,0,-0.43455824721604586,0,0.09010577341541648],[0,-0.666292151901871,0,0.20579368621110916,0,0.05687240604311228,0,0.9792325925081968],[0,0.503098196350038,0,0.6196234971284866,0,-0.5536147644743323,0,0.6310530044138432],[0,-0.8939347988925874,0,0.7229059007950127,0,-0.050957666244357824,0,-0.5459954654797912],[0,-0.8892610976472497,0,-0.4245418761856854,0,0.8389422055333853,0,0.2565336972475052],[0,0.868831133004278,0,-0.7318029101006687,0,0.5956280878745019,0,-0.930178192909807],[0,-0.8877313192933798,0,-0.09169128304347396,0,-0.3394346325658262,0,0.3407772472128272],[0,-0.12147729936987162,0,0.3448993172496557,0,-0.5906365499831736,0,-0.011647920589894056],[0,0.31391312228515744,0,0.40342928003519773,0,0.21435871114954352,0,0.7753150728531182],[0,0.6238423376344144,0,-0.5464632324874401,0,-0.4599828845821321,0,0.06320097343996167],[0,-0.6580456788651645,0,0.6237434344366193,0,0.9627184178680182,0,-0.8868963466957211],[0,-0.22856478486210108,0,0.19262956036254764,0,-0.027858655899763107,0,-0.275646501686424],[0,-0.7153809838928282,0,-0.17547283181920648,0,-0.4284003986977041,0,-0.06208808207884431],[0,0.009890135377645493,0,0.12700858106836677,0,-0.34628183068707585,0,0.7916945950128138],[0,-0.49389115208759904,0,0.053202735260128975,0,-0.8788663446903229,0,-0.9360548509284854],[0,0.05103079974651337,0,0.7078079809434712,0,0.5039369221776724,0,0.4369246163405478],[0,-0.9690360315144062,0,0.15837377356365323,0,0.2243474004790187,0,0.17311730328947306],[0,0.5068151508457959,0,-0.7356551713310182,0,-0.04771347949281335,0,0.01859565544873476],[0,0.03653243696317077,0,-0.4663090333342552,0,0.8409489183686674,0,-0.06573312683030963],[0,-0.2751187803223729,0,-0.6882593450136483,0,-0.9841974866576493,0,0.972570389509201],[0,-0.23905472829937935,0,-0.0955805080011487,0,-0.513370506465435,0,0.5265909978188574],[0,0.5680488557554781,0,-0.41402746830135584,0,0.797271141782403,0,0.6520100310444832],[0,0.7261033765971661,0,0.5149111375212669,0,-0.19892205530777574,0,-0.7771204183809459],[0,-0.6936574555002153,0,-0.10666850861161947,0,0.32784578669816256,0,-0.22044196631759405],[0,-0.7161564687266946,0,0.9228959954343736,0,0.4516628636047244,0,-0.6718832612968981],[0,-0.8581928568892181,0,0.11038036458194256,0,-0.6457853983156383,0,-0.7705505690537393],[0,-0.3663613419048488,0,0.5850379006005824,0,0.9226784748025239,0,0.910928113386035],[0,-0.7134018498472869,0,0.729500939603895,0,-0.10640468262135983,0,0.7676878534257412],[0,0.9830705253407359,0,-0.19859697576612234,0,0.9299957943148911,0,0.38847693987190723],[0,0.4416317166760564,0,0.6888757040724158,0,-0.5710361511446536,0,0.23353064293041825],[0,-0.31776898447424173,0,-0.05689594754949212,0,-0.6015337617136538,0,-0.7856120597571135],[0,-0.5289763202890754,0,0.12155378656461835,0,-0.873133332002908,0,0.33895910903811455],[0,-0.007945399265736341,0,0.37559029646217823,0,0.5739474962465465,0,0.1457505295984447],[0,0.9519422487355769,0,-0.7544587119482458,0,0.7048531263135374,0,0.18757265899330378],[0,0.965823769569397,0,-0.12844416964799166,0,0.35136538837105036,0,-0.3712568464688957],[0,0.41956974705681205,0,0.32189116859808564,0,-0.3485002391971648,0,-0.0017137094400823116],[0,-0.8013110226020217,0,-0.9927110304124653,0,-0.6425971053540707,0,0.08082675328478217],[0,0.7749334764666855,0,-0.3839084622450173,0,0.4168557235971093,0,0.13007913948968053],[0,0.2772672139108181,0,0.01097931619733572,0,0.8546041282825172,0,0.1723366971127689],[0,-0.1433108844794333,0,-0.280864542350173,0,-0.8505774270743132,0,0.46785724023357034],[0,0.9445064361207187,0,-0.7307143961079419,0,-0.8896915055811405,0,-0.8407155936583877],[0,-0.4182465220801532,0,0.8432459463365376,0,-0.2286948007531464,0,-0.6708379886113107],[0,0.1909182439558208,0,0.06291008461266756,0,-0.47134144278243184,0,0.6488188090734184],[0,0.5647791111841798,0,0.6970097091980278,0,-0.06299795489758253,0,0.6183495768345892],[0,0.42492534732446074,0,-0.5592034892179072,0,-0.21801604190841317,0,0.6724314694292843],[0,-0.6299758343957365,0,0.2959537636488676,0,0.05533277289941907,0,-0.7385658929124475],[0,0.15276747616007924,0,-0.4579824460670352,0,0.08702547615393996,0,0.7259585144929588],[0,0.8720733318477869,0,0.23092435440048575,0,-0.4307307726703584,0,-0.6088672508485615],[0,0.11119805043563247,0,-0.774468214251101,0,0.04759803507477045,0,-0.679582042619586],[0,0.9200586383230984,0,0.2735108924098313,0,0.895374542567879,0,-0.4100764151662588],[0,0.21922854706645012,0,-0.08842243580147624,0,-0.03545934520661831,0,-0.6507006511092186],[0,-0.7318227454088628,0,-0.10691061103716493,0,-0.5621334705501795,0,0.5659743542782962],[0,-0.35888074710965157,0,-0.5580208003520966,0,0.8934498559683561,0,-0.24010469717904925],[0,0.2252595778554678,0,-0.04505476076155901,0,0.5230891560204327,0,-0.546146594453603],[0,0.9490689099766314,0,0.960776511579752,0,0.07207274297252297,0,0.6194593100808561],[0,0.8167816624045372,0,0.4406109834089875,0,-0.15175085421651602,0,0.1619826229289174],[0,0.9517987137660384,0,0.928326599765569,0,0.5962557508610189,0,0.6856705681420863],[0,-0.196232657879591,0,0.34350982774049044,0,-0.8692286317236722,0,0.6163022904656827],[0,0.0013676667585968971,0,0.3142344471998513,0,0.122992186807096,0,0.595597602892667],[0,0.05336020700633526,0,-0.20514900237321854,0,0.1705832709558308,0,-0.9218204347416759],[0,-0.677219090051949,0,0.2857540431432426,0,-0.6303837089799345,0,0.05398861598223448],[0,0.8848186838440597,0,-0.023271461948752403,0,0.12213295884430408,0,-0.13676324067637324],[0,0.9023342574946582,0,0.5710136122070253,0,-0.4962280015461147,0,0.2163399551063776],[0,0.026205750182271004,0,-0.33845645375549793,0,-0.618089403025806,0,-0.5515777198597789],[0,0.6243136832490563,0,0.7512821820564568,0,0.8934822846204042,0,-0.8992298282682896],[0,-0.5133833135478199,0,-0.2551317592151463,0,-0.7173685473389924,0,-0.8350417171604931],[0,-0.7870197547599673,0,0.917647008318454,0,0.5164813697338104,0,-0.7296524080447853],[0,0.09040097240358591,0,-0.8450241177342832,0,-0.07624273095279932,0,0.260399111546576],[0,-0.6133018592372537,0,-0.5068368348293006,0,0.27658133627846837,0,-0.9925299733877182],[0,-0.4385954234749079,0,0.29226861195638776,0,0.4939984097145498,0,-0.22683994937688112],[0,-0.47297682659700513,0,0.7338626510463655,0,0.8678365354426205,0,-0.5828304723836482],[0,0.4737506383098662,0,-0.5182749568484724,0,-0.35060880705714226,0,-0.016618655528873205],[0,0.9266105638816953,0,-0.06560868257656693,0,0.5370080131106079,0,0.4325608741492033],[0,-0.1457556514069438,0,0.7616997938603163,0,-0.4662282271310687,0,0.8554346729069948],[0,-0.34658907167613506,0,-0.024002298712730408,0,0.7223323578946292,0,0.34159397380426526],[0,-0.5813503512181342,0,0.34888901747763157,0,0.47242538211867213,0,0.08970114821568131],[0,0.3854125514626503,0,0.7214515884406865,0,0.2839324879460037,0,0.7189394943416119],[0,-0.7743738926947117,0,0.6352615663781762,0,-0.000018030870705842972,0,-0.8322817580774426],[0,-0.5863696681335568,0,-0.8267551749013364,0,-0.791538676712662,0,0.666856533382088],[0,-0.8394833067432046,0,-0.9811601713299751,0,-0.6989409630186856,0,-0.4972065035253763],[0,-0.3094905223697424,0,-0.7198952264152467,0,-0.7168320505879819,0,-0.9270809362642467],[0,-0.5612442954443395,0,-0.09677639370784163,0,-0.2120716185308993,0,0.23975133476778865],[0,0.7060443167574704,0,0.21306971460580826,0,0.32311749970540404,0,-0.8454842665232718],[0,-0.6548024169169366,0,-0.5189355001784861,0,-0.3759248899295926,0,-0.02787152398377657],[0,0.3111308519728482,0,0.9559501404874027,0,0.6704967496916652,0,0.5655024955049157],[0,0.3654611352831125,0,-0.12635955307632685,0,0.2433317294344306,0,-0.7705794824287295],[0,-0.4884242764674127,0,-0.42394881043583155,0,0.8489486281760037,0,-0.8349277595989406],[0,0.7167026484385133,0,0.20540971448644996,0,0.6353808334097266,0,0.22493108687922359],[0,-0.9109673453494906,0,0.7451594416052103,0,0.7483361270278692,0,0.9748775637708604],[0,0.812834114767611,0,0.7425373862497509,0,0.8530356748960912,0,0.26334299612790346],[0,0.9010841427370906,0,-0.7385700424201787,0,0.24920882564038038,0,-0.8488759859465063],[0,-0.295572436414659,0,0.44538352359086275,0,-0.4446840058080852,0,0.605913098435849],[0,0.331809229683131,0,-0.6427893191576004,0,-0.8957939213141799,0,0.769437056966126],[0,0.36122998502105474,0,-0.32779532205313444,0,-0.6508685788139701,0,-0.43810696713626385],[0,-0.41127946600317955,0,0.7050675572827458,0,-0.8373594046570361,0,-0.07467848993837833],[0,0.7026584483683109,0,0.6446917513385415,0,0.027882232796400785,0,0.6392544945701957],[0,-0.25810449151322246,0,0.6756856483407319,0,-0.6940793651156127,0,0.07311712298542261],[0,0.9304148824885488,0,0.9683307795785367,0,0.6422888762317598,0,0.6054085083305836],[0,0.17907691793516278,0,-0.924416895955801,0,0.9492282392457128,0,0.20126772858202457],[0,0.7207032809965312,0,-0.7326590940356255,0,0.10369746712967753,0,-0.8749847169965506],[0,0.038668579421937466,0,0.459238238632679,0,-0.3429563823156059,0,-0.8897300101816654],[0,0.29149904614314437,0,-0.40948458667844534,0,-0.7479657004587352,0,-0.47766110207885504],[0,0.7107804263941944,0,-0.29694353230297565,0,-0.9109635874629021,0,0.1814473862759769],[0,0.3799206274561584,0,-0.6054144008085132,0,-0.04269723780453205,0,-0.6302040037699044],[0,0.19296871591359377,0,0.8307360177859664,0,-0.2755861976183951,0,0.2210954953916371],[0,0.6625836924649775,0,0.8145294706337154,0,-0.2556491307914257,0,-0.38478800654411316],[0,0.32768996618688107,0,-0.3408671682700515,0,-0.4487823713570833,0,0.3589991428889334],[0,0.34549411851912737,0,0.5568271693773568,0,-0.8424154701642692,0,-0.8249192857183516],[0,-0.149408966768533,0,0.8874105359427631,0,0.15664340695366263,0,-0.5773970270529389],[0,-0.4632589868269861,0,-0.17139523755759,0,-0.7968851896002889,0,-0.1810387303121388],[0,-0.50067672226578,0,-0.07343188300728798,0,-0.8976056068204343,0,-0.6699915258213878],[0,-0.38146151788532734,0,-0.25894809048622847,0,0.21942168287932873,0,0.46306500351056457],[0,-0.44717133417725563,0,0.3261021296493709,0,-0.2407091506756842,0,0.30819782614707947],[0,0.33827264979481697,0,-0.643864510115236,0,0.7518999557942152,0,0.9476288175210357],[0,0.9738233666867018,0,-0.9762989301234484,0,-0.9697302924469113,0,-0.08564396109431982],[0,-0.6450332701206207,0,-0.696386827621609,0,0.9965748316608369,0,0.4310666657984257],[0,-0.3665093705058098,0,-0.2863818327896297,0,0.15301965223625302,0,-0.8465291857719421],[0,-0.2199344551190734,0,-0.5394709203392267,0,-0.9938467843458056,0,-0.31784570729359984],[0,-0.49024591967463493,0,-0.453632899094373,0,0.2572710635140538,0,0.8678155355155468],[0,-0.9945605536922812,0,-0.6119584240950644,0,-0.041378370486199856,0,-0.0956313256174326],[0,-0.3188622146844864,0,0.6125683803111315,0,-0.01764806965366006,0,-0.04365098476409912],[0,0.5253133000805974,0,-0.4433687934651971,0,0.886012006085366,0,0.6104256017133594],[0,0.6770386015996337,0,-0.7518933233805001,0,-0.11120765097439289,0,0.10689596552401781],[0,0.735959239769727,0,0.3436926514841616,0,-0.3786355424672365,0,-0.5333106899634004],[0,-0.6721193939447403,0,-0.7575519541278481,0,-0.7674726597033441,0,-0.026912692934274673],[0,-0.4197918586432934,0,0.9571930221281946,0,0.16682995716109872,0,-0.443125456571579],[0,0.22303665056824684,0,-0.3916652067564428,0,0.6204220224171877,0,0.11401983816176653],[0,0.3142278050072491,0,0.43317732447758317,0,-0.6366872829385102,0,0.6619953406043351],[0,0.9559210133738816,0,-0.5344794457778335,0,-0.605931633617729,0,-0.941277471370995],[0,-0.3941411031410098,0,0.5204399707727134,0,-0.7405526745133102,0,0.035310812294483185],[0,-0.14744648151099682,0,-0.2985016657039523,0,-0.4267727006226778,0,-0.6804147721268237],[0,0.7554795471951365,0,-0.23606410203501582,0,-0.8095779167488217,0,0.8435192261822522],[0,-0.3431566054932773,0,0.42913813795894384,0,-0.15068580256775022,0,-0.6023752149194479],[0,0.8288017380982637,0,0.23139890329912305,0,0.6189852030947804,0,-0.06109941005706787],[0,-0.968615556601435,0,0.4324683351442218,0,0.5979381832294166,0,-0.5032022292725742],[0,0.2772820694372058,0,0.6708628702908754,0,0.9286119118332863,0,0.09437158377841115],[0,-0.7731739967130125,0,-0.9541235016658902,0,0.2319063451141119,0,-0.3981166142039001],[0,-0.7619675141759217,0,-0.434800386428833,0,0.2018776573240757,0,-0.5604674406349659],[0,0.15921935439109802,0,0.558333148714155,0,-0.26667442498728633,0,-0.8823017054237425],[0,0.9364316780120134,0,0.41911510471254587,0,-0.7023547934368253,0,-0.9815461267717183],[0,0.18106043292209506,0,0.6925908289849758,0,0.6922374041751027,0,0.9795085988007486],[0,-0.9068397027440369,0,-0.7859801040031016,0,-0.2818193631246686,0,-0.7350745615549386],[0,0.6065078903920949,0,-0.12973187724128366,0,-0.006574647501111031,0,0.8725707200355828],[0,-0.3539560050703585,0,-0.272976275999099,0,0.12735389778390527,0,-0.9880391736514866],[0,-0.3182553155347705,0,-0.1562759387306869,0,0.024431759491562843,0,0.6563984570093453],[0,-0.44281229423359036,0,-0.3427672986872494,0,0.6228390713222325,0,0.8787759514525533],[0,0.2787571167573333,0,0.24152805050835013,0,0.16233199601992965,0,-0.337981934659183],[0,0.34221608377993107,0,-0.0511095579713583,0,-0.743215149268508,0,-0.6393463932909071],[0,0.09746514307335019,0,-0.46967726154252887,0,-0.20452891336753964,0,-0.1252583866007626],[0,-0.25845482386648655,0,-0.22914317017421126,0,0.6572705898433924,0,-0.7599308015778661],[0,0.5248289071023464,0,0.01638096058741212,0,0.23323042504489422,0,-0.8458064356818795],[0,0.30126895662397146,0,-0.9741288856603205,0,-0.8671743217855692,0,-0.9464346463792026],[0,-0.570032152812928,0,0.8769851000979543,0,-0.5367804868146777,0,0.106186518445611],[0,-0.3479116787202656,0,-0.024230913259088993,0,0.21248694090172648,0,-0.9422452803701162],[0,-0.010688994079828262,0,-0.3576600272208452,0,0.005406619980931282,0,0.2098722429946065],[0,0.6900779660791159,0,-0.32975625386461616,0,0.4966165772639215,0,-0.7695966647006571],[0,-0.4336817441508174,0,0.1356560937128961,0,-0.7950843330472708,0,0.8057980728335679],[0,0.7353818789124489,0,-0.1961498837918043,0,-0.6667241458781064,0,0.1795040424913168],[0,-0.9144488670863211,0,-0.002799865324050188,0,0.9655820135958493,0,0.054373049177229404],[0,0.16106631141155958,0,0.18861701572313905,0,0.6107447361573577,0,0.6649436899460852],[0,0.5591057506389916,0,-0.04501599492505193,0,-0.9655953953042626,0,0.34109401516616344],[0,-0.30141259357333183,0,-0.7094834162853658,0,-0.9749045977368951,0,0.630987640004605],[0,-0.40550331957638264,0,-0.904344021808356,0,-0.6998452809639275,0,-0.7869321056641638],[0,-0.8140669385902584,0,0.8551472499966621,0,-0.43824244989082217,0,0.24453290132805705],[0,-0.503407078795135,0,-0.561331385280937,0,0.7666106061078608,0,-0.38252735370770097],[0,-0.3519076416268945,0,-0.9334426331333816,0,-0.8202395420521498,0,-0.8546854271553457],[0,-0.4073326485231519,0,-0.9169050008058548,0,0.6641580951400101,0,0.658444894477725],[0,-0.6231781463138759,0,-0.7948216428048909,0,0.4977018563076854,0,0.060667429119348526],[0,-0.536432646214962,0,-0.3143422193825245,0,-0.37269790517166257,0,-0.8602378913201392],[0,0.2255674283951521,0,-0.22321491641923785,0,0.6970564723014832,0,0.2749182777479291],[0,-0.7697615399956703,0,0.5769027573987842,0,0.3846242153085768,0,-0.8050529095344245],[0,-0.4515415821224451,0,-0.09807962877675891,0,-0.43914199993014336,0,0.6433804575353861],[0,0.0094320815987885,0,0.9349794262088835,0,-0.6569324247539043,0,0.8026700457558036],[0,-0.9908334580250084,0,-0.5971701159141958,0,-0.46594262262806296,0,0.47128664422780275],[0,0.4841987071558833,0,0.21227004891261458,0,-0.7039601281285286,0,-0.8733301451429725],[0,0.7628739117644727,0,0.0550640313886106,0,-0.18493111385032535,0,-0.24799326388165355],[0,-0.1361300009302795,0,0.0915567297488451,0,0.9292542254552245,0,0.6193529395386577],[0,-0.8959718779660761,0,0.9390992484986782,0,0.7912944327108562,0,0.6150724017061293],[0,-0.8656772328540683,0,-0.293822658713907,0,0.9718385166488588,0,0.0122023094445467],[0,-0.7851592595688999,0,-0.9690996259450912,0,-0.7400162238627672,0,0.9123467137105763],[0,-0.1310688997618854,0,-0.876009261701256,0,0.12852597422897816,0,-0.5232709147967398],[0,-0.3675600476562977,0,-0.20950117986649275,0,-0.10870234854519367,0,-0.8994851559400558],[0,0.3277147663757205,0,-0.9509037183597684,0,-0.489919435698539,0,0.7586041907779872],[0,0.3701346735469997,0,0.8294131187722087,0,-0.7627527117729187,0,-0.451885140966624],[0,0.6643350007943809,0,-0.28430909011512995,0,0.36036442313343287,0,-0.2356604216620326],[0,-0.5067920065484941,0,-0.03637155005708337,0,-0.8908106544986367,0,0.16218095691874623],[0,-0.18730569165199995,0,0.4248844916000962,0,0.8462735381908715,0,0.6558498200029135],[0,-0.6695900382474065,0,0.5558046298101544,0,-0.7825291063636541,0,-0.023352404590696096],[0,0.12372362893074751,0,0.5819856058806181,0,-0.9842927474528551,0,0.5385710103437304],[0,0.19819574616849422,0,-0.8797312350943685,0,-0.23094759928062558,0,-0.27784594986587763],[0,0.47156583797186613,0,0.021947769913822412,0,-0.3380590653978288,0,-0.2545762057416141],[0,-0.3519547092728317,0,-0.7583957510069013,0,-0.898281101603061,0,0.8707051686942577],[0,0.49626568891108036,0,0.03679695259779692,0,-0.4778088787570596,0,0.32897312799468637],[0,0.16969080129638314,0,-0.05993849225342274,0,-0.5091715226881206,0,-0.041537465527653694],[0,0.8659954643808305,0,-0.11844919249415398,0,-0.9986495901830494,0,0.5276557342149317],[0,0.556354645639658,0,0.61301952553913,0,-0.2936650482006371,0,0.8694762322120368],[0,-0.8958154967986047,0,0.49403265537694097,0,0.36961226211860776,0,0.9967625625431538],[0,0.07415132597088814,0,-0.33516254648566246,0,0.039536500815302134,0,-0.05497183883562684],[0,0.7692435025237501,0,0.9709669849835336,0,0.8339179935865104,0,-0.20277354680001736],[0,-0.11525911837816238,0,0.2322860499843955,0,-0.1695813979022205,0,0.5770703260786831],[0,0.5950252888724208,0,-0.2758733103983104,0,-0.4451572382822633,0,-0.6568997143767774],[0,-0.46682526636868715,0,0.14341250993311405,0,-0.4647641759365797,0,0.4260356780141592],[0,-0.22814548015594482,0,-0.7495124721899629,0,0.9934886917471886,0,-0.4638424846343696],[0,-0.3286802130751312,0,0.9473327258601785,0,-0.6251288778148592,0,-0.8701934064738452],[0,0.9679057504981756,0,0.19379168236628175,0,0.7992571066133678,0,-0.6525105466134846],[0,-0.7944158180616796,0,0.15710188960656524,0,-0.311669843737036,0,-0.6879944074898958],[0,0.4909731796942651,0,0.5714971097186208,0,-0.8521243100985885,0,-0.43162232264876366],[0,0.03272082470357418,0,-0.2978421738371253,0,0.031090959440916777,0,0.04471410484984517],[0,0.9866858506575227,0,-0.3189937910065055,0,0.26547626312822104,0,0.7732551973313093],[0,0.16047590179368854,0,-0.4851323803886771,0,0.3404165441170335,0,-0.2479923046194017],[0,0.6162057626061141,0,0.6410579262301326,0,0.38900313386693597,0,-0.8559544961899519],[0,0.36924604373052716,0,0.0680267121642828,0,0.9844731232151389,0,-0.2755039162002504],[0,-0.6689858469180763,0,-0.969158343039453,0,-0.5199200287461281,0,-0.029406138695776463],[0,0.6674077436327934,0,0.5742202093824744,0,-0.1482197493314743,0,0.6076281946152449],[0,-0.03018582472577691,0,-0.9594260081648827,0,-0.5916793970391154,0,0.058802505023777485],[0,0.8646109937690198,0,-0.43939821887761354,0,-0.10702940495684743,0,0.7311573289334774],[0,-0.2425876585766673,0,0.2652359055355191,0,0.6121487952768803,0,-0.8253515297546983],[0,0.49742027604952455,0,0.19694903679192066,0,-0.03362946258857846,0,0.7483266140334308],[0,0.012389149516820908,0,0.637751413974911,0,-0.3324477761052549,0,0.38491574162617326],[0,0.09967495547607541,0,0.43305113911628723,0,0.3758525806479156,0,-0.8418888999149203],[0,-0.28008279111236334,0,0.8959007556550205,0,-0.6661589713767171,0,0.661057276185602],[0,0.12714279349893332,0,0.9505386985838413,0,-0.8297125170938671,0,0.24223293596878648],[0,-0.017968925181776285,0,0.834262405987829,0,-0.20498859649524093,0,-0.40526424488052726],[0,-0.11860853200778365,0,0.8345066490583122,0,-0.9353976366110146,0,-0.9240753059275448],[0,0.2149804411455989,0,-0.023721681907773018,0,-0.011062541976571083,0,-0.6055639167316258],[0,0.5023934198543429,0,0.9336400874890387,0,0.8046030979603529,0,-0.391402087174356],[0,-0.3380703120492399,0,-0.36979719204828143,0,-0.7267106054350734,0,-0.901383591350168],[0,-0.2793440059758723,0,0.2628490496426821,0,-0.009888880420476198,0,-0.9168684603646398]],"vb_b":[[0,0,0,1,0,0,0,0],[0,0,0,1,0,0,0,0],[0,0,0,1,0,0,0,0],[0,0,0,1,0,0,0,0],[0,0,0,1,0,0,0,0],[0,0,0,1,0,0,0,0],[0,0,0,1,0,0,0,0],[0,0,0,1,0,0,0,0],[0,0,0,1,0,0,0,0],[0,0,0,1,0,0,0,0],[0,0,0,1,0,0,0,0],[0,0,0,1,0,0,0,0],[0,0,0,1,0,0,0,0],[0,0,0,1,0,0,0,0],[0,0,0,1,0,0,0,0],[0,0,0,1,0,0,0,0],[0,0,0,1,0,0,0,0],[0,0,0,1,0,0,0,0],[0,0,0,1,0,0,0,0],[0,0,0,1,0,0,0,0],[0,0,0,1,0,0,0,0],[0,0,0,1,0,0,0,0],[0,0,0,1,0,0,0,0],[0,0,0,1,0,0,0,0],[0,0,0,1,0,0,0,0],[0,0,0,1,0,0,0,0],[0,0,0,1,0,0,0,0],[0,0,0,1,0,0,0,0],[0,0,0,1,0,0,0,0],[0,0,0,1,0,0,0,0],[0,0,0,1,0,0,0,0],[0,0,0,1,0,0,0,0],[0,0,0,1,0,0,0,0],[0,0,0,1,0,0,0,0],[0,0,0,1,0,0,0,0],[0,0,0,1,0,0,0,0],[0,0,0,1,0,0,0,0],[0,0,0,1,0,0,0,0],[0,0,0,1,0,0,0,0],[0,0,0,1,0,0,0,0],[0,0,0,1,0,0,0,0],[0,0,0,1,0,0,0,0],[0,0,0,1,0,0,0,0],[0,0,0,1,0,0,0,0],[0,0,0,1,0,0,0,0],[0,0,0,1,0,0,0,0],[0,0,0,1,0,0,0,0],[0,0,0,1,0,0,0,0],[0,0,0,1,0,0,0,0],[0,0,0,1,0,0,0,0],[0,0,0,1,0,0,0,0],[0,0,0,1,0,0,0,0],[0,0,0,1,0,0,0,0],[0,0,0,1,0,0,0,0],[0,0,0,1,0,0,0,0],[0,0,0,1,0,0,0,0],[0,0,0,1,0,0,0,0],[0,0,0,1,0,0,0,0],[0,0,0,1,0,0,0,0],[0,0,0,1,0,0,0,0],[0,0,0,1,0,0,0,0],[0,0,0,1,0,0,0,0],[0,0,0,1,0,0,