parameters : {"minimum_performance":-1,"block_timeout":5000,"response_timeout":1000,"task_kappa":0,"task_stimuli":1,"task_component":1,"task_feature":1,"task_sign":1,"task_weights":[0,0,0,0,0,0,0,1]}
edata : {"exp_subject":"dsdqaJ8VawLI","exp_sex":"male","exp_age":"21-30","exp_task":"jan/131004_primate1","exp_starttime":1381408910191,"exp_finishtime":1381411181760}
numbers : {"stimuli":2,"components":2,"features":2,"weights":8,"blocks":40,"trials":25,"indices":1000}
sdata : {"vb_index":[1,2,3,4,5,6,7,8,9,10,11,12,13,14,15,16,17,18,19,20,21,22,23,24,25,26,27,28,29,30,31,32,33,34,35,36,37,38,39,40,41,42,43,44,45,46,47,48,49,50,51,52,53,54,55,56,57,58,59,60,61,62,63,64,65,66,67,68,69,70,71,72,73,74,75,76,77,78,79,80,81,82,83,84,85,86,87,88,89,90,91,92,93,94,95,96,97,98,99,100,101,102,103,104,105,106,107,108,109,110,111,112,113,114,115,116,117,118,119,120,121,122,123,124,125,126,127,128,129,130,131,132,133,134,135,136,137,138,139,140,141,142,143,144,145,146,147,148,149,150,151,152,153,154,155,156,157,158,159,160,161,162,163,164,165,166,167,168,169,170,171,172,173,174,175,176,177,178,179,180,181,182,183,184,185,186,187,188,189,190,191,192,193,194,195,196,197,198,199,200,201,202,203,204,205,206,207,208,209,210,211,212,213,214,215,216,217,218,219,220,221,222,223,224,225,226,227,228,229,230,231,232,233,234,235,236,237,238,239,240,241,242,243,244,245,246,247,248,249,250,251,252,253,254,255,256,257,258,259,260,261,262,263,264,265,266,267,268,269,270,271,272,273,274,275,276,277,278,279,280,281,282,283,284,285,286,287,288,289,290,291,292,293,294,295,296,297,298,299,300,301,302,303,304,305,306,307,308,309,310,311,312,313,314,315,316,317,318,319,320,321,322,323,324,325,326,327,328,329,330,331,332,333,334,335,336,337,338,339,340,341,342,343,344,345,346,347,348,349,350,351,352,353,354,355,356,357,358,359,360,361,362,363,364,365,366,367,368,369,370,371,372,373,374,375,376,377,378,379,380,381,382,383,384,385,386,387,388,389,390,391,392,393,394,395,396,397,398,399,400,401,402,403,404,405,406,407,408,409,410,411,412,413,414,415,416,417,418,419,420,421,422,423,424,425,426,427,428,429,430,431,432,433,434,435,436,437,438,439,440,441,442,443,444,445,446,447,448,449,450,451,452,453,454,455,456,457,458,459,460,461,462,463,464,465,466,467,468,469,470,471,472,473,474,475,476,477,478,479,480,481,482,483,484,485,486,487,488,489,490,491,492,493,494,495,496,497,498,499,500,501,502,503,504,505,506,507,508,509,510,511,512,513,514,515,516,517,518,519,520,521,522,523,524,525,526,527,528,529,530,531,532,533,534,535,536,537,538,539,540,541,542,543,544,545,546,547,548,549,550,551,552,553,554,555,556,557,558,559,560,561,562,563,564,565,566,567,568,569,570,571,572,573,574,575,576,577,578,579,580,581,582,583,584,585,586,587,588,589,590,591,592,593,594,595,596,597,598,599,600,601,602,603,604,605,606,607,608,609,610,611,612,613,614,615,616,617,618,619,620,621,622,623,624,625,626,627,628,629,630,631,632,633,634,635,636,637,638,639,640,641,642,643,644,645,646,647,648,649,650,651,652,653,654,655,656,657,658,659,660,661,662,663,664,665,666,667,668,669,670,671,672,673,674,675,676,677,678,679,680,681,682,683,684,685,686,687,688,689,690,691,692,693,694,695,696,697,698,699,700,701,702,703,704,705,706,707,708,709,710,711,712,713,714,715,716,717,718,719,720,721,722,723,724,725,726,727,728,729,730,731,732,733,734,735,736,737,738,739,740,741,742,743,744,745,746,747,748,749,750,751,752,753,754,755,756,757,758,759,760,761,762,763,764,765,766,767,768,769,770,771,772,773,774,775,776,777,778,779,780,781,782,783,784,785,786,787,788,789,790,791,792,793,794,795,796,797,798,799,800,801,802,803,804,805,806,807,808,809,810,811,812,813,814,815,816,817,818,819,820,821,822,823,824,825,826,827,828,829,830,831,832,833,834,835,836,837,838,839,840,841,842,843,844,845,846,847,848,849,850,851,852,853,854,855,856,857,858,859,860,861,862,863,864,865,866,867,868,869,870,871,872,873,874,875,876,877,878,879,880,881,882,883,884,885,886,887,888,889,890,891,892,893,894,895,896,897,898,899,900,901,902,903,904,905,906,907,908,909,910,911,912,913,914,915,916,917,918,919,920,921,922,923,924,925,926,927,928,929,930,931,932,933,934,935,936,937,938,939,940,941,942,943,944,945,946,947,948,949,950,951,952,953,954,955,956,957,958,959,960,961,962,963,964,965,966,967,968,969,970,971,972,973,974,975,976,977,978,979,980,981,982,983,984,985,986,987,988,989,990,991,992,993,994,995,996,997,998,999,1000],"vb_block":[1,1,1,1,1,1,1,1,1,1,1,1,1,1,1,1,1,1,1,1,1,1,1,1,1,2,2,2,2,2,2,2,2,2,2,2,2,2,2,2,2,2,2,2,2,2,2,2,2,2,3,3,3,3,3,3,3,3,3,3,3,3,3,3,3,3,3,3,3,3,3,3,3,3,3,4,4,4,4,4,4,4,4,4,4,4,4,4,4,4,4,4,4,4,4,4,4,4,4,4,5,5,5,5,5,5,5,5,5,5,5,5,5,5,5,5,5,5,5,5,5,5,5,5,5,6,6,6,6,6,6,6,6,6,6,6,6,6,6,6,6,6,6,6,6,6,6,6,6,6,7,7,7,7,7,7,7,7,7,7,7,7,7,7,7,7,7,7,7,7,7,7,7,7,7,8,8,8,8,8,8,8,8,8,8,8,8,8,8,8,8,8,8,8,8,8,8,8,8,8,9,9,9,9,9,9,9,9,9,9,9,9,9,9,9,9,9,9,9,9,9,9,9,9,9,10,10,10,10,10,10,10,10,10,10,10,10,10,10,10,10,10,10,10,10,10,10,10,10,10,11,11,11,11,11,11,11,11,11,11,11,11,11,11,11,11,11,11,11,11,11,11,11,11,11,12,12,12,12,12,12,12,12,12,12,12,12,12,12,12,12,12,12,12,12,12,12,12,12,12,13,13,13,13,13,13,13,13,13,13,13,13,13,13,13,13,13,13,13,13,13,13,13,13,13,14,14,14,14,14,14,14,14,14,14,14,14,14,14,14,14,14,14,14,14,14,14,14,14,14,15,15,15,15,15,15,15,15,15,15,15,15,15,15,15,15,15,15,15,15,15,15,15,15,15,16,16,16,16,16,16,16,16,16,16,16,16,16,16,16,16,16,16,16,16,16,16,16,16,16,17,17,17,17,17,17,17,17,17,17,17,17,17,17,17,17,17,17,17,17,17,17,17,17,17,18,18,18,18,18,18,18,18,18,18,18,18,18,18,18,18,18,18,18,18,18,18,18,18,18,19,19,19,19,19,19,19,19,19,19,19,19,19,19,19,19,19,19,19,19,19,19,19,19,19,20,20,20,20,20,20,20,20,20,20,20,20,20,20,20,20,20,20,20,20,20,20,20,20,20,21,21,21,21,21,21,21,21,21,21,21,21,21,21,21,21,21,21,21,21,21,21,21,21,21,22,22,22,22,22,22,22,22,22,22,22,22,22,22,22,22,22,22,22,22,22,22,22,22,22,23,23,23,23,23,23,23,23,23,23,23,23,23,23,23,23,23,23,23,23,23,23,23,23,23,24,24,24,24,24,24,24,24,24,24,24,24,24,24,24,24,24,24,24,24,24,24,24,24,24,25,25,25,25,25,25,25,25,25,25,25,25,25,25,25,25,25,25,25,25,25,25,25,25,25,26,26,26,26,26,26,26,26,26,26,26,26,26,26,26,26,26,26,26,26,26,26,26,26,26,27,27,27,27,27,27,27,27,27,27,27,27,27,27,27,27,27,27,27,27,27,27,27,27,27,28,28,28,28,28,28,28,28,28,28,28,28,28,28,28,28,28,28,28,28,28,28,28,28,28,29,29,29,29,29,29,29,29,29,29,29,29,29,29,29,29,29,29,29,29,29,29,29,29,29,30,30,30,30,30,30,30,30,30,30,30,30,30,30,30,30,30,30,30,30,30,30,30,30,30,31,31,31,31,31,31,31,31,31,31,31,31,31,31,31,31,31,31,31,31,31,31,31,31,31,32,32,32,32,32,32,32,32,32,32,32,32,32,32,32,32,32,32,32,32,32,32,32,32,32,33,33,33,33,33,33,33,33,33,33,33,33,33,33,33,33,33,33,33,33,33,33,33,33,33,34,34,34,34,34,34,34,34,34,34,34,34,34,34,34,34,34,34,34,34,34,34,34,34,34,35,35,35,35,35,35,35,35,35,35,35,35,35,35,35,35,35,35,35,35,35,35,35,35,35,36,36,36,36,36,36,36,36,36,36,36,36,36,36,36,36,36,36,36,36,36,36,36,36,36,37,37,37,37,37,37,37,37,37,37,37,37,37,37,37,37,37,37,37,37,37,37,37,37,37,38,38,38,38,38,38,38,38,38,38,38,38,38,38,38,38,38,38,38,38,38,38,38,38,38,39,39,39,39,39,39,39,39,39,39,39,39,39,39,39,39,39,39,39,39,39,39,39,39,39,40,40,40,40,40,40,40,40,40,40,40,40,40,40,40,40,40,40,40,40,40,40,40,40,40],"vb_trial":[1,2,3,4,5,6,7,8,9,10,11,12,13,14,15,16,17,18,19,20,21,22,23,24,25,1,2,3,4,5,6,7,8,9,10,11,12,13,14,15,16,17,18,19,20,21,22,23,24,25,1,2,3,4,5,6,7,8,9,10,11,12,13,14,15,16,17,18,19,20,21,22,23,24,25,1,2,3,4,5,6,7,8,9,10,11,12,13,14,15,16,17,18,19,20,21,22,23,24,25,1,2,3,4,5,6,7,8,9,10,11,12,13,14,15,16,17,18,19,20,21,22,23,24,25,1,2,3,4,5,6,7,8,9,10,11,12,13,14,15,16,17,18,19,20,21,22,23,24,25,1,2,3,4,5,6,7,8,9,10,11,12,13,14,15,16,17,18,19,20,21,22,23,24,25,1,2,3,4,5,6,7,8,9,10,11,12,13,14,15,16,17,18,19,20,21,22,23,24,25,1,2,3,4,5,6,7,8,9,10,11,12,13,14,15,16,17,18,19,20,21,22,23,24,25,1,2,3,4,5,6,7,8,9,10,11,12,13,14,15,16,17,18,19,20,21,22,23,24,25,1,2,3,4,5,6,7,8,9,10,11,12,13,14,15,16,17,18,19,20,21,22,23,24,25,1,2,3,4,5,6,7,8,9,10,11,12,13,14,15,16,17,18,19,20,21,22,23,24,25,1,2,3,4,5,6,7,8,9,10,11,12,13,14,15,16,17,18,19,20,21,22,23,24,25,1,2,3,4,5,6,7,8,9,10,11,12,13,14,15,16,17,18,19,20,21,22,23,24,25,1,2,3,4,5,6,7,8,9,10,11,12,13,14,15,16,17,18,19,20,21,22,23,24,25,1,2,3,4,5,6,7,8,9,10,11,12,13,14,15,16,17,18,19,20,21,22,23,24,25,1,2,3,4,5,6,7,8,9,10,11,12,13,14,15,16,17,18,19,20,21,22,23,24,25,1,2,3,4,5,6,7,8,9,10,11,12,13,14,15,16,17,18,19,20,21,22,23,24,25,1,2,3,4,5,6,7,8,9,10,11,12,13,14,15,16,17,18,19,20,21,22,23,24,25,1,2,3,4,5,6,7,8,9,10,11,12,13,14,15,16,17,18,19,20,21,22,23,24,25,1,2,3,4,5,6,7,8,9,10,11,12,13,14,15,16,17,18,19,20,21,22,23,24,25,1,2,3,4,5,6,7,8,9,10,11,12,13,14,15,16,17,18,19,20,21,22,23,24,25,1,2,3,4,5,6,7,8,9,10,11,12,13,14,15,16,17,18,19,20,21,22,23,24,25,1,2,3,4,5,6,7,8,9,10,11,12,13,14,15,16,17,18,19,20,21,22,23,24,25,1,2,3,4,5,6,7,8,9,10,11,12,13,14,15,16,17,18,19,20,21,22,23,24,25,1,2,3,4,5,6,7,8,9,10,11,12,13,14,15,16,17,18,19,20,21,22,23,24,25,1,2,3,4,5,6,7,8,9,10,11,12,13,14,15,16,17,18,19,20,21,22,23,24,25,1,2,3,4,5,6,7,8,9,10,11,12,13,14,15,16,17,18,19,20,21,22,23,24,25,1,2,3,4,5,6,7,8,9,10,11,12,13,14,15,16,17,18,19,20,21,22,23,24,25,1,2,3,4,5,6,7,8,9,10,11,12,13,14,15,16,17,18,19,20,21,22,23,24,25,1,2,3,4,5,6,7,8,9,10,11,12,13,14,15,16,17,18,19,20,21,22,23,24,25,1,2,3,4,5,6,7,8,9,10,11,12,13,14,15,16,17,18,19,20,21,22,23,24,25,1,2,3,4,5,6,7,8,9,10,11,12,13,14,15,16,17,18,19,20,21,22,23,24,25,1,2,3,4,5,6,7,8,9,10,11,12,13,14,15,16,17,18,19,20,21,22,23,24,25,1,2,3,4,5,6,7,8,9,10,11,12,13,14,15,16,17,18,19,20,21,22,23,24,25,1,2,3,4,5,6,7,8,9,10,11,12,13,14,15,16,17,18,19,20,21,22,23,24,25,1,2,3,4,5,6,7,8,9,10,11,12,13,14,15,16,17,18,19,20,21,22,23,24,25,1,2,3,4,5,6,7,8,9,10,11,12,13,14,15,16,17,18,19,20,21,22,23,24,25,1,2,3,4,5,6,7,8,9,10,11,12,13,14,15,16,17,18,19,20,21,22,23,24,25,1,2,3,4,5,6,7,8,9,10,11,12,13,14,15,16,17,18,19,20,21,22,23,24,25],"vb_x":[[0,0.6137121608480811,0,-0.6047803480178118,0,-0.5458134701475501,0,0.023430834524333477],[0,-0.8304326212964952,0,-0.09696779632940888,0,-0.37824532063677907,0,0.3144604773260653],[0,-0.6369744557887316,0,0.9130582991056144,0,-0.5312297972850502,0,0.7234163829125464],[0,-0.4215350765734911,0,-0.8984092609025538,0,-0.9870933149941266,0,-0.620206446852535],[0,0.5110652060247958,0,0.556149854324758,0,0.5172500172629952,0,-0.6103365332819521],[0,-0.9009802592918277,0,0.7236775369383395,0,-0.25112780509516597,0,-0.8541111503727734],[0,0.34661550959572196,0,-0.033113691955804825,0,-0.566385471727699,0,-0.2294516609981656],[0,0.24964310182258487,0,-0.7604057821445167,0,0.046507764142006636,0,-0.7509483559988439],[0,0.024136537685990334,0,-0.6677207532338798,0,0.6750353747047484,0,-0.4706010315567255],[0,0.2512689880095422,0,0.4488877644762397,0,-0.44153132988139987,0,-0.6523490380495787],[0,-0.3522166688926518,0,0.808967687189579,0,0.7147982935421169,0,-0.04985922062769532],[0,-0.7517408574931324,0,-0.8286432265304029,0,-0.15714478818699718,0,-0.19845269387587905],[0,0.37609949242323637,0,-0.6049141762778163,0,0.32097993278875947,0,0.35755092464387417],[0,-0.2070430493913591,0,-0.45819900278002024,0,0.22264138935133815,0,-0.20302002085372806],[0,-0.8862781254574656,0,-0.5158763863146305,0,-0.3967865132726729,0,-0.852263287641108],[0,0.4619767824187875,0,0.8998896279372275,0,0.4532160684466362,0,-0.9353325879201293],[0,-0.612244725227356,0,-0.3466918054036796,0,-0.10626582708209753,0,-0.8836066354997456],[0,-0.5794318472035229,0,0.30253901053220034,0,-0.9209885811433196,0,-0.5597439371049404],[0,-0.303911488968879,0,-0.8271295353770256,0,-0.24107180582359433,0,-0.008029787335544825],[0,-0.762030444573611,0,0.14049163972958922,0,0.9429060486145318,0,0.9256376340053976],[0,-0.20042329095304012,0,0.5703294710256159,0,-0.3749203057959676,0,-0.7159467861056328],[0,0.7832963173277676,0,0.32880109874531627,0,-0.3580944142304361,0,0.34120505675673485],[0,0.42568622436374426,0,-0.2287668283097446,0,0.3762124693021178,0,0.7806542641483247],[0,-0.9061127998866141,0,0.4508561668917537,0,0.8769286735914648,0,-0.4827759894542396],[0,-0.5210252604447305,0,-0.7144523612223566,0,0.485487834084779,0,0.13941617915406823],[0,0.5184008069336414,0,-0.3724272446706891,0,0.16025055246427655,0,-0.4292042274028063],[0,0.8355962480418384,0,0.7744827829301357,0,0.29827058501541615,0,-0.00830445159226656],[0,-0.7940897294320166,0,-0.4137764279730618,0,-0.7030301089398563,0,-0.039603898767381907],[0,0.22256970312446356,0,-0.7833983250893652,0,0.6878646495752037,0,0.8244218733161688],[0,0.15041837887838483,0,-0.5428141891025007,0,0.6046243859454989,0,-0.37145969457924366],[0,-0.8557402449660003,0,0.47888464387506247,0,-0.35195634234696627,0,-0.5539060314185917],[0,0.03837661584839225,0,-0.0518252388574183,0,-0.3509709220379591,0,-0.16002771817147732],[0,-0.5753103368915617,0,0.2050381605513394,0,-0.2772311568260193,0,-0.9510793439112604],[0,0.8320704814977944,0,0.9660325031727552,0,-0.46341327484697104,0,0.7736932556144893],[0,-0.8415679205209017,0,0.29208363918587565,0,0.756812505889684,0,-0.4524806528352201],[0,-0.06497799279168248,0,-0.9733687522821128,0,0.27486045798286796,0,0.06739629665389657],[0,-0.4736157050356269,0,-0.8465342125855386,0,0.999470688868314,0,0.5292491163127124],[0,-0.634152349550277,0,0.2764966720715165,0,-0.749226993881166,0,-0.5922839706763625],[0,0.8251113640144467,0,0.20123240537941456,0,0.546709499321878,0,-0.5793227683752775],[0,0.6531129023060203,0,0.4176112087443471,0,-0.6636812691576779,0,-0.9998695119284093],[0,-0.6273548994213343,0,-0.9579825894907117,0,0.7060347618535161,0,0.2973633483052254],[0,0.6854922040365636,0,0.3262255466543138,0,0.026874115224927664,0,-0.17904695915058255],[0,-0.4903288991190493,0,0.0515438849106431,0,-0.8032939676195383,0,-0.667359871789813],[0,-0.8638832755386829,0,0.2498291521333158,0,0.547967451158911,0,0.5765625694766641],[0,-0.5455760532058775,0,0.11689530313014984,0,0.08103002281859517,0,-0.0856255441904068],[0,-0.6309605157002807,0,-0.5054765739478171,0,-0.913122680503875,0,0.62151995068416],[0,0.8804433159530163,0,0.718410104047507,0,-0.22756296629086137,0,-0.8180377637036145],[0,-0.0888943956233561,0,-0.968094271607697,0,-0.09527634968981147,0,-0.3036651788279414],[0,-0.7941410075873137,0,-0.16908702393993735,0,0.516153437551111,0,0.22736517107114196],[0,0.36466756695881486,0,-0.44066466111689806,0,-0.8311557555571198,0,-0.49458906101062894],[0,-0.10983191477134824,0,-0.30903199315071106,0,0.17110323533415794,0,0.6687053670175374],[0,0.33017417741939425,0,0.7040642970241606,0,0.8275406393222511,0,0.010898714419454336],[0,-0.24659916246309876,0,-0.10269192373380065,0,-0.5867764134891331,0,0.6848631971515715],[0,-0.18849425995722413,0,0.40407540276646614,0,-0.6333547746762633,0,-0.5625112596899271],[0,0.8427514843642712,0,0.25104413321241736,0,-0.5308540854603052,0,0.6729538650251925],[0,-0.3525208216160536,0,0.3473040470853448,0,-0.6009124829433858,0,0.6194472080096602],[0,0.3503087740391493,0,-0.7045917245559394,0,0.9880361356772482,0,0.8451330144889653],[0,0.179958816152066,0,-0.5463744970038533,0,0.670922452583909,0,0.3718870300799608],[0,-0.29381829826161265,0,-0.5436828141100705,0,0.5877286177128553,0,-0.05385468900203705],[0,-0.7237273622304201,0,-0.9091613236814737,0,0.7760101612657309,0,0.5305877588689327],[0,-0.15995039604604244,0,-0.9353351322934031,0,0.5197972697205842,0,0.7007940653711557],[0,-0.3696442414075136,0,0.4905312489718199,0,-0.03142550215125084,0,-0.27385064866393805],[0,0.4637281126342714,0,-0.7347801639698446,0,-0.7727453629486263,0,-0.5417412086389959],[0,-0.8321507894434035,0,0.6566297844983637,0,0.4766001617535949,0,-0.7297038142569363],[0,0.8245678120292723,0,0.264675238635391,0,-0.5221273889765143,0,0.5821258476935327],[0,-0.3761134189553559,0,-0.8791653132066131,0,0.6224301299080253,0,-0.938383286818862],[0,0.0884765894152224,0,-0.31380557268857956,0,-0.43964722426608205,0,-0.3391575519926846],[0,-0.4585001324303448,0,-0.3665665378794074,0,-0.06793370097875595,0,-0.7624195194803178],[0,-0.9861721494235098,0,-0.2711136983707547,0,-0.9171345671638846,0,-0.17734947428107262],[0,0.33530836552381516,0,0.292460975702852,0,-0.9202320603653789,0,0.5420493972487748],[0,0.9032019698061049,0,0.8409082423895597,0,-0.7990953056141734,0,-0.0012644114904105663],[0,-0.2833407884463668,0,-0.07165820663794875,0,0.06419459031894803,0,-0.7050895830616355],[0,-0.15350341890007257,0,0.33554663229733706,0,0.6208365471102297,0,-0.1549875088967383],[0,-0.431933700107038,0,0.23233695654198527,0,0.11216266779229045,0,-0.13747547939419746],[0,-0.06566430907696486,0,-0.2691032881848514,0,-0.8315859367139637,0,0.6308780955150723],[0,0.3798211207613349,0,-0.7107140826992691,0,0.21204568352550268,0,0.780508381780237],[0,-0.7161024543456733,0,0.1777559844776988,0,0.6800911901518703,0,-0.3624994526617229],[0,-0.7468796554021537,0,-0.24974385043606162,0,0.2482740357518196,0,0.6973620397038758],[0,-0.6230141273699701,0,0.42253342224285007,0,-0.07472187373787165,0,0.9627539925277233],[0,-0.6634126105345786,0,-0.43502087192609906,0,-0.09236143762245774,0,0.6821452942676842],[0,-0.6571289673447609,0,0.828620414249599,0,-0.4327068841084838,0,-0.270960230845958],[0,0.21301380079239607,0,-0.6945477472618222,0,-0.4205085658468306,0,-0.3337310152128339],[0,0.8080334821715951,0,-0.7547409804537892,0,0.06411348609253764,0,0.7344648903235793],[0,0.8676182357594371,0,0.6773274247534573,0,0.19922939268872142,0,0.39783167326822877],[0,-0.7035847012884915,0,-0.5480042872950435,0,0.3116315067745745,0,0.8485431065782905],[0,0.7267194669693708,0,-0.08976007113233209,0,0.5454165451228619,0,0.6153414715081453],[0,0.5028650108724833,0,-0.779491659719497,0,-0.6915206853300333,0,-0.047775010112673044],[0,0.49731777515262365,0,0.5530771715566516,0,0.6092415144667029,0,0.4177784021012485],[0,-0.445305451285094,0,0.4694975223392248,0,0.05525566404685378,0,0.9397569457069039],[0,-0.535875853151083,0,-0.4498986639082432,0,-0.04944061255082488,0,0.31240349635481834],[0,0.09231772553175688,0,0.019696251023560762,0,-0.4067660034634173,0,-0.2171696536242962],[0,-0.5073704016394913,0,-0.4872113517485559,0,0.7917319261468947,0,-0.3025473072193563],[0,-0.053304428700357676,0,-0.5160473273135722,0,-0.5345260314643383,0,0.9836800559423864],[0,-0.10588164208456874,0,0.7367892512120306,0,0.5043718288652599,0,-0.16621640091761947],[0,-0.5634073400869966,0,-0.7324132728390396,0,0.7162679978646338,0,-0.4095793259330094],[0,0.25513953529298306,0,-0.9005721732974052,0,-0.25203096866607666,0,-0.2240421213209629],[0,0.7620806922204792,0,-0.8203443316742778,0,-0.2854477590881288,0,0.7557868799194694],[0,0.8446486862376332,0,0.5869641741737723,0,0.022134216967970133,0,-0.07523535238578916],[0,-0.7683296944014728,0,-0.753629429731518,0,0.8633787697181106,0,0.004108223598450422],[0,0.15319486428052187,0,-0.44385218480601907,0,0.556932860519737,0,-0.5048097195103765],[0,-0.2653489517979324,0,-0.7816980630159378,0,0.05888068117201328,0,0.3450932358391583],[0,0.19966855738312006,0,0.2516296338289976,0,0.7215731609612703,0,-0.2679795194417238],[0,0.626711807679385,0,-0.0002020471729338169,0,-0.041054041124880314,0,-0.4879405847750604],[0,0.004774352069944143,0,0.18407861795276403,0,-0.24362110393121839,0,-0.2896871198900044],[0,-0.735816964879632,0,0.19661768525838852,0,-0.9780134740285575,0,-0.13589246850460768],[0,0.16150541882961988,0,-0.38436697656288743,0,0.02048222254961729,0,-0.04076700657606125],[0,0.39727443223819137,0,0.6341398889198899,0,0.8571216315031052,0,0.49145507626235485],[0,0.6218101740814745,0,-0.4062407878227532,0,-0.5693007912486792,0,-0.00700418371707201],[0,-0.311833621468395,0,-0.8250547549687326,0,-0.23197171417996287,0,0.916876632720232],[0,-0.7122555812820792,0,-0.7752275611273944,0,0.2038812544196844,0,0.7552711456082761],[0,0.10701630869880319,0,0.9293461232446134,0,-0.4004386980086565,0,-0.9487025113776326],[0,0.9000490065664053,0,0.24220244446769357,0,0.04606764484196901,0,0.8367487424984574],[0,0.0976591045036912,0,0.8694999716244638,0,0.6074985857121646,0,-0.5346552236005664],[0,-0.6548533258028328,0,0.8705678475089371,0,0.4729120028205216,0,0.13343889126554132],[0,-0.5052338857203722,0,0.22772613260895014,0,0.9110970385372639,0,0.9051672364585102],[0,-0.2514570653438568,0,-0.7981430953368545,0,-0.46110561257228255,0,0.8023999286815524],[0,0.18438213458284736,0,0.579429873265326,0,-0.3674157285131514,0,-0.22917260881513357],[0,-0.257866689004004,0,0.6159913740120828,0,-0.5682096197269857,0,-0.20438849786296487],[0,0.21722185984253883,0,0.2794578541070223,0,-0.09284300589933991,0,-0.5987215652130544],[0,0.507888603489846,0,0.9850336904637516,0,-0.9997930061072111,0,-0.9129360378719866],[0,0.5748168234713376,0,0.09769593412056565,0,0.5176973380148411,0,-0.7917954260483384],[0,0.9988387608900666,0,0.4157105633057654,0,0.4402453014627099,0,-0.9552720882929862],[0,0.5431502377614379,0,0.5505151799879968,0,0.246029038913548,0,0.630482061766088],[0,0.594345064368099,0,0.16784843802452087,0,0.8339792275801301,0,-0.47487371508032084],[0,0.36434795754030347,0,0.6717959549278021,0,-0.5964986751787364,0,0.8717569871805608],[0,-0.4596361927688122,0,0.4534366186708212,0,0.5891308090649545,0,0.9001576397567987],[0,-0.9108050004579127,0,0.8370031113736331,0,0.29210537672042847,0,0.8066155738197267],[0,-0.3714903467334807,0,-0.9388387151993811,0,0.42249862430617213,0,-0.1628015055321157],[0,0.14909597393125296,0,0.3666377682238817,0,-0.49416002770885825,0,0.7765002800151706],[0,0.5928508280776441,0,0.04730393644422293,0,0.9616458481177688,0,-0.7046737615019083],[0,-0.793234882876277,0,0.3090822068043053,0,0.6348146409727633,0,-0.3415223965421319],[0,0.20507350144907832,0,-0.1208902825601399,0,0.4358588973991573,0,0.17552455374971032],[0,0.29290407383814454,0,0.6546623567119241,0,-0.8508471767418087,0,0.594486752524972],[0,-0.4810745771974325,0,-0.4866898572072387,0,0.4667666428722441,0,-0.7505377987399697],[0,-0.796846573241055,0,-0.48197829676792026,0,-0.6282010534778237,0,-0.845927573274821],[0,0.10935600707307458,0,-0.5782217811793089,0,-0.5569923757575452,0,0.5376052907668054],[0,-0.6909559797495604,0,-0.6670565488748252,0,0.0467804791405797,0,0.9909751689992845],[0,0.6369662834331393,0,-0.41897295508533716,0,0.059367723762989044,0,0.8110028472729027],[0,-0.22619217075407505,0,0.48964540427550673,0,0.3031759159639478,0,0.5300202546641231],[0,0.6946887294761837,0,0.4308293042704463,0,-0.5848123314790428,0,0.8018761677667499],[0,0.2515818285755813,0,-0.36516004614531994,0,-0.21813092473894358,0,0.6353224120102823],[0,-0.45089463936164975,0,0.014155109878629446,0,-0.05008989106863737,0,-0.5718493671156466],[0,0.6439547478221357,0,0.707152709364891,0,-0.0653994269669056,0,0.8458336601033807],[0,-0.5909253340214491,0,-0.19372789934277534,0,-0.891140578314662,0,0.6812393786385655],[0,0.4818821204826236,0,-0.8074000980705023,0,0.4973557530902326,0,-0.9133718283846974],[0,0.6276003643870354,0,-0.5660698181018233,0,-0.46875659795477986,0,-0.5447802431881428],[0,0.3242438700981438,0,-0.42378682596608996,0,0.14265051065012813,0,0.769560907036066],[0,0.32371948286890984,0,0.04439113475382328,0,-0.3687126184813678,0,0.3398892264813185],[0,-0.8590779951773584,0,0.49953718995675445,0,0.4775353651493788,0,0.23478932166472077],[0,-0.6953369472175837,0,0.5289642987772822,0,-0.12553756032139063,0,-0.32748247822746634],[0,0.5110005466267467,0,-0.47752382326871157,0,-0.9863707707263529,0,0.32303160335868597],[0,-0.5740390429273248,0,-0.3785546706058085,0,-0.0010041226632893085,0,0.7132921307347715],[0,-0.29753564670681953,0,0.6337607689201832,0,0.9476000815629959,0,0.522668999619782],[0,0.8994031390175223,0,0.8025055704638362,0,-0.878650079946965,0,-0.684220798779279],[0,0.03885100455954671,0,0.8823851700872183,0,0.19716412387788296,0,-0.7680004681460559],[0,-0.2647238178178668,0,0.29799222061410546,0,0.4043293874710798,0,-0.454763297457248],[0,0.013140064664185047,0,-0.03529679961502552,0,-0.8099529752507806,0,0.06831337744370103],[0,0.6503653088584542,0,-0.7053250670433044,0,-0.26353154005482793,0,0.3424761900678277],[0,0.2914721420966089,0,-0.34479717863723636,0,0.5804518987424672,0,0.44503361266106367],[0,-0.055710941553115845,0,-0.17410220624879003,0,0.8496793587692082,0,0.8059812672436237],[0,0.679258537478745,0,0.2897941218689084,0,0.24199718656018376,0,0.9482822199352086],[0,-0.20296635385602713,0,-0.5445741228759289,0,0.3018567771650851,0,0.8205119990743697],[0,0.10632641613483429,0,0.40052616503089666,0,-0.21413570595905185,0,0.5065407454967499],[0,0.13756216876208782,0,0.7865178505890071,0,0.095617167185992,0,-0.6462501026690006],[0,-0.3940145196393132,0,0.13625762425363064,0,0.8354250541888177,0,0.8892564964480698],[0,0.4958661771379411,0,-0.09216120140627027,0,-0.597188210580498,0,0.9481267854571342],[0,-0.3887364789843559,0,-0.9461335996165872,0,-0.39365106588229537,0,0.7444004002027214],[0,-0.8610243117436767,0,-0.5194523618556559,0,0.6443070103414357,0,0.019382158294320107],[0,-0.9928544014692307,0,0.5190929495729506,0,-0.3287953338585794,0,-0.590945319738239],[0,-0.33358071744441986,0,-0.4512494169175625,0,-0.6689908653497696,0,0.5635928367264569],[0,-0.024572831112891436,0,-0.2251295242458582,0,-0.8315575714223087,0,-0.3808765863068402],[0,-0.1268992992118001,0,0.7428914220072329,0,0.5856413124129176,0,-0.5909921419806778],[0,-0.49677248438820243,0,-0.005905449390411377,0,-0.5433302950114012,0,0.9415722438134253],[0,-0.5468427813611925,0,-0.7842347691766918,0,-0.39546201191842556,0,-0.530010484624654],[0,-0.9173796032555401,0,0.40461868373677135,0,-0.5201379484497011,0,-0.9922971511259675],[0,-0.8966164407320321,0,-0.24506297567859292,0,-0.939793695230037,0,-0.7810792261734605],[0,-0.5097723635844886,0,0.6956198909319937,0,-0.4326329790055752,0,0.6678125346079469],[0,-0.5676676551811397,0,0.6842613951303065,0,-0.03318588621914387,0,0.691278301179409],[0,-0.6493230029009283,0,0.8437216565944254,0,-0.8131813062354922,0,0.7362572243437171],[0,0.08184143248945475,0,-0.29874783428385854,0,0.3394390242174268,0,-0.7860990529879928],[0,0.8109343140386045,0,0.6533757853321731,0,-0.2671002233400941,0,0.45247597713023424],[0,-0.7836778811179101,0,-0.9639093028381467,0,0.9452472627162933,0,-0.1646489640697837],[0,0.8359566228464246,0,-0.4598593348637223,0,0.44873649859800935,0,0.8507546037435532],[0,0.6367285861633718,0,-0.3133411752060056,0,-0.2008170853368938,0,0.557217504363507],[0,-0.30292130447924137,0,0.07425571931526065,0,-0.6063650813885033,0,0.3061073669232428],[0,0.1769122094847262,0,-0.32200699485838413,0,-0.0038967980071902275,0,0.4978272938169539],[0,0.511809918563813,0,0.2514245193451643,0,0.6262708180584013,0,0.058657553512603045],[0,0.6946853534318507,0,0.3905172464437783,0,0.15676678251475096,0,-0.2065673149190843],[0,-0.2889239233918488,0,-0.08721637586131692,0,0.9652389567345381,0,0.3150207232683897],[0,-0.22472338238731027,0,-0.045082550030201674,0,-0.16004526987671852,0,-0.07181194331496954],[0,0.19505027495324612,0,0.48825358832255006,0,0.023540296591818333,0,-0.9174607573077083],[0,0.6071976567618549,0,0.6453190785832703,0,-0.42762654926627874,0,-0.7767430553212762],[0,-0.20507965283468366,0,-0.24857558170333505,0,-0.7370836515910923,0,-0.049559283535927534],[0,0.6987285534851253,0,-0.03018914395943284,0,-0.6552127096801996,0,0.87712705694139],[0,-0.051162853837013245,0,0.2905481904745102,0,-0.0686448160558939,0,0.03727067355066538],[0,0.7534691765904427,0,-0.7012561103329062,0,0.7687543630599976,0,-0.2709992378950119],[0,0.9663006109185517,0,0.8055550949648023,0,-0.9557838905602694,0,-0.8349655759520829],[0,0.8193722208961844,0,-0.007212542463093996,0,-0.9915980827063322,0,0.538801686372608],[0,0.936081875115633,0,-0.6217184215784073,0,-0.8350558951497078,0,0.07603711867704988],[0,0.1464589131064713,0,0.33609884325414896,0,-0.1425743238069117,0,0.8695427817292511],[0,0.9587048748508096,0,-0.2883466500788927,0,0.8812919440679252,0,0.3576696375384927],[0,0.31922812294214964,0,0.8400089703500271,0,-0.01849004253745079,0,-0.8973308554850519],[0,0.6429884219542146,0,0.07466327445581555,0,-0.06907284865155816,0,-0.38768155220896006],[0,0.5667278259061277,0,0.3763507017865777,0,0.11780416080728173,0,0.09157738974317908],[0,-0.7210828415118158,0,0.9497185470536351,0,-0.40154509991407394,0,0.09696012176573277],[0,-0.8592004599049687,0,-0.3563710185699165,0,-0.4830176401883364,0,-0.9077889230102301],[0,0.6826061876490712,0,-0.9862759266979992,0,0.8770829103887081,0,-0.7010743543505669],[0,0.009816774167120457,0,0.2759967711754143,0,0.2773930560797453,0,-0.6024096738547087],[0,0.5781224993988872,0,0.2707849023863673,0,-0.08536931127309799,0,0.4407723331823945],[0,0.5243411934934556,0,-0.2923739315010607,0,-0.9888092605397105,0,-0.7035459047183394],[0,-0.09823009697720408,0,0.0965408910997212,0,0.9999404232949018,0,0.41168380714952946],[0,-0.0053237550891935825,0,0.4929652353748679,0,-0.572831654921174,0,0.5324340928345919],[0,0.22568641137331724,0,0.6744391145184636,0,-0.3985633575357497,0,0.4390515713021159],[0,0.9299550591968,0,0.5662947469390929,0,0.9366128663532436,0,0.30836051516234875],[0,0.47894765343517065,0,0.8573312652297318,0,-0.48472816916182637,0,0.6687950738705695],[0,0.7961129015311599,0,0.648057920858264,0,-0.047190509270876646,0,-0.11559162521734834],[0,0.9780120900832117,0,-0.26913748774677515,0,0.9017743631266057,0,0.6841006306931376],[0,0.006575107574462891,0,-0.5879168738611042,0,0.22174802236258984,0,0.286089648026973],[0,0.03324356209486723,0,-0.8965089786797762,0,0.4591803578659892,0,-0.1372767980210483],[0,0.0739705553278327,0,-0.2760629211552441,0,-0.3545517693273723,0,0.999117374420166],[0,-0.30419552559033036,0,0.8674068725667894,0,0.5753457280807197,0,-0.7623498644679785],[0,0.02959940116852522,0,-0.8518609316088259,0,0.15732192527502775,0,0.6000094190239906],[0,0.5036385464482009,0,0.9698168723843992,0,-0.2430507531389594,0,0.15471718879416585],[0,0.6726456950418651,0,-0.2955838730558753,0,0.31195383984595537,0,-0.6199335618875921],[0,0.03153816284611821,0,0.04086415795609355,0,-0.2526384415104985,0,-0.3692016489803791],[0,-0.3865022258833051,0,0.6495370427146554,0,-0.3069353844039142,0,0.4423159589059651],[0,-0.21263067796826363,0,0.9582570688799024,0,-0.11837379122152925,0,-0.46355550922453403],[0,0.6589925475418568,0,-0.8999093314632773,0,0.17712857807055116,0,-0.3365436941385269],[0,0.695188001729548,0,-0.6579102138057351,0,-0.8301069592125714,0,-0.47974954964593053],[0,-0.9051291467621922,0,0.31421347614377737,0,0.47604673029854894,0,-0.3052828754298389],[0,-0.9354999694041908,0,-0.3572819954715669,0,0.8575243675149977,0,-0.8143234411254525],[0,0.43430828116834164,0,0.9845006498508155,0,-0.2216028179973364,0,-0.14196635596454144],[0,-0.5994625631719828,0,-0.7498808945529163,0,0.6164757618680596,0,-0.48009007005020976],[0,-0.4965071049518883,0,0.15918616950511932,0,0.8549474482424557,0,0.4872162682004273],[0,-0.7524151196703315,0,-0.20181986689567566,0,0.8689296883530915,0,-0.9077958115376532],[0,0.2230510925874114,0,0.4545880379155278,0,0.5277801509946585,0,-0.9473844491876662],[0,0.3923762342892587,0,0.6912266309373081,0,-0.9489013724960387,0,0.6950840982608497],[0,-0.035036503337323666,0,-0.8557272325269878,0,0.15447199484333396,0,0.8770407047122717],[0,0.08343828516080976,0,0.8775095073506236,0,0.5677117328159511,0,0.38613935885950923],[0,0.09884573332965374,0,0.7709998823702335,0,-0.4548694947734475,0,0.30304866284132004],[0,-0.9397527435794473,0,0.20811297046020627,0,-0.38348462199792266,0,-0.6794499466195703],[0,-0.6906592063605785,0,0.1518807215616107,0,0.6865286906249821,0,0.9669320774264634],[0,-0.05339002842083573,0,-0.39267538907006383,0,-0.7437143344432116,0,0.621854274533689],[0,0.7828894513659179,0,-0.6870169714093208,0,0.5014750524424016,0,0.04201067704707384],[0,0.04486299445852637,0,-0.3613995215855539,0,0.4542679558508098,0,-0.5146323353983462],[0,0.9798732069320977,0,-0.2727380427531898,0,-0.6213676217012107,0,-0.619803240057081],[0,0.4200875931419432,0,-0.7338101170025766,0,-0.891831262037158,0,-0.434681233484298],[0,0.25683460338041186,0,-0.3763215825892985,0,0.3813594672828913,0,0.14555350225418806],[0,-0.44761851988732815,0,-0.7329878187738359,0,-0.6831972999498248,0,0.3424354139715433],[0,0.2226956686936319,0,0.8567454242147505,0,-0.2667668014764786,0,-0.6114443158730865],[0,-0.0796256922185421,0,-0.9673914490267634,0,-0.8484992864541709,0,-0.3611563667654991],[0,0.24811642384156585,0,0.4357663984410465,0,0.6054589250124991,0,0.07320762099698186],[0,-0.7072225329466164,0,-0.16219635121524334,0,0.9870849647559226,0,0.03624881757423282],[0,-0.5180505202151835,0,-0.15080644097179174,0,0.7635148484259844,0,0.10656122863292694],[0,0.28819353273138404,0,-0.9153841165825725,0,-0.9807172948494554,0,-0.634125619661063],[0,0.552518680691719,0,0.3955087475478649,0,-0.9863707898184657,0,-0.4576462400145829],[0,0.1823817677795887,0,0.8175110411830246,0,-0.7158720870502293,0,-0.8842212883755565],[0,-0.8783367145806551,0,-0.18393590115010738,0,-0.5240278686396778,0,-0.8141247169114649],[0,0.7890274003148079,0,-0.4426491386257112,0,0.9006673754192889,0,-0.6031367471441627],[0,0.20483914343640208,0,-0.5155510827898979,0,0.3203557697124779,0,-0.0734265698119998],[0,-0.6686401488259435,0,0.5241965893656015,0,0.8888603542000055,0,0.880915557499975],[0,0.412455462384969,0,-0.2367286402732134,0,-0.2888047699816525,0,-0.9803790948353708],[0,-0.6524232844822109,0,-0.7811840837821364,0,-0.5207695565186441,0,0.9664495186880231],[0,-0.05768531048670411,0,-0.7423365083523095,0,-0.9358964399434626,0,-0.1467801332473755],[0,0.9536034539341927,0,-0.723010441288352,0,0.9429665757343173,0,0.4971969104371965],[0,-0.0982171599753201,0,0.7584016406908631,0,-0.9577518659643829,0,-0.3982588374055922],[0,0.06980927800759673,0,0.3687237757258117,0,-0.3173371236771345,0,0.9514518133364618],[0,0.7999690235592425,0,0.5722047239542007,0,0.3386971615254879,0,-0.4844316001981497],[0,0.937142422888428,0,0.33184357825666666,0,0.4254129836335778,0,-0.1348561798222363],[0,-0.29951888974756,0,-0.12867063516750932,0,0.234349615406245,0,-0.8591393218375742],[0,0.7490175510756671,0,-0.6466308264061809,0,0.07223671581596136,0,-0.06463554874062538],[0,0.14352799393236637,0,0.48392339143902063,0,0.12622113712131977,0,-0.24652770766988397],[0,0.43878156831488013,0,0.6506317663006485,0,-0.0014145872555673122,0,-0.47975202463567257],[0,-0.2557983445003629,0,-0.23093008622527122,0,-0.9885595361702144,0,-0.5040498049929738],[0,-0.476302248891443,0,-0.26645505195483565,0,-0.9883547560311854,0,-0.004540055058896542],[0,0.32253639260306954,0,0.6379998777993023,0,0.5423102471977472,0,-0.7588231894187629],[0,0.7074897228740156,0,0.235262846108526,0,-0.12708308454602957,0,-0.29175700433552265],[0,0.8190228240564466,0,-0.8262798190116882,0,-0.453250736463815,0,0.8070475677959621],[0,-0.353887100238353,0,0.8723487155511975,0,0.8092873063869774,0,0.6327082104980946],[0,-0.40091439336538315,0,0.3250006502494216,0,-0.7212889874354005,0,-0.004070288967341185],[0,0.9923927341587842,0,0.8322955556213856,0,-0.17035652231425047,0,-0.3120531686581671],[0,-0.44695280212908983,0,0.2923326683230698,0,0.5827776440419257,0,0.4463154668919742],[0,0.3902253033593297,0,0.371533228084445,0,-0.6456432170234621,0,-0.8852795292623341],[0,-0.655202834866941,0,0.4993413011543453,0,-0.06616055918857455,0,0.9861042089760303],[0,0.35775342490524054,0,-0.6756789651699364,0,0.38547821901738644,0,-0.09782379446551204],[0,0.6737161851488054,0,-0.2906164424493909,0,-0.045955972746014595,0,-0.6772434301674366],[0,-0.5852919863536954,0,-0.9870396009646356,0,0.16416161321103573,0,-0.245777343865484],[0,0.5782203339040279,0,-0.09620766527950764,0,-0.41432032780721784,0,0.011500805616378784],[0,-0.13699945341795683,0,-0.8926001661457121,0,0.48766492353752255,0,0.7067419639788568],[0,0.5021948567591608,0,-0.7434056336060166,0,0.16906595788896084,0,0.34865777334198356],[0,-0.5248271021991968,0,0.13853965466842055,0,0.761959427036345,0,0.07422465505078435],[0,-0.12182749481871724,0,0.2758186925202608,0,-0.4080775184556842,0,-0.542862543836236],[0,0.9153861561790109,0,-0.4025155561976135,0,0.9879272445105016,0,-0.4165715961717069],[0,0.4901700275950134,0,-0.5969525375403464,0,-0.2888210569508374,0,0.08275517541915178],[0,0.7024573953822255,0,0.9244365207850933,0,0.2630619462579489,0,-0.09777121804654598],[0,-0.6633579963818192,0,-0.8701058141887188,0,-0.39392207143828273,0,0.025505642872303724],[0,-0.9162770700640976,0,-0.8987606866285205,0,0.8801806448027492,0,-0.21481479238718748],[0,0.6509642042219639,0,-0.3284220923669636,0,-0.9778196080587804,0,0.039557056967169046],[0,0.18411923898383975,0,0.6026457212865353,0,0.8870693719945848,0,-0.8831958081573248],[0,-0.9136138744652271,0,-0.6367355943657458,0,0.007698617875576019,0,0.3738423576578498],[0,-0.7893482414074242,0,-0.15068772295489907,0,-0.8026968184858561,0,0.28989437222480774],[0,0.477716154884547,0,0.5462156562134624,0,-0.5881734834983945,0,-0.22835133876651525],[0,0.040044504683464766,0,-0.4057458690367639,0,0.7485564043745399,0,0.696891572792083],[0,-0.3817942109890282,0,-0.15143156377598643,0,0.20623422460630536,0,0.9834291180595756],[0,0.663612695876509,0,0.684185013640672,0,-0.805182343814522,0,0.7955462760291994],[0,-0.07942390767857432,0,0.16481874184682965,0,0.6937904101796448,0,0.43600487150251865],[0,0.9120672950521111,0,0.6202770499512553,0,0.8045154875144362,0,-0.8970664544031024],[0,-0.24819197412580252,0,-0.09889582265168428,0,0.09460822213441133,0,-0.7378443987108767],[0,-0.17395616276189685,0,0.7024456863291562,0,0.15579865872859955,0,-0.43084241449832916],[0,0.11557024391368032,0,-0.7022932623513043,0,-0.92670978885144,0,0.7404523193836212],[0,0.029665612149983644,0,0.26415939908474684,0,-0.5508545348420739,0,0.25379267428070307],[0,-0.3128385175950825,0,-0.5488156317733228,0,-0.5447445954196155,0,-0.3039365350268781],[0,-0.9624121701344848,0,-0.7598108616657555,0,-0.5808595325797796,0,0.9641027157194912],[0,0.98679153714329,0,0.07679541641846299,0,-0.38024226296693087,0,-0.16305147856473923],[0,0.76700493786484,0,-0.6039441437460482,0,0.08695775223895907,0,-0.29057691479101777],[0,0.06931353453546762,0,0.6399113568477333,0,0.16112458379939198,0,0.7219115481711924],[0,0.1679493598639965,0,0.1243433109484613,0,0.9518268601968884,0,0.4512785947881639],[0,0.9232828612439334,0,-0.39167625177651644,0,0.20972119364887476,0,0.767030774615705],[0,-0.2211641320027411,0,0.02281053876504302,0,-0.17169916722923517,0,0.6468353383243084],[0,-0.34414437552914023,0,-0.028086594305932522,0,-0.3288274616934359,0,-0.8347134673967957],[0,-0.405228843446821,0,-0.015455440618097782,0,0.9384697871282697,0,0.5808787862770259],[0,0.4704935154877603,0,-0.8380110817961395,0,-0.26883886056020856,0,-0.7251812079921365],[0,-0.5726162809878588,0,-0.8795911287888885,0,0.34238074300810695,0,-0.5291512189432979],[0,0.06603975361213088,0,0.9050598237663507,0,-0.02061615465208888,0,-0.19330788124352694],[0,-0.3192342445254326,0,-0.5247904150746763,0,0.32225360767915845,0,0.9164108531549573],[0,-0.5042598345316947,0,-0.7334062592126429,0,0.46979648573324084,0,0.666737537831068],[0,-0.11247135931625962,0,0.8023788337595761,0,-0.8337564733810723,0,-0.10561333782970905],[0,-0.2846700963564217,0,0.7569627705961466,0,0.3625461361370981,0,-0.6312885605730116],[0,0.32193081034347415,0,-0.22329080197960138,0,0.723851268645376,0,-0.9951268550939858],[0,-0.8291874025017023,0,-0.9597231792286038,0,0.5849768435582519,0,0.9448180585168302],[0,0.5995647087693214,0,0.44967946596443653,0,-0.45144872181117535,0,0.5306227854453027],[0,0.6612554499879479,0,0.9219689588062465,0,0.8033940866589546,0,-0.839938145596534],[0,-0.28377186600118876,0,-0.5789854885078967,0,0.8345721852965653,0,-0.9243600964546204],[0,0.9443873334676027,0,-0.7436170768924057,0,-0.2170512699522078,0,-0.7889592023566365],[0,0.6550995050929487,0,-0.9755183164961636,0,0.13730671955272555,0,-0.27550684148445725],[0,0.11898406408727169,0,-0.06313746515661478,0,-0.23983625788241625,0,0.9773396481759846],[0,0.9614760843105614,0,0.9058664524927735,0,0.17030184343457222,0,0.9749932321719825],[0,0.4158263294957578,0,-0.03280410869047046,0,0.7505228775553405,0,0.7209486472420394],[0,0.48753837775439024,0,0.5078804511576891,0,-0.8033134345896542,0,0.7628897330723703],[0,-0.7618357832543552,0,0.8648188598453999,0,0.7688332558609545,0,0.8627194752916694],[0,0.5786081766709685,0,-0.3501117913983762,0,-0.7883570482954383,0,0.37690710881724954],[0,-0.828252105973661,0,-0.12654544785618782,0,0.4252896518446505,0,0.39137581177055836],[0,0.25330764055252075,0,-0.2754400223493576,0,0.9877431495115161,0,-0.6116921668872237],[0,0.8330931165255606,0,0.5782545185647905,0,0.6228512502275407,0,0.02033333759754896],[0,-0.12995113106444478,0,-0.9099948899820447,0,0.9092011763714254,0,-0.1738380086608231],[0,-0.14124390808865428,0,0.42739782482385635,0,-0.1590851149521768,0,0.6499939225614071],[0,0.12120598135516047,0,0.624411825556308,0,-0.551781733520329,0,0.5095056551508605],[0,-0.14353980123996735,0,0.37612551217898726,0,0.8527138349600136,0,0.30585374124348164],[0,-0.15629164688289165,0,-0.08031220780685544,0,0.6124075059778988,0,-0.1816894286312163],[0,-0.5153585812076926,0,0.8613324970938265,0,-0.31605477584525943,0,-0.0958499344997108],[0,0.306903887540102,0,0.9574553966522217,0,0.970071361400187,0,0.6234523807652295],[0,-0.7174388971179724,0,0.6215607980266213,0,0.18967779260128736,0,-0.997923371847719],[0,-0.002896497957408428,0,0.9904943183064461,0,-0.06858539395034313,0,0.511256720405072],[0,-0.5018248311243951,0,-0.3739188010804355,0,-0.19420267129316926,0,0.7134722704067826],[0,0.018603407312184572,0,0.38817945402115583,0,-0.8312473730184138,0,-0.49398151924833655],[0,0.9518766198307276,0,-0.048090338706970215,0,0.8215301684103906,0,0.6899071456864476],[0,-0.06275690719485283,0,-0.5042407931759953,0,-0.7275537275709212,0,0.42291362257674336],[0,-0.9938629195094109,0,0.08989824261516333,0,-0.3986535402946174,0,-0.9786853399127722],[0,0.12703123316168785,0,0.12335603637620807,0,0.6292757294140756,0,-0.5822241241112351],[0,-0.16093548387289047,0,-0.8115756763145328,0,0.7568186949938536,0,0.4033654285594821],[0,-0.4504245142452419,0,0.17470592353492975,0,0.5711392178200185,0,-0.8868052465841174],[0,0.4987247656099498,0,-0.7260226272046566,0,-0.5304135070182383,0,-0.9560196455568075],[0,0.14364770846441388,0,-0.6975647648796439,0,-0.06531007401645184,0,-0.06059446558356285],[0,-0.0065232980996370316,0,-0.27169588720425963,0,-0.07569997850805521,0,0.0879581612534821],[0,-0.43803485948592424,0,0.07356650568544865,0,-0.44586980203166604,0,-0.27003376418724656],[0,-0.6429478889331222,0,0.7057818728499115,0,-0.9607468605972826,0,-0.783510584384203],[0,-0.012109213974326849,0,-0.24391182279214263,0,0.406183697283268,0,0.6653118547983468],[0,0.9150523757562041,0,-0.06043030694127083,0,-0.6661357171833515,0,-0.7691850173287094],[0,0.582774689886719,0,-0.26790874265134335,0,0.1215871381573379,0,-0.9397203559055924],[0,0.9940345473587513,0,-0.6186006357893348,0,-0.35702371085062623,0,-0.4052848005667329],[0,0.5843041501939297,0,-0.5630019125528634,0,0.25990136666223407,0,0.0979921193793416],[0,0.5639729425311089,0,-0.9794733203016222,0,0.22360716201364994,0,-0.08536671055480838],[0,0.00943623436614871,0,-0.2441051984205842,0,0.926944934297353,0,0.7503510750830173],[0,-0.21800572983920574,0,-0.6835550549440086,0,-0.06636730255559087,0,-0.689647679682821],[0,-0.29895453667268157,0,-0.38499087700620294,0,0.5997005375102162,0,-0.10872248793020844],[0,-0.4862697604112327,0,-0.3675738754682243,0,0.6855257358402014,0,-0.2773058721795678],[0,0.25527231814339757,0,-0.9119223235175014,0,0.024298380129039288,0,-0.6213577389717102],[0,-0.9551315265707672,0,-0.9646098278462887,0,0.629138917196542,0,0.27790383296087384],[0,0.6972839166410267,0,0.03938990831375122,0,-0.8340963060036302,0,0.8503818572498858],[0,0.9813519967719913,0,-0.24032304296270013,0,-0.5385011453181505,0,-0.7365611656568944],[0,-0.9292075801640749,0,-0.8568363478407264,0,0.9451331393793225,0,0.33170669293031096],[0,0.05761940544471145,0,-0.4868266140110791,0,0.6652230937033892,0,0.9930939199402928],[0,0.26303273951634765,0,0.10895352670922875,0,-0.681976662017405,0,-0.559362814296037],[0,0.6850781193934381,0,0.41974752955138683,0,0.5199422896839678,0,0.5640052175149322],[0,0.9986859783530235,0,-0.8792682252824306,0,-0.806534918025136,0,0.28959741024300456],[0,-0.5422627958469093,0,0.4022611817345023,0,0.08791028521955013,0,-0.8624468427151442],[0,0.06398036144673824,0,0.47388048423454165,0,-0.9438753793947399,0,-0.19017814937978983],[0,-0.5812710323370993,0,-0.6841356935910881,0,0.07347169239073992,0,0.6490797731094062],[0,0.1537461131811142,0,0.24017260363325477,0,0.3361874953843653,0,-0.4435661295428872],[0,-0.09445601608604193,0,0.8990672859363258,0,0.35689145512878895,0,0.9888649107888341],[0,-0.9177236338146031,0,0.8816310996189713,0,-0.7077600210905075,0,-0.11386952456086874],[0,0.30088935885578394,0,-0.15890082530677319,0,-0.36650785990059376,0,-0.4508741251192987],[0,0.2924135201610625,0,-0.5817751055583358,0,-0.7265704474411905,0,-0.7299856226891279],[0,-0.9962135199457407,0,0.4112765653990209,0,-0.27789389016106725,0,-0.7435334757901728],[0,0.6968102175742388,0,0.5051675369031727,0,-0.23619774542748928,0,-0.6917683649808168],[0,0.3395079434849322,0,0.4984717392362654,0,0.4575969963334501,0,0.09044842422008514],[0,-0.7016562200151384,0,0.17103246273472905,0,0.6073971837759018,0,-0.7294654436409473],[0,0.2980580050498247,0,0.7841570065356791,0,0.2256217892281711,0,-0.9283619616180658],[0,0.001485900953412056,0,-0.07344651035964489,0,-0.012306311167776585,0,0.32924961764365435],[0,-0.821168496273458,0,0.7679531639441848,0,-0.9426845638081431,0,0.05831028986722231],[0,-0.15566448727622628,0,-0.15989394066855311,0,-0.011415727436542511,0,-0.9172047008760273],[0,-0.10490424418821931,0,-0.9243511869572103,0,-0.15411174343898892,0,0.8425947222858667],[0,-0.2839311910793185,0,0.6836354355327785,0,0.008321927860379219,0,-0.38389363791793585],[0,0.015379623975604773,0,-0.6101996377110481,0,0.862635396886617,0,-0.4547859113663435],[0,0.4197763935662806,0,-0.0766422194428742,0,0.9937272956594825,0,-0.9302679407410324],[0,-0.4496083948761225,0,-0.11647027404978871,0,-0.7001899490132928,0,-0.9802669668570161],[0,-0.5365704232826829,0,-0.9745966168120503,0,-0.44139090506359935,0,-0.7275023283436894],[0,0.8586702458560467,0,-0.8423205059953034,0,0.047471347730606794,0,-0.23200716823339462],[0,0.46305148024111986,0,-0.29421864869073033,0,-0.6041293675079942,0,-0.39125016890466213],[0,0.7544737914577127,0,0.13928259490057826,0,0.9203809113241732,0,0.21773037919774652],[0,-0.6240200507454574,0,0.4440627256408334,0,-0.5151688843034208,0,-0.0847488041035831],[0,0.48987490171566606,0,0.0585336578078568,0,0.007853836752474308,0,-0.08645604411140084],[0,-0.45309836277738214,0,0.5468973484821618,0,-0.30056158592924476,0,-0.43204896338284016],[0,-0.5964304720982909,0,-0.041937440633773804,0,-0.8741763271391392,0,0.49687584256753325],[0,-0.042061709333211184,0,0.7818293138407171,0,-0.38980364752933383,0,-0.789030056912452],[0,0.6552104824222624,0,0.41864851024001837,0,-0.6790029346011579,0,-0.24170930963009596],[0,-0.7925860434770584,0,-0.8270485238172114,0,-0.4255749685689807,0,0.5934072779491544],[0,-0.11079039936885238,0,0.70719836326316,0,-0.8817401449196041,0,0.8273400194011629],[0,0.3622491522692144,0,0.23014121828600764,0,-0.0958629921078682,0,-0.7043391517363489],[0,-0.3963513202033937,0,0.8541252822615206,0,0.43938832683488727,0,0.9951599296182394],[0,-0.43755936343222857,0,-0.8906285152770579,0,-0.6519761146046221,0,-0.949133129324764],[0,-0.6982967895455658,0,0.5253065158613026,0,0.5376380672678351,0,-0.3891270626336336],[0,-0.7283354164101183,0,0.7925649411045015,0,0.26846148632466793,0,-0.4068643036298454],[0,0.7368545071221888,0,0.23276864271610975,0,-0.03374453540891409,0,0.8065815260633826],[0,0.28297219751402736,0,-0.4049268183298409,0,0.7573859714902937,0,0.08781480276957154],[0,-0.2968570007942617,0,-0.9453277587890625,0,-0.05685935355722904,0,-0.9159065308049321],[0,0.6065386217087507,0,0.935106982011348,0,-0.4474910399876535,0,-0.8399145514704287],[0,0.01624851254746318,0,-0.1473400187678635,0,0.4844460319727659,0,-0.4748911992646754],[0,0.6851033461280167,0,-0.6719684172421694,0,-0.18729434069246054,0,-0.08660210482776165],[0,0.2859792751260102,0,-0.2833080431446433,0,0.9843730465508997,0,0.790172619279474],[0,-0.7022533202543855,0,-0.04154951265081763,0,0.5332893058657646,0,-0.7573421783745289],[0,0.44802521215751767,0,0.36012632912024856,0,0.6708405036479235,0,-0.7212780462577939],[0,0.04421259555965662,0,0.878733538556844,0,0.026199412997812033,0,-0.29321563662961125],[0,0.3735620682127774,0,0.9926375467330217,0,0.3745711133815348,0,-0.712850724812597],[0,0.19935569539666176,0,-0.5045015178620815,0,0.047906908206641674,0,-0.8884143847972155],[0,0.51870724465698,0,-0.3855314012616873,0,-0.0947302239947021,0,0.4540998605079949],[0,-0.7620001253671944,0,0.26938961166888475,0,-0.5291151008568704,0,-0.9784632469527423],[0,0.27298937970772386,0,0.04949633730575442,0,0.18665142031386495,0,-0.08571995049715042],[0,-0.27447910141199827,0,-0.5650190995074809,0,-0.7843493656255305,0,0.902378611266613],[0,0.5298749776557088,0,-0.20539860799908638,0,-0.2971437871456146,0,0.5118107115849853],[0,-0.8066320414654911,0,0.4467804841697216,0,0.8769563212990761,0,-0.3444230230525136],[0,0.32023550756275654,0,0.9072076599113643,0,-0.35680302092805505,0,-0.6822342746891081],[0,-0.8714876757003367,0,-0.4692144552245736,0,0.44764082692563534,0,0.5852112453430891],[0,0.12554581789299846,0,-0.9047608515247703,0,0.7564119636081159,0,0.2432166184298694],[0,0.12960708746686578,0,0.8399739754386246,0,0.9527409584261477,0,-0.06200724793598056],[0,0.8131496720016003,0,-0.7153436243534088,0,-0.29015704384073615,0,0.907378570176661],[0,0.12194684660062194,0,-0.7567047690972686,0,-0.7925730422139168,0,0.005155586637556553],[0,-0.9784727236256003,0,-0.9721685666590929,0,0.4654211946763098,0,-0.8646653811447322],[0,0.34560502506792545,0,-0.4384672506712377,0,0.756492986343801,0,-0.3720451155677438],[0,-0.3844876866787672,0,-0.35894008027389646,0,0.20106730377301574,0,0.6830236646346748],[0,0.8512174524366856,0,0.7879060278646648,0,-0.7506538573652506,0,0.22562445979565382],[0,0.3649126682430506,0,0.29895943822339177,0,-0.13306815922260284,0,-0.8758523087017238],[0,-0.47801433503627777,0,0.6803732831031084,0,0.42525122687220573,0,-0.5471212957054377],[0,-0.6440871963277459,0,0.6015260317362845,0,0.5808270275592804,0,0.8429408306255937],[0,-0.5507862223312259,0,-0.8877670401707292,0,-0.9617749606259167,0,-0.7937804129905999],[0,-0.9637264353223145,0,0.4277784009464085,0,-0.11496321856975555,0,0.6815933641046286],[0,-0.14349030796438456,0,-0.7877188893035054,0,-0.04255372378975153,0,-0.49877205584198236],[0,-0.5665430286899209,0,-0.5898619806393981,0,0.9301926004700363,0,0.7405286398716271],[0,-0.05839716037735343,0,0.41703244112432003,0,0.8214153596200049,0,0.8678065608255565],[0,-0.5584865380078554,0,0.5919387154281139,0,0.20039554731920362,0,-0.15657458920031786],[0,-0.15270116971805692,0,0.2902221418917179,0,-0.92812027502805,0,0.80782386707142],[0,-0.07865961827337742,0,0.2971150423400104,0,-0.6003079693764448,0,-0.6598820323124528],[0,-0.0442943861708045,0,-0.2489785449579358,0,0.6642011068761349,0,0.23881262447685003],[0,-0.47617163322865963,0,-0.8045787261798978,0,-0.18747557839378715,0,-0.21475073834881186],[0,0.3050418230704963,0,-0.765150067396462,0,-0.5129196033813059,0,0.9834424345754087],[0,0.6937964945100248,0,0.24599604960530996,0,-0.7236118265427649,0,-0.686135801486671],[0,-0.21335235890001059,0,0.37537389947101474,0,-0.4109051935374737,0,0.041932587046176195],[0,-0.5795581191778183,0,-0.6941125374287367,0,0.0019938540644943714,0,0.3566203690133989],[0,-0.6983629865571856,0,0.47117783408612013,0,-0.9264640915207565,0,-0.19229666609317064],[0,-0.03001351421698928,0,0.30286883655935526,0,-0.30665434105321765,0,-0.35666783107444644],[0,0.09462456591427326,0,-0.6703120074234903,0,-0.5177997648715973,0,-0.21366333216428757],[0,-0.8270507887937129,0,-0.4035587729886174,0,0.6573266903869808,0,-0.7173829190433025],[0,0.3040207182057202,0,-0.7499891449697316,0,-0.059299595188349485,0,0.6661601564846933],[0,-0.2976248930208385,0,0.8565141838043928,0,0.7999262870289385,0,-0.29065769724547863],[0,-0.9866554597392678,0,0.4716462390497327,0,0.054946212098002434,0,-0.21793783362954855],[0,-0.9257807480171323,0,-0.8614756492897868,0,0.9289305824786425,0,0.6377244237810373],[0,0.9472477347590029,0,0.9473499963060021,0,0.00949886068701744,0,-0.14387233322486281],[0,-0.22450424637645483,0,0.7063683262094855,0,0.6359642297029495,0,-0.01596024353057146],[0,-0.2030453379265964,0,-0.674062121193856,0,0.6209725369699299,0,-0.2059451099485159],[0,-0.30939716240391135,0,0.3372912830673158,0,0.5026577385142446,0,0.7729766829870641],[0,-0.37407641066238284,0,-0.06939948862418532,0,-0.08921646187081933,0,-0.335950112901628],[0,0.33151274267584085,0,0.7727996809408069,0,-0.9311027643270791,0,0.15343813691288233],[0,-0.1039359220303595,0,0.38234531600028276,0,-0.6791081996634603,0,-0.06418063724413514],[0,-0.5376818249933422,0,-0.8856747411191463,0,0.2648570626042783,0,0.1592178624123335],[0,0.4613844230771065,0,0.8654236425645649,0,0.8687139521352947,0,0.6015227283351123],[0,0.5843920321203768,0,0.6454833359457552,0,-0.7610067278146744,0,-0.5779007948003709],[0,-0.6655148649588227,0,-0.736388988327235,0,-0.5035283090546727,0,0.8864055452868342],[0,0.9584569442085922,0,0.8369263825006783,0,0.16439046477898955,0,0.16624774225056171],[0,0.41353338956832886,0,0.19697584118694067,0,0.36122331814840436,0,-0.48736922023817897],[0,0.15455495193600655,0,0.3739021667279303,0,-0.05132076935842633,0,-0.916848985478282],[0,0.29687920212745667,0,-0.5981381963938475,0,-0.509291177149862,0,-0.6098793069832027],[0,0.8504294781014323,0,-0.6773311328142881,0,0.8281472977250814,0,-0.47593320021405816],[0,0.9844440193846822,0,-0.8453962686471641,0,-0.23982927342876792,0,-0.5437065027654171],[0,0.18460608134046197,0,0.9441242585889995,0,-0.6166914156638086,0,-0.6332795396447182],[0,0.5470388783141971,0,-0.8173674028366804,0,0.25587826035916805,0,0.9751962437294424],[0,-0.3538602124899626,0,0.452668106649071,0,0.0715743312612176,0,-0.5839798524975777],[0,-0.2417590795084834,0,0.2579955835826695,0,-0.1078488496132195,0,0.7056135325692594],[0,0.30910425540059805,0,-0.8990738741122186,0,0.8088937406428158,0,-0.8799750222824514],[0,-0.8007086468860507,0,-0.08462591143324971,0,0.08319413475692272,0,0.8452108632773161],[0,0.9946376699954271,0,-0.8285455219447613,0,-0.41549440287053585,0,0.7561457846313715],[0,-0.03335875552147627,0,-0.35574628692120314,0,0.2943828492425382,0,-0.5870720595121384],[0,0.19499879144132137,0,0.9505070457234979,0,-0.20487359166145325,0,0.742469415999949],[0,0.8963000639341772,0,-0.7134227096103132,0,-0.4381451210938394,0,-0.986431562807411],[0,0.891746970359236,0,-0.42431881837546825,0,0.5420028707012534,0,0.06557496730238199],[0,-0.13684204034507275,0,-0.2287417510524392,0,-0.5258720358833671,0,-0.8431061878800392],[0,-0.9768470521084964,0,-0.11984257167205215,0,0.6481371121481061,0,-0.023795445915311575],[0,0.1578939827159047,0,-0.9920199755579233,0,0.9171859747730196,0,0.9310292308218777],[0,-0.8068260899744928,0,-0.9215449206531048,0,-0.6279167896136642,0,-0.08906005090102553],[0,-0.44876069854944944,0,-0.7342539420351386,0,-0.6623599790036678,0,-0.7845517816022038],[0,-0.1435980903916061,0,0.1546458168886602,0,0.8397856703959405,0,0.08038972038775682],[0,0.5446901917457581,0,0.8610843517817557,0,-0.7121564671397209,0,0.8821447971276939],[0,-0.006876329891383648,0,0.044624312315136194,0,0.13968649180606008,0,-0.3068873155862093],[0,0.4395863590762019,0,-0.40092406002804637,0,0.2711273799650371,0,0.8910155831836164],[0,-0.34198773140087724,0,-0.08815857442095876,0,-0.6153615764342248,0,-0.3846044261008501],[0,0.03970201453194022,0,-0.30454879999160767,0,0.5140601745806634,0,-0.8458177503198385],[0,0.24020791053771973,0,0.615191129501909,0,0.7929754708893597,0,-0.5258031180128455],[0,-0.18828026298433542,0,0.945977590046823,0,0.45938733825460076,0,-0.2776925452053547],[0,0.7551509556360543,0,0.8574351919814944,0,-0.595399031881243,0,-0.02520780498161912],[0,0.9046587655320764,0,0.7045418652705848,0,0.9342899480834603,0,-0.7314348667860031],[0,0.2814757861196995,0,0.1202753558754921,0,0.34994709119200706,0,-0.2325596292503178],[0,-0.6537505146116018,0,0.19376259064301848,0,-0.3498768685385585,0,0.4502236326225102],[0,-0.07273454964160919,0,0.05405369773507118,0,-0.9596919738687575,0,0.831259923055768],[0,0.8829442886635661,0,0.595235881395638,0,-0.1476502511650324,0,0.9299325165338814],[0,0.12383582955226302,0,-0.642693717032671,0,-0.11725319782271981,0,-0.41633795900270343],[0,0.22494855104014277,0,-0.6948257707990706,0,0.5639664568006992,0,0.3811704805120826],[0,-0.519890442956239,0,0.06825846713036299,0,-0.8023651391267776,0,0.3455663099884987],[0,-0.6998344510793686,0,0.1674159481190145,0,0.060222729574888945,0,0.17034568497911096],[0,0.9698548438027501,0,-0.5237437952309847,0,-0.35827596485614777,0,-0.4059217954054475],[0,-0.8478849087841809,0,-0.07583219558000565,0,-0.6302761919796467,0,-0.9315026984550059],[0,-0.3719608443789184,0,0.6300953351892531,0,-0.9668021951802075,0,0.9206009935587645],[0,0.5582362725399435,0,-0.42441066820174456,0,-0.8056236584670842,0,-0.8541574934497476],[0,0.5190270524471998,0,0.594639353454113,0,-0.844396241940558,0,-0.7826394829899073],[0,-0.08672848669812083,0,0.5864934646524489,0,-0.18406300619244576,0,-0.9038900374434888],[0,0.5631282581016421,0,-0.8730492610484362,0,0.6926230303943157,0,0.7683670111000538],[0,-0.3863955205306411,0,-0.8939609131775796,0,0.5787148703821003,0,-0.7486892510205507],[0,-0.282713838852942,0,0.5458367220126092,0,0.3686229973100126,0,0.4212184580974281],[0,-0.940614078193903,0,-0.6759492973797023,0,-0.8559029758907855,0,0.21172515396028757],[0,-0.09121848223730922,0,0.05296843219548464,0,0.6327986428514123,0,0.5035270769149065],[0,0.19062584917992353,0,0.06854187604039907,0,-0.7489155055955052,0,0.7868347382172942],[0,-0.7144469767808914,0,-0.26516253035515547,0,0.03937403578311205,0,0.758094344753772],[0,0.7588396114297211,0,-0.49373937817290425,0,-0.6100170095451176,0,0.20592032745480537],[0,-0.8603479783050716,0,-0.9590426534414291,0,-0.7372225299477577,0,-0.3388407430611551],[0,0.7560906908474863,0,0.26684197364374995,0,0.44589028134942055,0,0.4467776399105787],[0,0.9473466221243143,0,0.7065072157420218,0,0.4962395392358303,0,-0.8453956418670714],[0,0.6481366460211575,0,0.8892409661784768,0,0.1649296823889017,0,0.8244561138562858],[0,-0.13477335590869188,0,-0.09712757775560021,0,0.7486672843806446,0,-0.5682728788815439],[0,-0.30679679987952113,0,0.6121612722054124,0,-0.42728297831490636,0,-0.5124288150109351],[0,-0.8363826046697795,0,-0.708732642699033,0,-0.7164284130558372,0,-0.09270348260179162],[0,-0.5063796760514379,0,-0.18946370482444763,0,-0.051606387831270695,0,0.931354746222496],[0,-0.9428501389920712,0,-0.07849690411239862,0,0.6883826954290271,0,-0.941326261498034],[0,-0.8215189534239471,0,0.14018069254234433,0,-0.7895927769131958,0,-0.8164766151458025],[0,0.47319698333740234,0,0.542452341876924,0,-0.8530586562119424,0,-0.053798773791641],[0,0.5957176443189383,0,-0.09238691814243793,0,0.830021433532238,0,-0.4840023349970579],[0,0.044732251204550266,0,-0.04164251405745745,0,0.044530305080115795,0,0.5965015972033143],[0,0.20334981614723802,0,-0.48164856852963567,0,0.2512836782261729,0,0.8639533487148583],[0,-0.8416308867745101,0,0.1778138568624854,0,-0.6578951668925583,0,0.8863174882717431],[0,0.4059310555458069,0,-0.03832015348598361,0,-0.6046713814139366,0,0.339501426089555],[0,-0.7319848188199103,0,0.07798406993970275,0,-0.41411556163802743,0,0.5695455642417073],[0,-0.1880867755971849,0,-0.3787375455722213,0,0.7607501829043031,0,0.7393963984213769],[0,0.2854367555119097,0,0.18817429337650537,0,-0.4163899584673345,0,-0.10809473972767591],[0,-0.6407408551312983,0,-0.5407267012633383,0,0.3040669858455658,0,0.13571410905569792],[0,-0.1711010318249464,0,-0.5869601154699922,0,0.15630826447159052,0,-0.7526394641026855],[0,-0.1976083666086197,0,-0.1758073060773313,0,0.6970887971110642,0,-0.3176948269829154],[0,0.490573198068887,0,-0.9017032976262271,0,0.34421775583177805,0,-0.2399469055235386],[0,-0.44260032195597887,0,0.8925668667070568,0,-0.37979296781122684,0,-0.8738910462707281],[0,-0.6267305575311184,0,-0.7939659333787858,0,-0.6344333561137319,0,-0.4141652062535286],[0,0.23148298729211092,0,0.8300771270878613,0,0.9091581231914461,0,-0.6646030233241618],[0,-0.6164475143887103,0,-0.6688489937223494,0,0.19049095455557108,0,0.535210968926549],[0,-0.5366957257501781,0,-0.03743811044842005,0,-0.7438806621357799,0,-0.7643330912105739],[0,-0.4459580071270466,0,0.10220276936888695,0,-0.9562861705198884,0,-0.5594226913526654],[0,-0.3672588737681508,0,-0.36425467627123,0,-0.21884179208427668,0,0.5549731277860701],[0,-0.8769005271606147,0,-0.4096521744504571,0,0.6957316473126411,0,-0.1741627217270434],[0,0.08330819569528103,0,-0.482598761562258,0,-0.7904959721490741,0,0.28047724394127727],[0,-0.5773284621536732,0,0.686625414993614,0,-0.12107839016243815,0,-0.5881196931004524],[0,-0.13562435936182737,0,0.7314666393212974,0,0.6289406744763255,0,-0.686188920866698],[0,-0.6243979781866074,0,0.6637146188877523,0,-0.5094716823659837,0,0.25669006491079926],[0,-0.02186179021373391,0,-0.9588337764143944,0,-0.2727766865864396,0,-0.9742958559654653],[0,0.18449057918041945,0,-0.4305861038155854,0,-0.6699373563751578,0,0.30640603648498654],[0,0.2021242007613182,0,0.43442647298797965,0,0.6138209737837315,0,-0.2470578933134675],[0,0.9553820705041289,0,0.895522478967905,0,-0.7346505327150226,0,-0.7005387516692281],[0,0.15567847853526473,0,0.5291964360512793,0,-0.6817583651281893,0,0.0672211879864335],[0,-0.8316334122791886,0,-0.5782181574031711,0,-0.958762651309371,0,-0.7549672620370984],[0,0.5526460357941687,0,-0.8016695734113455,0,-0.7846054271794856,0,-0.46130092395469546],[0,-0.6791164735332131,0,-0.02060226257890463,0,-0.07742466405034065,0,0.3238049726933241],[0,-0.6581992688588798,0,-0.5100879506208003,0,0.3168302420526743,0,0.49566473811864853],[0,-0.01576216332614422,0,-0.4779064697213471,0,0.6413420913740993,0,-0.38781981635838747],[0,0.721813712734729,0,-0.4034587340429425,0,0.9015639116987586,0,0.13729077158495784],[0,-0.2615762772038579,0,-0.8965990510769188,0,0.5646506799384952,0,0.31436517694965005],[0,-0.04700857447460294,0,0.5796037139371037,0,-0.946733130607754,0,0.11752088507637382],[0,0.8432464194484055,0,0.6176664591766894,0,0.9670883775688708,0,0.7156759235076606],[0,-0.6704343166202307,0,-0.29637404065579176,0,0.8809782504104078,0,0.9183643003925681],[0,-0.38019856344908476,0,-0.5343399071134627,0,-0.09899422945454717,0,0.6689093885943294],[0,-0.4475435046479106,0,0.8070932696573436,0,-0.6312012537382543,0,-0.5782447131350636],[0,-0.1576644009910524,0,0.5307294768281281,0,-0.050324526615440845,0,-0.8889723238535225],[0,-0.29167285235598683,0,-0.6051289928145707,0,0.7888892339542508,0,0.1304108896292746],[0,0.09687553904950619,0,0.03434500750154257,0,-0.8739844914525747,0,0.5610542511567473],[0,0.46998103242367506,0,0.23405842063948512,0,-0.5474733635783195,0,0.750192797742784],[0,-0.39321306720376015,0,-0.4179284176789224,0,-0.5707982764579356,0,0.8043361511081457],[0,-0.4356047264300287,0,0.6062362748198211,0,-0.22859121905639768,0,-0.3669707216322422],[0,-0.5561858732253313,0,0.07119349809363484,0,-0.1629642895422876,0,-0.8765009394846857],[0,0.9184013782069087,0,-0.591340244282037,0,0.9041461781598628,0,-0.5150722628459334],[0,0.3224160620011389,0,-0.5714991358108819,0,0.6031571081839502,0,0.4352691313251853],[0,-0.9148937929421663,0,0.4491295567713678,0,-0.026704330928623676,0,0.010527389124035835],[0,-0.8977281674742699,0,-0.13192873494699597,0,0.12047373130917549,0,-0.9771161833778024],[0,-0.12468764558434486,0,-0.4362594475969672,0,-0.6663792738690972,0,-0.7775208102539182],[0,0.34488591831177473,0,-0.634116433095187,0,-0.659566551912576,0,0.2680911929346621],[0,0.6359423506073654,0,-0.27757102018222213,0,-0.637896029278636,0,-0.12084629246965051],[0,-0.356854603625834,0,-0.5024425387382507,0,0.6492704581469297,0,0.3149313423782587],[0,-0.12513513350859284,0,0.8622658932581544,0,-0.7324566151946783,0,0.186161273624748],[0,0.9132438646629453,0,-0.25869868975132704,0,0.7626750748604536,0,0.880566768348217],[0,-0.7327561997808516,0,-0.8276633112691343,0,-0.028290297370404005,0,-0.08838509116321802],[0,-0.4315192666836083,0,0.0579891218803823,0,0.2709744176827371,0,-0.7450715391896665],[0,-0.2872456260956824,0,-0.40319188637658954,0,0.6631683497689664,0,-0.3460312820971012],[0,0.23874129354953766,0,-0.4790153633803129,0,-0.6658898228779435,0,-0.5640629553236067],[0,-0.7217153655365109,0,-0.38602784695103765,0,0.07941838959231973,0,0.03117072256281972],[0,0.9864200665615499,0,-0.31740465480834246,0,-0.2704321085475385,0,0.0040385108441114426],[0,-0.3023198517039418,0,-0.36932685039937496,0,-0.770317523740232,0,0.917185868602246],[0,-0.3100393582135439,0,-0.6419605403207242,0,0.3999803038313985,0,-0.7875697524286807],[0,0.20013019815087318,0,-0.026518015190958977,0,0.5417975410819054,0,-0.8423920483328402],[0,0.8438103958033025,0,-0.9152411730028689,0,-0.3163846046663821,0,0.7169685089029372],[0,0.9505460532382131,0,0.4982714429497719,0,-0.29969984106719494,0,0.5626398366875947],[0,0.5125135774724185,0,0.6772140208631754,0,-0.40920724067837,0,-0.6456951969303191],[0,0.19991030730307102,0,-0.8663136376999319,0,0.15857943519949913,0,0.29598461650311947],[0,-0.0035330308601260185,0,0.9436783590354025,0,0.9660792029462755,0,0.6829859185963869],[0,0.3673469740897417,0,-0.5434902161359787,0,-0.43963775504380465,0,-0.6819881522096694],[0,-0.9910362139344215,0,0.6671340106986463,0,-0.015657035633921623,0,-0.47840017499402165],[0,0.6949665346182883,0,0.14429439743980765,0,0.9157298989593983,0,-0.2161729340441525],[0,-0.4333294006064534,0,0.005902322009205818,0,-0.7494889004155993,0,-0.38358622835949063],[0,0.8229976971633732,0,-0.9153297748416662,0,0.33186127012595534,0,0.3270909208804369],[0,-0.31811222434043884,0,0.9986558086238801,0,-0.5193141321651638,0,0.09042308572679758],[0,0.3289177021943033,0,0.5157667621970177,0,-0.27728971000760794,0,0.9049887438304722],[0,-0.952887091320008,0,-0.018402123358100653,0,0.5545503729954362,0,-0.9068844323046505],[0,-0.29871001839637756,0,-0.8691750392317772,0,-0.8657940439879894,0,-0.9865608960390091],[0,0.40245029889047146,0,0.14645558269694448,0,-0.13050000788643956,0,-0.6336378692649305],[0,0.13021702831611037,0,-0.3909606598317623,0,0.8145831641741097,0,-0.40996178798377514],[0,-0.5485314610414207,0,0.6347084753215313,0,-0.5323783783242106,0,0.06101541826501489],[0,-0.8289167331531644,0,0.7719008335843682,0,-0.4023372191004455,0,-0.12438944540917873],[0,0.46399900084361434,0,-0.6983143133111298,0,-0.195946023799479,0,-0.18704965896904469],[0,0.2285338481888175,0,-0.6407665922306478,0,-0.5381103698164225,0,-0.9017367418855429],[0,0.5238909567706287,0,-0.007419699337333441,0,-0.14115806063637137,0,-0.04093746421858668],[0,-0.623762936796993,0,0.08779227221384645,0,0.06332203140482306,0,0.47060113446787],[0,0.5511376336216927,0,-0.8088981062173843,0,0.8648743368685246,0,0.47688734671100974],[0,-0.816402489785105,0,-0.6159910093992949,0,0.25936929089948535,0,-0.5603512241505086],[0,-0.2912755152210593,0,0.03883972903713584,0,-0.8685831348411739,0,-0.7339409948326647],[0,0.5182175626978278,0,0.4563369117677212,0,0.9535958473570645,0,0.6086568785831332],[0,-0.6235396843403578,0,-0.942816352006048,0,-0.09379151836037636,0,0.7493087169714272],[0,-0.9961634147912264,0,0.7755466867238283,0,0.3292650389485061,0,-0.601502523291856],[0,0.4373211073689163,0,-0.21544385189190507,0,-0.6254820595495403,0,0.8590484503656626],[0,-0.7279792702756822,0,-0.7252690116874874,0,0.3234391985461116,0,0.8876671539619565],[0,0.7978176777251065,0,0.6344358478672802,0,0.2665151967667043,0,0.13840589858591557],[0,0.006683314219117165,0,0.32701991917565465,0,-0.3605756042525172,0,-0.41047751158475876],[0,0.8072507935576141,0,0.8644856452010572,0,-0.7401462243869901,0,-0.8069130489602685],[0,-0.6421880680136383,0,-0.47853297367691994,0,-0.2679987130686641,0,-0.4532376606948674],[0,-0.6189475492574275,0,0.2688649157062173,0,-0.10857996111735702,0,-0.3478692155331373],[0,-0.6900045000948012,0,-0.7904322375543416,0,0.0350967007689178,0,0.26220821496099234],[0,0.5064971395768225,0,-0.5661302576772869,0,-0.03605595650151372,0,0.4814039911143482],[0,-0.9538861718028784,0,-0.07234023371711373,0,-0.4822262739762664,0,-0.3297783834859729],[0,0.5880862004123628,0,0.4670460419729352,0,-0.26852626353502274,0,0.7487049140036106],[0,0.2205025525763631,0,0.26163772167637944,0,-0.08526136865839362,0,-0.30703916773200035],[0,0.006858418229967356,0,0.4334469959139824,0,-0.5400742632336915,0,0.4535544831305742],[0,-0.08743947325274348,0,-0.7312613623216748,0,-0.7968353223986924,0,-0.3372354293242097],[0,0.9919307483360171,0,0.2352600027807057,0,0.928016004152596,0,-0.20413441490381956],[0,0.5380326113663614,0,0.5175122492946684,0,-0.9907125104218721,0,0.8569028242491186],[0,-0.9804761274717748,0,-0.14534030994400382,0,0.7324183089658618,0,-0.9714577556587756],[0,-0.2316658552736044,0,0.2649226784706116,0,-0.21594001585617661,0,-0.29308661725372076],[0,-0.20873528998345137,0,0.13214433565735817,0,0.7199456305243075,0,0.7492150678299367],[0,-0.5815426590852439,0,-0.5563181284815073,0,-0.776892906986177,0,-0.332077250815928],[0,-0.2935745879076421,0,-0.4182364125736058,0,0.8563574957661331,0,0.11745642311871052],[0,0.23074605409055948,0,-0.12650257721543312,0,-0.024798745289444923,0,-0.321092143189162],[0,0.20274547161534429,0,-0.21747264778241515,0,-0.47149635292589664,0,-0.16945583233609796],[0,0.6114456127397716,0,0.3669694704003632,0,0.7930132281035185,0,-0.03727008868008852],[0,0.3239418067969382,0,0.3288270737975836,0,0.9079087846912444,0,-0.5043295701034367],[0,-0.8268998502753675,0,0.8612922742031515,0,0.3424167186021805,0,-0.928399623837322],[0,-0.33584935776889324,0,0.37640012009069324,0,0.09673302434384823,0,-0.9641382517293096],[0,-0.7128508486784995,0,-0.5009297784417868,0,-0.682823265902698,0,-0.7617265917360783],[0,-0.33172357361763716,0,-0.1553113772533834,0,-0.601059119682759,0,-0.030116033740341663],[0,0.5158879025839269,0,-0.8921746616251767,0,-0.9656080161221325,0,0.8020672127604485],[0,0.7943237735889852,0,-0.9130918895825744,0,0.8444871371611953,0,-0.6666210433468223],[0,-0.8333554486744106,0,-0.1505565564148128,0,-0.44493879470974207,0,0.6756966495886445],[0,0.5568041088990867,0,-0.7021305141970515,0,-0.9002272640354931,0,0.03347274987027049],[0,-0.9054773333482444,0,0.09249882027506828,0,0.977771082893014,0,-0.11460627894848585],[0,-0.14623207226395607,0,0.24433294404298067,0,-0.23434520047158003,0,-0.4209462362341583],[0,-0.6183171994052827,0,-0.011591546703130007,0,0.7244189810007811,0,-0.7589739761315286],[0,-0.7270282413810492,0,0.8077450934797525,0,0.8620408335700631,0,0.4605279406532645],[0,-0.13459996227174997,0,-0.016187171451747417,0,-0.7877579932101071,0,-0.7953240917995572],[0,-0.9370405981317163,0,0.22966159135103226,0,0.06184475589543581,0,0.44006707100197673],[0,-0.3999035023152828,0,-0.2109688948839903,0,0.5576136219315231,0,0.6648158417083323],[0,0.9195896983146667,0,-0.8315748828463256,0,-0.8982316390611231,0,-0.31318606063723564],[0,-0.7252904372289777,0,0.02088555647060275,0,-0.46823538979515433,0,0.820014133118093],[0,0.5026890737935901,0,0.022899954579770565,0,-0.15759030357003212,0,-0.18637855350971222],[0,-0.37723421305418015,0,-0.8898496134206653,0,-0.22755083395168185,0,-0.9875585245899856],[0,0.36572839319705963,0,0.18065257696434855,0,0.9823311143554747,0,0.9994921125471592],[0,0.34209615318104625,0,0.0912014371715486,0,-0.6531929527409375,0,0.7398349684663117],[0,-0.628815361764282,0,-0.6822735979221761,0,-0.20202968316152692,0,-0.1303624464198947],[0,0.47558560548350215,0,-0.6545185227878392,0,-0.1559154619462788,0,-0.4015811998397112],[0,-0.4419536651112139,0,0.9763413704931736,0,0.22401730762794614,0,0.45460196398198605],[0,-0.07792876102030277,0,-0.7448953036218882,0,0.49495106004178524,0,-0.6712396875955164],[0,0.7249720031395555,0,-0.7659385004080832,0,-0.19754756847396493,0,0.37817812198773026],[0,0.6182670453563333,0,0.8750782273709774,0,-0.7314265901222825,0,0.1255417107604444],[0,0.9588038097135723,0,-0.9623086908832192,0,-0.87417151639238,0,0.9372980096377432],[0,-0.5703182755969465,0,-0.5925049805082381,0,-0.8892203778959811,0,-0.9039717433042824],[0,0.5541655183769763,0,-0.542657517362386,0,-0.49464415991678834,0,0.8553006029687822],[0,0.8572859256528318,0,-0.9374315403401852,0,-0.8378231329843402,0,-0.7579047251492739],[0,-0.2507764953188598,0,-0.29653249168768525,0,0.8156188605353236,0,0.8552414048463106],[0,0.5737360040657222,0,0.37592779425904155,0,-0.5719987228512764,0,0.5804346306249499],[0,0.9875492011196911,0,0.8868359229527414,0,-0.2611360368318856,0,0.9799848701804876],[0,-0.38964907824993134,0,0.19382531102746725,0,0.5119861857965589,0,0.6761113703250885],[0,0.07299391971901059,0,-0.3122154683806002,0,0.6932059666141868,0,0.12591074965894222],[0,0.37484981026500463,0,0.8095996384508908,0,0.34937737695872784,0,-0.6356680509634316],[0,-0.5406726356595755,0,0.30550772277638316,0,-0.21243451815098524,0,-0.43104897579178214],[0,-0.1694718045182526,0,0.9497618218883872,0,-0.9930029385723174,0,-0.00971733033657074],[0,-0.6664167973212898,0,0.9714910741895437,0,0.9377321894280612,0,0.6360811446793377],[0,0.1396363298408687,0,0.2762378784827888,0,-0.5280495597980917,0,0.868225809186697],[0,0.5935421762987971,0,-0.961728161200881,0,0.36462761415168643,0,-0.16627119202166796],[0,-0.135905172675848,0,0.29673246992751956,0,-0.8416206752881408,0,0.7167612528428435],[0,-0.2147369864396751,0,0.6964757451787591,0,0.6578553798608482,0,0.5117580499500036],[0,-0.2132812705822289,0,0.012254671193659306,0,0.9755271123722196,0,-0.8453059885650873],[0,-0.8482606704346836,0,-0.4717981587164104,0,0.4965041000396013,0,0.26308667939156294],[0,-0.2171423533000052,0,0.7947373650968075,0,0.7492615072987974,0,0.8334029261022806],[0,-0.4416230604983866,0,0.47897588508203626,0,-0.5152931250631809,0,0.7185226241126657],[0,-0.5254544396884739,0,0.8098462824709713,0,-0.1858112015761435,0,-0.6275021620094776],[0,0.6202634675428271,0,-0.8793814964592457,0,-0.9550843653269112,0,-0.8059433363378048],[0,-0.7179978960193694,0,0.4642017283476889,0,0.7608597399666905,0,0.3685287609696388],[0,0.11113390186801553,0,-0.7807587655261159,0,0.6144901285879314,0,0.24003778398036957],[0,0.7917921934276819,0,-0.7968948897905648,0,0.22688643774017692,0,-0.5056171542964876],[0,0.6773240217007697,0,-0.3230001498013735,0,-0.684973303694278,0,-0.3051216406747699],[0,0.8319494482129812,0,0.44907239079475403,0,-0.5155257591977715,0,0.6672584246844053],[0,0.4869588748551905,0,-0.9389219935983419,0,0.5706237801350653,0,0.4379776706919074],[0,-0.735644415486604,0,-0.4852232737466693,0,0.6964044263586402,0,0.7701094821095467],[0,-0.5995405400171876,0,0.6679676463827491,0,0.8711496274918318,0,0.04294302361086011],[0,-0.9831843255087733,0,0.7424175068736076,0,0.8668991993181407,0,0.5507022235542536],[0,0.10044587310403585,0,-0.045994983054697514,0,0.922346802894026,0,-0.005055596120655537],[0,0.4905779189430177,0,-0.5357394614256918,0,0.4919913033954799,0,-0.28659136360511184],[0,0.34935963014140725,0,0.17407040018588305,0,-0.31064193276688457,0,0.41613105963915586],[0,-0.6754680997692049,0,-0.7188333715312183,0,-0.2770777144469321,0,0.2766656572930515],[0,-0.14019383862614632,0,-0.8139837901107967,0,0.42964011430740356,0,0.08271898655220866],[0,0.20565193658694625,0,0.5928164622746408,0,-0.948294616304338,0,0.8446688405238092],[0,-0.3064642916433513,0,0.16439378028735518,0,-0.8495543943718076,0,0.5761335454881191],[0,0.7000678749755025,0,-0.2951254863291979,0,0.26600611954927444,0,-0.6248088907450438],[0,-0.7384275891818106,0,-0.27280597016215324,0,0.34189317002892494,0,-0.4458445138297975],[0,-0.19528307672590017,0,0.7092263707891107,0,-0.518771416042,0,-0.9285203549079597],[0,0.7268723831512034,0,0.1547796675004065,0,0.33712578658014536,0,-0.901472351513803],[0,-0.8191973743960261,0,0.5325831072404981,0,0.3876776718534529,0,0.9955445192754269],[0,-0.784304081927985,0,0.919250204693526,0,0.909049466252327,0,0.5720600713975728],[0,0.8838083194568753,0,0.13708686735481024,0,0.9452560190111399,0,0.2817902979440987],[0,-0.5327789476141334,0,-0.5897575970739126,0,0.8913194430060685,0,-0.8660527924075723],[0,0.6731261727400124,0,0.2940073315985501,0,-0.10718600312247872,0,-0.6890585641376674],[0,-0.6908674114383757,0,-0.17264828365296125,0,0.4155168076977134,0,0.4889983255416155],[0,0.4926811861805618,0,-0.6172956735827029,0,0.7849128455854952,0,0.6086728954687715],[0,-0.531148049980402,0,-0.8038772074505687,0,0.1566345556639135,0,-0.9578712382353842],[0,0.458108167629689,0,-0.2779195406474173,0,0.15422524698078632,0,0.5769592770375311],[0,0.8729191799648106,0,0.22172277932986617,0,0.13574182195588946,0,0.9212400591932237],[0,0.8550687287934124,0,-0.18498610937967896,0,0.023351816926151514,0,0.7124700779095292],[0,0.6528154122643173,0,0.3648612182587385,0,-0.6972994706593454,0,-0.28766917530447245],[0,-0.6151387579739094,0,-0.11843887018039823,0,-0.8539352929219604,0,-0.08280151104554534],[0,0.5513438321650028,0,0.24335267441347241,0,0.16362107684835792,0,-0.07983599230647087],[0,-0.23659410094842315,0,0.7804358205758035,0,0.04349004337564111,0,-0.5525904106907547],[0,-0.9877404780127108,0,-0.3737581199966371,0,0.31907137064263225,0,0.2661300548352301],[0,0.5222799642942846,0,-0.8188102748245001,0,0.6454262854531407,0,0.5689085894264281],[0,-0.487933442927897,0,-0.10397512651979923,0,-0.21470560738816857,0,-0.5564469788223505],[0,0.9554844321683049,0,0.48215898172929883,0,0.8454155707731843,0,0.8700476652011275],[0,-0.40110878087580204,0,-0.6758621106855571,0,0.8280216581188142,0,-0.28795068664476275],[0,-0.9298594007268548,0,-0.9998879968188703,0,-0.8409502804279327,0,-0.6312236287631094],[0,-0.4319397425279021,0,-0.3186438442207873,0,-0.2747278935275972,0,-0.7640263792127371],[0,-0.32040180172771215,0,-0.29268382862210274,0,-0.3825346832163632,0,0.04976207623258233],[0,0.7438214994035661,0,-0.3568596560508013,0,0.43577753379940987,0,0.7156937373802066],[0,0.7631469559855759,0,0.819879543967545,0,0.8031279928982258,0,-0.9114421079866588],[0,0.681088094599545,0,-0.033221994526684284,0,-0.006598408333957195,0,-0.6340751736424863],[0,0.7759681968018413,0,0.2372953500598669,0,0.6484266817569733,0,-0.9535809066146612],[0,0.1083026910200715,0,0.9893563888035715,0,0.6323422132991254,0,0.6786731611937284],[0,-0.49332528933882713,0,0.8047319459728897,0,-0.0010938863269984722,0,0.8125732699409127],[0,0.5669311294332147,0,-0.6884758812375367,0,-0.7923420746810734,0,0.48543995106592774],[0,0.1659071478061378,0,0.8354013087227941,0,0.20040237717330456,0,0.7478091325610876],[0,-0.0994318937882781,0,-0.0835179672576487,0,-0.4823957299813628,0,-0.2364614442922175],[0,0.432242342736572,0,-0.6832062755711377,0,0.9461279287934303,0,-0.3328021252527833],[0,-0.22084878850728273,0,0.734894035384059,0,0.8740064054727554,0,0.4804863394238055],[0,0.5703912549652159,0,0.09381091734394431,0,0.9981374712660909,0,0.11555926688015461],[0,-0.5827377205714583,0,0.4946483615785837,0,0.21569047216325998,0,-0.9415773991495371],[0,-0.8568064318969846,0,0.24466721154749393,0,0.4468621788546443,0,0.2853407906368375],[0,0.43360479129478335,0,-0.28005694039165974,0,-0.6090407813899219,0,0.8555506151169538],[0,0.5894990609958768,0,-0.5748044052161276,0,-0.6636750004254282,0,0.11743876617401838],[0,0.6433258941397071,0,-0.25363637786358595,0,0.7904874132946134,0,0.7596142953261733],[0,-0.2646074164658785,0,0.8150116847828031,0,0.9658097634091973,0,0.7436185078695416],[0,-0.1442857370711863,0,-0.6632989244535565,0,0.09279141016304493,0,-0.07528618490323424],[0,0.5543394307605922,0,0.6160510298795998,0,-0.9476024387404323,0,0.5617912565357983],[0,0.29953133314847946,0,0.23831609217450023,0,0.49974865885451436,0,0.12936429027467966],[0,0.8685872396454215,0,-0.6707833451218903,0,-0.10909189470112324,0,0.0012664347887039185],[0,-0.44567863969132304,0,-0.5261322683654726,0,-0.3888785704039037,0,0.4121335349045694],[0,-0.3549822666682303,0,0.35975821129977703,0,0.591639706864953,0,0.32225205283612013],[0,-0.6328925946727395,0,0.33711151918396354,0,-0.37570441653952,0,0.3020118735730648],[0,-0.43537874380126595,0,0.5091211502440274,0,0.7788755549117923,0,-0.8855935460887849],[0,-0.11333179846405983,0,-0.2687103576026857,0,0.40456520300358534,0,-0.2909972476772964],[0,0.6295730075798929,0,0.2728116153739393,0,-0.8480156753212214,0,0.6281895404681563],[0,-0.37081194994971156,0,-0.44143571658059955,0,-0.9292126279324293,0,0.48018055222928524],[0,0.7699798406101763,0,0.9702005940489471,0,0.6140763531439006,0,0.7818387728184462],[0,-0.625104742590338,0,0.10775238508358598,0,0.4856811217032373,0,0.5991836660541594],[0,0.3752142316661775,0,0.05156890721991658,0,-0.5619274992495775,0,-0.6498158308677375],[0,0.31722191348671913,0,-0.8514571450650692,0,-0.3736407500691712,0,0.727050515357405],[0,-0.9022579593583941,0,-0.3245520982891321,0,-0.5895268218591809,0,-0.5411902754567564],[0,-0.046359178610146046,0,0.6093389601446688,0,-0.07649873802438378,0,-0.7711072252131999],[0,0.7788625918328762,0,-0.4061162965372205,0,-0.43436702201142907,0,-0.17059680307283998],[0,0.5947804902680218,0,-0.9455457404255867,0,-0.6877198680303991,0,0.8664864269085228],[0,-0.12154781958088279,0,0.6790554169565439,0,0.26704220892861485,0,0.6550851631909609],[0,0.948932025115937,0,-0.5165863670408726,0,0.45251840678974986,0,0.6803219770081341],[0,0.17537017725408077,0,-0.3789611333049834,0,0.400875938590616,0,-0.40295798890292645],[0,0.3403384773992002,0,-0.9221887942403555,0,-0.01873784838244319,0,0.5684059639461339],[0,-0.15310145961120725,0,0.12768058944493532,0,0.2035572794266045,0,-0.1511776177212596],[0,0.878886426333338,0,-0.5428802808746696,0,0.01953110145404935,0,-0.06912483274936676],[0,0.6210023737512529,0,0.1933178468607366,0,0.4772737845778465,0,-0.3118507149629295],[0,0.3341461466625333,0,0.17956602899357677,0,-0.5441385116428137,0,-0.48142045829445124],[0,-0.38073678920045495,0,-0.12572721811011434,0,0.07295301463454962,0,-0.2570552518591285],[0,0.035498964600265026,0,-0.6667373524978757,0,-0.5923589374870062,0,-0.07963278191164136],[0,0.15320682479068637,0,0.9752441914752126,0,-0.521894299890846,0,0.40502739464864135],[0,0.8395135723985732,0,0.9436885719187558,0,-0.5200481400825083,0,0.9703453290276229],[0,-0.6784986057318747,0,0.4162653279490769,0,-0.1291778669692576,0,0.39632956497371197],[0,-0.3987792460247874,0,-0.008527435828000307,0,-0.7525323224253953,0,0.5447263158857822],[0,0.35001871502026916,0,-0.5807369067333639,0,0.20126513252034783,0,0.7123342901468277],[0,-0.9705793261528015,0,0.35284297354519367,0,-0.8631374360993505,0,-0.4093186790123582],[0,-0.1904203137382865,0,0.2701073628850281,0,-0.010321295820176601,0,0.5328285219147801],[0,-0.9256913061253726,0,0.32364791678264737,0,0.8746205219067633,0,0.4946619071997702],[0,-0.4020418184809387,0,-0.6252862811088562,0,-0.17416104674339294,0,0.5514262509532273],[0,-0.24865479115396738,0,-0.19909656327217817,0,-0.05696653574705124,0,0.5039469501934946],[0,-0.7522450229153037,0,-0.8512836121954024,0,-0.3501200098544359,0,-0.6294113304466009],[0,-0.6968114329501987,0,0.6363138104788959,0,-0.27316249441355467,0,-0.24540333356708288],[0,0.2634319416247308,0,-0.9869489772245288,0,0.9101737602613866,0,0.06771154655143619],[0,0.4434519847854972,0,0.058328441344201565,0,-0.7450041505508125,0,0.3504642862826586],[0,0.9579690583050251,0,0.18332090880721807,0,0.35982963582500815,0,-0.561173727735877],[0,-0.15616761380806565,0,-0.09154791850596666,0,0.2345150550827384,0,-0.19989727111533284],[0,-0.6999606019817293,0,0.3424621312879026,0,0.9150190325453877,0,0.40728054475039244],[0,-0.4697588081471622,0,-0.8151239468716085,0,-0.8528507053852081,0,-0.06240287655964494],[0,0.7333040717057884,0,0.38697921205312014,0,-0.38026393996551633,0,0.06282122060656548],[0,0.11473492020741105,0,0.9364369185641408,0,-0.6057809446938336,0,-0.4398687439970672],[0,-0.136373033747077,0,-0.28374203154817224,0,-0.38287538615986705,0,-0.9665833967737854],[0,0.40227697929367423,0,0.10905736964195967,0,0.6116045620292425,0,0.5357303819619119],[0,-0.7998812012374401,0,-0.9122796501033008,0,-0.12527941493317485,0,-0.03759636124596],[0,0.30372171895578504,0,0.14192088600248098,0,0.612988053355366,0,-0.6880066259764135],[0,-0.9723951006308198,0,-0.19360647490248084,0,-0.48808553954586387,0,0.7556811235845089],[0,0.9757789634168148,0,0.65971290320158,0,-0.6486304425634444,0,0.8243679851293564],[0,0.8019243041053414,0,-0.6583839789964259,0,-0.419717681594193,0,-0.9883617055602372],[0,-0.5137436003424227,0,0.3312717145308852,0,0.7285599787719548,0,-0.635712256655097],[0,0.7284780596382916,0,-0.2082679490558803,0,-0.9394204998388886,0,-0.07915054773911834],[0,-0.881775391753763,0,-0.5071041770279408,0,-0.35074287885800004,0,0.3135943445377052],[0,-0.38281601946800947,0,0.36352012725546956,0,-0.21964077278971672,0,-0.3467374797910452],[0,-0.5061305207200348,0,-0.49626142252236605,0,-0.5503823487088084,0,-0.9876066907308996],[0,0.27564725605770946,0,0.9804874341934919,0,0.2640734096057713,0,0.45961922826245427],[0,0.4116196553222835,0,0.12280759355053306,0,-0.30488758301362395,0,0.40313784033060074],[0,0.04708646330982447,0,0.3081551790237427,0,0.6062205890193582,0,-0.1124299275688827],[0,0.8766450942493975,0,0.8990925000980496,0,-0.48763785464689136,0,-0.574858168605715],[0,-0.35810400266200304,0,0.7862542159855366,0,-0.9219653564505279,0,-0.4090787605382502],[0,-0.5821992494165897,0,-0.9169332943856716,0,-0.2210525432601571,0,0.11083996528759599],[0,-0.10332696232944727,0,-0.6159897590987384,0,-0.1476763146929443,0,-0.6624890808016062],[0,-0.4334281119517982,0,0.7661293959245086,0,-0.7115993951447308,0,-0.8278731862083077],[0,-0.9017501510679722,0,0.4430847796611488,0,-0.15854161884635687,0,0.3649823209270835],[0,0.19178399490192533,0,0.9417512686923146,0,-0.25062462501227856,0,0.26848460687324405],[0,-0.000645950436592102,0,0.888467560056597,0,-0.5148950964212418,0,-0.9420230239629745],[0,0.24775022454559803,0,0.46674764854833484,0,-0.9639104139059782,0,0.7362940306775272],[0,0.7850973317399621,0,-0.5045619066804647,0,-0.20704923942685127,0,-0.6985080982558429],[0,0.41043188236653805,0,0.33037608163431287,0,-0.07024407899007201,0,0.21425241604447365],[0,0.2732717669568956,0,0.4250082476064563,0,-0.6554042301140726,0,-0.6206653057597578],[0,-0.03994815703481436,0,0.3902682848274708,0,-0.7880920236930251,0,-0.5371899376623333],[0,-0.16520553827285767,0,-0.31210473645478487,0,-0.16669891634956002,0,-0.5498629184439778],[0,0.30537009658291936,0,-0.9121213830076158,0,-0.14414784405380487,0,-0.9426644900813699],[0,0.3616693941876292,0,0.5837247855961323,0,-0.665551776997745,0,0.7510412465780973],[0,-0.6725283763371408,0,0.9569784626364708,0,0.19282411504536867,0,0.5333142285235226],[0,0.47155702440068126,0,0.6664007045328617,0,0.03267587861046195,0,-0.6887759640812874],[0,-0.7966267741285264,0,0.5541112096980214,0,-0.04617968527600169,0,-0.15762796998023987],[0,0.1214694706723094,0,-0.5819809231907129,0,-0.586697930470109,0,-0.9392862971872091],[0,0.3248465838842094,0,-0.774989833123982,0,-0.48814707435667515,0,0.3147499142214656],[0,0.16358165349811316,0,0.2671271772123873,0,-0.2821795060299337,0,-0.806151857599616],[0,0.12366850022226572,0,0.08491279883310199,0,0.13166864169761539,0,-0.9570662444457412],[0,-0.6317744767293334,0,0.7527096155099571,0,0.7044918495230377,0,-0.5503940586932003],[0,0.65017478633672,0,-0.9208636577241123,0,0.32534028124064207,0,0.8495446797460318],[0,-0.03070351853966713,0,0.04630588926374912,0,-0.4511060626246035,0,0.22514133853837848],[0,0.22321966104209423,0,-0.25360144348815084,0,-0.16310243075713515,0,-0.03409202815964818],[0,0.7496615583077073,0,-0.8936270428821445,0,0.1931386231444776,0,0.4302286570891738],[0,0.21354528795927763,0,0.702201777137816,0,0.3603800814598799,0,0.5057920939289033],[0,0.07765355333685875,0,-0.3425833322107792,0,0.5320478831417859,0,0.43456886569038033],[0,-0.36657539708539844,0,-0.8430147222243249,0,0.6011862484738231,0,0.670015100389719],[0,-0.3163683321326971,0,-0.8409731248393655,0,-0.7195318434387445,0,-0.7308878130279481],[0,-0.14196221437305212,0,0.8403214416466653,0,0.45357071654871106,0,-0.2601367183960974],[0,0.2857049601152539,0,0.5100778434425592,0,-0.9877209146507084,0,0.06188668729737401],[0,-0.6446356824599206,0,-0.5692746774293482,0,0.34468094864860177,0,0.9144640462473035],[0,-0.04806658672168851,0,-0.8189710811711848,0,0.5345502286218107,0,0.30773544823750854],[0,-0.9255169625394046,0,0.21276706270873547,0,0.8494674074463546,0,0.8708076095208526],[0,0.7959428699687123,0,-0.9202782916836441,0,0.5430260370485485,0,0.7478476758114994],[0,-0.47029694775119424,0,-0.29135574866086245,0,-0.16663090093061328,0,0.5711953323334455],[0,-0.006119344849139452,0,0.8750338032841682,0,-0.9054465810768306,0,-0.9757897462695837],[0,-0.7589965350925922,0,0.19311044039204717,0,0.18897039210423827,0,-0.8279952127486467],[0,0.8398646796122193,0,-0.9871512176468968,0,0.6098265498876572,0,0.16539086727425456],[0,-0.47058419045060873,0,0.06090093124657869,0,0.5395755376666784,0,0.47378162620589137],[0,0.5398708013817668,0,-0.5799435013905168,0,-0.7805376965552568,0,0.46468819538131356],[0,0.22338678920641541,0,0.6925940276123583,0,-0.8777110003866255,0,0.7116609998047352],[0,0.9268166511319578,0,-0.09838875802233815,0,0.6475303210318089,0,0.36283985199406743],[0,-0.7582127638161182,0,0.5074963015504181,0,0.8547395071946084,0,-0.9921278739348054],[0,-0.1432339888997376,0,0.7885783077217638,0,-0.20207464275881648,0,0.8373935637064278],[0,-0.5397082706913352,0,0.4215552154928446,0,0.24313232814893126,0,-0.38196426117792726],[0,0.37622624123468995,0,0.7379094129428267,0,0.3870786437764764,0,0.31817404041066766],[0,0.9123018849641085,0,0.6303979605436325,0,0.9677320816554129,0,-0.45481483405455947],[0,0.6366978641599417,0,0.15900068217888474,0,0.24327385472133756,0,-0.36401260923594236],[0,-0.751015402842313,0,-0.22967643663287163,0,-0.9600456142798066,0,0.9450401500798762],[0,0.7694566235877573,0,0.922752857208252,0,-0.5282454374246299,0,0.3996792444959283],[0,-0.7505627851933241,0,0.2084965710528195,0,0.3610845906659961,0,-0.24826141819357872],[0,-0.5362891433760524,0,0.9935392402112484,0,0.9897294719703496,0,-0.2896378277800977],[0,0.30515513848513365,0,0.4204734801314771,0,0.9610670381225646,0,-0.4988226043060422],[0,-0.9354932326823473,0,0.7523127016611397,0,0.5339176570996642,0,0.4775242367759347],[0,0.8019405966624618,0,-0.05799781810492277,0,-0.3163506998680532,0,0.8165322598069906],[0,0.5550389736890793,0,0.8541424660943449,0,-0.18007007660344243,0,0.0831703171133995],[0,0.5398914646357298,0,-0.22232076385989785,0,0.8170391796156764,0,0.9459035713225603],[0,0.32137878285720944,0,-0.9846812235191464,0,-0.5047339703887701,0,0.09301043162122369],[0,-0.1275458438321948,0,-0.1384633225388825,0,-0.11666234163567424,0,0.1801655194722116],[0,-0.49280026089400053,0,-0.4601538782007992,0,-0.24361060885712504,0,-0.46932530170306563],[0,0.8103987378999591,0,0.2858173637650907,0,-0.35498278122395277,0,-0.5119191333651543],[0,0.6637858063913882,0,0.07963825017213821,0,0.41498698433861136,0,-0.22371841641142964],[0,-0.9178173267282546,0,-0.01410786435008049,0,0.4955727579072118,0,0.0795196290127933],[0,-0.6077131852507591,0,-0.22885254863649607,0,-0.0031344792805612087,0,0.1379262083210051],[0,0.1726960795931518,0,-0.48780349595472217,0,0.016103506088256836,0,0.04733568336814642],[0,0.2431494747288525,0,-0.4863609252497554,0,-0.2212209003046155,0,-0.9755045021884143],[0,0.9170591458678246,0,-0.4583671670407057,0,-0.34339959966018796,0,0.023157920222729445],[0,-0.3987714219838381,0,0.3056684788316488,0,0.1488922368735075,0,0.1755126817151904],[0,0.6793925892561674,0,-0.2130672326311469,0,0.24142216378822923,0,-0.4842734606936574],[0,-0.5805204776115716,0,0.6174752213992178,0,-0.309297664090991,0,-0.17846778826788068],[0,-0.825301471631974,0,0.507535700686276,0,-0.8851531278342009,0,-0.38188120210543275],[0,-0.1260067797265947,0,-0.667403306812048,0,0.48840307630598545,0,0.7108174902386963],[0,-0.44576047733426094,0,0.6047241324558854,0,0.4920769357122481,0,-0.2956121740862727],[0,0.03101498680189252,0,0.09358768351376057,0,-0.49815963488072157,0,-0.4909230303019285],[0,0.34311267361044884,0,-0.6189661780372262,0,0.3514187838882208,0,-0.5563037833198905],[0,0.040927091147750616,0,0.23232228495180607,0,0.2922757971100509,0,0.4021762260235846],[0,0.7870858549140394,0,0.20711243711411953,0,-0.11664257803931832,0,-0.0023526540026068687],[0,-0.3078240235336125,0,-0.7476986548863351,0,-0.12752319173887372,0,0.4635823257267475],[0,0.6572025986388326,0,-0.7062591714784503,0,0.5424338513985276,0,-0.2059170720167458],[0,0.8322692355141044,0,0.6590800420381129,0,0.4372109263204038,0,-0.7916869036853313],[0,-0.7930508311837912,0,-0.5087199928238988,0,0.20993203576654196,0,-0.33798394724726677],[0,-0.5291407871991396,0,-0.6812164229340851,0,0.08863918390125036,0,-0.059832625556737185],[0,-0.30116391042247415,0,0.38518832344561815,0,-0.8728979723528028,0,-0.5687202317640185],[0,-0.5659405300393701,0,-0.8504751361906528,0,-0.3569593341089785,0,-0.0999008808284998],[0,-0.011004524771124125,0,-0.8145378693006933,0,0.9856251711025834,0,-0.6337947808206081],[0,0.6773141170851886,0,-0.0799960414879024,0,0.7000842737033963,0,-0.9445538157597184],[0,0.16236689034849405,0,-0.1110929879359901,0,-0.7106407857500017,0,0.44521960662677884],[0,-0.7910590977407992,0,0.7804068210534751,0,-0.9475422082468867,0,0.977576011326164],[0,0.38887544395402074,0,0.4014047207310796,0,-0.7088818498887122,0,-0.8807351938448846],[0,0.08961669960990548,0,-0.5494709801860154,0,-0.09481390146538615,0,-0.6587421279400587],[0,0.3114566900767386,0,0.3565279617905617,0,0.2726496560499072,0,0.14818506268784404],[0,-0.7990594967268407,0,0.17562248092144728,0,0.7851166613399982,0,-0.6608170019462705],[0,-0.6180571634322405,0,0.334473567083478,0,-0.46866194251924753,0,-0.4330628062598407],[0,0.39667047932744026,0,-0.07057490665465593,0,-0.7861598008312285,0,-0.41862314380705357],[0,0.772612146101892,0,0.5379044325090945,0,0.6986030796542764,0,-0.9334098012186587],[0,0.5879533332772553,0,0.019858573097735643,0,-0.7832661317661405,0,0.8618993749842048],[0,-0.353008477948606,0,-0.5224398542195559,0,-0.8877325523644686,0,0.16146883368492126],[0,0.4300557794049382,0,0.5800551730208099,0,0.7145702601410449,0,-0.8536919495090842],[0,-0.41346379229798913,0,0.5780115528032184,0,0.559291407931596,0,0.25241097109392285],[0,0.9025436290539801,0,-0.8110443432815373,0,0.6727990512736142,0,0.5022812653332949],[0,-0.6617598766461015,0,0.8525896142236888,0,-0.07466513197869062,0,0.3373536872677505],[0,0.24113096529617906,0,-0.8831669390201569,0,-0.8150024707429111,0,0.9353539780713618],[0,-0.6615619761869311,0,-0.7048824960365891,0,-0.26464631920680404,0,0.964316506870091],[0,-0.8820952950045466,0,-0.489755944814533,0,-0.8521700324490666,0,-0.8668640870600939],[0,-0.17243806133046746,0,0.2699885028414428,0,-0.9329531877301633,0,0.08794159861281514],[0,0.3471093657426536,0,0.17600478464737535,0,0.3540613641962409,0,-0.09810207085683942],[0,0.064335186034441,0,-0.48185497242957354,0,-0.01806002715602517,0,-0.4346945593133569],[0,-0.6148408395238221,0,0.6717369160614908,0,-0.5425047473981977,0,0.7446584468707442],[0,0.6739617600105703,0,0.9630668181926012,0,0.5160391889512539,0,0.3606713670305908],[0,0.7274155113846064,0,-0.14513624599203467,0,-0.14254016848281026,0,-0.5676176673732698],[0,-0.28698178147897124,0,-0.31077946349978447,0,-0.08243591850623488,0,-0.18722664238885045],[0,0.1689449748955667,0,-0.4721135273575783,0,-0.2386871944181621,0,0.19331070221960545],[0,-0.9259522650390863,0,0.9313573716208339,0,0.952778154052794,0,-0.7335886489599943],[0,-0.421595495659858,0,0.4165304866619408,0,-0.20217142580077052,0,-0.7516263015568256],[0,0.5230530709959567,0,0.8386206622235477,0,-0.7287795669399202,0,-0.9509301367215812],[0,-0.3180281389504671,0,-0.1512132976204157,0,0.4546453966759145,0,-0.32194118527695537],[0,0.025287856347858906,0,-0.05448150262236595,0,0.9906795513816178,0,-0.5494406949728727],[0,0.5746096083894372,0,-0.5409789704717696,0,-0.6547620198689401,0,-0.9005837729200721],[0,-0.7845282861962914,0,-0.6764834024943411,0,-0.5712646446190774,0,0.22811773931607604],[0,0.8390727043151855,0,0.6690972596406937,0,-0.6524408375844359,0,-0.6001698658801615],[0,0.14249508269131184,0,-0.48609833139926195,0,0.9089221311733127,0,-0.4686241368763149],[0,-0.042361564468592405,0,0.6573001863434911,0,0.5468112691305578,0,0.19670215575024486],[0,-0.4809577977284789,0,-0.22766420617699623,0,0.3381745149381459,0,-0.6057027322240174],[0,-0.7944360803812742,0,-0.7144768312573433,0,-0.8453512461856008,0,0.8682012152858078],[0,0.36560309026390314,0,-0.5565946912392974,0,0.050247035920619965,0,-0.6611100272275507],[0,-0.259968183003366,0,0.15721389604732394,0,-0.6290636179037392,0,-0.83947869297117],[0,-0.0878756856545806,0,-0.8987677716650069,0,0.8805840061977506,0,-0.8261013077571988],[0,0.7221814086660743,0,0.30563055677339435,0,0.23079723352566361,0,-0.261596224270761],[0,-0.26461515156552196,0,0.11202532425522804,0,-0.088461734354496,0,0.35291941510513425],[0,-0.6654089307412505,0,0.4508868991397321,0,-0.03186762798577547,0,-0.9767424361780286],[0,-0.22074682731181383,0,-0.2381713343784213,0,0.9982023136690259,0,0.9988911119289696],[0,0.3088556071743369,0,0.812739466316998,0,0.7445781803689897,0,0.8212855742312968],[0,0.03153662756085396,0,-0.3938476615585387,0,-0.18946840055286884,0,-0.5779477269388735],[0,0.9361237189732492,0,-0.5148326046764851,0,0.04724776744842529,0,0.7010682090185583],[0,-0.5978124579414725,0,0.7616494093090296,0,-0.5922918762080371,0,0.13100314605981112],[0,0.5376351727172732,0,0.3374208612367511,0,0.8300475594587624,0,0.7992812725715339],[0,-0.335756063926965,0,-0.0748248160816729,0,-0.08520280430093408,0,0.5267676445655525],[0,-0.38492739386856556,0,-0.8000646829605103,0,-0.3753666798584163,0,0.8160543865524232],[0,-0.38379341177642345,0,0.9376422083005309,0,-0.16008312162011862,0,-0.35543168196454644],[0,-0.30387271754443645,0,-0.3519770121201873,0,0.9489837693981826,0,-0.8456854172982275],[0,0.4526148266158998,0,0.8191782496869564,0,-0.5276183024980128,0,0.3601495362818241],[0,-0.06772148236632347,0,-0.09858022257685661,0,0.6061071781441569,0,-0.5046607842668891],[0,0.07008554693311453,0,-0.642065198160708,0,-0.4216573997400701,0,-0.3944225711748004],[0,-0.35350658232346177,0,0.4837214541621506,0,-0.24303421890363097,0,0.24976005079224706],[0,0.16340360697358847,0,0.8548760926350951,0,-0.7663087686523795,0,0.7286374303512275],[0,0.125391511246562,0,0.34706348879262805,0,-0.6499699032865465,0,-0.7751516532152891],[0,-0.24527684459462762,0,0.7722760755568743,0,0.4520950014702976,0,-0.34923300379887223],[0,-0.23361331643536687,0,-0.9239747538231313,0,0.08356800489127636,0,0.8847413202747703],[0,0.5908526978455484,0,0.9457586570642889,0,0.4942571995779872,0,-0.8863472081720829]],"vb_b":[[0,0,0,0,0,0,0,1],[0,0,0,0,0,0,0,1],[0,0,0,0,0,0,0,1],[0,0,0,0,0,0,0,1],[0,0,0,0,0,0,0,1],[0,0,0,0,0,0,0,1],[0,0,0,0,0,0,0,1],[0,0,0,0,0,0,0,1],[0,0,0,0,0,0,0,1],[0,0,0,0,0,0,0,1],[0,0,0,0,0,0,0,1],[0,0,0,0,0,0,0,1],[0,0,0,0,0,0,0,1],[0,0,0,0,0,0,0,1],[0,0,0,0,0,0,0,1],[0,0,0,0,0,0,0,1],[0,0,0,0,0,0,0,1],[0,0,0,0,0,0,0,1],[0,0,0,0,0,0,0,1],[0,0,0,0,0,0,0,1],[0,0,0,0,0,0,0,1],[0,0,0,0,0,0,0,1],[0,0,0,0,0,0,0,1],[0,0,0,0,0,0,0,1],[0,0,0,0,0,0,0,1],[0,0,0,0,0,0,0,1],[0,0,0,0,0,0,0,1],[0,0,0,0,0,0,0,1],[0,0,0,0,0,0,0,1],[0,0,0,0,0,0,0,1],[0,0,0,0,0,0,0,1],[0,0,0,0,0,0,0,1],[0,0,0,0,0,0,0,1],[0,0,0,0,0,0,0,1],[0,0,0,0,0,0,0,1],[0,0,0,0,0,0,0,1],[0,0,0,0,0,0,0,1],[0,0,0,0,0,0,0,1],[0,0,0,0,0,0,0,1],[0,0,0,0,0,0,0,1],[0,0,0,0,0,0,0,1],[0,0,0,0,0,0,0,1],[0,0,0,0,0,0,0,1],[0,0,0,0,0,0,0,1],[0,0,0,0,0,0,0,1],[0,0,0,0,0,0,0,1],[0,0,0,0,0,0,0,1],[0,0,0,0,0,0,0,1],[0,0,0,0,0,0,0,1],[0,0,0,0,0,0,0,1],[0,0,0,0,0,0,0,1],[0,0,0,0,0,0,0,1],[0,0,0,0,0,0,0,1],[0,0,0,0,0,0,0,1],[0,0,0,0,0,0,0,1],[0,0,0,0,0,0,0,1],[0,0,0,0,0,0,0,1],[0,0,0,0,