parameters : {"minimum_performance":-1,"block_timeout":5000,"response_timeout":1000,"task_kappa":0,"task_stimuli":1,"task_component":0,"task_feature":1,"task_sign":-1,"task_weights":[0,0,0,0,0,-1,0,0]}
edata : {"exp_subject":"MCUuzx5eEYpM","exp_sex":"female","exp_age":"31-40","exp_task":"jan/131004_primate1","exp_starttime":1381240128223,"exp_finishtime":1381242940651}
numbers : {"stimuli":2,"components":2,"features":2,"weights":8,"blocks":40,"trials":25,"indices":1000}
sdata : {"vb_index":[1,2,3,4,5,6,7,8,9,10,11,12,13,14,15,16,17,18,19,20,21,22,23,24,25,26,27,28,29,30,31,32,33,34,35,36,37,38,39,40,41,42,43,44,45,46,47,48,49,50,51,52,53,54,55,56,57,58,59,60,61,62,63,64,65,66,67,68,69,70,71,72,73,74,75,76,77,78,79,80,81,82,83,84,85,86,87,88,89,90,91,92,93,94,95,96,97,98,99,100,101,102,103,104,105,106,107,108,109,110,111,112,113,114,115,116,117,118,119,120,121,122,123,124,125,126,127,128,129,130,131,132,133,134,135,136,137,138,139,140,141,142,143,144,145,146,147,148,149,150,151,152,153,154,155,156,157,158,159,160,161,162,163,164,165,166,167,168,169,170,171,172,173,174,175,176,177,178,179,180,181,182,183,184,185,186,187,188,189,190,191,192,193,194,195,196,197,198,199,200,201,202,203,204,205,206,207,208,209,210,211,212,213,214,215,216,217,218,219,220,221,222,223,224,225,226,227,228,229,230,231,232,233,234,235,236,237,238,239,240,241,242,243,244,245,246,247,248,249,250,251,252,253,254,255,256,257,258,259,260,261,262,263,264,265,266,267,268,269,270,271,272,273,274,275,276,277,278,279,280,281,282,283,284,285,286,287,288,289,290,291,292,293,294,295,296,297,298,299,300,301,302,303,304,305,306,307,308,309,310,311,312,313,314,315,316,317,318,319,320,321,322,323,324,325,326,327,328,329,330,331,332,333,334,335,336,337,338,339,340,341,342,343,344,345,346,347,348,349,350,351,352,353,354,355,356,357,358,359,360,361,362,363,364,365,366,367,368,369,370,371,372,373,374,375,376,377,378,379,380,381,382,383,384,385,386,387,388,389,390,391,392,393,394,395,396,397,398,399,400,401,402,403,404,405,406,407,408,409,410,411,412,413,414,415,416,417,418,419,420,421,422,423,424,425,426,427,428,429,430,431,432,433,434,435,436,437,438,439,440,441,442,443,444,445,446,447,448,449,450,451,452,453,454,455,456,457,458,459,460,461,462,463,464,465,466,467,468,469,470,471,472,473,474,475,476,477,478,479,480,481,482,483,484,485,486,487,488,489,490,491,492,493,494,495,496,497,498,499,500,501,502,503,504,505,506,507,508,509,510,511,512,513,514,515,516,517,518,519,520,521,522,523,524,525,526,527,528,529,530,531,532,533,534,535,536,537,538,539,540,541,542,543,544,545,546,547,548,549,550,551,552,553,554,555,556,557,558,559,560,561,562,563,564,565,566,567,568,569,570,571,572,573,574,575,576,577,578,579,580,581,582,583,584,585,586,587,588,589,590,591,592,593,594,595,596,597,598,599,600,601,602,603,604,605,606,607,608,609,610,611,612,613,614,615,616,617,618,619,620,621,622,623,624,625,626,627,628,629,630,631,632,633,634,635,636,637,638,639,640,641,642,643,644,645,646,647,648,649,650,651,652,653,654,655,656,657,658,659,660,661,662,663,664,665,666,667,668,669,670,671,672,673,674,675,676,677,678,679,680,681,682,683,684,685,686,687,688,689,690,691,692,693,694,695,696,697,698,699,700,701,702,703,704,705,706,707,708,709,710,711,712,713,714,715,716,717,718,719,720,721,722,723,724,725,726,727,728,729,730,731,732,733,734,735,736,737,738,739,740,741,742,743,744,745,746,747,748,749,750,751,752,753,754,755,756,757,758,759,760,761,762,763,764,765,766,767,768,769,770,771,772,773,774,775,776,777,778,779,780,781,782,783,784,785,786,787,788,789,790,791,792,793,794,795,796,797,798,799,800,801,802,803,804,805,806,807,808,809,810,811,812,813,814,815,816,817,818,819,820,821,822,823,824,825,826,827,828,829,830,831,832,833,834,835,836,837,838,839,840,841,842,843,844,845,846,847,848,849,850,851,852,853,854,855,856,857,858,859,860,861,862,863,864,865,866,867,868,869,870,871,872,873,874,875,876,877,878,879,880,881,882,883,884,885,886,887,888,889,890,891,892,893,894,895,896,897,898,899,900,901,902,903,904,905,906,907,908,909,910,911,912,913,914,915,916,917,918,919,920,921,922,923,924,925,926,927,928,929,930,931,932,933,934,935,936,937,938,939,940,941,942,943,944,945,946,947,948,949,950,951,952,953,954,955,956,957,958,959,960,961,962,963,964,965,966,967,968,969,970,971,972,973,974,975,976,977,978,979,980,981,982,983,984,985,986,987,988,989,990,991,992,993,994,995,996,997,998,999,1000],"vb_block":[1,1,1,1,1,1,1,1,1,1,1,1,1,1,1,1,1,1,1,1,1,1,1,1,1,2,2,2,2,2,2,2,2,2,2,2,2,2,2,2,2,2,2,2,2,2,2,2,2,2,3,3,3,3,3,3,3,3,3,3,3,3,3,3,3,3,3,3,3,3,3,3,3,3,3,4,4,4,4,4,4,4,4,4,4,4,4,4,4,4,4,4,4,4,4,4,4,4,4,4,5,5,5,5,5,5,5,5,5,5,5,5,5,5,5,5,5,5,5,5,5,5,5,5,5,6,6,6,6,6,6,6,6,6,6,6,6,6,6,6,6,6,6,6,6,6,6,6,6,6,7,7,7,7,7,7,7,7,7,7,7,7,7,7,7,7,7,7,7,7,7,7,7,7,7,8,8,8,8,8,8,8,8,8,8,8,8,8,8,8,8,8,8,8,8,8,8,8,8,8,9,9,9,9,9,9,9,9,9,9,9,9,9,9,9,9,9,9,9,9,9,9,9,9,9,10,10,10,10,10,10,10,10,10,10,10,10,10,10,10,10,10,10,10,10,10,10,10,10,10,11,11,11,11,11,11,11,11,11,11,11,11,11,11,11,11,11,11,11,11,11,11,11,11,11,12,12,12,12,12,12,12,12,12,12,12,12,12,12,12,12,12,12,12,12,12,12,12,12,12,13,13,13,13,13,13,13,13,13,13,13,13,13,13,13,13,13,13,13,13,13,13,13,13,13,14,14,14,14,14,14,14,14,14,14,14,14,14,14,14,14,14,14,14,14,14,14,14,14,14,15,15,15,15,15,15,15,15,15,15,15,15,15,15,15,15,15,15,15,15,15,15,15,15,15,16,16,16,16,16,16,16,16,16,16,16,16,16,16,16,16,16,16,16,16,16,16,16,16,16,17,17,17,17,17,17,17,17,17,17,17,17,17,17,17,17,17,17,17,17,17,17,17,17,17,18,18,18,18,18,18,18,18,18,18,18,18,18,18,18,18,18,18,18,18,18,18,18,18,18,19,19,19,19,19,19,19,19,19,19,19,19,19,19,19,19,19,19,19,19,19,19,19,19,19,20,20,20,20,20,20,20,20,20,20,20,20,20,20,20,20,20,20,20,20,20,20,20,20,20,21,21,21,21,21,21,21,21,21,21,21,21,21,21,21,21,21,21,21,21,21,21,21,21,21,22,22,22,22,22,22,22,22,22,22,22,22,22,22,22,22,22,22,22,22,22,22,22,22,22,23,23,23,23,23,23,23,23,23,23,23,23,23,23,23,23,23,23,23,23,23,23,23,23,23,24,24,24,24,24,24,24,24,24,24,24,24,24,24,24,24,24,24,24,24,24,24,24,24,24,25,25,25,25,25,25,25,25,25,25,25,25,25,25,25,25,25,25,25,25,25,25,25,25,25,26,26,26,26,26,26,26,26,26,26,26,26,26,26,26,26,26,26,26,26,26,26,26,26,26,27,27,27,27,27,27,27,27,27,27,27,27,27,27,27,27,27,27,27,27,27,27,27,27,27,28,28,28,28,28,28,28,28,28,28,28,28,28,28,28,28,28,28,28,28,28,28,28,28,28,29,29,29,29,29,29,29,29,29,29,29,29,29,29,29,29,29,29,29,29,29,29,29,29,29,30,30,30,30,30,30,30,30,30,30,30,30,30,30,30,30,30,30,30,30,30,30,30,30,30,31,31,31,31,31,31,31,31,31,31,31,31,31,31,31,31,31,31,31,31,31,31,31,31,31,32,32,32,32,32,32,32,32,32,32,32,32,32,32,32,32,32,32,32,32,32,32,32,32,32,33,33,33,33,33,33,33,33,33,33,33,33,33,33,33,33,33,33,33,33,33,33,33,33,33,34,34,34,34,34,34,34,34,34,34,34,34,34,34,34,34,34,34,34,34,34,34,34,34,34,35,35,35,35,35,35,35,35,35,35,35,35,35,35,35,35,35,35,35,35,35,35,35,35,35,36,36,36,36,36,36,36,36,36,36,36,36,36,36,36,36,36,36,36,36,36,36,36,36,36,37,37,37,37,37,37,37,37,37,37,37,37,37,37,37,37,37,37,37,37,37,37,37,37,37,38,38,38,38,38,38,38,38,38,38,38,38,38,38,38,38,38,38,38,38,38,38,38,38,38,39,39,39,39,39,39,39,39,39,39,39,39,39,39,39,39,39,39,39,39,39,39,39,39,39,40,40,40,40,40,40,40,40,40,40,40,40,40,40,40,40,40,40,40,40,40,40,40,40,40],"vb_trial":[1,2,3,4,5,6,7,8,9,10,11,12,13,14,15,16,17,18,19,20,21,22,23,24,25,1,2,3,4,5,6,7,8,9,10,11,12,13,14,15,16,17,18,19,20,21,22,23,24,25,1,2,3,4,5,6,7,8,9,10,11,12,13,14,15,16,17,18,19,20,21,22,23,24,25,1,2,3,4,5,6,7,8,9,10,11,12,13,14,15,16,17,18,19,20,21,22,23,24,25,1,2,3,4,5,6,7,8,9,10,11,12,13,14,15,16,17,18,19,20,21,22,23,24,25,1,2,3,4,5,6,7,8,9,10,11,12,13,14,15,16,17,18,19,20,21,22,23,24,25,1,2,3,4,5,6,7,8,9,10,11,12,13,14,15,16,17,18,19,20,21,22,23,24,25,1,2,3,4,5,6,7,8,9,10,11,12,13,14,15,16,17,18,19,20,21,22,23,24,25,1,2,3,4,5,6,7,8,9,10,11,12,13,14,15,16,17,18,19,20,21,22,23,24,25,1,2,3,4,5,6,7,8,9,10,11,12,13,14,15,16,17,18,19,20,21,22,23,24,25,1,2,3,4,5,6,7,8,9,10,11,12,13,14,15,16,17,18,19,20,21,22,23,24,25,1,2,3,4,5,6,7,8,9,10,11,12,13,14,15,16,17,18,19,20,21,22,23,24,25,1,2,3,4,5,6,7,8,9,10,11,12,13,14,15,16,17,18,19,20,21,22,23,24,25,1,2,3,4,5,6,7,8,9,10,11,12,13,14,15,16,17,18,19,20,21,22,23,24,25,1,2,3,4,5,6,7,8,9,10,11,12,13,14,15,16,17,18,19,20,21,22,23,24,25,1,2,3,4,5,6,7,8,9,10,11,12,13,14,15,16,17,18,19,20,21,22,23,24,25,1,2,3,4,5,6,7,8,9,10,11,12,13,14,15,16,17,18,19,20,21,22,23,24,25,1,2,3,4,5,6,7,8,9,10,11,12,13,14,15,16,17,18,19,20,21,22,23,24,25,1,2,3,4,5,6,7,8,9,10,11,12,13,14,15,16,17,18,19,20,21,22,23,24,25,1,2,3,4,5,6,7,8,9,10,11,12,13,14,15,16,17,18,19,20,21,22,23,24,25,1,2,3,4,5,6,7,8,9,10,11,12,13,14,15,16,17,18,19,20,21,22,23,24,25,1,2,3,4,5,6,7,8,9,10,11,12,13,14,15,16,17,18,19,20,21,22,23,24,25,1,2,3,4,5,6,7,8,9,10,11,12,13,14,15,16,17,18,19,20,21,22,23,24,25,1,2,3,4,5,6,7,8,9,10,11,12,13,14,15,16,17,18,19,20,21,22,23,24,25,1,2,3,4,5,6,7,8,9,10,11,12,13,14,15,16,17,18,19,20,21,22,23,24,25,1,2,3,4,5,6,7,8,9,10,11,12,13,14,15,16,17,18,19,20,21,22,23,24,25,1,2,3,4,5,6,7,8,9,10,11,12,13,14,15,16,17,18,19,20,21,22,23,24,25,1,2,3,4,5,6,7,8,9,10,11,12,13,14,15,16,17,18,19,20,21,22,23,24,25,1,2,3,4,5,6,7,8,9,10,11,12,13,14,15,16,17,18,19,20,21,22,23,24,25,1,2,3,4,5,6,7,8,9,10,11,12,13,14,15,16,17,18,19,20,21,22,23,24,25,1,2,3,4,5,6,7,8,9,10,11,12,13,14,15,16,17,18,19,20,21,22,23,24,25,1,2,3,4,5,6,7,8,9,10,11,12,13,14,15,16,17,18,19,20,21,22,23,24,25,1,2,3,4,5,6,7,8,9,10,11,12,13,14,15,16,17,18,19,20,21,22,23,24,25,1,2,3,4,5,6,7,8,9,10,11,12,13,14,15,16,17,18,19,20,21,22,23,24,25,1,2,3,4,5,6,7,8,9,10,11,12,13,14,15,16,17,18,19,20,21,22,23,24,25,1,2,3,4,5,6,7,8,9,10,11,12,13,14,15,16,17,18,19,20,21,22,23,24,25,1,2,3,4,5,6,7,8,9,10,11,12,13,14,15,16,17,18,19,20,21,22,23,24,25,1,2,3,4,5,6,7,8,9,10,11,12,13,14,15,16,17,18,19,20,21,22,23,24,25,1,2,3,4,5,6,7,8,9,10,11,12,13,14,15,16,17,18,19,20,21,22,23,24,25,1,2,3,4,5,6,7,8,9,10,11,12,13,14,15,16,17,18,19,20,21,22,23,24,25],"vb_x":[[0,-0.48671482775898944,0,0.4120324546434535,0,0.7105315615405821,0,-0.26946938253854147],[0,0.4840919527862957,0,0.45057970182096874,0,0.3686508820685592,0,0.6798420915112928],[0,0.007796674390387226,0,0.2088401114330829,0,0.39671739678880025,0,-0.6307292808835305],[0,0.08426808515335771,0,0.8051253861023449,0,-0.3124786524566341,0,-0.8005877427774337],[0,0.7743135334144471,0,-0.10416872185848236,0,-0.5168520756423436,0,-0.23392341799655147],[0,-0.5729274308145398,0,0.05461256099173584,0,0.25200718233653707,0,-0.47988144365413565],[0,-0.4950835458664593,0,0.5039012743891726,0,0.5589078456778152,0,-0.11073837750748727],[0,-0.38226993158266764,0,0.8521483438728068,0,-0.8105332540363195,0,0.2037712678987429],[0,0.8179080911727372,0,-0.36725131414604184,0,-0.23915198104861468,0,0.6916648100387031],[0,-0.790652133185247,0,0.6456876970093419,0,-0.41596989937868734,0,-0.20452860696057384],[0,-0.5118232328726975,0,0.37052408134961157,0,-0.3614984543390829,0,0.11138490427690106],[0,-0.8400966723315415,0,0.04940359801250316,0,0.17848942532023315,0,0.36297978180897883],[0,0.8671355626372632,0,0.4313750638087468,0,0.7105276195523256,0,0.9954884335829419],[0,-0.48603728887611686,0,-0.3756406995627799,0,-0.1346250875891164,0,0.2129669021595304],[0,-0.31245086633318797,0,-0.9813012701021611,0,0.032996784200581164,0,-0.4204962938645842],[0,-0.7455560969171218,0,0.8262944037101478,0,-0.46247293057767247,0,-0.3330454821517854],[0,0.9485604399209557,0,-0.5780852933954974,0,-0.40017089304961884,0,0.6555137480096884],[0,-0.730264265126582,0,-0.6216618124230933,0,0.3684791580053721,0,0.2797625459826709],[0,-0.9237694109386523,0,-0.14542847664450154,0,-0.10430169560696512,0,0.06165993779799406],[0,0.881486044092082,0,-0.17353835285101948,0,0.09296118463978531,0,0.3832730909546709],[0,0.05490360812467898,0,-0.45840183819751923,0,0.421714265944932,0,-0.3741303653815222],[0,0.878371290125775,0,0.535482026464694,0,-0.6421612274352244,0,0.33832443380939803],[0,-0.27529117473507436,0,-0.43648635385795487,0,-0.4858037492703964,0,0.1966197627221402],[0,0.5011601578795368,0,0.8834308545109704,0,0.7137990895519142,0,-0.6224525046724165],[0,-0.05948632839937318,0,0.4654074548802489,0,0.2768495470554573,0,0.8935489790083073],[0,0.3243835310832275,0,0.9120991177075168,0,-0.6819037777934944,0,0.42195694092041736],[0,0.787639273364108,0,-0.8614975304812502,0,-0.053342175012291326,0,-0.7892686745692659],[0,-0.5200765375809644,0,0.19157169038722932,0,0.9186687525618746,0,-0.24588994343795068],[0,-0.4503493542439785,0,-0.017886177781980317,0,0.5138038371961395,0,-0.894577065377484],[0,0.16783347713911367,0,-0.8434364603126256,0,-0.8100582958648377,0,0.9306451019235997],[0,-0.37646454687363273,0,-0.1461845377770894,0,0.9159310413039161,0,0.7050953910764981],[0,0.8997029715257359,0,0.6723699604957898,0,0.9906257473195426,0,0.8170121656253653],[0,-0.9224179408994,0,0.8156275199839667,0,-0.37294148420296946,0,-0.23443246027322728],[0,0.419878057764447,0,0.08824381880265952,0,0.6138260547988752,0,0.12720928675358745],[0,-0.9527289154082756,0,-0.8159635473274716,0,0.9614614893998628,0,-0.4869518031214606],[0,0.7498511546465976,0,0.5360120143986211,0,0.5997729369004827,0,-0.6486648162727475],[0,0.66449162945066,0,-0.10833926290135487,0,0.9128305265286769,0,0.0029029113375935722],[0,0.3011322270146988,0,0.7317435005198281,0,-0.8185128010849656,0,-0.5462273489376868],[0,-0.2846046822866679,0,-0.33162538472952385,0,0.8490211969902304,0,0.6279566793437463],[0,0.5019138988611891,0,-0.9617182282646963,0,0.9336926036189628,0,-0.7751861093870029],[0,0.7222006484001169,0,-0.9502975649132166,0,-0.11729262315456057,0,-0.09085499879977443],[0,-0.11715699973266513,0,0.0464542023806922,0,-0.30471205110527966,0,-0.3314591903425319],[0,0.6442599028552656,0,-0.27970431093015624,0,-0.76174985728427,0,-0.79867334158168],[0,0.06721114562189001,0,0.43277020806058575,0,-0.6643089308215004,0,0.30977278920388773],[0,0.8937014631109621,0,0.20030602378727802,0,0.4350950339229842,0,-0.5529304587131345],[0,0.6108765009748811,0,-0.6485783294940184,0,0.4353674345434928,0,0.8028941353202717],[0,0.8609593303276464,0,-0.617534168868189,0,-0.39198971450935205,0,0.6112230695986147],[0,0.1372299489137545,0,-0.8816027444176611,0,-0.5491440905319407,0,-0.2746257317928429],[0,0.6455036663707328,0,-0.07231044000299436,0,0.7844780762400101,0,-0.07091112083020623],[0,-0.28748286173500004,0,0.4455236922057586,0,-0.5653959976298342,0,0.9387924594851251],[0,-0.8129168508024456,0,0.027008059872562606,0,-0.5604479344385322,0,-0.39899711524878745],[0,0.9068299995375122,0,0.9822462827126883,0,-0.12007463832743626,0,0.4001800681080574],[0,0.4927930396204745,0,0.5376483051356833,0,0.14849256274021738,0,-0.9338589970851567],[0,-0.5139205928740964,0,0.4229610418884233,0,-0.2386085528512809,0,0.8064925771125016],[0,-0.8447190726882763,0,-0.9989288755135239,0,0.6574933623754071,0,-0.5116393528635701],[0,0.18026180923080926,0,-0.062288802864201465,0,0.3409707134592428,0,-0.044975633287143824],[0,0.8574024293893356,0,0.5507796270306096,0,-0.8071888125591664,0,0.5868913664428146],[0,0.47333235588058264,0,0.18406052149515273,0,0.8102271303207091,0,-0.7974221445995047],[0,0.05863980782754297,0,0.21771054712583804,0,0.32861116257861234,0,0.44468621830390087],[0,-0.14000290730831288,0,0.6579557700609624,0,0.33889079507132536,0,0.9062002872832589],[0,-0.44140435507944686,0,-0.3589790836264548,0,-0.7661590271925554,0,-0.5727530955887719],[0,-0.48526374098614333,0,-0.35860911477868274,0,0.6001131326275917,0,0.22830052748031693],[0,-0.8671257102766752,0,-0.3079170743781414,0,0.6184452973940766,0,-0.1552647415991164],[0,-0.18162804154808843,0,0.5046856435969937,0,-0.6572808445256464,0,-0.8110420333828923],[0,0.9366635574249726,0,-0.9805005997373577,0,-0.8007661553781655,0,-0.5098172120406239],[0,-0.31250804271175947,0,0.6211908587633308,0,0.08076935318819012,0,-0.6517634630147147],[0,-0.12867118656686372,0,-0.9770480380726192,0,-0.9942847820452407,0,-0.31338781342645583],[0,0.1520425360711204,0,-0.34776714266485387,0,-0.5292564201715864,0,0.0013159265112157037],[0,-0.39066722650887376,0,0.26369500021883274,0,-0.6537910590465772,0,0.9758815189853245],[0,-0.8735972689618197,0,0.46010995344551153,0,0.44665952359678474,0,-0.7307471410124915],[0,-0.5272074295391007,0,-0.18049260652698096,0,-0.24545127919285803,0,0.08206551715309351],[0,0.8192527863320485,0,0.40695278983243166,0,-0.3165616493823651,0,-0.031815517992364484],[0,-0.13901298323767874,0,-0.4080848829104129,0,0.7376882496585468,0,0.28218458647228073],[0,-0.2724514274677987,0,-0.7027382376974323,0,0.4588296453035061,0,0.6397871333894809],[0,0.42212702871208374,0,0.07349639530304986,0,-0.3554762886300138,0,-0.18290423465812955],[0,-0.3400845965923345,0,0.7219335895011461,0,0.48420885010560566,0,0.6258017675686489],[0,-0.3352994526715136,0,0.5830825796364247,0,-0.5237559306096893,0,-0.5246433300368338],[0,0.7347729915134265,0,0.06158954440261333,0,0.7745588055735466,0,0.5694400429042732],[0,-0.7962941691837166,0,-0.5233327407240362,0,0.9585221559821047,0,0.982876026707501],[0,-0.2014953681915086,0,0.9070181992127275,0,0.12794866802947724,0,0.22648224707002762],[0,0.33708446819896376,0,0.3418354604051481,0,0.6958594713107311,0,0.33116237528223436],[0,0.20898242842426473,0,0.1545445593467094,0,0.2848224167286766,0,-0.03111975809078471],[0,-0.8523327110419054,0,0.6835260804865733,0,0.728396356649597,0,0.6769845301305566],[0,-0.5702380631167567,0,0.5341388107031768,0,-0.6625908301707233,0,0.8636779013276585],[0,0.8259455165248917,0,0.10893981686124898,0,-0.6884990580586821,0,-0.053744870025298264],[0,-0.6197421270160781,0,-0.17192330999106398,0,-0.5404315997882974,0,0.7100613444347581],[0,0.4089793123035237,0,-0.48059481568902385,0,-0.7615516915482266,0,0.7749504904090587],[0,0.9872140073321725,0,0.537963882890488,0,-0.47261822126783737,0,-0.08264842838310593],[0,-0.3692429137485578,0,-0.6829852233548026,0,0.5265036988904086,0,0.9198791772375499],[0,0.8827793884733064,0,0.2579377260460234,0,-0.2991947127062484,0,-0.39324806013601266],[0,0.07931678192308267,0,-0.8661552307106666,0,0.7867208730070607,0,0.7721116362932576],[0,0.6945034622621229,0,-0.4881424696110028,0,-0.4633075200466905,0,0.8196630999345567],[0,-0.6440569962594485,0,0.09157001165110001,0,-0.9022306334671324,0,-0.8941165088502394],[0,-0.12743715862724336,0,0.31229711446144615,0,-0.29649673539550436,0,0.21537775717428187],[0,-0.5682484628756501,0,-0.9007133219383063,0,-0.29589793560008437,0,0.695784889165646],[0,-0.5004682587573317,0,-0.8008484644596141,0,-0.13199105065522931,0,0.14096783386992584],[0,0.8969738328467274,0,-0.8026439371352787,0,0.3587763543688651,0,-0.06495147782717936],[0,-0.9719908507230264,0,-0.9843298376771781,0,-0.17569253586925093,0,-0.5438234709359215],[0,-0.7017451609164584,0,0.45508072849053915,0,0.6312412405746928,0,-0.9122509550232063],[0,0.3914147883109369,0,0.17972979024624602,0,-0.5645397680134852,0,-0.003872280397878791],[0,0.2592753071145806,0,0.43002672619932825,0,0.00040247612572952285,0,0.30772545999710954],[0,0.4332663004068986,0,0.7081587065337722,0,-0.5419361297875385,0,0.05466524304036069],[0,0.5800122968749348,0,-0.3031964993380758,0,0.05327852639980679,0,-0.9429595719875172],[0,-0.8997489916155192,0,0.7519254507242692,0,-0.17993116339081627,0,0.7711347297041471],[0,-0.9900502913380533,0,0.45311428909089635,0,-0.3904397582634431,0,-0.9432123587948604],[0,-0.6555966152406825,0,-0.0999956450316235,0,0.4221577094256592,0,-0.19658005662035838],[0,0.8905513304039487,0,0.7108898032826254,0,0.09238587397794706,0,-0.5969393626763702],[0,-0.8202980121794887,0,0.009730075031159968,0,0.03299546936599085,0,-0.8299530613220225],[0,-0.6376905066059795,0,-0.9196829632926016,0,0.9656446880851202,0,0.980894980920159],[0,0.8383976352719875,0,0.821454254264735,0,-0.6513356021418593,0,0.6441679200496713],[0,0.33168103613342925,0,-0.345423523253406,0,-0.4418786453734118,0,-0.19100309264035942],[0,0.4723854873831821,0,0.11531589074168691,0,0.786596004622409,0,0.5822372015172024],[0,0.89322359468218,0,-0.9969005996988034,0,0.09479361440663014,0,-0.5519295997400009],[0,0.3449336892427488,0,0.6679392501671886,0,0.08431267324889635,0,0.5701926273185705],[0,-0.5977552910771164,0,-0.21884136282115718,0,-0.7444043754536447,0,-0.8944447532820325],[0,-0.04191906886366792,0,0.7668701646037481,0,-0.7267088453003596,0,0.7699538839542703],[0,-0.10672408623082119,0,-0.03639547581287239,0,0.081960147838543,0,0.5695891883693134],[0,-0.9389846468753233,0,-0.45943527646073945,0,-0.9017392088402401,0,-0.6509490404776304],[0,0.039684707056272917,0,-0.7894412064095646,0,0.5514508472993029,0,-0.39499437514702684],[0,-0.015252415023209176,0,0.8617421063031265,0,-0.5477512955385762,0,-0.12380523802058585],[0,0.3497366376506381,0,0.37287941525905,0,-0.3592016903263344,0,-0.05581943112668197],[0,-0.7516100249945903,0,0.08191372951828835,0,0.8976846973945312,0,-0.9343970713055736],[0,0.7944200329874003,0,0.6452078397667862,0,0.1976521178005941,0,0.5055400263079641],[0,0.8823550522792123,0,0.354902410646061,0,0.843878057424434,0,-0.24710726537440464],[0,-0.4376540477008335,0,-0.6255875782748852,0,0.4413605541354384,0,0.9725417836774151],[0,0.41378517145090954,0,-0.19283739627548102,0,0.45117899622942725,0,0.4853540271787937],[0,-0.8629639215400784,0,0.031239187487964948,0,0.4130917603526092,0,-0.6340572980818568],[0,0.9595263697745002,0,-0.6872847257531349,0,0.8321372573050476,0,-0.3905854727888023],[0,-0.6080897742630917,0,0.35298356260239916,0,0.19560800983229387,0,-0.2578350823698865],[0,-0.6280416591526752,0,-0.8694905919463005,0,-0.3800297772834502,0,0.23811002190779074],[0,-0.10171273584111429,0,-0.8350050467037555,0,-0.7769944082493505,0,0.6505732279320857],[0,0.8829936291560203,0,-0.8379771877852189,0,-0.5253470828638462,0,0.9813717740928645],[0,0.14171058645072088,0,0.8888268288023973,0,0.5007333493852832,0,-0.5175240574913866],[0,-0.8084417967182536,0,0.08691457530322833,0,0.5969429107986848,0,-0.17805583455737883],[0,0.8419117841322545,0,-0.7551551008345365,0,0.05620190941945902,0,0.34466197072039284],[0,-0.5601340991038197,0,-0.865457991049474,0,-0.17934794242379715,0,-0.9802556531819755],[0,0.07172418027203764,0,0.15710554359212936,0,0.4402960637115556,0,-0.4097135875392792],[0,0.023799335537321165,0,0.749154035753933,0,-0.6465221835144979,0,-0.5725229229032249],[0,0.3702592447439501,0,0.3683176949385336,0,-0.3998967507159539,0,-0.3600823260505468],[0,-0.31729007779062446,0,0.9065742179536862,0,0.7367068229859766,0,-0.8996833719683119],[0,-0.454341998586707,0,0.7726997840530749,0,0.9431700664578824,0,0.2255576171880025],[0,0.813948971045835,0,0.34018507902721207,0,0.09410275802715584,0,-0.4175310485844905],[0,0.36273046800152864,0,-0.025455095135561434,0,0.913599974601651,0,0.6904482858074081],[0,0.4574431766322695,0,0.4340271361351573,0,-0.7597083568605969,0,-0.24657411822868003],[0,0.8107948655272306,0,0.0803065042878559,0,0.9003040011132559,0,-0.5225227922286613],[0,0.8956261691058864,0,0.04082445947922442,0,-0.2810437928042686,0,-0.38327559306420933],[0,-0.8529700490031995,0,-0.7679828829105564,0,0.7977172901791072,0,-0.5610064191303208],[0,0.31403932051792616,0,-0.017250643057242554,0,-0.6588471147281012,0,0.9140233608997244],[0,0.41065219534135333,0,-0.11014774393345261,0,0.03929411669011551,0,0.10084845905165007],[0,0.46791375569800864,0,0.4927391474634757,0,-0.7059370090753869,0,-0.052690248290717],[0,-0.3967691228487311,0,0.3716530058640546,0,0.42409372992347794,0,0.5134706941911527],[0,0.80004638857747,0,-0.6458229298336626,0,0.3904909517627557,0,0.49204783875155456],[0,-0.7695467238591973,0,-0.34278180601177555,0,-0.44323066055483595,0,0.8227917960367657],[0,0.9552825739607378,0,0.9967497115606425,0,-0.47057737515359155,0,-0.8159172897081357],[0,-0.5993475144487079,0,-0.0348194334934917,0,0.22127303997576542,0,-0.8061681029272361],[0,0.13691734633559483,0,-0.6937060633974867,0,-0.06204510204261959,0,0.2631115500922876],[0,-0.8245892424177472,0,0.11027761847749118,0,-0.4914108484126083,0,-0.7802408643226018],[0,0.25032844665898524,0,-0.5935542791719761,0,-0.735089557357792,0,-0.9444652834921996],[0,0.3675500516927066,0,-0.8511690447435334,0,0.018808071619698108,0,-0.550764685142942],[0,0.2791530342034123,0,0.16990275177102632,0,0.09644943601893141,0,0.0794989735233369],[0,-0.5181768382019609,0,0.32024610131947107,0,-0.04214615516037257,0,-0.8351397457493159],[0,-0.16067881990754684,0,-0.2828857153442883,0,-0.036009328164012366,0,0.1549458762967013],[0,-0.006382684277858264,0,-0.20765502127759827,0,-0.5508227944937585,0,-0.9544726500436507],[0,0.3562579054999837,0,0.6602099566651805,0,0.414754876152321,0,-0.598522513242173],[0,-0.33901680920353505,0,-0.7816557019586101,0,0.8807271339524576,0,-0.15449767225930322],[0,0.810566816438159,0,0.3499805828400655,0,-0.7847574263787536,0,-0.4931480401066639],[0,0.06530140287850794,0,-0.3867083184202982,0,-0.39248667790501046,0,0.7230386727586289],[0,-0.5024920823273891,0,-0.11627716837642321,0,0.25795903662510455,0,-0.851078689622657],[0,0.07589924876859966,0,0.5577726275768844,0,-0.16992834828884384,0,-0.6486587405920534],[0,-0.2544184896995101,0,0.1317611458337149,0,0.2416986781444017,0,0.9538244515204188],[0,-0.5660697191618598,0,-0.7633000585096621,0,0.9691456014345026,0,0.444691560138198],[0,0.03953130687278139,0,-0.459541356833745,0,-0.3042982068624911,0,0.8732472350523732],[0,-0.8491710574948119,0,0.32099929442799446,0,0.356896416464789,0,-0.16745399845807962],[0,-0.5069213165023152,0,0.9695296318523472,0,0.41799557718093494,0,-0.6364373417834246],[0,-0.08334723113523812,0,0.2000022218778974,0,0.5649532135084363,0,-0.2855792279582694],[0,0.11670139652157885,0,-0.6785331386176756,0,-0.10176756854562541,0,0.24966327961585955],[0,0.21362529008057174,0,-0.42763988149476306,0,0.1896173599622648,0,-0.7716247991555902],[0,-0.17423183831627953,0,0.22089493692550977,0,-0.20466238306899776,0,-0.3437014218459411],[0,0.33019090504917004,0,0.9032908550870171,0,-0.5854681024747403,0,0.9659061631092523],[0,0.6343424680446852,0,0.5016635388982553,0,0.04027916254908037,0,-0.11027027135311163],[0,0.9708955334954921,0,-0.24402882897643963,0,0.17112985751288323,0,0.5660663015540754],[0,0.9799679931601739,0,-0.2405080193818685,0,0.6342723733474149,0,-0.3474857844781649],[0,-0.3425951942509058,0,-0.49511303976465615,0,-0.7828269721797896,0,-0.9783817636759014],[0,-0.3752524536124431,0,0.727978343165149,0,-0.287268797409199,0,0.47423268367497395],[0,0.615972212552069,0,-0.5610459772609144,0,0.9536941694422167,0,-0.169962640368007],[0,-0.9219711246277411,0,0.7357850035099929,0,0.9452793852109489,0,-0.2590288219387398],[0,0.3466702705489695,0,0.7622218616475724,0,-0.6993448783339922,0,-0.3778240318604036],[0,0.9860090688862588,0,-0.9971861006617202,0,-0.15786650771909283,0,-0.7936299166985468],[0,-0.4303031871146621,0,-0.5000268574093663,0,0.45163306368642386,0,-0.5985990727417565],[0,0.43357081656000496,0,-0.9668169066889203,0,-0.9628291812503613,0,0.36705331721357504],[0,0.7440687006059477,0,-0.18196921564585966,0,0.8278477740911543,0,0.02601736701846402],[0,0.6036620947672433,0,-0.13718209431509587,0,-0.8820061679789151,0,0.5852500879298574],[0,0.8540161222617999,0,-0.236913942306346,0,-0.948157918539005,0,0.06779103581967427],[0,-0.2604673266854891,0,0.4194686101650773,0,0.0733049131682435,0,0.3414210846758663],[0,-0.34161062491436733,0,-0.06814071140941969,0,-0.7388717865790699,0,0.6793820948326788],[0,0.8551395635377583,0,-0.24703247021798003,0,0.927902418012019,0,0.49970241025055495],[0,0.09839083320898401,0,0.07690617037841752,0,-0.4178875986995556,0,0.6035020703947724],[0,-0.860966315129239,0,0.39353778098410186,0,-0.3643881654411463,0,0.9689791997897466],[0,0.058944637030501346,0,-0.8431178398245356,0,0.08461028382597768,0,0.9566072687109022],[0,0.4970406900516504,0,0.59596639842846,0,-0.19953602700226858,0,0.6424016527065037],[0,-0.8209833249019143,0,0.8390774127086174,0,-0.9627341306647259,0,-0.08005934667725811],[0,-0.8209519378805488,0,-0.27254601564468284,0,-0.7035678084876198,0,0.998156122745468],[0,0.9061971094925014,0,0.9620345630518463,0,0.7841859591866105,0,-0.02926497227685565],[0,0.9352113488611506,0,-0.4430459528391326,0,0.35604251635906015,0,0.2443032926900477],[0,0.4908582097901344,0,-0.033937756502348204,0,-0.9368968952229573,0,0.7863896278859477],[0,0.6468916031577008,0,0.7038135025020118,0,-0.8018323687143609,0,-0.6095034296021462],[0,0.11519982109833649,0,-0.20054378604857792,0,0.0853793435693575,0,-0.5455668988009463],[0,-0.12236291139542432,0,0.003527993286329023,0,-0.23468165857739587,0,0.12939241977888494],[0,0.8524950077236224,0,-0.6917584277877233,0,0.19816335440819555,0,0.12108487226262987],[0,0.2895211251401921,0,-0.9515763938113078,0,0.640744485099509,0,0.9105661955255298],[0,-0.3481515487141065,0,0.6172474019896741,0,-0.5509868267830917,0,-0.2887722322677828],[0,-0.6298510596572853,0,0.6610780301003116,0,0.7156577811304194,0,0.08974461406359979],[0,0.04378015974011862,0,-0.4896726600794701,0,0.8732975414892852,0,0.8526043029999544],[0,-0.5843538091098992,0,0.5582933749015395,0,-0.3231104464026706,0,-0.46383110853053644],[0,-0.23805348522431835,0,-0.6824620292209098,0,-0.17531219484970428,0,-0.36295089943765446],[0,-0.7850588295222818,0,-0.036566616960163945,0,-0.11470481907481767,0,0.5808995169097195],[0,0.976311854804758,0,0.31708774238276094,0,0.16905336169417917,0,0.351569738559653],[0,0.38065350279884047,0,-0.5750629712131854,0,0.71521843479489,0,0.6888765582380265],[0,-0.6669174236935553,0,-0.8401311690732198,0,0.6620727668891222,0,-0.18791094932169217],[0,0.7719020362369298,0,0.5988220572196297,0,0.9253276003914592,0,-0.2624531293631174],[0,0.496716608011299,0,-0.6756153368479043,0,-0.6691268139675313,0,0.4326608033723893],[0,-0.045656259502790286,0,-0.7470106001818198,0,-0.8688635011698564,0,-0.7151285656132831],[0,-0.610679684801182,0,0.10988545157352836,0,0.1800107331793801,0,-0.3370283029102399],[0,0.142756932774053,0,-0.7488571915150617,0,0.9495220499379873,0,0.7095250718185977],[0,-0.17725417729703774,0,0.1755238978296203,0,-0.9578959295954947,0,-0.07305818882599668],[0,0.5714807677921301,0,-0.22586563824319206,0,-0.11444783321407104,0,0.6061008605620859],[0,0.7187009182063855,0,0.13334447836369168,0,-0.10656605536997454,0,-0.30476372478502256],[0,-0.26197629162976255,0,0.536549782684477,0,-0.46806511000806084,0,0.3181321636967911],[0,-0.387815699098943,0,-0.7970822924617127,0,-0.5451791894377791,0,0.8245007484551274],[0,0.46515349199104183,0,0.2563454291427223,0,-0.8485971338852603,0,0.9917444896110332],[0,0.6335581433808417,0,-0.5645674013225641,0,0.3980934407873369,0,-0.20386738914413782],[0,-0.7732190327010546,0,0.13534933142520145,0,-0.7876558175332888,0,0.03274949122855664],[0,0.6645714321982985,0,-0.4849401642740023,0,-0.02153904530903672,0,0.9874012073903577],[0,-0.31704969889184964,0,0.6084391064626753,0,-0.05200659065420621,0,-0.6500057736224687],[0,-0.13635452619402044,0,0.6453976690264669,0,-0.5868996821144854,0,0.6077289150566398],[0,0.869248451383771,0,0.11920940664025248,0,0.509494204741695,0,0.267777527026793],[0,-0.7442650431913167,0,-0.47118663917311654,0,-0.17372734721914296,0,0.4329461208575729],[0,0.9859456766211696,0,-0.8200595340460979,0,0.7831467811732475,0,0.490146345843816],[0,0.5820764191829397,0,-0.053507254636806945,0,-0.9187201691626135,0,0.9703321931659874],[0,0.2321802900107519,0,-0.5263182723148312,0,0.4421525284853829,0,0.9998845685493007],[0,0.105137168663475,0,0.9470104162053181,0,0.3195749404563393,0,0.18725486416932324],[0,0.6304996523308173,0,0.2562614755844064,0,0.3031676766522553,0,-0.7249935696340264],[0,0.5640766688657053,0,0.15123240535570637,0,-0.47266203306380783,0,0.4362212830037533],[0,-0.7129296413640458,0,0.816036199421726,0,-0.4420202025677431,0,-0.2944322746089454],[0,-0.023966545754829482,0,-0.8186349262163237,0,-0.05016955763729314,0,0.7091521290920426],[0,0.03286956798009877,0,0.24919164507609448,0,0.9506181795552728,0,0.5936065150563175],[0,0.478549213933926,0,0.7219614967390349,0,-0.3261597024466547,0,-0.14630782059443903],[0,0.8911705057475499,0,0.3084078942137882,0,0.4702118017821133,0,-0.38097349039596407],[0,0.9084437185024117,0,-0.779301547419313,0,-0.8014694005821945,0,0.88436962813553],[0,-0.6833655694422367,0,-0.4172986375002048,0,0.6299063408478196,0,0.1542350224578375],[0,-0.6875482620515008,0,-0.26326337533295074,0,0.31500362937282245,0,-0.9785840121279941],[0,-0.34867884345593003,0,-0.2337436852868915,0,0.9021539535299459,0,-0.6896512838797604],[0,0.0849358186773308,0,-0.05552390313613231,0,0.11489355403931012,0,0.5900603757929554],[0,-0.2570682806268416,0,-0.7259425106915169,0,-0.6193130728731961,0,-0.9022211244368823],[0,0.9279864105003568,0,0.8005198565243854,0,0.44829990381920837,0,0.41310922420038043],[0,0.17059415921837973,0,-0.03786227280337995,0,0.23948874387167796,0,0.5840091744231419],[0,-0.6707779657745458,0,-0.1183418247410033,0,-0.34862576858839955,0,-0.17037476619298664],[0,0.02350662000132475,0,-0.7897483540576136,0,0.059074771155086525,0,-0.5686215700723516],[0,0.752602634895422,0,-0.09831471505168876,0,-0.13612722318692416,0,-0.027483107767397152],[0,-0.3222514556003675,0,0.12478926905419807,0,0.5903949458893631,0,-0.30231941829391307],[0,-0.762432514956606,0,-0.5851377525031092,0,-0.24301274245783833,0,-0.5621479070087556],[0,-0.4834259999772872,0,-0.880259095116088,0,0.02667085860273044,0,-0.7176052966631048],[0,-0.3981883378090296,0,-0.7861624599102943,0,0.9917666255339588,0,-0.021292271228257942],[0,0.03949855700326732,0,0.6335263354441687,0,-0.6465198132575762,0,0.9013571774768119],[0,0.9430115559867778,0,0.42983810705916436,0,-0.7715579862470641,0,0.35636761710072484],[0,-0.6945073651807951,0,-0.7604988853201906,0,0.8474004506403647,0,0.9726890967422195],[0,-0.3651857214225498,0,0.8429435177118523,0,-0.9930321519195331,0,0.9816821968124225],[0,0.15559409459950535,0,-0.09204834930767913,0,0.2935251757313926,0,-0.7032092917348536],[0,0.5124013591029306,0,0.4102555490891582,0,0.3190906471704891,0,0.47940120602541714],[0,0.1602519367461801,0,-0.32260757720310473,0,0.9921641215531685,0,0.9132158597853879],[0,-0.5570593428650694,0,-0.4802241222855903,0,-0.8077407244085899,0,-0.19170702623462876],[0,-0.263285985763662,0,0.4929773506377644,0,0.12504115285607886,0,0.017238965555950836],[0,0.9762381425491513,0,-0.022195726193502185,0,-0.8943119313604846,0,0.06986196806771972],[0,0.38177141119804303,0,-0.5301623023340816,0,0.5513011004278692,0,0.31892666016174376],[0,-0.7290972535067946,0,-0.7623303309117684,0,0.5588862216129713,0,0.6384777409610103],[0,-0.5348285714515,0,-0.6608403562080392,0,-0.3963607087305381,0,0.7275268820461291],[0,0.9913358862373551,0,0.8776068343961094,0,0.6129649066351586,0,0.745727464507842],[0,0.5290124372358609,0,0.33481317936130717,0,0.954865110627851,0,-0.2560120428233863],[0,-0.6291407290986375,0,0.8355910233185846,0,0.725035822740822,0,0.15180455755415667],[0,0.5384320789371908,0,-0.7216543510204236,0,0.12521302220278674,0,0.4444199627083003],[0,-0.8637075730682067,0,-0.5910566968316482,0,-0.30398734278507455,0,-0.9632542387233949],[0,0.02890253668988496,0,0.12015170164351208,0,0.70071284116682,0,0.4373109261752093],[0,0.48929317779403947,0,-0.47348144301329675,0,-0.9478715662591977,0,-0.2556700768620386],[0,0.5954444894195239,0,0.6946327819901843,0,0.832932432995674,0,-0.3226895172051951],[0,0.8397732469103001,0,0.3012892802168319,0,0.6804814025392267,0,-0.4885505384676774],[0,0.6690722956497279,0,0.9471582916488426,0,0.09040467745200198,0,-0.4816065578922941],[0,-0.513298422442144,0,-0.6288627697500639,0,-0.961078520520485,0,-0.18423093286891534],[0,-0.9742165044280497,0,0.39064088495591265,0,-0.7679483826002438,0,0.8892157524274644],[0,0.9416077026716496,0,0.03566562034733245,0,0.7605901724663469,0,0.474482151275436],[0,-0.026595493791477187,0,-0.9504613312325565,0,-0.027081757260166928,0,-0.02652481978805854],[0,-0.9099018692054652,0,-0.3031555027122885,0,0.9734262256008337,0,-0.8730210433235672],[0,0.6616054349341172,0,0.6490966067167203,0,0.31252821819661736,0,0.2780894759532242],[0,0.8866975595785695,0,0.611301323690493,0,0.1549496959021046,0,-0.765762071446842],[0,-0.5396038605913271,0,-0.6923603258660669,0,-0.5038258010388212,0,0.4720046268196809],[0,0.7783280469934848,0,0.4620696278818346,0,-0.1573633516155435,0,0.22775359091777903],[0,0.8524164442858015,0,-0.510269652902317,0,-0.8205445547478993,0,-0.12155491152141695],[0,-0.4482617056275877,0,0.7576084426088245,0,0.020197527003042337,0,-0.05918725034457695],[0,0.784332598046227,0,-0.521997281484532,0,-0.13362540996185146,0,0.003419147675856271],[0,-0.19980446929892515,0,-0.43409554330474465,0,-0.4999291044751726,0,-0.04506798621205732],[0,0.9226529250237598,0,-0.8785141007912562,0,0.19130691173369074,0,0.9832917699373895],[0,0.70475279303045,0,-0.40853023514271336,0,-0.8775541110401486,0,0.9942687992962014],[0,0.759274562258268,0,-0.8817706603735962,0,-0.8848462276040165,0,0.33423702598601457],[0,-0.6745963099122403,0,-0.8969522790823217,0,0.09112529312693929,0,0.0008186429771757098],[0,-0.9879253912278294,0,-0.40995779137836386,0,-0.3940064416659297,0,-0.1136169080114795],[0,0.09743748866928104,0,-0.28016101012464234,0,0.2665419820412951,0,-0.9767890241906563],[0,0.265857263980537,0,0.2071595990264492,0,0.8745417985595707,0,-0.7145376804418349],[0,0.7283069228142158,0,-0.4359388763671306,0,-0.2637589669705289,0,0.5519162280061412],[0,-0.7010298214768163,0,0.6206480093832083,0,0.7347335446693657,0,0.9447780444237024],[0,-0.8096789263952062,0,0.7876531150885402,0,-0.5168594378164688,0,0.4336762513181782],[0,0.04090229458342853,0,0.4603625586430946,0,0.1597402985380667,0,-0.16969780568768544],[0,-0.9955239376814462,0,0.9809383000993896,0,-0.5281170704923503,0,-0.0020287265092895357],[0,0.6061753111971309,0,0.6562686365105639,0,0.6037339902649872,0,-0.03828554401336648],[0,0.5107357706675311,0,0.47105767296922973,0,0.9735894308747668,0,-0.4716648232780416],[0,0.34984202019215327,0,0.34093980549378844,0,-0.8402892751128217,0,0.01219677886117676],[0,0.3200755245653846,0,0.017986135601794517,0,0.4493310351173785,0,-0.28866805750026003],[0,-0.6100967838718041,0,0.09104568552027947,0,-0.8763139298536511,0,0.8897951225277969],[0,-0.3563991789532539,0,-0.08405564307904734,0,0.8126270167713787,0,0.19600602323748717],[0,-0.45804370823330776,0,0.765640907020777,0,0.0355755127920665,0,0.6831611974353464],[0,0.6940535132391834,0,0.008018598785071163,0,0.39128468354696144,0,0.8966183953023454],[0,0.11138768437671254,0,-0.30093118136288033,0,-0.23292827840139507,0,0.8544863295705742],[0,0.8550188294130798,0,0.6218010508871314,0,0.408892600388467,0,0.1714815753970702],[0,0.488421822470567,0,0.5062917656140811,0,-0.2731687836022836,0,0.062440630519129625],[0,0.8131443446088,0,0.933863135175796,0,0.30627894457525584,0,0.5107057274174438],[0,-0.008661217021462164,0,-0.7415395819631732,0,0.7532835267173288,0,0.49792893320143805],[0,-0.651315406209168,0,-0.22912554360052484,0,0.7232492265683184,0,0.8656682327760996],[0,-0.09682611039827993,0,0.2865353507819708,0,-0.23462555904935822,0,0.1154774048192242],[0,-0.020316646000894334,0,0.35517951658188696,0,0.4609136848513564,0,-0.7469804781332721],[0,-0.8527892678044977,0,-0.6292276738362366,0,-0.25844328723230725,0,0.6430617757667998],[0,-0.844894071558494,0,-0.9973548468467788,0,0.2449189023954359,0,-0.23396238583464335],[0,-0.4534191173738531,0,0.5738848238700966,0,0.09734019822288986,0,-0.24680903806755405],[0,0.19223436896862256,0,0.28059098245817427,0,0.6098948321644515,0,0.6261435834973956],[0,-0.8867173934831278,0,-0.5243045371150472,0,-0.96828602929328,0,0.27805777910322615],[0,-0.3463623132473177,0,-0.3663847727803218,0,-0.27456975552909935,0,0.4073908579031329],[0,0.31193087775041417,0,0.06708942785831007,0,-0.0872469720549407,0,-0.1484301138513715],[0,-0.6409702061033846,0,0.9851284928016566,0,-0.5161112180229888,0,0.06674040671760073],[0,0.7435514272781465,0,-0.9389181424554829,0,0.27272230210706905,0,0.8610725513882462],[0,-0.2726722526641556,0,-0.6775916076097335,0,0.6703788586681327,0,0.9129350372218823],[0,0.19473111820157496,0,-0.12118746871243768,0,0.48298994647517124,0,-0.9084230400358217],[0,0.644222695032036,0,0.7729867365707765,0,0.5351885902156384,0,-0.8532158766751181],[0,0.4974375425890596,0,-0.9317209785872875,0,-0.32093713694217296,0,-0.05469468610334327],[0,0.5505758126993441,0,-0.8198174400514311,0,0.5890000202363734,0,0.10567256977791262],[0,-0.855180270337774,0,0.41362246706681205,0,-0.9939433020816453,0,-0.38063372126919526],[0,0.9469521526030253,0,0.6855930132157986,0,0.9411931593136356,0,-0.1548942334851997],[0,0.10830296512304738,0,0.49277685424465,0,0.7549130450830901,0,-0.8756275096109685],[0,0.009604588362829514,0,0.3263549015738796,0,0.00155402678092309,0,0.19010280180025552],[0,-0.19870992680793953,0,-0.05870432557837324,0,0.45967598149399924,0,-0.473186875205996],[0,-0.486779535623344,0,-0.8450111467901531,0,0.8656984489298152,0,-0.11074856778492981],[0,0.634781639588049,0,-0.8198327213361962,0,-0.4738589536019262,0,-0.702006204780337],[0,-0.24425655327873175,0,0.8896395096843757,0,0.20452382178877726,0,-0.9957639202169062],[0,-0.8897724282768564,0,-0.13456748348649827,0,0.46218829590030475,0,-0.8476437714077358],[0,-0.31941686055792773,0,-0.3974765909948821,0,-0.021998051860070644,0,0.16765245857667077],[0,-0.1050772425342621,0,-0.1825838893680165,0,-0.7198869919914446,0,0.2579905668441935],[0,-0.10847534983563345,0,0.4543974615048194,0,0.7936252910310171,0,0.8419205034368475],[0,-0.1747409451676083,0,-0.31261459879912845,0,0.14126538577507053,0,0.20215237201351033],[0,0.7556512798856765,0,-0.017139699754511684,0,0.22981875507182647,0,-0.787891467407223],[0,0.2831462100483486,0,0.11944762794177,0,-0.18668724064286368,0,-0.405402923116162],[0,0.28959193973629516,0,0.9522994209692377,0,-0.0553699618731438,0,0.8454810767758514],[0,0.8909144578784853,0,0.665499607273164,0,0.010436126339946616,0,0.6915441237703306],[0,-0.9755933069149343,0,-0.7267039196073124,0,-0.1099892309983832,0,-0.24941715532300757],[0,-0.029989358290906543,0,0.21104134499309302,0,0.18677386059193601,0,-0.07691612402696002],[0,-0.45557804872828767,0,0.9993007933597444,0,0.4520007137751516,0,-0.03132869795388893],[0,-0.2911987221654331,0,-0.830333586173454,0,-0.14657513887068863,0,0.7068391123697382],[0,0.8953291236741148,0,-0.09160820001900438,0,-0.16287176504837575,0,0.3303102895786896],[0,0.4847940885050124,0,0.20404172401085097,0,-0.01067589462950802,0,-0.5693060934525396],[0,0.5568576692465455,0,0.6779291495594402,0,0.5253386453336375,0,-0.4900625301871251],[0,-0.7134086463169524,0,0.7311888755080653,0,-0.38369770288809724,0,-0.012597390084351234],[0,-0.8246636646639007,0,-0.840083302075012,0,-0.8902363443087118,0,-0.9887823145446673],[0,-0.3191129916028428,0,0.9698799733373851,0,0.10864291633254064,0,0.7438909802409486],[0,-0.24854535149957124,0,-0.2351154393306789,0,0.34364407967026733,0,0.21599518327202682],[0,-0.7301798647147022,0,-0.2120399500869028,0,0.30744885289707424,0,0.32806230915698475],[0,-0.5214634493134582,0,0.4621046914325788,0,0.7147182946584303,0,0.1296566816540372],[0,-0.9160022820107276,0,-0.8925913370432967,0,0.010130813677812212,0,-0.8840791267887678],[0,0.9266399293249885,0,0.4039520234253311,0,-0.6326109458121756,0,0.95571848931433],[0,-0.1435015443726182,0,0.12495360263028688,0,-0.09466937606155024,0,-0.198174542305819],[0,-0.23220673585305773,0,-0.3177767974126291,0,0.6929811952950815,0,-0.8675506895011187],[0,0.6231707573256136,0,-0.8939514834994728,0,0.5235914783894837,0,0.9346848754815571],[0,0.7376829157610816,0,-0.775773412636831,0,-0.5915974169025815,0,-0.03565816014006251],[0,-0.4054629700407446,0,-0.9899726885253692,0,-0.7259123183870855,0,-0.197091218522236],[0,0.02910283014074455,0,-0.66354563369621,0,-0.5564792384986452,0,0.4812457509502974],[0,-0.25538281562989384,0,-0.29575194971158836,0,-0.86227342598394,0,-0.44907431000985554],[0,0.8124793942967177,0,-0.09634895037960489,0,0.45756835265595974,0,-0.3420261447169517],[0,0.0619831304844598,0,0.025038411926251447,0,-0.9130650703076415,0,-0.0899192345346691],[0,-0.9212156651267804,0,-0.24891091840899526,0,0.304888705492264,0,-0.372805233927461],[0,-0.09164226206000348,0,-0.5567445217433467,0,0.8024426564594329,0,-0.5732738269142104],[0,-0.4998526034353561,0,-0.822134095548545,0,0.2703351786873551,0,0.01842415652541196],[0,0.43006983893166795,0,-0.4077278304171421,0,0.7573756523186259,0,-0.42968372346423034],[0,-0.49651799498499494,0,0.1690331759687309,0,0.3946364375632996,0,0.05592682921038317],[0,-0.5323215928420015,0,0.4162031957003707,0,-0.7610289490623756,0,-0.3956798136873019],[0,0.2524360534290029,0,-0.7056279310037357,0,0.7100395260328469,0,-0.451657315246607],[0,0.9090780707231756,0,0.19618238322486503,0,0.3782270829294141,0,-0.39723591999632046],[0,-0.2670197126002465,0,0.8016263833894992,0,0.7065442702937861,0,0.4028490299042373],[0,-0.06860145846660992,0,-0.7874952922816914,0,-0.2422002724532597,0,-0.5047837997655031],[0,-0.36205308107957856,0,-0.08799404683132472,0,-0.15095920971492682,0,0.7966710466225977],[0,0.0770107001880842,0,-0.699555361942958,0,0.6684591713268571,0,0.5230264599724528],[0,0.24583110799756924,0,0.8257735545220954,0,0.4656628262404163,0,0.6387536519911223],[0,0.6089513377592815,0,0.05756416627313499,0,0.584418143997611,0,-0.010366543417681617],[0,-0.010832608509497188,0,0.44572691836831124,0,0.8276692673000399,0,-0.5455930270651663],[0,-0.9089204830229249,0,0.9603221154115906,0,-0.07215489652383922,0,0.6877515842759485],[0,0.9077939509141633,0,-0.6736112300515671,0,0.7411669620453465,0,0.32573796519993303],[0,0.6382769267434774,0,-0.8522017076501822,0,-0.30712582364139407,0,0.8862502565932895],[0,-0.3176829478504153,0,-0.1432824130482333,0,0.47098619953940046,0,0.020680683693342417],[0,-0.2179955674665126,0,-0.8696562646047639,0,0.9994249300399523,0,-0.7404618181249203],[0,0.443088206072765,0,0.18415129829140575,0,0.3170225218832352,0,-0.05656246007903798],[0,-0.6034720732375216,0,-0.8190290634681825,0,0.1471439871708149,0,-0.3577348943036829],[0,0.05000639794712414,0,0.8877963617132401,0,0.6633565697952937,0,-0.9608556036473155],[0,-0.3688746610479481,0,-0.33270502479295927,0,-0.7602186649271272,0,0.9921530542499635],[0,-0.9615417822875354,0,-0.09142512551131388,0,0.8204649814740741,0,0.2855714907254414],[0,0.2935876266513999,0,-0.918160124336254,0,0.9503138623601137,0,0.4437704016207926],[0,-0.07329207390877679,0,-0.25585759130565955,0,-0.5191656110220018,0,0.9046736212576101],[0,0.6303264265101869,0,0.028520901190937975,0,0.4971280068124062,0,-0.1639393987762412],[0,-0.9199494282330127,0,-0.5836113856187506,0,0.1082912790628312,0,0.9268004681989634],[0,0.9484003966984502,0,-0.0768834540449328,0,0.40157507492856226,0,0.5964382337945333],[0,0.8270399114340061,0,0.2193333864451299,0,-0.9186396263417189,0,-0.7596183997234178],[0,-0.9752269358200192,0,-0.33445788502243046,0,0.09721056586246068,0,0.36426521058438954],[0,-0.9768957669284903,0,0.7552312196455171,0,0.9109635965695313,0,0.7598969073504638],[0,0.7481148189822917,0,0.04173771414703875,0,0.9610309856635901,0,-0.7634809460098129],[0,-0.24313752500850794,0,-0.7333043911879815,0,-0.6472275843042155,0,0.8449458902521527],[0,0.9384609898011262,0,0.11298279415155421,0,-0.16298005353842226,0,0.01846616877743701],[0,-0.6055471977593787,0,-0.2273428829365467,0,-0.26547391071243154,0,-0.3967718564556224],[0,0.7900392540302217,0,0.35045020432998486,0,0.6223165149754215,0,-0.637847392727511],[0,0.6571864948409296,0,-0.9840336120672319,0,0.3186280839942379,0,-0.7897526256097454],[0,0.8825781824438312,0,-0.2271883827942649,0,-0.013681843670042326,0,-0.8244753096611437],[0,-0.0721604372303184,0,-0.2695445887008787,0,-0.9796664342475427,0,-0.12144833420093382],[0,-0.7935900816970232,0,0.8447077118354225,0,-0.20696952239894273,0,0.18499170439165735],[0,-0.5191054899705942,0,0.23526934720015258,0,0.30183991834270985,0,0.6093221933267301],[0,0.14667922324661364,0,0.393894723416216,0,-0.7030231229686952,0,0.03424391543369998],[0,0.8320448862259009,0,0.8642811892457054,0,-0.4374066752249288,0,-0.6408768219962298],[0,0.8719714874073241,0,-0.6951196252447052,0,0.6829800202155949,0,0.8021378670474488],[0,-0.09772526491918265,0,0.23840203364201695,0,0.8461233812324522,0,-0.245374372704386],[0,0.07267207022317312,0,0.24686164641134245,0,0.020128115087942655,0,-0.6775388248537244],[0,-0.8081737511511169,0,0.888599339855771,0,0.18371894264532118,0,-0.011883142893518883],[0,0.4943699717166976,0,-0.8062233290453615,0,0.20023792191010736,0,0.18839023183186998],[0,0.6593669781071476,0,0.23743581481657716,0,-0.6047431432982706,0,0.02660895757930004],[0,-0.7883826188512089,0,0.9942835210800505,0,0.9311277532153917,0,-0.1755474307747813],[0,-0.49832954277071906,0,-0.553059036039433,0,-0.33250311032522517,0,-0.23264169998895268],[0,0.08735859455678052,0,-0.2505220464979341,0,-0.6449878832138534,0,0.5088064164495127],[0,-0.4708785987027939,0,-0.8593713586317564,0,0.7301545753771364,0,-0.7273914229163139],[0,-0.6366596601772256,0,-0.7438363914769319,0,-0.6376687284804896,0,-0.271349443361939],[0,-0.6676410973705744,0,-0.4925278494390437,0,-0.04993454546241738,0,0.7163700250730696],[0,-0.17318435522409215,0,-0.7265145989993504,0,0.17132775159126168,0,0.7515760783724201],[0,0.9353698406607664,0,0.795650153703332,0,0.1637518547638055,0,0.17604748414875426],[0,-0.5011451484035068,0,-0.1292592202031002,0,-0.7563176907915492,0,0.7956735009528426],[0,-0.8696552140365099,0,0.7038754027120326,0,-0.43129371066590916,0,-0.09827072512516155],[0,-0.7104249959451328,0,0.6141794573250114,0,-0.8934779086800895,0,-0.31879311719258485],[0,0.18960937210371753,0,-0.32188079270853964,0,-0.5062973303143441,0,0.19594980034451037],[0,0.5656006893122993,0,-0.14939486111327094,0,0.15111339626717823,0,0.34666807951760825],[0,-0.8500569266035969,0,-0.37845651051599116,0,0.3684484412666942,0,0.5367384928083494],[0,0.07506933405493821,0,-0.15440822433422108,0,-0.02144863619106041,0,-0.8879768070997214],[0,-0.6354015334390628,0,0.025453920900767812,0,0.7128901936256209,0,0.07676710525823571],[0,0.17549235285694387,0,0.03412612763494516,0,0.3627594064375177,0,0.0719640348971411],[0,0.5183329888464212,0,0.029085589888926622,0,0.4664848262244412,0,0.15140824994897484],[0,0.8097856402821029,0,-0.858510109601174,0,-0.5988894880968976,0,0.5019769606361353],[0,-0.19923410190034163,0,-0.5839655585179544,0,0.4777493721926962,0,-0.07148235374451395],[0,0.1757812963583909,0,-0.5678065744503193,0,0.9229833589746956,0,0.6600414622820305],[0,-0.5666270013121262,0,0.05514651853472596,0,0.4744012187822013,0,0.8327525179116657],[0,-0.4654666234197926,0,0.8447739164247225,0,-0.2734347577569882,0,-0.1332286600233108],[0,0.24543158542946508,0,-0.2063220660365377,0,0.33440213966341936,0,-0.12276177050025217],[0,0.10272998820641988,0,-0.7297299664542487,0,-0.2857851178952342,0,-0.7531894714380525],[0,-0.5057719050610125,0,-0.6894622931966645,0,-0.021782286089092384,0,0.5353967198233562],[0,0.4745247177240375,0,-0.26781381505077406,0,0.49669686241384414,0,0.014296679507600274],[0,-0.37515930697773614,0,0.9374261386825926,0,-0.29739467669873676,0,0.28574803227153156],[0,-0.4819011679228582,0,-0.27424187723671944,0,0.5366011146654981,0,0.6852039657898321],[0,-0.8351900419199281,0,0.9556812359538001,0,-0.7237571458860275,0,0.4624981272778985],[0,0.1922680580947589,0,0.47433320475720464,0,-0.5987408535044245,0,-0.9006209116889003],[0,-0.5509905131750519,0,-0.6233544290384476,0,0.6175108033202679,0,0.5447255137786318],[0,0.22844545722310916,0,0.36067712692337395,0,0.19546994162260378,0,-0.3649185103291934],[0,-0.629970760457147,0,-0.28663380800644656,0,-0.6252598909345084,0,-0.4830212626160231],[0,0.12327329102508267,0,-0.7089798573049098,0,-0.2556519216190638,0,0.49884144095339056],[0,0.8493841813611369,0,-0.24855997990146483,0,-0.7707616989780557,0,-0.56590242490863],[0,-0.6127635176628532,0,-0.7503453704361993,0,0.5966059955949696,0,0.47344752888380626],[0,0.22486048541158765,0,0.8268173870213149,0,-0.758593307150929,0,0.8230706150048415],[0,0.4945699565989239,0,0.8018976594490848,0,-0.5814159890749111,0,-0.9931230145003913],[0,-0.7506879519349112,0,-0.38162422009057617,0,-0.9397394582142962,0,0.05474107251094851],[0,0.4797720361119693,0,-0.19677059459524338,0,0.8493390518598745,0,0.02498061120703321],[0,-0.1037803135651938,0,0.9630769089776097,0,-0.6833347000574297,0,-0.6818260464904005],[0,0.6260377363649146,0,-0.9275784076425595,0,0.3871063154328327,0,0.3507352714342822],[0,-0.3326746936115694,0,0.7015190594765124,0,-0.9793988643604734,0,0.33049699729529625],[0,-0.8090776956613184,0,0.2864672267923116,0,0.37744480193702423,0,0.11287597106915892],[0,0.5976541712256136,0,0.0616977100413687,0,0.2827680893965019,0,-0.5849725780976072],[0,0.6145496972951165,0,-0.1448752150977588,0,-0.3266196126271119,0,-0.9732792597860078],[0,-0.3467629324771926,0,-0.4112137255410844,0,-0.8191551971181641,0,0.08049739624821783],[0,-0.84432301728732,0,-0.9671108777048365,0,0.03785828887346865,0,0.9300000821252548],[0,0.716845066167972,0,-0.8712497679495916,0,0.09071299171189762,0,-0.26580903775776843],[0,-0.5990722663540216,0,-0.9737984155786792,0,0.8588174404529307,0,-0.5434961854605311],[0,0.8570500906976695,0,0.873606488807767,0,-0.6970399509372929,0,-0.33819590560131196],[0,0.5925071138063043,0,0.3537120427512084,0,0.24719978071198234,0,0.23035808343292263],[0,0.07592221772083274,0,0.9761410109633442,0,0.24497285995827855,0,-0.0931586497221284],[0,0.2197105792505596,0,0.2174048441275498,0,-0.9117935814968736,0,-0.536255707367979],[0,0.2306780987334578,0,-0.25810335236386317,0,-0.8710655169604926,0,-0.8176392752124286],[0,0.8195393231094077,0,0.14240206887438212,0,-0.883886783746638,0,-0.6591265117189786],[0,-0.6754084973856851,0,0.9062441991360952,0,0.3460370329980613,0,0.4478800573617363],[0,0.43173446474783006,0,0.643255384732005,0,0.5829588745343504,0,-0.9289724309450564],[0,-0.1375206898765169,0,-0.9956509799016175,0,-0.5727774156081287,0,-0.7157432906438996],[0,-0.34645729254241675,0,0.17454026472989992,0,-0.40858300040478257,0,0.9934806376069849],[0,0.46607507728089215,0,0.3418453050584027,0,-0.10923479349073584,0,0.6993536371603037],[0,0.7395261664293076,0,0.12356399017682906,0,-0.33783409199973824,0,-0.3828870778793174],[0,0.4446028283944248,0,-0.4259685665757793,0,0.797005935097171,0,0.4973039806976538],[0,0.691728152330628,0,0.10300074494421896,0,0.6060673371623586,0,-0.02247077254952412],[0,-0.48413646165853375,0,0.4013976422886809,0,0.3305539843355487,0,-0.15581328833323904],[0,0.7855085808134779,0,0.3012657735650053,0,0.271467830815485,0,0.19449486626155754],[0,-0.6268529606207334,0,-0.6107001638284797,0,-0.7697340696323556,0,0.16292610194612878],[0,-0.5236399070775937,0,0.14844141758572227,0,-0.7630657784630988,0,-0.38749829979507866],[0,0.29328105212877387,0,0.4195909958488826,0,0.3873159462508209,0,-0.009772786210777262],[0,0.13301878024452085,0,-0.9444327141839213,0,-0.9802635421782306,0,0.4072763325676594],[0,0.48113110418743354,0,-0.21797667519172936,0,-0.5683308674380445,0,-0.07164005128631978],[0,-0.4578191469074351,0,-0.5148927015920051,0,0.8703898087683537,0,-0.9589567834551329],[0,0.34586257407961196,0,0.4132332362362776,0,-0.372729021181347,0,0.3246044676597972],[0,-0.3698614057811802,0,-0.8895940650858505,0,0.7235694405568431,0,0.44935512290456425],[0,0.40427840048271846,0,0.2911218869434622,0,0.8962648658398298,0,0.8111699083743411],[0,-0.6533525421080315,0,-0.6780537972594038,0,0.37570923386716815,0,0.3423036566861837],[0,0.00654406696671983,0,0.4924438826743427,0,-0.7074494899035428,0,-0.661600414876141],[0,0.15633755252648585,0,-0.16177809053676806,0,-0.5404022678892755,0,-0.4970780164180324],[0,0.5796129998537649,0,0.9214163098639188,0,-0.2550043076902977,0,0.8340744625830774],[0,-0.9170190058323366,0,-0.3209631700715092,0,-0.7137160610124389,0,0.4655925301476389],[0,-0.4163353102098093,0,0.21716067358520874,0,-0.6093861415771351,0,0.12162822311301369],[0,-0.24807128825146418,0,-0.7409572295372464,0,0.12460485686614842,0,-0.5427280175955473],[0,-0.12313199591462576,0,0.8477908951270092,0,-0.6819799902898467,0,0.23008537654769112],[0,0.3760283553345971,0,0.8593297916631015,0,-0.011352262182977357,0,0.984346272473192],[0,-0.316218044293783,0,0.8989583843244449,0,-0.9585226937640725,0,-0.27146383616225256],[0,0.1303364263365705,0,-0.765119661225834,0,-0.496540599266581,0,0.9479278927033743],[0,0.8627070665339809,0,0.5646685768778883,0,0.5258472325611283,0,-0.7820405496499088],[0,-0.13906340616849056,0,0.6157004666178945,0,-0.08068493517045061,0,0.6704080928277827],[0,-0.33270099037302336,0,-0.15182006311833818,0,-0.9172445332115455,0,-0.3867928037408759],[0,-0.42682281813795897,0,0.859440101796082,0,-0.15514063412598,0,0.716076314506749],[0,0.6977578320085946,0,0.48079848859475094,0,0.9582858101046872,0,-0.6520375104097769],[0,-0.3553601932448094,0,0.013315007591843564,0,0.7694318117339527,0,-0.11138000006241255],[0,-0.7630953933630473,0,-0.43361940869151994,0,-0.06748447509421518,0,0.135483432949979],[0,-0.7918475973496613,0,-0.9568566967392853,0,-0.055110552104571164,0,-0.7116838694841916],[0,-0.33354164686034404,0,0.9593560229655815,0,-0.24879673852858963,0,-0.5820538936997344],[0,-0.34984172844895634,0,0.9873084133760062,0,-0.3027611445746272,0,-0.1882720250497818],[0,0.15882565711522867,0,0.8840841012867682,0,-0.29005646777787963,0,0.13719825606070235],[0,-0.3302457082178496,0,-0.7065385669704445,0,0.7383905351625564,0,-0.023280509396698568],[0,0.33971551466032546,0,0.80335539979756,0,-0.7889010715729556,0,0.9597368881931003],[0,0.8437104725098825,0,0.5957753358954645,0,-0.4516522441006461,0,-0.5444010647908042],[0,-0.8831080339652628,0,-0.9561484956105875,0,-0.3861764533430365,0,0.5887217880814888],[0,-0.8572163843226872,0,-0.30943689801287055,0,0.39814207097574617,0,0.19920551854864965],[0,0.37037658318729827,0,-0.8136250345234548,0,0.1974894009958983,0,0.2958379809485343],[0,0.3446372879140651,0,0.9680731308883133,0,-0.9161707351215853,0,-0.4652493636678894],[0,0.6994139263976762,0,-0.2713372890536152,0,-0.441170994815943,0,-0.6941811871047565],[0,-0.21131941934941878,0,-0.9417265042520784,0,-0.05814357075085663,0,0.12022630887627583],[0,-0.07848756291149517,0,0.028594583226699388,0,0.2631060348157068,0,0.16644327725237296],[0,-0.5818612002310364,0,-0.05156202831444201,0,0.21611424281975888,0,0.13819399105182772],[0,-0.48112771236141283,0,0.03561007195224519,0,-0.9303731187642179,0,-0.26318098698930625],[0,-0.44533246515939595,0,0.33034654128693064,0,0.34698609345097564,0,-0.3882347414994094],[0,0.7275142198735627,0,-0.18185436428910018,0,-0.44809453080520556,0,-0.07323589171978417],[0,-0.6491763483860409,0,-0.5650874491230315,0,-0.7472931498063211,0,-0.7744122398827464],[0,0.46442058014037735,0,-0.6050951352117637,0,0.432794075400055,0,0.820100104120997],[0,0.36570488132010226,0,0.11204908613926601,0,0.17334347489297652,0,0.534648344125247],[0,-0.21199826672424082,0,-0.12222592789438957,0,-0.5451078227039416,0,-0.6853316070775108],[0,0.20907096931412794,0,0.4135872027057108,0,-0.8522894356243873,0,0.9437060175850165],[0,0.08720015115980906,0,-0.5658037949793546,0,-0.8934535582589247,0,0.9118831070286182],[0,-0.30074109401377624,0,-0.5629417922441147,0,0.6935327892236605,0,-0.6598324443648811],[0,0.6945447174149795,0,0.07681502443525434,0,-0.9762462511976491,0,0.7886322596518787],[0,-0.5197955873010582,0,-0.31184702902319694,0,-0.23883338017949507,0,0.763217690147483],[0,0.11846761844735187,0,-0.21179769023036532,0,0.3882803156334709,0,0.7843403082794456],[0,0.5428824888065527,0,0.7196703566144429,0,-0.46880518931068105,0,0.9920169176146776],[0,-0.40980341409209364,0,0.9884806471949836,0,0.1423087709528088,0,-0.563995814263355],[0,-0.4035207329811863,0,-0.69523264736371,0,-0.8737952625909811,0,0.43577904966562486],[0,0.12053469685792217,0,0.8536542169566621,0,-0.6600735015936403,0,0.6940155965817583],[0,0.7346080576708434,0,-0.09767643011836857,0,-0.19293586836629517,0,-0.7914589159083933],[0,0.7618405414196832,0,-0.507539877720605,0,0.45576693542109825,0,-0.5484182120897267],[0,-0.658118424158306,0,-0.3277675362986001,0,0.7240065452969549,0,-0.22856169045945696],[0,0.27052077048153444,0,0.48955248197113743,0,0.9711168031054564,0,0.5205575475390745],[0,0.6861533063891183,0,0.7984317870515385,0,-0.2071615048972686,0,0.025296312790557884],[0,0.8653482653721367,0,0.8228323805601623,0,-0.9421981670284238,0,0.18650086216610307],[0,0.14174007534893174,0,-0.6225141191385792,0,-0.23341847264490245,0,0.2363531742898417],[0,-0.7230823112467748,0,-0.3372643850400656,0,-0.31983703234187466,0,-0.024235384053050257],[0,0.4889390062838783,0,0.6305319977169155,0,0.07286107972269829,0,-0.3220759873878547],[0,0.7835512265120452,0,0.061291048374263024,0,-0.06456372801940957,0,0.7674370452059711],[0,0.2351504084897651,0,0.6964037564179455,0,-0.512644724317922,0,-0.6291796560489513],[0,0.4289673378852139,0,0.038761823361684655,0,0.9528482781680911,0,-0.11705680438705324],[0,-0.5970800902457767,0,-0.23625650868353842,0,-0.7863847548862786,0,-0.19466318036630792],[0,0.11702426561274049,0,0.07568217026576218,0,0.1717399867124716,0,0.2861200826417025],[0,-0.26978800847653384,0,-0.20008336130184068,0,0.43957059853321345,0,-0.9723820581124376],[0,0.7788515852899458,0,0.5181024652616031,0,0.3190314404038075,0,-0.47342203444551],[0,0.7282274792131846,0,0.6345400582243115,0,0.9410314845186298,0,0.9732170973236047],[0,-0.6923182605688891,0,0.9038542162428376,0,-0.09366016034165714,0,0.5591603314204239],[0,-0.45792263096363084,0,0.6554375360051747,0,-0.19749939550318651,0,0.43066034445648116],[0,0.45669455229053635,0,-0.28235128141587085,0,0.5670631912188042,0,-0.9276851645010111],[0,-0.9403742622007103,0,0.8748342332108907,0,-0.17439295341667527,0,-0.48217209432714636],[0,0.3951864176350963,0,-0.417179313525573,0,-0.946257347951801,0,0.458188107421305],[0,-0.7861860468743456,0,-0.3763971351446578,0,-0.3045252089019239,0,-0.9460346917698095],[0,-0.8816222037360968,0,-0.6024697110683539,0,0.21601533697962805,0,0.057256356575779765],[0,0.9237790944729496,0,-0.36862556935866864,0,0.4753382113874396,0,0.7101367521679511],[0,-0.593829627257541,0,-0.5767646716723369,0,-0.2205294715741961,0,0.8103051182645078],[0,0.6200784298719495,0,-0.24967453706132625,0,-0.5002826519309709,0,0.3209338865100215],[0,0.5261674932457499,0,-0.166753203180787,0,0.24572199548395757,0,0.9505695524964044],[0,-0.20066685812453233,0,0.08045444987080219,0,-0.7635351518037279,0,-0.7597486055514782],[0,-0.6237309597374396,0,-0.2708204663875813,0,-0.2659916972426213,0,0.868848800896211],[0,0.5536034605717164,0,-0.24583957323840222,0,-0.8120019819887732,0,-0.876057237397043],[0,0.26215464917752884,0,0.13311147177627558,0,0.08463395033972798,0,0.7844063947406399],[0,0.5198075179798387,0,-0.8620647236690502,0,-0.5979725215485934,0,0.022168454608692434],[0,-0.9950329963714897,0,0.9632626461898599,0,-0.9554358359434807,0,-0.6455309575909338],[0,-0.8055029497415416,0,0.708983282233729,0,0.6620955591546831,0,0.16424877634396373],[0,-0.42549265858242147,0,0.5010078238676134,0,-0.1445149997818269,0,-0.14486318255984543],[0,0.059301621294878926,0,-0.6354203299542305,0,0.9282369781104745,0,0.31883444281094286],[0,-0.05674302086535277,0,0.3570343305788235,0,0.06464222472897352,0,-0.9334829990239768],[0,-0.5376454611907397,0,-0.5780191988769652,0,0.0980735568933,0,0.11220652303246137],[0,0.356535750475659,0,-0.5555418547558897,0,-0.12122914567624998,0,0.4948938994307577],[0,-0.29898743132491945,0,0.06669910944323032,0,-0.3413433041813607,0,0.18751938392752066],[0,-0.2858889974984524,0,0.9667099999378128,0,0.8814277915964888,0,0.0647472040892596],[0,0.25118248447976166,0,-0.49304590914962954,0,0.2993687778118921,0,0.5877979668004856],[0,0.25856949023256437,0,0.9280050785197251,0,0.4340407677960436,0,0.9134318840254991],[0,-0.41143417213013667,0,0.5921133139800734,0,-0.9438028789777473,0,0.24550279388967167],[0,-0.7342360488209838,0,-0.8257920525830513,0,-0.4190149137200021,0,0.42133132967996656],[0,0.5471359746871727,0,-0.8470655804406186,0,0.05769214071060591,0,0.9614747091624738],[0,0.9326477879877797,0,0.47190540260847813,0,0.7790015445146174,0,-0.8897032466134462],[0,0.6601583310971302,0,0.8214220922600439,0,-0.5570770916904095,0,-0.24392791974950212],[0,0.15780980471841022,0,-0.3665000756842689,0,0.27126757885491193,0,-0.456814854666052],[0,-0.5709323793945349,0,0.5881113145257704,0,-0.4782580380999677,0,-0.024687131956808495],[0,0.41002163516666656,0,-0.8038636510541652,0,0.42643404141726604,0,-0.1426912534517164],[0,0.9655138461237058,0,-0.14540999261612697,0,-0.25232745889927344,0,0.034833858699760745],[0,0.3801103898945559,0,0.6622734812153996,0,-0.1370592887388964,0,-0.9353924523794088],[0,0.9518895021714446,0,0.23907348524890137,0,0.5737299963076508,0,-0.8155197158382625],[0,0.6114689666696267,0,0.8097144629956516,0,-0.3210779001741422,0,-0.24864173349588814],[0,-0.6343487543974073,0,-0.10715684082356325,0,0.7614905601807422,0,0.1763372169551496],[0,-0.19548346392854854,0,-0.9210929891409547,0,0.6080171147757079,0,0.3102321038665561],[0,0.9127473929494498,0,0.5853619006734794,0,-0.7862803067496786,0,-0.7809836025016674],[0,0.9904219002877652,0,0.5453269961415188,0,0.42139406769254695,0,-0.6624866862879379],[0,-0.38453499588521245,0,0.3158787538433452,0,0.9008721335588517,0,0.10100992440781975],[0,0.26940174511988646,0,-0.5152424923193621,0,-0.6036956039454502,0,-0.6717084714921351],[0,0.5000077267906742,0,0.7093354526749842,0,0.9517770990064942,0,-0.1340756680921018],[0,-0.6910931442510848,0,-0.9607242763456241,0,0.171476868062866,0,-0.6975597509405365],[0,-0.1708817045553075,0,0.95438708852793,0,-0.5211799876430727,0,-0.07759320223934707],[0,-0.7029915496072185,0,0.9917605820469686,0,0.8096653874340658,0,0.494193976433295],[0,-0.17494321525352907,0,0.541349429326277,0,0.20793424227537138,0,0.9715760372466093],[0,0.5462969722487447,0,0.15673326324220205,0,0.3876624498429295,0,-0.26186352932348744],[0,0.32824843676937543,0,-0.4421140939348509,0,0.4837145134773566,0,0.6347710422231081],[0,0.4436065816361858,0,0.39534310174154164,0,0.9340909658018517,0,-0.31558746087292855],[0,0.33691250456698896,0,-0.19975414082777831,0,0.7199651068311401,0,-0.8355708073895982],[0,0.9408768691704208,0,-0.23768806111473273,0,0.03528684438816376,0,-0.5240239672211895],[0,0.8729851416976806,0,0.45786752226375915,0,-0.1340047077461486,0,-0.8790926089290725],[0,-0.7175351022280676,0,0.7926482669753134,0,0.9295851271114479,0,0.0206866174075111],[0,-0.8803511319183375,0,0.62915720172728,0,-0.04102609174977734,0,-0.6019427733089004],[0,0.1642202715334804,0,0.4359452048581054,0,-0.5896784254061738,0,0.4910673571726891],[0,0.27578088180461213,0,-0.5737417064169181,0,-0.6673437091068015,0,0.4803684293786894],[0,0.019634655418272473,0,0.6460731636277706,0,-0.6421370725110238,0,-0.8154637414536148],[0,0.07263273235109824,0,0.926621610957902,0,0.5527958386243115,0,0.31449148667468463],[0,0.6283798892242929,0,-0.8659186829861771,0,-0.7790222705883063,0,0.37692376758022705],[0,-0.6019458237751463,0,-0.2708096493014407,0,-0.35044749329771196,0,0.6779530439427615],[0,-0.2574543421480262,0,0.29211889902646915,0,0.2678606799840124,0,-0.697911182980931],[0,0.9735730896892003,0,-0.6269885444190806,0,-0.28278919920016765,0,0.4278761070246764],[0,0.9258899523394715,0,0.796189921882998,0,-0.07287748992216891,0,-0.10955367475669231],[0,0.5296449301369206,0,0.3760864473222829,0,0.45152002551304915,0,0.5125174613306538],[0,-0.698584943059084,0,0.8955532457592303,0,0.03905860067979727,0,0.39921795378664093],[0,-0.5756171093340126,0,-0.8477259916068169,0,-0.30503101524557574,0,0.1284352354239091],[0,0.4025809407062315,0,0.896580684418659,0,0.33750805433633824,0,0.5672193085334325],[0,0.15108267150412158,0,-0.4359433721225241,0,-0.43969221451430474,0,-0.09390128985600299],[0,-0.17653128566791843,0,0.8488855998038998,0,-0.017383753110512545,0,0.4269954956505715],[0,0.6798532959806443,0,-0.6310155612571116,0,0.20262931429055908,0,0.5067528989967742],[0,-0.13679279206572237,0,-0.05846528565343645,0,0.46481320921133396,0,-0.5928819167524528],[0,0.07866707512473403,0,0.31760780181169523,0,0.8103224869005887,0,-0.4866492391851134],[0,-0.1400255188549835,0,0.6171548639232756,0,-0.29967983370683604,0,0.8574555139300715],[0,0.35914072973384403,0,-0.8392880722935414,0,-0.11478954887808812,0,-0.0016348617171060287],[0,-0.5901131109483946,0,0.9117484781963932,0,-0.3615027162483031,0,-0.36977038309037935],[0,-0.0076390024912005305,0,-0.6763342373872456,0,-0.6178144696483625,0,0.6512930598135287],[0,0.16608875217642605,0,-0.9719708612618805,0,0.201344129544625,0,0.8496709055841616],[0,-0.9599340854645273,0,-0.4943025096393301,0,-0.22134601617654126,0,-0.15133500989248527],[0,0.41335425563699246,0,0.6500900927057343,0,0.8754666609170729,0,0.5030850559326896],[0,0.3464960076803849,0,-0.038090452780759065,0,-0.35589728650187835,0,0.5493714731683528],[0,-0.8864850017851169,0,0.007218607286237688,0,-0.223178068553195,0,0.9861426704935599],[0,-0.2637741429767666,0,-0.2741549898326976,0,-0.21989952780245048,0,-0.6018804406105998],[0,0.6170248313735669,0,0.19466810390497602,0,0.5085538662738001,0,-0.7647943975622506],[0,0.6632905778180809,0,0.5304185977616243,0,0.5010464032528861,0,-0.08016816698631768],[0,-0.26402496357513017,0,0.7592006742944815,0,-0.36776740321695645,0,-0.420498428021999],[0,-0.743081946364768,0,-0.3149757513260667,0,-0.8740222340893273,0,0.18779999945008763],[0,-0.62612746213345,0,-0.9427870245994601,0,0.0728089891926198,0,-0.054039873892433254],[0,0.20918053140238313,0,0.6666320252793783,0,-0.7482498612965816,0,-0.15159386813155118],[0,-0.5925073635312004,0,0.3932573154601777,0,0.27759821432162446,0,0.5495221656478269],[0,0.4498774083748647,0,0.6826866798970634,0,-0.12209817908167109,0,-0.11477632933238979],[0,0.0161199883122658,0,0.44677082392044687,0,-0.5503963497367292,0,0.7017355988601768],[0,0.05396215120131287,0,0.9636206757686949,0,0.9535156200623247,0,-0.9946891568946912],[0,-0.846510343917884,0,-0.005174692705749884,0,-0.3245057947215113,0,-0.12955040107879978],[0,0.3268255198412975,0,0.04279368745157952,0,0.4163900881838192,0,-0.9694910605893179],[0,0.3577407220243596,0,0.43870983425589416,0,0.2685475894317719,0,-0.37657993077999286],[0,-0.48725218701617856,0,0.7816716260317587,0,0.29483266479249326,0,0.17655809776705955],[0,-0.40530495117182475,0,-0.857841035003005,0,0.14687186232534732,0,-0.41136131053137803],[0,-0.9281674985616843,0,0.39805725853700324,0,-0.05761239119860129,0,-0.3971574274501366],[0,0.3297741397764473,0,0.08903907047678139,0,0.567217621540653,0,-0.935801927921502],[0,-0.02926613816108059,0,-0.7448148161666119,0,0.975810923912888,0,-0.8844208634149309],[0,0.5238656264458232,0,-0.1316950139648374,0,-0.9653061106999057,0,0.41050562531146007],[0,0.9324911708487624,0,0.6694933386932989,0,0.9866049959599312,0,0.4072593848189965],[0,-0.2515470239515796,0,-0.5059602122706863,0,-0.2913007874081237,0,0.8576585185477015],[0,-0.9092185387425724,0,0.4948841688476249,0,-0.40357507689310346,0,0.7151604097287494],[0,-0.8846799489953747,0,-0.9316098406204345,0,0.12538194324171825,0,-0.13920781773363844],[0,-0.006095839882461318,0,-0.25871276362136864,0,0.9266697789620002,0,0.28173457116058764],[0,-0.7838566173177843,0,0.7952094085284525,0,0.5569403638080579,0,-0.36378488938965536],[0,0.4038093867962269,0,-0.014663825251149065,0,-0.9474291657910152,0,-0.500307869429023],[0,-0.23271512032398656,0,0.3522215082695366,0,0.8280769983135792,0,-0.9888578243865158],[0,-0.1645171414416069,0,-0.16902768583454542,0,-0.4879106341373798,0,0.12458853034004158],[0,-0.8449029273959181,0,-0.8704822685884561,0,-0.09008182397897291,0,-0.7801608237417708],[0,-0.7180002670995138,0,-0.8222122157326943,0,0.43993633307533053,0,-0.5622708208386653],[0,0.5770534518818962,0,0.34219888140540067,0,0.11171209948137495,0,0.7789908761454472],[0,0.07055957429249116,0,0.5549202529213924,0,-0.6029729000574966,0,0.7422040457182941],[0,-0.025983418404207592,0,0.5249758040867951,0,0.19061787087029747,0,-0.9248947321543284],[0,0.29481595173858044,0,-0.7216882644131932,0,0.46568263486759687,0,0.07486472793620047],[0,-0.5510433199524267,0,0.4165399478654739,0,0.19989758045160455,0,0.7967665114284912],[0,0.7688116180177456,0,0.6891445728061247,0,0.6808907394636299,0,-0.48294374468347856],[0,0.36743244112074147,0,-0.25848261342920464,0,-0.6041756566827376,0,-0.15545114689426676],[0,0.9478334773694392,0,-0.7687337794791917,0,-0.6320608313141522,0,-0.013083633851730614],[0,0.8351472787785608,0,0.8978179384743008,0,-0.9763812392283115,0,-0.14859553677654636],[0,-0.23850178202026528,0,0.6254162040902269,0,0.45673322659666926,0,0.8960547406206689],[0,0.7478932903850537,0,-0.9428073980162719,0,0.30272602195769194,0,0.9463369481954276],[0,0.8043826223179422,0,0.8980669850190492,0,0.3431106382308631,0,0.5534244696957666],[0,0.10919545060688662,0,0.6868115524768399,0,0.4317463456091646,0,0.8941739673514677],[0,-0.17049019579178393,0,0.5226918379528565,0,0.3674659392353514,0,-0.3008015655196228],[0,0.8109682868837671,0,0.9996745647638188,0,-0.0666685605361117,0,-0.7557492758055726],[0,0.9900044767152585,0,0.4312717700687967,0,-0.5190032483820837,0,-0.9485367515149752],[0,0.5724979803589725,0,-0.6583322105221796,0,-0.8406409337260383,0,-0.37918278830374663],[0,0.7742298259320051,0,-0.8461454940846762,0,-0.830115142168542,0,0.24854285636398732],[0,0.23306197934487116,0,0.023077898516248085,0,0.27669837904604333,0,-0.21201870594867378],[0,-0.9202815460015394,0,0.8439772867057764,0,-0.7922758117916595,0,0.0697645458322349],[0,0.09349908411620977,0,0.6023769168847266,0,-0.44612112559186223,0,-0.37799900374422424],[0,-0.6287908531242938,0,0.44776690945119246,0,-0.6934913213250402,0,0.3174799282893621],[0,-0.4979581632137111,0,0.13009026108362565,0,-0.731024954410161,0,-0.3762627058305339],[0,0.36810340541920916,0,0.7745286804313116,0,0.23649150281345754,0,0.2431534213288904],[0,0.37972439857622176,0,0.36056000498808327,0,-0.9409810270348578,0,-0.8959190000532464],[0,0.20665273531622907,0,0.726637127243873,0,0.48522987199709755,0,0.9003302075177539],[0,-0.11932190904090079,0,-0.5605837341095905,0,-0.9687455315356543,0,-0.32483450257128976],[0,0.5221903513093917,0,0.44654138072753713,0,-0.9738740609092504,0,-0.6927029480094709],[0,-0.11737300677227913,0,0.07456916378949541,0,-0.543456254794549,0,0.18017831143530927],[0,0.39671902142812465,0,-0.36130322540247906,0,-0.7332219856558442,0,0.8022477297258115],[0,-0.4971036756893277,0,0.6985336654508234,0,0.3652407203899035,0,-0.3054163917230306],[0,0.6171680957024144,0,-0.17576408318402215,0,-0.2525467302806379,0,0.4737657446947141],[0,-0.664753924108783,0,0.6299000494437639,0,0.8658416992956615,0,-0.26843137367488423],[0,-0.8103682121927134,0,-0.21380825088831057,0,-0.3400044706676244,0,-0.9505627310593672],[0,0.6028422223224328,0,0.7417623185809148,0,0.5067279805461116,0,-0.7154742385678714],[0,-0.44509858861423557,0,-0.03691550733456439,0,-0.2425202158135722,0,-0.8745938059812928],[0,0.9226782277127992,0,-0.35508295735356654,0,-0.49868933144817507,0,0.8393839467902635],[0,-0.5493956303443983,0,0.04868557752089364,0,-0.2750736714776685,0,0.11968408874366898],[0,0.8767591905768257,0,-0.10635458022589117,0,-0.8631078412021402,0,-0.010399588730014342],[0,0.86526151226278,0,0.5557706772548503,0,-0.4186129052635359,0,0.8320277752383769],[0,0.08536115270983569,0,-0.7781093033645816,0,0.18755549084444034,0,-0.21337329085295664],[0,0.029576596760223728,0,-0.3983251280392268,0,-0.8162835267557436,0,0.9931963486562501],[0,-0.022321833998767193,0,0.3176435122809018,0,-0.34860529148962427,0,-0.5413393732006375],[0,0.8902690961456887,0,0.6734613905272722,0,0.4023391197339148,0,-0.31359897687784866],[0,0.9551696587465257,0,-0.856651964048009,0,0.6323984800894864,0,-0.3695035265249029],[0,0.011763985529152032,0,-0.3694821357636735,0,-0.960672412468782,0,-0.9762403260315817],[0,0.14292017363180132,0,0.31014067394508626,0,0.6872993581101849,0,0.6772871349511007],[0,-0.6489500271189224,0,-0.2976087702615722,0,0.05910170637483181,0,-0.03943133095095108],[0,0.4243246895031678,0,0.5137349161995948,0,0.4577018702616338,0,-0.6549709290201944],[0,-0.1489803569808903,0,-0.2603251292971953,0,0.20206285824736847,0,-0.36979529142507084],[0,-0.045588803236487285,0,-0.46023654305820894,0,0.9078008822234709,0,-0.7294161709411271],[0,-0.7023968563026564,0,-0.5242404018641238,0,0.55147493745118,0,0.08246910234033389],[0,-0.15288591876419821,0,0.8463914133759534,0,-0.011996561076312195,0,-0.465951805805247],[0,0.3860085700313398,0,0.05726171593939178,0,0.12390527968456633,0,0.8081866524406249],[0,0.23180955420158678,0,0.23201223869063314,0,0.044766702153383076,0,-0.12371468960185927],[0,-0.5586187129293598,0,0.6009401144281152,0,0.05353748141783621,0,-0.06712761008475243],[0,-0.6255733314472072,0,-0.40416081520396374,0,-0.2030361053380454,0,-0.28557040606295736],[0,0.7391944675834434,0,0.034915325454121904,0,0.44066863436568293,0,-0.5377222775316681],[0,-0.9415540216706861,0,-0.7007950309571849,0,-0.8009089674257741,0,0.5881776697773111],[0,-0.1293160955709396,0,-0.017997473438947198,0,0.43470395433775555,0,0.46262910759055753],[0,-0.07890176580892394,0,-0.8646184086325805,0,0.011627324828547891,0,0.1696778979166227],[0,0.09863897225145823,0,0.9429718897513906,0,0.6219607183162792,0,0.5583718364147072],[0,0.9400760512656112,0,0.41573362666655767,0,-0.6011389172957873,0,0.46983127238471756],[0,0.14886278296835043,0,0.5375473235169435,0,-0.7114055556608774,0,0.6302308952391547],[0,-0.23392969883013648,0,0.18001647690991818,0,0.3744940032360662,0,-0.6261844407386945],[0,0.38261360350423734,0,-0.9390421767205246,0,0.6289594515545829,0,0.0964019221853889],[0,-0.9035550753935035,0,-0.9613668984911972,0,-0.5846636300607739,0,-0.8613539623702609],[0,0.7953402971197934,0,0.11385255339746503,0,-0.5302832798748749,0,0.6596843898365932],[0,0.7853611861765251,0,0.6546610233742003,0,0.06340548329883022,0,-0.01441545409491396],[0,0.7870240803034212,0,0.5633928179034922,0,-0.419998945764102,0,0.9033697780036394],[0,-0.11433491729030254,0,-0.6265376307772639,0,-0.16326000144182484,0,-0.5797903538882618],[0,-0.8505604199052126,0,0.5933333693315819,0,-0.8620393383996461,0,0.6186970611806133],[0,-0.6821501344723899,0,-0.9923104984767528,0,0.2692424385566803,0,0.4129606069269893],[0,-0.7843530675368022,0,-0.8990945173578979,0,-0.5760190111939731,0,0.2466882003304236],[0,0.3614060617376329,0,0.28549847910177095,0,0.39986278266846065,0,0.07296755612972206],[0,0.6170280407210749,0,0.19831407969077475,0,-0.6890942976246257,0,-0.6828241705478404],[0,0.6638720725597191,0,0.9697833061290568,0,0.5314349674592687,0,0.9479798923230267],[0,-0.40682086307325105,0,-0.9233381472099629,0,0.6215673850416381,0,0.2678359606812051],[0,-0.03710299637272518,0,-0.8437570766136795,0,-0.4205202783467745,0,-0.4167937248546314],[0,0.2999725417394088,0,-0.009887520905781377,0,-0.07605983343762368,0,0.5260380324842175],[0,0.21662902878158374,0,0.7580937078182579,0,-0.16871477169960092,0,-0.5281219694806092],[0,0.061099631569970114,0,-0.38189425975368185,0,0.8342269032741005,0,0.23632490118256566],[0,-0.6622585361583959,0,0.6852403134375489,0,-0.5644210377691565,0,0.030348619600710558],[0,0.008407774380259303,0,-0.43656313746473563,0,-0.6018064421556477,0,-0.4836649443371457],[0,0.22640864487457435,0,-0.2742833787879364,0,-0.5568972529708824,0,-0.26945811285569254],[0,-0.9436561758804447,0,0.24401237046080393,0,-0.37893694930206,0,-0.3760201209744589],[0,-0.7024550055566969,0,-0.3627900560766073,0,0.7184034110394215,0,0.022561514433446783],[0,-0.3441834373781416,0,0.936095588518767,0,0.7162811302655439,0,0.9186882221291146],[0,-0.8023809425688078,0,-0.5435194632500262,0,0.5431522042224615,0,-0.8197262780635213],[0,0.2727903958308673,0,-0.7731463480298248,0,0.14346708487437465,0,0.9995309190657478],[0,0.9063550703570087,0,0.534489455255305,0,-0.7686954045850434,0,-0.29732335478573946],[0,0.03692315511202726,0,-0.3659810919127944,0,-0.9941389463324519,0,0.9030375244270512],[0,0.9186350527745037,0,0.30504649861013844,0,-0.4235863136812952,0,-0.5961322115063945],[0,-0.49443958517323994,0,-0.34952317804078326,0,0.8775814597264409,0,-0.2564818740867394],[0,-0.2980866262787105,0,-0.7052086457650553,0,0.4514092939037979,0,0.8244231433422851],[0,-0.011601404217045364,0,-0.02840641872376981,0,-0.3689959603393742,0,0.6787024674410003],[0,0.12445658809697857,0,0.3823205012554105,0,0.38115538620993794,0,0.0969994811691135],[0,0.37812948925424417,0,0.16309493302779332,0,0.334575709717585,0,-0.4164911064237531],[0,-0.9502790123266909,0,-0.18572833724608673,0,-0.5919015850312361,0,0.8989731238625767],[0,0.932378933118146,0,-0.47269027034332467,0,-0.20862458677094065,0,0.31475572297666954],[0,-0.2078198301220502,0,-0.013820995040334738,0,0.07131885750211109,0,-0.3750728963771084],[0,-0.0477482169327299,0,-0.5744099694702922,0,-0.21126536189673373,0,0.9496276361757716],[0,-0.370084379602335,0,0.49591145450575946,0,0.819298645429563,0,0.4117996139696012],[0,-0.19720425346909742,0,-0.1852796131009644,0,0.6292297640810021,0,-0.11929086594995142],[0,-0.9307177895888143,0,0.4775062143087174,0,-0.32328316265629753,0,-0.8504940538983436],[0,-0.779303017779613,0,-0.7448709050107556,0,-0.986640609599138,0,-0.8496017665531255],[0,0.05696161939862643,0,-0.276789420644326,0,0.48558628749222676,0,0.10984682749325025],[0,-0.6454808164305756,0,0.1487134642383412,0,0.8442181926439853,0,0.907512232796911],[0,0.8347156290412765,0,0.6015441776582791,0,0.5410434739102379,0,-0.6734850156266732],[0,-0.5172004294766461,0,-0.5359079507591715,0,0.024480831932584213,0,-0.6311013603170512],[0,-0.36784750712629477,0,-0.7208059030914804,0,0.9421040145244561,0,-0.6409867824989399],[0,0.8553135526520224,0,-0.29290388406172885,0,0.8160077185724088,0,-0.8311366832936089],[0,-0.10718180690844692,0,-0.7454443669568442,0,-0.5223029967518555,0,0.57329591719335],[0,-0.3971792719189178,0,-0.6056873203420192,0,-0.16761469605278312,0,-0.5207716435219973],[0,0.22892568486882303,0,0.7107310467461627,0,0.36828957700140297,0,0.5719467854759948],[0,0.16060536702431194,0,0.7874919070858597,0,0.23471364152855512,0,-0.21716711053645477],[0,0.8000340140938524,0,-0.3042012190261876,0,-0.3165848413999961,0,-0.09329496595870834],[0,-0.8488774904077936,0,-0.8533684076969352,0,-0.7990468691502983,0,-0.3167120204947429],[0,0.3109902151626791,0,-0.3618342211484722,0,-0.24458254300031435,0,0.706153049401141],[0,0.17106391444418922,0,0.2595501429668585,0,0.23914394526629645,0,-0.36620019087240396],[0,0.32444687311678466,0,0.20481513150972197,0,0.4097227310659144,0,-0.6486227276222334],[0,0.42815470483763307,0,-0.49423779762437814,0,0.41480938680025403,0,-0.03212827169708565],[0,0.08326648352574773,0,-0.9897380216701765,0,-0.6680470801033229,0,0.8324155068385457],[0,0.6729943972980807,0,0.21246782195775826,0,-0.9371433460116725,0,0.1146998009191631],[0,-0.4618731495925432,0,0.1840295464409858,0,0.39219198195554217,0,0.918302807148411],[0,0.37125421744629405,0,-0.4395311222092151,0,-0.945712705787962,0,0.38207210970090877],[0,0.7756386704875764,0,0.30445874367700854,0,-0.7532816112307439,0,0.7735283694847768],[0,0.561543389828721,0,0.7978242864402725,0,0.18802926180841295,0,-0.8104135908777248],[0,0.542288635120086,0,0.706662700095644,0,0.0375153554878942,0,-0.8462836933546498],[0,-0.6557431721723435,0,-0.9809425097924873,0,0.7782041796415957,0,-0.8650029125823309],[0,-0.9404801312771636,0,-0.32756028302669926,0,-0.4901274263743016,0,-0.18665781984918506],[0,-0.5532830447988344,0,0.2677279011860274,0,0.007141025080192209,0,-0.2234953585790871],[0,0.8252629605441368,0,0.5099563909063516,0,-0.6316093144460886,0,0.2582985716040995],[0,-0.19007846601391853,0,0.22017898445424988,0,0.11444988276390156,0,-0.4861998398417542],[0,-0.40277069569380575,0,0.03101414841463468,0,0.19170192333703429,0,0.47612152240473615],[0,-0.3577888309126964,0,-0.7917241530037686,0,-0.007532552959709449,0,-0.5493230370566304],[0,0.25328010684953783,0,0.4337109437771973,0,0.7262189412453617,0,0.776690691646347],[0,-0.11483260428877151,0,0.8389446401486715,0,0.2583873949146236,0,0.6220223796383244],[0,0.7241824972021942,0,0.09831104257148437,0,0.8792245939829637,0,0.3762156126387255],[0,-0.46294463730675095,0,-0.03167411779309459,0,0.3733875061086962,0,0.4680017443225597],[0,-0.3059336792848355,0,-0.6958645367901126,0,-0.7683853547395121,0,0.8573206743651363],[0,0.7791226884294062,0,0.2883547689473671,0,0.8790665467634591,0,0.9382472771096038],[0,0.2638934818216372,0,-0.6247147908166866,0,0.3906069485134951,0,-0.8619588959918314],[0,-0.6499326151249603,0,0.28358086182122255,0,0.32150322551505606,0,-0.8911355531056613],[0,0.27325230247440446,0,0.2630102666370404,0,0.0027283542387994686,0,-0.9174573188371018],[0,-0.8860130223365148,0,0.8160391337919297,0,0.9332496573337745,0,-0.30493188275874816],[0,0.4757898774060034,0,0.07253636587806778,0,-0.25260727816324313,0,-0.6136224656235028],[0,0.2671219413250854,0,0.09598576094921296,0,-0.35642810282472803,0,-0.6577389467044865],[0,0.26359443133005245,0,0.5421622281194911,0,-0.8686178602018388,0,-0.13091141327972777],[0,-0.8712947650671472,0,0.2963102375408613,0,-0.5127499466606147,0,-0.9216324163344327],[0,-0.8641596238937581,0,0.9824402348342618,0,-0.5954557596146306,0,0.8069751649460479],[0,-0.038768957746111,0,0.5684370982467084,0,0.9822505276847235,0,-0.18976582440478085],[0,0.6070086243304129,0,-0.3167479063655505,0,-0.5829826598827139,0,0.4388322048224207],[0,-0.23454527474968145,0,-0.28247089154173577,0,-0.45341721171377936,0,0.2469102985191991],[0,-0.2500054257498783,0,0.2965926913681085,0,-0.26170327565849383,0,0.27747555230164056],[0,-0.5045630092992852,0,0.29480492326629815,0,-0.47534679321730655,0,-0.8673785613716922],[0,0.06941627776364045,0,-0.7971252634700094,0,-0.14154549244218018,0,0.35986598682774296],[0,-0.36105570631306705,0,0.36478341864654573,0,-0.10657164889958515,0,0.17224729681141526],[0,-0.09956462968443769,0,0.36856584685859795,0,-0.20817541526412775,0,-0.9313557272784105],[0,0.6085181945952676,0,-0.29473273658783183,0,-0.7812794510781902,0,0.5321168090830071],[0,-0.9715968894658102,0,0.7029717720005899,0,-0.09653335988921086,0,0.6578900288662162],[0,0.8885262745221394,0,-0.30212169204783446,0,-0.06809196192051625,0,0.2989336626134753],[0,0.7246441829296837,0,-0.5780229654139939,0,-0.72127952462018,0,0.11591646930840405],[0,0.3835069532041919,0,0.6669571944115971,0,0.49740187849475426,0,0.7796437825580769],[0,0.8936904177830494,0,-0.5734434545151339,0,-0.5438359871638039,0,-0.502086060889674],[0,0.9131206802525562,0,0.9246396004200417,0,0.541172791207085,0,0.025057971063438433],[0,0.5272779607134541,0,-0.796129942266099,0,0.844286876113191,0,0.36125467059621097],[0,0.2990201865378732,0,0.27992210216943314,0,0.5106498755961777,0,0.46004166538584634],[0,0.16041857083899091,0,0.25875192711920314,0,-0.3578077366753485,0,-0.5637291650383094],[0,0.9889521025930552,0,-0.7304705718022246,0,-0.06369612139520386,0,0.0030848325874319737],[0,-0.4751404216038173,0,-0.41659083850935685,0,-0.41536001614954277,0,-0.8346807468360697],[0,0.6634025265722499,0,-0.13160404443058016,0,0.8652276972209827,0,0.5580640124479732],[0,0.09524337444844067,0,-0.8268599371189334,0,-0.6682576546269412,0,-0.7570558890966952],[0,0.7700990125457596,0,-0.06242548379056512,0,-0.4629737335129043,0,0.26100951115725746],[0,0.7232799949732873,0,-0.9041146432786489,0,0.8236262541518753,0,-0.21004867526321358],[0,-0.5683183340224889,0,0.16738356204224525,0,-0.12767138139754342,0,0.3646896531176045],[0,-0.9447553594659577,0,-0.8765745913746397,0,0.4203734982637559,0,-0.705793574325553],[0,-0.3281444659572381,0,0.7736069338838039,0,0.8442345187067777,0,0.14382528713658704],[0,-0.0718868277148641,0,0.4320351399138145,0,-0.8524484513838309,0,0.9509681916889281],[0,0.4053368137198674,0,-0.29544249374510567,0,0.30300812018444967,0,-0.2962537095732276],[0,0.4396474404179085,0,-0.6195905176081069,0,0.86764838228093,0,-0.46442842067950374],[0,0.13690582527301576,0,0.616817358640577,0,0.3243312387919566,0,-0.9246966886039887],[0,-0.11225626088419571,0,-0.1273280180726144,0,-0.30227763344590364,0,-0.5587288125702627],[0,-0.18512121767856504,0,-0.6225322131775382,0,-0.34857144566195286,0,0.47884650954625485],[0,-0.7256441284032134,0,-0.6857213686150112,0,0.49358096160959275,0,-0.9849413606322677],[0,-0.21568912602169554,0,0.35062056801244057,0,-0.6986221988450749,0,-0.8599153324251239],[0,-0.4306933293451538,0,-0.33136993599579223,0,0.7208000699137342,0,0.8242661149935708],[0,0.28524348001641764,0,0.22606374871107748,0,-0.09408368268306644,0,0.5406362402813853],[0,0.4292990559470784,0,-0.37779594633399216,0,0.532896613076471,0,-0.013231549766433481],[0,-0.5586922485782306,0,-0.3521660200330967,0,-0.14294207718417073,0,0.48608546205377134],[0,-0.43256001830011903,0,0.3660208421880653,0,0.37696722228897483,0,-0.8024038004751977],[0,-0.8160028164229864,0,-0.5994715843599328,0,-0.17216869706597437,0,0.874355897101226],[0,-0.5314100494950025,0,0.0012544172854975777,0,-0.05289504752886609,0,-0.4152271612034082],[0,0.05792148894177407,0,0.41116812384078805,0,-0.2615466545157408,0,0.5472137644459403],[0,0.645849524629162,0,0.07680153118002542,0,0.8059068615750915,0,-0.9728125834522825],[0,0.35235473919846205,0,-0.6755743155806482,0,0.7382492489069881,0,-0.8922861758279204],[0,-0.8665033719048401,0,0.26662106195380253,0,-0.5056149642793497,0,0.06731644162064154],[0,-0.4956105272170277,0,-0.0909700193394598,0,-0.726367582239696,0,0.08639978441560037],[0,0.41168635408012566,0,-0.30534319596810855,0,0.4505935886842922,0,0.05160644934099978],[0,0.21901022950723115,0,-0.94684037873714,0,0.8124562755180522,0,0.33907247752900993],[0,0.4582258042901868,0,-0.08484458927889049,0,0.5572833074468038,0,0.6313306620945434],[0,0.2513981038848421,0,0.6066387011100325,0,-0.7049492421088013,0,-0.9410622201941075],[0,-0.877263147950986,0,-0.9438075589212283,0,-0.3611020226614641,0,0.2567311711086815],[0,-0.7032202956390066,0,0.8277464710255646,0,0.8822558997102026,0,0.2859467632400863],[0,-0.4814808975603586,0,-0.8657808867924317,0,-0.271776522657998,0,-0.20273957196018433],[0,0.9331321547613594,0,-0.307546164743683,0,-0.9292351833525643,0,-0.7038589479178707],[0,-0.3725748783267455,0,-0.9525582523253764,0,0.423002859526979,0,-0.0792666609768291],[0,0.06205715263212719,0,0.8238991856490467,0,0.7460888971487603,0,-0.2461847978843923],[0,0.8130616842392684,0,0.25584687568000275,0,0.1528297101718692,0,-0.6357966525450407],[0,0.7931366595590388,0,-0.7000840600771256,0,-0.7565423302339198,0,-0.9906907904735232],[0,0.4376278136093672,0,0.655684368201747,0,-0.32336760440111756,0,-0.27062571009809666],[0,0.21708226956210264,0,-0.9035756026902171,0,0.9869653118937864,0,-0.5747566005783398],[0,0.2777035885672461,0,0.6562211584113478,0,0.631061534980276,0,0.9353613369021481],[0,0.012991203182889821,0,0.4245000256463567,0,0.7772773230833592,0,0.1140079217014871],[0,0.9343016383261413,0,-0.033422309930677185,0,0.4500934968583086,0,-0.03838733105786418],[0,0.33502119687849263,0,-0.2810682382356524,0,-0.7017910733923065,0,-0.03067986747760232],[0,0.932493346453771,0,0.10046015593312685,0,-0.5238382002998485,0,0.01380485664676967],[0,0.9237967137984169,0,-0.4639189465447189,0,0.9124878432809027,0,-0.6253387305093907],[0,-0.2940766294020145,0,0.10660061418357447,0,0.5831299135849866,0,-0.25447525714315167],[0,0.8878594161107376,0,0.11885607422288436,0,0.31701471483870125,0,0.4714059521429135],[0,0.16152397649211103,0,-0.46728235542934593,0,0.13141682180389092,0,0.6685494396254308],[0,-0.8995252561914953,0,0.8866122116275716,0,-0.8720675649228689,0,0.36945637779129514],[0,-0.9802577879120002,0,-0.869190024988379,0,-0.42441123503606404,0,-0.6154623300592135],[0,-0.342892415133788,0,0.6077917852218158,0,-0.034181782602301425,0,0.18319395452599818],[0,-0.3744079091519812,0,0.3115956658364405,0,-0.4552707732683243,0,-0.22905502382157428],[0,-0.661120626584365,0,-0.4868841616835,0,0.11130952284623263,0,-0.7244391475986589],[0,0.42584473553819,0,0.8559092675123088,0,0.7158994960226812,0,0.7539745498749049],[0,0.5273192282818209,0,-0.8928602176146587,0,-0.6985222482006601,0,0.5930836632559386],[0,0.8076686366525507,0,0.8908696135481284,0,0.30100304196403527,0,-0.1986227073893312],[0,-0.48427854635262446,0,-0.0640137103095515,0,0.7372609574962175,0,-0.5253475302444981],[0,0.49403242546798176,0,-0.36136976772300966,0,-0.5326347235227791,0,0.7679124602632732],[0,0.6624217906684116,0,0.06906692981404072,0,0.8722690524360237,0,0.8168668137552977],[0,-0.8088170135881718,0,-0.05447417102091556,0,-0.4876582529067779,0,-0.7737176634945231],[0,-0.6686944982304746,0,-0.4473940394194489,0,0.05327316816991945,0,-0.021238388749305948],[0,-0.31648858695031445,0,0.09942638990941433,0,-0.8877327561818957,0,0.9163528987571545],[0,-0.9351408749017973,0,0.5927781713854925,0,0.5826924159905635,0,-0.6912740803768085],[0,0.0711188128118152,0,0.9431118083497763,0,-0.5339418078913627,0,-0.5545270461099578],[0,0.9350788765578879,0,-0.2737265407415854,0,-0.7266097694111822,0,0.676425801409861],[0,-0.6546048646821903,0,0.7914797316387858,0,0.6537807710727481,0,-0.127295294727934],[0,-0.4824523885940706,0,0.7361008552401926,0,0.06609233718638485,0,0.8925454270999642],[0,0.9979229549121706,0,-0.8396013796714159,0,-0.9695024687142852,0,-0.6902222334857275],[0,0.4339937847716304,0,-0.429555840138665,0,0.7797399398244504,0,-0.6008427709469921],[0,-0.14198084124699983,0,0.8150191803580027,0,-0.024295361587494346,0,0.17157941959433298],[0,0.9086438313422949,0,-0.9776182288088997,0,0.5650894709624776,0,0.1135352043385196],[0,-0.14577342462540432,0,0.1453560252803645,0,0.818672502126014,0,0.20899317742312595],[0,-0.7163185517240143,0,-0.5717164354013131,0,-0.8681278426594845,0,-0.19177756808846036],[0,0.8950686291766035,0,0.37695229730203117,0,-0.739997621552412,0,-0.04310088091937403],[0,-0.06087466430066457,0,0.14269661793474198,0,-0.6801744679792865,0,-0.08983350040723659],[0,-0.43562116775690196,0,0.6244402217569605,0,-0.8902889357503219,0,0.7301472084214111],[0,0.562438953354929,0,-0.9524669861965147,0,-0.9160903441769153,0,-0.8982655125873862],[0,0.8265183032523735,0,0.29580896776771404,0,-0.33784350443558564,0,0.8003170493748597],[0,-0.7868163459584925,0,-0.1466281148372821,0,-0.5359797772253061,0,0.6064205024336056],[0,0.4367931397819771,0,0.8551938178983063,0,-0.4718832292307076,0,-0.11392362357488683],[0,-0.871971351896617,0,-0.549312032653458,0,-0.3904885232999151,0,0.5420579927555651],[0,0.2523848188686071,0,-0.5480023529796996,0,0.24433479934617086,0,0.5899503775902069],[0,-0.2885701698354375,0,0.06881955290495667,0,0.4288409496593504,0,0.22434952289368226],[0,-0.8608943243551774,0,-0.5758415699245196,0,-0.5191585301862136,0,-0.08568515125997545],[0,0.6572898345792122,0,-0.499511485313495,0,0.9346489046581781,0,-0.1964737468648794],[0,0.6692918451506478,0,-0.8166255504912387,0,0.16636943322186415,0,0.48942552989221677],[0,0.6469124981833665,0,-0.8503161518544939,0,-0.14541507453005464,0,-0.8830497628021641],[0,-0.6938532248755414,0,-0.5099000465208139,0,0.3521704405105104,0,-0.3537040482265159],[0,0.5685632176510009,0,0.16072284371268175,0,-0.42180622396502065,0,0.14047102083810903],[0,-0.7301527074601137,0,-0.3738757083716573,0,-0.8654516549758715,0,0.9672363370004631],[0,-0.2960514262455243,0,0.3863007590654257,0,0.010173762038599321,0,-0.0786499121358819],[0,0.7807246015362235,0,-0.5274541360962668,0,0.4564204253614823,0,-0.5531335644894209],[0,-0.1730724706036717,0,-0.5476572107878641,0,0.4003192849993795,0,-0.6244351402805277],[0,0.8748334621077711,0,-0.9990452116150599,0,-0.8917804876198259,0,-0.10358580215282753],[0,0.6597661282997889,0,-0.32252994640694865,0,-0.2795393126411998,0,-0.1676945774349956],[0,0.4872211374380693,0,-0.8143644806980037,0,-0.2515503797593488,0,0.7241131808304238],[0,0.6322490592074417,0,-0.8951077492774007,0,0.6587135706420446,0,-0.2915241480644839],[0,-0.0017906556567153231,0,0.8446027400485123,0,0.2642071033720068,0,-0.275488859438652],[0,-0.6110399726234337,0,-0.595460212639539,0,0.8013501636404705,0,0.19601290656842174],[0,-0.06199883276026541,0,0.41728273095444934,0,-0.7080194690169914,0,-0.9904977844479352],[0,0.99004338924975,0,-0.09675239939731028,0,-0.9273946153784942,0,-0.6551650401412161],[0,0.04492573796613897,0,0.18665280646418947,0,0.21904077945998113,0,0.7138952294354206],[0,-0.7492399201259279,0,-0.49919683304430085,0,0.002729891394437134,0,0.42423279314827544],[0,0.3726331932185478,0,0.9536508873743432,0,0.4857352346295507,0,-0.3916694392493465],[0,-0.834850351802479,0,0.7296712595111698,0,0.8946025695227469,0,0.9455157898548148],[0,0.6415523990041494,0,-0.3283311988452535,0,-0.49100297691740824,0,-0.7476416672244077],[0,0.8591115043217477,0,0.7162080813951386,0,-0.5407844875293157,0,-0.7712749198553988],[0,0.529923402528945,0,-0.9510596223707173,0,-0.9526168503637784,0,0.8204901771869892],[0,-0.9817826124450848,0,0.3011771428942214,0,-0.009657024600746356,0,-0.10377310796876293],[0,0.09971827811722611,0,0.626637858534183,0,0.3279531604847612,0,0.2340368029788329],[0,-0.7644320045690245,0,-0.9226208918991117,0,0.6487078779399416,0,0.17599803113269408],[0,0.052761567618620164,0,-0.6595111047755096,0,0.7553012405410287,0,-0.26845522819034784],[0,-0.7749940833504214,0,0.6022090066608576,0,0.9259577101904006,0,-0.6025835679535791],[0,0.012363788185546731,0,0.07372641624996512,0,-0.4769459649288619,0,0.5106440108540864],[0,-0.6550025644260791,0,0.5429519784820844,0,0.8587624486849319,0,0.5623691059047053],[0,-0.4742200619662531,0,-0.7908159883998516,0,-0.051853149195570714,0,-0.4258810274085931],[0,-0.6215039782070098,0,-0.9873687102848778,0,0.06334718595016997,0,-0.6255103626909544],[0,0.9828058025164765,0,0.6883493090549524,0,0.8481907501391204,0,0.4130161497980025],[0,-0.98590032994584,0,0.8542204584165798,0,-0.839228411339501,0,0.6093386429904082],[0,0.14582442325869738,0,0.5851880639463036,0,-0.21775720870604465,0,-0.34040005379431637],[0,-0.02618552806108254,0,0.1310320212114009,0,0.6632692903349484,0,0.20833855563258474],[0,0.4866151303505053,0,0.7025510056335329,0,-0.5247076994445317,0,0.34296989421487534],[0,0.23273743395386637,0,-0.41890410304722425,0,0.8919590504680399,0,-0.020724078311891603],[0,0.02523811129374276,0,0.19897611729455322,0,-0.7532247046393128,0,0.8801514436419753],[0,-0.7240294193169199,0,0.29333888031761135,0,0.99624050291427,0,0.286184081641222],[0,-0.13369369424658029,0,0.7536994503179637,0,-0.23657030895484432,0,-0.5645271788483734],[0,-0.16192089564579293,0,-0.636620810088149,0,-0.3548127656104707,0,0.6114174694952426],[0,0.1279577339183442,0,-0.7223143253168329,0,-0.06319588964932343,0,-0.21895935371082098],[0,0.07040576337717686,0,-0.21325285811243133,0,0.4612491367406384,0,0.3727312195026784],[0,-0.5411596991576733,0,0.6784924351891093,0,-0.7142678314365709,0,-0.70887353896262],[0,0.5815544849230039,0,-0.6526546776968343,0,-0.23342315164789706,0,0.8781782854909239],[0,0.8384221100645539,0,-0.31322044899403845,0,-0.41591460389642565,0,0.2032772313415987],[0,-0.7036447898112341,0,-0.2410394339750237,0,0.7122811373121012,0,-0.19836404223861903],[0,0.8559391649677222,0,-0.7477234527349357,0,0.11411653732655247,0,-0.2210383950014021],[0,-0.42137725629884626,0,-0.18235985317387016,0,0.3609387751081081,0,0.061775368722823965]],"vb_b":[[0,0,0,0,0,-1,0,0],[0,0,0,0,0,-1,0,0],[0,0,0,0,0,-1,0,0],[0,0,0,0,0,-1,0,0],[0,0,0,0,0,-1,0,0],[0,0,0,0,0,-1,0,0],[0,0,0,0,0,-1,0,0],[0,0,0,0,0,-1,0,0],[0,0,0,0,0,-1,0,0],[0,0,0,0,0,-1,0,0],[0,0,0,0,0,-1,0,0],[0,0,0,0,0,-1,0,0],[0,0,0,0,0,-1,0,0],[0,0,0,0,0,-1,0,0],[0,0,0,0,0,-1,0,0],[0,0,0,0,0,-1,0,0],[0,0,0,0,0,-1,0,0],[0,0,0,0,0,-1,0,0],[0,0,0,0,0,-1,0,0],[0,0,0,0,0,-1,0,0],[0,0,0,0,0,-1,0,0],[0,0,0,0,0,-1,0,0],[0,0,0,0,0,-1,0,0],[0,0,0,0,0,-1,0,0],[0,0,0,0,0,-1,0,0],[0,0,0,0,0,-1,0,0],[0,0,0,0,0,-1,0,0],[0,0,0,0,0,-1,0,0],[0,0,0,0,0,-1,0,0],[0,0,0,0,0,-1,0,0],[0,0,0,0,0,-1,0,0],[0,0,0,0,0,-1,0,0],[0,0,0,0,0,-1,0,0],[0,0,0,0,0,-1,0,0],[0,0,0,0,0,-1,0,0],[0,0,0,0,0,-1,0,0],[0,0,0,0,0,-1,0,0],[0,0,0,0,0,-1,0,0],[0,0,0,0,0,-1,0,0],[0,0,0,0,0,-1,0,0],[0,0,0,0,0,-1,0,0],[0,0,0,0,0,-1,0,0],[0,0,0,0,0,-1,0,0],[0,0,0,0,0,-1,0,0],[0,0,0,0,0,-1,0,0],[0,0,0,0,0,-1,0,0],[0,0,0,0,0,-1,0,0],[0,0,0,0,0,-1,0,0],[0,0,0,0,0,-1,0,0],[0,0,0,0,0,-1,0,0],[0,0,0,0,0,-1,0,0],[0,0,0,0,0,-1,0,0],[0,0,0,0,0,-1,0,0],[0,0,0,0,0,-1,0,0],[0,0,0,0,0,-1,0,0],[0,0,0,0,0,-1,0,0],[0,0,0,0,0,-1,0,0],[0,