parameters : {"minimum_performance":-1,"block_timeout":5000,"response_timeout":1000,"task_kappa":0,"task_stimuli":1,"task_component":0,"task_feature":1,"task_sign":-1,"task_weights":[0,0,0,0,0,-1,0,0]}
edata : {"exp_subject":"md0vFQDyb47O","exp_sex":"male","exp_age":"31-40","exp_task":"jan/131004_primate1","exp_starttime":1381408797536,"exp_finishtime":1381411630806}
numbers : {"stimuli":2,"components":2,"features":2,"weights":8,"blocks":40,"trials":25,"indices":1000}
sdata : {"vb_index":[1,2,3,4,5,6,7,8,9,10,11,12,13,14,15,16,17,18,19,20,21,22,23,24,25,26,27,28,29,30,31,32,33,34,35,36,37,38,39,40,41,42,43,44,45,46,47,48,49,50,51,52,53,54,55,56,57,58,59,60,61,62,63,64,65,66,67,68,69,70,71,72,73,74,75,76,77,78,79,80,81,82,83,84,85,86,87,88,89,90,91,92,93,94,95,96,97,98,99,100,101,102,103,104,105,106,107,108,109,110,111,112,113,114,115,116,117,118,119,120,121,122,123,124,125,126,127,128,129,130,131,132,133,134,135,136,137,138,139,140,141,142,143,144,145,146,147,148,149,150,151,152,153,154,155,156,157,158,159,160,161,162,163,164,165,166,167,168,169,170,171,172,173,174,175,176,177,178,179,180,181,182,183,184,185,186,187,188,189,190,191,192,193,194,195,196,197,198,199,200,201,202,203,204,205,206,207,208,209,210,211,212,213,214,215,216,217,218,219,220,221,222,223,224,225,226,227,228,229,230,231,232,233,234,235,236,237,238,239,240,241,242,243,244,245,246,247,248,249,250,251,252,253,254,255,256,257,258,259,260,261,262,263,264,265,266,267,268,269,270,271,272,273,274,275,276,277,278,279,280,281,282,283,284,285,286,287,288,289,290,291,292,293,294,295,296,297,298,299,300,301,302,303,304,305,306,307,308,309,310,311,312,313,314,315,316,317,318,319,320,321,322,323,324,325,326,327,328,329,330,331,332,333,334,335,336,337,338,339,340,341,342,343,344,345,346,347,348,349,350,351,352,353,354,355,356,357,358,359,360,361,362,363,364,365,366,367,368,369,370,371,372,373,374,375,376,377,378,379,380,381,382,383,384,385,386,387,388,389,390,391,392,393,394,395,396,397,398,399,400,401,402,403,404,405,406,407,408,409,410,411,412,413,414,415,416,417,418,419,420,421,422,423,424,425,426,427,428,429,430,431,432,433,434,435,436,437,438,439,440,441,442,443,444,445,446,447,448,449,450,451,452,453,454,455,456,457,458,459,460,461,462,463,464,465,466,467,468,469,470,471,472,473,474,475,476,477,478,479,480,481,482,483,484,485,486,487,488,489,490,491,492,493,494,495,496,497,498,499,500,501,502,503,504,505,506,507,508,509,510,511,512,513,514,515,516,517,518,519,520,521,522,523,524,525,526,527,528,529,530,531,532,533,534,535,536,537,538,539,540,541,542,543,544,545,546,547,548,549,550,551,552,553,554,555,556,557,558,559,560,561,562,563,564,565,566,567,568,569,570,571,572,573,574,575,576,577,578,579,580,581,582,583,584,585,586,587,588,589,590,591,592,593,594,595,596,597,598,599,600,601,602,603,604,605,606,607,608,609,610,611,612,613,614,615,616,617,618,619,620,621,622,623,624,625,626,627,628,629,630,631,632,633,634,635,636,637,638,639,640,641,642,643,644,645,646,647,648,649,650,651,652,653,654,655,656,657,658,659,660,661,662,663,664,665,666,667,668,669,670,671,672,673,674,675,676,677,678,679,680,681,682,683,684,685,686,687,688,689,690,691,692,693,694,695,696,697,698,699,700,701,702,703,704,705,706,707,708,709,710,711,712,713,714,715,716,717,718,719,720,721,722,723,724,725,726,727,728,729,730,731,732,733,734,735,736,737,738,739,740,741,742,743,744,745,746,747,748,749,750,751,752,753,754,755,756,757,758,759,760,761,762,763,764,765,766,767,768,769,770,771,772,773,774,775,776,777,778,779,780,781,782,783,784,785,786,787,788,789,790,791,792,793,794,795,796,797,798,799,800,801,802,803,804,805,806,807,808,809,810,811,812,813,814,815,816,817,818,819,820,821,822,823,824,825,826,827,828,829,830,831,832,833,834,835,836,837,838,839,840,841,842,843,844,845,846,847,848,849,850,851,852,853,854,855,856,857,858,859,860,861,862,863,864,865,866,867,868,869,870,871,872,873,874,875,876,877,878,879,880,881,882,883,884,885,886,887,888,889,890,891,892,893,894,895,896,897,898,899,900,901,902,903,904,905,906,907,908,909,910,911,912,913,914,915,916,917,918,919,920,921,922,923,924,925,926,927,928,929,930,931,932,933,934,935,936,937,938,939,940,941,942,943,944,945,946,947,948,949,950,951,952,953,954,955,956,957,958,959,960,961,962,963,964,965,966,967,968,969,970,971,972,973,974,975,976,977,978,979,980,981,982,983,984,985,986,987,988,989,990,991,992,993,994,995,996,997,998,999,1000],"vb_block":[1,1,1,1,1,1,1,1,1,1,1,1,1,1,1,1,1,1,1,1,1,1,1,1,1,2,2,2,2,2,2,2,2,2,2,2,2,2,2,2,2,2,2,2,2,2,2,2,2,2,3,3,3,3,3,3,3,3,3,3,3,3,3,3,3,3,3,3,3,3,3,3,3,3,3,4,4,4,4,4,4,4,4,4,4,4,4,4,4,4,4,4,4,4,4,4,4,4,4,4,5,5,5,5,5,5,5,5,5,5,5,5,5,5,5,5,5,5,5,5,5,5,5,5,5,6,6,6,6,6,6,6,6,6,6,6,6,6,6,6,6,6,6,6,6,6,6,6,6,6,7,7,7,7,7,7,7,7,7,7,7,7,7,7,7,7,7,7,7,7,7,7,7,7,7,8,8,8,8,8,8,8,8,8,8,8,8,8,8,8,8,8,8,8,8,8,8,8,8,8,9,9,9,9,9,9,9,9,9,9,9,9,9,9,9,9,9,9,9,9,9,9,9,9,9,10,10,10,10,10,10,10,10,10,10,10,10,10,10,10,10,10,10,10,10,10,10,10,10,10,11,11,11,11,11,11,11,11,11,11,11,11,11,11,11,11,11,11,11,11,11,11,11,11,11,12,12,12,12,12,12,12,12,12,12,12,12,12,12,12,12,12,12,12,12,12,12,12,12,12,13,13,13,13,13,13,13,13,13,13,13,13,13,13,13,13,13,13,13,13,13,13,13,13,13,14,14,14,14,14,14,14,14,14,14,14,14,14,14,14,14,14,14,14,14,14,14,14,14,14,15,15,15,15,15,15,15,15,15,15,15,15,15,15,15,15,15,15,15,15,15,15,15,15,15,16,16,16,16,16,16,16,16,16,16,16,16,16,16,16,16,16,16,16,16,16,16,16,16,16,17,17,17,17,17,17,17,17,17,17,17,17,17,17,17,17,17,17,17,17,17,17,17,17,17,18,18,18,18,18,18,18,18,18,18,18,18,18,18,18,18,18,18,18,18,18,18,18,18,18,19,19,19,19,19,19,19,19,19,19,19,19,19,19,19,19,19,19,19,19,19,19,19,19,19,20,20,20,20,20,20,20,20,20,20,20,20,20,20,20,20,20,20,20,20,20,20,20,20,20,21,21,21,21,21,21,21,21,21,21,21,21,21,21,21,21,21,21,21,21,21,21,21,21,21,22,22,22,22,22,22,22,22,22,22,22,22,22,22,22,22,22,22,22,22,22,22,22,22,22,23,23,23,23,23,23,23,23,23,23,23,23,23,23,23,23,23,23,23,23,23,23,23,23,23,24,24,24,24,24,24,24,24,24,24,24,24,24,24,24,24,24,24,24,24,24,24,24,24,24,25,25,25,25,25,25,25,25,25,25,25,25,25,25,25,25,25,25,25,25,25,25,25,25,25,26,26,26,26,26,26,26,26,26,26,26,26,26,26,26,26,26,26,26,26,26,26,26,26,26,27,27,27,27,27,27,27,27,27,27,27,27,27,27,27,27,27,27,27,27,27,27,27,27,27,28,28,28,28,28,28,28,28,28,28,28,28,28,28,28,28,28,28,28,28,28,28,28,28,28,29,29,29,29,29,29,29,29,29,29,29,29,29,29,29,29,29,29,29,29,29,29,29,29,29,30,30,30,30,30,30,30,30,30,30,30,30,30,30,30,30,30,30,30,30,30,30,30,30,30,31,31,31,31,31,31,31,31,31,31,31,31,31,31,31,31,31,31,31,31,31,31,31,31,31,32,32,32,32,32,32,32,32,32,32,32,32,32,32,32,32,32,32,32,32,32,32,32,32,32,33,33,33,33,33,33,33,33,33,33,33,33,33,33,33,33,33,33,33,33,33,33,33,33,33,34,34,34,34,34,34,34,34,34,34,34,34,34,34,34,34,34,34,34,34,34,34,34,34,34,35,35,35,35,35,35,35,35,35,35,35,35,35,35,35,35,35,35,35,35,35,35,35,35,35,36,36,36,36,36,36,36,36,36,36,36,36,36,36,36,36,36,36,36,36,36,36,36,36,36,37,37,37,37,37,37,37,37,37,37,37,37,37,37,37,37,37,37,37,37,37,37,37,37,37,38,38,38,38,38,38,38,38,38,38,38,38,38,38,38,38,38,38,38,38,38,38,38,38,38,39,39,39,39,39,39,39,39,39,39,39,39,39,39,39,39,39,39,39,39,39,39,39,39,39,40,40,40,40,40,40,40,40,40,40,40,40,40,40,40,40,40,40,40,40,40,40,40,40,40],"vb_trial":[1,2,3,4,5,6,7,8,9,10,11,12,13,14,15,16,17,18,19,20,21,22,23,24,25,1,2,3,4,5,6,7,8,9,10,11,12,13,14,15,16,17,18,19,20,21,22,23,24,25,1,2,3,4,5,6,7,8,9,10,11,12,13,14,15,16,17,18,19,20,21,22,23,24,25,1,2,3,4,5,6,7,8,9,10,11,12,13,14,15,16,17,18,19,20,21,22,23,24,25,1,2,3,4,5,6,7,8,9,10,11,12,13,14,15,16,17,18,19,20,21,22,23,24,25,1,2,3,4,5,6,7,8,9,10,11,12,13,14,15,16,17,18,19,20,21,22,23,24,25,1,2,3,4,5,6,7,8,9,10,11,12,13,14,15,16,17,18,19,20,21,22,23,24,25,1,2,3,4,5,6,7,8,9,10,11,12,13,14,15,16,17,18,19,20,21,22,23,24,25,1,2,3,4,5,6,7,8,9,10,11,12,13,14,15,16,17,18,19,20,21,22,23,24,25,1,2,3,4,5,6,7,8,9,10,11,12,13,14,15,16,17,18,19,20,21,22,23,24,25,1,2,3,4,5,6,7,8,9,10,11,12,13,14,15,16,17,18,19,20,21,22,23,24,25,1,2,3,4,5,6,7,8,9,10,11,12,13,14,15,16,17,18,19,20,21,22,23,24,25,1,2,3,4,5,6,7,8,9,10,11,12,13,14,15,16,17,18,19,20,21,22,23,24,25,1,2,3,4,5,6,7,8,9,10,11,12,13,14,15,16,17,18,19,20,21,22,23,24,25,1,2,3,4,5,6,7,8,9,10,11,12,13,14,15,16,17,18,19,20,21,22,23,24,25,1,2,3,4,5,6,7,8,9,10,11,12,13,14,15,16,17,18,19,20,21,22,23,24,25,1,2,3,4,5,6,7,8,9,10,11,12,13,14,15,16,17,18,19,20,21,22,23,24,25,1,2,3,4,5,6,7,8,9,10,11,12,13,14,15,16,17,18,19,20,21,22,23,24,25,1,2,3,4,5,6,7,8,9,10,11,12,13,14,15,16,17,18,19,20,21,22,23,24,25,1,2,3,4,5,6,7,8,9,10,11,12,13,14,15,16,17,18,19,20,21,22,23,24,25,1,2,3,4,5,6,7,8,9,10,11,12,13,14,15,16,17,18,19,20,21,22,23,24,25,1,2,3,4,5,6,7,8,9,10,11,12,13,14,15,16,17,18,19,20,21,22,23,24,25,1,2,3,4,5,6,7,8,9,10,11,12,13,14,15,16,17,18,19,20,21,22,23,24,25,1,2,3,4,5,6,7,8,9,10,11,12,13,14,15,16,17,18,19,20,21,22,23,24,25,1,2,3,4,5,6,7,8,9,10,11,12,13,14,15,16,17,18,19,20,21,22,23,24,25,1,2,3,4,5,6,7,8,9,10,11,12,13,14,15,16,17,18,19,20,21,22,23,24,25,1,2,3,4,5,6,7,8,9,10,11,12,13,14,15,16,17,18,19,20,21,22,23,24,25,1,2,3,4,5,6,7,8,9,10,11,12,13,14,15,16,17,18,19,20,21,22,23,24,25,1,2,3,4,5,6,7,8,9,10,11,12,13,14,15,16,17,18,19,20,21,22,23,24,25,1,2,3,4,5,6,7,8,9,10,11,12,13,14,15,16,17,18,19,20,21,22,23,24,25,1,2,3,4,5,6,7,8,9,10,11,12,13,14,15,16,17,18,19,20,21,22,23,24,25,1,2,3,4,5,6,7,8,9,10,11,12,13,14,15,16,17,18,19,20,21,22,23,24,25,1,2,3,4,5,6,7,8,9,10,11,12,13,14,15,16,17,18,19,20,21,22,23,24,25,1,2,3,4,5,6,7,8,9,10,11,12,13,14,15,16,17,18,19,20,21,22,23,24,25,1,2,3,4,5,6,7,8,9,10,11,12,13,14,15,16,17,18,19,20,21,22,23,24,25,1,2,3,4,5,6,7,8,9,10,11,12,13,14,15,16,17,18,19,20,21,22,23,24,25,1,2,3,4,5,6,7,8,9,10,11,12,13,14,15,16,17,18,19,20,21,22,23,24,25,1,2,3,4,5,6,7,8,9,10,11,12,13,14,15,16,17,18,19,20,21,22,23,24,25,1,2,3,4,5,6,7,8,9,10,11,12,13,14,15,16,17,18,19,20,21,22,23,24,25,1,2,3,4,5,6,7,8,9,10,11,12,13,14,15,16,17,18,19,20,21,22,23,24,25],"vb_x":[[0,0.07222500536590815,0,0.2988908728584647,0,-0.35407146671786904,0,0.499998199287802],[0,0.4254802642390132,0,-0.08804864017292857,0,0.247405965346843,0,0.4313319972716272],[0,-0.39305929793044925,0,0.6996260643936694,0,-0.23300051409751177,0,-0.5027400543913245],[0,-0.00796419009566307,0,-0.18624140322208405,0,0.17388693429529667,0,-0.5511667183600366],[0,0.09448478976264596,0,0.7660049358382821,0,0.9261603779159486,0,0.812061580363661],[0,0.23014825908467174,0,-0.10983828268945217,0,-0.6646224660798907,0,-0.900603567250073],[0,-0.6478856010362506,0,0.6092994152568281,0,0.0347114666365087,0,-0.7363542718812823],[0,0.9946912825107574,0,-0.4329874231480062,0,-0.498255530372262,0,-0.17127741454169154],[0,-0.8549223681911826,0,0.00952374842017889,0,-0.7857894427143037,0,0.7136659910902381],[0,0.7331659379415214,0,-0.18485019262880087,0,0.6381415836513042,0,-0.9985426981002092],[0,-0.006678684148937464,0,0.12087986106052995,0,0.8648872347548604,0,0.87559660570696],[0,-0.903775377664715,0,-0.30498837027698755,0,-0.1618961007334292,0,-0.8578852219507098],[0,-0.2191823860630393,0,-0.3226053141988814,0,-0.5702552399598062,0,0.7292447155341506],[0,-0.061167682986706495,0,0.783198188059032,0,-0.4645797545090318,0,-0.1890285862609744],[0,-0.23290808126330376,0,0.6435364787466824,0,-0.5870933788828552,0,-0.07767917029559612],[0,-0.5741292531602085,0,-0.3025912051089108,0,-0.8522788207046688,0,0.2576620113104582],[0,-0.5515774157829583,0,0.17135002091526985,0,-0.6589932567439973,0,0.06389045575633645],[0,0.9971335656009614,0,-0.9922171952202916,0,0.22347010858356953,0,0.09872313216328621],[0,-0.3413960402831435,0,-0.5502391899935901,0,0.12254857597872615,0,0.22043636767193675],[0,-0.8887677164748311,0,0.711544984485954,0,0.5537694310769439,0,0.518989575561136],[0,0.6171492883004248,0,-0.464008420240134,0,0.6387640782631934,0,-0.20230500493198633],[0,0.47386861871927977,0,0.8424544930458069,0,0.4970552045851946,0,0.8066430264152586],[0,-0.5931625133380294,0,-0.9128746772184968,0,-0.4752231743186712,0,0.16129021998494864],[0,-0.24318060744553804,0,0.953375609125942,0,0.9282559994608164,0,0.4572705551981926],[0,0.07623462798073888,0,0.45854692347347736,0,-0.6007791585288942,0,-0.8400847809389234],[0,-0.48756556911394,0,0.3342672809958458,0,0.5005533550865948,0,0.43387510906904936],[0,-0.3164933491498232,0,-0.8585898103192449,0,-0.9004512834362686,0,-0.004863619804382324],[0,0.7705601560883224,0,0.9638670864515007,0,-0.7706158077344298,0,0.40954508911818266],[0,-0.9767654240131378,0,-0.7946972455829382,0,-0.5338257211260498,0,0.2895635641179979],[0,0.1396705461665988,0,0.3190448391251266,0,-0.7060155807994306,0,-0.2059812364168465],[0,0.9023152161389589,0,0.13348555751144886,0,-0.8520520525053144,0,0.23446752782911062],[0,-0.8302005464211106,0,0.7020253608934581,0,0.44461922626942396,0,0.1710545402020216],[0,-0.23652210226282477,0,-0.9190477109514177,0,-0.6023864606395364,0,0.9415981047786772],[0,-0.28443402145057917,0,0.534247288480401,0,-0.9320645951665938,0,-0.9213079786859453],[0,-0.6199362096376717,0,0.7117640827782452,0,-0.07362707611173391,0,-0.8812469155527651],[0,-0.8862365456297994,0,-0.7533026882447302,0,0.3587297033518553,0,-0.47943017398938537],[0,-0.5788425342179835,0,0.5923874424770474,0,-0.8346599633805454,0,0.2698543258011341],[0,-0.6510945758782327,0,-0.5931713622994721,0,-0.7135032741352916,0,-0.3869067751802504],[0,-0.09000826720148325,0,-0.6444662287831306,0,0.7342852228321135,0,0.06943262740969658],[0,0.598636812530458,0,-0.6149755059741437,0,-0.6649675411172211,0,-0.8967239973135293],[0,-0.2449787543155253,0,0.872428675647825,0,0.3249236303381622,0,-0.5969295054674149],[0,0.36208936758339405,0,0.9054244314320385,0,-0.08270453149452806,0,0.157205562107265],[0,0.583866860717535,0,-0.3526013013906777,0,-0.3746255151927471,0,0.6031944947317243],[0,-0.1157600306905806,0,-0.8836940093897283,0,0.30253205308690667,0,0.9941943460144103],[0,0.23717059521004558,0,0.7576056229881942,0,0.3581268014386296,0,-0.32645297795534134],[0,-0.6728999684564769,0,0.9406268312595785,0,-0.009374065324664116,0,0.1945139872841537],[0,-0.5078579327091575,0,0.426487335935235,0,0.4515248700045049,0,-0.34387406753376126],[0,-0.6454164255410433,0,0.6792689124122262,0,0.7215035045519471,0,-0.24002523953095078],[0,-0.61626384453848,0,0.7953369910828769,0,-0.6755449292249978,0,-0.8437343407422304],[0,0.5255665704607964,0,-0.4840355715714395,0,-0.8765544672496617,0,0.7376882145181298],[0,-0.8417428247630596,0,0.6090547312051058,0,-0.898762074764818,0,-0.9250728860497475],[0,-0.5042898296378553,0,0.33492042403668165,0,0.7641212707385421,0,-0.744439291767776],[0,0.724461289588362,0,0.4789610989391804,0,0.22803411120548844,0,-0.9592000180855393],[0,0.9656778536736965,0,-0.9575309073552489,0,-0.43685390800237656,0,-0.4697352657094598],[0,-0.9111200575716794,0,-0.09729840559884906,0,0.7681006165221334,0,0.0956527297385037],[0,-0.23315366031602025,0,-0.714128621853888,0,0.0028847134672105312,0,-0.1743410499766469],[0,-0.6193807469680905,0,-0.06635765451937914,0,-0.5322863813489676,0,0.5143710346892476],[0,0.6671738973818719,0,-0.34128878312185407,0,-0.9064342048950493,0,-0.4625171232037246],[0,0.5628209966234863,0,-0.4658387112431228,0,0.3283173060044646,0,0.5106321950443089],[0,0.3165600011125207,0,-0.6085774987004697,0,-0.6616616225801408,0,0.4946467028930783],[0,-0.3639869107864797,0,-0.40215735603123903,0,0.5776456659659743,0,-0.4563369145616889],[0,0.1791577055118978,0,0.591934128664434,0,-0.8486216026358306,0,-0.7146065905690193],[0,-0.067071917001158,0,-0.1300795883871615,0,-0.049621330574154854,0,-0.5261219618842006],[0,-0.4179185559041798,0,0.5074630244635046,0,-0.0263207177631557,0,-0.4448850257322192],[0,0.5708952625282109,0,0.012798851821571589,0,-0.4411153797991574,0,0.4272365942597389],[0,0.2720286035910249,0,-0.10032198531553149,0,0.2178743276745081,0,-0.9568059081211686],[0,0.1804921836592257,0,0.6617412702180445,0,0.025605347473174334,0,-0.9007606711238623],[0,0.9439457962289453,0,0.7106595309451222,0,0.8930214960128069,0,-0.8088384112343192],[0,-0.06397177558392286,0,-0.6703095249831676,0,-0.4226413001306355,0,0.5895212846808136],[0,0.9293603310361505,0,0.4311050074175,0,0.17247181106358767,0,0.714510262478143],[0,-0.6403132383711636,0,-0.9225640916265547,0,-0.5656184051185846,0,0.4878398566506803],[0,-0.7409109123982489,0,0.8680611401796341,0,-0.9510901747271419,0,-0.3821953982114792],[0,0.6973442086018622,0,0.0858565429225564,0,-0.560804863460362,0,0.1321169277653098],[0,0.06416227668523788,0,-0.18179587740451097,0,-0.9471129076555371,0,0.5163066177628934],[0,0.938020761590451,0,0.9221035386435688,0,-0.7494341135025024,0,0.011243544053286314],[0,0.005491612013429403,0,-0.8508340092375875,0,-0.05290573509410024,0,-0.813634994905442],[0,-0.01780844759196043,0,0.6310257222503424,0,0.5583873731084168,0,-0.32281499495729804],[0,0.44014444621279836,0,-0.3676626291126013,0,-0.45030940929427743,0,-0.5066688968800008],[0,-0.42329502664506435,0,-0.7484708344563842,0,0.5961559596471488,0,-0.8971927110105753],[0,0.4873075494542718,0,-0.2651216401718557,0,0.37434803415089846,0,-0.5488866297528148],[0,-0.8625058550387621,0,0.7710464992560446,0,-0.49239441147074103,0,-0.2095330129377544],[0,0.13538854848593473,0,-0.16958181746304035,0,0.8771089757792652,0,-0.6128346063196659],[0,-0.7154754512012005,0,-0.081892604008317,0,0.7135419137775898,0,-0.13764808233827353],[0,0.7560140863060951,0,-0.7923734784126282,0,0.6094102319329977,0,0.4126021354459226],[0,-0.40894082747399807,0,-0.5371491638943553,0,0.4499875558540225,0,-0.4466763040982187],[0,0.6390147423371673,0,-0.5727043314836919,0,-0.590453673619777,0,0.611935521941632],[0,-0.13099149614572525,0,0.155510104727,0,0.1785376127809286,0,0.8642549109645188],[0,-0.12183016585186124,0,-0.4797963546589017,0,-0.9865019675344229,0,-0.5140600558370352],[0,-0.12939969776198268,0,-0.4636628911830485,0,-0.2717799018137157,0,0.8208698057569563],[0,-0.5254360539838672,0,0.2324709757231176,0,0.45615026354789734,0,0.5521668768487871],[0,-0.6893782038241625,0,0.8923961445689201,0,-0.7703327485360205,0,0.8508289624005556],[0,-0.44849924789741635,0,-0.8475714512169361,0,-0.09290379658341408,0,-0.1677041449584067],[0,0.9211199670098722,0,-0.20541754039004445,0,0.5572451637126505,0,-0.16481271805241704],[0,0.1271707722917199,0,0.5327015714719892,0,0.6033040252514184,0,0.8342618625611067],[0,0.10761759104207158,0,-0.5015171724371612,0,0.39294770499691367,0,0.7138696648180485],[0,-0.9863898665644228,0,-0.46006085630506277,0,-0.15059993276372552,0,-0.01375749846920371],[0,0.7042683656327426,0,-0.3406222937628627,0,-0.30079376325011253,0,-0.4436873132362962],[0,-0.6420202204026282,0,0.6897851480171084,0,0.13499494595453143,0,-0.471273694653064],[0,-0.49458761932328343,0,-0.10068682115525007,0,-0.7358974991366267,0,0.018726964946836233],[0,0.49349724501371384,0,-0.5284398188814521,0,-0.5082995248958468,0,-0.4669061852619052],[0,-0.7909172349609435,0,-0.4980222461745143,0,-0.6463005873374641,0,0.32509103044867516],[0,-0.977375591173768,0,0.7741292058490217,0,0.8220949848182499,0,0.49030870432034135],[0,0.11850840272381902,0,0.9492401126772165,0,-0.5321496557444334,0,-0.41417253529652953],[0,-0.1582189337350428,0,0.30822905991226435,0,0.7795187565498054,0,-0.8128317217342556],[0,0.7131244544871151,0,0.13022864004597068,0,0.5421840841881931,0,-0.5733147510327399],[0,0.5084828813560307,0,-0.8308391300961375,0,-0.5139561486430466,0,0.4715847773477435],[0,-0.09211091045290232,0,-0.7434038054198027,0,-0.32374575175344944,0,0.7900280454196036],[0,-0.18227907363325357,0,0.9388370835222304,0,0.3896231479011476,0,0.4712870488874614],[0,0.7710036328062415,0,0.3460407364182174,0,0.29111685883253813,0,0.4979095971211791],[0,-0.6176382387056947,0,0.7916884254664183,0,-0.01191729586571455,0,-0.5982734290882945],[0,0.3376023452728987,0,0.6956122172996402,0,-0.662913310341537,0,0.4128953265026212],[0,-0.908370038960129,0,-0.08115597581490874,0,0.04327411437407136,0,0.7459560106508434],[0,0.816079085227102,0,0.7653148747049272,0,0.1620155218988657,0,0.928567745257169],[0,0.2314068009145558,0,-0.4685183521360159,0,-0.27945150015875697,0,-0.6835524253547192],[0,0.19533650483936071,0,0.360692345071584,0,-0.059051014482975006,0,-0.5630388287827373],[0,-0.8953943368978798,0,-0.7952752984128892,0,0.19644390791654587,0,0.21714363619685173],[0,0.021195838693529367,0,-0.9077481520362198,0,0.9626007759943604,0,-0.8474213150329888],[0,0.5310573875904083,0,-0.10845483606681228,0,-0.4623681139200926,0,0.737053872551769],[0,-0.4368339772336185,0,0.5604362403973937,0,-0.09453875571489334,0,-0.02753363223746419],[0,0.47541015734896064,0,-0.3899106737226248,0,-0.268634797539562,0,0.4185316269285977],[0,0.6452353489585221,0,-0.9895442444831133,0,0.22245981683954597,0,-0.1635273084975779],[0,0.4309239350259304,0,-0.9205452930182219,0,-0.15934497583657503,0,-0.23526099044829607],[0,0.8765349765308201,0,0.21590384049341083,0,-0.23451246926560998,0,-0.9382778308354318],[0,0.3588780229911208,0,0.11781197553500533,0,0.5049561862833798,0,0.5354011943563819],[0,-0.2184478617273271,0,-0.6900314497761428,0,0.13045541662722826,0,0.9391998485662043],[0,0.005063442979007959,0,-0.5867665647529066,0,0.4361277907155454,0,0.78568662609905],[0,-0.13234014250338078,0,0.6433321577496827,0,-0.4626069189980626,0,0.6249350779689848],[0,0.6261052056215703,0,-0.856010059826076,0,-0.5405359701253474,0,0.7534837415441871],[0,-0.7229208326898515,0,0.14192401990294456,0,0.3267452116124332,0,0.7976392470300198],[0,-0.31017908081412315,0,0.257670977152884,0,0.01785300113260746,0,-0.23770613502711058],[0,0.17468462185934186,0,-0.06671100901439786,0,0.25201899698004127,0,-0.521450225263834],[0,0.5681221731938422,0,0.2695900476537645,0,0.721238415222615,0,0.06930393073707819],[0,0.50380017189309,0,0.9130281512625515,0,0.2533242031931877,0,-0.26943272165954113],[0,0.8443567724898458,0,-0.996632975526154,0,-0.25971704022958875,0,0.10663384245708585],[0,0.9305176148191094,0,-0.18578791758045554,0,-0.872753378469497,0,0.19971416471526027],[0,0.003297343384474516,0,0.16642220923677087,0,0.4598312131129205,0,-0.5485590575262904],[0,-0.42578698927536607,0,-0.9537393362261355,0,0.2753037619404495,0,-0.25941038969904184],[0,-0.5198489534668624,0,-0.8557074144482613,0,-0.586551146581769,0,0.6572508634999394],[0,-0.1625302997417748,0,0.5362885780632496,0,-0.1415489763021469,0,-0.39347775373607874],[0,-0.4306612154468894,0,0.1930292514152825,0,0.46819823421537876,0,0.5331550757400692],[0,0.17837841995060444,0,0.6477635758928955,0,0.20404531806707382,0,0.9162096963264048],[0,0.3045312687754631,0,-0.5357223711907864,0,-0.11755259661003947,0,0.3157818908803165],[0,-0.9125700634904206,0,0.46994566125795245,0,-0.5950315725058317,0,0.0007996717467904091],[0,-0.9458920084871352,0,-0.5691399448551238,0,0.4912663479335606,0,-0.1458670007996261],[0,0.4081009812653065,0,0.43031890830025077,0,-0.19293629610911012,0,0.6377450530417264],[0,0.35564568638801575,0,0.3312484035268426,0,-0.8897265275008976,0,0.013003389816731215],[0,-0.9448080915026367,0,0.5336922379210591,0,0.8461509891785681,0,-0.9868268338032067],[0,-0.41784182423725724,0,0.6577872824855149,0,-0.21720700291916728,0,0.6741852667182684],[0,0.18022068729624152,0,0.9823549636639655,0,-0.9094400140456855,0,-0.27647689916193485],[0,0.400545306969434,0,0.049126524943858385,0,0.8333871159702539,0,-0.49742600973695517],[0,0.5412576869130135,0,0.2433494352735579,0,-0.5844355444423854,0,0.8837150521576405],[0,0.42052395455539227,0,-0.3199123153463006,0,0.2628652509301901,0,-0.7665272848680615],[0,-0.03701854683458805,0,0.023216302040964365,0,-0.5921081341803074,0,0.7133438806049526],[0,0.9317842237651348,0,0.38047422328963876,0,-0.21915405243635178,0,-0.11675646994262934],[0,0.9029891937971115,0,0.7536181542091072,0,-0.835145226214081,0,-0.3287069061771035],[0,0.42544905049726367,0,-0.7855816246010363,0,0.8726864992640913,0,-0.8981680003926158],[0,0.9984517223201692,0,0.11249386938288808,0,0.07078486029058695,0,-0.06234866287559271],[0,0.5725898258388042,0,0.23239896725863218,0,0.9499288438819349,0,-0.9291761606000364],[0,0.44995363522320986,0,-0.5559422094374895,0,-0.35515700886026025,0,-0.41950674215331674],[0,-0.11546256858855486,0,-0.15002950420603156,0,-0.06768179638311267,0,-0.5196440261788666],[0,0.82254549395293,0,-0.7604301418177783,0,0.48499437468126416,0,-0.9352607480250299],[0,-0.5121282888576388,0,0.04072937602177262,0,-0.8224908723495901,0,-0.40660015027970076],[0,0.7544746152125299,0,-0.4227015539072454,0,-0.5467822211794555,0,-0.4676399421878159],[0,-0.3247216958552599,0,-0.28073866106569767,0,0.3536219848319888,0,0.7128285230137408],[0,0.042566120624542236,0,-0.695050030015409,0,0.7488905261270702,0,0.980985842179507],[0,0.06379385944455862,0,0.944960665423423,0,-0.43046568520367146,0,-0.41500571742653847],[0,0.6741827288642526,0,0.8221519025973976,0,0.1836517401970923,0,0.037880622781813145],[0,-0.16261054202914238,0,0.2724215476773679,0,0.37865741550922394,0,-0.1888895221054554],[0,0.37226507533341646,0,-0.5389166283421218,0,0.18479342246428132,0,0.15195472724735737],[0,0.3247466152533889,0,0.5533707509748638,0,-0.28058609925210476,0,0.5501038036309183],[0,0.5793222687207162,0,-0.49608346074819565,0,-0.017148907762020826,0,0.708958241622895],[0,-0.7909213122911751,0,0.666218739002943,0,0.2865730356425047,0,0.3824764145538211],[0,0.8239631596952677,0,-0.9964984268881381,0,0.662156721111387,0,-0.2166975219734013],[0,0.43426014902070165,0,0.1753139290958643,0,0.8554485752247274,0,0.2987710190936923],[0,-0.22688033105805516,0,0.49673031317070127,0,-0.37098888074979186,0,0.31546271638944745],[0,-0.6508499402552843,0,0.43835086235776544,0,-0.6633472926914692,0,0.11582473153248429],[0,0.9486884055659175,0,-0.570542779751122,0,0.06477529834955931,0,0.7270781183615327],[0,0.8016956876963377,0,-0.17082958295941353,0,0.4781730519607663,0,0.176601595710963],[0,-0.1775675774551928,0,-0.6574650942347944,0,0.12780805537477136,0,0.8512397408485413],[0,-0.3910443102940917,0,-0.5179077037610114,0,0.239509011618793,0,-0.3980848449282348],[0,-0.6203892771154642,0,-0.48291317420080304,0,-0.14490434667095542,0,-0.15822636522352695],[0,0.3833372048102319,0,0.5928736389614642,0,0.6347634526900947,0,0.6223649680614471],[0,0.9743022653274238,0,-0.7022276818752289,0,0.14921429147943854,0,0.02854482689872384],[0,-0.11539233941584826,0,-0.35204078257083893,0,0.7710215612314641,0,-0.16234168177470565],[0,-0.9225387796759605,0,-0.7111958963796496,0,0.36897939117625356,0,-0.6315882708877325],[0,-0.9258183003403246,0,0.4655321608297527,0,-0.0152687793597579,0,-0.8669423032552004],[0,0.9456714829429984,0,-0.6092773843556643,0,-0.9851104808039963,0,0.6834571803919971],[0,-0.6484128357842565,0,-0.986617072019726,0,-0.46458259131759405,0,-0.821949188131839],[0,-0.7886615465395153,0,-0.3552457527257502,0,0.8666769084520638,0,-0.6830681129358709],[0,0.27376864897087216,0,-0.4846632909029722,0,-0.7056556735187769,0,0.2617689063772559],[0,0.7717324309051037,0,-0.050041958689689636,0,-0.08171445596963167,0,-0.7309959046542645],[0,0.5023750104010105,0,-0.8225117987021804,0,0.746164333075285,0,-0.8247227035462856],[0,-0.36048545129597187,0,0.38359409337863326,0,0.2523869196884334,0,-0.9587807422503829],[0,0.3612370011396706,0,-0.5308143156580627,0,-0.878157761413604,0,-0.8789210733957589],[0,0.5254325419664383,0,0.29969489481300116,0,-0.844178173225373,0,-0.6825139904394746],[0,-0.862717105075717,0,0.2726893564686179,0,-0.052442732732743025,0,-0.7415154404006898],[0,-0.8538159322924912,0,-0.4924975074827671,0,0.08271352760493755,0,-0.33023763028904796],[0,0.3807895975187421,0,0.6783508295193315,0,-0.4188715638592839,0,-0.7226286800578237],[0,0.5067281569354236,0,-0.10074701020494103,0,0.14922691090032458,0,0.47511057974770665],[0,-0.19594189804047346,0,0.0007239636033773422,0,-0.9257440445944667,0,0.6418078951537609],[0,-0.7056796266697347,0,0.2970334207639098,0,0.8548202035017312,0,0.4344984837807715],[0,-0.7859357637353241,0,-0.3742286395281553,0,-0.8258357704617083,0,0.2758038309402764],[0,0.37153332540765405,0,0.34657833352684975,0,-0.946094838436693,0,0.9266843120567501],[0,-0.045887346379458904,0,-0.19838781096041203,0,0.2677968475036323,0,0.49098311457782984],[0,-0.6042741499841213,0,0.20291107846423984,0,0.6311729173175991,0,0.15357209090143442],[0,-0.6924725803546607,0,0.9252162422053516,0,0.37303635105490685,0,0.13116222899407148],[0,-0.40499096270650625,0,0.9939119936898351,0,-0.4212377485819161,0,-0.6887852214276791],[0,0.3798221731558442,0,-0.5210160664282739,0,0.13191296672448516,0,-0.852445884142071],[0,0.2875585127621889,0,-0.6627342384308577,0,0.9480158542282879,0,-0.4499506205320358],[0,0.27302908804267645,0,-0.4090433130040765,0,-0.10953278467059135,0,0.7336423685774207],[0,-0.23736297572031617,0,-0.09753339039161801,0,-0.8081745603121817,0,0.8127936986275017],[0,-0.17279849480837584,0,0.9312992482446134,0,0.09565554279834032,0,0.6488302862271667],[0,0.5834488128311932,0,-0.022583432495594025,0,-0.3907762737944722,0,0.9542321627959609],[0,-0.8016052888706326,0,0.721532303839922,0,-0.6529321656562388,0,0.4921343154273927],[0,-0.08867660444229841,0,0.6947597907856107,0,-0.8140483745373785,0,-0.7316587073728442],[0,0.3570073642767966,0,0.9041613042354584,0,-0.66896380065009,0,-0.36145303351804614],[0,-0.023512217216193676,0,0.33755583316087723,0,0.7164628305472434,0,0.2105179582722485],[0,0.7384302667342126,0,0.1478470405563712,0,0.5907864877954125,0,-0.5144170532003045],[0,0.5033107921481133,0,0.10664255451411009,0,-0.8567831395193934,0,0.9551338865421712],[0,-0.7598322280682623,0,-0.882675264030695,0,-0.032265696208924055,0,0.8444240977987647],[0,-0.37287906743586063,0,-0.44060011208057404,0,0.5449921484105289,0,0.013403546530753374],[0,-0.7376595893874764,0,0.5916413073427975,0,-0.5895522679202259,0,-0.7039283942431211],[0,-0.12105622608214617,0,0.9759207358583808,0,0.2275115419179201,0,-0.02187112160027027],[0,-0.9669548752717674,0,-0.6071543586440384,0,-0.9494986259378493,0,0.9012044444680214],[0,-0.1491004191339016,0,-0.8671795562840998,0,-0.019277450162917376,0,-0.5692270444706082],[0,-0.08675490552559495,0,0.13651180546730757,0,-0.8053467450663447,0,0.04219987662509084],[0,-0.27660002326592803,0,0.7142459978349507,0,-0.06313618458807468,0,0.9502408378757536],[0,0.2861196156591177,0,-0.32131155813112855,0,0.9918236159719527,0,-0.8756189933046699],[0,0.9938921495340765,0,-0.5524619375355542,0,-0.2134008570574224,0,-0.1450458480976522],[0,-0.9196070837788284,0,-0.47515187319368124,0,-0.02817167015746236,0,-0.5960033754818141],[0,0.5748204896226525,0,-0.23216319363564253,0,-0.4568954352289438,0,0.6608838061802089],[0,0.37313358997926116,0,-0.4089502962306142,0,-0.40866304375231266,0,0.11324266297742724],[0,-0.7986323349177837,0,0.5305389147251844,0,0.8432923890650272,0,-0.5700674778781831],[0,0.5395766673609614,0,-0.8656510282307863,0,-0.175529430154711,0,-0.33089182199910283],[0,-0.7959297774359584,0,-0.5202903272584081,0,0.1636112160049379,0,-0.9898055074736476],[0,0.4634803324006498,0,-0.28025908255949616,0,-0.3648897632956505,0,0.7918151905760169],[0,0.4285481604747474,0,-0.2901679896749556,0,-0.634305412415415,0,-0.6489676632918417],[0,0.05063268216326833,0,-0.8798294649459422,0,-0.36324122501537204,0,-0.09885668940842152],[0,0.0625359476543963,0,0.6167605905793607,0,-0.8165681078098714,0,0.6346956272609532],[0,-0.4677207274362445,0,-0.08647190080955625,0,-0.7251154505647719,0,0.4541045636869967],[0,0.03801439609378576,0,-0.6019420074298978,0,-0.42681895568966866,0,-0.48625443829223514],[0,-0.7351799933239818,0,-0.2869779160246253,0,0.3395699728280306,0,-0.9704298446886241],[0,0.20063052466139197,0,0.28719212114810944,0,0.6603237297385931,0,-0.851165839470923],[0,-0.7015058174729347,0,-0.0003874218091368675,0,-0.5026028309948742,0,0.4269557842053473],[0,-0.6245421250350773,0,-0.2323841480538249,0,0.1415132130496204,0,0.6082310541532934],[0,-0.0993691124022007,0,0.5745452186092734,0,0.8874498074874282,0,-0.3386131525039673],[0,-0.8873166269622743,0,0.625677430536598,0,0.16994029888883233,0,0.29633957566693425],[0,0.6913274726830423,0,0.6972701991908252,0,-0.7301195119507611,0,0.33366539096459746],[0,-0.16234043473377824,0,0.07085427828133106,0,0.13984185410663486,0,0.6280034212395549],[0,-0.3259318294003606,0,-0.9782741931267083,0,-0.04569018492475152,0,0.010392779484391212],[0,0.7269776780158281,0,0.8348019006662071,0,0.04042230173945427,0,0.30361609254032373],[0,0.7694583861157298,0,0.5563552184030414,0,0.6805264004506171,0,0.10780100664123893],[0,-0.31380612356588244,0,-0.015929891262203455,0,0.7868704469874501,0,0.6051731863990426],[0,0.17634480213746428,0,0.9784498657099903,0,-0.24129218701273203,0,0.3130160653963685],[0,-0.11113248625770211,0,0.822004166431725,0,0.291753017809242,0,0.9471293543465436],[0,-0.6827182876877487,0,0.43030925700441003,0,0.24818243831396103,0,-0.367671649903059],[0,-0.08561718929558992,0,0.3591850339435041,0,0.3502417425625026,0,0.10763067193329334],[0,0.5270554209128022,0,-0.009428977966308594,0,-0.9449816085398197,0,-0.5396991870366037],[0,0.015737211797386408,0,-0.7983102356083691,0,-0.8959750267677009,0,0.12548253312706947],[0,-0.2024435382336378,0,-0.45750914281234145,0,0.910400134511292,0,0.864121850579977],[0,-0.5666280733421445,0,0.5837196968495846,0,-0.9244079501368105,0,-0.9379912591539323],[0,-0.5357755189761519,0,0.14183134026825428,0,0.37890237011015415,0,0.3753003031015396],[0,-0.7551243216730654,0,-0.42130150366574526,0,-0.29180019721388817,0,0.4582100030966103],[0,-0.2316078543663025,0,0.10578905511647463,0,-0.39705143216997385,0,-0.02473000716418028],[0,0.30056943744421005,0,0.568327431101352,0,0.5417547775432467,0,-0.815953962970525],[0,-0.09381531411781907,0,-0.05182202300056815,0,0.030482185073196888,0,-0.015489728655666113],[0,0.8293291158042848,0,0.5720944995991886,0,-0.5807249415665865,0,-0.4339053179137409],[0,-0.551601177547127,0,0.5844701202586293,0,0.742096143309027,0,0.42454443918541074],[0,0.5047323131002486,0,-0.724975140299648,0,0.9889882332645357,0,0.7324171052314341],[0,-0.04925023205578327,0,-0.2909803004004061,0,0.45488625345751643,0,-0.736103349365294],[0,-0.7058255593292415,0,0.10041068168357015,0,-0.9539795545861125,0,-0.130349840503186],[0,-0.2917218264192343,0,0.7698964532464743,0,-0.9179310449399054,0,-0.2464587576687336],[0,0.00831008655950427,0,-0.5037763058207929,0,0.8204564414918423,0,0.5786592215299606],[0,0.14758536405861378,0,-0.006099179852753878,0,-0.40656158747151494,0,0.7032663086429238],[0,0.2627939055673778,0,-0.9906720770522952,0,0.5982379759661853,0,0.39761559944599867],[0,0.4799818741157651,0,0.2604717928916216,0,-0.039982039015740156,0,0.9630349613726139],[0,0.36511866515502334,0,0.40810245042666793,0,0.15459726471453905,0,-0.818811206612736],[0,-0.8995229434221983,0,0.6873437687754631,0,0.2878906074911356,0,-0.9356761644594371],[0,0.3711480740457773,0,0.8988064615987241,0,0.49192326609045267,0,-0.5836540483869612],[0,-0.12988970568403602,0,-0.4295078320428729,0,-0.9611797682009637,0,-0.07062514079734683],[0,-0.9771549757570028,0,0.5190746858716011,0,0.1421180898323655,0,0.994876520242542],[0,0.04250394273549318,0,0.5470915455371141,0,-0.5377439241856337,0,-0.4364303983747959],[0,-0.5455590216442943,0,-0.7232177346013486,0,-0.12391617055982351,0,0.9698419524356723],[0,0.23075655195862055,0,0.3900801856070757,0,-0.47676139045506716,0,0.36345458403229713],[0,0.4995011086575687,0,-0.575693529099226,0,-0.8604789720848203,0,0.5925062228925526],[0,-0.26445777574554086,0,0.950820819940418,0,-0.3382652862928808,0,-0.4567679753527045],[0,0.8136784723028541,0,0.23643605364486575,0,-0.34920206759124994,0,0.5909022470004857],[0,-0.8407117864117026,0,0.6916476595215499,0,0.9326399392448366,0,-0.5691434140317142],[0,-0.4272428909316659,0,-0.9811957459896803,0,-0.8628112552687526,0,0.7952297977171838],[0,0.8856780044734478,0,0.21581274829804897,0,-0.3231326541863382,0,-0.20781398052349687],[0,-0.728625675663352,0,-0.3151262030005455,0,0.7478226646780968,0,-0.7096296437084675],[0,-0.028180235531181097,0,0.6415710356086493,0,-0.9165405030362308,0,-0.02462557889521122],[0,0.9438995351083577,0,0.2578994114883244,0,0.13166343560442328,0,-0.6299698217771947],[0,-0.6001763013191521,0,0.8457468296401203,0,0.7024169317446649,0,0.1613761382177472],[0,-0.0542496251873672,0,-0.510188321582973,0,-0.7211769199930131,0,0.830174611415714],[0,0.7348187030293047,0,-0.03945315070450306,0,0.38757982663810253,0,0.6966295805759728],[0,-0.24656572518870234,0,-0.6567752985283732,0,0.9827094194479287,0,0.01539036026224494],[0,0.6555907251313329,0,0.079989077989012,0,-0.756124917883426,0,-0.8148306761868298],[0,-0.7985660317353904,0,-0.14647871255874634,0,0.8472614828497171,0,0.48070840490981936],[0,-0.509400540497154,0,-0.07324468903243542,0,-0.9964857678860426,0,-0.006204425357282162],[0,-0.39857760537415743,0,0.20105300936847925,0,-0.16449335077777505,0,-0.8621515687555075],[0,-0.011683627963066101,0,0.2864716215990484,0,0.7992856670171022,0,-0.7660913686268032],[0,0.05899331299588084,0,0.7194614536128938,0,-0.05419532163068652,0,-0.9604676025919616],[0,-0.39477467723190784,0,0.10735103813931346,0,0.41573262168094516,0,-0.8323832140304148],[0,0.7412492935545743,0,0.8336304994300008,0,0.7144110235385597,0,-0.6864605853334069],[0,0.3805592772550881,0,0.11780852731317282,0,-0.3737340597435832,0,-0.2573023373261094],[0,-0.3625498893670738,0,-0.4022764088585973,0,0.5351521638222039,0,0.04334390489384532],[0,-0.663988740183413,0,0.5739038167521358,0,-0.9805319430306554,0,0.8481590361334383],[0,-0.743584877345711,0,0.3619496235623956,0,-0.20259033888578415,0,0.6807828196324408],[0,-0.5272644879296422,0,-0.798932186793536,0,-0.33978267619386315,0,-0.5481706424616277],[0,0.4613224780187011,0,-0.028892430011183023,0,0.14213055418804288,0,-0.04264657152816653],[0,0.9723401512019336,0,0.44692317489534616,0,-0.5358747066929936,0,-0.8660363056696951],[0,0.8328989231958985,0,0.6038444396108389,0,-0.626061481423676,0,-0.20482316752895713],[0,-0.8606468178331852,0,0.4652921021915972,0,0.09939259057864547,0,-0.842196092940867],[0,0.67223557876423,0,-0.4287972943857312,0,-0.9357397467829287,0,0.5894959792494774],[0,-0.7954315925016999,0,-0.03829408623278141,0,0.17568548489362001,0,0.11249255388975143],[0,-0.5767796384170651,0,0.5380666465498507,0,0.5529180653393269,0,-0.4464187044650316],[0,0.013561479281634092,0,0.19227690808475018,0,0.04495073854923248,0,-0.5071029993705451],[0,-0.2317324448376894,0,0.7213245369493961,0,-0.8639593701809645,0,-0.7571323537267745],[0,0.10132881253957748,0,-0.23892918368801475,0,0.7285031182691455,0,-0.09761394234374166],[0,0.6728150569833815,0,0.7923900471068919,0,0.3373451395891607,0,0.7616214770823717],[0,0.9714474403299391,0,0.08119689673185349,0,-0.08331696828827262,0,0.8656689752824605],[0,-0.9612785615026951,0,0.8051546360366046,0,0.09376883693039417,0,-0.7970270877704024],[0,-0.7560408660210669,0,0.7529874420724809,0,0.7127936114557087,0,-0.7308165221475065],[0,-0.9060688829049468,0,-0.018784072250127792,0,-0.9606657112017274,0,-0.8944050860591233],[0,0.19330600602552295,0,-0.781656744889915,0,0.792711975518614,0,-0.21293722838163376],[0,0.17652084678411484,0,-0.04328631376847625,0,0.5259879310615361,0,0.9886010950431228],[0,0.995317401830107,0,0.2250360455363989,0,-0.9982164022512734,0,-0.5454343045130372],[0,0.3265784471295774,0,0.23603685339912772,0,-0.619125647470355,0,0.5574047635309398],[0,-0.23727807635441422,0,0.8292938563972712,0,0.6979664592072368,0,0.46136154467239976],[0,-0.09967953944578767,0,0.3994913278147578,0,0.02309663174673915,0,-0.8404213385656476],[0,-0.3083670623600483,0,-0.7402684604749084,0,0.6354745989665389,0,0.797651591245085],[0,-0.3635966773144901,0,-0.51053057750687,0,-0.10502689005807042,0,0.40074378345161676],[0,-0.9754905016161501,0,0.06638704985380173,0,-0.38815939240157604,0,-0.8755414010956883],[0,0.14270190708339214,0,-0.9381669657304883,0,0.6946728741750121,0,0.997257249429822],[0,-0.9128006994724274,0,-0.6376722948625684,0,0.442005155608058,0,-0.9054823904298246],[0,-0.5387697694823146,0,0.9438486532308161,0,-0.25549414567649364,0,-0.39687249530106783],[0,-0.45252970373257995,0,-0.9442882449366152,0,-0.8131388472393155,0,-0.5987698952667415],[0,0.5858877715654671,0,-0.08563658315688372,0,-0.9084155429154634,0,-0.3595159365795553],[0,0.3443937934935093,0,-0.1852375492453575,0,-0.9983866983093321,0,0.5520036173984408],[0,-0.8589722323231399,0,0.23157638311386108,0,0.47017146088182926,0,0.7910965434275568],[0,0.3020139439031482,0,0.30812068097293377,0,-0.7651076521724463,0,0.04560540150851011],[0,0.051750422455370426,0,0.3650684794411063,0,0.34164045937359333,0,0.43435788806527853],[0,0.8403885290026665,0,-0.4098723875358701,0,0.7133371811360121,0,0.006747712381184101],[0,-0.8155886828899384,0,0.9152531619183719,0,-0.4303591880016029,0,0.6920033795759082],[0,0.34475861862301826,0,0.7085367194376886,0,0.24826560588553548,0,-0.42955125123262405],[0,0.12009916454553604,0,-0.49716944620013237,0,-0.3599012279883027,0,-0.511518407613039],[0,0.33005471201613545,0,0.5626276987604797,0,0.68806785158813,0,0.9638219592161477],[0,-0.2359234979376197,0,-0.6603789608925581,0,0.7167397458106279,0,0.5328886141069233],[0,0.5317287906073034,0,0.265782933216542,0,0.16859004320576787,0,-0.47990143997594714],[0,0.58511121571064,0,-0.41202228469774127,0,0.4433153443969786,0,0.16043147584423423],[0,-0.29823010601103306,0,0.39898686576634645,0,-0.25766687002032995,0,-0.8870411301031709],[0,-0.8905690140090883,0,-0.4985099104233086,0,-0.8994721374474466,0,-0.10800045495852828],[0,0.8975961874239147,0,0.6101549370214343,0,-0.01145293889567256,0,0.600500091444701],[0,0.35483898082748055,0,0.10083340387791395,0,-0.8511760281398892,0,0.3060476710088551],[0,-0.12199594685807824,0,-0.8660197290591896,0,-0.21530007058754563,0,-0.946019456256181],[0,0.8611866533756256,0,-0.4790635770186782,0,-0.6317622112110257,0,0.8859969447366893],[0,0.09152499539777637,0,-0.4585926840081811,0,0.08057025447487831,0,-0.3320400593802333],[0,-0.3816510224714875,0,-0.3953584795817733,0,0.7888552630320191,0,-0.7870419281534851],[0,-0.07197500905022025,0,-0.9074093946255744,0,0.1861047949641943,0,-0.3901629992760718],[0,0.35304128285497427,0,-0.518877784255892,0,0.6021925201639533,0,-0.5583901540376246],[0,-0.08799156174063683,0,0.530687247402966,0,-0.5885237278416753,0,0.3784653563052416],[0,0.22507382603362203,0,-0.2426269198767841,0,-0.572935470379889,0,0.09671738324686885],[0,-0.3923552092164755,0,0.8746260581538081,0,0.7615526267327368,0,0.611789895221591],[0,0.6211992790922523,0,0.7531673177145422,0,0.4427318386733532,0,-0.11001479718834162],[0,0.6064123115502298,0,-0.9313490618951619,0,-0.9600183297879994,0,0.8406806886196136],[0,0.22020150301977992,0,-0.8708521267399192,0,0.7959747039712965,0,-0.5694126728922129],[0,-0.8783870642073452,0,-0.7931767632253468,0,0.40011251997202635,0,-0.8779217395931482],[0,0.16888956306502223,0,0.08058562129735947,0,0.540073633659631,0,-0.8772352412343025],[0,-0.6873523681424558,0,0.462057092692703,0,-0.6841499209403992,0,0.8308350662700832],[0,-0.28959029354155064,0,0.5397101929411292,0,-0.8357128892093897,0,-0.7048656293191016],[0,-0.36146939964964986,0,-0.17292741313576698,0,-0.045018207747489214,0,0.36385343596339226],[0,-0.27014957973733544,0,-0.9748867736198008,0,-0.13118306593969464,0,0.9248679769225419],[0,-0.4410421294160187,0,0.681519684381783,0,0.7896839678287506,0,0.10321099683642387],[0,0.7664865311235189,0,0.40863069519400597,0,0.16480240551754832,0,0.8780008857138455],[0,-0.06894405139610171,0,0.4851831174455583,0,-0.6512658311985433,0,0.3997636432759464],[0,0.7486498807556927,0,0.12799541931599379,0,-0.10790894320234656,0,0.5781282051466405],[0,-0.28840674832463264,0,0.6356945117004216,0,-0.057508778758347034,0,-0.1856467784382403],[0,-0.6387171233072877,0,-0.8728497135452926,0,0.30940044671297073,0,0.5161924692802131],[0,0.96666478831321,0,0.7408828064799309,0,-0.1929843365214765,0,0.027293601538985968],[0,-0.3291117297485471,0,-0.7228965321555734,0,0.07060323376208544,0,0.49816679721698165],[0,-0.07859946275129914,0,-0.7221349091269076,0,-0.33662267588078976,0,0.44446977227926254],[0,0.4873658586293459,0,-0.21799999056383967,0,-0.011680586263537407,0,-0.0003883726894855499],[0,0.8531994852237403,0,-0.9249274362809956,0,-0.6216680142097175,0,-0.23865855066105723],[0,-0.7330724247731268,0,-0.019101012498140335,0,-0.3495133831165731,0,0.7554984544403851],[0,-0.33142889803275466,0,0.8201183029450476,0,0.21380485827103257,0,-0.7278985856100917],[0,-0.48697654716670513,0,0.7732256911695004,0,0.7871330422349274,0,0.4499071813188493],[0,-0.0774954748339951,0,-0.5208291006274521,0,-0.5102669349871576,0,-0.43309348775073886],[0,-0.6390838897787035,0,-0.23948423890396953,0,-0.4914080109447241,0,0.23815211979672313],[0,-0.5090542039833963,0,-0.05497107980772853,0,0.7557614860124886,0,-0.2062862878665328],[0,0.1999764242209494,0,-0.7438834067434072,0,0.6958792470395565,0,-0.08497298322618008],[0,-0.33070317935198545,0,0.24811851140111685,0,0.7231226628646255,0,0.6374993808567524],[0,0.2892627464607358,0,-0.1343601387925446,0,-0.020976672414690256,0,-0.7566924057900906],[0,0.1434887987561524,0,-0.5455548171885312,0,0.13559526577591896,0,0.8037086124531925],[0,0.19011153047904372,0,0.5328840590082109,0,0.6637149495072663,0,0.23148140544071794],[0,0.10644043702632189,0,-0.27848528046160936,0,0.297374346293509,0,-0.33428429812192917],[0,0.8312233593314886,0,-0.6155328922905028,0,0.944077615160495,0,0.044843245297670364],[0,-0.1099400813691318,0,0.1684469231404364,0,0.20879967790096998,0,0.1937492685392499],[0,-0.9941143514588475,0,-0.15633512707427144,0,0.7206878503784537,0,-0.6929482622072101],[0,-0.39662051713094115,0,-0.998040942940861,0,-0.5364343407563865,0,-0.47021902492269874],[0,0.6963923657312989,0,0.9137075184844434,0,-0.727621731813997,0,-0.7153098834678531],[0,-0.02269672229886055,0,-0.1469230125658214,0,-0.6953413379378617,0,0.0955569795332849],[0,-0.5930210994556546,0,-0.4623297592625022,0,-0.1432699877768755,0,-0.45776230515912175],[0,-0.7889643395319581,0,-0.945445706602186,0,0.041749320924282074,0,-0.5409209970384836],[0,0.4513481864705682,0,0.5981276603415608,0,0.1026716222986579,0,0.39668508199974895],[0,-0.06057153549045324,0,-0.4353158436715603,0,-0.755470157135278,0,0.05501638213172555],[0,-0.887099586892873,0,-0.8033669739961624,0,0.28276819875463843,0,0.5455296547152102],[0,0.2527659861370921,0,-0.9672585432417691,0,-0.7129449178464711,0,0.10408643214032054],[0,-0.03834091126918793,0,0.70524643920362,0,-0.4115652032196522,0,-0.4131757253780961],[0,0.13832169212400913,0,-0.9710323652252555,0,0.7127003539353609,0,-0.6055942345410585],[0,0.4253324428573251,0,0.4884320735000074,0,0.8760767341591418,0,-0.6440745070576668],[0,0.25301047833636403,0,-0.6982831778004766,0,0.9998733010143042,0,0.9353883024305105],[0,0.8686903803609312,0,0.2510303119197488,0,0.36110954033210874,0,0.042393149342387915],[0,0.27924271347001195,0,0.9307425683364272,0,0.32354316348209977,0,-0.7900420110672712],[0,-0.10588224837556481,0,-0.7337242136709392,0,0.5861535375006497,0,0.1984498011879623],[0,0.7100465726107359,0,-0.188990187831223,0,0.9311138559132814,0,0.8847556407563388],[0,-0.288082548417151,0,0.15820816531777382,0,-0.09516767598688602,0,-0.5955084087327123],[0,-0.5214126803912222,0,0.33182429429143667,0,0.6246537161059678,0,0.9922375045716763],[0,0.776993562001735,0,-0.9068816569633782,0,0.18155122315511107,0,0.1934063802473247],[0,-0.25112953362986445,0,-0.16551822889596224,0,0.7488177763298154,0,-0.40496586728841066],[0,0.8873599409125745,0,-0.4240805087611079,0,-0.7191919167526066,0,-0.6199184022843838],[0,-0.5347674167715013,0,0.7723064417950809,0,0.46258671721443534,0,0.6452050493098795],[0,0.8832558537833393,0,-0.5772681906819344,0,0.9458395433612168,0,-0.9038280388340354],[0,-0.5641932715661824,0,-0.6003727312199771,0,0.12418020470067859,0,0.22825901303440332],[0,0.008882901165634394,0,0.5026858868077397,0,0.9601705595850945,0,-0.36883574165403843],[0,-0.053556491155177355,0,-0.38983586383983493,0,-0.8825341397896409,0,-0.11669627390801907],[0,0.996799427550286,0,-0.3401749446056783,0,-0.5516237523406744,0,-0.27416964806616306],[0,0.8815748826600611,0,-0.8071547276340425,0,0.04581795912235975,0,-0.7534989402629435],[0,-0.8666509878821671,0,0.3163170819170773,0,-0.05964371794834733,0,-0.8918176311999559],[0,0.17164272395893931,0,-0.5714308144524693,0,0.56103570247069,0,-0.0033416408114135265],[0,0.17582283401861787,0,0.7711386359296739,0,-0.6210804032161832,0,-0.006963626015931368],[0,-0.3744236435741186,0,0.045462438371032476,0,0.8148238584399223,0,0.8700168640352786],[0,0.47507480531930923,0,0.8897747537121177,0,-0.5428352258168161,0,0.8107172143645585],[0,0.12057371903210878,0,-0.7625710223801434,0,-0.7460139044560492,0,0.9740060535259545],[0,-0.9391459305770695,0,0.6634458894841373,0,-0.6401332677341998,0,0.2696798276156187],[0,0.4755406454205513,0,0.9476976389996707,0,0.1515686372295022,0,0.5909676854498684],[0,0.9718582113273442,0,0.25896836537867785,0,-0.48237545555457473,0,0.9743605297990143],[0,0.24440852832049131,0,0.35683682141825557,0,-0.4965583202429116,0,0.02254678588360548],[0,0.26619096798822284,0,-0.3056211485527456,0,0.7807166054844856,0,-0.3992296545766294],[0,-0.9630591091699898,0,0.5271774367429316,0,0.062049857806414366,0,0.4265628564171493],[0,0.7016628030687571,0,-0.7814193177036941,0,-0.6044362727552652,0,0.8723524883389473],[0,0.8788129850290716,0,0.06955286674201488,0,0.17249016975983977,0,0.7531270543113351],[0,0.3658586204983294,0,0.7571112415753305,0,-0.7160126161761582,0,0.7288910434581339],[0,-0.7024451489560306,0,-0.14981090044602752,0,0.6962623442523181,0,-0.8093707379885018],[0,-0.1564693357795477,0,-0.9007608974352479,0,0.4267601715400815,0,-0.08153358288109303],[0,-0.2761694937944412,0,0.9532005409710109,0,-0.008525131735950708,0,0.09092521388083696],[0,-0.32751047844067216,0,0.43201210675761104,0,-0.28506248025223613,0,-0.482015382964164],[0,0.5385687635280192,0,-0.9647725680842996,0,0.6756581896916032,0,-0.14576674485579133],[0,-0.0069900741800665855,0,0.3639629166573286,0,0.24990887474268675,0,0.5632878988981247],[0,0.23698835354298353,0,-0.3814189746044576,0,0.8303954629227519,0,-0.9881443604826927],[0,0.7624271349050105,0,0.9612358058802783,0,0.524164168164134,0,-0.7479291195049882],[0,0.6191817009821534,0,-0.43064309656620026,0,0.754107098095119,0,-0.005838026292622089],[0,-0.19456768268719316,0,0.07600773265585303,0,-0.23258478054776788,0,0.4333388563245535],[0,-0.8855967093259096,0,-0.20969685772433877,0,-0.34427821123972535,0,-0.49749330803751945],[0,0.21291826711967587,0,0.732948231510818,0,-0.2280121403746307,0,-0.015139692462980747],[0,-0.2721418272703886,0,0.5329446252435446,0,0.904826445505023,0,0.20601559802889824],[0,-0.9044279083609581,0,-0.48108801105991006,0,-0.2076251059770584,0,0.4338764576241374],[0,-0.09574606269598007,0,-0.6957456464879215,0,0.023878627456724644,0,0.8865221785381436],[0,-0.3851445922628045,0,-0.6032546916976571,0,-0.663021182641387,0,0.9836840382777154],[0,0.13722704211249948,0,0.5066792275756598,0,-0.9280447852797806,0,0.8198325913399458],[0,-0.8319160640239716,0,0.8004598463885486,0,-0.1661875261925161,0,0.3555760965682566],[0,-0.45048087928444147,0,0.07019120687618852,0,-0.6752561046741903,0,-0.1664903280325234],[0,-0.9353325632400811,0,0.3302782620303333,0,-0.5366829596459866,0,0.04482469242066145],[0,0.17430512700229883,0,0.7627518959343433,0,0.5830123233608902,0,-0.9614481665194035],[0,0.9139967584051192,0,-0.9163397634401917,0,-0.929810565430671,0,0.4978554453700781],[0,0.25366684747859836,0,-0.5299484301358461,0,-0.039326386526227,0,0.8231942150741816],[0,0.19946726271882653,0,0.7602220377884805,0,-0.1612435788847506,0,-0.8984043174423277],[0,-0.4480766402557492,0,-0.6916642831638455,0,-0.8830536692403257,0,0.7373042083345354],[0,0.04649306694045663,0,-0.47275236528366804,0,0.7618326549418271,0,0.09145197039470077],[0,0.11264853086322546,0,-0.0909176617860794,0,-0.8163226670585573,0,-0.495579581707716],[0,-0.5080842971801758,0,0.8881891244091094,0,-0.9781516590155661,0,-0.03415381768718362],[0,-0.592854986898601,0,0.4291497813537717,0,-0.6385041605681181,0,-0.6585757015272975],[0,-0.4942931244149804,0,0.26012804731726646,0,0.2994679673574865,0,0.572448967024684],[0,-0.5943470476195216,0,0.7158455359749496,0,0.797781930770725,0,0.21653216611593962],[0,0.7570389783941209,0,-0.9882509130984545,0,0.5114287370815873,0,-0.2487737233750522],[0,0.1649600281380117,0,-0.9834398259408772,0,-0.2424192139878869,0,0.5754425879567862],[0,-0.3747749482281506,0,0.07374113844707608,0,0.9176893099211156,0,0.4293964859098196],[0,-0.9196944888681173,0,-0.6849668389186263,0,0.08621013537049294,0,0.3514241627417505],[0,0.1979707176797092,0,-0.41719628870487213,0,-0.7436067736707628,0,-0.7361169504001737],[0,-0.6216665953397751,0,0.5592823564074934,0,0.9420109079219401,0,-0.15350979520007968],[0,-0.18109416123479605,0,0.7028419268317521,0,0.10034020757302642,0,0.7898751171305776],[0,-0.8523739730007946,0,0.42278027860447764,0,0.1348695787601173,0,0.5267175175249577],[0,-0.693508277181536,0,-0.34893373865634203,0,-0.37071363581344485,0,0.12255456997081637],[0,-0.9843032802455127,0,-0.47428365936502814,0,-0.15330287907272577,0,-0.11481848638504744],[0,-0.3651696699671447,0,0.5161789660342038,0,-0.6637371801771224,0,-0.22715079132467508],[0,-0.3721583057194948,0,-0.7499886252917349,0,0.17042634868994355,0,-0.6983570829033852],[0,0.8856501947157085,0,-0.2005893518216908,0,0.09799847286194563,0,-0.5885066697373986],[0,0.676046434789896,0,-0.37328752875328064,0,-0.2946278057061136,0,0.3315141159109771],[0,-0.7491600322537124,0,0.5865644216537476,0,0.419500682502985,0,0.4977806261740625],[0,-0.20654250821098685,0,-0.4725859835743904,0,0.594766297377646,0,-0.05383605742827058],[0,0.581149757374078,0,-0.09034733986482024,0,0.18842944549396634,0,0.9158743894658983],[0,-0.1610029865987599,0,-0.9515422489494085,0,-0.19735934725031257,0,0.3693329794332385],[0,-0.4024371551349759,0,0.36924937553703785,0,0.6126803676597774,0,-0.6192992087453604],[0,-0.12573866406455636,0,0.28523225616663694,0,0.8798953397199512,0,0.726394756231457],[0,-0.12391875637695193,0,-0.7170371860265732,0,-0.47676333831623197,0,0.4729360663332045],[0,0.03650375548750162,0,-0.47911731945350766,0,0.1624927050434053,0,0.10986420419067144],[0,0.15881371963769197,0,0.33225712506100535,0,-0.2632831484079361,0,0.3959290678612888],[0,0.8720056992024183,0,0.5571485068649054,0,0.04440779332071543,0,-0.7218909822404385],[0,-0.5381897566840053,0,-0.8761979476548731,0,0.6690684873610735,0,-0.4335956140421331],[0,0.9550308673642576,0,-0.7329641846008599,0,-0.9891484952531755,0,-0.4940952640026808],[0,-0.3467786191031337,0,0.9990423680283129,0,-0.9990130225196481,0,-0.41021117754280567],[0,0.763442647177726,0,0.8276524972170591,0,0.2580628879368305,0,-0.4154509170912206],[0,0.5013750507496297,0,0.1177037856541574,0,-0.2917763334698975,0,0.8872667867690325],[0,0.7710284893400967,0,0.043763197492808104,0,-0.37293081311509013,0,0.77846246259287],[0,0.31611849274486303,0,-0.20154363801702857,0,0.32511900970712304,0,0.17079905793070793],[0,-0.12511561485007405,0,0.21621578559279442,0,0.08673776080831885,0,-0.10489331977441907],[0,-0.5050457301549613,0,0.3436194499954581,0,0.9965427736751735,0,0.4905293183401227],[0,0.5370843620039523,0,-0.15773386415094137,0,0.6111546768806875,0,-0.7880024276673794],[0,0.9184047798626125,0,0.5486048492603004,0,-0.22337349271401763,0,-0.2799476869404316],[0,0.6017749635502696,0,0.3982701385393739,0,-0.7843568082898855,0,-0.8290364947170019],[0,-0.39149421732872725,0,0.648851552978158,0,-0.5765802888199687,0,-0.4330480550415814],[0,-0.2393098920583725,0,-0.2516089449636638,0,0.09443111158907413,0,0.013072712812572718],[0,0.4448654125444591,0,-0.5839227791875601,0,0.28052476001903415,0,0.31670529767870903],[0,0.812658361159265,0,0.3766723186708987,0,-0.14602945698425174,0,0.7031613164581358],[0,0.3835762282833457,0,0.13063413556665182,0,0.11796331126242876,0,0.3448327509686351],[0,-0.3844461301341653,0,-0.764863757416606,0,0.1743370471522212,0,0.8157740668393672],[0,-0.22530553163960576,0,0.19629714032635093,0,0.05427150521427393,0,0.6918526319786906],[0,0.5763559457845986,0,0.3363228924572468,0,-0.6768403137102723,0,0.7706979848444462],[0,-0.387027804274112,0,-0.46444352250546217,0,-0.5636253636330366,0,0.25688124308362603],[0,-0.8304820954799652,0,-0.5894056288525462,0,-0.3122195336036384,0,0.9266900471411645],[0,-0.6144662257283926,0,-0.9539431235753,0,0.6461279951035976,0,0.7512654196470976],[0,-0.8215082632377744,0,-0.9214689452201128,0,-0.12264101207256317,0,-0.7794845392927527],[0,-0.3083615549840033,0,0.670827507507056,0,0.48652176512405276,0,0.09156135888770223],[0,0.26645782589912415,0,0.8717423873022199,0,-0.3584251394495368,0,-0.2473819637671113],[0,-0.5651184762828052,0,0.4350082273595035,0,0.158683973364532,0,0.6105193579569459],[0,0.28666209150105715,0,-0.23893845826387405,0,0.22254540119320154,0,0.6034349123947322],[0,-0.18518145894631743,0,-0.41676245210692286,0,0.12020494416356087,0,0.06397207360714674],[0,-0.2763030016794801,0,0.1573864733800292,0,0.8998123803175986,0,0.7864821818657219],[0,-0.9465363742783666,0,-0.7577252802439034,0,0.2283707493916154,0,-0.006367122288793325],[0,-0.6576687172055244,0,0.4114046972244978,0,-0.7892805496230721,0,-0.14025828382000327],[0,0.4705310077406466,0,-0.20258272299543023,0,0.013974626548588276,0,-0.21145825134590268],[0,0.5870991759002209,0,-0.2294450211338699,0,0.1530125169083476,0,-0.2730094026774168],[0,-0.8465679199434817,0,0.8248063707724214,0,-0.8885223641991615,0,0.504712394438684],[0,0.3512202459387481,0,-0.28588565019890666,0,0.02077419264242053,0,0.8660258362069726],[0,0.8747905613854527,0,-0.23872987879440188,0,-0.8252117708325386,0,-0.5334221282973886],[0,-0.33020738512277603,0,-0.8151381216011941,0,0.7195432712323964,0,-0.34616132359951735],[0,0.02398496214300394,0,-0.8765143393538892,0,-0.14485028805211186,0,0.6595760430209339],[0,0.8995339958928525,0,0.3742437516339123,0,-0.5459800213575363,0,-0.9100999124348164],[0,0.14449043525382876,0,-0.8830394642427564,0,-0.47192420857027173,0,-0.907331695780158],[0,-0.8101824866607785,0,0.7580912816338241,0,0.8008460416458547,0,0.2719030911102891],[0,0.6096120881848037,0,-0.13242098921909928,0,0.9213451184332371,0,-0.8496873499825597],[0,-0.0010629775933921337,0,-0.9515960933640599,0,0.17426484264433384,0,0.9031273256987333],[0,-0.09808474685996771,0,-0.4796004327945411,0,-0.052124105393886566,0,0.9523078477941453],[0,0.06975807156413794,0,0.9329282990656793,0,0.5551052545197308,0,-0.6039457349106669],[0,0.6337853465229273,0,0.8621089109219611,0,0.9697668505832553,0,-0.8402077737264335],[0,-0.41971101285889745,0,0.8215335295535624,0,0.25922902347519994,0,0.9128862572833896],[0,-0.1847957051359117,0,-0.7540641692467034,0,0.05551397055387497,0,-0.24320821510627866],[0,-0.6578423944301903,0,-0.3945888811722398,0,-0.6017493712715805,0,-0.7832852276042104],[0,-0.7055546878837049,0,-0.7544309734366834,0,0.24258864298462868,0,-0.1899522952735424],[0,0.48954365216195583,0,-0.3836730304174125,0,0.7983668465167284,0,0.8752813190221786],[0,0.9435999924317002,0,0.8411040999926627,0,-0.7449501929804683,0,0.5205231565050781],[0,-0.46835238486528397,0,-0.8047698331065476,0,0.002383373212069273,0,-0.2854699958115816],[0,0.1488296859897673,0,0.6164883114397526,0,-0.5566426701843739,0,0.2596024926751852],[0,-0.9190303147770464,0,0.8388767214491963,0,-0.5302337962202728,0,0.2686044340953231],[0,-0.2662706058472395,0,-0.31955874152481556,0,-0.4003373081795871,0,0.5153921148739755],[0,-0.47533489763736725,0,-0.2287232712842524,0,-0.06269012624397874,0,-0.2509340816177428],[0,-0.7515902034938335,0,-0.37525374023243785,0,-0.5215648217126727,0,0.1626087799668312],[0,-0.8348395386710763,0,-0.9169686804525554,0,0.45366550981998444,0,0.7350876517593861],[0,0.6868697330355644,0,-0.2698539146222174,0,-0.5629394017159939,0,-0.6753479079343379],[0,0.1235089716501534,0,0.07851331867277622,0,-0.22912488179281354,0,0.8905554758384824],[0,-0.706777079962194,0,0.290986321400851,0,0.11323366640135646,0,-0.4640843831002712],[0,0.6859303512610495,0,-0.9153734971769154,0,-0.403348165564239,0,-0.7184385093860328],[0,0.7694085645489395,0,0.8772487714886665,0,0.34602404339239,0,-0.00626735994592309],[0,-0.3942194483242929,0,-0.47359570814296603,0,0.5582892084494233,0,-0.024857758544385433],[0,-0.36068941093981266,0,-0.46047585364431143,0,-0.8072865260764956,0,0.46519115241244435],[0,-0.25579287111759186,0,0.17200138326734304,0,0.29762135120108724,0,0.94960229517892],[0,-0.7662355680949986,0,0.8944095736369491,0,-0.035213700495660305,0,0.1328386482782662],[0,0.7577172126621008,0,-0.6039211782626808,0,-0.8914473340846598,0,0.9904703656211495],[0,-0.686436032410711,0,0.8275438048876822,0,-0.9344194424338639,0,0.6398664228618145],[0,0.7659762403927743,0,0.5205930154770613,0,-0.7442077905870974,0,0.5117200203239918],[0,-0.9313461780548096,0,0.8742447034455836,0,-0.49873526953160763,0,0.43446061899885535],[0,-0.27865965757519007,0,0.6246664910577238,0,0.07673492096364498,0,0.4034409155137837],[0,0.8453145702369511,0,-0.776620777323842,0,-0.17723419843241572,0,0.60500398138538],[0,-0.6017968165688217,0,-0.595724543556571,0,0.4578210166655481,0,0.24649961851537228],[0,-0.6123727336525917,0,-0.9447965817525983,0,-0.8042762638069689,0,-0.9292696849443018],[0,0.9849746054969728,0,-0.6552583328448236,0,-0.5127170206978917,0,-0.33708965592086315],[0,-0.41950100287795067,0,-0.576957996468991,0,0.5773414531722665,0,-0.9180264882743359],[0,0.1662300587631762,0,0.39049694361165166,0,0.28824226604774594,0,0.27915176935493946],[0,0.9081025351770222,0,0.6882257233373821,0,0.40605707792565227,0,-0.42059874488040805],[0,0.300176652148366,0,0.045000797137618065,0,0.2200591741129756,0,-0.0203454471193254],[0,-0.34142424166202545,0,-0.025793153326958418,0,0.6590459342114627,0,-0.4990708166733384],[0,0.6585485059767962,0,0.4465815438888967,0,0.5454879365861416,0,0.6254941890947521],[0,-0.3581072469241917,0,-0.1336638880893588,0,0.9515033164061606,0,-0.45180012471973896],[0,0.6757392073050141,0,-0.32982441829517484,0,0.9591268906369805,0,-0.5368879456073046],[0,-0.10154099436476827,0,0.8017023899592459,0,-0.8200643928721547,0,0.883801516611129],[0,0.16711911046877503,0,0.22827447298914194,0,0.8573302440345287,0,0.0030309483408927917],[0,-0.9478617934510112,0,-0.07032029842957854,0,0.6031296402215958,0,-0.5402833786793053],[0,-0.657354305498302,0,0.8631447497755289,0,-0.9878945895470679,0,0.8144440692849457],[0,0.447754914406687,0,-0.917444521561265,0,-0.5293093570508063,0,-0.23697617510333657],[0,-0.03660819260403514,0,0.44433566369116306,0,-0.2172140977345407,0,0.7539881970733404],[0,0.10185225307941437,0,0.08073548972606659,0,0.1942563890479505,0,0.03188891150057316],[0,-0.3433198444545269,0,0.4387776246294379,0,0.9506438677199185,0,0.7907359478995204],[0,0.5806961264461279,0,0.10757045727223158,0,0.6395421312190592,0,-0.6593429599888623],[0,0.10849328804761171,0,0.6961839641444385,0,-0.08325424510985613,0,0.15237587969750166],[0,0.33592286333441734,0,0.7919821259565651,0,-0.4483884936198592,0,-0.07573344651609659],[0,-0.5671430444344878,0,-0.7401340547949076,0,0.5150835560634732,0,-0.9830480231903493],[0,-0.6166086890734732,0,0.17523009097203612,0,0.0047574732452631,0,-0.7945546633563936],[0,0.5280296998098493,0,0.9779205275699496,0,-0.9261511792428792,0,-0.19576821476221085],[0,-0.06819113530218601,0,-0.012415400706231594,0,0.9848291338421404,0,0.06682344572618604],[0,-0.7315723029896617,0,0.6937278676778078,0,0.7436536177992821,0,0.8951250538229942],[0,-0.18242609221488237,0,0.17985148029401898,0,0.7488265493884683,0,-0.7269389503635466],[0,0.4828791688196361,0,-0.7977125640027225,0,0.526587544940412,0,0.07050322135910392],[0,0.894856461789459,0,0.750360016245395,0,-0.08749788952991366,0,-0.6001861453987658],[0,-0.9547291127964854,0,-0.5940354005433619,0,0.7030369318090379,0,-0.11122335446998477],[0,0.9789579957723618,0,0.692056730389595,0,0.13184324465692043,0,0.0005447692237794399],[0,-0.7378967152908444,0,-0.8971717078238726,0,0.25470223603770137,0,0.18058066442608833],[0,-0.5821982705965638,0,0.8292696843855083,0,0.04415254760533571,0,-0.2224947358481586],[0,0.3088064747862518,0,0.6598447863943875,0,0.5112854852341115,0,0.25897327437996864],[0,-0.053062145598232746,0,0.28939959267154336,0,-0.6538808457553387,0,-0.30962479347363114],[0,-0.8547868393361568,0,0.48034149967134,0,0.8819421669468284,0,0.2826370117254555],[0,0.6454523568972945,0,-0.2874341458082199,0,-0.7554951873607934,0,-0.18257693573832512],[0,0.04665431287139654,0,-0.6863632211461663,0,-0.7384822298772633,0,-0.2416619835421443],[0,0.30601082369685173,0,0.6056624036282301,0,-0.2900086366571486,0,0.6697570462711155],[0,0.9738957998342812,0,0.3403232735581696,0,-0.5383106148801744,0,-0.5317632830701768],[0,0.28106286469846964,0,-0.3281206116080284,0,0.07728748908266425,0,-0.8486726363189518],[0,-0.30048855813220143,0,-0.3118051774799824,0,-0.4885602258145809,0,0.6368508255109191],[0,-0.7833132157102227,0,-0.08131227130070329,0,0.45343825640156865,0,-0.19010804500430822],[0,0.9235675795935094,0,0.8183684977702796,0,-0.6162354885600507,0,-0.3036496043205261],[0,-0.2422934966161847,0,0.15912095131352544,0,0.5557790994644165,0,0.285004161298275],[0,-0.5066153397783637,0,0.012280689086765051,0,0.7543867956846952,0,-0.3970300895161927],[0,-0.40155885741114616,0,0.6061331937089562,0,-0.7284512221813202,0,-0.9729126100428402],[0,-0.011909815017133951,0,0.6308931806124747,0,-0.3675839123316109,0,-0.1664893440902233],[0,-0.8012347095645964,0,-0.6204099552705884,0,-0.03765423409640789,0,-0.20428267354145646],[0,0.6440546261146665,0,-0.2144487388432026,0,-0.5837298976257443,0,0.00025425292551517487],[0,0.18319750670343637,0,0.8862842847593129,0,-0.5230260319076478,0,-0.9498085118830204],[0,-0.512436734046787,0,0.13324668677523732,0,-0.26527195051312447,0,0.6509099593386054],[0,0.6333596603944898,0,-0.7344370470382273,0,0.2934664045460522,0,0.020342284347862005],[0,0.802280274219811,0,-0.3302519959397614,0,-0.2550564589910209,0,0.4490627166815102],[0,-0.9580638147890568,0,0.9150052983313799,0,0.3717146529816091,0,0.14950116584077477],[0,-0.37430728832259774,0,0.3196566407568753,0,-0.5811498677358031,0,0.6644528219476342],[0,0.14089679811149836,0,0.868951631244272,0,0.7694368651136756,0,0.43512987811118364],[0,0.06434562662616372,0,0.6426825192756951,0,-0.2578349313698709,0,-0.44386585522443056],[0,-0.2547296960838139,0,-0.9820246668532491,0,-0.15004955930635333,0,0.9935701182112098],[0,0.0733281197026372,0,0.6074163252487779,0,-0.33840208407491446,0,0.7987307100556791],[0,0.464411208871752,0,-0.725119998678565,0,-0.2770171221345663,0,0.5537597970105708],[0,0.5222384044900537,0,-0.8297864361666143,0,0.17103421641513705,0,0.7111552921123803],[0,-0.26072106324136257,0,-0.23784612957388163,0,-0.7394180530682206,0,0.7356778089888394],[0,-0.6322909290902317,0,0.49003139324486256,0,0.13648724649101496,0,-0.45693049766123295],[0,-0.6786752878688276,0,0.06656311312690377,0,-0.7718798834830523,0,0.18043364863842726],[0,-0.26250404585152864,0,-0.8687713793478906,0,0.672523916233331,0,-0.8597309025935829],[0,-0.42123533319681883,0,-0.6479862150736153,0,0.09411765495315194,0,0.6048871804960072],[0,0.5461929300799966,0,-0.5044357310980558,0,-0.7401732234284282,0,0.6719393962994218],[0,0.023154409136623144,0,-0.11558477999642491,0,-0.6753589706495404,0,0.2481603822670877],[0,-0.676004106644541,0,-0.663854253012687,0,-0.3719619205221534,0,0.7047270340844989],[0,0.4818779528141022,0,0.9203027365729213,0,-0.6144130150787532,0,0.856592929456383],[0,-0.5913985595107079,0,-0.8342129718512297,0,0.8621838963590562,0,0.3727521952241659],[0,-0.7658182168379426,0,-0.20458562020212412,0,-0.1595405600965023,0,0.5272929812781513],[0,0.0984988184645772,0,-0.5785477142781019,0,-0.13649944961071014,0,-0.13473054487258196],[0,0.33205292001366615,0,-0.2486943337135017,0,-0.6302782986313105,0,-0.28261764999479055],[0,-0.5845658048056066,0,0.08819784969091415,0,0.7177454885095358,0,0.4468498369678855],[0,0.27786644268780947,0,-0.7476625628769398,0,0.1752011920325458,0,-0.4499706905335188],[0,-0.7788463667966425,0,0.6138936881907284,0,0.20287847379222512,0,0.13429697090759873],[0,0.8459454164840281,0,-0.7228112169541419,0,0.8165011242963374,0,-0.9524924051947892],[0,0.9275760478340089,0,0.12412905413657427,0,-0.04285184293985367,0,-0.23920455714687705],[0,-0.4698797119781375,0,-0.2019194308668375,0,-0.8646703152917325,0,0.856572943739593],[0,0.3147220676764846,0,-0.8555879280902445,0,0.06439074780791998,0,0.4222092293202877],[0,-0.3442663885653019,0,0.09696773858740926,0,-0.4251151070930064,0,-0.7843279116787016],[0,-0.22218668879941106,0,-0.8121642996557057,0,0.2838080027140677,0,0.6184228234924376],[0,-0.08424899820238352,0,0.007177860476076603,0,0.7691071573644876,0,0.666511447634548],[0,-0.5384691474027932,0,-0.4837728701531887,0,0.9608152457512915,0,0.7879046546295285],[0,0.025170395616441965,0,0.7213714052923024,0,0.04415665799751878,0,0.026231685653328896],[0,-0.5259162331931293,0,0.6703933640383184,0,0.5276433629915118,0,0.18513553449884057],[0,-0.3013348947279155,0,-0.9406062527559698,0,-0.4591974774375558,0,-0.10549383098259568],[0,-0.8343416284769773,0,-0.9541268954053521,0,0.7725444985553622,0,-0.7266800715588033],[0,0.2535725845955312,0,-0.5443039513193071,0,-0.41257010167464614,0,-0.04863617289811373],[0,0.8216641345061362,0,-0.9402357544749975,0,-0.29075111355632544,0,0.9947145022451878],[0,0.8547141286544502,0,-0.01978268101811409,0,0.2914416859857738,0,-0.02752663381397724],[0,-0.9504125444218516,0,-0.6424977011047304,0,-0.9797138208523393,0,-0.016345496755093336],[0,0.32771229604259133,0,-0.09871370764449239,0,0.06751300860196352,0,0.3497662013396621],[0,0.2192501900717616,0,-0.15539772622287273,0,0.3461111271753907,0,0.40289113484323025],[0,-0.6507973768748343,0,0.741479676682502,0,-0.6545811439864337,0,0.524133572820574],[0,0.5227320841513574,0,-0.24278833530843258,0,0.5823766514658928,0,0.023547669872641563],[0,-0.42475508572533727,0,-0.3917873711325228,0,0.9062191662378609,0,-0.4000214315019548],[0,0.991259784437716,0,-0.23820746038109064,0,0.7784138573333621,0,0.214235651306808],[0,0.7886335807852447,0,-0.847583141643554,0,0.021410739980638027,0,-0.8829184379428625],[0,-0.41501450119540095,0,0.40860343305394053,0,0.3930117003619671,0,0.6887593376450241],[0,-0.8151894225738943,0,0.49423176934942603,0,-0.959128575399518,0,0.43399551045149565],[0,0.4829292348586023,0,-0.6617216435261071,0,0.3806864800862968,0,0.3553675562143326],[0,-0.20157472556456923,0,0.9418757515959442,0,-0.8750536390580237,0,-0.7035524658858776],[0,-0.2541149128228426,0,0.6561384378001094,0,-0.7028609202243388,0,0.5804634462110698],[0,0.20578081021085382,0,0.26503205951303244,0,-0.4693079302087426,0,0.5339645650237799],[0,-0.6083799786865711,0,0.8843159321695566,0,0.03329373290762305,0,-0.17215134156867862],[0,-0.46021828381344676,0,-0.990627215243876,0,-0.9062892403453588,0,-0.13417633157223463],[0,0.43395460210740566,0,0.7612605909816921,0,-0.6692763892933726,0,0.34926277631893754],[0,0.5337572814896703,0,0.7405428607016802,0,0.5763695589266717,0,0.34986263792961836],[0,-0.5236568269319832,0,0.7235211208462715,0,-0.7947236690670252,0,0.4067089268937707],[0,-0.008233996573835611,0,-0.0667564976029098,0,-0.9142046244814992,0,0.7167214923538268],[0,-0.8409218317829072,0,-0.34028509398922324,0,0.7965788440778852,0,-0.013807020150125027],[0,-0.5652515268884599,0,-0.8940130486153066,0,0.437605211045593,0,0.8612198433838785],[0,0.32494854601100087,0,0.794091269839555,0,0.16572850476950407,0,-0.006247004494071007],[0,0.9496807921677828,0,0.26428744522854686,0,-0.4819148816168308,0,0.085831000469625],[0,-0.7502046404406428,0,-0.7689002165570855,0,-0.2342730420641601,0,0.36366688134148717],[0,0.3312595970928669,0,0.9731255834922194,0,-0.25282124103978276,0,-0.29157938901335],[0,-0.42776888189837337,0,0.9190943520516157,0,-0.1980090094730258,0,0.06507486291229725],[0,0.5950362170115113,0,0.4178398810327053,0,-0.9157809121534228,0,0.6906800158321857],[0,0.23052332969382405,0,-0.1489902031607926,0,0.2917474266141653,0,0.9553019823506474],[0,-0.9059839746914804,0,-0.9909924939274788,0,-0.14056426333263516,0,0.7466659424826503],[0,0.4754758276976645,0,0.10472858091816306,0,0.14311991073191166,0,0.16641169739887118],[0,0.4987519816495478,0,-0.43236997770145535,0,0.9346712222322822,0,0.3404284007847309],[0,0.8449672502465546,0,0.514047347009182,0,0.35943952295929193,0,0.1421489710919559],[0,-0.4920129422098398,0,-0.2507287794724107,0,0.6140375137329102,0,-0.6739199953153729],[0,0.2428504340350628,0,-0.4032576750032604,0,0.719753248617053,0,0.3693472295999527],[0,0.18028452387079597,0,0.988605500664562,0,0.014176210854202509,0,-0.6728740790858865],[0,0.1509002773091197,0,-0.1773426798172295,0,0.4937128475867212,0,0.6234536888077855],[0,-0.9896396449767053,0,0.12525609880685806,0,0.7526611690409482,0,0.1273785475641489],[0,-0.5627261539921165,0,0.5936620435677469,0,-0.9907073206268251,0,0.8781148195266724],[0,-0.8575742756947875,0,-0.16507548419758677,0,0.5262494822964072,0,-0.444773081690073],[0,-0.02033157693222165,0,-0.43555991211906075,0,0.7945714900270104,0,0.5972140058875084],[0,-0.3434094940312207,0,-0.7977785705588758,0,-0.9584796004928648,0,0.48141524801030755],[0,0.9283305434510112,0,-0.09253669856116176,0,-0.5624911827035248,0,0.29649108508601785],[0,0.8570923916995525,0,-0.2997438218444586,0,-0.7314924723468721,0,-0.6201747613959014],[0,0.024782925378531218,0,-0.1752456994727254,0,-0.876137278508395,0,0.3520522229373455],[0,0.38557050144299865,0,-0.9748228690586984,0,0.05156706040725112,0,0.8740350524894893],[0,0.7082694470882416,0,0.9587535760365427,0,0.5031135161407292,0,0.7533278590999544],[0,0.6403520819731057,0,-0.7257352131418884,0,0.9461338501423597,0,0.7706460990011692],[0,-0.3527356064878404,0,0.3315510917454958,0,0.6287149642594159,0,-0.2830365509726107],[0,0.7958474922925234,0,-0.6361702145077288,0,0.8008436928503215,0,0.7196222087368369],[0,-0.7803159398026764,0,-0.7116952245123684,0,-0.23494138335809112,0,-0.5857019135728478],[0,-0.11319049820303917,0,0.6031048973090947,0,0.8418662291951478,0,0.5436322218738496],[0,0.25271606957539916,0,0.47460451861843467,0,0.9106110110878944,0,0.19105439586564898],[0,-0.5685515850782394,0,0.7977886870503426,0,0.6949320058338344,0,-0.7546297581866384],[0,0.5419373428449035,0,0.16116604767739773,0,0.1369236665777862,0,-0.32325216894969344],[0,0.5637811906635761,0,0.30242573423311114,0,0.05183623405173421,0,-0.44801453221589327],[0,0.8761622686870396,0,0.022511628456413746,0,0.836535107344389,0,0.32693224027752876],[0,0.6161294765770435,0,-0.4533847412094474,0,-0.4154611937701702,0,-0.5816808175295591],[0,0.5612896289676428,0,0.176253127399832,0,0.03851943230256438,0,-0.3147055055014789],[0,-0.3464484387077391,0,-0.6773922401480377,0,0.8214932917617261,0,-0.32204480189830065],[0,0.03633997356519103,0,0.6504128496162593,0,0.8192779254168272,0,-0.381285703741014],[0,-0.21896331058815122,0,0.3196649020537734,0,-0.398387071210891,0,0.9406998436897993],[0,-0.3993720021098852,0,-0.870191817637533,0,-0.8297347892075777,0,-0.8230524705722928],[0,0.1977881737984717,0,-0.9270397927612066,0,-0.8639053395017982,0,-0.5679362984374166],[0,-0.48280394496396184,0,-0.7361240768805146,0,0.7539472379721701,0,0.14480512915179133],[0,0.969816607888788,0,0.4932824061252177,0,0.39091142313554883,0,0.6528941835276783],[0,0.3663797192275524,0,0.9063640688546002,0,0.6478644628077745,0,-0.1988323824480176],[0,-0.7882964392192662,0,-0.513864426407963,0,-0.7282640039920807,0,-0.6845359252765775],[0,0.3648934122174978,0,0.6510068154893816,0,-0.4938508961349726,0,0.15348030719906092],[0,0.01792134717106819,0,-0.17564932582899928,0,-0.5939832995645702,0,-0.6614585304632783],[0,-0.7130878246389329,0,0.28578628366813064,0,0.19607089646160603,0,0.990406007040292],[0,0.08328783139586449,0,0.6785564348101616,0,0.14705026242882013,0,-0.900629619602114],[0,0.3237103405408561,0,-0.42121271416544914,0,0.5666958051733673,0,0.36695799278095365],[0,0.9199122968129814,0,-0.6411699242889881,0,-0.06119208596646786,0,0.958790360018611],[0,-0.17784276930615306,0,-0.01575963944196701,0,-0.24758127005770802,0,-0.8395581902004778],[0,0.8120307298377156,0,0.29544457513839006,0,-0.6043078480288386,0,-0.1303337118588388],[0,0.2241120282560587,0,0.37663835985586047,0,0.8534606765024364,0,0.2472124439664185],[0,0.04501712927594781,0,0.20519772311672568,0,0.07812597742304206,0,-0.7587564433924854],[0,0.6692838510498405,0,-0.7761397361755371,0,0.13844698201864958,0,-0.14457715349271894],[0,-0.1297532068565488,0,0.20223053079098463,0,-0.06247711833566427,0,-0.3666799059137702],[0,0.6484407181851566,0,-0.3767292769625783,0,-0.8982847286388278,0,-0.13816139800474048],[0,0.3601783593185246,0,-0.6561986082233489,0,-0.7192934830673039,0,0.9454227206297219],[0,0.552442379295826,0,0.18704714719206095,0,0.8374213902279735,0,0.12636559596285224],[0,-0.10498713376000524,0,0.5300761852413416,0,0.3932294864207506,0,0.48672951525077224],[0,0.6146869449876249,0,-0.4788074600510299,0,0.0877499096095562,0,-0.4539984851144254],[0,0.9814018299803138,0,-0.04632295807823539,0,-0.40853935526683927,0,0.11789897596463561],[0,-0.036075064446777105,0,-0.5825936673209071,0,-0.20175440097227693,0,-0.3866206291131675],[0,0.9321027658879757,0,-0.9074227032251656,0,-0.7887521735392511,0,0.9238585908897221],[0,0.9732779203914106,0,-0.8329918952658772,0,0.7195932539179921,0,-0.5387615552172065],[0,0.7911005550995469,0,0.2995475702919066,0,-0.861233324278146,0,0.616487973369658],[0,0.6041729371063411,0,0.611243556253612,0,-0.15736516332253814,0,0.3476701988838613],[0,-0.321236536372453,0,-0.6209469647146761,0,-0.35968052316457033,0,-0.7818419015966356],[0,-0.7074411679059267,0,0.5323441196233034,0,0.9335306724533439,0,-0.9994001626037061],[0,0.7403375650756061,0,-0.4999555624090135,0,0.4517755229026079,0,0.8830854007974267],[0,0.9987569758668542,0,0.8827614141628146,0,-0.5163462064228952,0,0.5681330789811909],[0,-0.3347760713659227,0,0.17195407673716545,0,0.13621182786300778,0,0.8538025035522878],[0,-0.8491955008357763,0,-0.4004635950550437,0,0.6948042660951614,0,-0.7616527853533626],[0,0.004056454636156559,0,0.9548278274014592,0,-0.9326956463046372,0,-0.5146960667334497],[0,0.5932104648090899,0,0.9368012989871204,0,0.685837727971375,0,0.2204112741164863],[0,0.38358892826363444,0,-0.7009859029203653,0,0.3815351673401892,0,0.23735118564218283],[0,-0.34617798449471593,0,0.495403450448066,0,-0.19535100273787975,0,-0.2347992123104632],[0,-0.07171834772452712,0,-0.989346232265234,0,-0.5403849855065346,0,-0.5437578298151493],[0,-0.3173933904618025,0,0.13938806159421802,0,0.5733692706562579,0,-0.46714126877486706],[0,-0.6235326924361289,0,-0.824552372097969,0,0.9304380821995437,0,0.251575683709234],[0,-0.747581709176302,0,-0.9044090379029512,0,-0.3286970001645386,0,-0.290844542440027],[0,-0.6471520126797259,0,0.9081747280433774,0,0.5211407653987408,0,0.8666397780179977],[0,-0.2510438649915159,0,-0.025960986968129873,0,-0.3828137353993952,0,0.6870466331019998],[0,-0.2597924526780844,0,-0.9574805637821555,0,-0.12977883126586676,0,-0.16383992973715067],[0,-0.2678790623322129,0,0.28343909699469805,0,0.6842462178319693,0,-0.2623608075082302],[0,0.8964457586407661,0,0.4917122540064156,0,-0.0695591582916677,0,0.8062677327543497],[0,0.41766713466495275,0,0.773090903647244,0,0.39050932554528117,0,0.039178647100925446],[0,-0.40489564184099436,0,0.8288054638542235,0,-0.8771316888742149,0,0.04192676628008485],[0,-0.8971726498566568,0,-0.6914133774116635,0,-0.45596426259726286,0,-0.6465366864576936],[0,-0.5908113913610578,0,-0.23985251691192389,0,0.7820330252870917,0,-0.95966368727386],[0,0.8948819981887937,0,0.46317470679059625,0,-0.44653942855075,0,0.8732239142991602],[0,0.48868459882214665,0,0.577416765037924,0,0.3550123400054872,0,-0.9779769568704069],[0,-0.5581756397150457,0,-0.20681870449334383,0,-0.3916921769268811,0,0.36118096951395273],[0,-0.882157155778259,0,-0.10024363873526454,0,-0.29154696874320507,0,0.5906293215230107],[0,-0.40113168209791183,0,-0.8931592516601086,0,-0.3206604653969407,0,0.09483159007504582],[0,0.1279071606695652,0,-0.5690429280512035,0,0.6030270769260824,0,-0.6793299061246216],[0,0.5602938057854772,0,-0.6716595534235239,0,0.051496068481355906,0,0.030942391604185104],[0,0.9355776971206069,0,0.17498934734612703,0,0.7217291169799864,0,0.686460642144084],[0,-0.9653688548132777,0,0.5880443379282951,0,0.9869014383293688,0,0.20260406844317913],[0,-0.8716975529678166,0,0.5709989480674267,0,-0.7120827096514404,0,0.8923757574521005],[0,0.3385861162096262,0,-0.3469619173556566,0,-0.5811647269874811,0,0.06037249229848385],[0,0.004566201940178871,0,-0.3118069670163095,0,0.20232395036146045,0,-0.30080092744901776],[0,0.8712282786145806,0,0.14285955671221018,0,0.0583588108420372,0,0.14702045265585184],[0,-0.18877425184473395,0,0.25934930332005024,0,-0.4411781202070415,0,-0.1528080478310585],[0,-0.8562262733466923,0,-0.8007655125111341,0,-0.49621825478971004,0,0.6703879917040467],[0,-0.48818991566076875,0,0.7660559853538871,0,-0.8180874790996313,0,-0.32137765269726515],[0,0.5445996103808284,0,-0.17865581391379237,0,0.6245575924403965,0,0.013472325634211302],[0,-0.01845209440216422,0,0.8721822365187109,0,-0.35193259129300714,0,-0.44421499175950885],[0,-0.6939388262107968,0,0.13092759065330029,0,-0.13951459806412458,0,-0.7257713587023318],[0,-0.10781620908528566,0,-0.592883768491447,0,-0.28841979848220944,0,-0.24841101048514247],[0,0.9126254371367395,0,-0.7875109268352389,0,0.06427368568256497,0,0.6288717435672879],[0,0.8489074888639152,0,-0.07491331920027733,0,0.2933999262750149,0,-0.9110430916771293],[0,0.5337840490974486,0,0.24971625953912735,0,0.010061475913971663,0,-0.8584060603752732],[0,-0.06943490263074636,0,-0.7819429077208042,0,0.5370141929015517,0,-0.9307201253250241],[0,-0.24457278475165367,0,0.3000163505785167,0,0.8875630865804851,0,0.5124704758636653],[0,0.3495215754956007,0,-0.6755603551864624,0,0.753250487614423,0,0.6388044934719801],[0,0.41596137220039964,0,0.24347305810078979,0,0.2170525686815381,0,0.08249165490269661],[0,-0.31475341646000743,0,0.9687899025157094,0,-0.8736822954379022,0,0.2587590040639043],[0,-0.7609793539159,0,0.7566830385476351,0,-0.370843515265733,0,0.20024995133280754],[0,0.5079463883303106,0,-0.9316063891164958,0,-0.4245778420008719,0,0.9665832496248186],[0,-0.07909625582396984,0,0.20725040882825851,0,-0.3152879420667887,0,-0.19768614508211613],[0,0.5520216827280819,0,-0.5445459201000631,0,0.23355290619656444,0,0.8049343503080308],[0,-0.31304030446335673,0,-0.2985946200788021,0,-0.42479913542047143,0,0.960666676517576],[0,0.7131156935356557,0,0.4854091852903366,0,-0.9478725627996027,0,-0.07523644994944334],[0,0.6823241864331067,0,0.6452810396440327,0,0.33871926134452224,0,0.5600600549951196],[0,-0.4307516538538039,0,-0.23817391134798527,0,-0.4545475193299353,0,-0.8683102005161345],[0,-0.5498388828709722,0,0.7586664212867618,0,-0.06481220154091716,0,-0.26565582724288106],[0,-0.514204834587872,0,0.028619025368243456,0,0.5360299157910049,0,-0.6888396725989878],[0,-0.7473929221741855,0,-0.7966290544718504,0,-0.856428197119385,0,-0.18664453737437725],[0,0.8755497517995536,0,0.10588459903374314,0,-0.2759890924207866,0,0.02435040147975087],[0,0.3923916178755462,0,0.962135290261358,0,-0.43138666497543454,0,0.5815311609767377],[0,-0.061458321288228035,0,-0.27675209706649184,0,-0.8000200283713639,0,0.35181413404643536],[0,0.6426215660758317,0,0.8464611568488181,0,0.6201494480483234,0,0.46448900643736124],[0,-0.683760516345501,0,-0.24614169262349606,0,-0.6770151779055595,0,0.5171210430562496],[0,0.1180742266587913,0,0.2649077861569822,0,-0.5849051927216351,0,0.24617054220288992],[0,-0.6189644290134311,0,-0.3726238659583032,0,-0.9451928497292101,0,0.15264425007626414],[0,0.2780068488791585,0,-0.5991227366030216,0,0.24659422179684043,0,0.48701548762619495],[0,-0.6861327621154487,0,0.4513144586235285,0,0.6059765657410026,0,-0.5336281037889421],[0,-0.39226942183449864,0,-0.32529760990291834,0,0.3085175692103803,0,0.6364618940278888],[0,-0.5075482111424208,0,0.8232000679709017,0,0.20826342049986124,0,0.47815822530537844],[0,0.3306168601848185,0,-0.98431850457564,0,-0.22863963525742292,0,0.771343947853893],[0,-0.13325425935909152,0,-0.5082628359086812,0,0.6673586284741759,0,-0.8622834840789437],[0,0.8743278081528842,0,0.30870139226317406,0,-0.7073173387907445,0,0.7881512553431094],[0,0.251900986302644,0,0.5104337218217552,0,0.6704350169748068,0,-0.6740252654999495],[0,0.4462584527209401,0,0.1791635248810053,0,0.5165167413651943,0,-0.6566504081711173],[0,-0.9922219510190189,0,0.3200495606288314,0,0.07782121747732162,0,-0.16377657186239958],[0,-0.34937080182135105,0,0.24868504982441664,0,-0.8262089854106307,0,-0.6605062056332827],[0,0.46096740290522575,0,-0.6125779855065048,0,-0.7885084790177643,0,0.35193757386878133],[0,-0.8446873584762216,0,-0.5662211063317955,0,-0.9703645403496921,0,0.5057364236563444],[0,0.8702375856228173,0,0.15305987186729908,0,-0.10585935274139047,0,0.08698785118758678],[0,0.4541524234227836,0,0.2644332707859576,0,0.8652306315489113,0,-0.6714115557260811],[0,0.03994681732729077,0,0.9131447174586356,0,0.35467319935560226,0,0.42387933377176523],[0,-0.010945393238216639,0,0.8651086464524269,0,0.7424119836650789,0,0.8245745981112123],[0,-0.4884515078738332,0,-0.9551287074573338,0,0.6059546205215156,0,0.46834494918584824],[0,-0.14517326559871435,0,-0.7725049238651991,0,-0.05558924376964569,0,-0.004124498460441828],[0,0.38971364963799715,0,-0.39756185794249177,0,-0.40144577575847507,0,0.27892054757103324],[0,0.6727875359356403,0,0.060927605256438255,0,0.44008097937330604,0,0.018117576837539673],[0,0.692584260366857,0,0.3680455428548157,0,0.19381213560700417,0,0.5838096607476473],[0,-0.6211572354659438,0,-0.010964708402752876,0,0.8525056298822165,0,0.9915731819346547],[0,-0.5430878638289869,0,0.0990593102760613,0,-0.8874455722980201,0,-0.45875684171915054],[0,-0.5624500522390008,0,-0.2721605417318642,0,-0.31665593571960926,0,0.15625351015478373],[0,-0.3502886747010052,0,0.5844582109712064,0,0.798244392964989,0,0.6358059332706034],[0,-0.9180115130729973,0,-0.23561772657558322,0,0.25202561914920807,0,-0.8473485326394439],[0,0.6117535536177456,0,0.45139304269105196,0,0.9195309700444341,0,-0.8910573339089751],[0,0.10701682465150952,0,0.8885643626563251,0,0.02456138702109456,0,0.8994623171165586],[0,-0.22110386425629258,0,-0.07978259911760688,0,-0.39209870574995875,0,-0.8527854853309691],[0,0.8920250413939357,0,0.02583878580480814,0,0.182283918838948,0,0.3034151499159634],[0,-0.95502222282812,0,0.9661626070737839,0,0.663079546764493,0,0.9688280294649303],[0,-0.18282761331647635,0,-0.07312528463080525,0,0.2098922529257834,0,0.9470531954430044],[0,0.6456898977048695,0,-0.19866619119420648,0,-0.41889960784465075,0,0.8934612488374114],[0,0.8227012907154858,0,-0.18403538269922137,0,-0.1409506844356656,0,-0.6048168861307204],[0,0.6862201043404639,0,-0.07527503743767738,0,-0.5831676847301424,0,0.6343025914393365],[0,-0.9550490383990109,0,0.03432307904586196,0,-0.6096056271344423,0,-0.8156891437247396],[0,0.6039755353704095,0,-0.29749502427875996,0,-0.37253111647441983,0,0.5386453298851848],[0,-0.6553687243722379,0,-0.7283431724645197,0,-0.5363431829027832,0,0.16268194233998656],[0,0.1369289169088006,0,-0.8804705697111785,0,0.9742480684071779,0,0.18168434919789433],[0,0.8573374450206757,0,0.8746882020495832,0,-0.7989262491464615,0,-0.8335141371935606],[0,-0.9273581062443554,0,0.2961900467053056,0,0.7124455343000591,0,-0.24704522965475917],[0,-0.7382858949713409,0,-0.21563350269570947,0,0.11908450396731496,0,0.9295513518154621],[0,0.11231466708704829,0,0.4268865529447794,0,0.2921193251386285,0,0.6441095927730203],[0,0.6210473631508648,0,-0.5836543166078627,0,-0.9303219178691506,0,0.8317642025649548],[0,-0.7441455931402743,0,-0.007384745869785547,0,0.2024236056022346,0,0.6205329694785178],[0,0.0919619775377214,0,0.5291472803801298,0,0.04569003637880087,0,-0.7508599800057709],[0,0.2544907354749739,0,-0.9850617307238281,0,0.08778800442814827,0,0.24133911216631532],[0,0.06615218799561262,0,-0.18300982704386115,0,-0.08892785990610719,0,-0.6517015616409481],[0,0.432624792214483,0,-0.8043250436894596,0,0.47887526685371995,0,-0.6163963838480413],[0,-0.9077325747348368,0,0.31836555153131485,0,-0.7086490606889129,0,-0.44268997199833393],[0,-0.49281464284285903,0,-0.6338032493367791,0,-0.8983930069953203,0,-0.16158641735091805],[0,-0.3315275623463094,0,0.3338210224173963,0,0.3187345527112484,0,-0.8342305142432451],[0,0.8371899174526334,0,0.5439983424730599,0,-0.3115059291012585,0,0.4868836272507906],[0,0.7881578640080988,0,0.30597147019580007,0,-0.22257739072665572,0,0.10295752482488751],[0,0.16254181461408734,0,-0.1942690354771912,0,0.5841861050575972,0,0.2411838388070464],[0,-0.8626037486828864,0,-0.5421535675413907,0,0.17213259637355804,0,0.12137875333428383],[0,-0.7205510367639363,0,0.1591726248152554,0,-0.9286531331017613,0,-0.7087930422276258],[0,-0.323946516495198,0,-0.2673955983482301,0,0.6035293349996209,0,0.7935887915082276],[0,0.20573567366227508,0,0.6515971953049302,0,-0.9187800190411508,0,-0.45132532762363553],[0,0.19193204259499907,0,-0.6369929015636444,0,0.7394413286820054,0,-0.013131086714565754],[0,-0.7793361367657781,0,-0.04715893976390362,0,0.46236654464155436,0,0.09493117267265916],[0,0.29804952582344413,0,-0.38007490476593375,0,0.4080566056072712,0,-0.19258796703070402],[0,-0.9555802196264267,0,-0.09442838421091437,0,-0.08020643889904022,0,-0.3032469842582941],[0,0.3201173017732799,0,0.9669716530479491,0,0.6809812146238983,0,0.30814095865935087],[0,-0.5200438117608428,0,0.23555961390957236,0,0.08296374091878533,0,0.05506891291588545],[0,-0.8409535484388471,0,0.22052301233634353,0,-0.09040883183479309,0,-0.6092467289417982],[0,0.9565953426063061,0,0.3550978470593691,0,-0.5021445173770189,0,0.7513297749683261],[0,-0.7717299228534102,0,-0.5615616426803172,0,0.5095060202293098,0,0.5989264184609056],[0,0.47835167590528727,0,-0.07517259521409869,0,0.7530312682501972,0,0.7632699022069573],[0,0.5032701939344406,0,0.6505583240650594,0,-0.6805742904543877,0,0.6858261907473207],[0,-0.09112524287775159,0,0.1369860521517694,0,-0.8600566233508289,0,0.3194380793720484],[0,0.9616826558485627,0,0.4864728613756597,0,0.3119979756884277,0,-0.5894992221146822],[0,-0.2724775243550539,0,0.9839897444471717,0,0.6589855616912246,0,-0.3569012121297419],[0,0.320905436296016,0,0.4266998399980366,0,-0.43789293710142374,0,0.5379707794636488],[0,0.03398543642833829,0,-0.0486150118522346,0,-0.4961659503169358,0,-0.7016806984320283],[0,-0.8290889454074204,0,-0.36847489001229405,0,-0.32714058831334114,0,0.29864299949258566],[0,0.5157382469624281,0,-0.5646463381126523,0,-0.011635827831923962,0,-0.3758112620562315],[0,0.2529145157895982,0,0.12173474533483386,0,-0.8910279427655041,0,0.25456182612106204],[0,-0.8847483801655471,0,-0.22717869142070413,0,-0.01562431687489152,0,-0.21838064538314939],[0,0.968743849080056,0,0.8743812111206353,0,-0.9019093895331025,0,-0.009921198710799217],[0,0.3401684700511396,0,0.8656512191519141,0,-0.7038471084088087,0,-0.5999766318127513],[0,-0.3865595352835953,0,0.7727518551982939,0,0.8686409932561219,0,-0.21252688439562917],[0,0.33184943441301584,0,-0.17394536174833775,0,-0.3934126468375325,0,0.5844026845879853],[0,-0.1895881542004645,0,-0.9540023943409324,0,0.9040158852003515,0,0.5955747533589602],[0,-0.14707133593037724,0,-0.614053625613451,0,-0.14342700596898794,0,0.5239627650007606],[0,0.8529088599607348,0,0.9477717424742877,0,-0.48853262793272734,0,-0.733062082901597],[0,0.7959385490976274,0,-0.25218990072607994,0,-0.35163728799670935,0,-0.484234141651541],[0,0.6482271789573133,0,0.3840114385820925,0,-0.21698029851540923,0,-0.24394924845546484],[0,0.90668487502262,0,0.14529024763032794,0,-0.20466134184971452,0,0.839771956205368],[0,0.398410159163177,0,0.07022183947265148,0,-0.02034367434680462,0,-0.9890887807123363],[0,0.35343486117199063,0,0.14533527148887515,0,0.8045454220846295,0,-0.05359276290982962],[0,-0.7597038433887064,0,-0.9332962688058615,0,-0.006249616388231516,0,0.22494623437523842],[0,0.7224595588631928,0,-0.8007088406011462,0,0.6892112013883889,0,-0.22574488166719675],[0,0.3538646651431918,0,0.8622729806229472,0,-0.5988946296274662,0,-0.8505223812535405],[0,0.47034565825015306,0,0.39283011481165886,0,0.8935903273522854,0,0.5343719800002873],[0,0.3240971816703677,0,-0.7235439154319465,0,0.2632512398995459,0,-0.6537910900078714],[0,0.7502489862963557,0,-0.14398685609921813,0,-0.9455414568074048,0,-0.008941295556724072],[0,0.7303362600505352,0,0.4494533808901906,0,-0.7368494276888669,0,-0.8360617407597601],[0,0.5262523675337434,0,0.6228132573887706,0,-0.830613253172487,0,-0.857483989559114],[0,0.9832139732316136,0,-0.002900330815464258,0,-0.8753295834176242,0,0.8507075873203576],[0,0.12816652609035373,0,-0.8730136686936021,0,0.7108585829846561,0,0.011073400266468525],[0,0.6484400476329029,0,0.8439377509057522,0,0.476357433013618,0,0.5824749819003046],[0,-0.6606414970010519,0,0.2531736600212753,0,0.08532886439934373,0,0.7200730717740953],[0,-0.47565899789333344,0,-0.7722101914696395,0,0.5921889981254935,0,-0.42208732198923826],[0,0.7485475880093873,0,0.3652615905739367,0,0.1605780734680593,0,0.8864059816114604],[0,-0.29872046085074544,0,-0.7390819462016225,0,0.9922981080599129,0,-0.9061729963868856],[0,-0.18718683207407594,0,-0.06066620675846934,0,-0.9681475348770618,0,0.05202326225116849],[0,0.543516200967133,0,-0.19801356177777052,0,-0.7366979247890413,0,0.9351422688923776],[0,0.4808407677337527,0,-0.5813863659277558,0,0.9935240559279919,0,-0.8834163192659616],[0,0.9336057249456644,0,0.23052201233804226,0,-0.9659549910575151,0,0.5627377317287028],[0,-0.41857724636793137,0,0.40337514132261276,0,0.6160157350823283,0,-0.3838296178728342],[0,0.1849000258371234,0,-0.41074159322306514,0,-0.6653194958344102,0,0.9349726890213788],[0,-0.00867372052744031,0,0.9705439186654985,0,0.2522681732662022,0,0.36828762339428067],[0,0.7628984251059592,0,-0.15645057940855622,0,0.6529969400726259,0,-0.8103201459161937],[0,-0.15267439419403672,0,0.10796847799792886,0,0.10269143804907799,0,0.3993072905577719],[0,-0.4299771464429796,0,0.3551786527968943,0,-0.9370733792893589,0,0.8292098534293473],[0,0.22401526058092713,0,0.8318673428148031,0,0.3659537495113909,0,-0.29320446541532874],[0,0.7470097220502794,0,0.37943976698443294,0,0.7693593641743064,0,-0.9078870001249015],[0,-0.7806066041812301,0,-0.3237517448142171,0,0.6401901389472187,0,0.7433300795964897],[0,0.32778603583574295,0,0.3436211124062538,0,-0.4925107783637941,0,-0.14105856185778975],[0,-0.7820306187495589,0,-0.8770000548101962,0,-0.8736390001140535,0,0.9987770048901439],[0,-0.025338225066661835,0,-0.6025501107797027,0,-0.43386125890538096,0,-0.27888758666813374],[0,-0.4968113102950156,0,-0.47650747653096914,0,-0.44681321317330003,0,-0.2681215009652078],[0,0.3491376806050539,0,0.6938760131597519,0,0.020888717379420996,0,0.2062635845504701],[0,-0.41098081367090344,0,-0.5628620148636401,0,0.9582335157319903,0,-0.49490639800205827],[0,-0.02389365853741765,0,0.7239361531101167,0,-0.5212770379148424,0,-0.3726283279247582],[0,0.3850183757022023,0,-0.23863850394263864,0,-0.5917384508065879,0,-0.5283957906067371],[0,0.6315277027897537,0,0.7807495417073369,0,0.5590992025099695,0,0.26608503982424736],[0,-0.5260922913439572,0,-0.05107732303440571,0,-0.14884626120328903,0,-0.39259948255494237],[0,-0.21276286151260138,0,-0.8080098731443286,0,-0.7098979684524238,0,0.6585715669207275],[0,0.6666772859171033,0,0.8248057649470866,0,-0.46658285800367594,0,-0.09745443193241954],[0,0.7095899693667889,0,0.6184151638299227,0,0.7315455451607704,0,-0.23322317004203796],[0,-0.8156254976056516,0,-0.8728717779740691,0,-0.485258755274117,0,-0.8753510024398565],[0,-0.6778643438592553,0,-0.6666571027599275,0,-0.2819782546721399,0,0.9281601929105818],[0,0.4398719989694655,0,0.4958466705866158,0,-0.169193709269166,0,-0.5182622112333775],[0,-0.8568941964767873,0,0.4109513144940138,0,0.7903992859646678,0,0.4354546219110489],[0,-0.6804162389598787,0,0.8082200069911778,0,0.21565141063183546,0,-0.7147775469347835],[0,0.4174441369250417,0,-0.9485889016650617,0,0.38277311623096466,0,0.8925017099827528],[0,-0.5196800329722464,0,-0.0733209946192801,0,-0.9511608611792326,0,-0.5052984561771154],[0,0.622352059930563,0,0.32942855544388294,0,-0.831806362606585,0,-0.5480641224421561],[0,-0.1423542625270784,0,-0.0793580817990005,0,-0.9813783797435462,0,-0.7175955097191036],[0,0.9194292281754315,0,0.8311694492585957,0,0.012806695885956287,0,0.46796756191179156],[0,0.8581828069873154,0,-0.03722811257466674,0,0.8514335383661091,0,0.721194049809128],[0,0.5103550017811358,0,-0.4533884348347783,0,0.39158376958221197,0,-0.9245146345347166],[0,0.7778458571992815,0,-0.433059383649379,0,-0.4193332716822624,0,0.6028310805559158],[0,-0.07473989436402917,0,-0.4293112405575812,0,0.8183975061401725,0,-0.7146561495028436],[0,-0.7174554746598005,0,-0.030350653920322657,0,0.5799145805649459,0,0.4950072020292282],[0,-0.07130611687898636,0,-0.5604572622105479,0,0.9677141779102385,0,0.2372411428950727],[0,0.19256189744919538,0,0.010785477701574564,0,0.04279556917026639,0,-0.4295866494067013],[0,-0.9130248241126537,0,-0.5207885741256177,0,-0.185528676956892,0,-0.25855919951573014],[0,0.49933983152732253,0,-0.37381815630942583,0,-0.3815572801977396,0,-0.5463596400804818],[0,0.7932837032712996,0,0.44798900932073593,0,0.6530940476804972,0,0.7522901087068021],[0,0.5586873330175877,0,-0.3854290978051722,0,-0.41054245084524155,0,-0.31488341512158513],[0,-0.514646920375526,0,0.9048264375887811,0,-0.08607718348503113,0,-0.06894813990220428],[0,-0.5290047316811979,0,-0.4239279027096927,0,0.5106065208092332,0,0.38556594122201204],[0,0.04529354255646467,0,-0.45852483808994293,0,-0.5382552510127425,0,0.08196694869548082],[0,-0.28417104110121727,0,-0.2684759581461549,0,-0.34545827750116587,0,-0.26209710352122784],[0,0.7917442573234439,0,0.08720172615721822,0,0.28090401040390134,0,0.2197838518768549],[0,-0.9734205980785191,0,0.8207118464633822,0,-0.0670047476887703,0,-0.8654978834092617],[0,-0.1622027433477342,0,-0.3117888253182173,0,-0.5894883866421878,0,-0.02824242366477847],[0,-0.7672984763048589,0,0.7770628207363188,0,-0.46977229742333293,0,0.03327216347679496],[0,-0.6890867045149207,0,-0.37299032928422093,0,-0.12286725314334035,0,0.2151873679831624],[0,0.660915847402066,0,0.281683171633631,0,-0.7032232852652669,0,0.5295593980699778],[0,0.32808493124321103,0,-0.41831847792491317,0,0.9385468503460288,0,-0.416149175260216],[0,0.5622830875217915,0,0.903629856184125,0,0.37479399470612407,0,0.4686935809440911],[0,-0.8208744614385068,0,-0.03484579874202609,0,-0.9565950352698565,0,0.5712495534680784],[0,-0.41398541582748294,0,-0.6441562422551215,0,0.22039034450426698,0,0.8974660946987569],[0,0.6104877949692309,0,0.9590461952611804,0,0.7494009425863624,0,-0.8902001436799765],[0,0.23136097472161055,0,0.7455687229521573,0,0.9220934393815696,0,0.7786427834071219],[0,-0.8134412285871804,0,-0.8582772985100746,0,0.8161977152340114,0,0.5485522239468992],[0,-0.11253242800012231,0,0.35125013813376427,0,-0.458020678255707,0,-0.8334972746670246],[0,0.422360357362777,0,-0.7821946800686419,0,-0.9022859642282128,0,-0.7454528100788593]],"vb_b":[[0,0,0,0,0,-1,0,0],[0,0,0,0,0,-1,0,0],[0,0,0,0,0,-1,0,0],[0,0,0,0,0,-1,0,0],[0,0,0,0,0,-1,0,0],[0,0,0,0,0,-1,0,0],[0,0,0,0,0,-1,0,0],[0,0,0,0,0,-1,0,0],[0,0,0,0,0,-1,0,0],[0,0,0,0,0,-1,0,0],[0,0,0,0,0,-1,0,0],[0,0,0,0,0,-1,0,0],[0,0,0,0,0,-1,0,0],[0,0,0,0,0,-1,0,0],[0,0,0,0,0,-1,0,0],[0,0,0,0,0,-1,0,0],[0,0,0,0,0,-1,0,0],[0,0,0,0,0,-1,0,0],[0,0,0,0,0,-1,0,0],[0,0,0,0,0,-1,0,0],[0,0,0,0,0,-1,0,0],[0,0,0,0,0,-1,0,0],[0,0,0,0,0,-1,0,0],[0,0,0,0,0,-1,0,0],[0,0,0,0,0,-1,0,0],[0,0,0,0,0,-1,0,0],[0,0,0,0,0,-1,0,0],[0,0,0,0,0,-1,0,0],[0,0,0,0,0,-1,0,0],[0,0,0,0,0,-1,0,0],[0,0,0,0,0,-1,0,0],[0,0,0,0,0,-1,0,0],[0,0,0,0,0,-1,0,0],[0,0,0,0,0,-1,0,0],[0,0,0,0,0,-1,0,0],[0,0,0,0,0,-1,0,0],[0,0,0,0,0,-1,0,0],[0,0,0,0,0,-1,0,0],[0,0,0,0,0,-1,0,0],[0,0,0,0,0,-1,0,0],[0,0,0,0,0,-1,0,0],[0,0,0,0,0,-1,0,0],[0,0,0,0,0,-1,0,0],[0,0,0,0,0,-1,0,0],[0,0,0,0,0,-1,0,0],[0,0,0,0,0,-1,0,0],[0,0,0,0,0,-1,0,0],[0,0,0,0,0,-1,0,0],[0,0,0,0,0,-1,0,0],[0,0,0,0,0,-1,0,0],[0,0,0,0,0,-1,0,0],[0,0,0,0,0,-1,0,0],[0,0,0,0,0,-1,0,0],[0,0,0,0,0,-1,0,0],[0,0,0,0,0,-1,0,0],[0,0,0,0,0,-1,0,0],[0,0,0,0,0,-1,0,0],[0,0,0,0,0,-1,0,0],[0,0,0,0,0,