parameters : {"minimum_performance":-1,"block_timeout":5000,"response_timeout":1000,"task_kappa":0,"task_stimuli":1,"task_component":1,"task_feature":0,"task_sign":1,"task_weights":[0,0,0,0,0,0,1,0]}
edata : {"exp_subject":"O2fdee2h0Wz3","exp_sex":"male","exp_age":"21-30","exp_task":"jan/131004_primate1","exp_starttime":1381408556242,"exp_finishtime":1381410744462}
numbers : {"stimuli":2,"components":2,"features":2,"weights":8,"blocks":40,"trials":25,"indices":1000}
sdata : {"vb_index":[1,2,3,4,5,6,7,8,9,10,11,12,13,14,15,16,17,18,19,20,21,22,23,24,25,26,27,28,29,30,31,32,33,34,35,36,37,38,39,40,41,42,43,44,45,46,47,48,49,50,51,52,53,54,55,56,57,58,59,60,61,62,63,64,65,66,67,68,69,70,71,72,73,74,75,76,77,78,79,80,81,82,83,84,85,86,87,88,89,90,91,92,93,94,95,96,97,98,99,100,101,102,103,104,105,106,107,108,109,110,111,112,113,114,115,116,117,118,119,120,121,122,123,124,125,126,127,128,129,130,131,132,133,134,135,136,137,138,139,140,141,142,143,144,145,146,147,148,149,150,151,152,153,154,155,156,157,158,159,160,161,162,163,164,165,166,167,168,169,170,171,172,173,174,175,176,177,178,179,180,181,182,183,184,185,186,187,188,189,190,191,192,193,194,195,196,197,198,199,200,201,202,203,204,205,206,207,208,209,210,211,212,213,214,215,216,217,218,219,220,221,222,223,224,225,226,227,228,229,230,231,232,233,234,235,236,237,238,239,240,241,242,243,244,245,246,247,248,249,250,251,252,253,254,255,256,257,258,259,260,261,262,263,264,265,266,267,268,269,270,271,272,273,274,275,276,277,278,279,280,281,282,283,284,285,286,287,288,289,290,291,292,293,294,295,296,297,298,299,300,301,302,303,304,305,306,307,308,309,310,311,312,313,314,315,316,317,318,319,320,321,322,323,324,325,326,327,328,329,330,331,332,333,334,335,336,337,338,339,340,341,342,343,344,345,346,347,348,349,350,351,352,353,354,355,356,357,358,359,360,361,362,363,364,365,366,367,368,369,370,371,372,373,374,375,376,377,378,379,380,381,382,383,384,385,386,387,388,389,390,391,392,393,394,395,396,397,398,399,400,401,402,403,404,405,406,407,408,409,410,411,412,413,414,415,416,417,418,419,420,421,422,423,424,425,426,427,428,429,430,431,432,433,434,435,436,437,438,439,440,441,442,443,444,445,446,447,448,449,450,451,452,453,454,455,456,457,458,459,460,461,462,463,464,465,466,467,468,469,470,471,472,473,474,475,476,477,478,479,480,481,482,483,484,485,486,487,488,489,490,491,492,493,494,495,496,497,498,499,500,501,502,503,504,505,506,507,508,509,510,511,512,513,514,515,516,517,518,519,520,521,522,523,524,525,526,527,528,529,530,531,532,533,534,535,536,537,538,539,540,541,542,543,544,545,546,547,548,549,550,551,552,553,554,555,556,557,558,559,560,561,562,563,564,565,566,567,568,569,570,571,572,573,574,575,576,577,578,579,580,581,582,583,584,585,586,587,588,589,590,591,592,593,594,595,596,597,598,599,600,601,602,603,604,605,606,607,608,609,610,611,612,613,614,615,616,617,618,619,620,621,622,623,624,625,626,627,628,629,630,631,632,633,634,635,636,637,638,639,640,641,642,643,644,645,646,647,648,649,650,651,652,653,654,655,656,657,658,659,660,661,662,663,664,665,666,667,668,669,670,671,672,673,674,675,676,677,678,679,680,681,682,683,684,685,686,687,688,689,690,691,692,693,694,695,696,697,698,699,700,701,702,703,704,705,706,707,708,709,710,711,712,713,714,715,716,717,718,719,720,721,722,723,724,725,726,727,728,729,730,731,732,733,734,735,736,737,738,739,740,741,742,743,744,745,746,747,748,749,750,751,752,753,754,755,756,757,758,759,760,761,762,763,764,765,766,767,768,769,770,771,772,773,774,775,776,777,778,779,780,781,782,783,784,785,786,787,788,789,790,791,792,793,794,795,796,797,798,799,800,801,802,803,804,805,806,807,808,809,810,811,812,813,814,815,816,817,818,819,820,821,822,823,824,825,826,827,828,829,830,831,832,833,834,835,836,837,838,839,840,841,842,843,844,845,846,847,848,849,850,851,852,853,854,855,856,857,858,859,860,861,862,863,864,865,866,867,868,869,870,871,872,873,874,875,876,877,878,879,880,881,882,883,884,885,886,887,888,889,890,891,892,893,894,895,896,897,898,899,900,901,902,903,904,905,906,907,908,909,910,911,912,913,914,915,916,917,918,919,920,921,922,923,924,925,926,927,928,929,930,931,932,933,934,935,936,937,938,939,940,941,942,943,944,945,946,947,948,949,950,951,952,953,954,955,956,957,958,959,960,961,962,963,964,965,966,967,968,969,970,971,972,973,974,975,976,977,978,979,980,981,982,983,984,985,986,987,988,989,990,991,992,993,994,995,996,997,998,999,1000],"vb_block":[1,1,1,1,1,1,1,1,1,1,1,1,1,1,1,1,1,1,1,1,1,1,1,1,1,2,2,2,2,2,2,2,2,2,2,2,2,2,2,2,2,2,2,2,2,2,2,2,2,2,3,3,3,3,3,3,3,3,3,3,3,3,3,3,3,3,3,3,3,3,3,3,3,3,3,4,4,4,4,4,4,4,4,4,4,4,4,4,4,4,4,4,4,4,4,4,4,4,4,4,5,5,5,5,5,5,5,5,5,5,5,5,5,5,5,5,5,5,5,5,5,5,5,5,5,6,6,6,6,6,6,6,6,6,6,6,6,6,6,6,6,6,6,6,6,6,6,6,6,6,7,7,7,7,7,7,7,7,7,7,7,7,7,7,7,7,7,7,7,7,7,7,7,7,7,8,8,8,8,8,8,8,8,8,8,8,8,8,8,8,8,8,8,8,8,8,8,8,8,8,9,9,9,9,9,9,9,9,9,9,9,9,9,9,9,9,9,9,9,9,9,9,9,9,9,10,10,10,10,10,10,10,10,10,10,10,10,10,10,10,10,10,10,10,10,10,10,10,10,10,11,11,11,11,11,11,11,11,11,11,11,11,11,11,11,11,11,11,11,11,11,11,11,11,11,12,12,12,12,12,12,12,12,12,12,12,12,12,12,12,12,12,12,12,12,12,12,12,12,12,13,13,13,13,13,13,13,13,13,13,13,13,13,13,13,13,13,13,13,13,13,13,13,13,13,14,14,14,14,14,14,14,14,14,14,14,14,14,14,14,14,14,14,14,14,14,14,14,14,14,15,15,15,15,15,15,15,15,15,15,15,15,15,15,15,15,15,15,15,15,15,15,15,15,15,16,16,16,16,16,16,16,16,16,16,16,16,16,16,16,16,16,16,16,16,16,16,16,16,16,17,17,17,17,17,17,17,17,17,17,17,17,17,17,17,17,17,17,17,17,17,17,17,17,17,18,18,18,18,18,18,18,18,18,18,18,18,18,18,18,18,18,18,18,18,18,18,18,18,18,19,19,19,19,19,19,19,19,19,19,19,19,19,19,19,19,19,19,19,19,19,19,19,19,19,20,20,20,20,20,20,20,20,20,20,20,20,20,20,20,20,20,20,20,20,20,20,20,20,20,21,21,21,21,21,21,21,21,21,21,21,21,21,21,21,21,21,21,21,21,21,21,21,21,21,22,22,22,22,22,22,22,22,22,22,22,22,22,22,22,22,22,22,22,22,22,22,22,22,22,23,23,23,23,23,23,23,23,23,23,23,23,23,23,23,23,23,23,23,23,23,23,23,23,23,24,24,24,24,24,24,24,24,24,24,24,24,24,24,24,24,24,24,24,24,24,24,24,24,24,25,25,25,25,25,25,25,25,25,25,25,25,25,25,25,25,25,25,25,25,25,25,25,25,25,26,26,26,26,26,26,26,26,26,26,26,26,26,26,26,26,26,26,26,26,26,26,26,26,26,27,27,27,27,27,27,27,27,27,27,27,27,27,27,27,27,27,27,27,27,27,27,27,27,27,28,28,28,28,28,28,28,28,28,28,28,28,28,28,28,28,28,28,28,28,28,28,28,28,28,29,29,29,29,29,29,29,29,29,29,29,29,29,29,29,29,29,29,29,29,29,29,29,29,29,30,30,30,30,30,30,30,30,30,30,30,30,30,30,30,30,30,30,30,30,30,30,30,30,30,31,31,31,31,31,31,31,31,31,31,31,31,31,31,31,31,31,31,31,31,31,31,31,31,31,32,32,32,32,32,32,32,32,32,32,32,32,32,32,32,32,32,32,32,32,32,32,32,32,32,33,33,33,33,33,33,33,33,33,33,33,33,33,33,33,33,33,33,33,33,33,33,33,33,33,34,34,34,34,34,34,34,34,34,34,34,34,34,34,34,34,34,34,34,34,34,34,34,34,34,35,35,35,35,35,35,35,35,35,35,35,35,35,35,35,35,35,35,35,35,35,35,35,35,35,36,36,36,36,36,36,36,36,36,36,36,36,36,36,36,36,36,36,36,36,36,36,36,36,36,37,37,37,37,37,37,37,37,37,37,37,37,37,37,37,37,37,37,37,37,37,37,37,37,37,38,38,38,38,38,38,38,38,38,38,38,38,38,38,38,38,38,38,38,38,38,38,38,38,38,39,39,39,39,39,39,39,39,39,39,39,39,39,39,39,39,39,39,39,39,39,39,39,39,39,40,40,40,40,40,40,40,40,40,40,40,40,40,40,40,40,40,40,40,40,40,40,40,40,40],"vb_trial":[1,2,3,4,5,6,7,8,9,10,11,12,13,14,15,16,17,18,19,20,21,22,23,24,25,1,2,3,4,5,6,7,8,9,10,11,12,13,14,15,16,17,18,19,20,21,22,23,24,25,1,2,3,4,5,6,7,8,9,10,11,12,13,14,15,16,17,18,19,20,21,22,23,24,25,1,2,3,4,5,6,7,8,9,10,11,12,13,14,15,16,17,18,19,20,21,22,23,24,25,1,2,3,4,5,6,7,8,9,10,11,12,13,14,15,16,17,18,19,20,21,22,23,24,25,1,2,3,4,5,6,7,8,9,10,11,12,13,14,15,16,17,18,19,20,21,22,23,24,25,1,2,3,4,5,6,7,8,9,10,11,12,13,14,15,16,17,18,19,20,21,22,23,24,25,1,2,3,4,5,6,7,8,9,10,11,12,13,14,15,16,17,18,19,20,21,22,23,24,25,1,2,3,4,5,6,7,8,9,10,11,12,13,14,15,16,17,18,19,20,21,22,23,24,25,1,2,3,4,5,6,7,8,9,10,11,12,13,14,15,16,17,18,19,20,21,22,23,24,25,1,2,3,4,5,6,7,8,9,10,11,12,13,14,15,16,17,18,19,20,21,22,23,24,25,1,2,3,4,5,6,7,8,9,10,11,12,13,14,15,16,17,18,19,20,21,22,23,24,25,1,2,3,4,5,6,7,8,9,10,11,12,13,14,15,16,17,18,19,20,21,22,23,24,25,1,2,3,4,5,6,7,8,9,10,11,12,13,14,15,16,17,18,19,20,21,22,23,24,25,1,2,3,4,5,6,7,8,9,10,11,12,13,14,15,16,17,18,19,20,21,22,23,24,25,1,2,3,4,5,6,7,8,9,10,11,12,13,14,15,16,17,18,19,20,21,22,23,24,25,1,2,3,4,5,6,7,8,9,10,11,12,13,14,15,16,17,18,19,20,21,22,23,24,25,1,2,3,4,5,6,7,8,9,10,11,12,13,14,15,16,17,18,19,20,21,22,23,24,25,1,2,3,4,5,6,7,8,9,10,11,12,13,14,15,16,17,18,19,20,21,22,23,24,25,1,2,3,4,5,6,7,8,9,10,11,12,13,14,15,16,17,18,19,20,21,22,23,24,25,1,2,3,4,5,6,7,8,9,10,11,12,13,14,15,16,17,18,19,20,21,22,23,24,25,1,2,3,4,5,6,7,8,9,10,11,12,13,14,15,16,17,18,19,20,21,22,23,24,25,1,2,3,4,5,6,7,8,9,10,11,12,13,14,15,16,17,18,19,20,21,22,23,24,25,1,2,3,4,5,6,7,8,9,10,11,12,13,14,15,16,17,18,19,20,21,22,23,24,25,1,2,3,4,5,6,7,8,9,10,11,12,13,14,15,16,17,18,19,20,21,22,23,24,25,1,2,3,4,5,6,7,8,9,10,11,12,13,14,15,16,17,18,19,20,21,22,23,24,25,1,2,3,4,5,6,7,8,9,10,11,12,13,14,15,16,17,18,19,20,21,22,23,24,25,1,2,3,4,5,6,7,8,9,10,11,12,13,14,15,16,17,18,19,20,21,22,23,24,25,1,2,3,4,5,6,7,8,9,10,11,12,13,14,15,16,17,18,19,20,21,22,23,24,25,1,2,3,4,5,6,7,8,9,10,11,12,13,14,15,16,17,18,19,20,21,22,23,24,25,1,2,3,4,5,6,7,8,9,10,11,12,13,14,15,16,17,18,19,20,21,22,23,24,25,1,2,3,4,5,6,7,8,9,10,11,12,13,14,15,16,17,18,19,20,21,22,23,24,25,1,2,3,4,5,6,7,8,9,10,11,12,13,14,15,16,17,18,19,20,21,22,23,24,25,1,2,3,4,5,6,7,8,9,10,11,12,13,14,15,16,17,18,19,20,21,22,23,24,25,1,2,3,4,5,6,7,8,9,10,11,12,13,14,15,16,17,18,19,20,21,22,23,24,25,1,2,3,4,5,6,7,8,9,10,11,12,13,14,15,16,17,18,19,20,21,22,23,24,25,1,2,3,4,5,6,7,8,9,10,11,12,13,14,15,16,17,18,19,20,21,22,23,24,25,1,2,3,4,5,6,7,8,9,10,11,12,13,14,15,16,17,18,19,20,21,22,23,24,25,1,2,3,4,5,6,7,8,9,10,11,12,13,14,15,16,17,18,19,20,21,22,23,24,25,1,2,3,4,5,6,7,8,9,10,11,12,13,14,15,16,17,18,19,20,21,22,23,24,25],"vb_x":[[-0.32631692632298104,0,-0.30454200822920807,0,0.453153651072161,0,0.2534154469407357,0],[0.9972186364762872,0,-0.12855012844418057,0,-0.6033430414480732,0,-0.4915901800015028,0],[-0.3846999597392762,0,0.04107501260680291,0,0.25956329943452205,0,-0.891493146032555,0],[-0.7153853858285519,0,0.7820183550764341,0,0.16334588441658116,0,0.2917818972273667,0],[0.18256468407958382,0,-0.5166385024044604,0,-0.8239654646510153,0,-0.8371838138451182,0],[0.48623784518829294,0,0.6756730558598434,0,-0.6226530200506164,0,-0.3575298696624041,0],[0.8934411463428682,0,0.9624186737325844,0,0.4423309938250226,0,0.248987968548551,0],[-0.3584751699022768,0,0.5600772766396065,0,-0.5747811005510797,0,0.44535777587349323,0],[-0.4027013636215744,0,0.30005058763001036,0,0.2240242813267288,0,0.16480505373082632,0],[-0.9285780822592178,0,0.35365856223382086,0,-0.9322609362127567,0,-0.4342509175297151,0],[0.15322739432557642,0,0.9122144044019387,0,0.2918166967777944,0,-0.930492705161404,0],[0.5670159853347145,0,-0.41262236357979365,0,-0.34604425512563175,0,0.29848320040638354,0],[-0.68156207629951,0,-0.6073140967506363,0,0.4910259766928913,0,0.6595287339079614,0],[0.7296551095261079,0,0.8253691639184586,0,-0.8706921952549596,0,0.006623343855451047,0],[-0.14544454481964975,0,-0.21174604258588103,0,0.13404303671718787,0,-0.9310333743080721,0],[0.720370373898851,0,-0.1252325118748887,0,-0.7793759363474106,0,0.14503341212240217,0],[-0.6403772869108717,0,0.88575537963433,0,-0.051423896705574235,0,0.9400940152222061,0],[0.17641235008100709,0,-0.6449708682101152,0,-0.3191847971227284,0,0.3641549392491632,0],[0.8336231098440381,0,-0.6687367497810288,0,0.7144935041463114,0,0.6092290849529336,0],[-0.4472858122801211,0,0.697064868552052,0,-0.023929570046340887,0,0.8892967719894262,0],[-0.5146633201137287,0,-0.09825892255065227,0,-0.7779225765011182,0,0.8532732430771723,0],[-0.3539061777107557,0,0.1424940316943144,0,-0.7016284412952658,0,-0.12925011639778328,0],[0.7883420853491441,0,0.7494751176635799,0,0.6845014420815649,0,0.14223088573193565,0],[-0.43999173582184237,0,0.8133334358990418,0,0.2861372235255708,0,0.9000397681669949,0],[-0.7060240827975126,0,-0.06040218432047917,0,-0.762655668252636,0,-0.15697735923017864,0],[0.86767186707769,0,-0.5775670623855642,0,0.3358090607403905,0,0.38762931460843486,0],[0.2090631456670522,0,0.10101440979011711,0,0.6579519263620881,0,-0.6800943036347393,0],[0.23135137520222737,0,0.6949711572048833,0,0.88719294900491,0,0.9973841729999224,0],[0.2462301969575036,0,0.5110451106436829,0,-0.0625390455786281,0,-0.6231874994071829,0],[-0.7643495926790747,0,-0.9286771628498993,0,-0.4346321878699815,0,-0.1668867111835035,0],[0.7546136309792641,0,0.43409601583018764,0,0.8382956864679298,0,0.9869213607397407,0],[0.6925956257929697,0,-0.23838901306170213,0,0.5619740481185787,0,0.5724972882585346,0],[0.6387768656132564,0,0.0346707075500261,0,-0.9300486725287318,0,0.754770571216917,0],[-0.8236630047374953,0,-0.2777440405297804,0,-0.8613056290865444,0,-0.7562831014214177,0],[-0.9263525397221886,0,-0.3149650945751665,0,-0.7841241731938318,0,-0.9437706544893234,0],[0.04527507956145449,0,-0.3751657331074123,0,0.635739858805463,0,-0.15990577935691985,0],[0.523287180884372,0,0.9878474182278334,0,0.04426250117256303,0,-0.6983625358383307,0],[-0.2905726804598996,0,0.38755926577663735,0,0.8681527890052747,0,0.4680589929579051,0],[-0.9286920599784536,0,-0.6659310231682587,0,-0.6644329346570905,0,-0.7325735477227329,0],[0.4008462552748031,0,0.3396966238684018,0,-0.7072600387011752,0,-0.7762472015000714,0],[-0.4292547466611474,0,0.3164620282389363,0,-0.14044012834456354,0,-0.058465220291007425,0],[-0.7950979622959184,0,-0.4107733165747236,0,0.8284481051914061,0,-0.5064166911199732,0],[-0.37879732150625967,0,0.8189941905790137,0,0.6347274746800096,0,-0.17207077315082286,0],[-0.38975859661910084,0,0.6640664396504201,0,0.7129940154775423,0,0.8740411446507139,0],[0.8810791607552935,0,0.1024567651072168,0,0.10283499252724382,0,-0.8444543606647503,0],[0.3352363961655198,0,0.9971636813732001,0,-0.7214375141431952,0,0.4060922658477011,0],[0.7226913658202068,0,0.7066125101061413,0,0.3514622934428451,0,0.9369606632728931,0],[0.6887342197852426,0,-0.6742244494487564,0,0.029383776561817232,0,-0.6805424373922828,0],[-0.26189500480414973,0,-0.5108166574326878,0,0.01732611990773747,0,0.3221077885745949,0],[0.22292208623066423,0,0.5752443210620386,0,0.9040036409151306,0,0.9820931410971823,0],[-0.8965143999159155,0,-0.3780079615554275,0,0.003200985170862536,0,0.1923495751468982,0],[0.9361180415834274,0,0.29758272786545614,0,-0.8949418912827858,0,0.2501829000882625,0],[0.3097831722427049,0,0.8645694169197555,0,0.6412511481503045,0,-0.5597809234015088,0],[0.7833018279601973,0,0.23518112546449266,0,0.379365887469471,0,0.9139566400971588,0],[0.2675617579150804,0,-0.06446018712612678,0,-0.5644137814924355,0,0.8801424703128893,0],[-0.24780331133798117,0,-0.9200503438882051,0,0.1311502366078099,0,0.4346455537408971,0],[-0.7062127144799095,0,-0.697902320990037,0,-0.9831471084542676,0,0.2354557148427574,0],[0.26271621991728167,0,0.9982069765323667,0,0.25120372709365735,0,-0.33211179488297926,0],[-0.011614029219980226,0,-0.7921129659639401,0,-0.5583245607578147,0,0.14702776501026604,0],[0.14758745942950813,0,0.9916290663367242,0,0.04480748821819214,0,-0.2311010488294154,0],[-0.49161459780625116,0,0.2595972987090094,0,-0.5302429154624662,0,-0.35119738567243663,0],[0.971963346542712,0,0.6645697712030334,0,0.14121792183301318,0,0.9747117191377517,0],[0.24745163910837276,0,0.3925868040139149,0,-0.04854474227952843,0,0.05557271002292152,0],[0.9498371300435355,0,0.4680659036479171,0,0.7675335736477953,0,0.4588114357571036,0],[0.42863390375594834,0,0.5358478560066429,0,0.9586427279198004,0,0.7082965616295982,0],[0.21507068122117845,0,0.9908396422492305,0,0.269753905011759,0,0.953465620006609,0],[0.6181297971771478,0,-0.2033756117255605,0,0.7916678022583827,0,0.5222725370800139,0],[0.7048499587565791,0,0.36761041139056405,0,0.2638434445810536,0,0.3350686883771046,0],[0.6678839167995445,0,-0.5150039581614023,0,-0.5047749060580284,0,-0.2165181688249449,0],[-0.5866205212462656,0,-0.6249713901382572,0,0.2996128695737852,0,0.8678115887483622,0],[0.0948314197843163,0,-0.20125995381906558,0,0.015950275355090193,0,-0.8615874741347038,0],[0.2736285447462987,0,0.28554421975126765,0,-0.5797695784910153,0,-0.6990112096620491,0],[-0.595399889736332,0,-0.5112155419040427,0,0.6345509879891649,0,-0.7773219002570133,0],[0.42494191055621267,0,0.049522470249871775,0,0.5001753104393705,0,-0.48474417306574424,0],[0.36748260948392386,0,-0.6744358530483596,0,0.8052862076879921,0,0.8737420230595261,0],[-0.8756730397147501,0,0.8759187384349523,0,-0.25555380035018094,0,-0.0868505642149735,0],[-0.2455080365408342,0,0.6865932171711373,0,-0.9643931520166453,0,0.37306127412663637,0],[0.05923036143829763,0,-0.21817419957179718,0,0.23183709538365527,0,0.2491826995912707,0],[-0.45868767834381785,0,-0.9144349073944178,0,-0.061230085092972786,0,0.662961560805367,0],[0.3196164393720262,0,-0.8187941912886967,0,0.8850930034117699,0,-0.9051718570513025,0],[-0.9120421225971742,0,0.9632940281161084,0,0.09223898115082463,0,-0.01644376642505252,0],[-0.2128403520775186,0,-0.9168812172113521,0,0.7507579899310646,0,-0.36629912223785555,0],[-0.6980477153141682,0,0.5608094071456877,0,0.8346830098388738,0,-0.12497810259695097,0],[-0.8006361536587476,0,-0.030238684814688277,0,0.9715282321246546,0,-0.01774547454222719,0],[-0.7071588689174126,0,0.19491645648847156,0,0.6343865789058218,0,0.9905426344036601,0],[-0.35357884027490294,0,-0.07537306275747002,0,-0.6660774680424533,0,0.7313021446289154,0],[0.525849726196387,0,-0.24346542687553852,0,0.16188361085096714,0,-0.3347639617807696,0],[0.758622075086238,0,0.08110105693734893,0,0.7740821781856546,0,0.9036752346670716,0],[-0.017500931538273923,0,-0.24787282255074827,0,-0.30037286267861263,0,0.6863729274098107,0],[-0.6578698686065081,0,0.9618032393920664,0,-0.27548610324943357,0,0.023332492670965266,0],[0.3359923539972971,0,0.7085343026678363,0,-0.9784920069444079,0,0.21020347684984086,0],[0.720933436876737,0,0.7789888631316104,0,0.6845872529972863,0,0.49123155809793806,0],[-0.3508157205743667,0,0.2615213727462229,0,0.3750342682861978,0,-0.7292972479975948,0],[-0.45721498408078776,0,-0.7336771815536514,0,-0.10240039486256558,0,0.9632757949796216,0],[-0.39705391651765565,0,-0.25164377194396503,0,-0.3010152729424618,0,0.8255470290659384,0],[-0.6930546039781185,0,-0.8876621677385625,0,-0.48277923784333243,0,-0.07435096675822717,0],[-0.23726152497423025,0,0.6247267931234033,0,-0.2906518453328395,0,-0.21536559259615728,0],[0.3715392732515912,0,-0.43410998863560035,0,0.14613022207138981,0,-0.8371499045671953,0],[-0.10879492065439744,0,-0.4736877646211368,0,0.9863613797511201,0,-0.03353799377716582,0],[0.6983387874887399,0,-0.7160765119625374,0,0.12965930764628686,0,-0.6862596864770452,0],[0.8145988931080175,0,-0.7046799459769486,0,-0.3045414846326877,0,0.427671866102485,0],[0.09278624426398774,0,-0.008142062861918875,0,0.4872504049255004,0,0.21091626440997602,0],[0.8508543053300544,0,-0.20769887165895207,0,-0.9250563271415635,0,0.11107830927777762,0],[-0.8029315282269816,0,-0.9730902987152359,0,0.8645464114505201,0,-0.801280158991474,0],[-0.6928829593896655,0,0.813555984144023,0,0.3231999759708899,0,0.2574893412131367,0],[0.9940556349577212,0,-0.6653392150700521,0,0.38892231639554486,0,-0.8748008756444801,0],[-0.9454553434853292,0,-0.0655560350556712,0,-0.9817529156922942,0,0.5266345046430434,0],[-0.9200834090653249,0,-0.010812994679997967,0,-0.1887280252100918,0,0.20333126463778717,0],[0.688190085454099,0,0.5989087900601127,0,-0.29754008051861813,0,-0.7274884548997163,0],[-0.5367765264511482,0,0.8070583243277283,0,-0.1831381360521287,0,0.4368212091033292,0],[-0.7202194301681737,0,0.2755317541219173,0,-0.23473897343786976,0,0.9184647610429311,0],[-0.8516416785096783,0,-0.8744763226624366,0,0.8880648991765361,0,-0.19421247053399826,0],[-0.7687952360813093,0,-0.9995736667005948,0,0.25659904066997896,0,-0.12269306433488492,0],[-0.7389663222073457,0,-0.6848069599532167,0,0.6017869164460476,0,-0.09235106655482217,0],[-0.7634798424814695,0,-0.8727142641572587,0,-0.23597432359490678,0,0.9617981258340356,0],[0.9737400794589277,0,0.09752891525246588,0,0.7443975728894954,0,-0.7514767654091434,0],[-0.13970630080881752,0,-0.3951035679001347,0,-0.0138158579015768,0,0.7307931009301383,0],[0.9889327673653914,0,-0.7625401536229368,0,-0.8730212354449998,0,0.8804513368556537,0],[0.7400877293910304,0,0.6024301105750252,0,0.13552084523408037,0,0.7163703345038857,0],[-0.16222977773568936,0,-0.31857121944773015,0,-0.5162967191471288,0,-0.4202404869185832,0],[0.9209041757946239,0,0.802826067009681,0,-0.19696651525935494,0,-0.022744987921708537,0],[0.7522167825302302,0,-0.2888119017475057,0,-0.6638447695016008,0,0.2618711778562337,0],[0.32939892746019517,0,0.1845773522196561,0,0.41786773922951603,0,0.9238481980514321,0],[-0.631677737604426,0,0.1836545942336174,0,0.2064060163756123,0,-0.17211825316603702,0],[0.8956795040053687,0,-0.3877674186384754,0,-0.0654251130817185,0,0.8601754147896474,0],[-0.9815093077906365,0,0.42713627147182986,0,-0.9383429784064681,0,-0.8617913676617595,0],[0.33049824937027106,0,-0.9440741190040838,0,-0.11915667372355321,0,0.1880662553250001,0],[0.8705506971336212,0,0.8642438305268787,0,0.3732627394567696,0,0.308629088174585,0],[0.06565310836989835,0,0.7602480240101441,0,0.39851602020710963,0,0.7188781188349351,0],[0.6714404553751099,0,0.9317991183558678,0,0.6729460609649685,0,-0.9759823296495116,0],[-0.6345906370076453,0,0.18277040920397014,0,-0.5892932715062091,0,0.038076331067639524,0],[0.35331908181471516,0,-0.6319465660968968,0,-0.010981754431126367,0,0.06509723362117348,0],[0.11675437174566028,0,0.02253542733922953,0,0.5478272450411084,0,0.36798330675736746,0],[-0.7400825175597459,0,0.4375273435445193,0,-0.9545833551967975,0,0.7435144407993635,0],[-0.6937025775889571,0,-0.8411754126649262,0,0.9653384897373385,0,0.8740090608967166,0],[0.2509408383694032,0,0.163785782880689,0,-0.393627846818865,0,-0.5594466975846106,0],[0.6916280677087518,0,0.8205178997060614,0,0.686037269136204,0,0.8596757706136051,0],[0.44233551154878503,0,-0.8595404533860134,0,-0.15048103576772398,0,0.9447987220437828,0],[-0.32505558651561683,0,0.8063563528608593,0,-0.4003077438594944,0,-0.20425143959051995,0],[0.8402324564101014,0,0.990826957905069,0,-0.8497408425881241,0,0.7840630731443596,0],[-0.1132348091422497,0,-0.9235798700074072,0,0.7528407197628735,0,0.62878543602393,0],[-0.3736198171109033,0,0.04626704246166269,0,-0.8398049933124574,0,-0.7531125003881209,0],[0.48753650079699895,0,0.535135579370343,0,-0.9384410558013501,0,-0.6855811771957092,0],[0.35287922097778446,0,0.31389774543508153,0,0.5624408659789806,0,0.2889312490043481,0],[-0.30505280332954476,0,-0.6738776212312299,0,-0.9199811631383441,0,0.020680486456008618,0],[0.8040309683029458,0,0.3037108889064928,0,-0.613372671458106,0,-0.9804388670245949,0],[0.5447643743841921,0,-0.5408054822070245,0,-0.042356737713503456,0,-0.053316560558239745,0],[0.783113392441982,0,0.7855169163000348,0,-0.7335891583250658,0,-0.03604636588068755,0],[-0.6069978243014207,0,-0.9101730588330714,0,0.21767222901913397,0,0.2019727152132198,0],[-0.4181042904900978,0,-0.9539884463615194,0,0.5222998794165825,0,0.7960221560853429,0],[0.16723574686083453,0,0.27140035915548144,0,-0.5100469226530093,0,-0.30814280206683553,0],[0.39070506207149336,0,-0.2837228193411878,0,-0.5473881768136735,0,0.7374822192921502,0],[-0.12512636734735438,0,0.5005371857753937,0,0.8307664224612772,0,-0.5459641051109145,0],[-0.5931425479770895,0,0.7400310566045571,0,-0.28462836186414164,0,-0.681633601255665,0],[-0.6237996861205681,0,0.8758405000177722,0,-0.23749901399834839,0,-0.608169652482325,0],[-0.100734778660174,0,-0.4470665529680067,0,0.18396558619381986,0,-0.3056974933636254,0],[-0.06999805511710444,0,0.19034909504548314,0,0.6659895027095766,0,-0.15066389369463562,0],[-0.01296593350671782,0,-0.9567324866749858,0,0.15936253878478346,0,-0.7841334072712953,0],[0.519587580248716,0,0.7780204956867764,0,-0.34168168640015995,0,0.973805606234212,0],[-0.6101384632963227,0,-0.6356961228546942,0,-0.6782850171834192,0,0.4453236542335144,0],[-0.5329817530635326,0,0.43455517310145564,0,-0.41107709311758844,0,-0.6894250640953612,0],[0.9080501061421522,0,0.1686623920648822,0,0.3041522978178277,0,0.3160687457821354,0],[0.3433568513581833,0,-0.7671259991463952,0,-0.7132178776477718,0,-0.42415276066433094,0],[0.8899466361393644,0,0.3349831554391238,0,0.2715790981743351,0,-0.36991934894531475,0],[0.6827506964873622,0,0.5535611530870828,0,-0.3084760787709855,0,0.05264496045210665,0],[-0.5553786079832803,0,0.7572200229242578,0,0.38729102463116005,0,-0.4112992976642835,0],[0.5081598220422605,0,0.1505858748457891,0,0.0012540811590606715,0,0.5552432371256293,0],[-0.3424013160802164,0,0.2668683457730443,0,0.5502201680613736,0,0.5520494311171749,0],[0.17654325574964647,0,-0.4273853155150207,0,-0.5300784918773942,0,0.40739789157561357,0],[-0.43254813586472185,0,-0.7415601494141002,0,-0.7143769091864083,0,0.7223933826926792,0],[-0.44868434142403446,0,0.760227125291248,0,0.987032165708684,0,0.37967920640958175,0],[-0.8389252050251381,0,0.08849729062205247,0,-0.8279763862618204,0,0.946774345730748,0],[-0.9901128179110106,0,-0.8606528820042199,0,-0.9274761617138774,0,-0.9687749029781438,0],[-0.8545568693452925,0,-0.18143906101822593,0,0.6872230510821153,0,0.33421441755575665,0],[-0.705901381494453,0,-0.9687971326142886,0,-0.5803850644733979,0,0.4012254507755981,0],[0.7536766480855726,0,-0.6278004025322337,0,-0.1438097449324789,0,-0.11719202106748638,0],[-0.28863517449881915,0,-0.3008726402029591,0,-0.3815610263368143,0,0.49545063273921164,0],[0.3432164319383644,0,-0.3233808697900986,0,-0.41635586255731916,0,-0.18798553898076564,0],[0.6943382530175888,0,0.8525124493974179,0,-0.8067218653446788,0,0.5131362115243461,0],[-0.9560713891641015,0,-0.1409401005396289,0,-0.9458589850806038,0,0.7954636190347393,0],[-0.7730940435249527,0,0.9282284657341178,0,-0.4137923570481479,0,-0.7404630801023562,0],[0.21394712383250303,0,-0.9316832168043017,0,0.08247937127969296,0,-0.21041422030566603,0],[0.14433175971290102,0,-0.03017767444562902,0,-0.7800361307152792,0,-0.31053843901324174,0],[-0.03893131075287326,0,-0.00830632652669383,0,-0.20276563183543317,0,-0.3466197776271618,0],[0.8153566391409302,0,-0.5751935162952939,0,-0.7271513686582003,0,-0.9728973652879922,0],[0.4875115758430937,0,0.6377047493711077,0,-0.4597649599455107,0,0.25463340108999866,0],[-0.7859306350462882,0,-0.3196488154241641,0,0.29848213881553565,0,0.4074715757003282,0],[0.515851571937578,0,-0.5451642503388416,0,0.3647959243090768,0,-0.7421000562406639,0],[-0.11063948440572946,0,0.657692244591614,0,0.3232167993561039,0,0.4847535114233352,0],[-0.4460532326648947,0,-0.6433229228901636,0,0.015516702525572468,0,-0.7104410148381515,0],[0.8397716778017126,0,-0.7144322340182512,0,-0.4459748177080558,0,-0.04710677842229183,0],[-0.7433355308376535,0,0.7237412890033408,0,0.7724609633336166,0,0.6752579803240772,0],[0.8015527547140473,0,0.17299504376132502,0,-0.6703265225221346,0,0.4237251494672598,0],[-0.35777785037942533,0,-0.047721868005684565,0,0.04252791620569085,0,-0.5549431621159777,0],[0.9577399245177896,0,0.30170120026726766,0,-0.5520059111397011,0,-0.392040272449812,0],[0.42095522519240736,0,0.620398796699883,0,0.08082889655761427,0,0.8015849224557643,0],[-0.4239336772506459,0,-0.9414806096799124,0,0.5020692216605283,0,-0.7556612065949311,0],[0.19432411666217098,0,0.8418222670248316,0,-0.275118983496484,0,0.7465227075938357,0],[0.5835185420828026,0,-0.5719364399819205,0,0.35813789577141897,0,0.7222723433779303,0],[0.7819731063644453,0,0.8775564082157137,0,-0.47556911067556973,0,-0.9392781348354251,0],[-0.4146491114014945,0,0.6659938555520497,0,0.40803939165788683,0,-0.15673070414416967,0],[0.43465315889806266,0,-0.4241741211419381,0,0.1497207671137799,0,-0.6667251574313862,0],[-0.6636297649524647,0,-0.7268147074812832,0,-0.27099481117239765,0,0.6664746753420563,0],[0.19082201148166367,0,0.7105599727584742,0,0.46100943851360143,0,0.23484775832520888,0],[-0.8276959491437141,0,-0.40888736851295016,0,-0.21638796936686466,0,0.8836256955632746,0],[0.13473305943815284,0,0.7887520735924229,0,0.12216047932452412,0,0.7305879505846318,0],[-0.5909363999800512,0,-0.1612370770937257,0,0.7927085480010692,0,-0.3312605342918704,0],[0.8138262088737025,0,0.39700411138160074,0,0.14111066483935164,0,0.42791948753869025,0],[0.2177153783676582,0,-0.08861039411703175,0,-0.5858717602379377,0,-0.5521557235130203,0],[-0.4267669583974818,0,-0.3424322218125331,0,-0.7799696232759641,0,0.7545390322780368,0],[0.9829731240746413,0,-0.23858074861305467,0,-0.13999916015396674,0,-0.4659320797308304,0],[0.06520855541217974,0,0.8641955195557744,0,0.2979892454295674,0,-0.8380759849393327,0],[0.6530225639333593,0,-0.3181752698947782,0,-0.914524967070778,0,0.07339418242366169,0],[-0.30869771334323604,0,-0.13188659817454984,0,0.16893878645276628,0,-0.9503336152912201,0],[0.08849198921818902,0,0.31227617862582635,0,-0.8183353766968948,0,-0.75359843093297,0],[0.23508118258069954,0,0.284428827133125,0,-0.4421745348554065,0,0.6059436685809774,0],[-0.08161951907107423,0,0.6883831418393962,0,0.6056309248368281,0,-0.8287046065565171,0],[-0.556783282563833,0,-0.9107150570930544,0,-0.46235445394738584,0,0.25944062773814247,0],[-0.08924301744420893,0,-0.8456600940097487,0,0.38021373012286896,0,0.4535465857863401,0],[-0.18725124609254973,0,0.6780750306053496,0,0.6702552360020375,0,0.9380333112557786,0],[0.36604223386631185,0,0.4592865807010227,0,-0.1034763882235652,0,-0.17255056332960184,0],[-0.6576613709961086,0,0.9550286161863073,0,-0.2462518823481008,0,-0.17045160603020926,0],[0.5406861827114751,0,0.8576987639663951,0,-0.5480925181553662,0,-0.16508944908015732,0],[-0.49467584035005463,0,-0.47551763645470424,0,-0.44078773485628187,0,0.8399103913700436,0],[-0.3909466497124807,0,-0.4658825009261518,0,-0.8437994055704043,0,-0.013217749738738682,0],[0.2023886448026404,0,0.5541479553435014,0,-0.560319903438361,0,-0.5560113326468052,0],[0.1713290201705071,0,-0.8274666739775614,0,0.33907720060364865,0,-0.6479482369867362,0],[-0.04834315755299956,0,-0.6193103798668307,0,-0.805917196521569,0,0.12445752890371242,0],[0.8152578473915308,0,0.990735406240604,0,0.09131195293595629,0,-0.9798000990617395,0],[0.0740300728055423,0,0.427923525102754,0,-0.9309777218041,0,-0.9060187212889035,0],[0.7395288456544602,0,0.05993938906358287,0,0.07276550550510308,0,-0.6179589467137776,0],[0.131573292001951,0,0.5079520658778185,0,-0.7188269504936604,0,-0.5039628825391413,0],[-0.053382709018358065,0,-0.7699939730484429,0,-0.7800942340329,0,-0.3256432472566626,0],[0.37676603419530874,0,0.07554495977595566,0,0.9431261790080998,0,0.7796881691386308,0],[-0.9871018295582872,0,0.48056300091504567,0,0.4856780220358814,0,-0.26636376226036096,0],[-0.5295694418367016,0,-0.49392004956574453,0,0.7754887761913143,0,0.44361908895128455,0],[0.9438419377623539,0,-0.9816572769121148,0,0.2445361589049848,0,0.4042356846832309,0],[0.2261488728333394,0,-0.03264432904247183,0,0.48805002634441497,0,0.8447471381520404,0],[0.12210611669738025,0,-0.05895170520773907,0,-0.5045526295963794,0,-0.4537312551863599,0],[0.6389817542226603,0,0.9555891307790958,0,0.21282779182883038,0,0.2667206936351296,0],[-0.14366524925262603,0,-0.2119395086557485,0,0.49568345958433135,0,-0.9114585549500822,0],[-0.04369799056845003,0,-0.9340900587513095,0,-0.12819270827989393,0,-0.05638196811649898,0],[0.5384785397486767,0,-0.2017021523637792,0,0.9582099841460376,0,-0.9281569704564299,0],[0.048554340191572454,0,-0.932335435296864,0,0.8621846239618156,0,-0.7658410339172501,0],[0.9174477066334359,0,0.19554258163407345,0,0.4454873407674709,0,-0.872093826159029,0],[0.8377546129559521,0,0.854842418912287,0,0.9419278718268853,0,-0.35825861377678514,0],[-0.5030893118047421,0,-0.6784548102150727,0,0.09249502885362526,0,0.3393484314874031,0],[-0.958459097064926,0,0.3419363318943629,0,-0.3015321713242016,0,0.8756157131370923,0],[-0.4349494111449643,0,-0.0627806959161974,0,-0.7082078702122114,0,0.9259074658088644,0],[-0.009411432278657372,0,0.8755505349988169,0,0.48333139573068684,0,0.6485095100076155,0],[-0.13590776205823274,0,-0.48775962504821146,0,-0.5265735210118385,0,-0.29771668748821867,0],[0.7772023288539529,0,0.23206778028004238,0,-0.804470328046381,0,0.4060148003611459,0],[-0.5925876293717893,0,-0.17664027502920487,0,-0.38749519309759717,0,-0.24710118977354845,0],[-0.507102397933346,0,0.7716889041705131,0,0.7965134778237024,0,-0.31694952981032265,0],[-0.5479550465276666,0,-0.3182525666807745,0,0.5972368179774319,0,-0.7311079444180351,0],[-0.18721649677390118,0,0.8191565277847843,0,0.9395086748280195,0,0.28271240752272675,0],[0.1343950538729115,0,-0.8903244785521254,0,0.09026517081343988,0,0.9926527202930044,0],[0.6845598452096631,0,-0.15852350101498813,0,0.5960440373621754,0,-0.02717601938646741,0],[-0.22302733655737583,0,-0.21314514486310165,0,0.016094045417377467,0,0.2152144328173784,0],[-0.6200584488918732,0,0.4929479171732347,0,0.062484053756638014,0,-0.10450089427281917,0],[-0.6260399614802257,0,-0.913262423800127,0,-0.692570919671263,0,-0.2281834627203494,0],[0.6663217112173359,0,-0.9021836556811282,0,-0.7706213766368937,0,0.3850303119804832,0],[-0.7365759576722137,0,-0.47690180414627714,0,-0.9567593050193557,0,0.9809471192953294,0],[-0.643513365301569,0,0.6408606408553288,0,-0.5035566473795696,0,0.3894150227967088,0],[-0.506013022502193,0,-0.07279500089223556,0,-0.38863637522744066,0,-0.027819939951980732,0],[-0.005804729239826001,0,0.836227568018171,0,-0.7840184025295411,0,0.19083134383789901,0],[-0.10623244262366849,0,-0.8241045862687149,0,0.028445384572178156,0,-0.6518816788216171,0],[-0.06656494615806952,0,0.3448254446249406,0,-0.952438059857829,0,-0.37962281207452,0],[0.3494051025018301,0,-0.2091334389807682,0,0.050055191721812387,0,-0.3742435546452667,0],[0.5691675460286454,0,0.7105901207005683,0,0.10676244138956714,0,0.462384280131642,0],[0.3029791024106159,0,-0.7705054027880556,0,0.20376721165624812,0,-0.5974255994217015,0],[-0.022624918189821264,0,0.08593567353554787,0,0.2907954307074805,0,0.24361966655814182,0],[0.974636975836189,0,-0.812505326263885,0,-0.6219703278914746,0,-0.30732476844766343,0],[0.7222225185732358,0,-0.683298207820205,0,0.6638241905119444,0,-0.8973120759861097,0],[0.3187421545611375,0,-0.2662658136502434,0,0.09963229340032287,0,0.37827934652271966,0],[-0.9118549255791564,0,-0.5430889840814164,0,0.28478456665238094,0,-0.06505436387446051,0],[-0.7786448697292669,0,-0.4024880092754515,0,0.1325855626478294,0,-0.7781122907959295,0],[0.4946756861553525,0,0.2836479268439327,0,0.36052442586416844,0,0.5082412585866203,0],[-0.053139739780443396,0,0.42861576281002156,0,-0.468777116230525,0,0.3844264214723605,0],[0.35182422502558386,0,-0.11762697006584233,0,-0.8929276913023596,0,0.7447926692363473,0],[0.34155050912429497,0,-0.6495296247719518,0,0.7803394142484632,0,-0.10531475043988525,0],[0.1138208556846918,0,-0.12701650473923087,0,-0.7981510415087063,0,0.864514795516744,0],[-0.19801765805124272,0,0.6266893339316486,0,0.15517914207712002,0,0.015362624138622438,0],[0.7890359504651636,0,-0.6530662211425038,0,0.20963362626822368,0,0.5851100173305528,0],[-0.4840858778140149,0,-0.2386576301060046,0,0.9340834326907148,0,0.9510296819244521,0],[0.6638897831906831,0,-0.9142721650653844,0,0.8650976847341489,0,0.07423399116832718,0],[-0.0163600826208794,0,-0.14674896365346535,0,-0.4033869089439104,0,0.8433254172586768,0],[0.498563356648839,0,0.13109648731633317,0,0.5947180324013353,0,-0.15095140485062952,0],[-0.6724691107058243,0,0.5246252424193283,0,0.6399562895542386,0,-0.5013036393377039,0],[-0.04767595011960424,0,-0.7228284613260543,0,0.16088319354580594,0,-0.681524271370316,0],[0.3975976457013186,0,0.24435333366176182,0,0.14643558401391,0,-0.20600793694528186,0],[-0.5037223966781155,0,0.5549692466593739,0,-0.18899595632081279,0,0.16346338289952533,0],[-0.8191143433279815,0,-0.6337425268950145,0,0.7349256979831185,0,-0.7947700334484413,0],[0.5713595766142665,0,0.2794963697383661,0,-0.18555809767019715,0,-0.7494230731378002,0],[-0.4774843330639704,0,-0.297372068277969,0,-0.9710048067124866,0,0.40484146206926397,0],[-0.7506213833217072,0,-0.2702095269451923,0,0.7700667125759053,0,0.2742284100246746,0],[-0.3338174367887776,0,0.9533477588249126,0,-0.7254159205084827,0,0.37271222291449657,0],[-0.8450763275084872,0,0.03220723518943891,0,-0.43274259162426487,0,-0.17714441010474058,0],[0.6219246429514047,0,0.8109209495163343,0,-0.7599699220201692,0,-0.03367154932698613,0],[-0.09405171607090135,0,0.3172676233361502,0,-0.6168427065545847,0,0.06436412686887572,0],[0.8689758940589511,0,0.06171648870614321,0,-0.9687437957771734,0,0.3953427335235913,0],[-0.16915578478611315,0,0.7203767985906468,0,0.5989966966421492,0,0.7461446387939952,0],[0.4015136045364176,0,0.5037405692462862,0,-0.045068107794891565,0,-0.454129368248924,0],[0.21981626393678244,0,0.2967279317990381,0,0.01829553388863392,0,-0.2950224930411929,0],[-0.3748857754516617,0,0.0012497660257635435,0,-0.9375800479482714,0,-0.4001680858984593,0],[0.8683720510125308,0,0.4207027469576581,0,0.2697584737298335,0,-0.41786193553614837,0],[-0.8882702746384175,0,-0.5034825215195047,0,-0.4926772677792495,0,-0.105352335938246,0],[-0.8292619586132857,0,0.7400818683035473,0,-0.2223254830058472,0,0.9390142689571315,0],[0.7209967368855328,0,-0.7009339789717561,0,-0.6505611018718567,0,-0.5313933418347072,0],[-0.47898492068166476,0,-0.7446228095817491,0,0.18263444760938152,0,0.46854965461171405,0],[-0.9043086807719305,0,0.4726774636450497,0,-0.06205590573443831,0,0.2372131145760239,0],[0.2798857460362911,0,0.5945988557460447,0,0.5953778607373235,0,-0.5021759919514532,0],[-0.9608580966916291,0,-0.3595052174705389,0,-0.4933921893521671,0,0.24582830508044862,0],[0.06468555699540057,0,-0.9462309560519135,0,0.5665827037368305,0,0.47708410114849675,0],[0.7824125257856072,0,0.028526765797719955,0,0.11385860306361617,0,0.943918739687247,0],[-0.37934851627798216,0,-0.5265042315587918,0,0.1554095874621284,0,-0.34946252320069693,0],[-0.3509309427426843,0,0.06786839806895695,0,0.5605107181229516,0,0.9262232232504175,0],[0.031159295934256814,0,-0.47808157739314794,0,-0.020386300901977572,0,0.6042208307599086,0],[-0.8746588400658595,0,-0.6240501738431461,0,0.4179641682670394,0,-0.913848640796102,0],[0.5247628960024744,0,-0.5456621015101641,0,0.6300363803237734,0,-0.11374331395756099,0],[0.8434920329947986,0,0.4371259426512091,0,0.7996911140188676,0,0.6267259637368425,0],[-0.36315224761735765,0,-0.08015601095207137,0,-0.6677109619055399,0,0.39480994769777666,0],[-0.5137911840615994,0,0.8029194660884449,0,0.008820673145836233,0,-0.12561795999676195,0],[-0.01628867903380149,0,0.8852521666150222,0,0.23844233100013068,0,0.7290572446434518,0],[-0.8801742769608492,0,-0.8677703113950526,0,0.6946350289141583,0,0.34093464158458886,0],[-0.5931175135268032,0,-0.7533375364599588,0,-0.7684678190955332,0,-0.8015187128302641,0],[-0.03580672904112214,0,0.8918197250687911,0,-0.3492109385856883,0,0.9790281108865813,0],[-0.25450716167345666,0,-0.8010469903996231,0,0.6256962233755177,0,-0.31419671912689395,0],[-0.892995266150741,0,0.0373942706709649,0,-0.11193373017080255,0,0.07637930481051414,0],[0.9945122154654893,0,-0.06647933097007974,0,-0.3552477682909325,0,-0.9411347766783875,0],[-0.8296062010531962,0,-0.5044189563016375,0,-0.8855168946838532,0,0.7341273380838966,0],[-0.8933388591789291,0,-0.26541904076854905,0,-0.9379685424950619,0,0.32677501989319246,0],[-0.5623851896878009,0,-0.23287212423383186,0,-0.7444454729220837,0,0.37460214366661004,0],[0.19581214777799616,0,0.044340394368038494,0,0.8842798084047845,0,0.23562667722513653,0],[0.44761863494392196,0,-0.5283719251110637,0,0.1475333930321352,0,-0.7761752766562557,0],[0.3996934091072093,0,-0.4326467876142124,0,0.4624381519227876,0,0.4991085256169101,0],[-0.43466328389053666,0,0.15408666441792795,0,-0.9635643517118437,0,-0.7859491336191373,0],[-0.8402939402539766,0,0.9843752561335568,0,0.9121157239602518,0,0.35931111787692904,0],[-0.464514799265346,0,0.17363992950890705,0,0.015664265567476576,0,-0.7483280604902933,0],[0.17566863881121497,0,-0.6539726901413068,0,0.22656800544131372,0,0.6730483371007772,0],[0.5277025550606198,0,0.9947408890491218,0,0.03504454152661762,0,-0.7042159656182276,0],[0.7933006829719014,0,-0.28341941276140004,0,-0.03500801232167339,0,0.2190032863656608,0],[0.6808324212984136,0,-0.2988770988097469,0,0.6140826451361827,0,0.1927390310542858,0],[-0.9177418931939485,0,0.13817680633763563,0,0.8989516055144418,0,-0.5789877604911551,0],[0.6541646079502073,0,0.05285415452650932,0,0.8922606628249123,0,0.7119892659773668,0],[0.3625327747964804,0,0.4857953241317423,0,-0.5002547991304975,0,-0.8172015803100356,0],[0.1934462496491498,0,0.9067956851983225,0,0.1491799620366525,0,-0.27146115849373964,0],[-0.5629711441133041,0,0.2832797808914602,0,-0.35047186153651544,0,-0.97053115979853,0],[-0.7805233300632899,0,-0.6792251774053633,0,0.42736592419395536,0,-0.0026862130519316185,0],[-0.7118715006371024,0,-0.9492631388238195,0,0.45900271946565696,0,-0.7489139810694148,0],[0.44709689504484507,0,0.16178728507953277,0,0.39054615183829644,0,0.4647637058355114,0],[-0.5039407707326018,0,-0.7463803633685451,0,-0.42551218551087766,0,0.24362751781497272,0],[-0.9576120667529089,0,0.5385399923289478,0,0.050214977423205465,0,0.5630074323615379,0],[0.1368754918016457,0,0.42380793342943623,0,-0.14281881875722102,0,0.7426458190500618,0],[-0.6741109490320099,0,-0.12135288465133476,0,0.4932964232337811,0,0.4318348697313079,0],[-0.5821328149422145,0,-0.4770015571359876,0,-0.18257354387331537,0,-0.855059359975952,0],[-0.9703506295465991,0,0.9707920715092588,0,-0.756281664399244,0,-0.486121766280047,0],[-0.1917927669920878,0,-0.8812834737976094,0,0.6867975615654502,0,0.6135566606745122,0],[0.11592460133639282,0,-0.2078322676505715,0,0.3907103346209029,0,0.46826423344270274,0],[-0.07734898181120986,0,-0.5567370163523468,0,-0.4891869898960395,0,-0.8385811900538451,0],[-0.3346676051859523,0,0.44150768559386266,0,-0.8833623680003033,0,-0.151939393659124,0],[-0.08389992226210152,0,0.905907693810561,0,0.14509262354263108,0,0.40891774231688527,0],[0.8422775218222587,0,-0.0019796726012568655,0,0.7571835519431152,0,-0.5131712668945758,0],[0.646842534491876,0,0.12864293160913065,0,0.537769103433021,0,-0.7892418571899189,0],[0.44546052783662216,0,0.6265393266256083,0,-0.9733065217332528,0,-0.9604043249642824,0],[-0.6337172576909786,0,-0.9241914756860021,0,-0.8190330436901583,0,0.8473820593265815,0],[0.051281617029476756,0,0.7492021328485563,0,0.5414918854573614,0,0.6235571062355221,0],[-0.8070272187602996,0,-0.6520981228244866,0,0.11416146329992505,0,0.9762801242316497,0],[0.2579528670682243,0,-0.39603077947068077,0,-0.7260139439763913,0,-0.996175382745693,0],[0.128758207200514,0,0.2098849240424563,0,0.3622296759435517,0,0.03850281932698407,0],[0.03813054218614287,0,0.01029694805924719,0,-0.9296319624371141,0,-0.7304707648951356,0],[-0.12514959134599168,0,-0.5756993679230431,0,0.19100676861862986,0,0.3156843630209496,0],[-0.29211926007871836,0,0.6622759343411884,0,0.8647279203403946,0,0.445593995515444,0],[-0.7943616525211861,0,0.4595116077138337,0,-0.9368407325328694,0,0.33289204437936193,0],[0.5197904520790306,0,-0.23045215348853465,0,-0.2776092810356847,0,-0.014512066111967536,0],[-0.8419478889621961,0,0.14337317964919793,0,0.6771887395340117,0,-0.1973869088683189,0],[0.3880364855524132,0,0.36631320182951055,0,-0.6547106421921514,0,0.590273958291945,0],[-0.20570937950452084,0,-0.6673461512667638,0,0.972377208698292,0,0.8051917622044911,0],[-0.24677488668276393,0,0.10874228757381887,0,0.17218635668642923,0,-0.7007367161112541,0],[0.7957261161072691,0,-0.3314851005932613,0,-0.5175119837830378,0,-0.5989709650208144,0],[0.0948146479164047,0,0.8811017572682938,0,-0.29344353687888014,0,-0.7024112419927817,0],[0.6457978390377597,0,-0.011637624519332368,0,0.9210338841997132,0,0.36985771195619277,0],[0.09893340541918927,0,0.03090997565312459,0,0.20494320022552492,0,-0.6139904682530251,0],[-0.340292246052043,0,0.4643836172296869,0,0.380924573631819,0,0.27240503390058746,0],[0.9894059525243208,0,-0.4465670892349496,0,-0.6413986767725111,0,0.5582598394631102,0],[0.6187300315540218,0,-0.9609194953834963,0,0.03130740028043921,0,0.5297555794479476,0],[-0.9702004763525807,0,0.04583318360515132,0,0.10123801955246936,0,-0.36874582190228766,0],[-0.7330522238524879,0,-0.7718870701787139,0,-0.3055877300552219,0,0.7157267319603968,0],[-0.29569627582094915,0,0.7512854297646898,0,0.1756651584042328,0,0.37346139439089066,0],[-0.5717712082146214,0,0.860763585910564,0,0.18521436227491384,0,0.7575695383151693,0],[0.5852555110620421,0,-0.4866306235069122,0,0.5921752608569915,0,-0.9232398939524065,0],[0.0012530227735623178,0,-0.17166194324412243,0,0.7967263183348321,0,-0.759692774485516,0],[0.3951225221708683,0,0.9610543409215255,0,0.6114535709004383,0,0.017088397026542967,0],[-0.4095955394697668,0,-0.589188749666907,0,0.8137334038611836,0,-0.4899763217415798,0],[0.27075643271735594,0,-0.25541349177723616,0,-0.6151612952633054,0,0.7491996020799518,0],[-0.9696603690881151,0,0.25203417541381046,0,-0.5622170479496642,0,-0.2285851264735217,0],[-0.26227027691009797,0,0.14259250170558246,0,0.8847445418926989,0,-0.3191627451791945,0],[0.5620454689894814,0,0.5538120292739834,0,-0.9937584868782439,0,-0.12508455880093328,0],[0.40256778967019247,0,-0.13928914305582718,0,-0.7419444178726928,0,0.8716413869753972,0],[0.9181987996659993,0,0.5591674623207168,0,0.8882318042518391,0,-0.01128711517139358,0],[0.8706891422846879,0,0.34206459901649655,0,0.23530871481869453,0,-0.4979012088380945,0],[0.07564030562837032,0,-0.10489952099931266,0,-0.05973784303068519,0,0.8509620339228414,0],[0.8978659029569231,0,0.4098870862949109,0,0.7284732820846238,0,-0.04215025222291091,0],[-0.06722502249225593,0,0.845158289548188,0,-0.09563939969016166,0,-0.20248796166736827,0],[-0.7169823672600462,0,0.5626135897061706,0,-0.7498574537660572,0,0.9746638134307226,0],[-0.3302879083461454,0,-0.8778732045463442,0,0.6315266493499241,0,-0.7395410619571889,0],[0.5101502691613178,0,-0.258248767159889,0,0.2869485769123272,0,0.789396620166888,0],[-0.9510433939107186,0,0.21115718712346188,0,0.5133125946911177,0,0.9328354186038126,0],[-0.35274639660880247,0,0.8928398065276002,0,0.26001347482553383,0,-0.25775871871045575,0],[-0.5855346074215853,0,-0.14636100611488745,0,0.004347556229668426,0,-0.7052487823636799,0],[-0.49003126306055234,0,0.13981580014500294,0,-0.7947509184863673,0,0.27558556326994377,0],[0.6468793758130527,0,-0.2578667414762643,0,0.6186161116837503,0,0.6962959565594165,0],[0.5978388128817191,0,0.8930923867831659,0,0.8063178983443899,0,0.7747887324777076,0],[0.8327458768179521,0,-0.003322599978577756,0,0.28230462910304777,0,0.6925172222245615,0],[0.8109551915772439,0,0.7116675406253883,0,-0.08693238248099555,0,0.1961889232887415,0],[-0.09445811114845015,0,0.49277497474929666,0,0.42602706912927046,0,0.8257864027627642,0],[0.4548116953262571,0,-0.7604267528101913,0,-0.821748265061365,0,0.9276554280501208,0],[-0.9836878492284964,0,-0.38861796610566124,0,0.6992435799475079,0,0.5508646701936109,0],[0.5411794048540075,0,0.03697779106557797,0,0.9453488116376929,0,-0.17300319984138346,0],[-0.10826619587728592,0,-0.5187963699024631,0,-0.3103163344018509,0,0.49798168860931824,0],[0.8928141701333359,0,-0.373746201323818,0,-0.9797069526525704,0,-0.1164620362610731,0],[0.9374202621210972,0,-0.7163880822343434,0,0.5305869078625705,0,-0.23076054461636675,0],[-0.9401900110149775,0,-0.4266749511205905,0,-0.540071818447166,0,-0.5518208565719156,0],[-0.6557231632500107,0,0.6904991467134634,0,0.778573573735283,0,0.46365389892223496,0],[-0.4445897777472063,0,-0.07539638864975995,0,0.009997728333073441,0,0.4772482133278575,0],[0.9557207372412952,0,0.0053774555346775,0,0.44495753735277654,0,-0.873853285089736,0],[-0.5809107523507817,0,0.819830489468917,0,0.3254838732728802,0,-0.26454002101381513,0],[0.15357770303619622,0,0.0780385110387678,0,0.5633140123045244,0,-0.6842002781530716,0],[0.6147173108309325,0,-0.39886776336868257,0,-0.3938926914217824,0,-0.5967059936293688,0],[0.5204679590033339,0,-0.43691505514466433,0,-0.8238851936815486,0,-0.011315320241192417,0],[0.2716207734680687,0,-0.7613945140924985,0,0.7798008562242702,0,0.03410416896819157,0],[-0.4635060502756143,0,-0.40735335155563757,0,0.1232435793451645,0,0.8905804207481305,0],[0.27635026354658465,0,0.3927429497503221,0,0.8669692595772196,0,-0.6937278918802825,0],[-0.9319578021017618,0,0.43359380310826956,0,0.5152030570740291,0,0.6548906674013211,0],[0.22296959822063012,0,-0.0659880494885341,0,-0.3416525282227907,0,0.5157168687524634,0],[-0.09348782419265156,0,-0.800440219250139,0,-0.7261724995307408,0,-0.198925835803327,0],[0.22967755231996345,0,-0.7601004995971941,0,-0.6607298955539762,0,-0.7459261258054992,0],[-0.885215927038498,0,0.18808601548952208,0,-0.3766874229258055,0,-0.6710999639995521,0],[0.6295749404982067,0,0.08973509596856188,0,0.19316461832662202,0,-0.7821449000968517,0],[-0.5607612190037647,0,-0.08679865886418581,0,0.9143746680732336,0,0.10384108657502367,0],[0.043390203714045006,0,0.47760490297944114,0,0.017080606493669936,0,0.5939032372621342,0],[0.5451415468074534,0,-0.5962514944295589,0,-0.3356467977277666,0,0.7289170720198821,0],[-0.15802500054432622,0,-0.8363312796683213,0,-0.6179324419728855,0,0.96645231822725,0],[0.3332030769355103,0,0.8377702527336048,0,0.19606738043458982,0,0.09830070677254277,0],[-0.4936168794889433,0,0.2841931157400821,0,-0.628786085276061,0,-0.8088926911468535,0],[-0.904870709139461,0,0.08326748955562913,0,-0.2417595808021893,0,-0.6720010711714504,0],[-0.10665526656738433,0,-0.1593871480351008,0,0.9281598534436308,0,-0.818944872420128,0],[-0.23402680670208298,0,-0.7843580565779715,0,-0.48969623420743535,0,0.25892180927859276,0],[-0.08605111103011764,0,0.3879328787745244,0,-0.5511041830990488,0,-0.9491805377986475,0],[0.031100823114875276,0,-0.41786412777861437,0,-0.745606287565558,0,0.22765167752535187,0],[0.6333460422989965,0,0.7427840971686319,0,0.7496601940770218,0,-0.4371274880533338,0],[0.5455841380095219,0,0.4835816050922448,0,0.29735260829066834,0,-0.6997750484137286,0],[-0.7007157941251665,0,0.031444351499881895,0,-0.9562523186760028,0,0.3224149110092258,0],[0.023832867079103925,0,-0.956227254238514,0,-0.6744522017534136,0,0.6642390809320837,0],[0.30729015981025953,0,-0.10186162244056796,0,0.06004150181691603,0,0.6656378391232272,0],[0.4572785629478002,0,-0.6632297810782619,0,0.6753203820660139,0,-0.6254026554129717,0],[0.6103087614630123,0,-0.8060719420437292,0,0.9360818041895476,0,0.6867786500282862,0],[0.21792239384255074,0,-0.6575445763260277,0,0.8818760440017868,0,-0.8517962817745102,0],[-0.41938710327820616,0,-0.03349377888271321,0,-0.9815174611606854,0,0.34928302504382325,0],[-0.6944398989976839,0,0.8006427655120014,0,-0.11056874655534754,0,-0.5970795811194496,0],[-0.16820367508947043,0,0.0712063634182134,0,0.20350956487178484,0,-0.8736138104118274,0],[-0.5035039954640257,0,-0.4659356475843357,0,-0.19457352428079222,0,-0.763899286471792,0],[0.008662123715156511,0,0.2235404131852694,0,-0.04936778833599775,0,-0.8835746196998921,0],[0.6515588721666412,0,0.31053920103523236,0,0.5816193806906678,0,-0.46199050414536846,0],[-0.9471810586515932,0,-0.18642241337010645,0,0.6018614205461861,0,-0.9218034970708806,0],[0.9412319363089754,0,0.8146398130396211,0,0.5048704482503787,0,0.9354439343481398,0],[-0.0482019545209853,0,0.30247629054362046,0,-0.8603140097735114,0,-0.6683329952606438,0],[-0.7542901409839096,0,-0.20083217313899127,0,-0.1195664439874935,0,-0.23913334868021097,0],[-0.5204969069812484,0,-0.47851768446941434,0,0.016420274975757376,0,-0.03064229212152636,0],[0.48769464712057564,0,0.9867520668444489,0,0.7905636055631113,0,0.742364644965094,0],[0.9358055953925524,0,0.6937046040524586,0,0.18777538073763744,0,-0.6762935231775089,0],[-0.8442563699693695,0,0.7918811569710718,0,0.3112545027509337,0,-0.3902547929232938,0],[-0.6069015048765389,0,0.49898262682483563,0,-0.01653340276665194,0,0.13572505073758157,0],[0.775981606813942,0,0.4336830525879818,0,-0.9300807049586348,0,-0.6879173107294931,0],[-0.5423802594271112,0,-0.9978434524682416,0,-0.05233066525611085,0,-0.6297367599267507,0],[-0.4100104551265844,0,-0.4902357019366177,0,-0.47317509774558175,0,0.042027474643068885,0],[0.05335957106893696,0,0.7650534792404955,0,0.28213634834249235,0,0.12319138609413893,0],[-0.8033170945771386,0,0.6014212296895818,0,0.8630948381324137,0,-0.2378096330269901,0],[-0.7636371818820058,0,0.9625017724424709,0,0.024788473556593082,0,0.5658145227057128,0],[-0.5840086328808589,0,0.980535827444283,0,-0.14190866912191735,0,0.42891460375038326,0],[0.5472392941824245,0,0.8226866232013181,0,-0.4034084778783176,0,-0.6281695643179339,0],[-0.8678468428306738,0,-0.011531371352093478,0,-0.36101007281558894,0,-0.39125175678937185,0],[0.9096949009229052,0,-0.7878415504043768,0,0.8495318151260602,0,-0.4278555820988217,0],[-0.6255642834341093,0,-0.8427388461923904,0,0.6853592544956291,0,-0.31707103225554656,0],[0.5828954108011404,0,-0.31419260055685916,0,-0.7514970722969598,0,-0.7171476952517295,0],[-0.6069040167257069,0,0.6434605408078153,0,0.9715576700150028,0,-0.6648057524247248,0],[0.17547616488911744,0,0.8221160782439789,0,-0.6800841307501135,0,0.251705884693584,0],[0.9883924521596461,0,0.04487846520887895,0,0.6297602609603752,0,0.5182291901976406,0],[0.22900941726321666,0,0.16400333878889395,0,0.9998456756613892,0,-0.3316286099632577,0],[0.8504610586804524,0,0.17059756435435447,0,-0.9835719711087598,0,0.5940646171369088,0],[-0.6212577440950466,0,0.5855708190388398,0,-0.9854736455647113,0,-0.8162049712864377,0],[-0.8321316584628762,0,0.8345370109148105,0,0.5650319030444322,0,-0.15626238098218503,0],[-0.4005821413332131,0,0.40506603829738985,0,-0.07399288556601769,0,-0.4160128586740166,0],[-0.7373465306327303,0,0.24289037906284916,0,0.30784414565911544,0,-0.9584723181548498,0],[-0.45600840138553744,0,-0.9356268726654315,0,-0.024217746706612253,0,0.06353788630853874,0],[-0.49032769644659324,0,0.045748059854893386,0,0.4496098687339578,0,0.28908008414122377,0],[-0.516943886690012,0,0.6953449279779018,0,-0.6407929170795619,0,-0.45582305363713016,0],[-0.7019443366196378,0,0.6232166984621377,0,-0.12408944535507827,0,0.8047299707677207,0],[-0.14721429504270045,0,0.39328802956754494,0,-0.9364874210055294,0,-0.01631030286228885,0],[-0.7074059135604844,0,-0.323651777249389,0,0.979032881211843,0,-0.13666142044079388,0],[-0.08078511367070429,0,0.5179138668436889,0,0.9022310604081689,0,0.1205020183614589,0],[0.7528621594879796,0,-0.30680901944376293,0,0.6841544605201682,0,-0.4180448988983041,0],[-0.43333842649125587,0,0.8420679682037435,0,-0.12115446014015285,0,0.5992469185616545,0],[-0.8321053916482599,0,0.36027536143974004,0,-0.9413400738035282,0,0.746615960707925,0],[-0.2818910493998046,0,0.8685501659731141,0,0.5124753346547923,0,-0.07737504013660557,0],[-0.035773716692302227,0,0.4898466139823754,0,-0.6126009768523932,0,-0.6244053696062881,0],[-0.6046429412116241,0,-0.864662038064802,0,-0.741589942613186,0,-0.8251288079349945,0],[0.5451094057253669,0,0.5331570108899217,0,0.09670000035165893,0,0.21441362579659073,0],[-0.0732415521754246,0,0.8295259938748711,0,-0.34369493270396356,0,-0.03785916419726387,0],[-0.5812803389397851,0,-0.7498695843073837,0,-0.5900502926091811,0,-0.1420678614321771,0],[-0.6896517580380732,0,-0.469706576147944,0,-0.661149870554949,0,0.5151265879155729,0],[-0.3268357195380325,0,0.6057111201864069,0,0.11755448507588628,0,0.6948212124986997,0],[0.24018291371761324,0,-0.5987874931159698,0,0.5337246754338525,0,-0.6007800472652891,0],[0.5561043368398084,0,-0.5367900979049223,0,0.34409252069562,0,-0.6302608758493016,0],[-0.1963004669067927,0,0.6522103246658406,0,0.1916513084875453,0,0.777528593240272,0],[-0.5831963921137528,0,-0.8550403957677057,0,0.6954718625487784,0,-0.041480632011266616,0],[-0.6420925240488047,0,-0.408503757347098,0,0.3733607231198277,0,-0.32793659778917217,0],[0.7684170812677715,0,0.4305928121140965,0,0.6689052560303805,0,0.5516838620835707,0],[-0.40777353975737585,0,-0.9122319860916956,0,0.02827996532830146,0,0.1684060505119387,0],[-0.27166915646354406,0,0.0632540952136551,0,-0.2914849130407968,0,0.4415942065163274,0],[0.28578174639450427,0,-0.2369917911296031,0,-0.2022427219695797,0,0.00917132359687578,0],[-0.4056335571282048,0,-0.6659407154993031,0,0.7893808610167452,0,-0.39144750703596376,0],[0.7669705940693274,0,0.7361845351931009,0,-0.024365034042193257,0,-0.47842456450058535,0],[-0.18533801125241678,0,-0.18488564423446174,0,0.9128412085836444,0,0.7011653171630567,0],[-0.41688887547027975,0,-0.7618346159121832,0,0.25898398665374933,0,-0.6755766352068393,0],[-0.8909577111284419,0,-0.18859356392638138,0,-0.6041363365923453,0,0.2062827460490606,0],[0.3879871890822688,0,0.9181642418251805,0,0.4218117166927655,0,-0.24017227199935443,0],[0.9996911656611474,0,-0.3981207802715918,0,-0.662706108535225,0,0.0038251909157900332,0],[-0.444899264439754,0,-0.8379753842500819,0,-0.4554437131573388,0,-0.5050283760209551,0],[-0.4910623583445759,0,0.04000562401296959,0,0.14379772275576808,0,-0.9981897784866165,0],[-0.47555474158188726,0,0.24265814489158233,0,-0.06782104981086423,0,-0.7607722885539849,0],[-0.7180309979838437,0,-0.41583016302240505,0,-0.5016921438852411,0,-0.9531078914843061,0],[0.3906117200893988,0,-0.3770508312490166,0,0.35366839848399745,0,-0.9780535252868581,0],[0.892283183477282,0,-0.6718281591364621,0,-0.34621202117546046,0,-0.19427311076338682,0],[0.740040275861094,0,-0.7685633488930819,0,-0.26423217981520764,0,-0.02377422412227448,0],[0.5876930061573744,0,0.10216577366872248,0,-0.5648733669487325,0,-0.1875253139576154,0],[-0.7547699309153375,0,0.03108787981242367,0,0.9437388389643262,0,0.07397442502297746,0],[0.2346943846700409,0,0.21434612141627452,0,-0.16802623539172168,0,-0.6222474955264095,0],[-0.9762808376218852,0,0.7014747649193511,0,0.7819735582915555,0,-0.2424178203982621,0],[-0.2809886819311138,0,0.9036930589282814,0,-0.43466808646732447,0,-0.44565041674949346,0],[-0.7303520107736636,0,-0.24533351445176788,0,0.8472681207054313,0,-0.08649122955666133,0],[0.560130644428172,0,-0.9259100369098558,0,-0.4892851521260402,0,-0.14498190895816898,0],[-0.8342821001042122,0,0.905149948592167,0,0.367569648133103,0,-0.8668959473656639,0],[-0.002362115619159999,0,-0.6198745554119516,0,-0.6393139080833148,0,-0.0823486535213851,0],[-0.41664215665593063,0,0.014091615956609793,0,0.6590093907287771,0,-0.2940273911303646,0],[-0.6928323190443209,0,0.23489251977357029,0,0.40958983731201903,0,0.8131623115899123,0],[0.5789116680112985,0,0.4282522379295848,0,-0.6659654682700737,0,0.29119438198409253,0],[0.6037810690061329,0,0.8100974325507149,0,0.8432868522529633,0,0.19137481826404001,0],[-0.8063417065877543,0,0.03386749804124789,0,0.8934511330804389,0,-0.28828549965166195,0],[0.8905817255668589,0,0.5987903158057277,0,0.41670747483676607,0,-0.0397599754077691,0],[0.5654774589336018,0,-0.1541929244171969,0,0.8351906544162357,0,0.8172142453679403,0],[0.6103842241920805,0,-0.3889695146029595,0,-0.09796526211704948,0,-0.3063097522258218,0],[-0.14002665354120092,0,0.4523246394053675,0,0.9126127238780466,0,-0.1392235709222167,0],[0.458246459513006,0,-0.22720086262902006,0,-0.8096700949344087,0,-0.5365564801915532,0],[-0.9711309634554968,0,-0.864289301976489,0,-0.3248436897751896,0,-0.6653432414582574,0],[0.7126788329346765,0,0.5984710940311844,0,0.429412646064395,0,0.2900704315019622,0],[0.9034835434282353,0,0.9891617286148948,0,0.9241522578344477,0,0.7104744699506997,0],[-0.15665729156377273,0,0.7071589804749705,0,-0.9191910796452394,0,0.9086362980971663,0],[-0.3688952388797342,0,-0.14982244535578038,0,-0.7833904722194265,0,0.02913415185568069,0],[-0.3469494941224909,0,-0.7467581502463758,0,0.27857833540537924,0,0.04423097201027382,0],[0.9620699913534394,0,-0.6292007526865058,0,0.049787048589448046,0,-0.21420827249521945,0],[0.7118802537004314,0,-0.15860909188704508,0,0.3728343320256111,0,-0.10730091734052327,0],[0.39536748995219817,0,-0.9549991532298168,0,0.859364995080693,0,-0.9448231713549591,0],[0.34121683431753236,0,-0.0035951795929090036,0,0.04076900733468358,0,-0.998117462861789,0],[-0.30942952112295563,0,0.5135462395020902,0,-0.5359735398770804,0,0.30258403901962083,0],[-0.0944676284528978,0,-0.24183309558485755,0,-0.15200486166659655,0,-0.7513113273400567,0],[0.753917224418482,0,-0.0333748415972146,0,-0.9107368560073053,0,-0.17415444715418116,0],[0.669718485125683,0,-0.5279626948986786,0,-0.35698127843229055,0,0.10729579022146218,0],[0.4063485840931982,0,0.9645792694074069,0,-0.3967827370356267,0,-0.7264020499783002,0],[-0.0202172128485274,0,-0.6550082428064317,0,-0.33234700255949057,0,-0.09619094192022004,0],[0.04131630979213696,0,0.497031908851292,0,-0.9026282926050231,0,0.18515532042250027,0],[0.02472209216970689,0,-0.16217968975666253,0,-0.23381175676339283,0,0.2526789466233048,0],[0.6801746869249579,0,-0.399266238345386,0,0.44490170891408876,0,-0.0026987248782048834,0],[-0.06261497132206228,0,0.46369790766365293,0,-0.42387177108864615,0,0.3701951087265818,0],[0.43296693446538814,0,0.35643668847981136,0,-0.03050002752285952,0,0.46331250903226984,0],[0.49213618103557555,0,-0.9365605362488096,0,-0.9166928720304848,0,0.4603676138495223,0],[-0.12757972815469643,0,-0.41489172491295156,0,-0.14251216746251472,0,-0.07047374091401082,0],[-0.8428652971246529,0,0.12775244777658257,0,-0.5758015817650846,0,-0.13149123710519084,0],[-0.6710388180898259,0,0.06379992298210224,0,0.44602541727575296,0,-0.5852358712660897,0],[-0.24096054350476126,0,-0.7632017070546373,0,0.3182287154711636,0,0.19782728777626413,0],[0.6145638371105588,0,0.581480711855209,0,-0.9797676182359156,0,0.9379250550182041,0],[-0.48204636577026716,0,-0.812623213296849,0,-0.9870906587472743,0,0.08434784978747967,0],[0.1832437694852458,0,0.6551494803762343,0,0.25203289435831544,0,-0.9609404835318958,0],[0.7104211695986484,0,-0.12195585076010906,0,0.12459724184329857,0,0.8254683112757608,0],[-0.7639900248718594,0,0.2265376389667606,0,-0.08646375651938731,0,0.9392378027763304,0],[0.7182870448662082,0,0.522478822556292,0,0.2576987002306841,0,0.5574670539607425,0],[0.7780870121538599,0,-0.8402842279379308,0,-0.002233712850367775,0,-0.7154752723711288,0],[0.7212347415817921,0,-0.7385934140818862,0,-0.21487225880281957,0,-0.8227268090682411,0],[0.13622065538316064,0,-0.14008451449883563,0,-0.12044776999220308,0,-0.08062676688386139,0],[-0.20918710396847517,0,-0.2566024253511825,0,0.672831971220113,0,0.7038117817505605,0],[-0.05612146734729029,0,0.833879839679877,0,0.6493926239994152,0,-0.36525056898894626,0],[-0.35623662200797135,0,0.7448482336965287,0,-0.2688016955755155,0,0.2742367337806768,0],[-0.8978408281401211,0,-0.4879452669239699,0,0.2531057778038117,0,-0.6636983067451474,0],[-0.18753596809277773,0,-0.6005398876264123,0,-0.8238489965420144,0,-0.5296358004753992,0],[-0.2757787140215837,0,-0.8470667196193189,0,-0.42992124570074264,0,0.5778860538141042,0],[-0.5097019246379144,0,-0.8924717514174356,0,0.882754769632405,0,0.17061827392158158,0],[0.5710462334173636,0,-0.8501336305917138,0,0.06292750041193829,0,-0.0942392422328493,0],[0.8097625148057561,0,-0.30464845933466345,0,-0.7858649719203827,0,-0.3771978260837703,0],[-0.013653878290999844,0,0.5606511877000626,0,0.1313805717478107,0,-0.041238182547891356,0],[0.811128631380321,0,-0.1049220107004405,0,-0.19147181303032546,0,-0.0669931318365029,0],[-0.1615707747005184,0,-0.8197890821054439,0,-0.19680107814422088,0,0.7697732012961824,0],[-0.14053344591903527,0,0.715296745643125,0,0.20727429966123911,0,-0.33402979493021734,0],[0.47683698846846,0,0.9766773778785263,0,-0.10505543875324941,0,-0.7861972149984651,0],[0.7678466601794531,0,0.7726896842381699,0,0.7065645065005326,0,-0.24780159727240036,0],[-0.7884368930403836,0,-0.7888101207020346,0,0.27541012388332664,0,-0.952022264589053,0],[-0.6154698669390053,0,-0.8449446839562615,0,0.31575599806342414,0,0.39716317246097255,0],[-0.6773315025876021,0,-0.9382779344587988,0,0.3645221015612041,0,0.48877094846682834,0],[-0.09803853789005479,0,-0.11398294024591671,0,-0.7949332277512955,0,0.18788593720764646,0],[-0.8918954891779609,0,0.07124980905880096,0,-0.49946963495766816,0,0.7717718688601092,0],[0.6453749316723374,0,0.5617286122659055,0,-0.4745371772909599,0,-0.907777270620336,0],[0.9775560086474624,0,-0.7594277579433819,0,-0.6917039679936807,0,-0.3606866425139452,0],[0.5988281370504354,0,0.22988889838751447,0,0.983550075731136,0,-0.45383827883328864,0],[-0.8998818669909012,0,0.08609877690927692,0,0.7014908222207841,0,0.20126768098379122,0],[-0.5735252913322493,0,0.08137917674043238,0,0.054284025975990025,0,0.32444573512740615,0],[0.6136181362764808,0,-0.5170856755591136,0,0.6515197662820411,0,0.11432398983116676,0],[0.2468884329935328,0,-0.9751652925593783,0,0.21430874744083472,0,0.38983253739912227,0],[-0.0966045690646058,0,0.6134353727051867,0,0.35598015500707847,0,0.5250596589171523,0],[0.9182523073708346,0,0.7144632157831519,0,-0.9212610695917782,0,0.4163055444935846,0],[-0.041647985204010585,0,0.8419694175339794,0,0.9394690577642202,0,0.7221180805808305,0],[0.09222374876169281,0,-0.898576622918652,0,0.8241961588078548,0,0.18154686684031618,0],[-0.687913969899721,0,-0.164509786229049,0,-0.6804477776823836,0,0.9428054777542694,0],[0.7942892700361035,0,0.0790749757389535,0,0.7809130042508141,0,0.523985752178848,0],[-0.4230792542991231,0,-0.2490588254530337,0,-0.6292938370676846,0,0.279419014273943,0],[0.7884211104170353,0,-0.7075861704041053,0,-0.4232830590766752,0,-0.9402651562999065,0],[-0.9213584132410411,0,-0.19062006114309393,0,0.01904674105338322,0,-0.8693810362869039,0],[-0.5161523415067988,0,0.6820038329807605,0,0.7157063910010109,0,-0.645273712142326,0],[0.5997536352437434,0,0.07727591325348415,0,0.40065632842788346,0,0.1431574373171287,0],[-0.3582487876057232,0,0.832718449551362,0,-0.025568067049093424,0,-0.25263907368653693,0],[-0.26092784882433184,0,-0.22472617718072052,0,0.7163219182100269,0,0.08927570223749814,0],[0.6397045132089341,0,0.6976042616762239,0,-0.5016051815306022,0,0.5169822642114306,0],[0.8954586720060185,0,-0.0652645502385536,0,-0.08450278730853489,0,-0.37491667919688143,0],[0.5516592535136706,0,0.7671791011534699,0,-0.018324661314957913,0,0.5934885535521794,0],[0.38351498675543483,0,0.7223725202845359,0,-0.15769976636683358,0,0.3752309781119769,0],[0.8012989060636369,0,0.2544775021304042,0,0.8125034088918612,0,-0.4966051224226453,0],[0.6890477062168312,0,0.2532823667429245,0,-0.02363969659528653,0,-0.71080999483547,0],[-0.35343189406203823,0,-0.633844699334323,0,0.5675844935873393,0,0.7476578149770954,0],[0.3721158599556049,0,0.21269987707124738,0,-0.598674191202986,0,0.7144505393274061,0],[-0.7468085770708983,0,0.22996658373332868,0,0.7379923917145323,0,-0.6934245211994596,0],[0.6254739582906028,0,0.10677764161639813,0,-0.8661546708844388,0,-0.8680486557498603,0],[-0.38500598921155005,0,0.5489252442442796,0,0.06944228700458499,0,0.46707525556282103,0],[-0.0037769755054652965,0,0.46270672158472026,0,0.4458354030653837,0,-0.0009464858544776522,0],[-0.9211639090507737,0,0.5524632570997916,0,-0.6002441335588744,0,-0.3322985417167357,0],[-0.7215178006899314,0,-0.2015089033826305,0,-0.6871533929360132,0,0.645370682224947,0],[-0.26802515487635525,0,0.31489908024187785,0,-0.6236682521699413,0,-0.4433837826739626,0],[-0.915106562078539,0,0.6826875153528911,0,-0.378659123233277,0,-0.3332319374925401,0],[0.40966485483151605,0,-0.988472404639384,0,-0.0635672040211912,0,0.9579250330164177,0],[-0.8952285902603627,0,0.7044239704027675,0,0.2676925044001093,0,-0.23715707010727027,0],[0.5808108857747065,0,0.18264491771752978,0,0.9331035833696979,0,0.9416402095957879,0],[0.5567117320881863,0,0.6740091027442678,0,-0.21827504607401238,0,-0.5368006405450245,0],[0.86948455744595,0,-0.4241797800981044,0,-0.21046960560462602,0,-0.3074054667383055,0],[-0.15653039655530265,0,0.8744443115437155,0,0.6075968654052033,0,-0.31217119833206497,0],[0.47011790612490256,0,0.6367271092175972,0,0.5646556730353074,0,0.3736177731061432,0],[-0.08307858401805901,0,0.6841525582457211,0,-0.32515127996856186,0,-0.4130897765112509,0],[0.21418635022540933,0,-0.7811530729652023,0,-0.6871396587786116,0,0.6782879653671117,0],[0.360921785592353,0,-0.6087653574362994,0,0.3924233434887867,0,0.6053414665166506,0],[0.546193037966749,0,-0.41764293885297743,0,-0.8794743953504123,0,-0.7314291206296779,0],[-0.300131197342262,0,0.5195669839107058,0,-0.3015275507393973,0,0.2173142557533092,0],[0.16676784629205188,0,0.25251576029940925,0,0.702287330559002,0,0.7926592530472223,0],[-0.0592102519674389,0,0.48705223724885083,0,0.298761967409531,0,-0.7237538059880639,0],[-0.3993071231038008,0,0.8078568846554222,0,0.9397953145898206,0,-0.32167490790191033,0],[-0.14324053344487186,0,0.9163360467394659,0,0.7264882859504516,0,-0.5746187632711572,0],[0.44766737555970004,0,-0.8314933672892417,0,0.24578991029393094,0,-0.6029030663894046,0],[0.019464909153731558,0,0.41830190692219205,0,0.3563183440513402,0,-0.4856281518858905,0],[-0.42637573662244654,0,-0.5450651113398053,0,0.1363084427178236,0,0.39457475725512836,0],[-0.9112731413296764,0,0.16865697286915093,0,-0.9945343405197091,0,0.46715521256356585,0],[0.0004111017714669707,0,0.9874535436504899,0,0.8938341627535789,0,0.3821953240357301,0],[-0.6332068597696603,0,0.09792119137375588,0,-0.7453847555651334,0,0.5464354654723622,0],[0.7516475755663148,0,-0.5032256693830386,0,-0.29579997043285533,0,-0.8142398362180563,0],[0.1252138395429121,0,-0.9848679567226657,0,0.12150926865460421,0,-0.5399147438545111,0],[0.41257245012965016,0,0.11593907747981569,0,0.1500597648753017,0,0.8460383208081725,0],[-0.2878873041503536,0,0.48557811835931397,0,-0.7799931439134828,0,0.2547788006606162,0],[-0.33830774923206786,0,0.22393400942702146,0,0.4437389879211693,0,0.16675761374545583,0],[-0.05233360009973853,0,0.7828727251093799,0,-0.9625704985246113,0,0.4421683813729431,0],[0.5320440392329961,0,0.7113016756120529,0,0.2822784725882954,0,-0.5947046284171573,0],[0.8156040414234647,0,-0.2643184236287832,0,-0.5369945515547823,0,0.30291792613239,0],[0.6598852060846792,0,0.7380618478712353,0,0.7074825888229208,0,-0.6986179408034303,0],[-0.04145987969741749,0,-0.2105840829109824,0,-0.7997748140041376,0,0.813905042757533,0],[-0.7213777485682207,0,-0.4457448394958874,0,-0.14621498549204892,0,-0.8608696213692126,0],[-0.015047453639547292,0,-0.896796042045362,0,-0.8040795933965537,0,0.14390482891222844,0],[0.2157915175007421,0,-0.5465793549935278,0,-0.03325592039635672,0,-0.9622983350162051,0],[-0.9043810027403862,0,-0.9975467522147179,0,-0.28112080620382196,0,0.16306735446997345,0],[-0.3490959309283288,0,0.4293209138982905,0,-0.42501908351668627,0,0.16592277411114265,0],[-0.9626764190370636,0,0.6073163864935998,0,-0.7791899940884319,0,0.911501883192205,0],[0.8919675213182867,0,-0.3937734799347401,0,-0.8016277730638921,0,-0.9238345252853533,0],[0.8916467103247421,0,-0.042627631246629605,0,-0.3875336552618154,0,-0.527720373502544,0],[0.9284967279693599,0,-0.9869274844007374,0,-0.5246895923685395,0,0.8528012887089458,0],[-0.2933498488412898,0,-0.5471634288297293,0,-0.912254445083559,0,0.19416849847892514,0],[0.018826740275860177,0,-0.22820029486806725,0,-0.9081562763141966,0,0.27054347951025326,0],[-0.5207295059206742,0,-0.06738893788671696,0,0.12857356829575095,0,-0.2905887075816509,0],[0.06953948776534657,0,-0.729807231719519,0,0.3955087803878259,0,0.6579900113074446,0],[0.4962328773527229,0,0.20948894737082413,0,0.8233880705470662,0,0.6918606436456014,0],[0.06481790419222322,0,0.38952805912430755,0,-0.9233321513876052,0,0.6616786574194957,0],[-0.45870237009161574,0,-0.6171762993697476,0,0.1320331708268374,0,0.8007826609279092,0],[-0.6964616910845403,0,0.35734345104667775,0,0.8001636665084717,0,-0.39403267915981166,0],[-0.023347250467677938,0,-0.25102243552614345,0,0.22987738123915347,0,-0.24435757267466318,0],[-0.2980842345098036,0,-0.7043571588551139,0,0.17010398986906594,0,0.6440523394983466,0],[-0.7937359341706651,0,0.6298602242097333,0,-0.4360320578113803,0,-0.012817060227961141,0],[0.9195125869549032,0,-0.9651525409742328,0,-0.08941144152794989,0,-0.6045631888456038,0],[-0.47100386291458474,0,-0.06012880051927949,0,0.754033732504408,0,0.8101107032210977,0],[0.5664243966761291,0,-0.7361928842693792,0,0.6451911233289065,0,0.2651614273394529,0],[0.8893159541353204,0,0.8115577669174019,0,-0.028850780717253555,0,0.562700576792571,0],[0.24945491261030894,0,0.5861832544843446,0,0.1580086507872609,0,-0.8598889119458939,0],[0.5333923662559328,0,-0.899698722366935,0,0.9268721780666038,0,-0.34136841725472156,0],[0.7150927760598982,0,0.5535166856931084,0,-0.48090963667455977,0,-0.342291628977208,0],[-0.9215966531060964,0,0.08834447258817124,0,-0.8943326746145472,0,-0.0036332027474024198,0],[-0.15289728962960947,0,-0.7547077297832931,0,-0.04294044745122738,0,0.7423080063894345,0],[-0.9971361496645674,0,-0.7915281003370005,0,0.3734289966052182,0,0.6713899129713115,0],[-0.22345693595320992,0,-0.5336866411658772,0,0.8617396172318104,0,-0.39539646504162684,0],[0.06578663044642008,0,0.10765619937879456,0,0.5949143703613613,0,0.4366105940059737,0],[-0.13797694808378558,0,-0.8683017927750432,0,-0.20040176950832778,0,0.8993593918954279,0],[0.6624886980850377,0,-0.12901717495792275,0,-0.6070990463295036,0,-0.1437488612479707,0],[0.7980113762861674,0,-0.09018907893448946,0,-0.07517916438305527,0,-0.7632195864430185,0],[0.6248554753905669,0,-0.2738346168928365,0,-0.31812030511696276,0,0.598527301377056,0],[-0.3909905625829637,0,0.6934395230912107,0,0.6688266444804416,0,0.7428320242630917,0],[-0.5261241847111278,0,0.048964532060579824,0,-0.8909030233637283,0,-0.18756449569869993,0],[-0.21259908043352782,0,0.9695335328113905,0,0.09103987287986182,0,-0.1361773314511583,0],[0.6322598997148776,0,0.9898225809189358,0,0.03575782454584564,0,0.03395883050087689,0],[-0.6672088145583668,0,-0.3421862449637594,0,-0.2262722672942452,0,0.11056158179716613,0],[0.6049524547355083,0,0.542026204103299,0,-0.8087976530013332,0,-0.43299512263900475,0],[-0.04935222642137327,0,-0.5114335258131488,0,-0.35628117574833373,0,-0.06259559643948553,0],[0.6353543838582387,0,0.37171050156640484,0,0.632868859372306,0,0.7843869221294233,0],[-0.8319443151951298,0,-0.5100651749460339,0,0.6038137912925778,0,-0.5485013017055305,0],[0.8450644083425203,0,0.23001570334865318,0,0.1448551865032619,0,0.2941622108544526,0],[-0.3756008751672617,0,0.6550196412844953,0,-0.6432993545498615,0,0.14754249875829184,0],[-0.6350458414740654,0,0.2677104179914769,0,-0.2921086267882522,0,-0.5833614026598426,0],[0.29478259937867035,0,0.35910259696489355,0,0.304187769860212,0,0.3633676536834427,0],[-0.5346115311048802,0,-0.9274074697310561,0,-0.8264641519516651,0,-0.0826368497118839,0],[0.9040038484199759,0,-0.402696549157872,0,-0.09543342347243944,0,-0.3483385921105564,0],[0.19340388877964299,0,-0.2500186056535678,0,0.7754078081341076,0,0.44140426808277167,0],[-0.7111090651617802,0,-0.3870149718847866,0,-0.6290833067272583,0,-0.23686237608090543,0],[0.5246575935325399,0,0.8666130387748507,0,0.6102683619979898,0,-0.4057594829417517,0],[-0.033184011037410865,0,0.9872171085881023,0,0.09316587817345723,0,0.43647090945963507,0],[-0.46204072405798136,0,-0.4217485219137169,0,-0.27823753187400335,0,0.11456831384908761,0],[0.6681985650120565,0,0.7596128412157479,0,0.666717611911233,0,0.6903062666159281,0],[-0.37980142473292,0,0.7613280709169399,0,-0.08036518292631989,0,-0.9156589730872124,0],[0.09081029138587349,0,-0.349150475613615,0,0.9104581337919964,0,0.8126557540640686,0],[0.20948066834503543,0,0.46892188531285117,0,-0.03276823063767087,0,-0.3786478606327448,0],[0.6336941433302372,0,-0.04281347739434738,0,0.7569562741827838,0,0.742996044750198,0],[0.08428202882070956,0,0.531393353870891,0,0.2701017966556174,0,-0.0003252944956573245,0],[0.368510422262021,0,-0.8127072301267837,0,0.39766795344127015,0,-0.9576217639475253,0],[0.7064395600905948,0,-0.3780164017747245,0,0.6985072983964777,0,0.6432697878260627,0],[-0.9938783473096802,0,-0.9883038315184831,0,0.5659580891327471,0,-0.8531371138998487,0],[-0.37421496649405794,0,0.6076922866774168,0,0.6766597496625788,0,-0.06192346090166789,0],[-0.8837702523846,0,-0.4048321449320571,0,0.3407524521634926,0,0.09959307858034228,0],[-0.5457625139149154,0,0.5057461511595347,0,-0.8285087836670426,0,0.30789588611193475,0],[0.3578771616074907,0,-0.11764667027432862,0,0.3536317218868392,0,-0.5431827172676236,0],[0.4171662692382063,0,-0.1340290471759027,0,0.7137744168415971,0,0.49938097138387505,0],[0.9786246224857817,0,0.9069631666847326,0,-0.21781922745079085,0,0.5631750343777386,0],[0.9898371196327878,0,0.8993792161645935,0,0.08440402388380086,0,0.5214462945876532,0],[-0.6597814235896218,0,-0.30516414628849375,0,0.012404979196417809,0,0.8915580540516785,0],[-0.3732464884307394,0,0.17328614843067625,0,0.7986512810430182,0,0.18440854603285728,0],[0.7285599985344227,0,-0.1688147447792112,0,0.35302662011100217,0,0.642858621090437,0],[-0.9082936078479882,0,0.19326667519078655,0,-0.9787948209530573,0,0.6841712080930564,0],[-0.7942125194882814,0,-0.7376550070711017,0,-0.31552643376777256,0,-0.6990814501029339,0],[-0.6036561119269941,0,0.6922654872646612,0,-0.9551880761061713,0,-0.8232345152312841,0],[0.7622876030127335,0,0.4023224923616988,0,0.42537284289120914,0,0.3379906319432775,0],[-0.1449253037592193,0,0.9471731043846332,0,0.965325777645071,0,0.7885606336619142,0],[0.5264436120968405,0,0.1144750039471667,0,-0.3006381347395872,0,0.7660253085850057,0],[-0.7358837148639128,0,0.9431801935348392,0,-0.31401662334597247,0,-0.992544827235178,0],[-0.7100631469936813,0,-0.36137951888316344,0,-0.9149710655278331,0,0.7290951684060245,0],[-0.28749827656494586,0,-0.29377734441107517,0,0.8837142056957767,0,-0.09963747192296224,0],[-0.8935882432874511,0,-0.9661048377902484,0,0.8317967643809312,0,0.8322693338127216,0],[0.03285657570553746,0,-0.37616970065935673,0,0.07029979470378356,0,0.10230275836651481,0],[0.2213179536114145,0,-0.7923291272862965,0,0.924560491813504,0,-0.5977490584580185,0],[-0.6002410484393657,0,0.07469079698407932,0,-0.6188061155555054,0,-0.9775866282537893,0],[0.0907414272854381,0,-0.8991554348103554,0,-0.12010661106105314,0,0.37508952848554244,0],[0.08349517625514369,0,0.18724255970175463,0,-0.7751835294374574,0,0.21219171974737927,0],[-0.25296235802027445,0,0.09981205543160931,0,0.656631924317505,0,-0.9937186960246438,0],[0.8670232899404438,0,-0.95239199610007,0,0.4251336892055171,0,-0.6587188956068688,0],[-0.7309213389826181,0,0.245439202364929,0,-0.43634608719905543,0,-0.9014307161539068,0],[-0.8660428137097231,0,0.1771804444180105,0,0.9903366175737567,0,0.726113426679885,0],[0.6149273239119197,0,-0.6906575246660871,0,0.5476609091052653,0,-0.05724333024932848,0],[0.1353836424163919,0,-0.39982348261496004,0,0.14043093770295645,0,0.8567208546970435,0],[0.5747504845011624,0,0.3077915751364946,0,-0.2562216084868847,0,-0.33315516190265626,0],[0.4433249464784117,0,-0.6785328246649034,0,0.7265504921215635,0,-0.13297118174812006,0],[-0.8982159946688661,0,-0.4764533067930503,0,-0.32821426010694954,0,0.1888094561946725,0],[-0.9013404611803562,0,0.5349992913650299,0,-0.325193245803441,0,0.39394297214273566,0],[0.7791620619574013,0,-0.39405723762020495,0,0.9607883773012369,0,-0.5316733884864315,0],[0.4613130899111426,0,-0.6168792191641037,0,0.5874870480945078,0,-0.22945731173274275,0],[-0.31957671152041,0,0.8195335071533958,0,-0.014854773257851894,0,-0.7472384671204322,0],[-0.7294673753491652,0,0.587121441314306,0,-0.8655860564971796,0,-0.001306534610964194,0],[0.38150594544750493,0,0.011607184950392924,0,-0.705536967210014,0,-0.9872671525130339,0],[0.9230561908058232,0,0.7693019573190465,0,0.36727810869514843,0,0.4463906230342769,0],[0.38204519279754456,0,-0.6311128309798142,0,0.22047092316480188,0,-0.7374358670158776,0],[0.47699048742958694,0,-0.21311576085533135,0,-0.4102425207804672,0,0.7151472494871556,0],[-0.30621575337351103,0,-0.4662703927927103,0,-0.4564125992850263,0,-0.03906409776335584,0],[0.3892089659433484,0,0.8980742459263769,0,0.9162350108920623,0,-0.377261780987485,0],[-0.14608751243981488,0,0.150130457864611,0,0.6019918444989922,0,0.1870503015584073,0],[-0.5059169865715725,0,-0.9194083307880321,0,0.15192741243866648,0,0.7466135611989528,0],[-0.8788570597258569,0,-0.5901451923122791,0,-0.2739861719946952,0,-0.21237915954673836,0],[0.23135862651072236,0,-0.6770231625563825,0,-0.8727622327822677,0,-0.5267070769548539,0],[-0.8876588064542319,0,0.6690006982433592,0,-0.6193481287328335,0,0.18999989559336616,0],[-0.3690088593193481,0,-0.7910105290650051,0,-0.8808558139535738,0,0.9990541831650408,0],[0.6375189403544606,0,0.7053098146252845,0,-0.10096490117597279,0,0.07675656039674972,0],[0.06275025951692803,0,0.6154098414616047,0,-0.5075631805818748,0,-0.7727716091315684,0],[0.9910039540895705,0,0.6865381719815387,0,0.18963937558291644,0,0.11701691237778511,0],[0.2584083509888455,0,-0.1564434958861618,0,0.19361657812789845,0,-0.9925862234318277,0],[-0.5434004239256915,0,-0.579801636415304,0,0.3000708709907145,0,-0.5501202982331517,0],[-0.3856758490026724,0,0.004831885687529791,0,-0.7697330481797182,0,0.6619212297879626,0],[0.2845457241806959,0,0.9549868489158735,0,-0.7797702588421398,0,-0.8847804217236657,0],[-0.7177656206065819,0,-0.01939110111629705,0,0.7687121999704856,0,0.24476329086737247,0],[0.898094482842497,0,-0.8957919310485103,0,-0.19233414883573863,0,0.12719063599188196,0],[0.0560660791867158,0,0.7767706861561667,0,-0.017225756413567384,0,-0.521499650960924,0],[-0.4124879690785286,0,-0.03849201204496078,0,-0.7820601916667516,0,0.3857426167833997,0],[-0.4374183075558842,0,0.5932164985658726,0,-0.7135596450489703,0,-0.18574487560052289,0],[-0.5506798087486884,0,-0.02076985463610681,0,-0.27719902461541013,0,-0.8785377309073223,0],[-0.23633009289122353,0,0.428645500556309,0,-0.9167449683254827,0,-0.4397911268720409,0],[-0.17141041816798053,0,-0.32029421110672884,0,-0.7010043998580338,0,0.06905242600960171,0],[0.2780942137338702,0,0.5409318189332293,0,0.6652473924170785,0,-0.47610848893696867,0],[-0.9779030180531674,0,-0.4302085444305428,0,-0.12948289676505187,0,-0.9352388346167004,0],[-0.46948754031922446,0,0.5834024630502144,0,-0.60579229593103,0,-0.8864217543755866,0],[0.5001595637267107,0,-0.6710340854588877,0,-0.4128883246279651,0,0.2630741374208776,0],[0.23557875863098143,0,0.7373315983961424,0,0.7981246906727419,0,-0.655895044107182,0],[-0.5950416210829284,0,-0.15870080236917405,0,0.02185073388648351,0,-0.3320186652646875,0],[0.22494147509503892,0,-0.3390375421406451,0,0.7155967123341651,0,-0.3075847464368229,0],[0.5831634682497266,0,0.14160630202801183,0,-0.3294163267464574,0,-0.8258679093502688,0],[0.1249488354829249,0,-0.4246291950017278,0,-0.878970984250599,0,0.2481513006703,0],[-0.08932673370323307,0,-0.15390208144373907,0,-0.3639172277947891,0,0.81319028107422,0],[-0.10712460631916776,0,-0.6925188111102412,0,-0.236570615364192,0,-0.8953988173077396,0],[-0.8327189284592986,0,0.1378406358058064,0,-0.12030691880647759,0,-0.5992982276734649,0],[0.7194810368092044,0,0.6105492045304171,0,0.25161541987404235,0,-0.5646847443427974,0],[-0.7809198034448426,0,0.8773393162909193,0,0.923299555159832,0,0.2787877442417517,0],[-0.6942839279685877,0,-0.4175779138531204,0,-0.28135504191501504,0,-0.7982961960771269,0],[0.7664213875943053,0,-0.09144591997826845,0,0.3844243894715538,0,-0.6500249780286134,0],[0.02138379696582904,0,-0.4981097933596579,0,-0.3017171862543344,0,0.9369286805743027,0],[0.4152343520027384,0,-0.8693357808787265,0,0.2272662726408603,0,-0.902522939281805,0],[0.9535739604602509,0,-0.09655850240297226,0,0.346316351945515,0,-0.44859847957131094,0],[0.3295257757499117,0,0.4058917619992828,0,-0.8875050243772049,0,0.7872374469640755,0],[0.35267888881044707,0,-0.7892675491254131,0,0.6395316910791282,0,0.605200795261553,0],[0.22286714471583258,0,0.8736972342309948,0,0.7286130658131096,0,-0.45295137833587273,0],[0.48380552026901635,0,0.7490864495974257,0,-0.31483583983604135,0,-0.007279713657945885,0],[0.9466836940496577,0,-0.25834033589978445,0,-0.512302564613619,0,-0.48194167028577484,0],[0.39139510802517097,0,0.457333879332509,0,0.7736344971547395,0,0.48486152701360385,0],[-0.5668418580454038,0,-0.876646009097507,0,-0.5316664503181914,0,0.7739761286361273,0],[-0.41513647842276,0,-0.8806951582155633,0,0.3073836231815088,0,-0.9259171350865318,0],[-0.7494391250525121,0,-0.0064621207357919985,0,0.9885542261087386,0,0.2032929823281231,0],[-0.8469252737576201,0,0.43528813201979566,0,0.2386187754840614,0,-0.4323829441824356,0],[-0.4711805488150951,0,0.8309606356374046,0,-0.3084040762148843,0,-0.9501746063432763,0],[-0.6845405382455501,0,0.7537682999373869,0,-0.8512166577686189,0,-0.6258292609412779,0],[-0.4868599127180493,0,-0.9808933376401483,0,-0.4727149452645063,0,0.30689789149894886,0],[0.9175923106421497,0,0.7837536374304666,0,-0.39743760776266446,0,-0.0705823381988695,0],[0.5034928776285126,0,-0.42481389926332636,0,-0.4881336121090334,0,-0.33952462928580474,0],[0.8790388346116698,0,0.10800743349823705,0,-0.09076263965172404,0,0.7055982719623386,0],[-0.5622255601907347,0,0.2776846962016919,0,0.6490866080606161,0,0.17655807247511413,0],[0.10128610373640257,0,-0.1825049443693323,0,0.9242014791824704,0,-0.7494614843589857,0],[0.8764591539868978,0,0.7627864757879679,0,-0.10465482437735374,0,-0.5718480299648101,0],[0.843568520195382,0,-0.912640546956377,0,-0.9765509247296915,0,0.2013997286849265,0],[0.646552913372272,0,-0.34002002543533494,0,0.5517249381571891,0,0.25712682582180557,0],[-0.9255982601776398,0,0.014737267559344014,0,0.88385090142049,0,0.7184727413794185,0],[0.9026601811119619,0,0.3371624804382336,0,0.9657152805188853,0,0.8662741931941613,0],[-0.19336294485681926,0,-0.46127147976170657,0,0.20202801241352852,0,0.2843283988152263,0],[0.8629787624551997,0,0.3255531978878061,0,-0.07455989934154994,0,0.43687847812102554,0],[-0.0761511803540551,0,-0.23716807455304112,0,0.9846370860046763,0,-0.6863632036479606,0],[-0.021966808161195894,0,-0.0052711387403470145,0,-0.3707967960237688,0,0.9671128721816884,0],[-0.49413273793953283,0,0.5001585769502057,0,0.5428789065760671,0,-0.4810315390832185,0],[0.789960175176641,0,0.5480936667660652,0,-0.38683643257025446,0,0.5265731678369652,0],[-0.8387304762887442,0,0.3617364600441282,0,-0.1759565054345391,0,-0.522111250627112,0],[-0.7598419550253639,0,-0.09090346772713076,0,-0.48004718714154104,0,-0.3777382110857388,0],[-0.6253588961922583,0,-0.791781599792462,0,-0.7870965649013828,0,-0.6533406049458659,0],[0.6831134152381511,0,-0.4314923416709282,0,-0.908952048304597,0,0.8713342574920062,0],[0.3764201136023173,0,-0.7146943808340238,0,0.4357685164236549,0,-0.8341413325856186,0],[0.36421650205442013,0,-0.036932674982968594,0,0.2657110401743217,0,0.6759213689006232,0],[-0.45686247734229,0,0.8631996429568398,0,-0.29998577004778215,0,-0.2967671907118996,0],[-0.38062133065410886,0,0.4558193004080082,0,0.7693092691379353,0,0.0953383572521822,0],[-0.1641352300258727,0,0.7003953140347945,0,-0.29810411349985855,0,-0.720908188862716,0],[-0.4457358127821909,0,0.48844103524226945,0,-0.9261732747753373,0,0.6109949639658385,0],[-0.7153175254393376,0,0.15212671323290872,0,0.6354617797009494,0,0.519561486425028,0],[0.4609482871809283,0,0.9758839285894298,0,-0.8866182203269348,0,0.9793176768000427,0],[0.02698178211417268,0,0.2437792651593247,0,0.8353775237139023,0,-0.5169957630608533,0],[-0.2701848442984178,0,-0.48636495065333296,0,-0.36243864357748756,0,-0.13200252928666267,0],[-0.09258855835981317,0,-0.47042012245161646,0,0.18647346138032495,0,0.10492155999086483,0],[-0.48549272019225564,0,-0.5320859993381601,0,-0.4146147540122067,0,-0.5291248921737319,0],[0.14728264041737216,0,-0.9431219545806881,0,-0.06717092700955618,0,-0.593349417996178,0],[-0.0922610929651988,0,-0.4808835537503995,0,-0.6372871358244194,0,-0.20322343215299377,0],[-0.9087553535633646,0,-0.7436696780956462,0,-0.9807948655749568,0,-0.5868334173663328,0],[-0.11421319332215174,0,0.7288174343445668,0,0.40590471314964094,0,-0.17238851420292578,0],[0.5390432122105826,0,0.078300445849522,0,-0.40236228125305384,0,0.22530503072985963,0],[0.7794696790239184,0,0.7006467088118953,0,-0.08544844513968952,0,0.2410463190335821,0],[-0.32982543443300827,0,0.19578796018352773,0,0.832005371151918,0,-0.8082854848653371,0],[-0.47057022794001413,0,0.9053485918163622,0,0.1360828837928696,0,0.8930656717473353,0],[0.06924755226963408,0,-0.40580249315006633,0,0.633382612580841,0,-0.3741458934678874,0],[-0.5164714559315282,0,-0.25966114891229464,0,0.08506852861420522,0,0.7557334840320549,0],[-0.14013397407679973,0,0.36826164719925214,0,-0.5410079295217631,0,-0.9866531537336702,0],[0.9941690822399074,0,0.3940714193054009,0,0.08002462694568613,0,0.5054669921634312,0],[-0.5451555178606602,0,-0.9535708596837069,0,0.8075677512490507,0,-0.8449977126056494,0],[0.5733578458713782,0,-0.9144731429000141,0,-0.01946301672222539,0,0.45713604635176397,0],[-0.06943101228291249,0,0.2630320199178007,0,-0.45605820239773776,0,-0.8091794263456129,0],[-0.1366817494346888,0,-0.25086437909080783,0,0.5075146486785485,0,-0.9606999779453456,0],[-0.46668376209808815,0,0.09854302976665408,0,-0.3143324417423792,0,0.9502901322485022,0],[0.18046822986355582,0,-0.26455180890121843,0,-0.47061453428704936,0,-0.4941053422062389,0],[0.32534322461033316,0,-0.09176331626813061,0,-0.21550879110406163,0,0.5742924048937694,0],[0.8905748718766011,0,-0.4021351019310744,0,-0.30295303143208896,0,-0.9203178268508228,0],[-0.5214402324609373,0,-0.040433908414041264,0,0.5354844985095013,0,0.8539248138723898,0],[0.37289801402314504,0,0.5357379338896942,0,0.3103840986780917,0,-0.7772239687000375,0],[0.22359646555141222,0,0.69856799710502,0,-0.2533487376356156,0,-0.7684442399361333,0],[0.8311360275503075,0,-0.43584225356342987,0,0.7991674089694605,0,0.22955368488322403,0],[-0.037919158199430036,0,-0.03439136850088542,0,0.3018197839929122,0,0.9094231924164151,0],[0.708985302420672,0,0.980736378075354,0,-0.2988569170949993,0,-0.1627306003028186,0],[-0.4500659835349261,0,0.9807832310696505,0,-0.7503659502406024,0,-0.9889101545138639,0],[0.9681268877538682,0,-0.8002990557548215,0,-0.47987175226534307,0,0.04967988407299906,0],[0.2595001292131134,0,0.419280734336569,0,0.651456052923213,0,0.24106732525106045,0],[-0.013547739655126456,0,0.523608398378685,0,0.34692354888376364,0,0.8689949823535947,0],[-0.5716783649674642,0,0.3970274761075254,0,-0.6790083307983177,0,0.987921648090271,0],[0.3343410058944942,0,-0.07700455093966774,0,-0.37414450369342367,0,0.13146626461233546,0],[0.30237220380486507,0,0.6869212596214112,0,-0.9115470984932221,0,-0.6838273335450471,0],[-0.8131976890315993,0,-0.6057244641788859,0,-0.050238630696984865,0,-0.8580746014792,0],[0.08156054097530818,0,-0.014031195325453938,0,-0.27793174410110777,0,0.792300150034351,0],[0.6292938698840389,0,0.9661947774185355,0,-0.7337711222991392,0,0.3025858656554197,0],[0.6753168149935744,0,-0.44636063152780414,0,-0.8602451638067905,0,0.5901684940074874,0],[0.6150294041872171,0,-0.07483918934311085,0,0.37790311258176734,0,-0.5685808518070492,0],[-0.8239250060236833,0,-0.9582539381012098,0,0.043763755349175426,0,0.8211831957126483,0],[-0.16841149677417877,0,0.3297556438351372,0,-0.8803261959827997,0,-0.03458073879101886,0],[-0.44153717803049375,0,0.8361686265249717,0,0.6111116017124019,0,0.5344910266220106,0],[0.23464014739522954,0,-0.6152542276748156,0,-0.904445609187458,0,0.7440669502445161,0],[-0.3879875458605093,0,-0.2692709390655985,0,-0.6273891751617922,0,0.332536787633674,0],[-0.49340636253596104,0,-0.2550982616497046,0,-0.641933558733887,0,-0.4316930623834736,0],[-0.38479563956044927,0,-0.7464666300498697,0,0.9133110190069071,0,0.047289006702146974,0],[0.19798815744422593,0,-0.6810599304579443,0,-0.08705881673890681,0,-0.7696497029032707,0],[-0.2413438687272813,0,0.46609140648875,0,-0.47283610534575504,0,0.4224469452789108,0],[0.8094345901062259,0,0.6438993462119553,0,0.4319509227378693,0,-0.790385687745643,0],[-0.17473005791291363,0,-0.44447226310457344,0,0.4587245863793439,0,0.24694179412474782,0],[0.57192118513208,0,0.4002636746426993,0,0.056683077440272456,0,0.7301128666626628,0],[-0.864849942895378,0,-0.9598043365992008,0,0.864700999968794,0,0.885043992831787,0],[0.18329629667578762,0,0.13814568886435774,0,0.6760689046286532,0,-0.6253908598803644,0],[-0.7368963924209158,0,-0.09099282935992181,0,-0.8718347968950819,0,0.6483898367390157,0],[-0.7412596583330293,0,-0.21515855075037504,0,0.5604796049497758,0,-0.04915605779526655,0],[0.5365367847432747,0,0.514791212997386,0,-0.34176237657631003,0,-0.04476067951963025,0],[-0.24696077294848484,0,0.004070090550198691,0,-0.26479777611681343,0,0.8051513828162999,0],[-0.17844110692032822,0,0.5419925881750338,0,0.808057775468275,0,0.7222778305061879,0],[-0.887527634119228,0,-0.022789635808868614,0,0.9761084650877121,0,-0.7212251317152316,0],[-0.39489265715215804,0,0.8690244843030306,0,0.04385360640701741,0,-0.06572527639808956,0],[-0.585872633469791,0,-0.32315302785135236,0,0.8103274512597529,0,0.5021957932585703,0],[0.8809051185318413,0,0.6455866032618085,0,0.9979218856608183,0,-0.1630897436446057,0],[-0.7495461257908327,0,0.20293885212944152,0,-0.5952631269696278,0,0.22278748482418043,0],[0.8470640256584197,0,-0.5947383653909188,0,-0.4616676905459842,0,-0.3019156056649539,0],[-0.3831307698121056,0,0.251921998452564,0,0.7250831889838154,0,0.861106724353728,0],[0.9231461020154272,0,0.5337026533360671,0,0.4881674921139729,0,0.5830193980638176,0],[-0.43977158699764485,0,-0.7109406491190586,0,0.8485448255861445,0,0.49113553765205875,0],[-0.9055047410751411,0,0.9127238135126448,0,-0.8728879335235531,0,-0.9115310752102752,0],[-0.1540291772451432,0,0.49435041030944094,0,0.8125498596704837,0,0.9397857130071301,0],[-0.9083481186733582,0,0.060606717331576965,0,0.10820251387898083,0,0.4813460050739289,0],[-0.5982439997580391,0,-0.9476873483794672,0,0.8826613723083421,0,-0.2990217242203752,0],[-0.5873366685038857,0,0.5889350849311092,0,0.9225506331750071,0,0.18708240967962397,0],[-0.2045984576177,0,-0.14405217525186775,0,-0.37765781976907187,0,0.8596111688972068,0],[-0.3038978834241788,0,0.2962708346629812,0,-0.4551464939527152,0,-0.9269677424789087,0],[-0.49506506685326546,0,-0.8047949198497772,0,-0.3525871362131816,0,0.7207265781277674,0],[0.4526045902387683,0,0.7189824557492925,0,0.39250160145465474,0,0.47223156059229376,0],[0.23857229814372993,0,-0.49974627339121436,0,0.44801359060584134,0,0.33919116639824076,0],[0.6627427682276299,0,-0.5404598609990658,0,-0.7689015721662982,0,-0.6071726536040813,0],[0.0624363534053578,0,0.7098781387029165,0,-0.8391157350968579,0,-0.35479828598421737,0],[0.2490417853603406,0,0.11258868165147451,0,0.15920362920904685,0,0.8584876514608899,0],[0.5938262436024107,0,0.33530715993766136,0,0.6747738741223273,0,0.3609281028545501,0],[0.9299548435896683,0,0.10911151439212463,0,0.3051121738746385,0,0.8251057433471911,0],[0.017851346518939604,0,0.7897906827872248,0,0.9517926538808157,0,-0.596393366896812,0],[-0.5363906142987438,0,-0.7010022839721421,0,0.3684822023520189,0,-0.3808892263031427,0],[0.18524211154373793,0,-0.945764591091623,0,-0.052481207717516964,0,0.9703962215838746,0],[-0.21086438591916656,0,0.5923252297298571,0,-0.3603757422062588,0,0.34269740016611006,0],[0.5491501133172034,0,0.24921343935818596,0,-0.9873270183636522,0,0.0003095016625522806,0],[-0.9266089257660803,0,0.47967213140320686,0,0.629263675776369,0,-0.8087133456967,0],[0.19874980714581914,0,-0.8163454493175069,0,0.15917231512895857,0,0.2085316866855802,0],[-0.8291073241915365,0,-0.24823111897706407,0,0.9415895570058115,0,-0.8714689150540509,0],[-0.25254566876454265,0,0.45053629844757914,0,-0.9266230592026334,0,0.388439917317013,0],[-0.49523014409742094,0,-0.7611963392229262,0,0.5234019955712972,0,0.8641760220678827,0],[-0.6664413976850327,0,0.1398830574011718,0,0.2593415216933035,0,-0.8233651926776713,0],[-0.12344984690030758,0,-0.11030604561276114,0,0.922170822357965,0,-0.41991008385605744,0],[-0.5088787996649358,0,0.7393877375038986,0,-0.8051161433969951,0,0.9762976681320317,0],[0.2125907032981671,0,-0.9883641096998619,0,-0.31418224022820507,0,0.3497762983178383,0],[0.14889806529656102,0,-0.7070324318606047,0,0.8832838278003898,0,0.23418505222514674,0],[0.7549675963299733,0,0.9902448458472053,0,-0.4629654529677192,0,-0.30332062233252044,0],[-0.48485923150833754,0,-0.6124328317964711,0,0.683424240436491,0,-0.23342615765370867,0],[0.7046356358599937,0,-0.6894006731959272,0,0.4549500795759789,0,-0.7634038364199474,0],[-0.8939289449909835,0,0.03852126295642622,0,-0.198813116044378,0,-0.6705313690955288,0],[-0.17532864946864035,0,-0.8004997067562412,0,-0.7030415785282416,0,-0.1504921999165636,0],[-0.3241548202545348,0,-0.956210613830742,0,0.3249157824725257,0,-0.8716153685315571,0],[0.011411217703129806,0,0.7092593617255827,0,0.09352054067579418,0,-0.673857998231578,0],[-0.6941804301375862,0,0.8773749433506284,0,-0.8122394676326798,0,-0.5369817905664978,0],[0.3412982606700865,0,0.5633274139637536,0,0.648752087963121,0,0.9345796208750381,0],[-0.5890691856108803,0,-0.3077582356539392,0,0.9397119175498969,0,0.20211742440834968,0],[-0.39875118320181246,0,-0.41592344972067274,0,-0.42039006474665763,0,0.8522176077064765,0],[0.9210028401141692,0,0.5030399995547927,0,-0.2878579102970149,0,0.2838655505654031,0],[0.8103523543433897,0,-0.9769518154218209,0,0.4264898388707954,0,0.9084008724032793,0],[-0.6052073497591315,0,0.11895396651672918,0,-0.7423371400387968,0,-0.06291046463046368,0],[0.740717074160534,0,-0.3860209282307243,0,-0.031952488676909585,0,-0.41696428742736824,0],[0.3245883343140079,0,-0.10301526011308337,0,0.4481131525389319,0,0.8186063480274492,0],[-0.05472676470314397,0,-0.3310815035004333,0,0.3730561376905799,0,0.706497150892651,0],[0.3891712176320461,0,0.8859798680329729,0,0.11348921146781432,0,-0.23798059840993102,0],[-0.6996528954104193,0,-0.9622516007813813,0,-0.6778876033067427,0,-0.1938574955401935,0],[0.9129546814604357,0,0.4317224877321968,0,-0.3953703310608392,0,0.33327768712580164,0],[-0.42918218801112196,0,0.2514196833504754,0,0.7320035009870016,0,0.5447442601562622,0],[0.28911219281239364,0,-0.18660752647647483,0,-0.03753214058199128,0,0.8883102062283847,0],[-0.9943300031755276,0,0.6692166434986344,0,-0.7844519530874381,0,0.19615423507856788,0],[0.6245074774441888,0,0.9817125041386763,0,-0.9233358414236315,0,0.3280479677481327,0],[0.47175397539422104,0,-0.04963764386972014,0,-0.09027709487286173,0,-0.39648863385241095,0],[0.3642382572441605,0,0.9690907735968135,0,0.7164306269042788,0,-0.7538537904838694,0],[0.13356695584288514,0,-0.3297228634215712,0,-0.1951112513731419,0,-0.43469329763464537,0],[-0.8463924265526921,0,-0.957926487490872,0,-0.18363951627354314,0,0.6647193940722294,0],[0.1868668965989564,0,0.40180312732554935,0,-0.7920733268925806,0,0.09461643882142923,0],[-0.30466640468597683,0,0.16641947931135204,0,0.9000752130238152,0,-0.9465987333626285,0],[0.6539319531924803,0,0.08170698729685832,0,0.47209869988629816,0,-0.503182942347193,0],[-0.14018819840564545,0,0.8551093038485358,0,-0.9754988735669479,0,0.8270428372654812,0]],"vb_b":[[0,0,0,0,0,0,1,0],[0,0,0,0,0,0,1,0],[0,0,0,0,0,0,1,0],[0,0,0,0,0,0,1,0],[0,0,0,0,0,0,1,0],[0,0,0,0,0,0,1,0],[0,0,0,0,0,0,1,0],[0,0,0,0,0,0,1,0],[0,0,0,0,0,0,1,0],[0,0,0,0,0,0,1,0],[0,0,0,0,0,0,1,0],[0,0,0,0,0,0,1,0],[0,0,0,0,0,0,1,0],[0,0,0,0,0,0,1,0],[0,0,0,0,0,0,1,0],[0,0,0,0,0,0,1,0],[0,0,0,0,0,0,1,0],[0,0,0,0,0,0,1,0],[0,0,0,0,0,0,1,0],[0,0,0,0,0,0,1,0],[0,0,0,0,0,0,1,0],[0,0,0,0,0,0,1,0],[0,0,0,0,0,0,1,0],[0,0,0,0,0,0,1,0],[0,0,0,0,0,0,1,0],[0,0,0,0,0,0,1,0],[0,0,0,0,0,0,1,0],[0,0,0,0,0,0,1,0],[0,0,0,0,0,0,1,0],[0,0,0,0,0,0,1,0],[0,0,0,0,0,0,1,0],[0,0,0,0,0,0,1,0],[0,0,0,0,0,0,1,0],[0,0,0,0,0,0,1,0],[0,0,0,0,0,0,1,0],[0,0,0,0,0,0,1,0],[0,0,0,0,0,0,1,0],[0,0,0,0,0,0,1,0],[0,0,0,0,0,0,1,0],[0,0,0,0,0,0,1,0],[0,0,0,0,0,0,1,0],[0,0,0,0,0,0,1,0],[0,0,0,0,0,0,1,0],[0,0,0,0,0,0,1,0],[0,0,0,0,0,0,1,0],[0,0,0,0,0,0,1,0],[0,0,0,0,0,0,1,0],[0,0,0,0,0,0,1,0],[0,0,0,0,0,0,1,0],[0,0,0,0,0,0,1,0],[0,0,0,0,0,0,1,0],[0,0,0,0,0,0,1,0],[0,0,0,0,0,0,1,0],[0,0,0,0,0,0,1,0],[0,0,0,0,0,0,1,0],[0,0,0,0,0,0,1,0],[0,0,0,0,0,0,1,0],[0,0,0,0,0,0,1,0],[0,0,0,0,0,0,1,0],[0,0,0,0,0,0,1,0],[0,0,0,0,0,0,1,0],[0,0,0,0,0,0,