parameters : {"minimum_performance":-1,"block_timeout":5000,"response_timeout":1000,"task_kappa":0,"task_stimuli":0,"task_component":0,"task_feature":0,"task_sign":-1,"task_weights":[-1,0,0,0,0,0,0,0]}
edata : {"exp_subject":"sY7ic84DZGoh","exp_sex":"female","exp_age":"31-40","exp_task":"jan/131004_primate1","exp_starttime":1381408600938,"exp_finishtime":1381411299998}
numbers : {"stimuli":2,"components":2,"features":2,"weights":8,"blocks":40,"trials":25,"indices":1000}
sdata : {"vb_index":[1,2,3,4,5,6,7,8,9,10,11,12,13,14,15,16,17,18,19,20,21,22,23,24,25,26,27,28,29,30,31,32,33,34,35,36,37,38,39,40,41,42,43,44,45,46,47,48,49,50,51,52,53,54,55,56,57,58,59,60,61,62,63,64,65,66,67,68,69,70,71,72,73,74,75,76,77,78,79,80,81,82,83,84,85,86,87,88,89,90,91,92,93,94,95,96,97,98,99,100,101,102,103,104,105,106,107,108,109,110,111,112,113,114,115,116,117,118,119,120,121,122,123,124,125,126,127,128,129,130,131,132,133,134,135,136,137,138,139,140,141,142,143,144,145,146,147,148,149,150,151,152,153,154,155,156,157,158,159,160,161,162,163,164,165,166,167,168,169,170,171,172,173,174,175,176,177,178,179,180,181,182,183,184,185,186,187,188,189,190,191,192,193,194,195,196,197,198,199,200,201,202,203,204,205,206,207,208,209,210,211,212,213,214,215,216,217,218,219,220,221,222,223,224,225,226,227,228,229,230,231,232,233,234,235,236,237,238,239,240,241,242,243,244,245,246,247,248,249,250,251,252,253,254,255,256,257,258,259,260,261,262,263,264,265,266,267,268,269,270,271,272,273,274,275,276,277,278,279,280,281,282,283,284,285,286,287,288,289,290,291,292,293,294,295,296,297,298,299,300,301,302,303,304,305,306,307,308,309,310,311,312,313,314,315,316,317,318,319,320,321,322,323,324,325,326,327,328,329,330,331,332,333,334,335,336,337,338,339,340,341,342,343,344,345,346,347,348,349,350,351,352,353,354,355,356,357,358,359,360,361,362,363,364,365,366,367,368,369,370,371,372,373,374,375,376,377,378,379,380,381,382,383,384,385,386,387,388,389,390,391,392,393,394,395,396,397,398,399,400,401,402,403,404,405,406,407,408,409,410,411,412,413,414,415,416,417,418,419,420,421,422,423,424,425,426,427,428,429,430,431,432,433,434,435,436,437,438,439,440,441,442,443,444,445,446,447,448,449,450,451,452,453,454,455,456,457,458,459,460,461,462,463,464,465,466,467,468,469,470,471,472,473,474,475,476,477,478,479,480,481,482,483,484,485,486,487,488,489,490,491,492,493,494,495,496,497,498,499,500,501,502,503,504,505,506,507,508,509,510,511,512,513,514,515,516,517,518,519,520,521,522,523,524,525,526,527,528,529,530,531,532,533,534,535,536,537,538,539,540,541,542,543,544,545,546,547,548,549,550,551,552,553,554,555,556,557,558,559,560,561,562,563,564,565,566,567,568,569,570,571,572,573,574,575,576,577,578,579,580,581,582,583,584,585,586,587,588,589,590,591,592,593,594,595,596,597,598,599,600,601,602,603,604,605,606,607,608,609,610,611,612,613,614,615,616,617,618,619,620,621,622,623,624,625,626,627,628,629,630,631,632,633,634,635,636,637,638,639,640,641,642,643,644,645,646,647,648,649,650,651,652,653,654,655,656,657,658,659,660,661,662,663,664,665,666,667,668,669,670,671,672,673,674,675,676,677,678,679,680,681,682,683,684,685,686,687,688,689,690,691,692,693,694,695,696,697,698,699,700,701,702,703,704,705,706,707,708,709,710,711,712,713,714,715,716,717,718,719,720,721,722,723,724,725,726,727,728,729,730,731,732,733,734,735,736,737,738,739,740,741,742,743,744,745,746,747,748,749,750,751,752,753,754,755,756,757,758,759,760,761,762,763,764,765,766,767,768,769,770,771,772,773,774,775,776,777,778,779,780,781,782,783,784,785,786,787,788,789,790,791,792,793,794,795,796,797,798,799,800,801,802,803,804,805,806,807,808,809,810,811,812,813,814,815,816,817,818,819,820,821,822,823,824,825,826,827,828,829,830,831,832,833,834,835,836,837,838,839,840,841,842,843,844,845,846,847,848,849,850,851,852,853,854,855,856,857,858,859,860,861,862,863,864,865,866,867,868,869,870,871,872,873,874,875,876,877,878,879,880,881,882,883,884,885,886,887,888,889,890,891,892,893,894,895,896,897,898,899,900,901,902,903,904,905,906,907,908,909,910,911,912,913,914,915,916,917,918,919,920,921,922,923,924,925,926,927,928,929,930,931,932,933,934,935,936,937,938,939,940,941,942,943,944,945,946,947,948,949,950,951,952,953,954,955,956,957,958,959,960,961,962,963,964,965,966,967,968,969,970,971,972,973,974,975,976,977,978,979,980,981,982,983,984,985,986,987,988,989,990,991,992,993,994,995,996,997,998,999,1000],"vb_block":[1,1,1,1,1,1,1,1,1,1,1,1,1,1,1,1,1,1,1,1,1,1,1,1,1,2,2,2,2,2,2,2,2,2,2,2,2,2,2,2,2,2,2,2,2,2,2,2,2,2,3,3,3,3,3,3,3,3,3,3,3,3,3,3,3,3,3,3,3,3,3,3,3,3,3,4,4,4,4,4,4,4,4,4,4,4,4,4,4,4,4,4,4,4,4,4,4,4,4,4,5,5,5,5,5,5,5,5,5,5,5,5,5,5,5,5,5,5,5,5,5,5,5,5,5,6,6,6,6,6,6,6,6,6,6,6,6,6,6,6,6,6,6,6,6,6,6,6,6,6,7,7,7,7,7,7,7,7,7,7,7,7,7,7,7,7,7,7,7,7,7,7,7,7,7,8,8,8,8,8,8,8,8,8,8,8,8,8,8,8,8,8,8,8,8,8,8,8,8,8,9,9,9,9,9,9,9,9,9,9,9,9,9,9,9,9,9,9,9,9,9,9,9,9,9,10,10,10,10,10,10,10,10,10,10,10,10,10,10,10,10,10,10,10,10,10,10,10,10,10,11,11,11,11,11,11,11,11,11,11,11,11,11,11,11,11,11,11,11,11,11,11,11,11,11,12,12,12,12,12,12,12,12,12,12,12,12,12,12,12,12,12,12,12,12,12,12,12,12,12,13,13,13,13,13,13,13,13,13,13,13,13,13,13,13,13,13,13,13,13,13,13,13,13,13,14,14,14,14,14,14,14,14,14,14,14,14,14,14,14,14,14,14,14,14,14,14,14,14,14,15,15,15,15,15,15,15,15,15,15,15,15,15,15,15,15,15,15,15,15,15,15,15,15,15,16,16,16,16,16,16,16,16,16,16,16,16,16,16,16,16,16,16,16,16,16,16,16,16,16,17,17,17,17,17,17,17,17,17,17,17,17,17,17,17,17,17,17,17,17,17,17,17,17,17,18,18,18,18,18,18,18,18,18,18,18,18,18,18,18,18,18,18,18,18,18,18,18,18,18,19,19,19,19,19,19,19,19,19,19,19,19,19,19,19,19,19,19,19,19,19,19,19,19,19,20,20,20,20,20,20,20,20,20,20,20,20,20,20,20,20,20,20,20,20,20,20,20,20,20,21,21,21,21,21,21,21,21,21,21,21,21,21,21,21,21,21,21,21,21,21,21,21,21,21,22,22,22,22,22,22,22,22,22,22,22,22,22,22,22,22,22,22,22,22,22,22,22,22,22,23,23,23,23,23,23,23,23,23,23,23,23,23,23,23,23,23,23,23,23,23,23,23,23,23,24,24,24,24,24,24,24,24,24,24,24,24,24,24,24,24,24,24,24,24,24,24,24,24,24,25,25,25,25,25,25,25,25,25,25,25,25,25,25,25,25,25,25,25,25,25,25,25,25,25,26,26,26,26,26,26,26,26,26,26,26,26,26,26,26,26,26,26,26,26,26,26,26,26,26,27,27,27,27,27,27,27,27,27,27,27,27,27,27,27,27,27,27,27,27,27,27,27,27,27,28,28,28,28,28,28,28,28,28,28,28,28,28,28,28,28,28,28,28,28,28,28,28,28,28,29,29,29,29,29,29,29,29,29,29,29,29,29,29,29,29,29,29,29,29,29,29,29,29,29,30,30,30,30,30,30,30,30,30,30,30,30,30,30,30,30,30,30,30,30,30,30,30,30,30,31,31,31,31,31,31,31,31,31,31,31,31,31,31,31,31,31,31,31,31,31,31,31,31,31,32,32,32,32,32,32,32,32,32,32,32,32,32,32,32,32,32,32,32,32,32,32,32,32,32,33,33,33,33,33,33,33,33,33,33,33,33,33,33,33,33,33,33,33,33,33,33,33,33,33,34,34,34,34,34,34,34,34,34,34,34,34,34,34,34,34,34,34,34,34,34,34,34,34,34,35,35,35,35,35,35,35,35,35,35,35,35,35,35,35,35,35,35,35,35,35,35,35,35,35,36,36,36,36,36,36,36,36,36,36,36,36,36,36,36,36,36,36,36,36,36,36,36,36,36,37,37,37,37,37,37,37,37,37,37,37,37,37,37,37,37,37,37,37,37,37,37,37,37,37,38,38,38,38,38,38,38,38,38,38,38,38,38,38,38,38,38,38,38,38,38,38,38,38,38,39,39,39,39,39,39,39,39,39,39,39,39,39,39,39,39,39,39,39,39,39,39,39,39,39,40,40,40,40,40,40,40,40,40,40,40,40,40,40,40,40,40,40,40,40,40,40,40,40,40],"vb_trial":[1,2,3,4,5,6,7,8,9,10,11,12,13,14,15,16,17,18,19,20,21,22,23,24,25,1,2,3,4,5,6,7,8,9,10,11,12,13,14,15,16,17,18,19,20,21,22,23,24,25,1,2,3,4,5,6,7,8,9,10,11,12,13,14,15,16,17,18,19,20,21,22,23,24,25,1,2,3,4,5,6,7,8,9,10,11,12,13,14,15,16,17,18,19,20,21,22,23,24,25,1,2,3,4,5,6,7,8,9,10,11,12,13,14,15,16,17,18,19,20,21,22,23,24,25,1,2,3,4,5,6,7,8,9,10,11,12,13,14,15,16,17,18,19,20,21,22,23,24,25,1,2,3,4,5,6,7,8,9,10,11,12,13,14,15,16,17,18,19,20,21,22,23,24,25,1,2,3,4,5,6,7,8,9,10,11,12,13,14,15,16,17,18,19,20,21,22,23,24,25,1,2,3,4,5,6,7,8,9,10,11,12,13,14,15,16,17,18,19,20,21,22,23,24,25,1,2,3,4,5,6,7,8,9,10,11,12,13,14,15,16,17,18,19,20,21,22,23,24,25,1,2,3,4,5,6,7,8,9,10,11,12,13,14,15,16,17,18,19,20,21,22,23,24,25,1,2,3,4,5,6,7,8,9,10,11,12,13,14,15,16,17,18,19,20,21,22,23,24,25,1,2,3,4,5,6,7,8,9,10,11,12,13,14,15,16,17,18,19,20,21,22,23,24,25,1,2,3,4,5,6,7,8,9,10,11,12,13,14,15,16,17,18,19,20,21,22,23,24,25,1,2,3,4,5,6,7,8,9,10,11,12,13,14,15,16,17,18,19,20,21,22,23,24,25,1,2,3,4,5,6,7,8,9,10,11,12,13,14,15,16,17,18,19,20,21,22,23,24,25,1,2,3,4,5,6,7,8,9,10,11,12,13,14,15,16,17,18,19,20,21,22,23,24,25,1,2,3,4,5,6,7,8,9,10,11,12,13,14,15,16,17,18,19,20,21,22,23,24,25,1,2,3,4,5,6,7,8,9,10,11,12,13,14,15,16,17,18,19,20,21,22,23,24,25,1,2,3,4,5,6,7,8,9,10,11,12,13,14,15,16,17,18,19,20,21,22,23,24,25,1,2,3,4,5,6,7,8,9,10,11,12,13,14,15,16,17,18,19,20,21,22,23,24,25,1,2,3,4,5,6,7,8,9,10,11,12,13,14,15,16,17,18,19,20,21,22,23,24,25,1,2,3,4,5,6,7,8,9,10,11,12,13,14,15,16,17,18,19,20,21,22,23,24,25,1,2,3,4,5,6,7,8,9,10,11,12,13,14,15,16,17,18,19,20,21,22,23,24,25,1,2,3,4,5,6,7,8,9,10,11,12,13,14,15,16,17,18,19,20,21,22,23,24,25,1,2,3,4,5,6,7,8,9,10,11,12,13,14,15,16,17,18,19,20,21,22,23,24,25,1,2,3,4,5,6,7,8,9,10,11,12,13,14,15,16,17,18,19,20,21,22,23,24,25,1,2,3,4,5,6,7,8,9,10,11,12,13,14,15,16,17,18,19,20,21,22,23,24,25,1,2,3,4,5,6,7,8,9,10,11,12,13,14,15,16,17,18,19,20,21,22,23,24,25,1,2,3,4,5,6,7,8,9,10,11,12,13,14,15,16,17,18,19,20,21,22,23,24,25,1,2,3,4,5,6,7,8,9,10,11,12,13,14,15,16,17,18,19,20,21,22,23,24,25,1,2,3,4,5,6,7,8,9,10,11,12,13,14,15,16,17,18,19,20,21,22,23,24,25,1,2,3,4,5,6,7,8,9,10,11,12,13,14,15,16,17,18,19,20,21,22,23,24,25,1,2,3,4,5,6,7,8,9,10,11,12,13,14,15,16,17,18,19,20,21,22,23,24,25,1,2,3,4,5,6,7,8,9,10,11,12,13,14,15,16,17,18,19,20,21,22,23,24,25,1,2,3,4,5,6,7,8,9,10,11,12,13,14,15,16,17,18,19,20,21,22,23,24,25,1,2,3,4,5,6,7,8,9,10,11,12,13,14,15,16,17,18,19,20,21,22,23,24,25,1,2,3,4,5,6,7,8,9,10,11,12,13,14,15,16,17,18,19,20,21,22,23,24,25,1,2,3,4,5,6,7,8,9,10,11,12,13,14,15,16,17,18,19,20,21,22,23,24,25,1,2,3,4,5,6,7,8,9,10,11,12,13,14,15,16,17,18,19,20,21,22,23,24,25],"vb_x":[[0.777077741920948,0,-0.7595803285948932,0,-0.6105224108323455,0,0.37294372357428074,0],[-0.7152297454886138,0,-0.6005231128074229,0,-0.4274584031663835,0,0.6400639438070357,0],[0.5320493895560503,0,0.011554496828466654,0,0.5450526769272983,0,0.23073484329506755,0],[-0.8436892973259091,0,0.4994396003894508,0,0.11186462687328458,0,-0.19717256212607026,0],[-0.2670605294406414,0,0.3546728501096368,0,-0.5110370246693492,0,0.8939732476137578,0],[-0.46819991059601307,0,0.6453180266544223,0,0.5754570798017085,0,-0.3148843958042562,0],[0.039120474364608526,0,0.9801680333912373,0,-0.7724621915258467,0,0.6763640227727592,0],[0.873079152777791,0,-0.12578147649765015,0,-0.6927207545377314,0,-0.9167427960783243,0],[0.8151915771886706,0,0.3175168843008578,0,0.8546643019653857,0,0.1184530109167099,0],[0.35375202540308237,0,0.588229882530868,0,-0.27536163106560707,0,-0.6882020067423582,0],[0.45814311085268855,0,0.9607962528243661,0,-0.20428473502397537,0,0.4560049418359995,0],[-0.3578224522061646,0,-0.3257356188260019,0,0.9293034323491156,0,-0.33350913785398006,0],[-0.6331788636744022,0,0.15951585164293647,0,-0.7702348176389933,0,-0.8440802991390228,0],[-0.004945315886288881,0,0.22864253632724285,0,0.7558380775153637,0,-0.7331437817774713,0],[0.4458057126030326,0,-0.9473365051671863,0,-0.7939763171598315,0,-0.7238711481913924,0],[0.23573339078575373,0,0.814358186442405,0,0.6976718371734023,0,0.6930338526144624,0],[-0.2412925106473267,0,0.5605032546445727,0,-0.08831092761829495,0,0.5692064934410155,0],[-0.23134398087859154,0,0.876790844835341,0,0.8176180459558964,0,-0.012852552812546492,0],[-0.9934172164648771,0,-0.08516560774296522,0,-0.008176395669579506,0,-0.8097188877873123,0],[0.11884565092623234,0,-0.30318583315238357,0,-0.3696829788386822,0,0.6770575633272529,0],[-0.32813990907743573,0,0.7454093173146248,0,0.25665316823869944,0,0.4674323322251439,0],[-0.6931782886385918,0,0.18683148082345724,0,0.5865669837221503,0,0.40167016442865133,0],[0.831491217482835,0,-0.27622996736317873,0,0.5107703153043985,0,0.23914180602878332,0],[-0.5242993645370007,0,-0.7391544338315725,0,-0.5129020512104034,0,-0.40335802966728806,0],[-0.3274164847098291,0,-0.31173405330628157,0,0.4797859522514045,0,-0.7255440410226583,0],[-0.7768629803322256,0,-0.23989989515393972,0,-0.9427995928563178,0,0.849623289424926,0],[-0.7113030548207462,0,-0.9492426090873778,0,0.49692966137081385,0,-0.20238951966166496,0],[0.761345696169883,0,-0.19792709033936262,0,0.11228355346247554,0,-0.8633756628260016,0],[0.9230443383567035,0,0.4535384513437748,0,0.04171316558495164,0,0.3156532468274236,0],[-0.6322389040142298,0,0.18520364398136735,0,0.9088692297227681,0,-0.9784679007716477,0],[-0.720204961951822,0,0.5442806775681674,0,-0.19338685320690274,0,-0.8587475009262562,0],[0.9032456846907735,0,0.2626276705414057,0,-0.329034723341465,0,0.1793109574355185,0],[-0.5843153558671474,0,0.6782906535081565,0,0.8026169361546636,0,0.1267658076249063,0],[-0.2594213420525193,0,-0.8883135421201587,0,0.10594290727749467,0,0.3475602241232991,0],[0.4063646085560322,0,-0.6603452088311315,0,0.6170159853063524,0,0.0007407558150589466,0],[-0.2808395130559802,0,0.49250817485153675,0,0.10101898247376084,0,-0.7217020019888878,0],[-0.06120815873146057,0,0.09992811316624284,0,-0.951432965695858,0,0.3847983591258526,0],[-0.582313961815089,0,-0.738485200330615,0,-0.21273539448156953,0,0.07143706222996116,0],[0.3028744859620929,0,-0.278337839525193,0,0.1644305340014398,0,-0.750512691680342,0],[0.0034990468993782997,0,0.5020397836342454,0,0.829911733046174,0,0.05703240353614092,0],[-0.4767638291232288,0,0.4099780577234924,0,-0.9483817066065967,0,0.0966766462661326,0],[-0.5882388222962618,0,0.5309825544245541,0,0.2908074790611863,0,-0.14221542002633214,0],[-0.3118393230251968,0,-0.6750018205493689,0,-0.09062645630910993,0,0.40105714881792665,0],[0.8838390717282891,0,0.08935946365818381,0,-0.23985922755673528,0,-0.5618240456096828,0],[-0.1734526865184307,0,-0.8837931784801185,0,0.8011582493782043,0,-0.23938189446926117,0],[-0.5562845137901604,0,0.9002817636355758,0,-0.9084292398765683,0,0.33355042431503534,0],[-0.1637998027727008,0,-0.9750708099454641,0,0.6008289023302495,0,-0.6161576164886355,0],[-0.5520176775753498,0,0.8176824748516083,0,-0.3200667202472687,0,-0.27525781746953726,0],[-0.43205294106155634,0,0.852926401887089,0,-0.06412070197984576,0,0.4470724160782993,0],[-0.17603949643671513,0,-0.002576834987848997,0,-0.22796159889549017,0,-0.26844007801264524,0],[-0.7480598725378513,0,0.4464655537158251,0,-0.7744044014252722,0,0.97747404826805,0],[-0.259919507894665,0,-0.27054777974262834,0,0.6259559248574078,0,-0.22093465644866228,0],[0.7717081382870674,0,0.0030259410850703716,0,0.8888378874398768,0,0.3173712305724621,0],[0.8321960112079978,0,0.6655273451469839,0,-0.7838279325515032,0,0.16787756839767098,0],[0.8679360151290894,0,0.18695889227092266,0,0.6947830063290894,0,0.23862204374745488,0],[0.8835203689523041,0,0.32818152103573084,0,-0.22847458440810442,0,0.48324675019830465,0],[-0.6640115934424102,0,-0.41871175076812506,0,-0.5875398335047066,0,-0.3685487569309771,0],[-0.2115594013594091,0,0.38931415555998683,0,-0.959518332965672,0,-0.5658713988959789,0],[0.9922794797457755,0,-0.5790915400721133,0,-0.48256900161504745,0,-0.27809550287202,0],[0.5461095725186169,0,-0.4236157573759556,0,0.24740013480186462,0,-0.5469103790819645,0],[0.6521328086964786,0,0.30314531177282333,0,0.762957033701241,0,-0.22282690089195967,0],[0.9327713525854051,0,-0.03583571454510093,0,-0.8700622939504683,0,0.47807654552161694,0],[0.029937321785837412,0,0.7916017058305442,0,0.7746110502630472,0,0.983089582528919,0],[0.6880546985194087,0,-0.7312665726058185,0,0.025178975891321898,0,0.5767276771366596,0],[0.9816162581555545,0,0.8415756803005934,0,0.32741232216358185,0,-0.5995832439512014,0],[-0.4313762355595827,0,0.28555331053212285,0,0.9770183749496937,0,-0.002043464221060276,0],[-0.42645784141495824,0,0.512159529607743,0,-0.8962793168611825,0,-0.10966254072263837,0],[0.7855154164135456,0,0.3696087128482759,0,0.19337469898164272,0,0.9648793074302375,0],[0.02847378607839346,0,0.7179417568258941,0,-0.36325161438435316,0,0.20718353986740112,0],[0.49020454101264477,0,-0.7017816295847297,0,0.9365641064941883,0,-0.7422298742458224,0],[-0.6586646395735443,0,-0.7538298973813653,0,0.5238974499516189,0,-0.29319785023108125,0],[-0.5118339085020125,0,0.0750850704498589,0,0.39182699751108885,0,0.381034373305738,0],[0.7832025620155036,0,-0.2018077173270285,0,0.3211671323515475,0,-0.5111752091906965,0],[-0.18244246253743768,0,-0.5393200521357358,0,0.36241767928004265,0,-0.6656207516789436,0],[0.5499838930554688,0,0.707870515063405,0,0.31603020895272493,0,0.5241181552410126,0],[0.3751489566639066,0,0.7758771851658821,0,-0.8754564425908029,0,0.6978726242668927,0],[-0.9898698758333921,0,-0.6421985025517642,0,-0.5295118079520762,0,0.40270112734287977,0],[0.4562603645026684,0,0.2726067896001041,0,0.6424004910513759,0,0.502536257263273,0],[-0.8148990836925805,0,0.2975999806076288,0,0.3956191265024245,0,0.7549575320445001,0],[0.3051570379175246,0,0.014628858771175146,0,-0.49869077280163765,0,0.007100606802850962,0],[-0.4618435245938599,0,0.06170594645664096,0,0.48312563356012106,0,0.9986012848094106,0],[-0.43530044984072447,0,0.7945023342035711,0,0.4579159817658365,0,0.3553385129198432,0],[0.0988108841702342,0,0.53185078734532,0,-0.7399558555334806,0,-0.8085742043331265,0],[0.7784154983237386,0,0.38220506021752954,0,-0.9424340478144586,0,0.878374757245183,0],[-0.9888065196573734,0,-0.3289708369411528,0,0.2003332688473165,0,0.05321852397173643,0],[-0.6370645477436483,0,-0.8327931314706802,0,0.17418626137077808,0,0.7056967141106725,0],[-0.07877043960615993,0,0.45629087649285793,0,-0.049379033502191305,0,-0.9255980900488794,0],[0.5313492608256638,0,-0.41435317089781165,0,-0.18357079848647118,0,-0.8664774149656296,0],[0.23935388633981347,0,-0.4470971920527518,0,-0.8085620664060116,0,-0.11582877580076456,0],[-0.5320078004151583,0,0.07705283956602216,0,0.07566038239747286,0,-0.8485793331637979,0],[-0.16158156609162688,0,0.7976833307184279,0,0.8566560074687004,0,0.08117094216868281,0],[-0.8123493059538305,0,-0.9775137333199382,0,-0.37951166834682226,0,-0.37638319144025445,0],[0.11277429107576609,0,-0.26960873743519187,0,0.29572497587651014,0,0.39175948966294527,0],[-0.06689587933942676,0,0.9667136506177485,0,-0.5851448215544224,0,-0.1587183796800673,0],[0.45351865515112877,0,-0.956916100345552,0,0.4339110632427037,0,0.11355951800942421,0],[-0.568893329706043,0,0.8296928200870752,0,-0.14518898213282228,0,0.30415308056399226,0],[0.19772171042859554,0,-0.05509612709283829,0,0.02515934081748128,0,0.3470153813250363,0],[0.3461481872946024,0,-0.3417648575268686,0,-0.6154092294164002,0,0.10227521136403084,0],[-0.6335084619931877,0,-0.8772410107776523,0,-0.17805894371122122,0,-0.15240138163790107,0],[-0.9757501389831305,0,0.33570418460294604,0,0.15571263479068875,0,0.39994022622704506,0],[0.9254059414379299,0,0.023512117099016905,0,-0.8867124929092824,0,-0.1204719846136868,0],[-0.06149066099897027,0,0.41225954005494714,0,0.4333783332258463,0,-0.8453120212070644,0],[-0.4416888183914125,0,0.7561958152800798,0,-0.785897652618587,0,-0.42401488265022635,0],[0.765994650311768,0,-0.6608147220686078,0,0.49197431188076735,0,0.09685950307175517,0],[0.8805056223645806,0,-0.17317984579131007,0,0.5372106996364892,0,0.9119871258735657,0],[-0.27909553702920675,0,0.25373920425772667,0,-0.18891623662784696,0,-0.9656346761621535,0],[0.9981192233972251,0,-0.17985049216076732,0,0.7239906084723771,0,-0.007068712264299393,0],[0.3758930782787502,0,0.011323531158268452,0,0.5980062372982502,0,-0.9476092453114688,0],[0.13844460807740688,0,0.36526077054440975,0,-0.5671533052809536,0,-0.47783092968165874,0],[-0.16648178920149803,0,0.9803232979029417,0,-0.507920516654849,0,0.9726000535301864,0],[0.3119383379817009,0,0.15201149368658662,0,0.6390873733907938,0,0.9882527766749263,0],[0.5656020054593682,0,-0.8970923186279833,0,-0.26656506303697824,0,-0.081611602101475,0],[0.88164994539693,0,-0.3351695784367621,0,0.8705385690554976,0,0.6102588623762131,0],[-0.533753177151084,0,0.21478638984262943,0,0.7392561296001077,0,0.7391098840162158,0],[-0.7393064186908305,0,0.8204333586618304,0,-0.18404584098607302,0,-0.28095445642247796,0],[0.21038947859779,0,-0.9337874087505043,0,0.7842773273587227,0,-0.3055357770062983,0],[0.13163986941799521,0,-0.5082707293331623,0,-0.003986714407801628,0,-0.9482096736319363,0],[0.07239898527041078,0,0.36070178588852286,0,-0.6991982776671648,0,0.4399858554825187,0],[0.7390870717354119,0,-0.8227876415476203,0,-0.4854650101624429,0,0.3503970787860453,0],[-0.31548101641237736,0,0.6840165234170854,0,-0.1452633636072278,0,0.8694379879161716,0],[0.7274026940576732,0,0.7419297331944108,0,-0.3238522345200181,0,-0.18996142502874136,0],[-0.22608937928453088,0,0.25350429071113467,0,-0.35644707921892405,0,-0.7303439122624695,0],[-0.9789474601857364,0,-0.9843412386253476,0,0.24272866686806083,0,-0.859909366350621,0],[0.6707040914334357,0,0.8473865962587297,0,0.6120151481591165,0,-0.6148385498672724,0],[0.12703395867720246,0,0.17660029465332627,0,0.8880485608242452,0,0.5640224521048367,0],[0.8225312978029251,0,-0.45821120543405414,0,-0.8844436747021973,0,-0.4311180505901575,0],[-0.16926753195002675,0,0.24742911336943507,0,0.9663449455983937,0,-0.7710976493544877,0],[0.6514212065376341,0,0.1599890049546957,0,-0.18667686870321631,0,0.601251620799303,0],[0.8047714848071337,0,0.1165289357304573,0,0.7898443164303899,0,0.45507333194836974,0],[0.5839704978279769,0,-0.644745069090277,0,0.36986326705664396,0,-0.4413212086074054,0],[0.06554542994126678,0,0.14657828584313393,0,0.9820598587393761,0,-0.16834567161276937,0],[-0.6291334689594805,0,0.9303586706519127,0,0.35429261485114694,0,0.5734036830253899,0],[-0.31603997107595205,0,0.7084891838021576,0,0.34280945220962167,0,-0.13985710078850389,0],[0.9203413352370262,0,0.1881554084829986,0,0.5971252527087927,0,0.23280814196914434,0],[-0.07260558381676674,0,0.6904651722870767,0,0.4225925635546446,0,0.8009229358285666,0],[0.6877831844612956,0,-0.6855913903564215,0,0.8237031633034348,0,0.0569528853520751,0],[-0.15146454377099872,0,-0.5079310121946037,0,0.33003602595999837,0,0.14544869028031826,0],[-0.8319427580572665,0,-0.8300112374126911,0,0.8658099845051765,0,0.1764100743457675,0],[0.7722972766496241,0,0.5696766618639231,0,-0.6507626245729625,0,0.6486517619341612,0],[-0.13418535608798265,0,-0.993086049798876,0,-0.4031491344794631,0,0.5575411906465888,0],[-0.6435440126806498,0,0.48066661693155766,0,-0.36738295992836356,0,0.3009700644761324,0],[0.0009725769050419331,0,0.6498246775008738,0,0.4929214254952967,0,0.9129102355800569,0],[0.019793068058788776,0,0.7979585756547749,0,-0.0740712583065033,0,-0.24613282643258572,0],[-0.6464422321878374,0,-0.7199421818368137,0,-0.0654891999438405,0,0.7267751535400748,0],[-0.6716168690472841,0,0.09788305219262838,0,0.21313840709626675,0,-0.4522655145265162,0],[-0.03419165080413222,0,0.7172892577946186,0,-0.8366178926080465,0,0.47591439401730895,0],[-0.6690311962738633,0,-0.5720883123576641,0,0.14965685456991196,0,-0.12802016967907548,0],[0.5366631476208568,0,0.42037466494366527,0,0.04981679981574416,0,-0.7534535592421889,0],[-0.8656257060356438,0,0.3916619452647865,0,0.2152494085021317,0,0.8044079407118261,0],[-0.07708673877641559,0,0.8274099458940327,0,0.4473029184155166,0,0.7214072188362479,0],[-0.6746391393244267,0,0.47096420964226127,0,0.7101356605999172,0,-0.3006390384398401,0],[0.6375271114520729,0,-0.46257936069741845,0,0.6233350662514567,0,-0.9292534496635199,0],[0.12827127519994974,0,-0.16276690224185586,0,-0.7694654846563935,0,-0.43516396824270487,0],[0.3927507549524307,0,0.9681630288250744,0,-0.7141117723658681,0,0.8954728888347745,0],[0.2422939781099558,0,0.7419221024028957,0,0.286199486348778,0,0.40889054583385587,0],[0.7708012815564871,0,-0.5990137401968241,0,0.4752557552419603,0,-0.17395629128441215,0],[-0.7717250548303127,0,-0.8195667816326022,0,-0.12303352635353804,0,-0.5581039837561548,0],[0.3103689136914909,0,-0.5754520501941442,0,-0.7308524725958705,0,-0.7988328258506954,0],[-0.1660226439125836,0,-0.1867495090700686,0,-0.8837549472227693,0,0.7492244681343436,0],[0.3653499945066869,0,0.670232632663101,0,0.26672630617395043,0,-0.6450990051962435,0],[-0.7374658584594727,0,0.7298533031716943,0,0.02105378732085228,0,0.4468856705352664,0],[0.6411989973857999,0,-0.9182249931618571,0,0.0017443448305130005,0,-0.16713372943922877,0],[0.5670419381931424,0,0.014248487073928118,0,0.743192913942039,0,0.8073569913394749,0],[-0.8620769209228456,0,-0.7165605891495943,0,0.10031515499576926,0,-0.07235466549172997,0],[0.36943951062858105,0,0.6082482105121017,0,0.521756402682513,0,0.49368836870417,0],[0.12122280243784189,0,0.11438085418194532,0,-0.29668132960796356,0,-0.476687618996948,0],[-0.4339517713524401,0,0.9196924325078726,0,-0.9074247921817005,0,0.7414226760156453,0],[0.6250863950699568,0,-0.11056513851508498,0,-0.4956801738590002,0,-0.6812601475976408,0],[-0.3202035934664309,0,0.7974301585927606,0,0.6300358455628157,0,-0.73198606306687,0],[0.4378646775148809,0,0.6704995376057923,0,0.0027385344728827477,0,0.9571163067594171,0],[-0.224741883110255,0,0.7398176211863756,0,-0.600475697312504,0,-0.02175359381362796,0],[-0.1308589498512447,0,0.440079249907285,0,0.8493451159447432,0,-0.18098662560805678,0],[0.23716956190764904,0,-0.685459709726274,0,0.3227689554914832,0,0.9092558594420552,0],[-0.9936037482693791,0,0.26846299367025495,0,0.6768990829586983,0,0.6433743354864419,0],[-0.9340624678879976,0,0.7226029178127646,0,-0.8932736907154322,0,-0.9350591064430773,0],[0.7282246015965939,0,0.13181630987673998,0,0.4287632443010807,0,-0.29174285382032394,0],[0.834632511716336,0,0.13167689787223935,0,-0.32976007694378495,0,0.7591910157352686,0],[-0.10517894383519888,0,-0.5910726538859308,0,-0.2230176185257733,0,-0.3724700305610895,0],[0.9294416680932045,0,0.16294676950201392,0,-0.7144545796327293,0,0.11853960249572992,0],[0.7045246968045831,0,-0.7273198761977255,0,-0.5000971448607743,0,0.6483746604062617,0],[0.28310826839879155,0,0.06037300871685147,0,0.9908164120279253,0,-0.6139316358603537,0],[0.9621510822325945,0,0.5909651713445783,0,0.9190696282312274,0,-0.6109841335564852,0],[0.058028663508594036,0,0.9179703136906028,0,-0.5560742262750864,0,-0.5945570981130004,0],[-0.3387558679096401,0,-0.08885876135900617,0,-0.32506758952513337,0,-0.5398241570219398,0],[0.4244404584169388,0,-0.5015068175271153,0,-0.8216163017787039,0,0.9169197781011462,0],[0.5174300107173622,0,0.278425092343241,0,-0.4116196921095252,0,0.0254432400688529,0],[0.5693795904517174,0,-0.7143184961751103,0,-0.2346201129257679,0,0.10534076020121574,0],[0.26162406196817756,0,-0.34803980495780706,0,-0.5385416997596622,0,0.6756865135394037,0],[0.9488531625829637,0,0.7920711687766016,0,0.9773204405792058,0,-0.8419139757752419,0],[0.0752389240078628,0,-0.35429135570302606,0,0.39468900905922055,0,0.4013946605846286,0],[0.3168529234826565,0,-0.6443112352862954,0,0.054149369709193707,0,-0.6096525993198156,0],[-0.8100831168703735,0,-0.46185992658138275,0,-0.026832152158021927,0,0.7807003017514944,0],[-0.6003534789197147,0,-0.5250004637055099,0,-0.2172907954081893,0,0.06553391693159938,0],[-0.6273647057823837,0,0.642122024204582,0,0.2569149611517787,0,-0.9607562650926411,0],[0.5337235112674534,0,-0.46120288595557213,0,-0.03266351902857423,0,-0.8451434387825429,0],[-0.3411445342935622,0,-0.2610486545599997,0,0.03170976834371686,0,0.32324884133413434,0],[0.07989910943433642,0,-0.8005201583728194,0,-0.610575441736728,0,0.7798102400265634,0],[0.6468650889582932,0,0.47879134537652135,0,-0.7212376361712813,0,0.2694160505197942,0],[-0.4265148867852986,0,0.6361711886711419,0,-0.42834565229713917,0,-0.8599289758130908,0],[0.06529899779707193,0,-0.1523911515250802,0,0.6738109798170626,0,0.7612184495665133,0],[-0.881283659953624,0,-0.09578901389613748,0,0.10107124410569668,0,-0.23689138516783714,0],[-0.04855341790243983,0,-0.6199710974469781,0,0.11865058168768883,0,0.4038116247393191,0],[0.7123257606290281,0,0.715972856618464,0,-0.0014867205172777176,0,-0.8797255801036954,0],[0.7374424678273499,0,-0.8855476705357432,0,-0.31255989940837026,0,0.10410480154678226,0],[-0.6719023776240647,0,0.48720619548112154,0,0.6823562160134315,0,-0.7796675469726324,0],[0.15200845757499337,0,0.1470542484894395,0,0.9526172466576099,0,0.39881443697959185,0],[0.3270945316180587,0,-0.11177845625206828,0,-0.8846606556326151,0,-0.6563662653788924,0],[-0.41234296606853604,0,0.6601285408250988,0,0.910798498429358,0,0.9828215218149126,0],[-0.15344226639717817,0,0.9455099641345441,0,0.9407691862434149,0,0.9512634091079235,0],[-0.47401311341673136,0,-0.31597689259797335,0,-0.7953127166256309,0,0.9156445851549506,0],[-0.05992427561432123,0,0.8623491865582764,0,0.6798096648417413,0,-0.21454457938671112,0],[0.17153970943763852,0,0.08388981549069285,0,0.20900032948702574,0,-0.06570879835635424,0],[0.24571102624759078,0,0.7427957630716264,0,0.877258624881506,0,-0.8248105300590396,0],[0.3301071752794087,0,0.008861002512276173,0,0.8581903581507504,0,0.44060882553458214,0],[0.27799841202795506,0,0.875283021479845,0,-0.7833209550008178,0,-0.4331051637418568,0],[0.587771525606513,0,-0.44122285302728415,0,0.21751629328355193,0,0.6745982132852077,0],[-0.17027858551591635,0,0.20155693823471665,0,-0.6207778295502067,0,0.5742889703251421,0],[-0.834441986400634,0,-0.5769417658448219,0,0.8799245492555201,0,-0.677434777840972,0],[-0.6490006898529828,0,0.1779487282037735,0,0.32349178567528725,0,0.30298504745587707,0],[0.4408081993460655,0,-0.06444193096831441,0,0.010408646892756224,0,-0.11479460960254073,0],[-0.3677228162996471,0,0.9767215955071151,0,-0.7846925165504217,0,-0.7536257267929614,0],[-0.5836059483699501,0,-0.24662402970716357,0,0.8468443513847888,0,-0.6572624971158803,0],[-0.937795877456665,0,-0.8365992694161832,0,-0.3127309256233275,0,0.9113446748815477,0],[0.1916193519718945,0,0.49354611709713936,0,-0.48016583966091275,0,-0.48250345420092344,0],[-0.8563973531126976,0,-0.5172888981178403,0,-0.45849719224497676,0,-0.27679616399109364,0],[-0.5837046192027628,0,-0.4836194277741015,0,-0.9605680289678276,0,0.09132587304338813,0],[0.6565546155907214,0,-0.4723458122462034,0,-0.9822339387610555,0,-0.9989857715554535,0],[-0.5925713577307761,0,-0.07575673330575228,0,0.41672756476327777,0,0.8218935024924576,0],[-0.62815803848207,0,-0.8093686453066766,0,0.7771510779857635,0,0.773220703471452,0],[-0.3939361907541752,0,-0.2133636763319373,0,0.5963152190670371,0,-0.9355846918188035,0],[0.12997475266456604,0,-0.3787194471806288,0,0.9888504482805729,0,0.877132133115083,0],[-0.15034233126789331,0,0.680827381554991,0,0.46312045585364103,0,0.5179131962358952,0],[-0.6468772268854082,0,-0.2656950931996107,0,0.9052291018888354,0,0.39630492590367794,0],[-0.5285296952351928,0,0.11880258144810796,0,-0.03723212331533432,0,-0.9364838600158691,0],[-0.9636443979106843,0,-0.4968103412538767,0,-0.9944873992353678,0,0.9593480625189841,0],[0.623660234734416,0,-0.3987357644364238,0,-0.8297817977145314,0,-0.08574831299483776,0],[-0.5578056359663606,0,-0.6603819555602968,0,-0.34889022121205926,0,-0.9673618613742292,0],[0.3311332883313298,0,0.09265498863533139,0,0.43788346089422703,0,0.7609609323553741,0],[-0.4323929869569838,0,0.12313615484163165,0,0.8968644356355071,0,0.7333617829717696,0],[-0.09088178956881166,0,0.33258748380467296,0,-0.6170412078499794,0,-0.7985873543657362,0],[-0.5576899037696421,0,-0.7679878016933799,0,0.22180371638387442,0,0.793596787378192,0],[0.09928978746756911,0,-0.005392830353230238,0,-0.5700432625599205,0,0.5818094168789685,0],[-0.19659102149307728,0,0.319843175355345,0,0.5355492206290364,0,-0.7847004123032093,0],[-0.45848916564136744,0,-0.5390780447050929,0,0.7466207682155073,0,-0.3808943727053702,0],[-0.10513202240690589,0,-0.5390441222116351,0,0.09992366190999746,0,-0.526953712105751,0],[0.009626172948628664,0,0.7909453925676644,0,0.7795230345800519,0,-0.957073341589421,0],[-0.869405176024884,0,-0.8135013482533395,0,0.8216467429883778,0,0.42831629142165184,0],[-0.13712856033816934,0,-0.867519922554493,0,-0.10182388545945287,0,-0.7275025411508977,0],[0.5351103730499744,0,0.5584916970692575,0,-0.8160329796373844,0,0.098506985232234,0],[-0.3954505240544677,0,-0.6108142836019397,0,0.4798474130220711,0,-0.6695483978837729,0],[0.506732523906976,0,0.3805212378501892,0,-0.107081463560462,0,-0.4343532985076308,0],[-0.5055459514260292,0,0.1658459585160017,0,0.9773101848550141,0,-0.04060564283281565,0],[-0.547785974573344,0,0.21239483589306474,0,-0.9004911542870104,0,-0.5427916059270501,0],[-0.7125664940103889,0,0.6353349587880075,0,-0.17044008010998368,0,-0.5975430523976684,0],[-0.7413144479505718,0,0.7582909963093698,0,0.02644266001880169,0,-0.562678040470928,0],[-0.7374876039102674,0,-0.2712890272960067,0,-0.7512884014286101,0,0.08028473984450102,0],[0.42809387715533376,0,-0.7137606362812221,0,-0.5150614641606808,0,0.28945441311225295,0],[0.2842872100882232,0,-0.8490467518568039,0,-0.6074848067946732,0,0.2521606092341244,0],[0.2554030464962125,0,-0.9519015369005501,0,-0.7730138190090656,0,-0.4575675716623664,0],[0.3812304795719683,0,-0.853056916501373,0,-0.0987959667108953,0,-0.4011075710877776,0],[-0.2489407854154706,0,-0.31996374065056443,0,-0.89966453704983,0,-0.7981816790997982,0],[0.8004715754650533,0,-0.6231889636255801,0,0.8264773739501834,0,0.4020169051364064,0],[-0.13095097243785858,0,0.7940753097645938,0,-0.6585161588154733,0,0.3233661921694875,0],[-0.9060694207437336,0,-0.7007732084020972,0,0.2042636307887733,0,-0.5804720469750464,0],[0.7611394966952503,0,0.6295629679225385,0,0.42676575435325503,0,0.6240055691450834,0],[0.5629018619656563,0,0.2553689028136432,0,0.29830680042505264,0,0.12577311461791396,0],[0.5917642805725336,0,0.48761115688830614,0,0.7024175869300961,0,0.758510384708643,0],[0.0537554700858891,0,-0.4437411241233349,0,0.9473390723578632,0,-0.9842739463783801,0],[0.17399920849129558,0,0.3415951794013381,0,0.9387480458244681,0,0.5839471691288054,0],[0.9323923592455685,0,0.8002294260077178,0,0.7011192548088729,0,0.16974359471350908,0],[0.41381906997412443,0,-0.3650606945157051,0,0.19713852414861321,0,-0.3705562725663185,0],[0.17830091528594494,0,0.5351780825294554,0,-0.5400171908549964,0,0.06371211260557175,0],[0.24195826472714543,0,-0.3694032961502671,0,-0.012618938460946083,0,0.9973491872660816,0],[0.14471370540559292,0,-0.16880754474550486,0,-0.2031345721334219,0,-0.4806953785009682,0],[-0.15676975715905428,0,-0.6643783133476973,0,0.7110917763784528,0,0.9486776702105999,0],[0.6196259306743741,0,0.8735091653652489,0,-0.055758779402822256,0,-0.6122314319945872,0],[0.7832933617755771,0,0.4970387015491724,0,-0.7916838135570288,0,-0.35810804553329945,0],[0.4470884194597602,0,0.4873036299832165,0,0.3885179474018514,0,-0.42698060534894466,0],[-0.8106277980841696,0,-0.44856884982436895,0,0.1315198983065784,0,0.0577919720672071,0],[-0.5908270101062953,0,-0.13461090810596943,0,0.8542060670442879,0,0.3247631057165563,0],[-0.5055178916081786,0,-0.04075995506718755,0,0.4811433027498424,0,0.44421950727701187,0],[0.3023975840769708,0,0.29740287689492106,0,-0.5905085550621152,0,0.4845419302582741,0],[0.32919215643778443,0,-0.9131384664215147,0,0.48421382810920477,0,0.662750176154077,0],[-0.32382823154330254,0,0.8120319889858365,0,0.7181526450440288,0,-0.38067827513441443,0],[0.3481372417882085,0,0.5871146121062338,0,0.484248957131058,0,0.3839602000080049,0],[0.9008703208528459,0,0.41554996091872454,0,0.1823140224441886,0,0.3639090033248067,0],[-0.5337470583617687,0,-0.4115233840420842,0,-0.061643998604267836,0,0.5186389153823256,0],[-0.5732284327968955,0,0.5931316423229873,0,-0.6130860722623765,0,-0.371070405934006,0],[-0.6429254086688161,0,-0.48591597471386194,0,0.17521776165813208,0,-0.5163910053670406,0],[0.2796665164642036,0,-0.7209678632207215,0,0.6751487129367888,0,-0.11547019891440868,0],[-0.2629660707898438,0,0.823478986043483,0,0.18005512095987797,0,-0.32181556057184935,0],[-0.6572011169046164,0,0.5487171001732349,0,0.5436927457340062,0,0.8680275068618357,0],[-0.03528524516150355,0,-0.013961764983832836,0,-0.6095348205417395,0,-0.45915632462128997,0],[-0.897904874291271,0,0.34302469016984105,0,-0.12651708768680692,0,-0.3634623298421502,0],[0.7652447205036879,0,-0.445670360699296,0,0.43222150299698114,0,-0.13569603115320206,0],[-0.5176673377864063,0,0.5841558971442282,0,0.42989784898236394,0,0.6549923289567232,0],[-0.2603140799328685,0,0.9959803433157504,0,0.8421029015444219,0,0.5567176761105657,0],[0.9260143092833459,0,0.8019660823047161,0,-0.6301254378631711,0,-0.3649885980412364,0],[0.8818870261311531,0,0.8834746964275837,0,0.1376040573231876,0,0.14631642261520028,0],[-0.1561817517504096,0,-0.7789162369444966,0,-0.5587637666612864,0,-0.28014552081003785,0],[-0.8376179276965559,0,-0.2528743031434715,0,-0.23890997376292944,0,-0.11549003515392542,0],[-0.5178352682851255,0,0.6863294718787074,0,-0.23857959313318133,0,-0.0895438976585865,0],[0.17983527574688196,0,0.21716646617278457,0,-0.6804567622020841,0,-0.040894615929573774,0],[-0.7740445444360375,0,-0.13953252835199237,0,-0.978115894831717,0,0.9821628355421126,0],[-0.9966540979221463,0,0.057538640685379505,0,0.6333646499551833,0,-0.7604855010285974,0],[0.06232403963804245,0,0.38926994893699884,0,-0.1861634450033307,0,-0.3211802141740918,0],[0.5331207276321948,0,0.9823920759372413,0,-0.06584689673036337,0,-0.04800224211066961,0],[0.6289187096990645,0,-0.48533300356939435,0,0.009789196774363518,0,-0.5485584698617458,0],[0.33345709135755897,0,0.26355541637167335,0,-0.17667784122750163,0,-0.04313450353220105,0],[-0.17836129060015082,0,-0.9386586495675147,0,-0.1296096993610263,0,0.7691345484927297,0],[-0.9533428209833801,0,0.7425201861187816,0,-0.33657459588721395,0,-0.7288349182344973,0],[0.2119196830317378,0,0.9631157023832202,0,-0.44927788665518165,0,0.5454848422668874,0],[-0.23011101270094514,0,0.8973289830610156,0,-0.7216112460009754,0,-0.863324967212975,0],[-0.05470645846799016,0,0.2817381680943072,0,-0.48456058092415333,0,0.2723883599974215,0],[0.28895497927442193,0,-0.2308367588557303,0,0.6969152968376875,0,-0.23659070674329996,0],[0.7181735336780548,0,0.44222540874034166,0,0.5396654848009348,0,0.39239033963531256,0],[0.5482086515985429,0,-0.7830930463969707,0,0.215743875131011,0,-0.04310305882245302,0],[0.2098936797119677,0,0.815931960940361,0,-0.03293096646666527,0,-0.3443521992303431,0],[0.7153169140219688,0,0.41158284712582827,0,-0.0364521867595613,0,-0.5865328721702099,0],[0.4674524343572557,0,-0.5101468465290964,0,0.21247674571350217,0,-0.7988874069415033,0],[-0.6000252133235335,0,-0.4130124682560563,0,0.7346227136440575,0,0.6863505798391998,0],[0.38941759150475264,0,-0.6179563459008932,0,0.20899398205801845,0,0.01738909399136901,0],[0.7780559207312763,0,-0.12742486270144582,0,-0.2745618703775108,0,0.029268328566104174,0],[-0.9894453147426248,0,-0.6032999949529767,0,0.19261972652748227,0,0.7523875571787357,0],[-0.5938597032800317,0,-0.7297717165201902,0,0.992540858220309,0,-0.02422183332964778,0],[0.307400188408792,0,-0.10022192727774382,0,-0.42640186147764325,0,-0.3999179941602051,0],[-0.31324113393202424,0,-0.44688121834769845,0,0.10439036274328828,0,0.16999656753614545,0],[0.29038778226822615,0,0.5076668909750879,0,0.7717953505925834,0,-0.12090900866314769,0],[-0.38203517999500036,0,-0.5617406144738197,0,0.017544464208185673,0,-0.1821280918084085,0],[0.9057949418202043,0,0.5966247152537107,0,0.6257883720099926,0,0.9537923079915345,0],[-0.13757854932919145,0,-0.34047289472073317,0,-0.9107806556858122,0,-0.763570218347013,0],[-0.13301592133939266,0,-0.47513036523014307,0,-0.9723841929808259,0,0.14457546547055244,0],[0.7243806309998035,0,-0.9460651730187237,0,-0.4103947076946497,0,-0.5677482686005533,0],[0.8500304175540805,0,0.6427287547849119,0,-0.7358481837436557,0,-0.37981640826910734,0],[0.9992253710515797,0,-0.35947828739881516,0,0.6887189093977213,0,-0.4190663271583617,0],[-0.15682011377066374,0,0.9345019939355552,0,0.7443875013850629,0,0.812282002530992,0],[-0.056338293477892876,0,-0.061094478238373995,0,-0.8781404597684741,0,0.41558496840298176,0],[-0.3136794911697507,0,0.9975475925020874,0,0.8489390211179852,0,-0.7173416642472148,0],[0.21805482218042016,0,0.2170160091482103,0,0.9601719533093274,0,0.017879238352179527,0],[-0.3688853308558464,0,0.9866892150603235,0,0.31105116475373507,0,-0.9918355434201658,0],[-0.3001536773517728,0,0.20064987568184733,0,0.8923480845987797,0,-0.24332136055454612,0],[-0.18861462036147714,0,-0.782336208038032,0,0.27845769422128797,0,-0.6828535380773246,0],[0.15261432575061917,0,-0.672938225325197,0,-0.598751051351428,0,0.7644288670271635,0],[-0.26488067861646414,0,-0.6689303880557418,0,0.14903422724455595,0,0.36488514859229326,0],[0.27760598342865705,0,0.0711804130114615,0,0.9542401460930705,0,0.21191984042525291,0],[-0.6588164386339486,0,0.30576403671875596,0,0.9127616598270833,0,-0.5900570233352482,0],[0.3238742286339402,0,-0.8011396038345993,0,-0.6713105202652514,0,-0.47286113491281867,0],[0.004034106619656086,0,-0.6376502327620983,0,0.09179233200848103,0,0.9719008589163423,0],[0.11975663201883435,0,-0.052862504962831736,0,-0.5430305479094386,0,0.9232315896078944,0],[-0.9476602035574615,0,-0.18913042917847633,0,-0.7857949864119291,0,-0.8751857974566519,0],[0.3053402048535645,0,-0.6757001266814768,0,0.8373071709647775,0,0.07345373695716262,0],[0.5156136211007833,0,-0.021527312695980072,0,-0.33429349958896637,0,0.045200778637081385,0],[-0.05337797198444605,0,0.9321057442575693,0,-0.2568542929366231,0,0.6451295930892229,0],[-0.9902633973397315,0,-0.3245949032716453,0,-0.8929054820910096,0,0.16183711076155305,0],[0.5626740530133247,0,0.17473291046917439,0,0.5747651914134622,0,0.030981680378317833,0],[-0.9184220382012427,0,-0.07196090091019869,0,-0.5258131832815707,0,0.8735465183854103,0],[-0.23570700827986002,0,-0.7820058278739452,0,-0.06695045903325081,0,-0.8941077529452741,0],[0.7642496000044048,0,-0.2507280269637704,0,0.9643093678168952,0,-0.27244338719174266,0],[-0.9097822601906955,0,0.07594330376014113,0,0.7314661252312362,0,0.221383738797158,0],[0.10157987242564559,0,-0.9472115677781403,0,-0.0534634692594409,0,-0.18111156718805432,0],[-0.5721683502197266,0,0.6609764746390283,0,-0.8226146227680147,0,0.09333467343822122,0],[0.3362469938583672,0,-0.7632251046597958,0,-0.3483264842070639,0,0.5750965508632362,0],[0.9951143055222929,0,-0.817937882617116,0,0.8095539668574929,0,-0.8679299866780639,0],[-0.8085358086973429,0,-0.5602965950965881,0,-0.6372574493288994,0,0.48681411938741803,0],[-0.6967263021506369,0,-0.6342455125413835,0,0.8194492068141699,0,0.3276441409252584,0],[0.18249896075576544,0,0.8488121810369194,0,-0.8481041202321649,0,0.5581355807371438,0],[0.5247766701504588,0,0.8503113384358585,0,-0.8702774825505912,0,-0.71186688169837,0],[0.5334287965670228,0,-0.4347906904295087,0,-0.6915970575064421,0,-0.6488065416924655,0],[-0.20125165861099958,0,-0.7856611018069088,0,-0.2297124406322837,0,-0.08508846862241626,0],[-0.12223921623080969,0,-0.27277953503653407,0,0.653066333848983,0,-0.3333001579158008,0],[-0.8978778254240751,0,0.3780293860472739,0,0.610581383574754,0,-0.2580812177620828,0],[0.5283971792086959,0,0.28575526596978307,0,-0.7124459412880242,0,-0.018306042533367872,0],[-0.26308368938043714,0,0.4805190050974488,0,0.8110256674699485,0,0.30939525831490755,0],[0.24036731850355864,0,0.004294330254197121,0,-0.5834901295602322,0,-0.2228960320353508,0],[-0.00035532889887690544,0,-0.975102714728564,0,-0.09896184643730521,0,0.776723135728389,0],[-0.5087003372609615,0,0.6958705759607255,0,0.16816118638962507,0,-0.1671013394370675,0],[-0.8289000266231596,0,-0.4070135587826371,0,0.5273844841867685,0,-0.29755540983751416,0],[0.7696133428253233,0,0.3404666646383703,0,0.520100730471313,0,0.6330485385842621,0],[0.8160408618859947,0,0.036736811976879835,0,-0.20100105367600918,0,0.7513201381079853,0],[0.475753890350461,0,-0.1780077195726335,0,-0.9387290887534618,0,-0.26886555878445506,0],[0.9678993350826204,0,-0.056745465844869614,0,0.7327735661529005,0,0.4420714913867414,0],[0.03427729196846485,0,-0.9172051288187504,0,-0.09215577691793442,0,0.3117800997570157,0],[-0.9331560507416725,0,-0.9192792968824506,0,-0.7002383661456406,0,0.09887628210708499,0],[-0.8348662666976452,0,-0.5165906748734415,0,0.32518779346719384,0,-0.662383958697319,0],[-0.9074847279116511,0,-0.8150478163734078,0,-0.3261351943947375,0,-0.7265145033597946,0],[0.12962018139660358,0,0.29081585723906755,0,0.02465876331552863,0,-0.8971358314156532,0],[0.8856074023060501,0,-0.48666300904005766,0,-0.17624796787276864,0,-0.8635080764070153,0],[0.19374278327450156,0,0.8463689698837698,0,0.2643380416557193,0,0.325721291359514,0],[0.011256683617830276,0,-0.8101009922102094,0,0.4083246379159391,0,0.10044348565861583,0],[-0.22511035948991776,0,0.3668740871362388,0,0.7473493618890643,0,0.4187556868419051,0],[-0.5620896723121405,0,-0.5903783133253455,0,0.4754766374826431,0,0.9866941142827272,0],[0.8252488849684596,0,-0.15206882962957025,0,-0.5618944517336786,0,-0.5671517034061253,0],[0.4272049842402339,0,0.9338347231969237,0,0.2207103380933404,0,0.9139345455914736,0],[-0.39911229629069567,0,0.28048911038786173,0,0.08935662265866995,0,-0.12925216276198626,0],[0.49278213642537594,0,-0.6985085140913725,0,-0.8367208642885089,0,0.96573985228315,0],[-0.5533669008873403,0,0.6311670728027821,0,0.22149907192215323,0,0.6313110636547208,0],[-0.9136151093989611,0,-0.4932443001307547,0,0.5913617266342044,0,0.5079695214517415,0],[-0.5437059388495982,0,-0.8615610348060727,0,0.8049337496049702,0,-0.7578760571777821,0],[0.6254578442312777,0,0.7208122285082936,0,0.6403211802244186,0,-0.5471618981100619,0],[0.16115110600367188,0,-0.3061299826949835,0,-0.3103358303196728,0,-0.5595676093362272,0],[0.32750999461859465,0,-0.8990767248906195,0,0.8141143727116287,0,-0.6375239170156419,0],[-0.28818087186664343,0,-0.4967929790727794,0,-0.8061975534074008,0,0.3427271996624768,0],[0.0437007206492126,0,0.5318432785570621,0,-0.7552775973454118,0,0.6946744699962437,0],[-0.6728961197659373,0,0.8071226514875889,0,0.14239606307819486,0,0.9304840532131493,0],[-0.3152580060996115,0,0.003985952585935593,0,0.5699334973469377,0,0.7597371623851359,0],[-0.7926146984100342,0,-0.6873021209612489,0,0.2980317338369787,0,-0.45885546086356044,0],[0.6528084860183299,0,0.5959570119157434,0,-0.9676960036158562,0,0.7392194611020386,0],[-0.42703612614423037,0,0.8689021356403828,0,0.47174223233014345,0,-0.31235639192163944,0],[-0.2627089028246701,0,0.20561118237674236,0,0.9629401070997119,0,0.7607573736459017,0],[-0.280678051058203,0,-0.08905423991382122,0,0.3934691562317312,0,-0.9459193637594581,0],[0.8431816892698407,0,-0.09703033696860075,0,-0.28157078893855214,0,0.6634752163663507,0],[-0.45683661149814725,0,-0.3011318095959723,0,0.3657641690224409,0,0.6508815842680633,0],[-0.8635789230465889,0,0.05439107632264495,0,0.20864682085812092,0,0.2584689175710082,0],[0.6613805908709764,0,-0.03854969562962651,0,-0.8552272943779826,0,-0.22712099784985185,0],[-0.7526220739819109,0,0.11377524444833398,0,0.16734788939356804,0,-0.9194614016450942,0],[0.5395428272895515,0,-0.9631801792420447,0,-0.18690509954467416,0,-0.033698043785989285,0],[-0.19515691604465246,0,0.3576874304562807,0,0.29795794980600476,0,-0.39806037209928036,0],[-0.7917640204541385,0,0.46468090591952205,0,0.4078888101503253,0,0.09117197338491678,0],[-0.02896244265139103,0,0.6448264895007014,0,0.751509967725724,0,-0.5001165079884231,0],[0.08482270641252398,0,0.7029900490306318,0,0.9627540954388678,0,0.9958190433681011,0],[0.5343133606947958,0,-0.017498048022389412,0,-0.44079551473259926,0,0.13465213449671865,0],[0.6611136374995112,0,0.9992508040741086,0,0.48845612071454525,0,0.1514029297977686,0],[-0.4647131566889584,0,-0.4563741539604962,0,0.21550955157727003,0,0.14437739504501224,0],[0.5944182686507702,0,0.3111157058738172,0,-0.8706452883780003,0,0.6765397861599922,0],[0.7492892444133759,0,0.9398039719089866,0,-0.6694023935124278,0,-0.5768049960024655,0],[-0.7041549775749445,0,0.8154679015278816,0,0.7898105648346245,0,-0.32586921425536275,0],[0.04271060973405838,0,-0.5234463848173618,0,0.12322857091203332,0,-0.200947186909616,0],[0.5877680624835193,0,0.18118226900696754,0,0.38486004527658224,0,-0.12718163197860122,0],[0.4952363665215671,0,-0.6437073810957372,0,-0.41607555001974106,0,-0.9029086092486978,0],[0.9490002826787531,0,0.8612656844779849,0,0.14048712607473135,0,-0.046862867660820484,0],[0.7135205073282123,0,-0.2673086659051478,0,-0.27076564682647586,0,0.30215098103508353,0],[0.660900600720197,0,0.7242081803269684,0,-0.008607525378465652,0,-0.2517793457955122,0],[0.06759481178596616,0,-0.5775535153225064,0,-0.5791961648501456,0,0.8491242867894471,0],[0.934121897444129,0,-0.5033958666026592,0,-0.22955751465633512,0,-0.3816819223575294,0],[0.37858355324715376,0,0.9798205276019871,0,0.7215958503074944,0,-0.2044523609802127,0],[-0.677767782472074,0,-0.24894815683364868,0,-0.675945027731359,0,0.7792281215079129,0],[0.730433096177876,0,0.3421582765877247,0,0.8527459986507893,0,0.9934606323949993,0],[-0.15647167386487126,0,-0.5374831687659025,0,0.3861869964748621,0,-0.8151714946143329,0],[-0.4748506201431155,0,-0.14376104483380914,0,-0.6865804824046791,0,-0.8346275081858039,0],[0.5620676288381219,0,0.883380820043385,0,-0.9274875484406948,0,-0.6192293516360223,0],[0.6512672961689532,0,0.1111927991732955,0,-0.28362064994871616,0,-0.9197239992208779,0],[-0.1867389981634915,0,-0.25735007179901004,0,0.9925613012164831,0,-0.31073047826066613,0],[0.8319551423192024,0,-0.11019397852942348,0,-0.352113991510123,0,0.7725129136815667,0],[0.6047304426319897,0,-0.889451315626502,0,0.5503389779478312,0,0.8707837592810392,0],[0.9001751048490405,0,0.422513788100332,0,-0.06826610025018454,0,-0.8159972415305674,0],[0.8995786528103054,0,0.053893815260380507,0,-0.5008801897056401,0,-0.4690722515806556,0],[-0.6607405566610396,0,-0.7370548062026501,0,0.11434121755883098,0,0.9063876462168992,0],[-0.7254084143787622,0,0.40910488925874233,0,0.4835271015763283,0,-0.7703443774953485,0],[0.45796078257262707,0,0.14970387052744627,0,0.5773961772210896,0,-0.2971460954286158,0],[0.03291886392980814,0,0.3402298232540488,0,0.9688403210602701,0,0.14545312244445086,0],[-0.793202010449022,0,0.26728407433256507,0,0.657469121273607,0,-0.5785832945257425,0],[0.904097240883857,0,-0.8815895207226276,0,0.5069803167134523,0,-0.6597570488229394,0],[-0.2019801987335086,0,-0.4511354733258486,0,-0.9593996177427471,0,0.5457535558380187,0],[-0.8870715405791998,0,-0.5271695530973375,0,-0.16907679894939065,0,-0.5728864334523678,0],[0.6749459714628756,0,-0.25657099671661854,0,0.010408387519419193,0,0.5287854573689401,0],[0.7735140854492784,0,0.6467876425012946,0,0.10709676332771778,0,0.4326862646266818,0],[-0.31387261440977454,0,0.8198559298180044,0,-0.3819324211217463,0,0.34943039482459426,0],[0.28689795080572367,0,-0.5476254965178668,0,-0.16281622694805264,0,0.4362193434499204,0],[-0.44726687856018543,0,-0.657204988412559,0,-0.1833156575448811,0,-0.891172993928194,0],[-0.012870645616203547,0,-0.9122099666856229,0,-0.6028943974524736,0,0.7181831770576537,0],[-0.6839786125347018,0,-0.17005764646455646,0,0.7022366668097675,0,0.5321674691513181,0],[0.25941216154024005,0,0.8750559347681701,0,0.14439439540728927,0,-0.6640274380333722,0],[0.2321278052404523,0,-0.27430106000974774,0,-0.2457893150858581,0,-0.14989746315404773,0],[-0.43109087366610765,0,-0.43089313665404916,0,0.9760719258338213,0,0.2323116878978908,0],[-0.6104979235678911,0,0.37077007768675685,0,0.01886580605059862,0,0.05679553793743253,0],[0.8358817137777805,0,-0.07111710449680686,0,0.4622285491786897,0,-0.4211358027532697,0],[0.13876674557104707,0,0.506717995274812,0,0.7454137606546283,0,-0.6258842214010656,0],[-0.8677542093209922,0,0.6948051555082202,0,-0.19482669467106462,0,0.13727635191753507,0],[0.6874940870329738,0,-0.8654151982627809,0,0.27865535067394376,0,0.3611709722317755,0],[0.8866015132516623,0,-0.2910361257381737,0,-0.4907305547967553,0,0.02552109118551016,0],[0.777852791827172,0,-0.30749110924080014,0,0.7674256032332778,0,-0.41884739231318235,0],[0.4657569993287325,0,0.5872592749074101,0,-0.0888603045605123,0,-0.903403346426785,0],[-0.9062252081930637,0,-0.29749096324667335,0,0.042803098913282156,0,0.5997027922421694,0],[0.8470598049461842,0,-0.6571920244023204,0,0.874690436758101,0,-0.05761304637417197,0],[-0.21020472515374422,0,0.5941875935532153,0,-0.15777731453999877,0,-0.3488020235672593,0],[0.9851436200551689,0,0.8524667439050972,0,0.7116117933765054,0,0.4333914890885353,0],[-0.7617819579318166,0,0.8641652911901474,0,0.22178705874830484,0,-0.751367982942611,0],[-0.8975460506044328,0,-0.022611478809267282,0,-0.24595342762768269,0,-0.5409290590323508,0],[-0.5134818670339882,0,-0.8039893684908748,0,-0.4872114919126034,0,-0.6850093146786094,0],[-0.769134858623147,0,0.43805169221013784,0,0.2848109155893326,0,-0.7699733413755894,0],[0.257924425881356,0,-0.06741440203040838,0,0.19458631612360477,0,0.40358325093984604,0],[0.8298514974303544,0,0.4478276395238936,0,0.48086681589484215,0,-0.1596162375062704,0],[-0.39695268776267767,0,-0.007588791660964489,0,-0.022501772735267878,0,0.4204030027613044,0],[-0.24560132436454296,0,0.971498113591224,0,-0.9448761083185673,0,0.4308775323443115,0],[-0.253746934235096,0,0.36125294119119644,0,-0.3342478326521814,0,-0.8722344944253564,0],[-0.5010317647829652,0,-0.4002638985402882,0,-0.8863147427327931,0,0.31381195690482855,0],[-0.07102163694798946,0,0.2684293081983924,0,0.09769959608092904,0,0.8505039266310632,0],[0.07761065009981394,0,0.6382131199352443,0,-0.22827579639852047,0,0.24261253653094172,0],[0.4232232226058841,0,0.526027369312942,0,-0.04485981212928891,0,-0.3259451510384679,0],[-0.5599321718327701,0,0.5161150824278593,0,0.30596675630658865,0,-0.2984005818143487,0],[-0.20924733392894268,0,-0.0946423802524805,0,0.9215306406840682,0,-0.46920915646478534,0],[0.9476185711100698,0,-0.6695253965444863,0,0.49772757152095437,0,0.9321436039172113,0],[0.3149880305863917,0,0.46308904187753797,0,-0.14171806955710053,0,0.6584997759200633,0],[0.4068290824070573,0,-0.20897077582776546,0,0.9814580380916595,0,0.5795789952389896,0],[-0.9387701735831797,0,-0.8941131588071585,0,0.9393910230137408,0,0.36824910854920745,0],[-0.43970200419425964,0,0.5963735058903694,0,0.6742134029045701,0,-0.8958208914846182,0],[0.6273275553248823,0,-0.13766066078096628,0,-0.7103118584491313,0,-0.8221889561973512,0],[0.8210719260387123,0,0.3881496605463326,0,-0.8863736046478152,0,0.8125068298541009,0],[-0.7469949265941978,0,-0.013395688496530056,0,0.20565486466512084,0,-0.967557699419558,0],[0.5821386091411114,0,-0.5003413613885641,0,-0.0052740005776286125,0,-0.227871248498559,0],[-0.4568038322031498,0,0.4745305976830423,0,0.34270929265767336,0,0.2613989505916834,0],[-0.18528689863160253,0,-0.2763114823028445,0,-0.46988005796447396,0,-0.9574804552830756,0],[-0.14010497648268938,0,-0.9276037914678454,0,-0.2986077694222331,0,-0.8748981445096433,0],[-0.26119915628805757,0,0.07059823162853718,0,-0.6278117564506829,0,-0.048347184900194407,0],[0.15042858151718974,0,-0.7860706318169832,0,0.20058681769296527,0,0.19919644622132182,0],[0.2649195473641157,0,0.601202187128365,0,-0.8816258367151022,0,-0.5533068790100515,0],[-0.4898496028035879,0,-0.4333911403082311,0,0.11728374101221561,0,-0.03243282483890653,0],[-0.5014488897286355,0,-0.8096013907343149,0,0.6301304893568158,0,-0.25240796990692616,0],[-0.9072537906467915,0,0.6451419899240136,0,0.6407553716562688,0,-0.3429563413374126,0],[-0.6997741484083235,0,0.48491050116717815,0,0.29347977694123983,0,-0.05801133764907718,0],[-0.6458446304313838,0,-0.4903600485995412,0,-0.35752042569220066,0,0.241620484739542,0],[-0.8998291525058448,0,0.7095460882410407,0,0.7218171004205942,0,-0.6551203145645559,0],[0.7597527471370995,0,0.9569640001282096,0,0.8709804201498628,0,0.7776262201368809,0],[-0.1147677730768919,0,-0.5719850263558328,0,0.30418996699154377,0,-0.06060275714844465,0],[0.005314292851835489,0,-0.683215350843966,0,0.2693838682025671,0,0.8870357540436089,0],[-0.23078596452251077,0,-0.2998346798121929,0,0.7346117491833866,0,-0.4457077644765377,0],[0.8419125862419605,0,-0.3545935107395053,0,0.33487798133865,0,-0.030624644365161657,0],[-0.1454624622128904,0,0.48781533259898424,0,0.4004097646102309,0,0.4980097021907568,0],[-0.7748851161450148,0,0.48784002661705017,0,-0.47211954975500703,0,-0.9863527058623731,0],[0.276282059494406,0,-0.6114340997301042,0,-0.34645659290254116,0,-0.20248096762225032,0],[0.2956437128596008,0,-0.0989312375895679,0,-0.2631406355649233,0,-0.23903776612132788,0],[0.9539442858658731,0,-0.8934349380433559,0,0.7594559071585536,0,-0.9647211120463908,0],[-0.0992089631035924,0,-0.6575790494680405,0,-0.0809805803000927,0,-0.959076541941613,0],[0.8313046526163816,0,-0.6985793551430106,0,-0.694104515016079,0,0.7141045625321567,0],[-0.13134037656709552,0,0.7469268282875419,0,0.47272409265860915,0,0.8924035015515983,0],[0.9477886334061623,0,0.916633587796241,0,0.31903313659131527,0,-0.6288237674161792,0],[0.6427228949032724,0,0.10658065974712372,0,-0.9090698016807437,0,-0.7135898135602474,0],[-0.9844652796164155,0,0.504325213842094,0,-0.785520161036402,0,-0.9659615899436176,0],[-0.2782739200629294,0,-0.23751018568873405,0,-0.14379888447001576,0,-0.3416442018933594,0],[0.5938953156583011,0,-0.1890469677746296,0,-0.9137078714556992,0,-0.44319452019408345,0],[-0.3088457169942558,0,-0.29713099589571357,0,0.9012161619029939,0,0.6386528229340911,0],[-0.8886949587613344,0,-0.19605038268491626,0,0.7839228608645499,0,-0.8398060104809701,0],[-0.24616369185969234,0,-0.5328605864197016,0,0.14772217953577638,0,-0.13368039298802614,0],[0.4866806557402015,0,0.3766364366747439,0,-0.18867882760241628,0,-0.7489697746932507,0],[-0.5396056114695966,0,0.9068239508196712,0,0.2934960904531181,0,-0.9644470377825201,0],[0.04441141616553068,0,-0.8673489186912775,0,0.1310931877233088,0,-0.2842548293992877,0],[-0.7641122150234878,0,0.004042217042297125,0,-0.9976097652688622,0,-0.8964517489075661,0],[0.26293087797239423,0,-0.23025880381464958,0,-0.4362114630639553,0,-0.974528874270618,0],[0.7018477716483176,0,-0.9897107756696641,0,0.8924467377364635,0,0.8188081523403525,0],[0.29742300789803267,0,0.11110751004889607,0,0.502338339574635,0,-0.7271101837977767,0],[-0.46526383934542537,0,0.2851027990691364,0,-0.7001206534914672,0,-0.45000553922727704,0],[-0.46533997170627117,0,0.22295306622982025,0,-0.07089620782062411,0,-0.2716359063051641,0],[0.6033187652938068,0,0.5617726347409189,0,0.8713618889451027,0,-0.501352078281343,0],[-0.04823568882420659,0,-0.5595721676945686,0,-0.43579559680074453,0,0.32241826178506017,0],[-0.2705972557887435,0,0.9277928406372666,0,0.07837137440219522,0,0.043331106659024954,0],[-0.5124369016848505,0,0.318942928686738,0,-0.5607967549003661,0,-0.6394497840665281,0],[-0.5486760432831943,0,0.758417550008744,0,-0.6651086593046784,0,-0.8354918975383043,0],[-0.7189583596773446,0,0.8901136820204556,0,-0.04453821526840329,0,0.8855067100375891,0],[0.3569222828373313,0,0.7974694008007646,0,-0.9023330938071012,0,0.022139448206871748,0],[-0.21171983238309622,0,0.4070365121588111,0,-0.6874747667461634,0,-0.29510485008358955,0],[-0.8178594061173499,0,-0.1560765109024942,0,-0.9565938389860094,0,0.9556980500929058,0],[0.6923618917353451,0,-0.7165372120216489,0,0.7644378738477826,0,-0.8552885088138282,0],[-0.09437420265749097,0,0.31785281375050545,0,-0.9377968707121909,0,-0.9829934537410736,0],[-0.9305249988101423,0,0.21096597844734788,0,0.9227481288835406,0,0.20070720138028264,0],[0.3485672087408602,0,0.3686336954124272,0,-0.9367688945494592,0,0.4095264137722552,0],[0.27993437089025974,0,0.3253933354280889,0,0.5784873603843153,0,0.3848146330565214,0],[-0.7134026801213622,0,0.025166914332658052,0,-0.2548595783300698,0,0.033423568587750196,0],[0.7167460322380066,0,0.7262990572489798,0,-0.8182226484641433,0,0.8793042344041169,0],[-0.36424977285787463,0,-0.4771447661332786,0,0.6248197313398123,0,-0.49332768097519875,0],[0.18378089042380452,0,0.877522720489651,0,-0.8465822706930339,0,-0.8543666531331837,0],[0.8829835657961667,0,-0.29299641819670796,0,0.23704448761418462,0,0.16804941045120358,0],[-0.9438783461228013,0,0.4216157207265496,0,0.22163928812369704,0,0.8945957361720502,0],[-0.6927016717381775,0,0.6706562032923102,0,-0.8271419247612357,0,0.5883133015595376,0],[0.4625170542858541,0,0.5026917653158307,0,-0.634484909940511,0,0.9714255966246128,0],[-0.7745498716831207,0,-0.08255100576207042,0,0.010569158010184765,0,-0.9133883900940418,0],[-0.5322596821933985,0,-0.6064761835150421,0,0.7429180718027055,0,0.7307649706490338,0],[-0.8368039568886161,0,0.9460472194477916,0,-0.7938161613419652,0,-0.5229735355824232,0],[0.5335606513544917,0,0.3148913295008242,0,0.6789831542409956,0,0.7157441982999444,0],[0.5039481013081968,0,-0.25800420669838786,0,0.8685934231616557,0,-0.3604900809004903,0],[0.1586673934943974,0,0.10995438741520047,0,0.7154476097784936,0,0.7687993296422064,0],[-0.5730801676400006,0,0.14819887792691588,0,0.965231572277844,0,0.0106279575265944,0],[-0.20294711971655488,0,-0.5271335910074413,0,-0.2571071945130825,0,-0.08353236969560385,0],[-0.6658005225472152,0,-0.78087377268821,0,-0.2510068938136101,0,0.7692937329411507,0],[-0.24711048044264317,0,-0.06836184719577432,0,-0.11795171210542321,0,0.7784752552397549,0],[0.8053837353363633,0,0.4824431068263948,0,0.7071245377883315,0,-0.3892826186493039,0],[0.6700924709439278,0,-0.9195823650807142,0,0.9156626043841243,0,-0.7917174752801657,0],[0.5038616531528533,0,0.7640723204240203,0,-0.3703699526377022,0,-0.8753746524453163,0],[-0.22765873931348324,0,0.7858668291009963,0,-0.5532960616983473,0,-0.7702091638930142,0],[0.9571672459132969,0,0.8144301101565361,0,0.6200244943611324,0,-0.6597691494971514,0],[-0.8675224161706865,0,0.7282981160096824,0,-0.31584681011736393,0,-0.7870995025150478,0],[0.08654352789744735,0,0.31774883437901735,0,-0.6996472566388547,0,-0.773246644064784,0],[-0.7090924875810742,0,0.003495538141578436,0,0.65299480734393,0,-0.34747170843183994,0],[0.6324283285066485,0,-0.7182074338197708,0,-0.06236910820007324,0,0.7707794150337577,0],[0.8513529533520341,0,-0.259975403547287,0,0.4395439443178475,0,-0.10900542791932821,0],[0.4502975158393383,0,0.08565820474177599,0,-0.9513742849230766,0,-0.3161689252592623,0],[0.052725029177963734,0,0.24827293399721384,0,0.7818195479921997,0,0.8546651611104608,0],[0.387336665764451,0,0.9512375644408166,0,-0.4889150373637676,0,0.9943733201362193,0],[0.8047733642160892,0,-0.7497897534631193,0,-0.01620013127103448,0,-0.6805054792203009,0],[-0.5241380790248513,0,0.8168196291662753,0,-0.48408887069672346,0,0.36815340258181095,0],[0.7935005528852344,0,0.048896311316639185,0,-0.5423907628282905,0,-0.3137107528746128,0],[0.3121060826815665,0,0.11506072292104363,0,0.5824093678966165,0,0.6808868208900094,0],[0.06153950560837984,0,0.9894018392078578,0,-0.544197189155966,0,0.9078667126595974,0],[-0.050648853182792664,0,-0.03317542979493737,0,0.20760191837325692,0,0.5769459772855043,0],[0.05135504016652703,0,-0.5485990513116121,0,0.4845343460328877,0,-0.9138567671179771,0],[0.39868526393547654,0,-0.28460521763190627,0,0.8492876146920025,0,0.7804694781079888,0],[0.6250804960727692,0,0.5973842814564705,0,0.9552026921883225,0,0.34268001234158874,0],[0.2559903357177973,0,-0.33128524478524923,0,-0.0644490453414619,0,-0.7625201037153602,0],[-0.7976370006799698,0,0.4098970666527748,0,0.9621638134121895,0,-0.008203186094760895,0],[0.22751722764223814,0,0.2613568985834718,0,0.3401466691866517,0,0.4748036051169038,0],[0.5596618722192943,0,0.07901843683794141,0,-0.6275574290193617,0,-0.0029775165021419525,0],[-0.16087953466922045,0,0.7440584395080805,0,-0.7908857064321637,0,0.20955911930650473,0],[-0.5507547822780907,0,-0.5067647583782673,0,-0.311875369399786,0,-0.77672706451267,0],[0.8030799170956016,0,0.5040474864654243,0,-0.5607051583938301,0,0.06103398511186242,0],[-0.41851929295808077,0,0.8211872945539653,0,0.17363226506859064,0,-0.4526069415733218,0],[-0.31870556995272636,0,-0.3717380934394896,0,-0.271454019472003,0,0.8412610571831465,0],[-0.7137340130284429,0,-0.5875820317305624,0,0.15509063936769962,0,-0.4528108621016145,0],[-0.6456790412776172,0,-0.3698506895452738,0,-0.7642473434098065,0,0.7737082252278924,0],[0.5168715459294617,0,-0.21740482607856393,0,-0.43219987815245986,0,0.4991473122499883,0],[-0.18640819285064936,0,0.8299590083770454,0,-0.740818330552429,0,-0.060724296141415834,0],[-0.8437405377626419,0,0.2788025587797165,0,0.04012789111584425,0,0.9903550669550896,0],[0.736945778131485,0,0.9012576504610479,0,-0.9335987558588386,0,0.4621708788909018,0],[0.5018388610333204,0,-0.10926965018734336,0,-0.8299768497236073,0,0.5095955305732787,0],[0.009358201641589403,0,-0.07827310403808951,0,0.5787070980295539,0,-0.800125194247812,0],[0.4991311365738511,0,0.8263995195738971,0,-0.7703329781070352,0,0.4141833018511534,0],[-0.6324415323324502,0,0.16972971567884088,0,0.04204987781122327,0,-0.6052218060940504,0],[0.9301225687377155,0,-0.6578279039822519,0,0.07196345692500472,0,0.07691908348351717,0],[0.292277161963284,0,-0.6652559554204345,0,0.8038741233758628,0,-0.40839675860479474,0],[-0.6691693156026304,0,-0.630917084403336,0,-0.3893374647013843,0,0.575891706161201,0],[0.3672568369656801,0,0.08070784760639071,0,-0.7558673173189163,0,-0.9110489091835916,0],[0.3806125149130821,0,0.3340932009741664,0,0.28142760740593076,0,-0.8373662452213466,0],[0.5043099061585963,0,0.837227881886065,0,0.590119160246104,0,-0.7298646923154593,0],[-0.4896969930268824,0,0.3055694606155157,0,-0.38585682725533843,0,0.7359050326049328,0],[0.3939197016879916,0,-0.2117011956870556,0,-0.46522802766412497,0,-0.17710070731118321,0],[0.6436004340648651,0,0.6831450313329697,0,0.08985269535332918,0,-0.20991967804729939,0],[0.21185251604765654,0,0.5983415339142084,0,0.9634817470796406,0,0.1625271518714726,0],[0.6033187848515809,0,-0.15359663451090455,0,-0.6455462309531868,0,0.222939170897007,0],[-0.12112228525802493,0,-0.8568399739451706,0,0.055208928883075714,0,0.2911074934527278,0],[-0.28019918920472264,0,0.8416990973055363,0,0.763914043083787,0,-0.4585150093771517,0],[0.3592298049479723,0,-0.45076292287558317,0,-0.6687471996992826,0,0.6066055847331882,0],[0.9558057086542249,0,-0.641178269404918,0,-0.8875613939017057,0,-0.47753220656886697,0],[0.6236275434494019,0,0.7824410973116755,0,-0.772478683385998,0,-0.07580782473087311,0],[-0.6093166819773614,0,-0.7122544264420867,0,0.33274191385135055,0,-0.28097468009218574,0],[-0.6696080579422414,0,-0.8207075116224587,0,0.296565655618906,0,0.7368808640167117,0],[0.8471144712530077,0,-0.52767711924389,0,-0.28079665172845125,0,-0.8183319326490164,0],[-0.6561276027932763,0,0.6732246377505362,0,0.025404913816601038,0,-0.8492924771271646,0],[0.859169527888298,0,0.7431381875649095,0,-0.39940977934747934,0,0.656501148827374,0],[0.6937863142229617,0,0.5731023638509214,0,0.9474112568423152,0,0.881116567645222,0],[-0.9223943408578634,0,-0.8867520638741553,0,0.9188226168043911,0,0.09751990251243114,0],[0.24357723677530885,0,0.7771056103520095,0,-0.6061902879737318,0,0.2662619324401021,0],[0.7737097912468016,0,-0.359299105592072,0,0.15930571453645825,0,-0.458009313326329,0],[0.22826064797118306,0,-0.34105250192806125,0,0.45649096835404634,0,-0.9159328211098909,0],[-0.6444715452380478,0,-0.7989617479033768,0,0.7910335594788194,0,0.9240658758208156,0],[-0.07692472962662578,0,-0.350968727376312,0,0.4388076104223728,0,0.4820945546962321,0],[0.4708239249885082,0,-0.45270004076883197,0,-0.6541948295198381,0,-0.2805782160721719,0],[0.9105109591037035,0,-0.4377614236436784,0,-0.39951146487146616,0,0.933021335862577,0],[-0.7874917918816209,0,-0.39643751876428723,0,-0.3755485089495778,0,-0.27784533239901066,0],[0.8976908111944795,0,0.6539381984621286,0,0.6312324078753591,0,0.09158713137730956,0],[0.11918467236682773,0,-0.6148686702363193,0,0.12906530918553472,0,0.42371342796832323,0],[0.16207997128367424,0,-0.7484402554109693,0,-0.4041339633986354,0,-0.6131104100495577,0],[0.3267480656504631,0,0.16901556309312582,0,-0.6076788711361587,0,-0.3916539396159351,0],[0.7587563530541956,0,0.9069726900197566,0,-0.36865352652966976,0,-0.9101924225687981,0],[-0.9213970224373043,0,-0.14732144819572568,0,-0.4741212883964181,0,-0.9922248148359358,0],[-0.7443170147016644,0,-0.41950567811727524,0,-0.1327929738909006,0,0.8272784459404647,0],[-0.6836394746787846,0,-0.4720073831267655,0,-0.24581515975296497,0,-0.01730903284624219,0],[-0.7065854063257575,0,0.6384409414604306,0,0.29308708291500807,0,0.5960858804173768,0],[0.7443264797329903,0,-0.7244367655366659,0,0.5357199064455926,0,-0.33592207403853536,0],[0.3664668798446655,0,-0.2540774350054562,0,-0.627265056129545,0,0.5047281230799854,0],[0.4241148717701435,0,0.8191869403235614,0,0.022061350289732218,0,-0.2893076720647514,0],[-0.388114167843014,0,-0.41705108527094126,0,-0.9552680938504636,0,-0.4412311529740691,0],[0.6237523509189487,0,-0.5585422147996724,0,-0.12490540649741888,0,-0.362454691901803,0],[-0.9712717244401574,0,0.5301165413111448,0,-0.7330314517021179,0,-0.6411521178670228,0],[0.5020938431844115,0,-0.3739955476485193,0,0.5521571068093181,0,0.10331199551001191,0],[0.2337654484435916,0,0.47090671490877867,0,0.03575165988877416,0,-0.0025820559822022915,0],[0.5763722639530897,0,0.6520704925060272,0,-0.6383176650851965,0,0.052502678241580725,0],[0.5820112498477101,0,0.019921621307730675,0,0.19097453588619828,0,-0.4897691276855767,0],[0.8893430922180414,0,-0.8064581844955683,0,-0.3808367610909045,0,-0.307642986997962,0],[-0.3921200502663851,0,0.1989575047045946,0,0.6625380176119506,0,0.8083111676387489,0],[0.5419534663669765,0,-0.3789294855669141,0,-0.6122408374212682,0,0.5055320211686194,0],[0.9271334181539714,0,0.5841877893544734,0,-0.28261557780206203,0,0.17221471387892962,0],[-0.9697888274677098,0,-0.5536022181622684,0,0.048436522483825684,0,0.11140301637351513,0],[-0.4087823792360723,0,0.724825908895582,0,-0.31744496477767825,0,0.3535902635194361,0],[0.09665405983105302,0,0.47187034133821726,0,0.3999581183306873,0,-0.14992064330726862,0],[0.9125124085694551,0,-0.5724249808117747,0,0.7834697756916285,0,0.6905745547264814,0],[-0.08397793490439653,0,0.7672181529924273,0,-0.12064053397625685,0,-0.06154347211122513,0],[0.2727775597013533,0,-0.1561007909476757,0,-0.9313600100576878,0,0.6879294910468161,0],[-0.9861939488910139,0,-0.7030943091958761,0,0.5459964233450592,0,-0.68145856494084,0],[-0.2121322462335229,0,-0.01441357284784317,0,0.0005960832349956036,0,0.6153985285200179,0],[-0.8126020501367748,0,-0.5443743728101254,0,-0.8010410470888019,0,0.01419513812288642,0],[-0.05649776617065072,0,-0.5142526584677398,0,0.08695437479764223,0,0.20084752375259995,0],[0.0673070577904582,0,0.6692420048639178,0,0.338935200124979,0,0.19150183675810695,0],[0.5215108999982476,0,-0.7808119640685618,0,0.9166003637947142,0,-0.16297492571175098,0],[0.5227674026973546,0,-0.5737228505313396,0,0.9748454401269555,0,0.3047904036939144,0],[0.08128693886101246,0,0.4279582272283733,0,-0.47770761838182807,0,0.2021818091161549,0],[0.44638522807508707,0,-0.36999597307294607,0,-0.8297834321856499,0,0.2010601544752717,0],[-0.005880030337721109,0,0.8148450707085431,0,0.29797481931746006,0,-0.5976511533372104,0],[0.2740210024639964,0,0.8368186391890049,0,-0.7235326357185841,0,0.6851093992590904,0],[0.513453793246299,0,-0.977417366579175,0,-0.4281109166331589,0,-0.15160951390862465,0],[0.8474799860268831,0,-0.7807356351986527,0,0.40154683217406273,0,-0.246847755741328,0],[0.7997365803457797,0,0.7529264963231981,0,0.6372451828792691,0,0.9999434244818985,0],[-0.9710864671505988,0,-0.3017086898908019,0,-0.9305879324674606,0,-0.8055377532728016,0],[0.956377659458667,0,0.39686288917437196,0,-0.1978243892081082,0,-0.3164286073297262,0],[0.21994344983249903,0,-0.957671903539449,0,-0.17826346680521965,0,-0.07838499220088124,0],[-0.12249259045347571,0,-0.3138449960388243,0,-0.0802213978022337,0,-0.6432558950036764,0],[0.345782489515841,0,-0.7520405324175954,0,-0.2947394913062453,0,0.413551339879632,0],[0.48655092623084784,0,-0.16793102864176035,0,0.7609539562836289,0,0.9805532628670335,0],[0.5388849847950041,0,0.18303855834528804,0,-0.636425529140979,0,-0.3888818547129631,0],[0.7995992903597653,0,-0.5414787824265659,0,-0.9567518131807446,0,-0.8246808527037501,0],[0.8858314608223736,0,0.13411043351516128,0,-0.867171986028552,0,0.8049513334408402,0],[0.4952367446385324,0,0.45261854818090796,0,0.6353992824442685,0,-0.40324136801064014,0],[-0.05543129611760378,0,-0.9736163541674614,0,0.9316138327121735,0,0.7035788455978036,0],[0.4912250726483762,0,-0.9974398789927363,0,-0.25123220635578036,0,0.387198977638036,0],[0.969992199447006,0,-0.37201926251873374,0,-0.04624189808964729,0,0.0023841317743062973,0],[-0.49225614313036203,0,0.36434992123395205,0,0.6188104068860412,0,-0.06696732668206096,0],[-0.1764717437326908,0,-0.7894788705743849,0,-0.5346778524108231,0,0.11924482602626085,0],[-0.09238456515595317,0,-0.13931890623643994,0,-0.46631149807944894,0,-0.6504133935086429,0],[-0.3908248101361096,0,-0.8936615902930498,0,0.20215857913717628,0,-0.22722285194322467,0],[0.47506612073630095,0,-0.16150333639234304,0,-0.4150189855135977,0,0.7491411906667054,0],[0.9624953558668494,0,-0.05838905554264784,0,0.4307392565533519,0,0.36873927898705006,0],[0.6197633855044842,0,-0.6393303391523659,0,0.895718714222312,0,-0.29982804134488106,0],[-0.3935922058299184,0,0.039876414462924004,0,0.48113801050931215,0,-0.23044111439958215,0],[-0.00010539405047893524,0,0.6474946835078299,0,0.2508276258595288,0,0.5352992191910744,0],[-0.7074931631796062,0,0.3902139528654516,0,0.049908742774277925,0,0.9110833331942558,0],[-0.5867302650585771,0,0.967482587788254,0,-0.9766385755501688,0,-0.5479592969641089,0],[0.6055741431191564,0,0.6354230288416147,0,-0.22123938472941518,0,0.5918968333862722,0],[-0.2632568459957838,0,0.698897697031498,0,0.8379046809859574,0,0.773294179700315,0],[-0.982917136978358,0,0.522426045499742,0,0.5970375733450055,0,-0.6498738848604262,0],[-0.19603352434933186,0,-0.4040911612100899,0,-0.3196659768000245,0,-0.6694074873812497,0],[0.7932326258160174,0,-0.2833549906499684,0,0.9864403773099184,0,-0.40513564506545663,0],[-0.531751852016896,0,0.318218351341784,0,-0.0890848501585424,0,-0.27609196677803993,0],[-0.26064960239455104,0,-0.5613050241954625,0,0.6949181873351336,0,-0.8546630670316517,0],[-0.6819901368580759,0,-0.4097096244804561,0,0.7983074896037579,0,0.3585336385294795,0],[0.18901315983384848,0,0.1940611875616014,0,-0.6778088426217437,0,0.6074538589455187,0],[-0.9660558314062655,0,-0.5387328518554568,0,-0.7030949415639043,0,-0.6321335569955409,0],[0.41062138602137566,0,-0.8627775488421321,0,0.9045353890396655,0,-0.7355436272919178,0],[-0.7304122243076563,0,0.35768103087320924,0,0.8457737513817847,0,-0.564096100628376,0],[-0.3002712815068662,0,0.647042625118047,0,-0.01000460796058178,0,0.3537155706435442,0],[0.13418787717819214,0,-0.45788177382200956,0,-0.6634219251573086,0,0.19298406364396214,0],[-0.8996945223771036,0,-0.7946396814659238,0,-0.8394324900582433,0,0.5630125040188432,0],[0.308556136675179,0,-0.697574560996145,0,-0.437494907528162,0,-0.6654558447189629,0],[0.27860031370073557,0,-0.14083246607333422,0,-0.2452115574851632,0,-0.91147376364097,0],[-0.30817226227372885,0,0.16760343732312322,0,0.6788669051602483,0,-0.39241201011464,0],[0.47928031953051686,0,-0.9251363165676594,0,0.6252641975879669,0,0.6312639461830258,0],[-0.19523350475355983,0,-0.43276209523901343,0,-0.09007384814321995,0,-0.5178693514317274,0],[0.5539966803044081,0,0.21912164334207773,0,0.5073182033374906,0,0.7572388192638755,0],[-0.5371452043764293,0,-0.619089285377413,0,-0.7304945816285908,0,0.7173096928745508,0],[-0.006685443688184023,0,0.3204283155500889,0,0.020263824611902237,0,0.11281838919967413,0],[0.5380243365652859,0,-0.27890946296975017,0,0.33182947989553213,0,-0.8895487505942583,0],[0.8014250756241381,0,0.8259962163865566,0,-0.12315827421844006,0,0.22773294197395444,0],[-0.28529448714107275,0,0.16335906693711877,0,-0.5489776646718383,0,0.9875404536724091,0],[0.014355955179780722,0,0.11507047759369016,0,-0.9429814098402858,0,0.7180828871205449,0],[0.29349661292508245,0,-0.7382254702970386,0,-0.9496810473501682,0,0.21588828042149544,0],[0.28040137980133295,0,0.03022398753091693,0,-0.71118019009009,0,0.4469986385665834,0],[-0.8658980978652835,0,-0.4319068482145667,0,0.17365714721381664,0,0.08276342367753386,0],[-0.8416034011170268,0,0.9358477322384715,0,0.5322491503320634,0,-0.4207197166979313,0],[-0.7798785269260406,0,0.3591378224082291,0,-0.9586209333501756,0,0.015711552929133177,0],[0.06072463421151042,0,-0.25249964743852615,0,0.2851924831047654,0,0.6139673688448966,0],[-0.6156507544219494,0,0.5134717612527311,0,0.053984923753887415,0,-0.19031954230740666,0],[0.07225674856454134,0,-0.21619732677936554,0,-0.38975156750530005,0,-0.41855575051158667,0],[-0.7469242671504617,0,-0.9624214777722955,0,-0.13798569096252322,0,0.7122782948426902,0],[-0.877467243000865,0,0.8994977278634906,0,-0.4726234767585993,0,0.06674741301685572,0],[0.9102669325657189,0,0.6402506246231496,0,-0.9126459304243326,0,-0.9730856902897358,0],[-0.8032169668003917,0,-0.9530418734066188,0,0.7170616560615599,0,0.4459224594756961,0],[-0.7305326079949737,0,-0.9375138427130878,0,-0.9535124022513628,0,-0.660919020883739,0],[0.9455028180964291,0,0.10218978067860007,0,0.12872286653146148,0,0.9076856668107212,0],[0.6515831626020372,0,0.8105180314742029,0,-0.8440893003717065,0,-0.30951606575399637,0],[0.9046668983064592,0,-0.49001000728458166,0,-0.06986401183530688,0,-0.34695567609742284,0],[-0.41617673682048917,0,-0.7719276077114046,0,0.7911442518234253,0,0.6044749803841114,0],[-0.6483584358356893,0,0.10664641903713346,0,0.2644492178224027,0,0.6289129052311182,0],[-0.6770622720941901,0,-0.21487874817103148,0,0.9137498224154115,0,0.9701008065603673,0],[-0.27340457355603576,0,-0.4258794840425253,0,0.7530511361546814,0,-0.7768911086022854,0],[-0.803466625045985,0,0.3616742268204689,0,-0.5410584416240454,0,0.44944481970742345,0],[0.4904700848273933,0,0.24519837135449052,0,-0.39453847892582417,0,0.020095834508538246,0],[0.14930512895807624,0,0.042261036578565836,0,-0.7556937499903142,0,0.5635132500901818,0],[-0.0005125813186168671,0,-0.5199682819657028,0,0.5194246754981577,0,-0.06275573140010238,0],[-0.133565423078835,0,0.9374218015000224,0,-0.08498790813609958,0,-0.40281539503484964,0],[0.9448502464219928,0,-0.8392730006016791,0,0.30282558407634497,0,0.6312044286169112,0],[0.41198863135650754,0,-0.5317138638347387,0,-0.7569754919968545,0,-0.7389231557026505,0],[0.21043116599321365,0,0.5202267724089324,0,-0.47553042275831103,0,0.2873486876487732,0],[-0.8794229528866708,0,-0.6296363631263375,0,-0.3297338751144707,0,0.3593168086372316,0],[0.8398281587287784,0,-0.050237559247761965,0,0.45201439084485173,0,0.7726255264133215,0],[0.3142130710184574,0,-0.9167003007605672,0,0.21115572517737746,0,0.6906732562929392,0],[0.2659075506962836,0,0.7223474192433059,0,-0.7411420308053493,0,0.6116271247155964,0],[-0.028379292227327824,0,0.3611604585312307,0,-0.6414384297095239,0,0.7641674210317433,0],[-0.040812868159264326,0,0.046942172572016716,0,0.0931533151306212,0,0.535693028010428,0],[0.2191420434974134,0,0.08403141470625997,0,-0.29233994614332914,0,-0.13569128094241023,0],[-0.44084098329767585,0,-0.7347424430772662,0,0.5568750146776438,0,0.9958145385608077,0],[-0.5548034124076366,0,-0.5940500772558153,0,-0.3007321306504309,0,0.740346519742161,0],[0.531262116972357,0,-0.5987660745158792,0,0.12435099435970187,0,-0.4255060451105237,0],[0.25276604015380144,0,0.48321788012981415,0,0.16719011636450887,0,-0.4892958803102374,0],[0.9685983383096755,0,-0.3164748935960233,0,-0.43071283819153905,0,0.35389307513833046,0],[-0.031405741814523935,0,-0.9178572781383991,0,-0.796962974127382,0,-0.062118731904774904,0],[0.5129260225221515,0,-0.8535097213461995,0,-0.8449443918652833,0,0.2182792415842414,0],[0.7820480684749782,0,0.889263235963881,0,0.3416107934899628,0,0.3017393508926034,0],[0.6063725077547133,0,-0.07118003908544779,0,0.7252680012024939,0,0.002048404421657324,0],[0.6128643164411187,0,0.7635976145975292,0,0.31951091857627034,0,-0.7250082697719336,0],[-0.923268077429384,0,-0.5304834712296724,0,-0.5444898414425552,0,-0.9529106491245329,0],[0.043890480417758226,0,0.4923199941404164,0,0.2880085716024041,0,0.6827627718448639,0],[0.6930473186075687,0,-0.6637393841519952,0,0.7980577140115201,0,0.10546634579077363,0],[0.0829872265458107,0,0.9946652464568615,0,-0.06516268290579319,0,-0.19452593056485057,0],[0.9442193116992712,0,-0.7706704898737371,0,0.17349615273997188,0,-0.3818170754238963,0],[0.5391186950728297,0,-0.7596576348878443,0,-0.9074312085285783,0,0.4608088214881718,0],[-0.44553301855921745,0,0.2991389441303909,0,0.9868863178417087,0,-0.017389129381626844,0],[-0.17523548938333988,0,-0.5179090350866318,0,0.5784769537858665,0,-0.268593683373183,0],[0.4097272427752614,0,-0.5150569463148713,0,0.41515731159597635,0,-0.019423160701990128,0],[0.721217583399266,0,-0.8960248013027012,0,0.40979028306901455,0,0.564823089633137,0],[-0.3936773035675287,0,-0.2284706518985331,0,-0.41521952114999294,0,0.08163928240537643,0],[0.1737082083709538,0,-0.7982311844825745,0,-0.9001715308986604,0,-0.5509352833032608,0],[0.5832558586262167,0,-0.7270687161944807,0,0.25429312139749527,0,-0.7425854858011007,0],[-0.7042405074462295,0,-0.6248942473903298,0,0.7122754766605794,0,0.010835417546331882,0],[-0.9758993396535516,0,-0.7340209344401956,0,-0.4875422022305429,0,0.6427281908690929,0],[-0.6904914197511971,0,0.7510264115408063,0,0.0175218740478158,0,0.18396487412974238,0],[-0.7493941183201969,0,0.9206974818371236,0,0.3829761310480535,0,-0.6345435744151473,0],[0.10160294314846396,0,0.6746452525258064,0,-0.11143014021217823,0,-0.23539917264133692,0],[-0.6436209906823933,0,-0.8074780190363526,0,0.32290738774463534,0,-0.00945473974570632,0],[0.02225178014487028,0,-0.010940966662019491,0,0.4742498015984893,0,-0.2729257568717003,0],[0.49771843245252967,0,-0.21205360163003206,0,0.5449504749849439,0,0.40417536767199636,0],[0.49877585330978036,0,-0.08731155889108777,0,-0.348594241309911,0,0.07186727877706289,0],[0.9084416776895523,0,0.01924975775182247,0,0.8502867836505175,0,-0.40540362568572164,0],[0.6903317626565695,0,0.9840389988385141,0,-0.32729541789740324,0,0.7239906853064895,0],[-0.048273279797285795,0,-0.7756578042171896,0,0.39423487009480596,0,0.7557056942023337,0],[-0.3117076177150011,0,-0.660596800968051,0,0.3738975808955729,0,-0.5574090164154768,0],[-0.44638965418562293,0,0.3528724987991154,0,-0.9957979191094637,0,-0.6432196367532015,0],[0.6481345030479133,0,-0.21794698433950543,0,-0.015083111822605133,0,-0.0387527197599411,0],[-0.5773286130279303,0,-0.4265620126388967,0,0.9576329519040883,0,-0.7732957224361598,0],[0.35896271420642734,0,0.581989555619657,0,0.8024995466694236,0,0.4751942069269717,0],[-0.759110632352531,0,-0.05112505005672574,0,-0.86266487557441,0,0.8668717280961573,0],[0.5213536494411528,0,0.7587021221406758,0,0.7914345446042717,0,0.1894655260257423,0],[0.9582938882522285,0,-0.1455932497046888,0,0.999484159052372,0,0.16700632078573108,0],[0.7269867486320436,0,-0.9820634601637721,0,-0.9916416308842599,0,-0.4783603041432798,0],[0.09583080979064107,0,0.20758705027401447,0,0.05524607701227069,0,-0.29683401994407177,0],[0.8579348702915013,0,-0.5721924747340381,0,-0.7704949644394219,0,-0.34581829933449626,0],[-0.6756855612620711,0,0.8864107066765428,0,0.07398581923916936,0,-0.6877331342548132,0],[0.1749629252590239,0,0.26907641999423504,0,0.29506192449480295,0,0.27368048671633005,0],[0.5333901420235634,0,0.4458499145694077,0,-0.5941215241327882,0,0.16585254669189453,0],[-0.6291848104447126,0,0.18707867385819554,0,0.6473431652411819,0,-0.6246397541835904,0],[0.2954995916225016,0,0.667985784355551,0,-0.04283833410590887,0,0.05185739090666175,0],[-0.40496962843462825,0,-0.6099359910003841,0,-0.7934109442867339,0,0.7107880995608866,0],[0.17267813626676798,0,-0.4674686682410538,0,-0.5905118184164166,0,0.13184227421879768,0],[-0.12655194848775864,0,0.4140915875323117,0,-0.592339341994375,0,0.9187858733348548,0],[-0.42622734466567636,0,-0.4428375023417175,0,-0.6446415348909795,0,-0.8494549640454352,0],[-0.5824378095567226,0,0.7779757268726826,0,0.4988109520636499,0,-0.8678283281624317,0],[-0.10693960450589657,0,-0.8788988348096609,0,-0.9806800852529705,0,0.0729935634881258,0],[0.6198928412050009,0,0.9029786479659379,0,0.9590342324227095,0,0.41275244439020753,0],[-0.7779858950525522,0,-0.13727344386279583,0,0.5654637315310538,0,-0.7444232976995409,0],[0.94785469584167,0,-0.7034046119078994,0,0.624188014306128,0,0.19944198662415147,0],[-0.5982393487356603,0,0.3483311873860657,0,0.29067565128207207,0,0.6003564293496311,0],[-0.0703773032873869,0,-0.6864640284329653,0,0.2529103886336088,0,0.17455934174358845,0],[0.39724584855139256,0,0.13656943244859576,0,-0.9493010411970317,0,-0.8484524036757648,0],[-0.9619568926282227,0,0.05904130917042494,0,-0.3110582730732858,0,0.437501291744411,0],[-0.7886084197089076,0,0.8324358440004289,0,-0.15754712466150522,0,0.31815586518496275,0],[0.5729092927649617,0,-0.6426028138957918,0,0.09915773523971438,0,0.8058941187337041,0],[-0.36644128570333123,0,0.5151927806437016,0,0.04878771351650357,0,-0.7111184620298445,0],[0.03383366297930479,0,0.9542348878458142,0,0.20149147463962436,0,-0.8166487151756883,0],[-0.4087901241146028,0,-0.2792486003600061,0,-0.6239267964847386,0,-0.5792458294890821,0],[-0.13972598686814308,0,-0.8273943075910211,0,0.3194287824444473,0,-0.8897664304822683,0],[0.19737501721829176,0,-0.33443207992240787,0,0.8997421502135694,0,0.4187541869468987,0],[0.316802023909986,0,-0.500054189004004,0,0.19427418801933527,0,-0.269330570474267,0],[0.08260299218818545,0,-0.3592400699853897,0,0.7548452485352755,0,-0.6023823656141758,0],[-0.03405543742701411,0,-0.8633108749054372,0,-0.8389109745621681,0,-0.25490231392905116,0],[0.3983622412197292,0,-0.37441397830843925,0,-0.3079773001372814,0,0.6391902910545468,0],[0.3936209329403937,0,-0.094065697863698,0,0.6607328373938799,0,0.9889806276187301,0],[-0.6023860895074904,0,0.637138300575316,0,0.20376061042770743,0,-0.10560989426448941,0],[0.1440895930863917,0,-0.04752430319786072,0,-0.25080352183431387,0,-0.5168147943913937,0],[0.16616643778979778,0,-0.6129366829991341,0,-0.1683154534548521,0,0.08968021301552653,0],[-0.8173832651227713,0,-0.5687630511820316,0,0.6130112092941999,0,-0.46790091460570693,0],[0.42219680873677135,0,-0.49268473545089364,0,0.1167430654168129,0,-0.6925208396278322,0],[0.9149566115811467,0,-0.9965570312924683,0,-0.10067808348685503,0,-0.7364182760939002,0],[-0.01893613673746586,0,0.8561102137900889,0,0.37345122918486595,0,0.6160134952515364,0],[0.5836406350135803,0,-0.7340849433094263,0,-0.6103557138703763,0,-0.9710945822298527,0],[0.2251276527531445,0,0.35692719044163823,0,-0.8290422218851745,0,0.06613936927169561,0],[0.49446186050772667,0,0.2142107686959207,0,0.8488850276917219,0,-0.6086643538437784,0],[-0.13790343143045902,0,0.20499820914119482,0,0.6812682216987014,0,-0.6066078054718673,0],[0.5718472683802247,0,0.6971081998199224,0,0.16955630341544747,0,-0.04842944676056504,0],[0.8874645894393325,0,0.04537433013319969,0,0.09963507717475295,0,0.33836625376716256,0],[-0.0050209686160087585,0,0.7460703966207802,0,-0.36087003350257874,0,0.5480545465834439,0],[0.07931505609303713,0,0.38800622755661607,0,0.955027433577925,0,-0.6432721666060388,0],[-0.06255070678889751,0,0.8881543125025928,0,-0.9933016616851091,0,0.2572822766378522,0],[0.4385666907764971,0,-0.7854576613754034,0,0.9674779251217842,0,-0.4261629958637059,0],[0.08017807034775615,0,0.9852475100196898,0,-0.5185373085550964,0,0.30668125208467245,0],[0.65729362051934,0,-0.4711512322537601,0,-0.11849523661658168,0,0.16208438435569406,0],[-0.7601345148868859,0,0.9014662303961813,0,0.22547683585435152,0,-0.9385063177905977,0],[-0.9498609304428101,0,-0.998275684658438,0,0.24223253456875682,0,-0.9496255912818015,0],[0.3498431839980185,0,0.493220831733197,0,-0.7578780804760754,0,0.6780176982283592,0],[0.4324878314509988,0,-0.9429626581259072,0,0.6670894119888544,0,-0.0022993385791778564,0],[0.8865447868593037,0,0.16521775955334306,0,-0.6240095598623157,0,-0.7341133570298553,0],[-0.34122922411188483,0,0.8422536733560264,0,-0.4702238435856998,0,0.24436195474117994,0],[0.5599911105819046,0,0.1488839308731258,0,-0.17178444657474756,0,0.3120348905213177,0],[-0.494252507109195,0,-0.2146445089019835,0,-0.9922703937627375,0,0.6310051931068301,0],[0.8926041149534285,0,0.058938064612448215,0,-0.21216528210788965,0,-0.7838418837636709,0],[0.9471985860727727,0,-0.006649727001786232,0,-0.03369585098698735,0,-0.2843513418920338,0],[-0.670645555946976,0,0.0788914361037314,0,0.053482201881706715,0,0.2996274633333087,0],[-0.5575526994653046,0,-0.4187644557096064,0,-0.37019206304103136,0,0.5589369414374232,0],[-0.7036324315704405,0,0.5209483867511153,0,-0.5104726096615195,0,-0.04608054552227259,0],[0.1943586729466915,0,0.08772354014217854,0,-0.1268483754247427,0,0.6859149378724396,0],[-0.26368501875549555,0,-0.8943195710889995,0,-0.35771680949255824,0,-0.33215096266940236,0],[0.5685879089869559,0,0.6870523779653013,0,0.9814114044420421,0,-0.2858408046886325,0],[-0.5489175361581147,0,-0.3494943962432444,0,-0.22862006863579154,0,0.6695447559468448,0],[-0.5853930236771703,0,-0.28446037508547306,0,-0.30976597080007195,0,-0.5158368116244674,0],[0.8791628256440163,0,-0.7892850060015917,0,0.2689989572390914,0,0.44449051190167665,0],[0.09860206581652164,0,-0.5103760240599513,0,0.2544170953333378,0,0.014898623805493116,0],[-0.19111158465966582,0,0.9565824479795992,0,-0.3647379716858268,0,-0.49327561259269714,0],[0.186724744271487,0,-0.1459468058310449,0,0.32314144494012,0,0.4968045218847692,0],[-0.21762234857305884,0,0.6345736705698073,0,0.3533786553889513,0,-0.37791121331974864,0],[0.9923407947644591,0,0.44917418248951435,0,0.45686103217303753,0,-0.4220874891616404,0],[-0.45263867219910026,0,0.2604371141642332,0,0.4452554462477565,0,-0.6596985305659473,0],[0.4778327913954854,0,-0.2332408861257136,0,-0.6075065140612423,0,-0.6913312459364533,0],[-0.5145854256115854,0,-0.08478174032643437,0,0.817131866235286,0,0.6572536802850664,0],[0.974168008659035,0,-0.03842220874503255,0,0.15962656633928418,0,-0.5131871621124446,0],[-0.33518100064247847,0,0.5727866841480136,0,0.19934710627421737,0,0.041614961344748735,0],[0.4324402576312423,0,0.7883949135430157,0,0.752011873293668,0,0.7411088715307415,0],[-0.4886701959185302,0,0.2815648913383484,0,0.0003683958202600479,0,-0.04204388568177819,0],[0.6433179955929518,0,-0.437403567135334,0,0.6843097074888647,0,-0.7421782608143985,0],[-0.358981535769999,0,0.428403427824378,0,-0.9810002855956554,0,-0.5812098304741085,0],[-0.6257904041558504,0,-0.12232145015150309,0,0.879397802054882,0,-0.6366443354636431,0],[-0.09828896587714553,0,-0.581928642001003,0,-0.09025572519749403,0,-0.8812109380960464,0],[-0.7996966801583767,0,0.5962117672897875,0,0.48260924126952887,0,-0.7506064092740417,0],[0.09226046223193407,0,-0.4161262307316065,0,-0.9765718332491815,0,-0.09723599115386605,0],[-0.553191942628473,0,-0.5069689969532192,0,0.11098930239677429,0,-0.5100941346026957,0],[0.8583827940747142,0,-0.8246503458358347,0,0.7860978855751455,0,0.7655258243903518,0],[-0.9669836414977908,0,0.170075342990458,0,-0.05652259895578027,0,-0.8890282916836441,0],[-0.24510954739525914,0,0.9710545158013701,0,0.08464460587128997,0,-0.04509544838219881,0],[-0.8191028339788318,0,-0.2527780910022557,0,0.8815501877106726,0,0.9200117834843695,0],[0.33884043199941516,0,-0.01750442013144493,0,-0.35584861785173416,0,0.0681870924308896,0],[0.6857724701985717,0,-0.9976148088462651,0,-0.009243717417120934,0,0.8605128540657461,0],[-0.34669674141332507,0,-0.39266491774469614,0,-0.6861342997290194,0,-0.3998693376779556,0],[-0.10675189970061183,0,-0.9361027721315622,0,0.2663031928241253,0,0.4940753118135035,0],[0.5541753889992833,0,-0.1528140753507614,0,0.1183823668397963,0,-0.9029573951847851,0],[0.4010068317875266,0,-0.8761980626732111,0,0.37332269037142396,0,-0.9339992552995682,0],[-0.0980583606287837,0,-0.4824988739565015,0,0.5048181721940637,0,0.5556299136951566,0],[0.338512534275651,0,0.4921139474026859,0,0.6059986930340528,0,-0.9887641626410186,0],[-0.174254700075835,0,-0.1988023822195828,0,0.7949125557206571,0,0.3791032158769667,0],[-0.6543721305206418,0,0.7930903960950673,0,-0.9279432934708893,0,-0.12436888087540865,0],[-0.1490384922362864,0,0.05339552229270339,0,-0.5521047874353826,0,-0.2020956282503903,0],[0.1847803252749145,0,-0.03303317492827773,0,-0.10213327361270785,0,-0.956023411359638,0],[-0.4339223955757916,0,0.6466354494914412,0,-0.4602188658900559,0,-0.9017290081828833,0],[-0.8967997888103127,0,0.016056941356509924,0,-0.06669384660199285,0,-0.7680608830414712,0],[0.12815191177651286,0,0.9545328775420785,0,0.6889048391021788,0,-0.009781940840184689,0],[0.8748071347363293,0,-0.2523500039242208,0,0.18512840755283833,0,0.22648667870089412,0],[-0.7841008012183011,0,0.32956813368946314,0,-0.4356958786956966,0,0.24323016963899136,0],[-0.5298795122653246,0,-0.6480957437306643,0,-0.9120226893573999,0,-0.03999639255926013,0],[0.16961109871044755,0,-0.7204422042705119,0,0.12440366530790925,0,-0.36820347141474485,0],[0.2604187368415296,0,-0.5553023987449706,0,-0.8367990544065833,0,-0.8548881700262427,0],[-0.17612172896042466,0,-0.9231790830381215,0,0.8773117316886783,0,-0.03466022899374366,0],[0.7232724814675748,0,0.7409696425311267,0,-0.5878226291388273,0,0.5659952978603542,0],[-0.7842773171141744,0,0.472461755387485,0,0.33133364329114556,0,-0.7659011068753898,0],[-0.8649463006295264,0,-0.45892684860154986,0,-0.9261173061095178,0,-0.45687671983614564,0],[0.8856059731915593,0,-0.8303476078435779,0,-0.4624190628528595,0,-0.34893053211271763,0],[0.5301748053170741,0,-0.141292585991323,0,0.20542792044579983,0,0.4873389434069395,0],[-0.8422999898903072,0,0.6892705522477627,0,0.3202976631000638,0,-0.1556632248684764,0],[-0.6445689457468688,0,-0.39933797297999263,0,0.6877868510782719,0,0.8403423624113202,0],[0.4060494457371533,0,0.0400414252653718,0,0.7953184810467064,0,-0.30494028190150857,0],[0.869499749969691,0,0.8222458688542247,0,0.6081416117958724,0,-0.5583989666774869,0],[-0.7834594156593084,0,-0.2270043659955263,0,-0.6414826456457376,0,0.04254311881959438,0],[0.18206878937780857,0,-0.6195611148141325,0,0.4082512021996081,0,0.48070177529007196,0],[0.9499946185387671,0,-0.30226423777639866,0,0.5914945672266185,0,0.9312482597306371,0],[-0.3883141353726387,0,-0.4467283021658659,0,0.5929150986485183,0,-0.34203204652294517,0],[-0.4500884390436113,0,-0.5959838759154081,0,-0.10045506851747632,0,-0.860657075420022,0],[0.77319011464715,0,0.5435377173125744,0,-0.9727976741269231,0,-0.07552216341719031,0],[-0.9493263377808034,0,0.6742122550494969,0,0.8125724620185792,0,-0.36002424731850624,0],[0.9260381157509983,0,0.9646068811416626,0,0.656258752103895,0,0.2858461863361299,0],[0.7173056588508189,0,-0.8868076028302312,0,-0.2969390149228275,0,-0.053478695917874575,0],[0.4666521055623889,0,-0.1631781430914998,0,-0.34268782613798976,0,0.23432685574516654,0],[-0.1735274139791727,0,0.222844198346138,0,0.61638318374753,0,0.675793454516679,0],[0.8044375074096024,0,-0.8333073230460286,0,-0.15856378339231014,0,0.33611172577366233,0],[-0.5064777131192386,0,0.11768623534590006,0,-0.7121841041371226,0,0.6748914550989866,0],[0.868119643535465,0,0.28008857602253556,0,0.49629449006170034,0,0.011540461797267199,0],[-0.21016473649069667,0,0.007670398335903883,0,-0.34364143712446094,0,0.1584415938705206,0],[0.8169265734031796,0,0.07620052341371775,0,0.6982227503322065,0,0.943170431535691,0],[-0.5970518225803971,0,0.9097145162522793,0,-0.1883369218558073,0,0.8367909984663129,0],[-0.10714295320212841,0,-0.7253285776823759,0,-0.01281023072078824,0,-0.029576975386589766,0],[0.5781861012801528,0,0.7092862837016582,0,-0.7696530036628246,0,-0.0955911222845316,0],[0.7328078895807266,0,0.7100519761443138,0,-0.9246982336044312,0,-0.2003923924639821,0],[-0.969675347674638,0,-0.00876421993598342,0,-0.8152271318249404,0,0.43912233877927065,0],[0.9050143202766776,0,0.13160179601982236,0,-0.3101619812659919,0,-0.67340765055269,0],[0.8593411101028323,0,-0.41953924810513854,0,0.7807502010837197,0,0.12668665265664458,0],[0.4798078709281981,0,-0.1850921967998147,0,0.6640534433536232,0,-0.8104934128932655,0],[-0.24076708732172847,0,0.31837717443704605,0,-0.24393413355574012,0,-0.10746779618784785,0],[-0.41553938388824463,0,-0.5763737293891609,0,0.6160594723187387,0,-0.7053217198699713,0],[-0.4607193451374769,0,0.962409773375839,0,0.4889595019631088,0,-0.37886976124718785,0],[0.9065551781095564,0,-0.2622343762777746,0,-0.34448974020779133,0,-0.5550444955006242,0],[-0.2654196540825069,0,0.5072523569688201,0,-0.772035931237042,0,-0.6242971029132605,0],[-0.4325938276015222,0,0.251574550755322,0,0.03587634349241853,0,0.5850595259107649,0],[0.05895458674058318,0,0.5867104148492217,0,-0.5669864369556308,0,0.37220623483881354,0],[-0.365496676415205,0,0.3784338776022196,0,-0.8279419834725559,0,-0.41016566241160035,0],[0.671645331196487,0,0.9570058109238744,0,-0.268847722094506,0,-0.9218260832130909,0],[-0.6603079382330179,0,0.6648878315463662,0,-0.352905779145658,0,-0.7650121096521616,0],[0.5101635679602623,0,-0.7712585916742682,0,-0.5428341776132584,0,0.9534680149517953,0],[0.6570849474519491,0,0.6421932657249272,0,-0.2695772056467831,0,-0.2536904262378812,0],[-0.9975483831949532,0,0.4258847371675074,0,-0.8378538712859154,0,-0.19016058603301644,0],[-0.13344247080385685,0,-0.9587152828462422,0,-0.21283660177141428,0,0.3369762459769845,0],[0.6261165579780936,0,-0.0997827067039907,0,-0.948692633304745,0,-0.3190641701221466,0],[0.47115237498655915,0,0.7610549493692815,0,0.27395893074572086,0,0.5185964596457779,0],[0.4050776385702193,0,-0.31264865258708596,0,-0.7424723538570106,0,-0.0740296421572566,0],[-0.396731486544013,0,0.10752530163154006,0,-0.3301114058122039,0,0.8971365122124553,0],[0.7410707827657461,0,-0.0300187598913908,0,0.1448969659395516,0,-0.830560449976474,0],[0.2639766186475754,0,0.42109391279518604,0,0.9390131891705096,0,0.6008187970146537,0],[-0.8277936326339841,0,-0.7235197341069579,0,0.7785849357023835,0,-0.7146378764882684,0],[0.9444149853661656,0,-0.2668178672902286,0,0.15823546051979065,0,0.3289485890418291,0],[-0.48939215019345284,0,0.7832018523477018,0,0.3007976417429745,0,-0.5575255993753672,0],[0.32679186342284083,0,-0.5609125304035842,0,0.38696322636678815,0,0.2830007616430521,0],[-0.2431445992551744,0,-0.45507520716637373,0,-0.0708796689286828,0,0.5633775279857218,0],[-0.9248836222104728,0,0.9705389505252242,0,-0.7001998308114707,0,-0.21061018342152238,0],[-0.9737824527546763,0,-0.8757880856283009,0,-0.3423646204173565,0,0.3091999748721719,0],[-0.26359530724585056,0,0.06767724128440022,0,-0.4897194500081241,0,0.8067843155004084,0],[-0.07997072767466307,0,0.7361996509134769,0,0.7527969609946012,0,0.24952031252905726,0],[-0.9959254837594926,0,-0.43621225096285343,0,-0.07278531929478049,0,0.5521726263687015,0],[-0.6974256373941898,0,-0.3266904540359974,0,-0.45252099446952343,0,-0.08828452369198203,0],[-0.45857349690049887,0,0.727455198764801,0,0.7416524239815772,0,0.5180224501527846,0],[0.8248165468685329,0,0.3283522962592542,0,0.9616785305552185,0,0.4890569634735584,0],[0.03916171099990606,0,0.9254529573954642,0,0.34113059658557177,0,-0.47112671891227365,0]],"vb_b":[[-1,0,0,0,0,0,0,0],[-1,0,0,0,0,0,0,0],[-1,0,0,0,0,0,0,0],[-1,0,0,0,0,0,0,0],[-1,0,0,0,0,0,0,0],[-1,0,0,0,0,0,0,0],[-1,0,0,0,0,0,0,0],[-1,0,0,0,0,0,0,0],[-1,0,0,0,0,0,0,0],[-1,0,0,0,0,0,0,0],[-1,0,0,0,0,0,0,0],[-1,0,0,0,0,0,0,0],[-1,0,0,0,0,0,0,0],[-1,0,0,0,0,0,0,0],[-1,0,0,0,0,0,0,0],[-1,0,0,0,0,0,0,0],[-1,0,0,0,0,0,0,0],[-1,0,0,0,0,0,0,0],[-1,0,0,0,0,0,0,0],[-1,0,0,0,0,0,0,0],[-1,0,0,0,0,0,0,0],[-1,0,0,0,0,0,0,0],[-1,0,0,0,0,0,0,0],[-1,0,0,0,0,0,0,0],[-1,0,0,0,0,0,0,0],[-1,0,0,0,0,0,0,0],[-1,0,0,0,0,0,0,0],[-1,0,0,0,0,0,0,0],[-1,0,0,0,0,0,0,0],[-1,0,0,0,0,0,0,0],[-1,0,0,0,0,0,0,0],[-1,0,0,0,0,0,0,0],[-1,0,0,0,0,0,0,0],[-1,0,0,0,0,0,0,0],[-1,0,0,0,0,0,0,0],[-1,0,0,0,0,0,0,0],[-1,0,0,0,0,0,0,0],[-1,0,0,0,0,0,0,0],[-1,0,0,0,0,0,0,0],[-1,0,0,0,0,0,0,0],[-1,0,0,0,0,0,0,0],[-1,0,0,0,0,0,0,0],[-1,0,0,0,0,0,0,0],[-1,0,0,0,0,0,0,0],[-1,0,0,0,0,0,0,0],[-1,0,0,0,0,0,0,0],[-1,0,0,0,0,0,0,0],[-1,0,0,0,0,0,0,0],[-1,0,0,0,0,0,0,0],[-1,0,0,0,0,0,0,0],[-1,0,0,0,0,0,0,0],[-1,0,0,0,0,0,0,0],[-1,0,0,0,0,0,0,0],[-1,0,0,0,0,0,0,0],[-1,0,0,0,0,0,0,0],[-1,0,0,0,0,0,0,0],[-1,0,0,0,0,0,0,0],[-1,0,