parameters : {"minimum_performance":-1,"block_timeout":5000,"response_timeout":1000,"task_kappa":0,"task_stimuli":0,"task_component":1,"task_feature":1,"task_sign":1,"task_weights":[0,0,0,1,0,0,0,0]}
edata : {"exp_subject":"xUA3GQPEl5d1","exp_sex":"female","exp_age":"21-30","exp_task":"jan/131004_primate1","exp_starttime":1381408398348,"exp_finishtime":1381411257333}
numbers : {"stimuli":2,"components":2,"features":2,"weights":8,"blocks":40,"trials":25,"indices":1000}
sdata : {"vb_index":[1,2,3,4,5,6,7,8,9,10,11,12,13,14,15,16,17,18,19,20,21,22,23,24,25,26,27,28,29,30,31,32,33,34,35,36,37,38,39,40,41,42,43,44,45,46,47,48,49,50,51,52,53,54,55,56,57,58,59,60,61,62,63,64,65,66,67,68,69,70,71,72,73,74,75,76,77,78,79,80,81,82,83,84,85,86,87,88,89,90,91,92,93,94,95,96,97,98,99,100,101,102,103,104,105,106,107,108,109,110,111,112,113,114,115,116,117,118,119,120,121,122,123,124,125,126,127,128,129,130,131,132,133,134,135,136,137,138,139,140,141,142,143,144,145,146,147,148,149,150,151,152,153,154,155,156,157,158,159,160,161,162,163,164,165,166,167,168,169,170,171,172,173,174,175,176,177,178,179,180,181,182,183,184,185,186,187,188,189,190,191,192,193,194,195,196,197,198,199,200,201,202,203,204,205,206,207,208,209,210,211,212,213,214,215,216,217,218,219,220,221,222,223,224,225,226,227,228,229,230,231,232,233,234,235,236,237,238,239,240,241,242,243,244,245,246,247,248,249,250,251,252,253,254,255,256,257,258,259,260,261,262,263,264,265,266,267,268,269,270,271,272,273,274,275,276,277,278,279,280,281,282,283,284,285,286,287,288,289,290,291,292,293,294,295,296,297,298,299,300,301,302,303,304,305,306,307,308,309,310,311,312,313,314,315,316,317,318,319,320,321,322,323,324,325,326,327,328,329,330,331,332,333,334,335,336,337,338,339,340,341,342,343,344,345,346,347,348,349,350,351,352,353,354,355,356,357,358,359,360,361,362,363,364,365,366,367,368,369,370,371,372,373,374,375,376,377,378,379,380,381,382,383,384,385,386,387,388,389,390,391,392,393,394,395,396,397,398,399,400,401,402,403,404,405,406,407,408,409,410,411,412,413,414,415,416,417,418,419,420,421,422,423,424,425,426,427,428,429,430,431,432,433,434,435,436,437,438,439,440,441,442,443,444,445,446,447,448,449,450,451,452,453,454,455,456,457,458,459,460,461,462,463,464,465,466,467,468,469,470,471,472,473,474,475,476,477,478,479,480,481,482,483,484,485,486,487,488,489,490,491,492,493,494,495,496,497,498,499,500,501,502,503,504,505,506,507,508,509,510,511,512,513,514,515,516,517,518,519,520,521,522,523,524,525,526,527,528,529,530,531,532,533,534,535,536,537,538,539,540,541,542,543,544,545,546,547,548,549,550,551,552,553,554,555,556,557,558,559,560,561,562,563,564,565,566,567,568,569,570,571,572,573,574,575,576,577,578,579,580,581,582,583,584,585,586,587,588,589,590,591,592,593,594,595,596,597,598,599,600,601,602,603,604,605,606,607,608,609,610,611,612,613,614,615,616,617,618,619,620,621,622,623,624,625,626,627,628,629,630,631,632,633,634,635,636,637,638,639,640,641,642,643,644,645,646,647,648,649,650,651,652,653,654,655,656,657,658,659,660,661,662,663,664,665,666,667,668,669,670,671,672,673,674,675,676,677,678,679,680,681,682,683,684,685,686,687,688,689,690,691,692,693,694,695,696,697,698,699,700,701,702,703,704,705,706,707,708,709,710,711,712,713,714,715,716,717,718,719,720,721,722,723,724,725,726,727,728,729,730,731,732,733,734,735,736,737,738,739,740,741,742,743,744,745,746,747,748,749,750,751,752,753,754,755,756,757,758,759,760,761,762,763,764,765,766,767,768,769,770,771,772,773,774,775,776,777,778,779,780,781,782,783,784,785,786,787,788,789,790,791,792,793,794,795,796,797,798,799,800,801,802,803,804,805,806,807,808,809,810,811,812,813,814,815,816,817,818,819,820,821,822,823,824,825,826,827,828,829,830,831,832,833,834,835,836,837,838,839,840,841,842,843,844,845,846,847,848,849,850,851,852,853,854,855,856,857,858,859,860,861,862,863,864,865,866,867,868,869,870,871,872,873,874,875,876,877,878,879,880,881,882,883,884,885,886,887,888,889,890,891,892,893,894,895,896,897,898,899,900,901,902,903,904,905,906,907,908,909,910,911,912,913,914,915,916,917,918,919,920,921,922,923,924,925,926,927,928,929,930,931,932,933,934,935,936,937,938,939,940,941,942,943,944,945,946,947,948,949,950,951,952,953,954,955,956,957,958,959,960,961,962,963,964,965,966,967,968,969,970,971,972,973,974,975,976,977,978,979,980,981,982,983,984,985,986,987,988,989,990,991,992,993,994,995,996,997,998,999,1000],"vb_block":[1,1,1,1,1,1,1,1,1,1,1,1,1,1,1,1,1,1,1,1,1,1,1,1,1,2,2,2,2,2,2,2,2,2,2,2,2,2,2,2,2,2,2,2,2,2,2,2,2,2,3,3,3,3,3,3,3,3,3,3,3,3,3,3,3,3,3,3,3,3,3,3,3,3,3,4,4,4,4,4,4,4,4,4,4,4,4,4,4,4,4,4,4,4,4,4,4,4,4,4,5,5,5,5,5,5,5,5,5,5,5,5,5,5,5,5,5,5,5,5,5,5,5,5,5,6,6,6,6,6,6,6,6,6,6,6,6,6,6,6,6,6,6,6,6,6,6,6,6,6,7,7,7,7,7,7,7,7,7,7,7,7,7,7,7,7,7,7,7,7,7,7,7,7,7,8,8,8,8,8,8,8,8,8,8,8,8,8,8,8,8,8,8,8,8,8,8,8,8,8,9,9,9,9,9,9,9,9,9,9,9,9,9,9,9,9,9,9,9,9,9,9,9,9,9,10,10,10,10,10,10,10,10,10,10,10,10,10,10,10,10,10,10,10,10,10,10,10,10,10,11,11,11,11,11,11,11,11,11,11,11,11,11,11,11,11,11,11,11,11,11,11,11,11,11,12,12,12,12,12,12,12,12,12,12,12,12,12,12,12,12,12,12,12,12,12,12,12,12,12,13,13,13,13,13,13,13,13,13,13,13,13,13,13,13,13,13,13,13,13,13,13,13,13,13,14,14,14,14,14,14,14,14,14,14,14,14,14,14,14,14,14,14,14,14,14,14,14,14,14,15,15,15,15,15,15,15,15,15,15,15,15,15,15,15,15,15,15,15,15,15,15,15,15,15,16,16,16,16,16,16,16,16,16,16,16,16,16,16,16,16,16,16,16,16,16,16,16,16,16,17,17,17,17,17,17,17,17,17,17,17,17,17,17,17,17,17,17,17,17,17,17,17,17,17,18,18,18,18,18,18,18,18,18,18,18,18,18,18,18,18,18,18,18,18,18,18,18,18,18,19,19,19,19,19,19,19,19,19,19,19,19,19,19,19,19,19,19,19,19,19,19,19,19,19,20,20,20,20,20,20,20,20,20,20,20,20,20,20,20,20,20,20,20,20,20,20,20,20,20,21,21,21,21,21,21,21,21,21,21,21,21,21,21,21,21,21,21,21,21,21,21,21,21,21,22,22,22,22,22,22,22,22,22,22,22,22,22,22,22,22,22,22,22,22,22,22,22,22,22,23,23,23,23,23,23,23,23,23,23,23,23,23,23,23,23,23,23,23,23,23,23,23,23,23,24,24,24,24,24,24,24,24,24,24,24,24,24,24,24,24,24,24,24,24,24,24,24,24,24,25,25,25,25,25,25,25,25,25,25,25,25,25,25,25,25,25,25,25,25,25,25,25,25,25,26,26,26,26,26,26,26,26,26,26,26,26,26,26,26,26,26,26,26,26,26,26,26,26,26,27,27,27,27,27,27,27,27,27,27,27,27,27,27,27,27,27,27,27,27,27,27,27,27,27,28,28,28,28,28,28,28,28,28,28,28,28,28,28,28,28,28,28,28,28,28,28,28,28,28,29,29,29,29,29,29,29,29,29,29,29,29,29,29,29,29,29,29,29,29,29,29,29,29,29,30,30,30,30,30,30,30,30,30,30,30,30,30,30,30,30,30,30,30,30,30,30,30,30,30,31,31,31,31,31,31,31,31,31,31,31,31,31,31,31,31,31,31,31,31,31,31,31,31,31,32,32,32,32,32,32,32,32,32,32,32,32,32,32,32,32,32,32,32,32,32,32,32,32,32,33,33,33,33,33,33,33,33,33,33,33,33,33,33,33,33,33,33,33,33,33,33,33,33,33,34,34,34,34,34,34,34,34,34,34,34,34,34,34,34,34,34,34,34,34,34,34,34,34,34,35,35,35,35,35,35,35,35,35,35,35,35,35,35,35,35,35,35,35,35,35,35,35,35,35,36,36,36,36,36,36,36,36,36,36,36,36,36,36,36,36,36,36,36,36,36,36,36,36,36,37,37,37,37,37,37,37,37,37,37,37,37,37,37,37,37,37,37,37,37,37,37,37,37,37,38,38,38,38,38,38,38,38,38,38,38,38,38,38,38,38,38,38,38,38,38,38,38,38,38,39,39,39,39,39,39,39,39,39,39,39,39,39,39,39,39,39,39,39,39,39,39,39,39,39,40,40,40,40,40,40,40,40,40,40,40,40,40,40,40,40,40,40,40,40,40,40,40,40,40],"vb_trial":[1,2,3,4,5,6,7,8,9,10,11,12,13,14,15,16,17,18,19,20,21,22,23,24,25,1,2,3,4,5,6,7,8,9,10,11,12,13,14,15,16,17,18,19,20,21,22,23,24,25,1,2,3,4,5,6,7,8,9,10,11,12,13,14,15,16,17,18,19,20,21,22,23,24,25,1,2,3,4,5,6,7,8,9,10,11,12,13,14,15,16,17,18,19,20,21,22,23,24,25,1,2,3,4,5,6,7,8,9,10,11,12,13,14,15,16,17,18,19,20,21,22,23,24,25,1,2,3,4,5,6,7,8,9,10,11,12,13,14,15,16,17,18,19,20,21,22,23,24,25,1,2,3,4,5,6,7,8,9,10,11,12,13,14,15,16,17,18,19,20,21,22,23,24,25,1,2,3,4,5,6,7,8,9,10,11,12,13,14,15,16,17,18,19,20,21,22,23,24,25,1,2,3,4,5,6,7,8,9,10,11,12,13,14,15,16,17,18,19,20,21,22,23,24,25,1,2,3,4,5,6,7,8,9,10,11,12,13,14,15,16,17,18,19,20,21,22,23,24,25,1,2,3,4,5,6,7,8,9,10,11,12,13,14,15,16,17,18,19,20,21,22,23,24,25,1,2,3,4,5,6,7,8,9,10,11,12,13,14,15,16,17,18,19,20,21,22,23,24,25,1,2,3,4,5,6,7,8,9,10,11,12,13,14,15,16,17,18,19,20,21,22,23,24,25,1,2,3,4,5,6,7,8,9,10,11,12,13,14,15,16,17,18,19,20,21,22,23,24,25,1,2,3,4,5,6,7,8,9,10,11,12,13,14,15,16,17,18,19,20,21,22,23,24,25,1,2,3,4,5,6,7,8,9,10,11,12,13,14,15,16,17,18,19,20,21,22,23,24,25,1,2,3,4,5,6,7,8,9,10,11,12,13,14,15,16,17,18,19,20,21,22,23,24,25,1,2,3,4,5,6,7,8,9,10,11,12,13,14,15,16,17,18,19,20,21,22,23,24,25,1,2,3,4,5,6,7,8,9,10,11,12,13,14,15,16,17,18,19,20,21,22,23,24,25,1,2,3,4,5,6,7,8,9,10,11,12,13,14,15,16,17,18,19,20,21,22,23,24,25,1,2,3,4,5,6,7,8,9,10,11,12,13,14,15,16,17,18,19,20,21,22,23,24,25,1,2,3,4,5,6,7,8,9,10,11,12,13,14,15,16,17,18,19,20,21,22,23,24,25,1,2,3,4,5,6,7,8,9,10,11,12,13,14,15,16,17,18,19,20,21,22,23,24,25,1,2,3,4,5,6,7,8,9,10,11,12,13,14,15,16,17,18,19,20,21,22,23,24,25,1,2,3,4,5,6,7,8,9,10,11,12,13,14,15,16,17,18,19,20,21,22,23,24,25,1,2,3,4,5,6,7,8,9,10,11,12,13,14,15,16,17,18,19,20,21,22,23,24,25,1,2,3,4,5,6,7,8,9,10,11,12,13,14,15,16,17,18,19,20,21,22,23,24,25,1,2,3,4,5,6,7,8,9,10,11,12,13,14,15,16,17,18,19,20,21,22,23,24,25,1,2,3,4,5,6,7,8,9,10,11,12,13,14,15,16,17,18,19,20,21,22,23,24,25,1,2,3,4,5,6,7,8,9,10,11,12,13,14,15,16,17,18,19,20,21,22,23,24,25,1,2,3,4,5,6,7,8,9,10,11,12,13,14,15,16,17,18,19,20,21,22,23,24,25,1,2,3,4,5,6,7,8,9,10,11,12,13,14,15,16,17,18,19,20,21,22,23,24,25,1,2,3,4,5,6,7,8,9,10,11,12,13,14,15,16,17,18,19,20,21,22,23,24,25,1,2,3,4,5,6,7,8,9,10,11,12,13,14,15,16,17,18,19,20,21,22,23,24,25,1,2,3,4,5,6,7,8,9,10,11,12,13,14,15,16,17,18,19,20,21,22,23,24,25,1,2,3,4,5,6,7,8,9,10,11,12,13,14,15,16,17,18,19,20,21,22,23,24,25,1,2,3,4,5,6,7,8,9,10,11,12,13,14,15,16,17,18,19,20,21,22,23,24,25,1,2,3,4,5,6,7,8,9,10,11,12,13,14,15,16,17,18,19,20,21,22,23,24,25,1,2,3,4,5,6,7,8,9,10,11,12,13,14,15,16,17,18,19,20,21,22,23,24,25,1,2,3,4,5,6,7,8,9,10,11,12,13,14,15,16,17,18,19,20,21,22,23,24,25],"vb_x":[[0,0.6751686395145953,0,-0.11567693576216698,0,0.391096162609756,0,0.944282743614167],[0,0.6473014261573553,0,0.05291640805080533,0,-0.9735862193629146,0,-0.4323322004638612],[0,-0.8270251932553947,0,0.09318339638411999,0,0.4314511911943555,0,-0.9024781486950815],[0,-0.31052978383377194,0,-0.21115636406466365,0,0.7701597888953984,0,0.5416630483232439],[0,0.1733258729800582,0,0.7776443734765053,0,-0.3092836602590978,0,0.8421334098093212],[0,0.8899280792102218,0,0.06891079852357507,0,0.2772393045015633,0,0.4122083159163594],[0,0.10960659198462963,0,0.7914493167772889,0,0.8931916006840765,0,-0.3250601007603109],[0,0.1521599176339805,0,-0.659135086927563,0,0.43381560081616044,0,-0.9187090885825455],[0,-0.0026028440333902836,0,-0.5743699041195214,0,0.9783145794644952,0,0.5734917051158845],[0,-0.19037871481850743,0,0.6353700733743608,0,0.9992896365001798,0,0.7600800120271742],[0,0.9947015615180135,0,0.5418208269402385,0,0.9759445125237107,0,0.6912219449877739],[0,-0.18027454521507025,0,0.4130543409846723,0,-0.12506390176713467,0,0.2355053760111332],[0,-0.6433927929028869,0,0.9003347372636199,0,0.9279110562056303,0,0.029503589496016502],[0,-0.19299974106252193,0,0.6653536166995764,0,-0.2760947193019092,0,0.5556516069918871],[0,-0.1580997728742659,0,0.9486849927343428,0,0.3772459733299911,0,0.8143448429182172],[0,-0.7963296654634178,0,-0.983867883682251,0,0.2401389190927148,0,-0.6780186532996595],[0,-0.7256383639760315,0,-0.0755370445549488,0,-0.1350100366398692,0,0.6331254267133772],[0,-0.5783841642551124,0,-0.7809858429245651,0,0.5187663650140166,0,0.06274472223594785],[0,-0.5621853731572628,0,-0.7808089745230973,0,0.3355915257707238,0,-0.29941870272159576],[0,-0.46396485110744834,0,-0.6409069313667715,0,-0.40400826232507825,0,-0.9101346926763654],[0,-0.3736283890902996,0,0.5713002877309918,0,0.7243814095854759,0,0.845870042219758],[0,-0.37067867908626795,0,-0.42896604957059026,0,0.8699186919257045,0,0.2676597749814391],[0,0.9765497683547437,0,-0.7900038277730346,0,0.30677925888448954,0,-0.5819793250411749],[0,0.9073245623148978,0,-0.23828557645902038,0,-0.03318548807874322,0,0.015806973446160555],[0,-0.7053158087655902,0,0.1171252690255642,0,0.9158760998398066,0,0.8433027686551213],[0,0.7009581122547388,0,-0.8852845435030758,0,0.13844135217368603,0,0.521992975845933],[0,0.26620984310284257,0,-0.16639280365779996,0,-0.5334024908952415,0,0.41121272649616003],[0,-0.7976198173128068,0,0.040115760173648596,0,-0.47329316660761833,0,0.3952745576389134],[0,-0.2000552504323423,0,-0.4675132497213781,0,-0.13674168195575476,0,0.5985037540085614],[0,0.9093271479941905,0,0.6650565750896931,0,-0.79996237764135,0,0.6143938051536679],[0,0.42240367038175464,0,-0.5179046532139182,0,0.6056861416436732,0,0.5954955536872149],[0,-0.787906143348664,0,-0.1582665303722024,0,0.7616940545849502,0,0.22738518379628658],[0,0.15426810970529914,0,-0.5850380044430494,0,-0.015255042351782322,0,0.5131093105301261],[0,0.5537534938193858,0,-0.3728654873557389,0,-0.2428655498661101,0,0.3809174601919949],[0,0.9332907600328326,0,0.17015783954411745,0,0.8914934545755386,0,0.27344368025660515],[0,0.09911511745303869,0,-0.9386489856988192,0,0.3660441408865154,0,0.46783773275092244],[0,0.5867596357129514,0,0.43177221063524485,0,0.951042263302952,0,-0.798300439491868],[0,0.20127772586420178,0,-0.7906103376299143,0,-0.17763302009552717,0,0.2363861072808504],[0,0.07142847776412964,0,0.5675257998518646,0,0.8637601947411895,0,0.3671230487525463],[0,0.7668999941088259,0,0.6163353617303073,0,-0.9848411278799176,0,0.7892084140330553],[0,-0.44719955138862133,0,-0.27993792155757546,0,0.8182325218804181,0,0.9569133105687797],[0,-0.0886549991555512,0,-0.7573971678502858,0,-0.42252067662775517,0,0.6563574522733688],[0,-0.2885239329189062,0,-0.4094863780774176,0,-0.770223724655807,0,-0.1180669548921287],[0,0.35216061770915985,0,-0.6148220705799758,0,-0.08475187653675675,0,-0.792658387683332],[0,-0.2256461577489972,0,0.6378333945758641,0,-0.11995183490216732,0,0.3100761016830802],[0,-0.7268112353049219,0,-0.6636600811034441,0,0.7721980176866055,0,0.9413721854798496],[0,0.9405011520721018,0,0.34943123953416944,0,0.1890629348345101,0,-0.5538284159265459],[0,-0.6954036122187972,0,-0.6667564227245748,0,-0.5173796890303493,0,0.6185235902667046],[0,0.8076794124208391,0,0.5402365606278181,0,0.11380563257262111,0,0.38840323593467474],[0,0.4017520439811051,0,-0.993195575196296,0,0.7704076319932938,0,-0.3787479382008314],[0,0.6580425887368619,0,-0.7210242352448404,0,-0.8923173234798014,0,-0.9351634746417403],[0,0.07969035441055894,0,-0.3579049934633076,0,-0.5700104241259396,0,0.7623555683530867],[0,-0.8738711252808571,0,-0.399401864502579,0,-0.6309367241337895,0,0.2434835801832378],[0,0.15580457588657737,0,0.047142564319074154,0,-0.924367168918252,0,0.16715655149891973],[0,0.002850669901818037,0,-0.9526695222593844,0,0.10006448719650507,0,0.8430054015479982],[0,-0.5454365755431354,0,-0.7417950066737831,0,0.8264027857221663,0,-0.0010214545764029026],[0,-0.6236786018125713,0,0.37776054022833705,0,-0.0047109490260481834,0,0.8911423753015697],[0,-0.745930056553334,0,0.6897701239213347,0,-0.31210963474586606,0,0.3987211426720023],[0,-0.6744814217090607,0,0.9816494546830654,0,0.7715443158522248,0,0.9441680526360869],[0,0.8016697512939572,0,-0.06210475228726864,0,0.21346718445420265,0,-0.2233804245479405],[0,-0.5610831868834794,0,0.6088249161839485,0,0.578898620326072,0,0.7373386062681675],[0,-0.9882723777554929,0,0.7847040900960565,0,0.3229119419120252,0,-0.12309393379837275],[0,0.08750345790758729,0,0.0687179658561945,0,-0.12888031592592597,0,0.4335349895991385],[0,-0.06841444643214345,0,-0.5770340403541923,0,-0.5795557657256722,0,-0.3089389493688941],[0,0.1796226524747908,0,-0.8628623988479376,0,-0.8328289897181094,0,-0.11941286642104387],[0,-0.8077043714001775,0,0.7049784334376454,0,0.9608945921063423,0,0.9316917136311531],[0,-0.47819273034110665,0,0.7231793515384197,0,0.665600024163723,0,-0.8141687088645995],[0,0.7507622158154845,0,-0.5693220025859773,0,-0.24212996941059828,0,0.4068102012388408],[0,0.7034486560150981,0,0.5324417436495423,0,-0.7213001572526991,0,-0.36443959828466177],[0,-0.548239050898701,0,-0.6608384754508734,0,-0.2926596491597593,0,0.08021334744989872],[0,-0.9775062766857445,0,0.7540540699847043,0,0.16876497818157077,0,-0.5314476038329303],[0,0.05465735215693712,0,0.76238077506423,0,-0.6085190810263157,0,0.4868322159163654],[0,-0.8281621607020497,0,-0.004679271951317787,0,0.4154763175174594,0,0.3963266252540052],[0,0.4502140022814274,0,-0.14347865479066968,0,-0.7128102374263108,0,0.42495976155623794],[0,-0.9302752609364688,0,-0.19004895957186818,0,0.6290408871136606,0,0.8691498609259725],[0,0.4820760143920779,0,0.5907874405384064,0,-0.14248579181730747,0,-0.5500511545687914],[0,0.7786921095103025,0,0.17028682585805655,0,0.6607185308821499,0,-0.5190332527272403],[0,-0.37904747016727924,0,-0.30207599233835936,0,-0.4332084688358009,0,0.07310153311118484],[0,-0.39095767540857196,0,0.24097521184012294,0,-0.8985721687786281,0,-0.7058907696045935],[0,-0.314873683732003,0,0.9365482414141297,0,0.9473456423729658,0,0.8430128903128207],[0,-0.44860832998529077,0,0.17445402359589934,0,0.9951837314292789,0,-0.3719718917272985],[0,0.5184153988957405,0,-0.8421350996941328,0,0.8803078443743289,0,-0.944345720577985],[0,0.7220159475691617,0,-0.1885832343250513,0,0.741467718500644,0,0.2196529577486217],[0,-0.6573857828043401,0,0.3779548495076597,0,0.16824097791686654,0,0.8595469300635159],[0,0.4157831156626344,0,0.9591589220799506,0,-0.8866213951259851,0,0.8375018308870494],[0,-0.7789039239287376,0,0.833570308983326,0,0.6175369615666568,0,0.5943805403076112],[0,0.024861272890120745,0,-0.4425730388611555,0,-0.05767558142542839,0,0.028389587067067623],[0,0.3416197430342436,0,0.20102652069181204,0,0.04194255266338587,0,-0.40886641992256045],[0,0.7536884821020067,0,0.938449346460402,0,-0.04118961142376065,0,0.9372682473622262],[0,0.8255184213630855,0,-0.54112549405545,0,0.7663511838763952,0,-0.2805400751531124],[0,0.9795774724334478,0,0.8219367684796453,0,-0.3800553483888507,0,0.3664400791749358],[0,0.57007587980479,0,0.4854561756365001,0,0.9639720376580954,0,0.21696450980380177],[0,-0.9712871899828315,0,0.5522981192916632,0,0.1191273182630539,0,-0.7652204926125705],[0,0.45945321302860975,0,0.7788123064674437,0,-0.15418880246579647,0,0.808034953661263],[0,0.5982337128371,0,-0.2643295731395483,0,0.06774831283837557,0,-0.48987020552158356],[0,0.9032481694594026,0,0.6443103044293821,0,-0.46864007227122784,0,0.023337628692388535],[0,-0.20305064786225557,0,-0.05715956725180149,0,-0.285412241704762,0,0.6898537930101156],[0,0.5132611221633852,0,0.9326708274893463,0,-0.06119722640141845,0,0.003435754682868719],[0,-0.14225371414795518,0,-0.8102519176900387,0,-0.42270820727571845,0,-0.8436270016245544],[0,-0.9857022692449391,0,-0.2560705244541168,0,-0.5543589699082077,0,-0.2995988754555583],[0,0.4996950915083289,0,-0.5782514833845198,0,-0.4481503707356751,0,-0.833059802185744],[0,-0.7920235707424581,0,-0.7237047641538084,0,0.7456932915374637,0,0.8863462810404599],[0,0.6097062067128718,0,-0.23984399624168873,0,0.7466886262409389,0,0.12067838199436665],[0,0.007835548371076584,0,-0.4873498319648206,0,-0.1316106985323131,0,-0.6068703480996192],[0,-0.11597086489200592,0,-0.8457770897075534,0,0.7615156834945083,0,-0.6131465947255492],[0,0.4211658164858818,0,-0.19021699484437704,0,0.1263830978423357,0,-0.670317423529923],[0,0.04878159053623676,0,0.4005982815288007,0,0.8368551000021398,0,0.6147424792870879],[0,-0.9871408608742058,0,0.825800206977874,0,0.032229716423898935,0,-0.03315776912495494],[0,-0.932787352707237,0,-0.7418703734874725,0,0.34840388130396605,0,-0.6341074495576322],[0,-0.7979956232011318,0,0.6387334554456174,0,0.031687323935329914,0,0.2040476188994944],[0,-0.837359671946615,0,-0.9114366471767426,0,-0.6610156577080488,0,0.8178211133927107],[0,-0.6775815179571509,0,0.49720017705112696,0,0.14689905289560556,0,-0.7634989181533456],[0,-0.4439957276917994,0,-0.34753434732556343,0,-0.09169318480417132,0,0.8353007244877517],[0,-0.8472028952091932,0,-0.8555774432606995,0,0.8557221894152462,0,-0.5515621174126863],[0,0.05932913813740015,0,-0.48074146872386336,0,0.055810253135859966,0,-0.3116704635322094],[0,-0.1586941797286272,0,-0.49435475654900074,0,-0.4369970331899822,0,0.8711997023783624],[0,0.7107468550093472,0,-0.8966523176059127,0,-0.5583886816166341,0,0.9363800133578479],[0,0.7883381242863834,0,-0.17446344438940287,0,-0.5826827860437334,0,-0.4709278200753033],[0,0.602956467308104,0,0.14148230152204633,0,-0.5530318720266223,0,0.3477898808196187],[0,0.9625867456197739,0,-0.357866695150733,0,0.5608624271117151,0,0.15273245051503181],[0,0.5102494014427066,0,-0.8424713052809238,0,0.7438685898669064,0,0.3703174842521548],[0,0.5894578415900469,0,-0.24363998929038644,0,0.4292537160217762,0,-0.8681940943934023],[0,0.06666194880381227,0,-0.594100583344698,0,-0.07927424507215619,0,0.14736873842775822],[0,-0.5595135539770126,0,0.7339428039267659,0,-0.22871255781501532,0,0.1351010324433446],[0,-0.4967251969501376,0,-0.40925384126603603,0,-0.0882709426805377,0,0.8564611622132361],[0,0.6276891157031059,0,0.9032428907230496,0,-0.6258745556697249,0,-0.6843501599505544],[0,0.8545847749337554,0,-0.7185575645416975,0,-0.9710580366663635,0,-0.4108504424802959],[0,0.6423247060738504,0,-0.6638703071512282,0,0.2745314482599497,0,-0.11978329019621015],[0,0.7181873274967074,0,0.33534427965059876,0,0.07563140895217657,0,-0.31008906476199627],[0,-0.8283396963961422,0,-0.1304880240932107,0,0.7675192868337035,0,-0.36955074733123183],[0,0.7397815198637545,0,0.6620478965342045,0,-0.1025709081441164,0,-0.7998747420497239],[0,0.7703950055874884,0,0.42039641877636313,0,-0.3033332801423967,0,-0.09803422074764967],[0,-0.16715190652757883,0,-0.7155781234614551,0,0.09058041544631124,0,-0.10109225241467357],[0,-0.5191459460183978,0,-0.12498327484354377,0,-0.024404307827353477,0,0.09229218866676092],[0,0.7622385672293603,0,-0.08341331593692303,0,0.9643783736974001,0,0.7501284661702812],[0,-0.9476020596921444,0,0.4114400502294302,0,-0.9184426348656416,0,-0.7111522853374481],[0,0.18246844643726945,0,-0.2772842519916594,0,0.9514661533758044,0,0.3446882190182805],[0,-0.6132030780427158,0,-0.8103917073458433,0,0.7971283500082791,0,0.450392744038254],[0,-0.26754356222227216,0,-0.6659585456363857,0,0.3795870626345277,0,-0.1394005101174116],[0,-0.14706896618008614,0,0.9021873557940125,0,-0.9171150829643011,0,-0.2684484370984137],[0,-0.38256000773981214,0,0.1959831602871418,0,0.015740844886749983,0,-0.035535622388124466],[0,0.17189432261511683,0,-0.616844467818737,0,-0.38218791550025344,0,-0.5124417240731418],[0,0.012618197593837976,0,0.8868610383942723,0,0.9094606023281813,0,0.9759862809441984],[0,-0.3697993806563318,0,0.2455623857676983,0,0.19687321363016963,0,0.5020942101255059],[0,-0.14029968343675137,0,0.18173671420663595,0,-0.6651764926500618,0,-0.9480537818744779],[0,0.8156485948711634,0,-0.07172969123348594,0,-0.41754463547840714,0,-0.06818119529634714],[0,-0.07426753593608737,0,0.6329958382993937,0,-0.18612586986273527,0,-0.11391633609309793],[0,-0.529606616590172,0,0.4105990040116012,0,0.8869626563973725,0,0.9721072753891349],[0,-0.7791637950576842,0,-0.008355254773050547,0,-0.07032778114080429,0,-0.4379554311744869],[0,0.8176349014975131,0,0.0388016696088016,0,0.7435766574926674,0,0.2030230388045311],[0,0.6798919513821602,0,-0.8648552163504064,0,0.03541249083355069,0,-0.9273615619167686],[0,0.538523752707988,0,-0.34355776803568006,0,-0.2994298143312335,0,0.7890621442347765],[0,0.1191997085697949,0,-0.9780345372855663,0,-0.29683600878342986,0,-0.1271860864944756],[0,0.5839565899223089,0,0.6352004767395556,0,0.14814090868458152,0,-0.09213241096585989],[0,0.0029405904933810234,0,-0.8855776614509523,0,0.9249862032011151,0,0.69443563465029],[0,-0.3867184864357114,0,-0.490967882797122,0,0.7012082422152162,0,0.8767780601046979],[0,-0.5041396678425372,0,-0.6531673762947321,0,0.7132570068351924,0,-0.47933334344998],[0,-0.5282474081031978,0,-0.40956067107617855,0,-0.4188308399170637,0,0.41636685049161315],[0,0.8708883537910879,0,-0.7672372064553201,0,0.282495163846761,0,0.09452269319444895],[0,0.16194568620994687,0,-0.09489957755431533,0,0.4243206446990371,0,0.5072456831112504],[0,0.862667282577604,0,0.414416388142854,0,-0.740015824791044,0,-0.37471794337034225],[0,0.12515928549692035,0,-0.8882586248219013,0,-0.5320815751329064,0,-0.22949128039181232],[0,-0.9954972947016358,0,-0.4838842856697738,0,-0.9789474471472204,0,0.38733020005747676],[0,-0.16585038788616657,0,-0.8801323310472071,0,-0.5578485773876309,0,0.3727590749040246],[0,0.3718415265902877,0,0.2289546262472868,0,-0.9567224089987576,0,0.5536231831647456],[0,-0.4555255067534745,0,-0.4440881600603461,0,-0.07408563466742635,0,-0.4530518283136189],[0,0.9203384122811258,0,-0.2261298936791718,0,-0.6434718566015363,0,-0.20425755437463522],[0,-0.688422120641917,0,-0.03146067913621664,0,0.8397376430220902,0,0.864927124697715],[0,0.19131377851590514,0,0.15883267484605312,0,-0.620923784095794,0,-0.692319218069315],[0,-0.6418962185271084,0,0.2451160135678947,0,-0.15253067249432206,0,0.7722035166807473],[0,0.33861125726252794,0,0.5043255244381726,0,0.32871188595891,0,-0.6665222779847682],[0,-0.18896391615271568,0,0.4990328084677458,0,0.6266983123496175,0,0.21358732972294092],[0,-0.4066217066720128,0,-0.6778551293537021,0,0.9976254939101636,0,0.978016393724829],[0,-0.564605840947479,0,-0.3009834405966103,0,0.7056519202888012,0,-0.21124370116740465],[0,-0.43178935488685966,0,0.16839903546497226,0,0.11909812083467841,0,0.1518250168301165],[0,-0.669369540642947,0,0.6458113826811314,0,-0.7458171527832747,0,-0.4026741390116513],[0,-0.6817811047658324,0,-0.6590788019821048,0,0.29248784203082323,0,0.19656214490532875],[0,0.33276356756687164,0,-0.633371701464057,0,0.9994360106065869,0,-0.10832910425961018],[0,0.7352552367374301,0,0.342498691752553,0,-0.26657334389165044,0,0.12458547903224826],[0,0.5465423781424761,0,-0.5524876341223717,0,-0.33813466457650065,0,0.7488052141852677],[0,0.989231186453253,0,0.5803354163654149,0,0.5864493534900248,0,0.747213477268815],[0,-0.587101039942354,0,0.7876550401560962,0,-0.6369417016394436,0,-0.5366999907419086],[0,0.7993554216809571,0,-0.8561838828027248,0,-0.8140434385277331,0,-0.18824921501800418],[0,-0.11028650403022766,0,0.296392987947911,0,-0.27153430273756385,0,-0.7848499743267894],[0,-0.35643085883930326,0,-0.043984383810311556,0,0.7150209471583366,0,-0.8024301561526954],[0,-0.8681266806088388,0,0.8385178670287132,0,-0.23186853295192122,0,0.6353871617466211],[0,0.10290041053667665,0,-0.8529684818349779,0,0.6600502720102668,0,-0.6543726557865739],[0,-0.849809629842639,0,-0.8586829304695129,0,0.8113876413553953,0,0.021874929312616587],[0,0.6414343477226794,0,0.5879792654886842,0,-0.5168716814368963,0,-0.2486891122534871],[0,-0.5881261057220399,0,-0.7288554422557354,0,-0.8823055340908468,0,0.11046339338645339],[0,-0.9794633877463639,0,0.23658883478492498,0,0.9148796033114195,0,-0.9681389285251498],[0,-0.09423474222421646,0,-0.785958195105195,0,0.08416421664878726,0,0.3549882844090462],[0,-0.8366250130347908,0,-0.5098089268431067,0,0.17064044112339616,0,0.8056368608959019],[0,0.3558096489869058,0,0.6998621388338506,0,-0.2600646032951772,0,0.8638065927661955],[0,-0.6089289714582264,0,0.9386127977631986,0,0.08835999015718699,0,0.9547931621782482],[0,0.2543013752438128,0,-0.9707523258402944,0,-0.8419346297159791,0,-0.1889871098101139],[0,0.21952989837154746,0,-0.868657513987273,0,0.8981349808163941,0,-0.7278094673529267],[0,-0.7625475954264402,0,0.04156472673639655,0,-0.9510869770310819,0,-0.8914845287799835],[0,-0.6881808801554143,0,0.3775237095542252,0,-0.06557409139350057,0,-0.31320557091385126],[0,0.20396483596414328,0,0.5570117942988873,0,0.3245771527290344,0,-0.9583389437757432],[0,0.8855874254368246,0,0.938669535331428,0,-0.7978418911807239,0,-0.6921423524618149],[0,0.37587021430954337,0,-0.04028998641297221,0,0.11579175619408488,0,-0.9688005922362208],[0,-0.9123582327738404,0,0.15468435641378164,0,-0.6775544760748744,0,0.45177748380228877],[0,-0.748162807431072,0,0.41664074966683984,0,-0.8991339732892811,0,0.8871537991799414],[0,0.6499222265556455,0,0.879396662581712,0,0.7421792941167951,0,0.040332152508199215],[0,-0.4191832086071372,0,0.12894720025360584,0,-0.8676091437228024,0,0.4388179974630475],[0,-0.21960500022396445,0,0.837705098092556,0,-0.6893709911964834,0,0.5537415044382215],[0,-0.289897071197629,0,0.0012458469718694687,0,0.5281063271686435,0,0.9209918584674597],[0,0.5032496741041541,0,-0.6083752666600049,0,-0.23954114271327853,0,0.5412067417055368],[0,-0.9394279005937278,0,0.9663781961426139,0,-0.5444205622188747,0,-0.30497996089980006],[0,-0.619345071259886,0,-0.9392701247707009,0,-0.708388015627861,0,-0.192771025467664],[0,0.5025375634431839,0,0.5340151567943394,0,-0.7555362326093018,0,0.09466419834643602],[0,0.3337672268971801,0,0.06765094259753823,0,-0.2749155112542212,0,-0.608106192201376],[0,-0.8800338893197477,0,-0.5899359844624996,0,-0.5514122503809631,0,-0.16143353981897235],[0,0.971754196099937,0,-0.46027510007843375,0,-0.0658602537587285,0,-0.45023374911397696],[0,0.5533334710635245,0,0.38797342171892524,0,-0.5856587160378695,0,0.47871191753074527],[0,0.23802266595885158,0,-0.1902426853775978,0,-0.06406210083514452,0,-0.5890438407659531],[0,0.8720904039219022,0,0.4218763639219105,0,-0.5320438956841826,0,-0.19126461911946535],[0,0.015936273615807295,0,0.3658599080517888,0,-0.333111182320863,0,0.18024196615442634],[0,0.5139585151337087,0,0.501243841368705,0,-0.22363505885004997,0,0.8273409358225763],[0,0.5457390598021448,0,0.4476504153572023,0,0.7769791008904576,0,-0.6404347796924412],[0,-0.3903695968911052,0,0.4979478963650763,0,0.07705599442124367,0,-0.6129692853428423],[0,-0.9814401203766465,0,0.6241848077625036,0,-0.34453625371679664,0,-0.8655588431283832],[0,0.5055963173508644,0,-0.7735067810863256,0,0.19000098016113043,0,0.7472460647113621],[0,-0.837080392986536,0,-0.6257823850028217,0,-0.6118827387690544,0,-0.2656604824587703],[0,0.30905510811135173,0,0.0849040518514812,0,0.7892322679981589,0,0.45693396823480725],[0,0.6486018821597099,0,-0.9405930479988456,0,-0.6125360298901796,0,-0.4823038624599576],[0,0.2648981409147382,0,0.6899863160215318,0,0.012594595551490784,0,0.8039274364709854],[0,0.6652538976632059,0,0.3289014636538923,0,-0.8574473606422544,0,-0.08764837449416518],[0,-0.3032246599905193,0,-0.9848887491971254,0,-0.5824515395797789,0,0.18253221735358238],[0,0.7344597443006933,0,0.0640909974463284,0,-0.29265539115294814,0,0.9794224863871932],[0,-0.5272491197101772,0,-0.1580335944890976,0,0.31969425547868013,0,-0.6601433604955673],[0,-0.8977122087962925,0,0.37815624196082354,0,-0.5528635382652283,0,0.6443211906589568],[0,-0.3169477256014943,0,-0.8858743817545474,0,0.09582948638126254,0,-0.5119604952633381],[0,-0.4652459444478154,0,0.9027754217386246,0,-0.9681653422303498,0,0.7870714487507939],[0,0.5220414930954576,0,0.7258258946239948,0,-0.9584698714315891,0,-0.6754697165451944],[0,-0.7749710511416197,0,0.8146701394580305,0,0.27123014628887177,0,-0.4911195603199303],[0,-0.8794958787038922,0,0.7350535811856389,0,-0.9395944033749402,0,-0.4649381856434047],[0,-0.8035857393406332,0,-0.3878300446085632,0,0.5495064915157855,0,-0.7429728242568672],[0,-0.33775465330109,0,0.5510376426391304,0,0.5957934018224478,0,-0.06312199216336012],[0,-0.8039482613094151,0,-0.6404955862089992,0,-0.2735461322590709,0,-0.6872964682988822],[0,0.44279324915260077,0,0.04603989468887448,0,0.9409271604381502,0,-0.9295068010687828],[0,-0.8019356713630259,0,0.06213738303631544,0,0.8924182318150997,0,-0.8878904837183654],[0,-0.9293959168717265,0,-0.8507105531170964,0,-0.36182713881134987,0,-0.7659589196555316],[0,-0.17350009642541409,0,-0.47426446434110403,0,0.07280431687831879,0,0.021060644648969173],[0,-0.34217229951173067,0,0.18396394094452262,0,-0.2920491322875023,0,-0.2524511991068721],[0,0.6050798618234694,0,-0.9016485493630171,0,0.7943607205525041,0,0.5637037269771099],[0,-0.2224717577919364,0,0.12662953417748213,0,-0.3575536459684372,0,-0.701657188590616],[0,-0.09334942977875471,0,-0.9582126219756901,0,0.5331107745878398,0,-0.49815045529976487],[0,-0.7865721336565912,0,0.07329557370394468,0,-0.5859100767411292,0,-0.20962634962052107],[0,0.8545622648671269,0,-0.8650589720346034,0,0.7382352943532169,0,-0.8007443137466908],[0,-0.14281783672049642,0,0.23074241587892175,0,-0.8048735591582954,0,0.9909107550047338],[0,-0.2975425077602267,0,-0.12529561156407,0,-0.7026197127997875,0,-0.1520938677713275],[0,0.7332703582942486,0,0.36197219137102365,0,0.3485655668191612,0,0.41368260188028216],[0,0.47835910227149725,0,0.9884950779378414,0,-0.6909172595478594,0,-0.6807081764563918],[0,-0.47642950853332877,0,0.47779696760699153,0,0.5631408081389964,0,0.7669057012535632],[0,-0.07438249653205276,0,0.16876014741137624,0,0.07405679021030664,0,-0.6572685656137764],[0,-0.3167172004468739,0,0.3759426483884454,0,0.016208314802497625,0,-0.8753283089026809],[0,-0.8169854837469757,0,-0.891345055308193,0,-0.42010456789284945,0,-0.8603084064088762],[0,0.26057268446311355,0,-0.880196466576308,0,-0.9965318855829537,0,-0.7888612053357065],[0,0.5290062176063657,0,-0.012286935467272997,0,0.9154912191443145,0,0.6730184946209192],[0,0.5601663738489151,0,-0.9433683278039098,0,0.7562521840445697,0,0.3289258317090571],[0,0.0043412684462964535,0,-0.8375138021074235,0,-0.03407385013997555,0,0.7010536636225879],[0,0.21594271250069141,0,0.13473805831745267,0,-0.9250944941304624,0,0.11096944473683834],[0,-0.20846062107011676,0,0.5665979757905006,0,0.33503726264461875,0,0.8751163682900369],[0,0.30491947988048196,0,0.14465784933418036,0,0.5228013922460377,0,-0.8150048996321857],[0,-0.20609693275764585,0,-0.47391188237816095,0,0.3372587077319622,0,0.17795232217758894],[0,0.1802124115638435,0,0.5652328231371939,0,0.18577936198562384,0,0.7227657712064683],[0,0.34653473692014813,0,0.5941324112936854,0,-0.8390195993706584,0,0.1997756352648139],[0,-0.6844225148670375,0,-0.4487108173780143,0,0.12390070408582687,0,0.8334265979938209],[0,0.4993325644172728,0,-0.7664479799568653,0,0.12012995453551412,0,0.15413356572389603],[0,-0.7061160709708929,0,-0.6219703224487603,0,0.5247223465703428,0,0.9878060603514314],[0,0.4961278368718922,0,0.7236287593841553,0,-0.23164997110143304,0,0.17977438447996974],[0,0.03814158542081714,0,0.01859914232045412,0,0.4787109838798642,0,-0.7087499015033245],[0,0.0684608262963593,0,-0.254359548445791,0,0.5495834266766906,0,0.9671890800818801],[0,-0.3756041759625077,0,0.42940406734123826,0,0.7196727572008967,0,0.3708575810305774],[0,-0.682628181297332,0,-0.47566097415983677,0,-0.13912393944337964,0,-0.9002196723595262],[0,0.6569088720716536,0,0.5005359351634979,0,0.6631701868027449,0,0.184831153601408],[0,-0.5370211969129741,0,0.14906009752303362,0,-0.8530389512889087,0,-0.024117722641676664],[0,-0.25531305465847254,0,0.12137934612110257,0,0.9725404256023467,0,-0.488491406198591],[0,-0.9138718522153795,0,0.5457186591811478,0,0.5679486226290464,0,0.05769200110808015],[0,-0.8874590448103845,0,0.9238231875933707,0,0.388035103213042,0,0.7722499016672373],[0,-0.11656923033297062,0,0.1070340322330594,0,-0.33789108134806156,0,0.9757261388003826],[0,-0.15466596046462655,0,0.08000254677608609,0,-0.5637434707023203,0,-0.3795840828679502],[0,0.06599077908322215,0,-0.16854078508913517,0,-0.9275411101989448,0,-0.9125011819414794],[0,-0.6220384943298995,0,-0.9269393491558731,0,0.5805635782890022,0,-0.8808468757197261],[0,-0.478515584487468,0,0.5019396343268454,0,-0.2804520661011338,0,0.7182221068069339],[0,0.7088292636908591,0,-0.07122389879077673,0,-0.13094795774668455,0,0.7533053895458579],[0,0.60306809656322,0,0.5740585378371179,0,0.6274076635017991,0,-0.1942816637456417],[0,0.5743319359607995,0,-0.7637163470499218,0,-0.646555541548878,0,0.20809918688610196],[0,0.7224330035969615,0,-0.06016741134226322,0,-0.9556541419588029,0,-0.42753684893250465],[0,-0.3866095682606101,0,-0.9915332752279937,0,-0.36055480083450675,0,0.4765441408380866],[0,-0.12865421595051885,0,0.032557761296629906,0,0.5801675943657756,0,0.6949553489685059],[0,-0.11813280079513788,0,0.8089030389674008,0,-0.66220393916592,0,-0.4025174155831337],[0,0.6874419148080051,0,-0.7370492331683636,0,0.769096770323813,0,0.3195817549712956],[0,0.7618750394321978,0,0.3123116809874773,0,-0.3785350788384676,0,0.7126889969222248],[0,-0.392160321585834,0,-0.02607397921383381,0,0.7412522807717323,0,-0.5233355648815632],[0,0.9668054543435574,0,0.3545825299806893,0,-0.25822274666279554,0,0.9234766410663724],[0,-0.40712834149599075,0,-0.37818153761327267,0,0.3191076894290745,0,-0.8986241882666945],[0,0.06119484454393387,0,-0.42162210773676634,0,0.9169476488605142,0,-0.3952045785263181],[0,-0.06087497342377901,0,-0.09323542565107346,0,-0.4095197916030884,0,-0.2975641111843288],[0,-0.7946157986298203,0,0.02558444533497095,0,0.6931002088822424,0,-0.4769572983495891],[0,0.5443560122512281,0,0.9897450632415712,0,-0.8330709170550108,0,-0.20338336285203695],[0,-0.29071144759655,0,-0.987545283511281,0,-0.2577712903730571,0,-0.3407913953997195],[0,-0.3813503868877888,0,0.9481038297526538,0,0.5560809914022684,0,-0.47614672034978867],[0,-0.7161812903359532,0,0.5727500426582992,0,0.280685150064528,0,-0.4331459840759635],[0,-0.6490358170121908,0,0.015560755040496588,0,-0.4535934990271926,0,0.6288348762318492],[0,0.983395972289145,0,0.5027046222239733,0,0.9531295755878091,0,-0.4401516243815422],[0,0.5824075839482248,0,0.7136918073520064,0,-0.18839495163410902,0,0.6426901360973716],[0,-0.32829604530707,0,-0.19182832911610603,0,-0.8014297294430435,0,0.30546254804357886],[0,-0.285217585042119,0,-0.7478798199445009,0,0.811800685711205,0,0.46571083599701524],[0,0.7908970401622355,0,0.3490383164025843,0,-0.6356093771755695,0,-0.7285011690109968],[0,-0.20375587791204453,0,0.9073191666975617,0,0.891260327771306,0,-0.539887891151011],[0,-0.07293579773977399,0,0.5715368720702827,0,0.4330326998606324,0,0.08915595384314656],[0,0.8944448451511562,0,-0.7726696687750518,0,0.6095053260214627,0,-0.5147939780727029],[0,-0.6015278971754014,0,-0.21627811808139086,0,-0.9957715971395373,0,-0.9413879290223122],[0,-0.17571384645998478,0,0.4897189005278051,0,0.8266347106546164,0,-0.36006792075932026],[0,-0.233581455424428,0,0.7458986905403435,0,-0.9340000995434821,0,0.14530295133590698],[0,0.8638926008716226,0,-0.9622962884604931,0,0.2628997373394668,0,-0.3880640617571771],[0,0.3857599520124495,0,0.0252541471272707,0,0.561111668124795,0,-0.255179884377867],[0,0.3275941829197109,0,-0.8141516773030162,0,-0.2282672133296728,0,0.0682192463427782],[0,0.1637871926650405,0,-0.17692526569589972,0,0.16494224267080426,0,0.9453543294221163],[0,0.5200923681259155,0,0.19585713557898998,0,0.3157111229375005,0,0.5260595884174109],[0,-0.3537423824891448,0,0.5580048649571836,0,0.5714342775754631,0,-0.22751717828214169],[0,0.3045593402348459,0,-0.8546185805462301,0,0.7427510982379317,0,-0.40542276576161385],[0,-0.45501439878717065,0,0.5809099334292114,0,-0.057430613320320845,0,0.4960532817058265],[0,0.8504238240420818,0,0.9340079976245761,0,0.7086727893911302,0,-0.520466661080718],[0,-0.48391721211373806,0,0.9228710583411157,0,0.04990964336320758,0,0.4537393543869257],[0,0.8653756408020854,0,-0.24861496640369296,0,0.7730843592435122,0,0.4835872449912131],[0,-0.11117457039654255,0,0.17255955515429378,0,0.23623795341700315,0,0.26544224470853806],[0,-0.6537428759038448,0,0.6114428387954831,0,-0.46513142390176654,0,0.1918431781232357],[0,-0.5926319612190127,0,-0.719591312110424,0,-0.47400367353111506,0,-0.5030056652612984],[0,-0.2574285753071308,0,-0.35034226858988404,0,0.23852972174063325,0,-0.3354910686612129],[0,-0.8852959708310664,0,0.2677707839757204,0,0.29949431819841266,0,0.016940430738031864],[0,-0.9555482901632786,0,0.8003635462373495,0,-0.7582456171512604,0,-0.6252405634149909],[0,0.7024416020140052,0,-0.8546860739588737,0,-0.9586497033014894,0,-0.880353283137083],[0,0.5723322783596814,0,-0.31744900811463594,0,0.3111388133838773,0,-0.7065966613590717],[0,-0.3852586126886308,0,-0.8598588230088353,0,-0.8073801198042929,0,0.3537577665410936],[0,0.7483594580553472,0,-0.7160507077351213,0,0.44761922955513,0,-0.3200915823690593],[0,0.6457550227642059,0,0.7027156795375049,0,-0.31799560924991965,0,0.03102483693510294],[0,0.3662157226353884,0,0.6900239787064493,0,-0.795637478120625,0,0.7832269719801843],[0,-0.8086848384700716,0,0.8812734559178352,0,-0.6720616142265499,0,-0.08433014387264848],[0,-0.8621438439004123,0,0.1500654690898955,0,-0.5412420760840178,0,0.347508761100471],[0,-0.7499424195848405,0,0.37103763595223427,0,-0.02538174530491233,0,-0.4987601204775274],[0,-0.23462381772696972,0,0.7712634960189462,0,-0.8319626902230084,0,-0.04957657074555755],[0,0.3935391935519874,0,0.04096238035708666,0,-0.5270236479118466,0,0.5991477980278432],[0,-0.46481703920289874,0,-0.9803489288315177,0,0.18315854528918862,0,-0.27173857903108],[0,0.025377590209245682,0,-0.5070028668269515,0,-0.891266985796392,0,0.7815772406756878],[0,-0.8089206623844802,0,0.5590766463428736,0,-0.7348658191040158,0,0.8838447774760425],[0,0.7485735728405416,0,0.032316280994564295,0,0.9211623398587108,0,0.6867744484916329],[0,-0.6361774378456175,0,-0.4842598042450845,0,-0.9646311402320862,0,-0.3548422968015075],[0,0.6247351164929569,0,-0.8291590469889343,0,-0.9262903220951557,0,-0.790739995893091],[0,-0.8620809074491262,0,-0.9316951129585505,0,-0.9458781648427248,0,0.055499936919659376],[0,0.8186035878024995,0,0.5786906941793859,0,0.8440878572873771,0,-0.6154390103183687],[0,-0.6823493642732501,0,0.4075444173067808,0,0.6613430371508002,0,0.42121300427243114],[0,0.5833163079805672,0,-0.7830991218797863,0,-0.7504045651294291,0,-0.3571529039181769],[0,0.4426619987934828,0,0.8833663170225918,0,-0.8214061507023871,0,0.3218814800493419],[0,-0.13685711286962032,0,-0.4360407469794154,0,0.5367053598165512,0,-0.2713056057691574],[0,0.07047536922618747,0,0.8599705127999187,0,0.05616458831354976,0,-0.5007716240361333],[0,0.7379675540141761,0,-0.6027376079000533,0,0.43308071326464415,0,-0.8441211562603712],[0,-0.22714952053502202,0,0.8321689083240926,0,0.5137963383458555,0,-0.6629345947876573],[0,-0.6137458481825888,0,0.9621866284869611,0,-0.15422379598021507,0,0.3015878899022937],[0,-0.18068499444052577,0,0.6367132249288261,0,0.932551724370569,0,0.021424053236842155],[0,-0.10769083304330707,0,0.03367855539545417,0,0.47364809503778815,0,-0.8558406457304955],[0,0.6234046374447644,0,0.7734503555111587,0,0.5820326101966202,0,0.36043057404458523],[0,-0.9700279110111296,0,-0.8229117109440267,0,0.9468950554728508,0,-0.8487524320371449],[0,-0.8463069992139935,0,0.7984224404208362,0,0.6069181100465357,0,0.7108211424201727],[0,-0.13395463954657316,0,-0.9329049182124436,0,-0.9094499913044274,0,-0.7192700249142945],[0,0.8748193820938468,0,0.15565317356958985,0,0.1319633680395782,0,-0.9425357333384454],[0,0.9963350538164377,0,0.5071611474268138,0,0.5126797002740204,0,-0.27119547221809626],[0,0.29426733404397964,0,-0.23641950823366642,0,0.5094005004502833,0,0.5501778130419552],[0,-0.6426878268830478,0,0.280476950109005,0,0.20910468278452754,0,-0.7561721652746201],[0,-0.4518111958168447,0,-0.963949185796082,0,-0.2652198178693652,0,-0.8666688101366162],[0,0.03418015502393246,0,-0.6761432308703661,0,-0.9059571889229119,0,-0.7970741824246943],[0,-0.28943762136623263,0,-0.2894768724218011,0,0.17907159635797143,0,0.49901753943413496],[0,0.03224979527294636,0,0.293919088318944,0,-0.28592927753925323,0,0.14424499170854688],[0,0.6904677227139473,0,-0.2139555001631379,0,0.7697703540325165,0,-0.2903906009159982],[0,0.4420738322660327,0,-0.39037913642823696,0,0.9391412595286965,0,0.46576022496446967],[0,-0.7552829477936029,0,-0.6266117235645652,0,-0.20324327005073428,0,0.6945622684434056],[0,0.6928281132131815,0,0.7389415404759347,0,0.3200668953359127,0,-0.13658686028793454],[0,-0.860120041295886,0,0.5219687377102673,0,-0.29108035285025835,0,-0.3135336493141949],[0,-0.5506400410085917,0,0.04452375276014209,0,0.92097891215235,0,0.22903059609234333],[0,0.5904479501768947,0,-0.34715412463992834,0,-0.693292970303446,0,-0.8767463066615164],[0,0.588170051574707,0,-0.7578639979474247,0,0.9833296751603484,0,-0.9992653257213533],[0,-0.5969896712340415,0,0.7381496182642877,0,0.43748520826920867,0,-0.30843561282381415],[0,-0.9415866914205253,0,-0.4453505193814635,0,-0.5154756074771285,0,0.09088971791788936],[0,-0.0023401333019137383,0,-0.38941606134176254,0,-0.782415424939245,0,0.36191007774323225],[0,0.06540525797754526,0,-0.2782363286241889,0,0.18944912403821945,0,-0.17646071640774608],[0,-0.16030873591080308,0,-0.43020870722830296,0,-0.6801801617257297,0,-0.9237667713314295],[0,-0.32509802281856537,0,0.48203789442777634,0,0.8155484069138765,0,0.9811397842131555],[0,-0.29293131036683917,0,0.8221058137714863,0,-0.22546975407749414,0,-0.5902442065998912],[0,-0.08471767464652658,0,0.3295895238406956,0,0.03808858012780547,0,0.19980889931321144],[0,0.8148444285616279,0,0.02826386597007513,0,-0.948628400452435,0,0.8319416246376932],[0,-0.148623526096344,0,-0.98817816702649,0,-0.34701654175296426,0,-0.7634796923957765],[0,0.8123523932881653,0,0.5902746194042265,0,-0.6455956702120602,0,-0.9637952046468854],[0,0.19022804033011198,0,-0.5658702366054058,0,-0.40831809863448143,0,-0.8205113122239709],[0,0.1335743679665029,0,-0.21711323130875826,0,-0.2655163547024131,0,-0.18668570509180427],[0,0.9008353906683624,0,0.953558661043644,0,-0.6615337124094367,0,0.8818455315195024],[0,0.38252057088539004,0,-0.5918673141859472,0,0.11124702449887991,0,0.20625569531694055],[0,-0.1981365904211998,0,0.33279551612213254,0,0.28072343952953815,0,0.6634933943860233],[0,-0.9970849431119859,0,-0.3960280092433095,0,0.8153981906361878,0,-0.5184069713577628],[0,-0.20713418535888195,0,-0.0965371853671968,0,0.3479178990237415,0,-0.9583962033502758],[0,-0.6897059916518629,0,-0.3600676734931767,0,0.04064053809270263,0,-0.45305853011086583],[0,0.6736146374605596,0,-0.6202086126431823,0,-0.6987918219529092,0,-0.5841149729676545],[0,0.47638412844389677,0,0.32374783838167787,0,-0.7344310712069273,0,-0.8170358831994236],[0,-0.385519010014832,0,-0.8853239114396274,0,-0.8615455185063183,0,0.661460021045059],[0,-0.5385559787973762,0,0.6782882185652852,0,0.9065639795735478,0,-0.10688020754605532],[0,0.7794070881791413,0,-0.8802747488953173,0,0.7781268740072846,0,0.04051798768341541],[0,-0.45746917137876153,0,-0.3247846127487719,0,0.7944188015535474,0,0.2581096994690597],[0,-0.5641435692086816,0,0.0024219267070293427,0,-0.21843442041426897,0,-0.1415128530934453],[0,-0.32501115603372455,0,-0.7421936304308474,0,0.8018767205066979,0,-0.8163464399985969],[0,-0.9436972122639418,0,-0.3675191346555948,0,-0.18734109634533525,0,-0.5593711901456118],[0,-0.15282848803326488,0,-0.7497924957424402,0,0.8321460857987404,0,0.9739431338384748],[0,-0.3114511608146131,0,-0.4174091899767518,0,0.04729365278035402,0,0.40111535182222724],[0,0.03759691817685962,0,-0.8420422077178955,0,0.698007442522794,0,-0.19235966401174664],[0,0.42293236730620265,0,0.27070933766663074,0,-0.080364013556391,0,0.919128336943686],[0,0.17770671844482422,0,0.4870882066898048,0,-0.753668247256428,0,-0.2288836818188429],[0,-0.6014045239426196,0,-0.6029561418108642,0,0.434818796813488,0,0.4752390440553427],[0,-0.02515274565666914,0,-0.4268674561753869,0,-0.6041769729927182,0,-0.24060048488900065],[0,0.2794533623382449,0,-0.3599372706376016,0,-0.8526091077364981,0,-0.9166146642528474],[0,-0.3018539557233453,0,-0.4490410787984729,0,0.187602992169559,0,-0.7982399123720825],[0,0.8248627269640565,0,-0.1780088860541582,0,-0.14435285096988082,0,-0.9202485615387559],[0,0.4202898950316012,0,0.24940016027539968,0,-0.7615442834794521,0,0.1587472460232675],[0,0.6951403045095503,0,0.22549880389124155,0,0.3980374224483967,0,-0.37449466390535235],[0,0.4854038152843714,0,0.561122078448534,0,-0.03568790480494499,0,0.7904837843962014],[0,-0.4343876694329083,0,-0.2552624330855906,0,0.6559165413491428,0,0.4175211666151881],[0,0.4094220888800919,0,0.9844637322239578,0,-0.36790850618854165,0,-0.20207813568413258],[0,0.0966606535948813,0,-0.8465534667484462,0,0.9278581216931343,0,0.9848595149815083],[0,0.9348634234629571,0,-0.9426336591131985,0,0.2443147492595017,0,-0.26874760584905744],[0,0.831343506462872,0,-0.5060931774787605,0,0.5293327681720257,0,0.061334092635661364],[0,0.20720267994329333,0,-0.5067378235980868,0,-0.24004315631464124,0,-0.8193138600327075],[0,0.48638299806043506,0,-0.6939696348272264,0,-0.027879721019417048,0,-0.8017273899167776],[0,-0.38881497643887997,0,-0.5494170589372516,0,0.28120393957942724,0,-0.24187766900286078],[0,0.4080113279633224,0,-0.2935253903269768,0,-0.12068315222859383,0,-0.07841138355433941],[0,0.7782456870190799,0,0.773522200062871,0,-0.9565248326398432,0,-0.6457664566114545],[0,-0.5103469854220748,0,-0.6984768640249968,0,-0.0011314279399812222,0,-0.8611589893698692],[0,0.20559795340523124,0,0.7960826349444687,0,-0.5963260307908058,0,-0.44472938077524304],[0,-0.5209295093081892,0,-0.4249606509692967,0,0.43760552909225225,0,-0.6809789347462356],[0,-0.20476990286260843,0,-0.6453597946092486,0,0.6698419391177595,0,0.1295655663125217],[0,-0.15634447149932384,0,0.009938279632478952,0,-0.7839525756426156,0,0.3120641647838056],[0,0.7291921023279428,0,-0.9786487352102995,0,-0.39500855188816786,0,0.6170700709335506],[0,0.4929962260648608,0,0.0190275888890028,0,-0.9815748077817261,0,-0.31480317236855626],[0,0.999139535240829,0,0.26458786986768246,0,0.690073006786406,0,-0.3144892961718142],[0,-0.6795495408587158,0,0.4920712229795754,0,-0.37491919565945864,0,0.23816448356956244],[0,-0.7553366026841104,0,0.8916193200275302,0,-0.03281928226351738,0,0.046736476477235556],[0,0.6101154419593513,0,-0.10934986127540469,0,-0.6603865339420736,0,-0.502654115203768],[0,-0.03587070619687438,0,0.17211586982011795,0,0.17128230025991797,0,0.42752940906211734],[0,0.15860567661002278,0,0.5172612508758903,0,0.25468822848051786,0,0.9019649741239846],[0,0.12783609004691243,0,-0.9928107559680939,0,-0.6141361738555133,0,0.0873273890465498],[0,0.725326260086149,0,-0.280855443328619,0,0.4157535810954869,0,0.9199825352989137],[0,-0.34873230289667845,0,-0.9020477766171098,0,0.3943587699905038,0,-0.8613367187790573],[0,-0.4724172414280474,0,0.7339948783628643,0,-0.3437910764478147,0,0.6880571944639087],[0,-0.6830609603784978,0,0.36330802785232663,0,0.3507785960100591,0,0.5646792608313262],[0,-0.7802411774173379,0,0.6392199890688062,0,-0.6228250004351139,0,0.8674448356032372],[0,-0.07109244633466005,0,0.8892668262124062,0,0.10379927745088935,0,-0.28339984361082315],[0,0.6547465631738305,0,-0.6416197940707207,0,-0.4997697286307812,0,-0.6694867559708655],[0,0.4641901603899896,0,-0.6197532517835498,0,0.7228083717636764,0,-0.7627507722936571],[0,-0.6210288172587752,0,0.5412878505885601,0,0.20893049146980047,0,-0.30812932597473264],[0,-0.26525394758209586,0,0.8067164439707994,0,-0.9932874976657331,0,0.09517665905877948],[0,0.07449635583907366,0,-0.5918063619174063,0,-0.11410879623144865,0,0.01144333090633154],[0,0.6919938698410988,0,0.4678939008153975,0,-0.48592931078746915,0,-0.9091761480085552],[0,-0.9699774426408112,0,0.21720085898414254,0,0.2535423110239208,0,-0.14165308559313416],[0,-0.5634659389033914,0,-0.5861065136268735,0,-0.896474048960954,0,0.7046969057992101],[0,0.3356387298554182,0,-0.024588192347437143,0,0.874904200900346,0,-0.39596529491245747],[0,-0.5714278160594404,0,0.402864309027791,0,0.9538898295722902,0,0.7278586807660758],[0,-0.45151684945449233,0,0.050483872182667255,0,0.3869429789483547,0,-0.7100374083966017],[0,0.3428490674123168,0,-0.1653830548748374,0,0.44802703289315104,0,0.8040075581520796],[0,-0.9827392371371388,0,-0.26252532796934247,0,0.20101137971505523,0,0.012868089135736227],[0,-0.7318943608552217,0,-0.34008455090224743,0,-0.24531756807118654,0,-0.6400289498269558],[0,0.5256860312074423,0,0.08215900138020515,0,0.9400918586179614,0,0.4422004232183099],[0,-0.5619362564757466,0,-0.35327066807076335,0,-0.5441384939476848,0,-0.07234941655769944],[0,0.7473345883190632,0,0.2962284069508314,0,0.015836434438824654,0,0.08362594619393349],[0,-0.8531751059927046,0,0.89053575694561,0,0.8403994459658861,0,0.5537541364319623],[0,0.9731159177608788,0,-0.05136904260143638,0,-0.9803009945899248,0,-0.028557985555380583],[0,0.15321739157661796,0,0.7105552749708295,0,0.39373081270605326,0,-0.4011616366915405],[0,0.4942618990316987,0,-0.5648798178881407,0,-0.8970861914567649,0,-0.9088176870718598],[0,0.3042115750722587,0,0.681924328673631,0,-0.031935971695929766,0,-0.027608823496848345],[0,0.8199517051689327,0,0.9526410084217787,0,-0.5770154013298452,0,0.7292865714989603],[0,0.4463187134824693,0,0.24341235077008605,0,0.2255665622651577,0,-0.8913710177876055],[0,-0.0812691105529666,0,-0.18259960087016225,0,0.09523995965719223,0,-0.9111560098826885],[0,0.5267336848191917,0,0.269468663726002,0,0.20024481136351824,0,-0.7558689531870186],[0,0.8433939595706761,0,0.8835879685357213,0,-0.2483839993365109,0,0.681788775138557],[0,0.8864255961962044,0,0.3130650892853737,0,-0.3544314266182482,0,0.09101643040776253],[0,0.5519161717966199,0,-0.41590103413909674,0,-0.24781043734401464,0,0.3088340642862022],[0,-0.5106904860585928,0,0.03941309778019786,0,0.920234705787152,0,0.8440991868264973],[0,0.9221416972577572,0,-0.21798374457284808,0,0.388421006500721,0,-0.43610549438744783],[0,0.4043772416189313,0,-0.42886692145839334,0,-0.12566137313842773,0,-0.40694566490128636],[0,-0.906533841509372,0,-0.7114032465033233,0,0.888065546285361,0,-0.5684025194495916],[0,-0.35913022235035896,0,0.9433285649865866,0,-0.15192298404872417,0,-0.6254168767482042],[0,0.4103878615424037,0,-0.019192516338080168,0,-0.12183390464633703,0,0.11032863147556782],[0,0.304839835036546,0,0.9554587942548096,0,-0.7200324474833906,0,0.15061281342059374],[0,0.23302808543667197,0,0.6822320478968322,0,0.5007033790461719,0,-0.21442389395087957],[0,0.35212398832663894,0,0.8006895203143358,0,-0.21122817555442452,0,-0.40530501399189234],[0,0.2066049724817276,0,0.3013901971280575,0,-0.4500370561145246,0,0.2804663646966219],[0,0.26289818761870265,0,0.8432464068755507,0,-0.5964523679576814,0,-0.24401619704440236],[0,0.6614548484794796,0,-0.8327868361957371,0,-0.7183865956030786,0,0.7890714146196842],[0,0.5600108099170029,0,-0.3962838649749756,0,0.5095983515493572,0,0.3179534738883376],[0,0.2976455404423177,0,-0.7308211587369442,0,-0.4160116915591061,0,-0.5572583549655974],[0,0.12161730462685227,0,-0.7897741659544408,0,0.5778184533119202,0,0.08442003885284066],[0,0.35999062238261104,0,0.19942407496273518,0,0.2128472519107163,0,-0.18802667129784822],[0,-0.3387578404508531,0,-0.7207426480017602,0,0.6850895988754928,0,-0.7404943676665425],[0,-0.8034019502811134,0,-0.652334401383996,0,-0.0830563735216856,0,0.14637606171891093],[0,-0.6841473379172385,0,-0.42065346986055374,0,-0.7007879451848567,0,-0.7756144083105028],[0,-0.06646602833643556,0,-0.527649016585201,0,-0.4443528326228261,0,0.3294303994625807],[0,-0.9898622599430382,0,-0.18727826746180654,0,-0.3146172622218728,0,-0.5970948245376348],[0,0.4197076861746609,0,0.6288904026150703,0,-0.35493910452350974,0,0.977936158888042],[0,0.26997653814032674,0,0.08484095940366387,0,-0.9428300610743463,0,-0.17506982758641243],[0,-0.8241976080462337,0,0.1655133906751871,0,0.7542722248472273,0,-0.7725855908356607],[0,0.3828754243440926,0,-0.6402192134410143,0,0.6579050426371396,0,-0.18808331806212664],[0,0.06420192448422313,0,-0.7375420052558184,0,0.5093889962881804,0,-0.5654277233406901],[0,-0.5122536486014724,0,0.47101412527263165,0,-0.22044630581513047,0,-0.07038602931424975],[0,0.5270751947537065,0,0.777411078568548,0,0.025180870201438665,0,0.9973026453517377],[0,0.015869864728301764,0,-0.5574376313015819,0,-0.8250297051854432,0,-0.16113436641171575],[0,0.8901478196494281,0,0.8080943305976689,0,-0.2741291397251189,0,0.375971385743469],[0,-0.9960807845927775,0,-0.07383779436349869,0,0.8783941911533475,0,0.41692618979141116],[0,-0.5421017212793231,0,-0.7739797648973763,0,-0.8851100774481893,0,0.6548965615220368],[0,0.25766717782244086,0,0.8445212128572166,0,0.21739839715883136,0,0.9418595172464848],[0,0.6841399613767862,0,0.7147765411064029,0,0.9394521187059581,0,0.2110563088208437],[0,-0.41647543804720044,0,-0.05346251977607608,0,-0.7301094778813422,0,0.7303019287064672],[0,-0.5880481316708028,0,0.9383145067840815,0,0.23887557117268443,0,0.9943790528923273],[0,-0.7135041998699307,0,-0.36252614529803395,0,0.028085704892873764,0,0.07422973588109016],[0,0.9282524008303881,0,-0.06668623350560665,0,0.4622109183110297,0,-0.9775778483599424],[0,-0.39418908301740885,0,0.09208763483911753,0,0.19791951403021812,0,-0.4894947689026594],[0,-0.3686731578782201,0,0.003426663111895323,0,-0.040312773548066616,0,-0.4063521269708872],[0,-0.5662299687974155,0,-0.6606002412736416,0,0.860509729012847,0,-0.38889137050136924],[0,0.9382593897171319,0,-0.6814253330230713,0,0.7336761369369924,0,-0.11801354540511966],[0,-0.997902104165405,0,0.46900999639183283,0,-0.7424438907764852,0,-0.6014264761470258],[0,-0.32786934776231647,0,0.29247924126684666,0,0.2889716038480401,0,-0.6434630616568029],[0,0.8240661392919719,0,0.9480972709134221,0,-0.36249054595828056,0,0.9095978331752121],[0,-0.4929848196916282,0,0.9550517671741545,0,0.1352302972227335,0,-0.02734744967892766],[0,-0.2540585626848042,0,0.6570345163345337,0,-0.252105915453285,0,0.5856055710464716],[0,-0.8201747951097786,0,-0.988823757506907,0,-0.8508120430633426,0,0.7852112734690309],[0,0.5865333345718682,0,0.7560826945118606,0,-0.5903782248497009,0,0.2853859174065292],[0,-0.7403023168444633,0,-0.5930666467174888,0,0.9346103207208216,0,-0.6802039002068341],[0,0.759765830822289,0,0.39234648272395134,0,-0.7845065863803029,0,-0.5947655141353607],[0,-0.3059910577721894,0,0.824818838853389,0,0.4256837163120508,0,-0.9786515473388135],[0,0.49626718554645777,0,-0.06059200130403042,0,0.01066531240940094,0,0.6262950310483575],[0,0.2704431740567088,0,0.8180543561466038,0,-0.37493258947506547,0,0.05024770414456725],[0,-0.8892716011032462,0,0.6263768286444247,0,-0.7258822759613395,0,-0.17303407285362482],[0,0.5986735820770264,0,-0.45202531618997455,0,-0.907913907431066,0,-0.9816516735590994],[0,0.6384064168669283,0,0.07694317447021604,0,-0.8043867386877537,0,-0.40852459939196706],[0,0.0459079067222774,0,-0.969358442351222,0,-0.08468216052278876,0,-0.05501733161509037],[0,-0.10181679204106331,0,0.0566776436753571,0,-0.4523789086379111,0,0.9945553420111537],[0,-0.11799463955685496,0,0.3777682310901582,0,0.9728455580770969,0,-0.7922933311201632],[0,-0.07552800141274929,0,0.8222934496589005,0,0.3445923663675785,0,-0.5099288113415241],[0,0.08179853856563568,0,0.7960787923075259,0,0.20556920673698187,0,0.7005164711736143],[0,-0.7306939186528325,0,0.06636978546157479,0,0.2859100899659097,0,0.7834116704761982],[0,0.8387113572098315,0,-0.8437385004945099,0,0.8566462476737797,0,0.3205918185412884],[0,-0.34496819879859686,0,-0.19969175104051828,0,0.2967189336195588,0,-0.44113344699144363],[0,0.08817217173054814,0,0.3877066094428301,0,-0.897773863747716,0,0.1126273893751204],[0,0.7486277562566102,0,0.23552672564983368,0,0.018447105307132006,0,-0.8121433360502124],[0,0.9085750146768987,0,-0.13597953505814075,0,-0.37951963674277067,0,-0.2812024657614529],[0,-0.026440348010510206,0,-0.6165580442175269,0,0.3025920633226633,0,0.5109698451124132],[0,-0.9988886923529208,0,0.10250361682847142,0,-0.27927551371976733,0,-0.20252560591325164],[0,0.7808806654065847,0,-0.4186976873315871,0,0.9788754852488637,0,0.6545895072631538],[0,-0.9384510666131973,0,0.5639054691419005,0,0.9191402145661414,0,0.9149878555908799],[0,0.4768124562688172,0,-0.19654502300545573,0,-0.45468896348029375,0,-0.06315145082771778],[0,-0.49100972386077046,0,0.0943865873850882,0,0.4127738713286817,0,0.65392099134624],[0,0.4960832642391324,0,0.07281953515484929,0,-0.45359505666419864,0,-0.8886186927556992],[0,0.47537771007046103,0,-0.4424167247489095,0,0.8561195963993669,0,-0.21109910542145371],[0,-0.20750565128400922,0,-0.842076389119029,0,0.629658754914999,0,-0.9049822753295302],[0,-0.8670654790475965,0,0.6064565796405077,0,0.5788021343760192,0,-0.7968282969668508],[0,0.028050828725099564,0,0.8378980574198067,0,-0.2502556932158768,0,-0.7898559677414596],[0,-0.5017585386522114,0,0.23917730571702123,0,0.4481701306067407,0,0.8686166019178927],[0,0.8604610934853554,0,0.36459146719425917,0,-0.49471456883475184,0,-0.843485055025667],[0,-0.2175010764040053,0,-0.20563853485509753,0,0.8938257908448577,0,0.9681364158168435],[0,-0.3866805690340698,0,0.2823108131997287,0,-0.3088916768319905,0,0.6504099904559553],[0,-0.5799064901657403,0,-0.47083901707082987,0,0.1372308456338942,0,0.7980779055505991],[0,-0.41659780591726303,0,0.4373294119723141,0,0.4420235641300678,0,0.1395931108854711],[0,0.13098874781280756,0,0.5111650326289237,0,-0.5373279605992138,0,0.24532610783353448],[0,0.24657231010496616,0,-0.11397225549444556,0,-0.5001127705909312,0,0.819428313523531],[0,0.9226457076147199,0,-0.7449304913170636,0,-0.3413978130556643,0,-0.22777360817417502],[0,-0.5505706649273634,0,0.4383580260910094,0,0.619323099963367,0,0.68829409731552],[0,-0.6985577126033604,0,-0.176414059009403,0,-0.17734779929742217,0,0.6812829379923642],[0,-0.434360483661294,0,-0.9827152984216809,0,-0.7471873909235001,0,-0.2780861030332744],[0,0.00582938501611352,0,0.3179237744770944,0,-0.40041828341782093,0,-0.5615507205948234],[0,-0.3629013802856207,0,0.9604966649785638,0,0.40858071483671665,0,0.3582175471819937],[0,0.5038496204651892,0,-0.636473277118057,0,-0.9965216750279069,0,0.5338960168883204],[0,0.1776197818107903,0,-0.3173270532861352,0,-0.54420798830688,0,0.5435468656942248],[0,-0.08550129877403378,0,0.42562531121075153,0,0.20997272618114948,0,-0.07737207831814885],[0,-0.16949222143739462,0,0.4907194864936173,0,-0.6297612590715289,0,0.9852578435093164],[0,-0.1587841734290123,0,0.5214066943153739,0,-0.9696382023394108,0,0.19252413604408503],[0,0.092632248532027,0,-0.4372707223519683,0,0.4341958495788276,0,0.8108622669242322],[0,0.06594415614381433,0,0.7693250658921897,0,0.5865321112796664,0,0.19406450958922505],[0,-0.8458529375493526,0,0.6174130467697978,0,-0.8015990741550922,0,0.16106817312538624],[0,-0.3771483185701072,0,-0.2835755585692823,0,-0.07991478592157364,0,-0.17366308625787497],[0,0.9288193862885237,0,-0.9346049991436303,0,-0.9566417075693607,0,-0.23732720036059618],[0,0.6859008064493537,0,-0.7127220560796559,0,0.5168340625241399,0,0.6711309594102204],[0,-0.07699018530547619,0,0.3237756099551916,0,-0.05221705976873636,0,0.4792001894675195],[0,0.4726386424154043,0,-0.57628801651299,0,-0.4391666413284838,0,-0.8840632229112089],[0,0.2659157062880695,0,-0.8802092466503382,0,0.30792374489828944,0,0.16519840294495225],[0,-0.5064699030481279,0,-0.20875637466087937,0,0.35148084722459316,0,0.11573598999530077],[0,-0.8595438641496003,0,-0.9518071529455483,0,-0.7138757300563157,0,0.12420443864539266],[0,0.42719868244603276,0,-0.6857397332787514,0,-0.5036103539168835,0,0.39116435777395964],[0,-0.8850793014280498,0,0.6527530760504305,0,0.3858890701085329,0,-0.19917745841667056],[0,0.3075231183320284,0,-0.33669586246833205,0,-0.9413743349723518,0,-0.13134902296587825],[0,-0.6904584039002657,0,-0.6282548517920077,0,0.39896330470219254,0,-0.7195772137492895],[0,-0.8945765127427876,0,0.6357790809124708,0,0.33119898987933993,0,0.8184371301904321],[0,0.612608477473259,0,0.25122527964413166,0,0.3326731761917472,0,0.4542308822274208],[0,-0.6911656116135418,0,0.10316963447257876,0,0.07479452481493354,0,-0.8737349212169647],[0,-0.40879069035872817,0,0.8683342514559627,0,0.996794558595866,0,0.07389712147414684],[0,-0.4692674302496016,0,-0.8222227091901004,0,0.051773916464298964,0,0.12308397330343723],[0,0.4741769591346383,0,-0.04802299803122878,0,0.03418762283399701,0,0.29737670300528407],[0,0.17120500653982162,0,-0.46522394428029656,0,0.20850017247721553,0,-0.11707224883139133],[0,0.28216663375496864,0,0.002161308191716671,0,0.3929040180519223,0,-0.9581119641661644],[0,-0.07656754879280925,0,0.9795224177651107,0,0.18179322825744748,0,-0.35295864613726735],[0,0.12444560509175062,0,-0.40513478592038155,0,0.9490701099857688,0,0.25484178913757205],[0,0.22884716326370835,0,0.45298850210383534,0,-0.46831455547362566,0,0.9887778107076883],[0,-0.5419464982114732,0,-0.10518042044714093,0,0.9979206882417202,0,-0.261682175565511],[0,0.833854153752327,0,-0.5464098937809467,0,-0.1225618151947856,0,-0.8625991833396256],[0,-0.6435532574541867,0,0.9694164195097983,0,-0.000006695277988910675,0,-0.46030336944386363],[0,0.3602730338461697,0,-0.6547231702134013,0,0.23548212880268693,0,0.37246657721698284],[0,-0.09882598090916872,0,-0.47765702847391367,0,-0.9688267940655351,0,0.22515906300395727],[0,0.6364156301133335,0,-0.6701840520836413,0,0.979128772392869,0,0.16100616939365864],[0,-0.5293863420374691,0,0.9966329992748797,0,-0.6858249893411994,0,-0.10893339058384299],[0,-0.3300329060293734,0,0.7885981812141836,0,0.7700810069218278,0,0.17146458523347974],[0,-0.059863151516765356,0,0.6065771477296948,0,-0.26844840543344617,0,-0.048807148821651936],[0,-0.4841201542876661,0,0.5449500614777207,0,0.0013443725183606148,0,-0.123870640527457],[0,-0.8281078664585948,0,-0.9202618026174605,0,0.9266991172917187,0,-0.6446097968146205],[0,0.6476610703393817,0,-0.722405013628304,0,-0.1287591066211462,0,-0.6717125969007611],[0,-0.2318277577869594,0,-0.25212343083694577,0,0.47705909702926874,0,0.21806684043258429],[0,0.6894843317568302,0,-0.17746930988505483,0,-0.9808900798670948,0,-0.937822085339576],[0,-0.7392313489690423,0,-0.44063787814229727,0,0.5822312962263823,0,0.9013332356698811],[0,0.4173177666962147,0,0.24727482348680496,0,-0.3554483992047608,0,-0.05085870670154691],[0,0.26863720919936895,0,-0.3202037652954459,0,0.9228438753634691,0,-0.7409054581075907],[0,0.8499211617745459,0,-0.19380324753001332,0,0.5828627054579556,0,0.9594906684942544],[0,0.6882344195619226,0,0.6080566165037453,0,0.010107101406902075,0,0.3567973547615111],[0,0.6016177707351744,0,0.254086010158062,0,0.051331312861293554,0,-0.9657294922508299],[0,0.973897737916559,0,-0.11563967913389206,0,-0.8284958945587277,0,-0.3067771941423416],[0,0.1213244698010385,0,-0.43589705461636186,0,-0.3241561111062765,0,0.7899222774431109],[0,0.8898810227401555,0,0.7514890534803271,0,-0.8500521723181009,0,0.23570404993370175],[0,0.6397436982952058,0,0.2557374886237085,0,-0.2914529130794108,0,0.781091708689928],[0,-0.12179119605571032,0,-0.13295218255370855,0,0.2615051590837538,0,0.6096698483452201],[0,0.004074574913829565,0,0.9190016835927963,0,-0.7263881997205317,0,-0.8262063632719219],[0,0.182905369438231,0,0.8917609537020326,0,-0.8436378864571452,0,-0.06146496068686247],[0,0.21058510476723313,0,-0.08440050715580583,0,-0.14951199619099498,0,0.5845551872625947],[0,0.24839113326743245,0,0.6030361200682819,0,-0.2638689586892724,0,-0.3115394515916705],[0,-0.2959917918778956,0,-0.32726169330999255,0,-0.657066413667053,0,0.3596035735681653],[0,0.882663793861866,0,0.7477795728482306,0,0.36969252908602357,0,0.3222544491291046],[0,0.6081396103836596,0,0.41742035280913115,0,0.5354977203533053,0,0.8242803509347141],[0,-0.9591210032813251,0,-0.2192716277204454,0,-0.3025932526215911,0,0.9677868075668812],[0,-0.1573955467902124,0,0.8653313471004367,0,0.4174161097034812,0,-0.36870358558371663],[0,-0.022545030806213617,0,0.3196693346835673,0,0.07461700635030866,0,-0.15924988221377134],[0,0.7392739723436534,0,-0.3410021523013711,0,0.32017505960538983,0,-0.6253165882080793],[0,0.21482989471405745,0,0.3866747161373496,0,0.17758722929283977,0,0.3868772676214576],[0,0.07073601242154837,0,-0.4952722038142383,0,0.061064216773957014,0,-0.9579571085050702],[0,0.4797651148401201,0,-0.2998362937942147,0,-0.5095590148121119,0,0.7815167899243534],[0,0.32154998928308487,0,-0.24231952568516135,0,0.891075468622148,0,-0.6244883905164897],[0,0.8728934861719608,0,0.026116468477994204,0,-0.10724374791607261,0,-0.3455237983725965],[0,0.6675033844076097,0,-0.5863387086428702,0,-0.17797251651063561,0,-0.39838755782693624],[0,0.9414202864281833,0,-0.6887560775503516,0,-0.5432576672174037,0,0.2846710719168186],[0,0.8652336858212948,0,-0.9446125444956124,0,0.2565765902400017,0,0.1838551787659526],[0,-0.3557281722314656,0,0.6338064447045326,0,0.37364796502515674,0,0.45764499297365546],[0,-0.22311071772128344,0,-0.8682199437171221,0,-0.9517832384444773,0,-0.1586430878378451],[0,0.9090102268382907,0,0.8774450332857668,0,0.14913742244243622,0,0.7960824659094214],[0,0.0849056076258421,0,0.17962762154638767,0,-0.6618921719491482,0,0.3925732080824673],[0,-0.1621248358860612,0,0.8273047124966979,0,-0.2252932949922979,0,-0.07934780139476061],[0,0.1590496227145195,0,0.7406426449306309,0,0.09653187962248921,0,0.20975409355014563],[0,-0.6785605223849416,0,0.9494765517301857,0,0.8703892915509641,0,-0.6561876488849521],[0,0.028789903968572617,0,0.5394635801203549,0,0.7918506595306098,0,0.9595935717225075],[0,-0.27773244958370924,0,0.4764374205842614,0,-0.4755425974726677,0,-0.888313754927367],[0,-0.2331816777586937,0,0.5449968501925468,0,-0.8134530447423458,0,-0.6446370612829924],[0,-0.25574871292337775,0,-0.046307025011628866,0,0.6406742306426167,0,-0.9540416323579848],[0,0.4384292415343225,0,0.31925279973074794,0,0.8625336559489369,0,-0.4744119392707944],[0,0.7370322537608445,0,0.1657022386789322,0,-0.022103433962911367,0,-0.14250134862959385],[0,-0.7208776567131281,0,-0.3272802368737757,0,-0.3090325384400785,0,0.7163157258182764],[0,-0.6186600159853697,0,-0.9921793676912785,0,-0.5540539058856666,0,0.9322522291913629],[0,0.6705466746352613,0,-0.7440309342928231,0,0.7842288450337946,0,-0.8101906687952578],[0,-0.3037795899435878,0,-0.10880237491801381,0,0.8436134494841099,0,-0.8929615295492113],[0,0.9540390595793724,0,-0.09997292282059789,0,0.49394116876646876,0,-0.6150661720894277],[0,0.8876782548613846,0,-0.06966336304321885,0,0.8255307571962476,0,-0.5431008222512901],[0,-0.9230936309322715,0,-0.15797015698626637,0,-0.5359562723897398,0,-0.8471349780447781],[0,-0.5890732314437628,0,0.2354368818923831,0,0.9483639979735017,0,-0.11357761081308126],[0,0.1085766707547009,0,-0.594093507155776,0,-0.11583201587200165,0,0.36435734713450074],[0,0.9113424457609653,0,0.5196823780424893,0,0.6581048597581685,0,0.7841592780314386],[0,0.8836936596781015,0,0.7109008496627212,0,0.3132329504005611,0,-0.08161060698330402],[0,-0.12022177129983902,0,-0.4911542711779475,0,-0.01275556581094861,0,0.266344569157809],[0,-0.8301736023277044,0,0.43203959381207824,0,0.2718385332264006,0,0.9732716954313219],[0,0.7976625054143369,0,0.33652759809046984,0,-0.2933730115182698,0,-0.4675915869884193],[0,-0.5328327193856239,0,0.36482391972094774,0,0.6932670189999044,0,0.4059138218872249],[0,0.23494069930166006,0,0.07285024272277951,0,-0.24762068269774318,0,-0.48781743505969644],[0,0.4565698024816811,0,0.43716429313644767,0,-0.7086945795454085,0,0.893445132765919],[0,0.7419818993657827,0,-0.9745424636639655,0,0.8909470704384148,0,0.3347836476750672],[0,0.22555619338527322,0,-0.44772756146267056,0,-0.5230302512645721,0,-0.20643917238339782],[0,-0.10838244901970029,0,-0.29809370590373874,0,0.08822570042684674,0,-0.17830211156979203],[0,-0.810872467700392,0,-0.7009532516822219,0,0.46668624272570014,0,0.7715471549890935],[0,-0.17530788434669375,0,0.16856892639771104,0,-0.8335171584039927,0,0.5970090073533356],[0,0.8326390767470002,0,0.2718046042136848,0,0.248557994607836,0,-0.41719633946195245],[0,-0.17178939143195748,0,0.293573054485023,0,-0.7557823667302728,0,0.6817365731112659],[0,-0.2791520175524056,0,0.7953433869406581,0,-0.16337478626519442,0,0.2154185613617301],[0,0.274356497451663,0,-0.6628955821506679,0,-0.40164203057065606,0,-0.3044562842696905],[0,0.7610829984769225,0,-0.3604871197603643,0,0.9652306041680276,0,0.28699579555541277],[0,0.6911187614314258,0,0.23352660471573472,0,-0.8023579521104693,0,0.25226734671741724],[0,-0.12600468145683408,0,0.6247329260222614,0,-0.06836701976135373,0,-0.014257602859288454],[0,-0.1952303904108703,0,-0.33389297081157565,0,0.13088476471602917,0,-0.17849218053743243],[0,0.04274916835129261,0,-0.7611546474508941,0,-0.2312502977438271,0,-0.5664453604258597],[0,-0.7940635746344924,0,0.8728568684309721,0,0.25771994702517986,0,-0.9552666628733277],[0,0.025739978067576885,0,-0.890401097945869,0,-0.43166370084509254,0,-0.6749682961963117],[0,0.15477946400642395,0,0.7827885881997645,0,0.6733040288090706,0,0.8449590322561562],[0,0.32800669595599174,0,-0.14268653048202395,0,0.35788512974977493,0,-0.34156355587765574],[0,0.594378789421171,0,0.1755639840848744,0,-0.9658242943696678,0,0.6385936280712485],[0,-0.24576553469523787,0,0.24406244279816747,0,-0.3962099743075669,0,-0.18440528493374586],[0,0.5485782381147146,0,-0.1127026635222137,0,-0.9946796530857682,0,-0.8371638655662537],[0,-0.3661631247960031,0,0.7970851808786392,0,0.9013087586499751,0,0.6166152427904308],[0,-0.116158212069422,0,-0.6869816049002111,0,0.34187240386381745,0,-0.14307443937286735],[0,-0.05120265716686845,0,-0.8303021024912596,0,-0.026523650158196688,0,-0.16376560926437378],[0,-0.7966846735216677,0,0.7486206763423979,0,-0.06627740850672126,0,-0.05969146033748984],[0,0.02561293449252844,0,-0.26548580825328827,0,-0.44606139278039336,0,-0.9652231601066887],[0,0.036409472580999136,0,-0.9711902956478298,0,-0.6616039518266916,0,0.3452811520546675],[0,0.22938747657462955,0,-0.8781986865215003,0,0.5448301881551743,0,0.6849003983661532],[0,-0.7577132498845458,0,0.0773641774430871,0,0.8922177669592202,0,0.37634675158187747],[0,-0.5367078818380833,0,0.802977507468313,0,-0.8231555507518351,0,0.5618602531030774],[0,-0.6899240589700639,0,-0.3973101177252829,0,-0.10187760321423411,0,0.009420385584235191],[0,0.5876661692745984,0,0.5668990095146,0,0.13360853446647525,0,0.4486092934384942],[0,0.7855540183372796,0,0.7558107511140406,0,-0.5778788304887712,0,-0.10321406368166208],[0,0.5379250007681549,0,0.7332293526269495,0,-0.0033089881762862206,0,0.6420775474980474],[0,-0.12669277377426624,0,-0.5107387802563608,0,-0.6878058998845518,0,-0.3580357637256384],[0,-0.9664343078620732,0,0.03382565965875983,0,0.46479677967727184,0,-0.15543438121676445],[0,-0.8883849605917931,0,0.13502312637865543,0,0.11286096600815654,0,0.10360475489869714],[0,0.8513368251733482,0,0.11164730601012707,0,0.27620783308520913,0,-0.1176778799854219],[0,0.032749618869274855,0,-0.5373782836832106,0,-0.4457382746040821,0,-0.20977169228717685],[0,0.43244160152971745,0,0.9489098023623228,0,-0.7180584291927516,0,-0.8588494565337896],[0,-0.21897314675152302,0,-0.5587530485354364,0,0.7124930000863969,0,0.07229648809880018],[0,0.5931496974080801,0,0.2638703719712794,0,0.7268706024624407,0,0.06900435220450163],[0,-0.7922649090178311,0,-0.6063440586440265,0,-0.26253053452819586,0,-0.8093153387308121],[0,0.9703478161245584,0,-0.43206810439005494,0,0.36374262627214193,0,-0.6568840509280562],[0,0.17703042132779956,0,-0.22051964234560728,0,0.592947356402874,0,0.4181955368258059],[0,-0.9216113393194973,0,-0.5169639782980084,0,-0.20319233601912856,0,-0.29905842151492834],[0,0.7746720956638455,0,-0.39339327719062567,0,-0.035819439217448235,0,0.014914755243808031],[0,0.006784043740481138,0,0.9413434057496488,0,-0.436332976911217,0,0.9821274229325354],[0,-0.5184974079020321,0,0.863520972430706,0,-0.11804927932098508,0,0.2018681480549276],[0,-0.005612158216536045,0,-0.7237888514064252,0,0.8737333877943456,0,-0.9450427195988595],[0,0.312413583509624,0,-0.3450616179034114,0,0.8704273961484432,0,-0.9259381066076458],[0,0.5625338573008776,0,0.8043729835189879,0,-0.5377878327853978,0,0.986491666175425],[0,0.9179991059936583,0,0.5392519840970635,0,0.8574816770851612,0,-0.7950009950436652],[0,0.26166882924735546,0,-0.2290734718553722,0,-0.4094644854776561,0,-0.1960739274509251],[0,0.63871482713148,0,-0.26699834363535047,0,0.12129502138122916,0,0.7387162167578936],[0,0.8148424923419952,0,0.36626301845535636,0,-0.11555403750389814,0,-0.022055390756577253],[0,-0.6873446595855057,0,0.7004873943515122,0,-0.14327285904437304,0,0.8423302094452083],[0,-0.7420553020201623,0,-0.7814396419562399,0,0.38720352156087756,0,0.8221223508007824],[0,0.24309865664690733,0,-0.7797457515262067,0,-0.5281606367789209,0,0.7131806784309447],[0,0.16137097077444196,0,-0.37826828053221107,0,0.38640616554766893,0,-0.44906173925846815],[0,-0.3176459176465869,0,0.9593459377065301,0,0.6729155168868601,0,0.759962270502001],[0,0.9519715220667422,0,-0.4437331701628864,0,-0.6626857183873653,0,0.7440122305415571],[0,-0.791289521381259,0,0.7295543304644525,0,0.7083491887897253,0,-0.43275462416931987],[0,-0.5834183520637453,0,0.9099949565716088,0,-0.5597787876613438,0,-0.6298354277387261],[0,-0.4228776525706053,0,0.46664997143670917,0,0.897299746517092,0,-0.2484720633365214],[0,-0.2902789148502052,0,-0.726515868678689,0,0.3272568634711206,0,-0.5220586820505559],[0,0.8784723388962448,0,-0.4534216052852571,0,-0.48166350182145834,0,0.625818558037281],[0,0.23490759870037436,0,-0.2840011650696397,0,0.28364472882822156,0,0.7227025940082967],[0,-0.044337281957268715,0,-0.7910954379476607,0,0.2738675205036998,0,-0.0053430236876010895],[0,0.8727008760906756,0,-0.7288170265965164,0,0.6884851288050413,0,-0.892149556428194],[0,-0.9175046230666339,0,0.2124823504127562,0,0.11162857851013541,0,0.5163705921731889],[0,0.6756160748191178,0,-0.5693698534741998,0,-0.40245874878019094,0,0.38629351323470473],[0,0.8954514972865582,0,-0.5662289788015187,0,0.26008456805720925,0,0.14008221169933677],[0,0.5843824418261647,0,-0.8774254336021841,0,0.8155344971455634,0,0.27509118476882577],[0,-0.3666969742625952,0,-0.9304580208845437,0,0.8009959422051907,0,0.5411484544165432],[0,0.9807846210896969,0,0.24165004258975387,0,0.17031768150627613,0,-0.8401594273746014],[0,-0.9696810371242464,0,0.37056512106209993,0,0.9910717625170946,0,0.9578976547345519],[0,0.6890564188361168,0,-0.3359274552203715,0,-0.14853144949302077,0,-0.9437865666113794],[0,0.333385581150651,0,-0.634893829934299,0,-0.32516437815502286,0,0.7502310839481652],[0,0.7840849878266454,0,-0.9030233998782933,0,0.5865940204821527,0,0.37659730575978756],[0,-0.9972706781700253,0,0.17799264518544078,0,-0.7978119724430144,0,-0.8130595763213933],[0,-0.7455570502206683,0,0.4398592570796609,0,0.16848840657621622,0,-0.10427758563309908],[0,0.11306789005175233,0,-0.05961554357782006,0,-0.5302594136446714,0,-0.957835323177278],[0,0.9636273174546659,0,0.5169133557938039,0,-0.9096811842173338,0,-0.5886741415597498],[0,-0.9990170621313155,0,-0.15578287979587913,0,-0.964145727455616,0,0.7984868539497256],[0,0.9440089566633105,0,-0.8155388906598091,0,0.29185279179364443,0,-0.8605379206128418],[0,-0.5597188966348767,0,0.6887974068522453,0,0.3132982482202351,0,0.19103075750172138],[0,-0.3168364241719246,0,-0.5027988888323307,0,-0.728300747461617,0,-0.21497462270781398],[0,-0.028122775722295046,0,-0.5234191650524735,0,0.10343956761062145,0,0.30392589839175344],[0,-0.33344747964292765,0,0.35592152224853635,0,0.33402601117268205,0,-0.8406970393843949],[0,0.898881942499429,0,0.9423675956204534,0,0.40238455357030034,0,0.8718681866303086],[0,-0.5081816152669489,0,0.014676125254482031,0,-0.7736652088351548,0,-0.45631219213828444],[0,-0.47652452252805233,0,-0.9931841171346605,0,0.6649545794352889,0,0.3907557255588472],[0,-0.22687564743682742,0,0.9406075114384294,0,-0.024501956067979336,0,-0.7258822531439364],[0,-0.49388916976749897,0,-0.9274539286270738,0,0.5785323572345078,0,-0.43106777546927333],[0,0.3298876960761845,0,-0.20318117970600724,0,0.21595123410224915,0,0.022035029716789722],[0,-0.4574660575017333,0,0.2759559531696141,0,-0.1317310631275177,0,0.21182552725076675],[0,0.759586435277015,0,-0.8442149651236832,0,0.469798990059644,0,-0.8065976384095848],[0,0.3868852695450187,0,-0.20374941127374768,0,-0.08466886542737484,0,-0.029161468148231506],[0,-0.05305178416892886,0,0.021422373596578836,0,0.6416072063148022,0,-0.6239644614979625],[0,-0.3224595789797604,0,-0.8707743948325515,0,-0.4277522047050297,0,0.4305604249238968],[0,-0.6618299884721637,0,0.601962071377784,0,0.940607366617769,0,0.9519488816149533],[0,-0.20575273782014847,0,0.29224454145878553,0,0.6983227110467851,0,0.8639831794425845],[0,0.7254245840013027,0,0.35389322554692626,0,-0.4543415498919785,0,0.5032863710075617],[0,0.8687310288660228,0,-0.33598499512299895,0,-0.5166719639673829,0,0.7913134200498462],[0,-0.9542590491473675,0,0.9039547960273921,0,0.1772628608159721,0,0.2576730949804187],[0,-0.6827227040193975,0,-0.7378908121027052,0,-0.3906906209886074,0,0.009564807638525963],[0,0.5984127530828118,0,-0.3958183149807155,0,0.0003206571564078331,0,0.793177014682442],[0,-0.09667805535718799,0,0.9538498581387103,0,-0.5267618233337998,0,0.5695910165086389],[0,0.8958602515049279,0,-0.9869497553445399,0,-0.4951986134983599,0,-0.28213948011398315],[0,-0.09102360904216766,0,0.4247387140057981,0,-0.521106343716383,0,-0.4131621904671192],[0,0.9442062531597912,0,-0.4134051757864654,0,0.47333837393671274,0,0.1401371182873845],[0,-0.10151067702099681,0,0.24517535837367177,0,0.2769195968285203,0,0.46660268446430564],[0,0.5347975455224514,0,-0.40611892100423574,0,0.3823135499842465,0,-0.0180113622918725],[0,0.5032964893616736,0,0.5238619381561875,0,0.6632234761491418,0,0.7490071761421859],[0,-0.3615715350024402,0,0.2806314346380532,0,-0.08778084348887205,0,0.8075606371276081],[0,0.8097172225825489,0,-0.32354683987796307,0,0.8477972098626196,0,-0.9734324854798615],[0,0.2505309688858688,0,-0.3777884333394468,0,0.49721655808389187,0,0.9758453662507236],[0,0.4481449043378234,0,-0.9260009699501097,0,-0.5310464957728982,0,0.4411996197886765],[0,-0.3504114584065974,0,0.4815572677180171,0,0.6313317031599581,0,-0.004687202163040638],[0,0.8224200434051454,0,-0.010963475331664085,0,-0.8843596465885639,0,0.25126543967053294],[0,0.33351659681648016,0,-0.4892784873954952,0,-0.9849879276007414,0,0.25035735266283154],[0,-0.6116302232258022,0,0.30040135560557246,0,-0.24418040178716183,0,-0.7131753079593182],[0,-0.016039997339248657,0,0.7237436319701374,0,-0.47083853790536523,0,0.08252272102981806],[0,0.9357536719180644,0,-0.8830896834842861,0,-0.6694545946083963,0,-0.8973800521343946],[0,0.6490437118336558,0,-0.1169619862921536,0,0.12614939827471972,0,-0.2745882412418723],[0,0.2875855700112879,0,0.05606848420575261,0,-0.1938143726438284,0,-0.05663576954975724],[0,0.7788536539301276,0,0.35070470068603754,0,0.8681187494657934,0,-0.416088514495641],[0,0.40326082054525614,0,-0.638083509169519,0,0.11721593048423529,0,-0.2288973145186901],[0,-0.35865490045398474,0,-0.17904311325401068,0,-0.8766317111440003,0,-0.5713497037068009],[0,0.08113191509619355,0,0.7895517619326711,0,0.03228907706215978,0,0.6538376701064408],[0,0.29874585568904877,0,-0.4224989227950573,0,-0.16444366704672575,0,-0.06009736144915223],[0,0.7488158699125051,0,0.3697346253320575,0,0.13488370506092906,0,0.7907486688345671],[0,-0.20439177611842752,0,0.9232739666476846,0,-0.2956130630336702,0,0.15124895796179771],[0,0.8072592704556882,0,0.8816933240741491,0,-0.22680749977007508,0,0.33217794448137283],[0,0.9321133140474558,0,-0.7069889851845801,0,-0.01914244471117854,0,0.2637105914764106],[0,0.23440748918801546,0,-0.8891015890985727,0,0.023603391833603382,0,-0.3255836018361151],[0,0.7085442678071558,0,0.8977694427594543,0,0.7413759431801736,0,-0.4050639281049371],[0,-0.18177847331389785,0,-0.332698879763484,0,-0.02594052627682686,0,0.43081506760790944],[0,-0.9733682251535356,0,0.6919725378975272,0,0.7991801989264786,0,0.8375740624032915],[0,-0.30884459521621466,0,-0.3582299957051873,0,-0.20653952797874808,0,-0.571913056075573],[0,-0.9332150761038065,0,0.5554835055954754,0,0.6827835873700678,0,-0.06888511124998331],[0,0.5219358270987868,0,0.11722424300387502,0,-0.602595601696521,0,0.5816938667558134],[0,-0.7632492873817682,0,-0.6980642196722329,0,-0.40406931564211845,0,-0.5078159514814615],[0,0.9566166489385068,0,-0.034880928695201874,0,-0.04284954071044922,0,0.5529083423316479],[0,-0.4689667634665966,0,0.3301800577901304,0,-0.9160771328024566,0,-0.7708853711374104],[0,-0.4364115153439343,0,-0.19232654897496104,0,-0.5904239043593407,0,0.16033784532919526],[0,0.4375816290266812,0,0.8764176876284182,0,-0.5241115149110556,0,0.36625561164692044],[0,0.2081867246888578,0,-0.7163341483101249,0,0.5811629188247025,0,0.6096933069638908],[0,-0.18565928703173995,0,0.9414006941951811,0,-0.4900059667415917,0,0.4979930859990418],[0,0.41926959762349725,0,0.9877617447637022,0,-0.8362927176058292,0,-0.059857388492673635],[0,-0.09257813915610313,0,-0.2321199090220034,0,0.3328369492664933,0,-0.334691533818841],[0,0.4763838918879628,0,0.11446483479812741,0,-0.6641059615649283,0,-0.7520766309462488],[0,-0.38866153359413147,0,-0.4443681170232594,0,0.5074860081076622,0,-0.22137627191841602],[0,-0.2319954577833414,0,-0.07831788063049316,0,0.6990364058874547,0,0.28354365285485983],[0,-0.11849475558847189,0,-0.32458647014573216,0,-0.5104343481361866,0,-0.5606366088613868],[0,-0.3612758065573871,0,-0.08983956603333354,0,-0.8731436477974057,0,-0.4170339051634073],[0,0.16421301709488034,0,0.7496122652664781,0,0.7916932422667742,0,0.22988111386075616],[0,-0.5766490078531206,0,0.9408096000552177,0,-0.030876482371240854,0,-0.995423233602196],[0,0.6385531662963331,0,0.582523453515023,0,-0.4760929639451206,0,-0.19935084274038672],[0,-0.9998121485114098,0,0.6174446451477706,0,-0.9839581260457635,0,0.0765859866514802],[0,0.42143324110656977,0,-0.9791341875679791,0,0.2697595893405378,0,-0.7824721913784742],[0,-0.24247181648388505,0,-0.6232988457195461,0,-0.30078101996332407,0,0.45340560330078006],[0,-0.8089044261723757,0,-0.5565424477681518,0,-0.883197633549571,0,0.683815507683903],[0,0.6294636591337621,0,-0.6618520501069725,0,0.9361790595576167,0,-0.7258981252089143],[0,-0.5049172667786479,0,-0.6230354709550738,0,0.22663002088665962,0,-0.2211796622723341],[0,-0.0796981886960566,0,0.44435179606080055,0,0.9342595613561571,0,-0.24634073488414288],[0,0.010063229128718376,0,-0.7178214066661894,0,0.037632566411048174,0,-0.3176032630726695],[0,-0.06848485674709082,0,-0.04117882391437888,0,0.9353196662850678,0,-0.8639436019584537],[0,-0.4186175144277513,0,0.750882679130882,0,0.05037523666396737,0,0.770511039532721],[0,0.1910470430739224,0,-0.0016979537904262543,0,-0.23260150803253055,0,-0.2853709780611098],[0,0.17444222420454025,0,-0.6805219752714038,0,-0.4710172638297081,0,-0.6791186416521668],[0,-0.1627694950439036,0,0.8178033824078739,0,-0.25974403508007526,0,-0.5027374033816159],[0,0.681644743308425,0,-0.4391790679655969,0,0.4907596204429865,0,0.41037601977586746],[0,-0.2656277813948691,0,-0.8482542596757412,0,-0.8678267332725227,0,0.5416235066950321],[0,0.553032907191664,0,-0.4936760636046529,0,-0.9461660236120224,0,0.8800579900853336],[0,-0.41039827186614275,0,0.40794291580095887,0,-0.7104691304266453,0,0.5416686767712235],[0,-0.7059373147785664,0,0.27436588844284415,0,-0.7804591315798461,0,0.515270805452019],[0,-0.3937182384543121,0,0.31540212128311396,0,0.924530029296875,0,0.5251491274684668],[0,0.48066998086869717,0,0.23720711842179298,0,-0.8279921598732471,0,-0.3101193867623806],[0,0.7802753983996809,0,-0.7652139044366777,0,0.2254767334088683,0,0.6879635816439986],[0,-0.05785637116059661,0,0.1130134635604918,0,0.4198055546730757,0,-0.24544797837734222],[0,-0.6586454464122653,0,0.8270216942764819,0,0.4297829926945269,0,-0.6714567509479821],[0,-0.08141922764480114,0,0.951060923282057,0,-0.9895284879021347,0,0.4472080208361149],[0,-0.06408201670274138,0,0.006874329410493374,0,0.17405878519639373,0,-0.8726101466454566],[0,0.25183924846351147,0,0.3262474392540753,0,0.5119037572294474,0,-0.9599013412371278],[0,0.07950996421277523,0,0.5681747673079371,0,-0.029322138521820307,0,-0.7985757724381983],[0,-0.3456585081294179,0,0.8017751900479198,0,0.9241777816787362,0,0.9931146237067878],[0,-0.2706565377302468,0,0.7447983049787581,0,0.4227134380489588,0,-0.06867421884089708],[0,0.0740548106841743,0,-0.16581772873178124,0,-0.5974632990546525,0,0.5147382998839021],[0,0.5043189437128603,0,-0.7857591612264514,0,0.5728264953941107,0,-0.9504885668866336],[0,-0.6145387790165842,0,0.5225668107159436,0,-0.9302182453684509,0,0.9524952541105449],[0,0.9832311957143247,0,-0.6135099371895194,0,-0.48768777726218104,0,-0.16017077071592212],[0,-0.5652434066869318,0,-0.9347910345532,0,0.8626282690092921,0,0.7093689977191389],[0,0.7038221429102123,0,0.4721375908702612,0,-0.27248514583334327,0,0.3041508160531521],[0,-0.25604237569496036,0,0.9206447922624648,0,-0.4071697238832712,0,0.923974871635437],[0,-0.5503497659228742,0,-0.17339450120925903,0,-0.0441506439819932,0,-0.30100185610353947],[0,0.1536860978230834,0,0.6723347040824592,0,0.5459441193379462,0,-0.2497498719021678],[0,0.4693834241479635,0,0.018581730779260397,0,-0.6558178658597171,0,0.1560241193510592],[0,-0.7666098373010755,0,-0.345665224827826,0,0.8108110027387738,0,0.31498907366767526],[0,-0.8254294004291296,0,-0.8402138468809426,0,-0.2232130989432335,0,-0.20606001233682036],[0,-0.07836405886337161,0,-0.7361565656028688,0,-0.1574260680936277,0,0.5296517112292349],[0,0.5714974426664412,0,0.3222313686273992,0,-0.7296335520222783,0,-0.3821043851785362],[0,-0.7314487262628973,0,0.2415979541838169,0,-0.1193864424712956,0,0.7948962901718915],[0,-0.01695573888719082,0,-0.2822571494616568,0,-0.6065807421691716,0,-0.720854626968503],[0,-0.17786674806848168,0,0.07351478794589639,0,-0.9308787495829165,0,-0.13805326726287603],[0,0.7210792833939195,0,-0.27498616836965084,0,0.598209610208869,0,0.5972154573537409],[0,0.5777573091909289,0,0.10114584350958467,0,0.22970157396048307,0,-0.11514965165406466],[0,0.7228885903023183,0,-0.20385764632374048,0,0.1966503830626607,0,-0.13261178927496076],[0,-0.9579677893780172,0,0.7045960095711052,0,-0.4697728082537651,0,0.15242099110037088],[0,-0.935317499563098,0,-0.9749003355391324,0,0.28914301143959165,0,0.1613872111774981],[0,-0.9146891245618463,0,-0.0026136129163205624,0,-0.43385850032791495,0,0.027736004441976547],[0,-0.35862278938293457,0,0.031907204538583755,0,-0.07923675514757633,0,0.04318272974342108],[0,0.5158711192198098,0,0.7100410987623036,0,0.31779288221150637,0,0.17121093021705747],[0,0.655745972879231,0,0.7240483528003097,0,-0.5193901788443327,0,-0.49557147780433297],[0,-0.8435681983828545,0,-0.6359600778669119,0,-0.5892430231906474,0,0.34264020761474967],[0,0.01297969464212656,0,-0.3224004996009171,0,-0.7414498515427113,0,-0.5590224843472242],[0,0.8508980120532215,0,-0.15901305293664336,0,0.9986425647512078,0,-0.6143850814551115],[0,-0.563975328579545,0,0.08092408441007137,0,0.7486695279367268,0,-0.7974797207862139],[0,-0.38048676028847694,0,0.24728049198165536,0,0.6768824094906449,0,-0.6172202206216753],[0,-0.32719664461910725,0,0.5562554313801229,0,0.6534620388410985,0,-0.8527398356236517],[0,0.15943849924951792,0,0.3321288926526904,0,0.6698290519416332,0,0.3108866228722036],[0,-0.19550972850993276,0,-0.9832253982312977,0,-0.5788322659209371,0,0.4036696362309158],[0,-0.6886786920949817,0,0.7009143922477961,0,-0.33660382172092795,0,0.7019398738630116],[0,0.9093571081757545,0,-0.887917869258672,0,-0.4581860709004104,0,0.31160063203424215],[0,-0.5204710625112057,0,-0.5464403633959591,0,-0.5002056020312011,0,0.8864770075306296],[0,0.35346394358202815,0,0.807615561876446,0,-0.5096282595768571,0,-0.9097408768720925],[0,0.37985496735200286,0,-0.7702653519809246,0,-0.03741300059482455,0,0.7727258051745594],[0,-0.7069540261290967,0,0.4940873454324901,0,-0.27481320407241583,0,0.06842699879780412],[0,0.6119756801053882,0,0.9373898864723742,0,0.12282556621357799,0,0.9569157301448286],[0,-0.28248479263857007,0,0.36733260238543153,0,0.4902606578543782,0,-0.09955323627218604],[0,0.17171564931049943,0,-0.956470437347889,0,0.2535617519170046,0,0.8340658145025373],[0,-0.31161558954045177,0,0.4765425296500325,0,0.44265216682106256,0,0.697535804938525],[0,0.4982985067181289,0,0.2356692785397172,0,0.5974833085201681,0,-0.7833318798802793],[0,0.6530261277221143,0,-0.5668733483180404,0,-0.07573818974196911,0,-0.273126604501158],[0,0.9983940748497844,0,-0.4103143182583153,0,-0.49202260794118047,0,-0.4047245937399566],[0,0.026573874056339264,0,0.5983858443796635,0,0.7724772463552654,0,-0.8515114989131689],[0,-0.10735999047756195,0,-0.402536254376173,0,0.00575465289875865,0,0.3314366703853011],[0,0.3586065745912492,0,-0.4076158185489476,0,0.40260984003543854,0,0.39902646373957396],[0,-0.48047812143340707,0,-0.5518449530936778,0,-0.3562543042935431,0,-0.214839702937752],[0,-0.2514383839443326,0,-0.6922295982949436,0,-0.7264775559306145,0,-0.3906776877120137],[0,0.8973934170790017,0,0.30070963548496366,0,0.49838152853772044,0,-0.8079459108412266],[0,-0.1415788526646793,0,0.39532707817852497,0,-0.6651511220261455,0,-0.19148146314546466],[0,-0.3430677121505141,0,0.5105689978227019,0,-0.9859636481851339,0,0.40558855468407273],[0,0.14199979649856687,0,-0.10389935038983822,0,0.7491317428648472,0,-0.6719320639967918],[0,-0.21762597747147083,0,-0.6672231974080205,0,-0.7489312016405165,0,0.4422802603803575],[0,-0.47527226945385337,0,-0.4367065099067986,0,0.45292966486886144,0,-0.7932591172866523],[0,0.819525457918644,0,0.932075081858784,0,-0.5710714189335704,0,0.7678184048272669],[0,0.060005989857017994,0,0.29481462575495243,0,-0.9428436341695487,0,-0.11657418729737401],[0,0.7441370636224747,0,0.19737400254234672,0,-0.6241933335550129,0,-0.9075257163494825],[0,-0.616684096865356,0,-0.8707260950468481,0,-0.6491747312247753,0,0.3599933320656419],[0,-0.28398815356194973,0,0.13088772259652615,0,-0.72223084513098,0,-0.5088219307363033],[0,0.2779089119285345,0,-0.1777079375460744,0,-0.5809930213727057,0,-0.6859525726176798],[0,-0.9670067820698023,0,-0.0469771851785481,0,-0.10475293500348926,0,-0.9176403894089162],[0,-0.9138647085055709,0,-0.41042837873101234,0,0.047080214601010084,0,-0.9428541925735772],[0,0.7902330323122442,0,0.1063010017387569,0,-0.5837781382724643,0,0.5561110344715416],[0,-0.48513459134846926,0,0.4507296523079276,0,-0.21212619543075562,0,0.022389655001461506],[0,-0.8609870248474181,0,0.11567096039652824,0,0.10542774060741067,0,-0.6648942399770021],[0,-0.41706715850159526,0,0.3616834660060704,0,-0.5727286236360669,0,0.16880628932267427],[0,-0.20433765789493918,0,-0.740738098975271,0,-0.9550137207843363,0,0.9056914946995676],[0,0.011124423705041409,0,0.3757033525034785,0,-0.3535805684514344,0,-0.6956247794441879],[0,-0.23566189082339406,0,0.7322225701063871,0,0.21511259116232395,0,-0.773529042955488],[0,-0.7275122180581093,0,0.7659846590831876,0,0.5575313600711524,0,-0.8751010685227811],[0,-0.9018042627722025,0,-0.8248760816641152,0,0.670496195089072,0,-0.07041574083268642],[0,-0.8974510324187577,0,0.1190210971981287,0,-0.842351624276489,0,0.30773339746519923],[0,-0.6123780272901058,0,-0.04301516944542527,0,0.6277222465723753,0,0.8830927014350891],[0,0.4902324383147061,0,0.32313972618430853,0,0.395357932895422,0,0.022023946978151798],[0,0.6165902721695602,0,0.9416267550550401,0,-0.7810931201092899,0,-0.8697851556353271],[0,0.31324902176856995,0,0.17471651220694184,0,0.783973385579884,0,-0.039370457641780376],[0,-0.483415559399873,0,-0.06876016827300191,0,-0.9667526325210929,0,-0.9954621773213148],[0,0.14708862220868468,0,0.9114622445777059,0,0.6896973080001771,0,-0.6865072124637663],[0,0.37372295605018735,0,0.6471628374420106,0,0.40858921315521,0,-0.9838288533501327],[0,-0.3086039749905467,0,0.47973812790587544,0,0.9964596242643893,0,0.3890142650343478],[0,0.7767459480091929,0,0.3243276481516659,0,-0.8006948004476726,0,0.8088478059507906],[0,-0.9437754736281931,0,0.41264365380629897,0,-0.005523267667740583,0,-0.5737951067276299],[0,-0.9848727369681001,0,-0.8454944221302867,0,0.7016322556883097,0,0.8638756521977484],[0,0.6351542617194355,0,-0.47092416835948825,0,0.9424564926885068,0,0.9481271486729383],[0,0.0887514827772975,0,0.20691924309358,0,-0.07548737432807684,0,0.2643726640380919],[0,0.4869908965192735,0,-0.35414281766861677,0,0.6006615203805268,0,-0.6735846633091569],[0,-0.46325408993288875,0,0.08063266100361943,0,-0.5208741733804345,0,-0.13904609298333526],[0,0.7600730732083321,0,0.39858962083235383,0,0.2786917295306921,0,-0.40171149419620633],[0,-0.9695608401671052,0,-0.5313577032648027,0,-0.17155926208943129,0,-0.44060241617262363],[0,-0.0047376397997140884,0,-0.7310802959837019,0,0.8991113854572177,0,0.8764423914253712],[0,-0.11663678521290421,0,-0.003340486902743578,0,-0.989011153113097,0,0.7764487820677459],[0,0.5030661495402455,0,0.14478368451818824,0,0.20273226452991366,0,-0.5058864899910986],[0,-0.9058847539126873,0,-0.4708396838977933,0,-0.14135622512549162,0,-0.21310403989627957],[0,-0.4539316766895354,0,0.7098070452921093,0,0.5620080116204917,0,-0.2195986774750054],[0,0.6844039424322546,0,0.5251197959296405,0,0.32261750753968954,0,0.6462142001837492],[0,-0.19572857720777392,0,-0.3268509958870709,0,-0.3555821697227657,0,-0.9992719674482942],[0,0.28443038556724787,0,-0.4201890048570931,0,0.35224463045597076,0,-0.0020743543282151222],[0,-0.321762110106647,0,0.2680146493948996,0,0.36005787178874016,0,0.20236113108694553],[0,0.025932750198990107,0,-0.6159260557033122,0,0.16715375892817974,0,0.507190861273557],[0,0.42086564749479294,0,-0.6178882792592049,0,0.44842437328770757,0,0.20604986790567636],[0,-0.33473362447693944,0,0.8592328405939043,0,0.2807901054620743,0,-0.959147849585861],[0,0.5139538263902068,0,0.04407416144385934,0,-0.5893124034628272,0,-0.72254319768399],[0,0.689814125187695,0,-0.9115342991426587,0,0.9766379329375923,0,-0.8880835524760187],[0,0.07536089047789574,0,-0.08837484242394567,0,0.015676630660891533,0,-0.3454294544644654],[0,0.23532222071662545,0,-0.050751319620758295,0,-0.08133121067658067,0,0.7971585690975189],[0,-0.7404322591610253,0,0.6218644422478974,0,-0.37970217829570174,0,-0.11279772641137242],[0,0.6553361350670457,0,-0.13813330559059978,0,0.375072224996984,0,0.5912897242233157],[0,-0.9228085759095848,0,-0.21696590445935726,0,-0.8871759050525725,0,-0.1339599397033453],[0,0.6216084701009095,0,0.07349509140476584,0,-0.9868956170976162,0,0.2514467779546976],[0,-0.20984435314312577,0,0.9057248677127063,0,-0.8051581727340817,0,0.2996515966951847],[0,-0.796895963139832,0,0.5561377299018204,0,-0.5445035365410149,0,-0.7894109040498734],[0,0.7567995470017195,0,0.40944713074713945,0,0.7520243348553777,0,0.16896152216941118],[0,-0.48901108698919415,0,0.26681585097685456,0,-0.8771034893579781,0,-0.9512059865519404],[0,-0.4022735436446965,0,0.9286724841222167,0,0.7710415739566088,0,-0.9688184387050569],[0,-0.2631342732347548,0,0.21545824594795704,0,0.058853086084127426,0,-0.07396366260945797],[0,-0.22159647196531296,0,-0.4369883104227483,0,0.6683768033981323,0,-0.5794413611292839],[0,-0.8463981444947422,0,-0.19358957558870316,0,-0.45295343175530434,0,0.6082945032976568],[0,-0.12572237569838762,0,0.7669227756559849,0,0.29116075299680233,0,-0.5481909289956093],[0,0.07960098842158914,0,-0.9469753270968795,0,0.40155030973255634,0,0.4039379209280014],[0,0.6035037105903029,0,-0.6010074154473841,0,0.3208318636752665,0,-0.6172441220842302],[0,0.5493862545117736,0,0.26541227102279663,0,0.736472750082612,0,-0.6897961306385696],[0,0.997289412189275,0,0.28297682479023933,0,0.3935084128752351,0,0.4125940389931202],[0,0.6943263593129814,0,-0.2025205516256392,0,0.7734793936833739,0,-0.8117913492023945],[0,0.4167108624242246,0,-0.8257637363858521,0,0.44820057367905974,0,-0.7312621371820569],[0,0.09770789416506886,0,0.10523232305422425,0,-0.4822618714533746,0,0.46511846128851175]],"vb_b":[[0,0,0,1,0,0,0,0],[0,0,0,1,0,0,0,0],[0,0,0,1,0,0,0,0],[0,0,0,1,0,0,0,0],[0,0,0,1,0,0,0,0],[0,0,0,1,0,0,0,0],[0,0,0,1,0,0,0,0],[0,0,0,1,0,0,0,0],[0,0,0,1,0,0,0,0],[0,0,0,1,0,0,0,0],[0,0,0,1,0,0,0,0],[0,0,0,1,0,0,0,0],[0,0,0,1,0,0,0,0],[0,0,0,1,0,0,0,0],[0,0,0,1,0,0,0,0],[0,0,0,1,0,0,0,0],[0,0,0,1,0,0,0,0],[0,0,0,1,0,0,0,0],[0,0,0,1,0,0,0,0],[0,0,0,1,0,0,0,0],[0,0,0,1,0,0,0,0],[0,0,0,1,0,0,0,0],[0,0,0,1,0,0,0,0],[0,0,0,1,0,0,0,0],[0,0,0,1,0,0,0,0],[0,0,0,1,0,0,0,0],[0,0,0,1,0,0,0,0],[0,0,0,1,0,0,0,0],[0,0,0,1,0,0,0,0],[0,0,0,1,0,0,0,0],[0,0,0,1,0,0,0,0],[0,0,0,1,0,0,0,0],[0,0,0,1,0,0,0,0],[0,0,0,1,0,0,0,0],[0,0,0,1,0,0,0,0],[0,0,0,1,0,0,0,0],[0,0,0,1,0,0,0,0],[0,0,0,1,0,0,0,0],[0,0,0,1,0,0,0,0],[0,0,0,1,0,0,0,0],[0,0,0,1,0,0,0,0],[0,0,0,1,0,0,0,0],[0,0,0,1,0,0,0,0],[0,0,0,1,0,0,0,0],[0,0,0,1,0,0,0,0],[0,0,0,1,0,0,0,0],[0,0,0,1,0,0,0,0],[0,0,0,1,0,0,0,0],[0,0,0,1,0,0,0,0],[0,0,0,1,0,0,0,0],[0,0,0,1,0,0,0,0],[0,0,0,1,0,0,0,0],[0,0,0,1,0,0,0,0],[0,0,0,1,0,0,0,0],[0,0,0,1,0,0,0,0],[0,0,0,1,0,0,0,0],[0,0,0,1,0,0,0,0],[0,0,0,1,0,0,0,0],[0,0,0,1,0,0,0,0],[0,0,0,1,0,0,0,0],