parameters : {"minimum_performance":-1,"block_timeout":5000,"response_timeout":1000,"task_kappa":0,"task_stimuli":1,"task_component":0,"task_feature":0,"task_sign":1,"task_weights":[0,0,0,0,1,0,0,0]}
edata : {"exp_subject":"Y2EjNdGkO61I","exp_sex":"female","exp_age":"41-50","exp_task":"jan/131004_primate1","exp_starttime":1381408855356,"exp_finishtime":1381410860327}
numbers : {"stimuli":2,"components":2,"features":2,"weights":8,"blocks":40,"trials":25,"indices":1000}
sdata : {"vb_index":[1,2,3,4,5,6,7,8,9,10,11,12,13,14,15,16,17,18,19,20,21,22,23,24,25,26,27,28,29,30,31,32,33,34,35,36,37,38,39,40,41,42,43,44,45,46,47,48,49,50,51,52,53,54,55,56,57,58,59,60,61,62,63,64,65,66,67,68,69,70,71,72,73,74,75,76,77,78,79,80,81,82,83,84,85,86,87,88,89,90,91,92,93,94,95,96,97,98,99,100,101,102,103,104,105,106,107,108,109,110,111,112,113,114,115,116,117,118,119,120,121,122,123,124,125,126,127,128,129,130,131,132,133,134,135,136,137,138,139,140,141,142,143,144,145,146,147,148,149,150,151,152,153,154,155,156,157,158,159,160,161,162,163,164,165,166,167,168,169,170,171,172,173,174,175,176,177,178,179,180,181,182,183,184,185,186,187,188,189,190,191,192,193,194,195,196,197,198,199,200,201,202,203,204,205,206,207,208,209,210,211,212,213,214,215,216,217,218,219,220,221,222,223,224,225,226,227,228,229,230,231,232,233,234,235,236,237,238,239,240,241,242,243,244,245,246,247,248,249,250,251,252,253,254,255,256,257,258,259,260,261,262,263,264,265,266,267,268,269,270,271,272,273,274,275,276,277,278,279,280,281,282,283,284,285,286,287,288,289,290,291,292,293,294,295,296,297,298,299,300,301,302,303,304,305,306,307,308,309,310,311,312,313,314,315,316,317,318,319,320,321,322,323,324,325,326,327,328,329,330,331,332,333,334,335,336,337,338,339,340,341,342,343,344,345,346,347,348,349,350,351,352,353,354,355,356,357,358,359,360,361,362,363,364,365,366,367,368,369,370,371,372,373,374,375,376,377,378,379,380,381,382,383,384,385,386,387,388,389,390,391,392,393,394,395,396,397,398,399,400,401,402,403,404,405,406,407,408,409,410,411,412,413,414,415,416,417,418,419,420,421,422,423,424,425,426,427,428,429,430,431,432,433,434,435,436,437,438,439,440,441,442,443,444,445,446,447,448,449,450,451,452,453,454,455,456,457,458,459,460,461,462,463,464,465,466,467,468,469,470,471,472,473,474,475,476,477,478,479,480,481,482,483,484,485,486,487,488,489,490,491,492,493,494,495,496,497,498,499,500,501,502,503,504,505,506,507,508,509,510,511,512,513,514,515,516,517,518,519,520,521,522,523,524,525,526,527,528,529,530,531,532,533,534,535,536,537,538,539,540,541,542,543,544,545,546,547,548,549,550,551,552,553,554,555,556,557,558,559,560,561,562,563,564,565,566,567,568,569,570,571,572,573,574,575,576,577,578,579,580,581,582,583,584,585,586,587,588,589,590,591,592,593,594,595,596,597,598,599,600,601,602,603,604,605,606,607,608,609,610,611,612,613,614,615,616,617,618,619,620,621,622,623,624,625,626,627,628,629,630,631,632,633,634,635,636,637,638,639,640,641,642,643,644,645,646,647,648,649,650,651,652,653,654,655,656,657,658,659,660,661,662,663,664,665,666,667,668,669,670,671,672,673,674,675,676,677,678,679,680,681,682,683,684,685,686,687,688,689,690,691,692,693,694,695,696,697,698,699,700,701,702,703,704,705,706,707,708,709,710,711,712,713,714,715,716,717,718,719,720,721,722,723,724,725,726,727,728,729,730,731,732,733,734,735,736,737,738,739,740,741,742,743,744,745,746,747,748,749,750,751,752,753,754,755,756,757,758,759,760,761,762,763,764,765,766,767,768,769,770,771,772,773,774,775,776,777,778,779,780,781,782,783,784,785,786,787,788,789,790,791,792,793,794,795,796,797,798,799,800,801,802,803,804,805,806,807,808,809,810,811,812,813,814,815,816,817,818,819,820,821,822,823,824,825,826,827,828,829,830,831,832,833,834,835,836,837,838,839,840,841,842,843,844,845,846,847,848,849,850,851,852,853,854,855,856,857,858,859,860,861,862,863,864,865,866,867,868,869,870,871,872,873,874,875,876,877,878,879,880,881,882,883,884,885,886,887,888,889,890,891,892,893,894,895,896,897,898,899,900,901,902,903,904,905,906,907,908,909,910,911,912,913,914,915,916,917,918,919,920,921,922,923,924,925,926,927,928,929,930,931,932,933,934,935,936,937,938,939,940,941,942,943,944,945,946,947,948,949,950,951,952,953,954,955,956,957,958,959,960,961,962,963,964,965,966,967,968,969,970,971,972,973,974,975,976,977,978,979,980,981,982,983,984,985,986,987,988,989,990,991,992,993,994,995,996,997,998,999,1000],"vb_block":[1,1,1,1,1,1,1,1,1,1,1,1,1,1,1,1,1,1,1,1,1,1,1,1,1,2,2,2,2,2,2,2,2,2,2,2,2,2,2,2,2,2,2,2,2,2,2,2,2,2,3,3,3,3,3,3,3,3,3,3,3,3,3,3,3,3,3,3,3,3,3,3,3,3,3,4,4,4,4,4,4,4,4,4,4,4,4,4,4,4,4,4,4,4,4,4,4,4,4,4,5,5,5,5,5,5,5,5,5,5,5,5,5,5,5,5,5,5,5,5,5,5,5,5,5,6,6,6,6,6,6,6,6,6,6,6,6,6,6,6,6,6,6,6,6,6,6,6,6,6,7,7,7,7,7,7,7,7,7,7,7,7,7,7,7,7,7,7,7,7,7,7,7,7,7,8,8,8,8,8,8,8,8,8,8,8,8,8,8,8,8,8,8,8,8,8,8,8,8,8,9,9,9,9,9,9,9,9,9,9,9,9,9,9,9,9,9,9,9,9,9,9,9,9,9,10,10,10,10,10,10,10,10,10,10,10,10,10,10,10,10,10,10,10,10,10,10,10,10,10,11,11,11,11,11,11,11,11,11,11,11,11,11,11,11,11,11,11,11,11,11,11,11,11,11,12,12,12,12,12,12,12,12,12,12,12,12,12,12,12,12,12,12,12,12,12,12,12,12,12,13,13,13,13,13,13,13,13,13,13,13,13,13,13,13,13,13,13,13,13,13,13,13,13,13,14,14,14,14,14,14,14,14,14,14,14,14,14,14,14,14,14,14,14,14,14,14,14,14,14,15,15,15,15,15,15,15,15,15,15,15,15,15,15,15,15,15,15,15,15,15,15,15,15,15,16,16,16,16,16,16,16,16,16,16,16,16,16,16,16,16,16,16,16,16,16,16,16,16,16,17,17,17,17,17,17,17,17,17,17,17,17,17,17,17,17,17,17,17,17,17,17,17,17,17,18,18,18,18,18,18,18,18,18,18,18,18,18,18,18,18,18,18,18,18,18,18,18,18,18,19,19,19,19,19,19,19,19,19,19,19,19,19,19,19,19,19,19,19,19,19,19,19,19,19,20,20,20,20,20,20,20,20,20,20,20,20,20,20,20,20,20,20,20,20,20,20,20,20,20,21,21,21,21,21,21,21,21,21,21,21,21,21,21,21,21,21,21,21,21,21,21,21,21,21,22,22,22,22,22,22,22,22,22,22,22,22,22,22,22,22,22,22,22,22,22,22,22,22,22,23,23,23,23,23,23,23,23,23,23,23,23,23,23,23,23,23,23,23,23,23,23,23,23,23,24,24,24,24,24,24,24,24,24,24,24,24,24,24,24,24,24,24,24,24,24,24,24,24,24,25,25,25,25,25,25,25,25,25,25,25,25,25,25,25,25,25,25,25,25,25,25,25,25,25,26,26,26,26,26,26,26,26,26,26,26,26,26,26,26,26,26,26,26,26,26,26,26,26,26,27,27,27,27,27,27,27,27,27,27,27,27,27,27,27,27,27,27,27,27,27,27,27,27,27,28,28,28,28,28,28,28,28,28,28,28,28,28,28,28,28,28,28,28,28,28,28,28,28,28,29,29,29,29,29,29,29,29,29,29,29,29,29,29,29,29,29,29,29,29,29,29,29,29,29,30,30,30,30,30,30,30,30,30,30,30,30,30,30,30,30,30,30,30,30,30,30,30,30,30,31,31,31,31,31,31,31,31,31,31,31,31,31,31,31,31,31,31,31,31,31,31,31,31,31,32,32,32,32,32,32,32,32,32,32,32,32,32,32,32,32,32,32,32,32,32,32,32,32,32,33,33,33,33,33,33,33,33,33,33,33,33,33,33,33,33,33,33,33,33,33,33,33,33,33,34,34,34,34,34,34,34,34,34,34,34,34,34,34,34,34,34,34,34,34,34,34,34,34,34,35,35,35,35,35,35,35,35,35,35,35,35,35,35,35,35,35,35,35,35,35,35,35,35,35,36,36,36,36,36,36,36,36,36,36,36,36,36,36,36,36,36,36,36,36,36,36,36,36,36,37,37,37,37,37,37,37,37,37,37,37,37,37,37,37,37,37,37,37,37,37,37,37,37,37,38,38,38,38,38,38,38,38,38,38,38,38,38,38,38,38,38,38,38,38,38,38,38,38,38,39,39,39,39,39,39,39,39,39,39,39,39,39,39,39,39,39,39,39,39,39,39,39,39,39,40,40,40,40,40,40,40,40,40,40,40,40,40,40,40,40,40,40,40,40,40,40,40,40,40],"vb_trial":[1,2,3,4,5,6,7,8,9,10,11,12,13,14,15,16,17,18,19,20,21,22,23,24,25,1,2,3,4,5,6,7,8,9,10,11,12,13,14,15,16,17,18,19,20,21,22,23,24,25,1,2,3,4,5,6,7,8,9,10,11,12,13,14,15,16,17,18,19,20,21,22,23,24,25,1,2,3,4,5,6,7,8,9,10,11,12,13,14,15,16,17,18,19,20,21,22,23,24,25,1,2,3,4,5,6,7,8,9,10,11,12,13,14,15,16,17,18,19,20,21,22,23,24,25,1,2,3,4,5,6,7,8,9,10,11,12,13,14,15,16,17,18,19,20,21,22,23,24,25,1,2,3,4,5,6,7,8,9,10,11,12,13,14,15,16,17,18,19,20,21,22,23,24,25,1,2,3,4,5,6,7,8,9,10,11,12,13,14,15,16,17,18,19,20,21,22,23,24,25,1,2,3,4,5,6,7,8,9,10,11,12,13,14,15,16,17,18,19,20,21,22,23,24,25,1,2,3,4,5,6,7,8,9,10,11,12,13,14,15,16,17,18,19,20,21,22,23,24,25,1,2,3,4,5,6,7,8,9,10,11,12,13,14,15,16,17,18,19,20,21,22,23,24,25,1,2,3,4,5,6,7,8,9,10,11,12,13,14,15,16,17,18,19,20,21,22,23,24,25,1,2,3,4,5,6,7,8,9,10,11,12,13,14,15,16,17,18,19,20,21,22,23,24,25,1,2,3,4,5,6,7,8,9,10,11,12,13,14,15,16,17,18,19,20,21,22,23,24,25,1,2,3,4,5,6,7,8,9,10,11,12,13,14,15,16,17,18,19,20,21,22,23,24,25,1,2,3,4,5,6,7,8,9,10,11,12,13,14,15,16,17,18,19,20,21,22,23,24,25,1,2,3,4,5,6,7,8,9,10,11,12,13,14,15,16,17,18,19,20,21,22,23,24,25,1,2,3,4,5,6,7,8,9,10,11,12,13,14,15,16,17,18,19,20,21,22,23,24,25,1,2,3,4,5,6,7,8,9,10,11,12,13,14,15,16,17,18,19,20,21,22,23,24,25,1,2,3,4,5,6,7,8,9,10,11,12,13,14,15,16,17,18,19,20,21,22,23,24,25,1,2,3,4,5,6,7,8,9,10,11,12,13,14,15,16,17,18,19,20,21,22,23,24,25,1,2,3,4,5,6,7,8,9,10,11,12,13,14,15,16,17,18,19,20,21,22,23,24,25,1,2,3,4,5,6,7,8,9,10,11,12,13,14,15,16,17,18,19,20,21,22,23,24,25,1,2,3,4,5,6,7,8,9,10,11,12,13,14,15,16,17,18,19,20,21,22,23,24,25,1,2,3,4,5,6,7,8,9,10,11,12,13,14,15,16,17,18,19,20,21,22,23,24,25,1,2,3,4,5,6,7,8,9,10,11,12,13,14,15,16,17,18,19,20,21,22,23,24,25,1,2,3,4,5,6,7,8,9,10,11,12,13,14,15,16,17,18,19,20,21,22,23,24,25,1,2,3,4,5,6,7,8,9,10,11,12,13,14,15,16,17,18,19,20,21,22,23,24,25,1,2,3,4,5,6,7,8,9,10,11,12,13,14,15,16,17,18,19,20,21,22,23,24,25,1,2,3,4,5,6,7,8,9,10,11,12,13,14,15,16,17,18,19,20,21,22,23,24,25,1,2,3,4,5,6,7,8,9,10,11,12,13,14,15,16,17,18,19,20,21,22,23,24,25,1,2,3,4,5,6,7,8,9,10,11,12,13,14,15,16,17,18,19,20,21,22,23,24,25,1,2,3,4,5,6,7,8,9,10,11,12,13,14,15,16,17,18,19,20,21,22,23,24,25,1,2,3,4,5,6,7,8,9,10,11,12,13,14,15,16,17,18,19,20,21,22,23,24,25,1,2,3,4,5,6,7,8,9,10,11,12,13,14,15,16,17,18,19,20,21,22,23,24,25,1,2,3,4,5,6,7,8,9,10,11,12,13,14,15,16,17,18,19,20,21,22,23,24,25,1,2,3,4,5,6,7,8,9,10,11,12,13,14,15,16,17,18,19,20,21,22,23,24,25,1,2,3,4,5,6,7,8,9,10,11,12,13,14,15,16,17,18,19,20,21,22,23,24,25,1,2,3,4,5,6,7,8,9,10,11,12,13,14,15,16,17,18,19,20,21,22,23,24,25,1,2,3,4,5,6,7,8,9,10,11,12,13,14,15,16,17,18,19,20,21,22,23,24,25],"vb_x":[[0.3099924319118761,0,-0.2468840986272035,0,0.41834287612510623,0,0.31666558788499133,0],[0.9607142482704218,0,-0.38018432427703596,0,-0.576216018248955,0,-0.18996823299594645,0],[-0.054433222740496556,0,0.4878812725931321,0,0.19271860933388551,0,-0.7346670833158437,0],[0.24069731458608423,0,-0.3758103336455394,0,-0.5034439523573593,0,-0.921438434214934,0],[0.07579659634689895,0,-0.9056104215582221,0,-0.09230678925329372,0,0.07060168682189971,0],[-0.7221072613071038,0,0.3487213045222102,0,0.38423046615344813,0,0.13010963456051017,0],[-0.07584713648774477,0,0.3132094529677625,0,0.6737355049318423,0,0.6191228745401665,0],[0.6641047647407756,0,0.4858015146650385,0,-0.1025557202425409,0,-0.35649178284723093,0],[-0.16073011781839752,0,-0.8672720191395766,0,-0.7748837352020039,0,0.9173146388438886,0],[0.3582757265839289,0,-0.16143670785769937,0,-0.8379104820545261,0,0.1395485591200094,0],[-0.8219045798428733,0,-0.6158308036558615,0,-0.3560908532169722,0,-0.4461570383493647,0],[0.1971387715611752,0,0.20990654338065528,0,-0.12976939886417926,0,-0.3240555647785146,0],[-0.6165011928540635,0,-0.43279682618410386,0,0.6085278397829277,0,-0.9491039972231978,0],[-0.9582654932119111,0,0.8697698191319396,0,0.5594641481677054,0,0.3412456879653698,0],[0.2641495455773981,0,0.7264586081914826,0,0.2996116333484844,0,0.049565161789693946,0],[0.8176046200606217,0,-0.3290383008904665,0,0.30353368533992375,0,-0.2569852959241158,0],[-0.015521085023360248,0,-0.3007487944939329,0,-0.4039276256384047,0,0.7746449037069973,0],[0.20647471163129394,0,-0.6161357527308084,0,0.6970117139794745,0,0.18557783556980745,0],[-0.22746290140939518,0,-0.44515973235509887,0,0.6941148016518326,0,0.7241640798026794,0],[-0.7527611698359271,0,-0.6796789647685901,0,-0.48313825373848507,0,0.7326647444332002,0],[0.8535584391941244,0,-0.4544737239623463,0,0.7820432501169561,0,0.028961210282736127,0],[0.6040583440098002,0,0.8170221754630456,0,-0.05630744980164193,0,-0.14975224045519053,0],[-0.38295308681186724,0,-0.6100984323805468,0,0.9036668553690124,0,0.42761621422066964,0],[-0.24061250045274451,0,-0.3513008924155816,0,-0.27448252571072407,0,0.824894038572475,0],[-0.4748051155970866,0,-0.7914328760410044,0,0.6431158406877837,0,0.30205106096669976,0],[0.8897382604788104,0,0.941441154736518,0,-0.8331690339110614,0,0.6529428395558399,0],[0.7704472788725636,0,0.9326273507899536,0,-0.23611837919974654,0,0.7191118358711681,0],[-0.3180030786132031,0,0.6564469435518323,0,-0.6741848224620087,0,-0.404179357252373,0],[-0.8099763167999794,0,-0.4947239597906006,0,0.43489279017778814,0,-0.07655510429818468,0],[0.8481050223843165,0,0.2145227121140041,0,0.3024887489618624,0,-0.9031937439365791,0],[0.44521111127586366,0,0.6967852810207646,0,0.1764400805469919,0,0.22697922661578107,0],[0.5959168719020997,0,-0.6683597209251372,0,0.0006106571307211706,0,0.25455875647093284,0],[-0.02676037840472789,0,0.853210442429829,0,0.15876202002980766,0,-0.2596719399543814,0],[0.8140465099189458,0,0.635867033590167,0,0.24615125653958025,0,-0.4512793832644737,0],[-0.2804464626130665,0,0.39912346595783576,0,-0.013895375522019137,0,-0.10857841631131193,0],[0.228516306918644,0,0.13598054787925173,0,-0.35485657834679285,0,-0.9870914803243119,0],[-0.8417093172337214,0,-0.5853132064318984,0,0.5990670247808114,0,0.17668387001444818,0],[0.2890198297152322,0,0.11208014971817093,0,-0.9362740881757448,0,0.5504043062027719,0],[0.6087820071472292,0,0.10738085977421674,0,-0.5719542874892017,0,0.09006617985397658,0],[0.04261157921142322,0,-0.5014917719651122,0,0.11319157605663754,0,0.5878586412550879,0],[-0.6441156237967155,0,-0.501302829747604,0,0.43058995588661797,0,0.6752491450880469,0],[0.7526357916477999,0,-0.6706065475460942,0,-0.47714678777345154,0,-0.2376799996371447,0],[-0.4180411952454174,0,0.14610990217665876,0,0.14548094175816573,0,0.6463264275823499,0],[-0.479292815920903,0,-0.6828713125905226,0,0.7835389901280005,0,0.836901166073321,0],[-0.3816933508985567,0,-0.7793618096395705,0,-0.6036531545841839,0,0.5222823509356051,0],[-0.33044415691425643,0,0.13409587853232963,0,0.944530409417474,0,0.5403959934347555,0],[0.5238763098525108,0,0.7603118183563986,0,0.7776267937105641,0,0.7205759755292806,0],[0.14454896609363388,0,0.46795060997265603,0,0.9467551414087985,0,-0.4738410160540881,0],[0.49905311923019524,0,0.41985263506042924,0,0.5556956625168814,0,0.05514406129060223,0],[0.691701676662047,0,0.4207785880125754,0,0.3750473011097777,0,-0.8544401763273629,0],[0.14234443491030735,0,0.5368843936196082,0,0.11796278578366026,0,-0.4158643952755907,0],[0.06998983917950796,0,-0.6775631386104898,0,0.012287431396443171,0,0.23132583472015011,0],[0.05777303906168285,0,-0.16501665935919585,0,0.6027566289637849,0,-0.7473098959471072,0],[-0.9442230025300221,0,0.5283919815296287,0,0.07823500648677251,0,-0.4139155414902258,0],[0.8207908124886221,0,0.5838821556422884,0,0.8428081240880967,0,-0.7239274406062601,0],[0.49716802747302946,0,0.2723678311564104,0,0.5358658781707906,0,0.3714186082899298,0],[-0.18947443352489146,0,0.5371397401081306,0,-0.7448548262402947,0,0.7084770861442373,0],[-0.8238978127060614,0,0.1441154362321888,0,0.3480268684618575,0,-0.9072529683180847,0],[-0.08382664758908176,0,-0.5324107748800732,0,0.8102108052675772,0,0.14281233476637478,0],[0.7359977599065872,0,-0.7373826071598106,0,-0.9327794941792273,0,0.37534243873389883,0],[-0.3746513524891588,0,0.6208768980912538,0,0.7130173405343245,0,-0.013219501717049553,0],[-0.5672388419303874,0,0.7150393655259386,0,0.6413319819576231,0,-0.7732000390332632,0],[0.5022053402041626,0,-0.09259553026653533,0,0.929149353669763,0,0.2605630336244964,0],[0.9669725153753474,0,-0.6682588379543007,0,-0.18188894930847432,0,0.9812680337833757,0],[0.5631403547120746,0,0.15298700179860902,0,0.18842767008645733,0,0.36142522831431334,0],[-0.8449391360400105,0,0.36765987829370816,0,0.031221310951641712,0,-0.3792452628879739,0],[0.5578930842593261,0,0.2285393414111936,0,0.5990469628819843,0,-0.25944783506327407,0],[-0.3027192634699776,0,-0.8396224785016773,0,0.15066931972813147,0,-0.3311783505980366,0],[0.6638527332081068,0,-0.6208967143229872,0,0.5049996400283896,0,0.9374286842624278,0],[0.8003033006839118,0,0.3351858960314986,0,-0.019573851580222068,0,-0.6480219513235305,0],[-0.3986140149481726,0,-0.42747192348839335,0,-0.28040184660952927,0,0.9170758920254418,0],[0.9122340643497746,0,-0.372539130650942,0,0.8860538507386917,0,-0.7759124171830073,0],[0.6779981172863358,0,-0.8118833345565859,0,-0.23209140552328566,0,-0.8445436591610042,0],[0.32786992504191703,0,-0.10734119014324539,0,0.4351492097496674,0,0.9491004737510418,0],[-0.23086090652285618,0,-0.13444953990711306,0,0.2709078942090435,0,-0.5816390387639475,0],[-0.07799198846112942,0,-0.6257524101089245,0,0.4334174035679532,0,-0.562576957558238,0],[0.7434680888163234,0,0.8344046717076674,0,-0.8958229032655753,0,0.6790897466619288,0],[0.7686186660027325,0,0.7998845656301752,0,0.23918811375520166,0,0.031237701308096,0],[0.3403882402579761,0,-0.4554328680827129,0,0.4639433300382938,0,-0.8797610539702222,0],[0.9036952759127568,0,0.3761543369058149,0,-0.2608135001294771,0,0.9340855660519287,0],[-0.9923353471571651,0,-0.08212707094451144,0,-0.5267171385735302,0,-0.3350928066505402,0],[-0.010406629111772924,0,0.25217831875209384,0,0.8683714673588587,0,-0.4199757997782346,0],[0.7069376544665804,0,0.04126724792588776,0,0.46129786808609196,0,-0.017366902927419825,0],[-0.8613286117002422,0,0.5224090543217141,0,-0.9433460869960744,0,0.13767311387592151,0],[-0.8050557512539553,0,-0.3781907970566637,0,0.5480791841323787,0,0.4153767261147978,0],[-0.3459541866833086,0,-0.6610784233229551,0,0.485307322973876,0,-0.1555405671827742,0],[0.7882600339093648,0,0.02382883245986056,0,0.6682679002209073,0,-0.23114237304310636,0],[0.9452729557287138,0,0.20351420519435148,0,-0.4641166891706213,0,0.3663763225093115,0],[0.1193740232742011,0,0.20854993244883202,0,0.6660278461642122,0,-0.5854383029730055,0],[0.3767701213434145,0,0.009931732288961381,0,-0.6855556412364397,0,0.8785665011901105,0],[-0.10809083576870049,0,0.3964914114463032,0,-0.4057580556088949,0,0.6477295562160186,0],[0.30678838814385134,0,-0.09347724709961913,0,0.633926654917313,0,0.06204355295249586,0],[0.14280065602139302,0,-0.2270408479808298,0,0.8507445019404272,0,0.7466388385862879,0],[0.07474979716191221,0,-0.45035560208105485,0,-0.6625547770158161,0,0.7118633976594302,0],[-0.9807550399197349,0,-0.943058574262454,0,0.2844022872665999,0,-0.32150700602868653,0],[-0.8052388839025342,0,-0.18187351523667017,0,0.3453538867710635,0,-0.8479416472079196,0],[-0.42176828500132246,0,-0.7462799668144824,0,-0.09614336908796583,0,-0.10277109023201869,0],[0.5131171272001289,0,-0.44089218270071273,0,-0.6911272646845326,0,0.15264665818832146,0],[-0.38352885560181493,0,0.41150982110690304,0,0.3217391802569376,0,0.17855605437786082,0],[0.5876053366733189,0,0.4355569239804191,0,-0.7469046891493389,0,0.5440293250753805,0],[0.03852957955147085,0,0.7024389195835323,0,-0.4328261173223027,0,0.9375395941598947,0],[-0.9535747566180652,0,0.44579009306121575,0,0.09218834168161671,0,-0.7759124545675049,0],[-0.2290146800302254,0,0.6481824183978948,0,0.39937743244360923,0,0.9740399841855105,0],[-0.8154658092167946,0,-0.8147013117106283,0,-0.600403750286369,0,-0.2467074247586013,0],[-0.269582315245955,0,-0.1894382266763861,0,0.7551710313546156,0,0.0913212685915803,0],[0.5552325002777929,0,0.4211988050932818,0,-0.6839368719632783,0,0.23314079866928794,0],[0.8530415002841352,0,-0.2325773906584745,0,0.4632156462957555,0,0.5331411794181364,0],[0.8148005133977185,0,0.049615362430438736,0,0.9782844704616997,0,-0.3367733011446311,0],[-0.3062005327392646,0,-0.3058967512222752,0,-0.1422165725535266,0,0.6846348897466556,0],[0.5779995481242035,0,0.006313191123734407,0,0.35100144526857857,0,0.4722657643428003,0],[-0.39727469912512814,0,-0.6291933611880611,0,0.4248778503001054,0,0.9823053684647895,0],[-0.4577499401463343,0,-0.7991120932446178,0,-0.15465011669549011,0,-0.581619771809513,0],[-0.013610367365743503,0,0.9361881181112985,0,0.11351482054859096,0,0.4784326469587732,0],[0.6382986770288346,0,-0.9551713414411144,0,0.6062768546482951,0,-0.4460399363126859,0],[0.6622415154672465,0,-0.7925286382382607,0,0.4449776402638559,0,-0.9947855094260323,0],[-0.5348127545089607,0,-0.356234465071811,0,0.8518368475164677,0,0.45041150040392086,0],[0.813657990020278,0,0.887405339132878,0,-0.9471421863394022,0,0.3839510757174174,0],[0.7673359315502362,0,-0.7757859775417604,0,0.14718069929947974,0,0.37810589428653984,0],[0.5535140992841154,0,-0.5216255475147601,0,-0.21330516325892634,0,0.6245860238818435,0],[0.21155331666315602,0,-0.13487094673306177,0,-0.003951026971981686,0,0.6368411931762608,0],[-0.39591407877650797,0,-0.7760254506053499,0,-0.9879732222567276,0,-0.43908349477633845,0],[0.22178548156207922,0,-0.8954189401355498,0,-0.3674168547751735,0,0.7321286600948851,0],[0.10109901399606125,0,-0.10163277732817111,0,-0.7603352892633176,0,0.8667847108203863,0],[-0.8705829202201666,0,-0.5081332414156341,0,0.39626635059611814,0,-0.40738279256055443,0],[-0.9702649255967651,0,0.7637250088956125,0,-0.28299675112870814,0,-0.10143676512334731,0],[-0.6030634004207928,0,0.6553667157642362,0,0.572806714241832,0,0.5239680714817789,0],[0.3004090178943106,0,0.5160798023802937,0,0.11417957652236143,0,-0.6907530136208174,0],[-0.8272217594623329,0,0.9564628423730652,0,-0.916224588280413,0,0.09449205365535573,0],[0.9721288560833727,0,0.5398871776518925,0,-0.06210616966636773,0,0.879464015007736,0],[-0.06484676290508351,0,0.2998276403052871,0,0.9078122864759091,0,-0.3521379941283064,0],[0.631251526324105,0,-0.708381040394413,0,0.8057029378288685,0,0.5107177292413434,0],[-0.5173171011480028,0,0.17039824918125923,0,-0.3837888275698268,0,0.6382129726130712,0],[-0.5665538075147738,0,0.13269669716621823,0,-0.7863993481643149,0,-0.17382681796049903,0],[0.02964586465334329,0,-0.5326526223558745,0,0.9056977139719227,0,-0.5170574149125191,0],[0.8166785514513055,0,-0.5679216576288057,0,-0.07030377533230914,0,0.32429961146498276,0],[-0.3363479585938358,0,-0.7946359735679557,0,-0.48878796767730836,0,0.12852415744544543,0],[-0.6069721641449843,0,0.25881087265408853,0,0.6468041995385736,0,0.5306821723982718,0],[-0.07644399965995219,0,-0.3464440096419106,0,0.3815087399503465,0,-0.9753550910187222,0],[-0.9728506155360922,0,-0.515138834301152,0,-0.9732421101859732,0,-0.9066851395542496,0],[0.7554220110885188,0,-0.017712737456341942,0,-0.49961299783563995,0,-0.2980181110217195,0],[0.6091953275445401,0,0.6185377230818669,0,-0.23074117759052615,0,-0.7333123836542852,0],[0.6043532404262821,0,0.9882622013778197,0,0.23636267819345757,0,0.6489282143849833,0],[-0.46999435977114934,0,-0.8111844106752535,0,-0.1619249189820683,0,0.729979649227257,0],[-0.1000020706567607,0,-0.0318305431114253,0,-0.3964043791463424,0,0.6825818319034593,0],[-0.6336177025298808,0,0.0008773978511267266,0,0.47740053490333123,0,-0.8153280851279829,0],[0.6935446208035882,0,-0.6888020583184545,0,-0.6831157062319798,0,0.509309615842499,0],[0.7842588804709623,0,0.08318234657802148,0,-0.8488121632104305,0,0.676890869290232,0],[-0.2959807108760013,0,0.8807373290420113,0,-0.9764598778555523,0,-0.3298009345292542,0],[-0.8324217584891683,0,-0.353623689693469,0,-0.9617324891432586,0,0.08979627729889428,0],[0.5316966444848521,0,0.7555755943238083,0,-0.40504555612199033,0,0.5667102418592178,0],[0.9806906739130083,0,-0.12564493599428883,0,0.21606569399985576,0,-0.24867455771739388,0],[-0.7035617823606252,0,-0.5990937464156432,0,0.8606702013126566,0,-0.23815954618252066,0],[-0.6279149921859499,0,0.8677935186806731,0,-0.8342670219786437,0,0.6026063164499746,0],[0.45876977400613805,0,0.839457539917857,0,0.667771083966598,0,-0.7478860023632393,0],[0.027265309443680552,0,-0.4395469592237605,0,-0.2685031213401501,0,0.87235216323994,0],[0.08151028223014078,0,0.8930561788964966,0,0.6484004339195672,0,0.9057096763111274,0],[0.778585507720531,0,-0.07142019103870756,0,-0.832949434609125,0,-0.29744994017247117,0],[0.28976539617988517,0,-0.9350616909544861,0,0.5782227955295986,0,-0.23796138098316744,0],[0.9798546780257875,0,0.31370640590501475,0,-0.5982100169786551,0,-0.32924402156135213,0],[-0.8129024511942131,0,-0.8668800967118422,0,-0.29136003330787585,0,0.388084597529734,0],[-0.8464748644032001,0,-0.820830825792939,0,0.15971231938845998,0,0.6543085928623813,0],[0.9856852666500442,0,0.025139244736966715,0,-0.04442517181021133,0,0.986819591328906,0],[-0.08172384964090706,0,-0.879346041224046,0,-0.9362119380565655,0,-0.018225160556950337,0],[-0.39171557816850166,0,-0.9555159562645932,0,0.3276347859940467,0,0.4530072078482603,0],[-0.29519436319548886,0,-0.5489172426328327,0,0.3586190536384506,0,0.31693908836784645,0],[-0.4801964986956174,0,0.019015578162939084,0,0.47646766348268654,0,0.07170609122612115,0],[-0.7323575853328998,0,0.18015341728744638,0,0.3841953645918881,0,-0.7793509635112955,0],[0.046305841182496366,0,-0.5582976231476708,0,-0.24787744356282348,0,0.054786142081398204,0],[-0.4992086283472833,0,0.7088454885726954,0,0.433563203685728,0,0.8358303488575554,0],[-0.060748967412431076,0,0.17397605910026836,0,0.6462279736939198,0,-0.389230146970339,0],[-0.43497576426732354,0,-0.9407958742231737,0,0.12721645560218153,0,0.6409829292456373,0],[-0.5572119778697456,0,0.7820216936579265,0,0.005799902973184334,0,-0.25668849948862504,0],[0.8346282510045282,0,-0.04028500778329647,0,0.9370243729272456,0,0.7174709287824033,0],[-0.37808737242741375,0,-0.9236848215762028,0,-0.09950777838266234,0,0.47362631138108035,0],[0.6714254869820098,0,0.60658233448206,0,-0.007492102930469757,0,-0.5240806344658981,0],[-0.7906983732981176,0,0.924720250094615,0,0.526102114113898,0,0.6821824267861665,0],[0.5338750231632043,0,-0.5787769307031886,0,0.8022771152703105,0,0.28702962061977643,0],[-0.27136370357287986,0,-0.09054236755271305,0,0.02714270006819497,0,-0.735031793532886,0],[-0.5709292240081401,0,-0.3757110463169008,0,0.02344234980489901,0,-0.03787360688788899,0],[0.15222752287487218,0,-0.10174143257083368,0,0.6212955866552132,0,0.7996469285980567,0],[0.21544717280798586,0,-0.053470222627968855,0,-0.08818859099697163,0,0.528748625190028,0],[0.8507553222429185,0,-0.8999843673896152,0,0.908555988799667,0,-0.5830880725115632,0],[0.7640055367602359,0,-0.7031901802241928,0,0.585685354627306,0,0.24659671902014724,0],[-0.9070649950526672,0,0.6752428880098953,0,0.7478824382098865,0,-0.9276456341743648,0],[0.4858732308140017,0,0.7075899516716557,0,0.7360655760077579,0,0.3091490113194255,0],[0.8529226961612895,0,-0.5283416174911916,0,-0.4158358955058268,0,0.9141560951834826,0],[-0.7659914187100828,0,0.3781884062232277,0,-0.08391564589183442,0,0.1762593576895104,0],[0.18327251233661768,0,0.9552009809062916,0,-0.39168210895376665,0,0.9419204198747244,0],[0.08686360671495552,0,0.13613205559749186,0,0.04247163886698879,0,0.9830488746315105,0],[-0.08874188574307584,0,0.9067943257647761,0,-0.3666720659524193,0,-0.34804717700842635,0],[0.021817281848176106,0,0.136911150747554,0,0.2418704390554134,0,0.9704040713113318,0],[-0.08362914574307234,0,0.9551705134979289,0,0.06904003235196243,0,-0.1356954632323515,0],[0.9861919661603338,0,-0.8775501252904988,0,-0.3251867127749992,0,-0.6176061398092646,0],[-0.25319257557865804,0,-0.4839343344512155,0,-0.12147662417061988,0,-0.5731086933219267,0],[0.3736651231323753,0,0.05860512309131494,0,-0.5298275304398822,0,-0.2240818669203235,0],[0.8327589328253055,0,0.2081000709690426,0,0.8988121520888235,0,-0.008000237975538171,0],[0.4138891161142322,0,-0.5279936387091483,0,-0.5971037328592139,0,0.18790019055941598,0],[0.05431460520233955,0,0.315655565534664,0,-0.5911602953689055,0,-0.4395058924999893,0],[0.4831317361001539,0,-0.6934516313760958,0,-0.552156198426416,0,0.10533564427672903,0],[0.9217919422442831,0,0.3690623394210335,0,-0.672622617233417,0,0.9890353473157458,0],[0.8437492711359327,0,0.6198502776928931,0,0.842531245586301,0,0.6835103110267036,0],[-0.873693701048811,0,0.4124078013199157,0,-0.07620916169424274,0,-0.8443741616604641,0],[0.8203056295310369,0,0.9399925627150027,0,-0.20839867155769764,0,-0.8423005873493499,0],[-0.2816078590812743,0,-0.970719869394266,0,-0.5755738298724461,0,-0.021208459708891625,0],[0.9201489615125482,0,-0.39715490543232756,0,-0.5541707083489218,0,0.8936609061404188,0],[-0.3275113316904169,0,-0.3032412047438968,0,0.3974386343805265,0,0.9857143198604283,0],[0.9062591946363758,0,-0.1097016590466523,0,0.288477247182676,0,-0.9777648388819015,0],[0.09510204004468603,0,-0.4620353254152689,0,-0.7011240585576743,0,-0.37537285382074936,0],[0.33017833737457724,0,-0.7102894611312388,0,-0.43819021181131656,0,0.10336350360858604,0],[0.8344569858182649,0,0.04348232526194229,0,-0.937170866936147,0,0.016784288644047684,0],[0.532836362697227,0,-0.3051169555594797,0,0.8665831844170773,0,0.7648384020675505,0],[0.7494501055278089,0,-0.1680334099033235,0,0.11846336629746767,0,-0.6566806231281348,0],[-0.3789149449411142,0,-0.13112337974296062,0,-0.43267924844672356,0,0.7610974495038272,0],[-0.6042824978380791,0,0.020246617046447035,0,-0.28325906546608725,0,-0.43769643955282267,0],[0.4277525655528871,0,0.9889809323138246,0,0.13618682353226763,0,0.3973738059000589,0],[0.3866290402865191,0,-0.7267608622481849,0,-0.05035073797072831,0,0.6513163674709737,0],[-0.03696939584192016,0,0.5941500241527293,0,0.06827184999891766,0,0.7645156198490683,0],[-0.8129779971677256,0,0.10398400600664526,0,-0.6552536859946642,0,0.0708417603404703,0],[-0.634992472068701,0,0.755215958355798,0,-0.4988988551811169,0,-0.2702130926547368,0],[0.5974864606754715,0,0.4941142105391463,0,-0.5821642212749208,0,-0.35619797497642125,0],[-0.14284084278733988,0,0.788193325919095,0,0.1711797556631729,0,-0.8710376604066653,0],[-0.312985222462107,0,-0.5949269876623284,0,0.06658476910042465,0,-0.4534584622288885,0],[0.7206102583219835,0,-0.6690129106613841,0,-0.15961401198064962,0,-0.8949714853689037,0],[0.4318281234914596,0,-0.7496093481357133,0,0.18789624377181013,0,-0.39342641057676075,0],[-0.21102109520694778,0,-0.8961837412319966,0,0.8250260163995309,0,0.038804082672339035,0],[0.8181919800089723,0,0.8993330305209142,0,0.4018489920742825,0,0.6024021547909863,0],[-0.526383396530054,0,0.17366590433306728,0,-0.2396377572419689,0,-0.9832085435712592,0],[-0.33296634859228224,0,-0.7177648381116461,0,-0.7349826246209532,0,0.7607314817954767,0],[-0.1729440122697754,0,0.04307987730295948,0,0.23342758901966354,0,0.281572394360321,0],[0.9381737730778659,0,0.1678314320245391,0,0.8559834680595275,0,-0.8536242023723548,0],[0.6524794633481012,0,-0.6163929960266732,0,0.41693859979837366,0,-0.3899400130521996,0],[-0.228015191009321,0,-0.8171043344919983,0,0.11585414074815237,0,0.14018177564313605,0],[-0.8329793385835582,0,0.7342129834002597,0,0.337119609262436,0,-0.9350803903921584,0],[-0.9737113444616692,0,0.6445031482716179,0,0.8265954534614335,0,-0.2997238428873561,0],[0.22671131643093334,0,-0.015029299313703559,0,-0.0917494274455739,0,-0.935528545699086,0],[-0.433693886767645,0,0.27522720903183284,0,-0.3900030018828913,0,0.6019511342895152,0],[0.6208863552778285,0,0.9663412093090393,0,-0.6332490725191094,0,-0.7836131914280107,0],[0.06547051467587783,0,0.37158289033805003,0,-0.16992143452850572,0,0.35149974735384415,0],[-0.5561406988614514,0,-0.035641749344158646,0,0.2376122731444512,0,-0.1395091643651586,0],[0.5749181585779448,0,0.4960302737944784,0,-0.21824829105441434,0,-0.030685748127843193,0],[-0.9483191399910584,0,-0.5179716071082396,0,-0.5340080742405399,0,0.7659844191209291,0],[0.6194680542919317,0,-0.7371502851923609,0,0.048548766632577234,0,0.3375594634627661,0],[-0.3882071539994615,0,-0.932740365027501,0,-0.15321955620225813,0,-0.07160267308526524,0],[-0.9220967086297747,0,-0.7117982474224938,0,-0.58776839151847,0,-0.6922661648597866,0],[0.7533902609675409,0,-0.4723692856082776,0,0.38495493683638515,0,-0.08841469014939718,0],[-0.39463318571135564,0,-0.12531584814884444,0,-0.8029070543786616,0,-0.7365691224740986,0],[0.3263037814844325,0,-0.6476861770865637,0,0.7195312577046993,0,-0.3199162303274399,0],[-0.14431613532127752,0,0.5006982684621897,0,0.4317623719621826,0,-0.6663870155056488,0],[0.7762152973545917,0,0.6614631253410148,0,0.24392721267726136,0,0.36713029165719613,0],[-0.7385763597466736,0,0.6849378582764891,0,0.7113299079833872,0,0.9517108481368832,0],[0.14401891113699272,0,0.503381509902074,0,-0.9444505800764043,0,-0.07633148016110458,0],[0.629512902150307,0,0.29631205218097767,0,0.14259935840590687,0,-0.04413983946629252,0],[-0.8028598900734041,0,-0.1802216398184443,0,0.3674163011386944,0,0.09364624393220366,0],[-0.6897864193092438,0,0.8796157582969835,0,0.25528399288803727,0,0.9255887936668103,0],[0.7006251090935818,0,0.8994303674002824,0,0.5146297695096993,0,-0.3390803381994416,0],[0.1972773720468921,0,-0.9327406294829198,0,0.26195731592799065,0,-0.04973339054996895,0],[-0.6641863172859407,0,0.640558478445153,0,-0.8114920575192372,0,0.41307670891790815,0],[-0.6829105720297963,0,-0.352629335432627,0,-0.4504290342746462,0,0.5246303237989167,0],[-0.7255930485938203,0,-0.5577671580139507,0,-0.9688084457698893,0,0.7674918433555469,0],[-0.7353860998931179,0,0.35858128968533953,0,-0.21464727574809328,0,-0.23330367077460645,0],[0.915743673272285,0,0.04511882573387771,0,0.22353647827771672,0,0.5049247977610731,0],[0.24395370182149323,0,0.9818103124320987,0,0.5198967006355617,0,0.6533734453944207,0],[0.79509672472786,0,-0.8581237124502151,0,0.19910496808238487,0,0.5559756496089023,0],[0.9713370031867525,0,-0.20064277182020562,0,0.6702585732503525,0,0.4690885393805688,0],[-0.8291972865791135,0,-0.9224754449382181,0,-0.882932175119029,0,0.2857089670583983,0],[0.1983430679295235,0,0.99161717246445,0,0.765868123979589,0,0.16273724583201376,0],[0.29803713272869014,0,-0.5399141298064815,0,0.2268304359046709,0,-0.7782406257515293,0],[0.11317976172638078,0,-0.9582693342114052,0,-0.6599283554287025,0,-0.19172748728695288,0],[0.8970473667365271,0,-0.9981804032007465,0,0.7571947804663939,0,0.6712309580885816,0],[-0.6221746370093982,0,0.7184804228983435,0,-0.6498832012696423,0,-0.13575687912379275,0],[0.8236563798680903,0,0.41135974664408525,0,-0.5371298392103653,0,-0.8282966702384163,0],[0.05884708750031775,0,-0.2922523430232261,0,-0.9916077260027084,0,0.4275951639054565,0],[0.4498493181158012,0,-0.34293172161431984,0,-0.5388549990579764,0,0.22165638301872148,0],[-0.7902909898362511,0,-0.5371593592537146,0,-0.09226509608433775,0,-0.8229515646841696,0],[-0.23774436002576993,0,-0.5780831783458895,0,-0.5084676410147424,0,-0.76437329595675,0],[0.3623814748962897,0,0.34400761964565696,0,-0.17638335330789367,0,-0.7986391339868276,0],[0.6863393243994702,0,-0.9297908457738286,0,-0.76879855644947,0,-0.8305921983771257,0],[0.6860650707861415,0,-0.38255304916680677,0,0.07602385498179509,0,0.40779271323023014,0],[0.644109364115883,0,-0.053543012466760076,0,0.799007906611028,0,0.7606068516371411,0],[0.07084112396222553,0,-0.6158732654549662,0,-0.1661583821158794,0,0.7060839493165241,0],[-0.14683643902038812,0,-0.6732783507306358,0,-0.9190648484934437,0,-0.17012970403665883,0],[0.8940616119777218,0,0.008726595493176336,0,0.24455525960411406,0,-0.3367436644685734,0],[-0.6251223247419063,0,0.8427339426671681,0,0.009759435442430852,0,0.5880910717634391,0],[-0.2727092444032295,0,-0.8809861266182923,0,-0.22791806767341494,0,-0.17544634843039086,0],[-0.5804475238516143,0,-0.30089501272490793,0,0.4317508192531929,0,0.3949095206829458,0],[0.7416108148180696,0,0.7459670813914683,0,0.6255444697148746,0,-0.6041682775695155,0],[-0.08366841269085856,0,-0.49605967174585963,0,-0.30677689126826946,0,-0.08617900020658631,0],[-0.9308951865905145,0,-0.3250411157389326,0,0.6618000884039246,0,0.48271151219512687,0],[-0.1442979436691284,0,0.033169753949203073,0,-0.4202554055547988,0,-0.890797733838795,0],[0.8783283090054756,0,0.5783108960209269,0,-0.35546335220806224,0,-0.4181929321166733,0],[0.41239057917221844,0,-0.251094392057976,0,-0.25917730291455976,0,0.03056939610389664,0],[-0.5784168657928831,0,-0.0004664451633508149,0,-0.7572514287874056,0,-0.4806585884090877,0],[-0.6435322519288608,0,-0.607858180725953,0,0.23287452644092066,0,-0.17062041331154365,0],[0.8118052331871177,0,-0.24043749669953618,0,0.6514052803531298,0,0.532462484454957,0],[0.7604726951651808,0,-0.529893734317145,0,-0.6867037848312038,0,-0.046310570830806363,0],[-0.2131207415307096,0,0.8553049774962029,0,0.2171246110786864,0,0.6885718606673965,0],[0.5103708207047088,0,0.9585789543107579,0,-0.8815565845663027,0,-0.034017782013538,0],[0.219192640980725,0,-0.5791919570415067,0,-0.04833676448619795,0,0.33797867036080164,0],[0.628157074950819,0,-0.9605114323259819,0,0.3583352160947859,0,0.9294765199456663,0],[-0.3717589097590136,0,0.8213614134418157,0,0.3160375345675055,0,-0.20480893039278314,0],[-0.08608285263433357,0,0.1940997177902366,0,-0.33910558759987597,0,-0.19177115713096882,0],[-0.5459014120361366,0,0.4508474431287586,0,-0.8419137471511195,0,-0.05584181935844401,0],[0.9151591737479752,0,-0.5278962680761291,0,-0.301463696086527,0,0.8263426804937533,0],[-0.6504358923925267,0,0.30265061841118434,0,-0.8137114782793925,0,-0.03722564373727999,0],[-0.2687714243082173,0,-0.7430749777252321,0,0.7299186620599354,0,0.23159649723750641,0],[0.2487974898489025,0,0.8844390877195685,0,0.862648992219275,0,0.8619590566023787,0],[-0.33938173695843054,0,-0.6524441145785811,0,0.6896653186870392,0,-0.5911967500201116,0],[-0.5297428389954006,0,0.5471308312057168,0,0.09746291108132476,0,0.03462406555471498,0],[0.19898686587589642,0,0.6772321489222737,0,-0.5411240798298703,0,-0.21178629499301993,0],[-0.38824788307787983,0,0.7983568820942479,0,0.6287736192109095,0,0.5098410742867492,0],[-0.6043024380311757,0,-0.510737898895113,0,-0.5507658580035261,0,-0.5057236813690484,0],[-0.5045794014058736,0,0.6707340748481738,0,-0.5306650741510888,0,-0.8924779926769466,0],[0.07668984588627303,0,-0.7096787816962194,0,-0.8664726520588017,0,0.1800660364894373,0],[-0.07955190191293171,0,-0.2847400817715152,0,0.30389077072417603,0,0.18892435121467388,0],[0.941496828018336,0,0.4015252671378273,0,0.6553896087898561,0,0.9926944745628115,0],[-0.5186629162174497,0,-0.30985795395867055,0,0.21958499252466135,0,0.19829442007961817,0],[0.042220461858773595,0,-0.572405785868347,0,-0.8489190023344815,0,-0.8849858278097897,0],[0.2095409270616233,0,-0.4846253724141444,0,-0.34768683851586313,0,0.6909605870567188,0],[0.652277444294892,0,-0.5355806510914918,0,-0.0838845878086868,0,0.8289291491544357,0],[-0.7037252601950386,0,0.5633744960701086,0,-0.06817041500522358,0,0.04318942341082033,0],[0.032728000954515224,0,0.3653464332387184,0,0.0495496691829489,0,-0.4543755056305119,0],[-0.3456846708323109,0,-0.14401069004716993,0,-0.6915784740023302,0,0.539116811583999,0],[0.10400010020758521,0,0.8864870512031633,0,-0.2912538853484279,0,-0.2519726252969424,0],[0.5766029268477497,0,-0.7618098297975779,0,0.8439633928843033,0,0.03006695157901973,0],[-0.46917805883155894,0,-0.9686293476190698,0,0.6074213681516221,0,0.2908120648078487,0],[0.24945730908851704,0,-0.9012385817871424,0,0.05016323123368149,0,-0.13842856127154834,0],[-0.7718252696949026,0,-0.5847498288742523,0,-0.11020617576635783,0,-0.9967387848692829,0],[0.378220435643315,0,-0.29169994028045953,0,0.656814209062915,0,-0.7365988689300313,0],[-0.20392157936178412,0,0.9693733636630561,0,0.013642135155939705,0,-0.9597036759480598,0],[-0.3168613811766775,0,-0.25516292993168143,0,-0.6071366709416062,0,0.8979230961399662,0],[-0.10897675975062704,0,0.8055323213892311,0,-0.2249125757250754,0,-0.07301052513859218,0],[-0.4767038056056673,0,0.07739342106142644,0,-0.836889843677074,0,0.762095333054277,0],[-0.9581410982296413,0,0.5612040695146099,0,0.10791156602673046,0,0.7418690725560582,0],[-0.5935862871055745,0,-0.6222168333100525,0,0.50334795156815,0,0.13841170124915214,0],[0.9179545803434292,0,0.04559418044062413,0,0.79022415526007,0,-0.6156679490527238,0],[0.6423225709839604,0,0.6309760479969595,0,-0.3032404860001402,0,-0.20989047921671244,0],[-0.44255829181355965,0,-0.4931034580193203,0,0.6912906135916459,0,0.37147500939109834,0],[0.8979292429609758,0,0.11433212574430995,0,0.4343805634098097,0,-0.9040477020741945,0],[-0.43664766202334304,0,0.3410811725621876,0,0.6913338394772284,0,0.10965675708052114,0],[0.9114809798993413,0,0.9160211916998275,0,0.4024429582710565,0,-0.6800997281010278,0],[-0.22453433292044944,0,0.5625230074525509,0,0.9071220955388788,0,-0.9138951044238885,0],[-0.876054005018283,0,-0.43706107667447025,0,0.6794102887777615,0,0.7109810651372035,0],[0.4256747819323845,0,-0.1432161165773681,0,0.35615547278620907,0,0.9258786716450569,0],[0.48532020365033945,0,0.828432957366732,0,0.32551837259451055,0,-0.37132690432176096,0],[0.28468666909431395,0,-0.46413946586819554,0,-0.3077364566842363,0,0.7595010365586567,0],[0.19367339558666074,0,0.2901507353639068,0,-0.9523669195026377,0,0.3891141458067451,0],[0.8078675299210603,0,-0.7837893328140824,0,0.14542647407119502,0,-0.15342813175308922,0],[-0.3752529512961075,0,0.7083221550261636,0,-0.6777618685696058,0,-0.9725524406982884,0],[0.7880463485183369,0,0.5398701065156288,0,0.29863257832676604,0,-0.09932461068224418,0],[0.20991644609663718,0,0.7947891114562038,0,-0.14063481269758815,0,0.6716187966840317,0],[-0.4769113618266215,0,0.7589729741688878,0,0.8345842272995596,0,-0.9391061807040076,0],[-0.47967040329569055,0,-0.5569052986047048,0,0.790278879597003,0,0.7229345302429837,0],[-0.9939464531132479,0,-0.4960119483727796,0,-0.11493502810693812,0,-0.04475986237274299,0],[0.31503528535639935,0,0.9899445395565687,0,-0.5382707752195229,0,0.5386970603920689,0],[0.14574616524740902,0,0.555983078672758,0,0.1157803557710444,0,0.8013221671654391,0],[-0.18908703097688184,0,-0.4216475240725521,0,0.2195838296128727,0,0.812226287286991,0],[0.5254780757121287,0,0.9432301373662377,0,-0.820515154918685,0,0.9895506982267062,0],[0.932217031203993,0,-0.8072163824050723,0,0.06465269352386249,0,0.3455819969044869,0],[-0.29215172289504,0,0.18246431874717972,0,-0.3297926663234765,0,-0.9057959657081158,0],[-0.2024525369225607,0,0.4366066981053516,0,0.563517554673318,0,0.41029883707582604,0],[0.5933571136158693,0,0.9851080524066638,0,-0.7886122241885398,0,-0.24233862603343925,0],[0.20206031035832517,0,-0.37783132443933675,0,0.8971790115414613,0,-0.6085536522070836,0],[-0.15933415869689127,0,-0.751226070156741,0,-0.18926239367028952,0,0.3931178647660687,0],[0.3527293211872027,0,0.24380381852962185,0,-0.5696667748926655,0,0.9103269055685748,0],[0.8563140217942582,0,-0.3456416951050155,0,0.11463607563600986,0,-0.8489066515460554,0],[-0.3855276797372613,0,-0.595910099794368,0,-0.3159089018156155,0,-0.8788762997002615,0],[-0.6382924077427154,0,-0.3109618182171108,0,0.6948753308305147,0,0.09504774525973625,0],[-0.47504600958982335,0,0.2636639312530331,0,-0.9050475701241072,0,-0.623188596750502,0],[0.045189764083678474,0,-0.5845160949728744,0,-0.9994332646202154,0,0.03141528296926066,0],[-0.16412185278689062,0,0.08490998471827327,0,-0.5571526766791444,0,0.9596422182914384,0],[-0.6929923782932527,0,0.8076002139251697,0,-0.8919794938079503,0,-0.06062980216177449,0],[0.8385817168926162,0,-0.06016841929928274,0,0.33105748625407716,0,-0.9284806433660244,0],[-0.39501338874997083,0,0.9731081684024825,0,-0.09858813172328429,0,0.4456363740926348,0],[-0.2682571451394705,0,0.652421176708931,0,-0.39916993237047016,0,-0.22042909716034198,0],[-0.5912744405390904,0,0.08328026305610492,0,-0.18295442511231852,0,-0.7103465329894949,0],[-0.7109840558778888,0,0.04583917924312697,0,-0.9365038144569947,0,0.11223629862163653,0],[-0.7298753266052744,0,-0.6698585626328406,0,0.7840316282519748,0,-0.775588075805749,0],[-0.4155941262980022,0,-0.9352849700198016,0,0.4329068567583354,0,0.0011780769561438031,0],[-0.9819408908496258,0,0.7314484404637773,0,0.4941846671814667,0,-0.7017305425211573,0],[0.03319392648676289,0,0.842882908761891,0,0.8409990418667537,0,-0.7356687556434582,0],[-0.41498943242670927,0,-0.8962401066680204,0,0.6339594915907245,0,0.9630614620414843,0],[-0.4937719135601113,0,-0.7131355496996498,0,-0.1806962361249682,0,-0.6745971828120927,0],[-0.5265307704446668,0,-0.9760900982631987,0,-0.7887648023306581,0,0.9538178979050134,0],[0.7753899679226248,0,0.24541106895565967,0,0.12920923031880393,0,-0.13486582936196523,0],[0.3699189135305303,0,0.09919718277157563,0,-0.39023959881761183,0,-0.6146008472474925,0],[0.04805113982362297,0,0.8354183555548276,0,-0.6762085394109051,0,-0.900361509843009,0],[0.9142176262351991,0,0.3666027594633454,0,-0.4959278804951359,0,0.01136324478311046,0],[0.8483311142860526,0,0.9945249692434896,0,-0.5759753443355335,0,0.8811259020247111,0],[0.13218609875874732,0,0.14134835771566823,0,-0.7322990834763283,0,0.09037705588991751,0],[0.0029695864705678865,0,-0.16929126579105902,0,0.5921838789920288,0,0.31632895283838436,0],[0.5392169334390797,0,-0.8648918348639819,0,0.0074744414287359895,0,-0.19451599395600871,0],[-0.01037452918568238,0,-0.1608077474929428,0,-0.8147470958920818,0,0.09794056009370022,0],[-0.5772833816471988,0,0.16418640640400905,0,-0.14326769919709015,0,-0.3184594314072894,0],[0.4054152084656555,0,0.5569704373579152,0,-0.9288509100646711,0,0.24437733461970357,0],[-0.6888067638801915,0,-0.7320268064380319,0,-0.33973549320899043,0,0.9461344918419385,0],[-0.1864971757004814,0,-0.27472711836030194,0,-0.4094215253731691,0,0.44318053860235773,0],[-0.8621980177885683,0,0.5579912474451214,0,-0.31621408823361097,0,0.27929653803434107,0],[-0.27444585886209216,0,0.5302731157684106,0,0.047332941438481324,0,0.6933671701746364,0],[0.1061612971299799,0,0.6178459709846522,0,-0.519240434820603,0,0.8973191936892153,0],[0.9778679499553999,0,-0.007642561275011728,0,-0.8901574493550929,0,0.4420439076948164,0],[0.7662520182214902,0,-0.22560876036709743,0,-0.4506190067758079,0,0.41599379733770636,0],[-0.7410037915819977,0,0.07426597991435568,0,0.006795032543907009,0,0.9105960694146664,0],[0.30821199041108915,0,0.060423590809655536,0,-0.08746392376206147,0,0.4385795758716744,0],[-0.9533337621013699,0,-0.421581957681332,0,0.8996352896905839,0,-0.1942356112855682,0],[-0.41816127211272347,0,0.1892171999705039,0,-0.746454752824824,0,-0.6861837334919092,0],[-0.28818306083654443,0,-0.5962651310829726,0,0.31475728338916786,0,0.11092194687082024,0],[-0.15038747122835638,0,0.36121222833870026,0,0.7405061719813251,0,0.009293435607614864,0],[0.047561989421826656,0,0.23227168166823397,0,0.01820065339364474,0,-0.8471362568400718,0],[-0.21894735774908902,0,0.22316887774742966,0,-0.8279523722424605,0,-0.4545114933746449,0],[-0.019107892010768124,0,0.21597191896202528,0,0.21566495993540435,0,0.6394216689444039,0],[-0.30378104273697537,0,-0.19990006120042603,0,0.5773069705088691,0,0.9357865860807264,0],[0.7249291669914908,0,0.7338561243323918,0,0.460653606456388,0,0.8632167918520808,0],[0.566171670653167,0,-0.27970604827492584,0,-0.09705621829192867,0,-0.9222062354517208,0],[-0.8704554005618994,0,0.789957659829783,0,0.15356023530839424,0,0.7668623201924067,0],[-0.22179861846032445,0,-0.44625809229601243,0,0.9200021525222588,0,0.5412573466348616,0],[0.4881544713109809,0,-0.8776816996571793,0,-0.9854900248280064,0,0.06492878863945384,0],[0.17364241998301777,0,-0.4157204123163927,0,0.9834340086702125,0,-0.302095409912557,0],[0.5585039456680316,0,-0.40664434870166976,0,0.4127681312900342,0,0.11798484277841181,0],[-0.6339185828864441,0,-0.16424170490561174,0,-0.22290378957097612,0,0.13851326643592765,0],[0.05525327443974826,0,-0.06808479983884497,0,0.9355286898186048,0,0.7540253796111922,0],[0.8477740961746081,0,0.6725563998680082,0,-0.32296637040777887,0,0.8225258393821275,0],[-0.6278216784102105,0,0.39731959236307235,0,0.07889520503869995,0,0.7326002055512051,0],[0.8920824033952452,0,-0.20525570629988055,0,-0.1341390099478913,0,0.9055203870747031,0],[-0.20820235844096635,0,-0.5642727955252063,0,0.4438666269959657,0,0.04695506586048248,0],[-0.24025521321402365,0,0.9482149578942829,0,0.8310558153695049,0,-0.310149734353081,0],[-0.05976106960049665,0,-0.100886984967693,0,-0.6798595479527424,0,0.7594981549051503,0],[0.2167919131351188,0,0.170093064104601,0,0.37997491982631914,0,0.6437652303750951,0],[0.7451571938926631,0,-0.10281604240975184,0,-0.9594541641622258,0,-0.4340958823553871,0],[0.8719203854298434,0,-0.11026521303819625,0,0.8044071663037646,0,0.9343266302327824,0],[0.6545170700788536,0,0.8525413466316296,0,-0.011081090373532442,0,-0.21683162394102984,0],[0.34113696704652785,0,-0.29436907147466107,0,-0.6725252885851908,0,0.4194289228119703,0],[-0.62594776091176,0,-0.17059714852074692,0,0.6442332896607825,0,0.9569240367991889,0],[0.7474858525826695,0,-0.8414740715730109,0,0.4656955133877263,0,0.5442401924415812,0],[0.8812135753890724,0,-0.29380341351360406,0,-0.45620234456002473,0,0.7833341765116504,0],[-0.4363285157755925,0,0.32106508397708655,0,-0.5609805800131039,0,0.08737414944255328,0],[0.9734195639395025,0,-0.737660244600807,0,0.5483333344140002,0,0.5408715152524319,0],[-0.6946108519518983,0,0.5242827999680091,0,0.26165033629623346,0,-0.7978941313333206,0],[-0.8915793124871786,0,-0.25048563398576096,0,-0.7082556424469173,0,-0.2727013306762823,0],[-0.9168235324517897,0,0.04124391677454353,0,0.6464671547298486,0,-0.30205563634331345,0],[0.7945906286795261,0,-0.9822475097232596,0,-0.8016077397667076,0,0.09716077788085808,0],[0.5205974997986864,0,0.04815092903522045,0,0.35585568632498976,0,0.007873680880021272,0],[-0.711043253775281,0,0.7666436529979608,0,-0.04931166125760411,0,-0.20489649162203993,0],[-0.9534273665034743,0,0.683229702307754,0,0.13176426823129517,0,-0.21342429276862806,0],[-0.13921771049535791,0,0.9919767125785839,0,-0.21018423648882611,0,0.780328674784782,0],[0.0696662997684907,0,-0.4762942674271159,0,0.8377955919252118,0,-0.4150531106535438,0],[0.37851293718071455,0,0.19812885416964176,0,-0.46760592689003655,0,-0.7624999510402814,0],[0.04214540441699555,0,-0.6988160640406323,0,0.9461469874793469,0,-0.4537787094876994,0],[0.4778999971750084,0,0.4465142300209832,0,0.685898606577807,0,-0.830588020908734,0],[0.9216204850356013,0,0.17574412532312822,0,-0.9977879861105823,0,-0.4309873617980422,0],[0.06911290643959633,0,0.8104044576669982,0,0.5456472118594526,0,-0.1332669694857027,0],[-0.9619173716700244,0,0.3890649598876297,0,0.199655553535663,0,-0.11741207042007773,0],[0.4406535536482168,0,-0.6935660646173306,0,-0.34383302581790043,0,0.45013747888037914,0],[-0.12585173716653097,0,-0.38311148287209684,0,0.6987751639238326,0,-0.5203151617757472,0],[-0.28211530167575316,0,-0.1268979112978842,0,-0.4802468245127326,0,-0.8198631960667662,0],[0.7663245270770451,0,-0.1588616300371538,0,-0.1790390779644787,0,0.3521856011703748,0],[0.9339853298883898,0,-0.5334148278434261,0,0.9350332660025833,0,-0.27007577006458516,0],[0.03510758917302992,0,-0.9379966592100427,0,0.7520665069823829,0,-0.0250400948059486,0],[-0.5288548120139964,0,0.8441702392128829,0,-0.15165187387590873,0,-0.8834560232904393,0],[-0.4482735236886105,0,-0.3297003410350625,0,0.8875038680527021,0,0.9831891459646938,0],[-0.8701890029951644,0,-0.8943764158055496,0,0.10076331773749292,0,0.4856986622210666,0],[0.24934496149135365,0,-0.199576031068196,0,-0.5481259177161756,0,-0.511515294353634,0],[0.5837971055296678,0,0.5628063362209947,0,0.9535225360936954,0,0.44550660262192743,0],[0.5865339542283867,0,0.4842095207251722,0,0.5259467411983447,0,-0.020887369971760883,0],[0.47907270366502663,0,-0.9921504686992226,0,-0.22524377786260041,0,-0.8554780187039889,0],[0.470826786097132,0,-0.0740016746735166,0,0.11380053789277955,0,-0.7503627758980207,0],[-0.06596153456534903,0,0.9502013798645286,0,0.7702572260291385,0,-0.2106700169971929,0],[-0.3498298119723845,0,0.7192415544417645,0,0.38293752077649,0,0.30529616323465847,0],[-0.30089515865705707,0,-0.10714102608160825,0,-0.8588633468771509,0,0.7970300062209363,0],[0.08008313414850043,0,0.3249408107205094,0,0.7101834094781048,0,-0.31358047290403135,0],[-0.26661539756206875,0,0.218097113852185,0,0.5511718799969412,0,0.27791868471002034,0],[0.27433626713829184,0,-0.36775739986266986,0,-0.33381346392524635,0,0.15820522682845395,0],[-0.543687759059419,0,-0.2469932103470479,0,0.2866595812282977,0,-0.956314205860703,0],[0.14696428104395776,0,0.9214988486228046,0,0.5713280679316814,0,-0.7888365662147813,0],[-0.5679974319903364,0,0.5851555867781653,0,0.9915860748821379,0,0.8364353633974377,0],[-0.6465762395389692,0,-0.9498945704132783,0,-0.2441443940790221,0,0.3175424430709257,0],[-0.25583902785401535,0,0.19868275260422985,0,0.36092762624150465,0,0.9738444182314514,0],[0.6387093065200702,0,0.18143184989395067,0,-0.8429467908122374,0,0.38904849825415133,0],[0.8193581481917629,0,-0.4988586796354777,0,0.6748928910894303,0,-0.8942280922028749,0],[0.2002397258672315,0,0.8771539789797558,0,-0.613740260933114,0,-0.618828056568312,0],[0.9564814251528322,0,0.8113997955246162,0,0.5569207266634164,0,0.2776304578357207,0],[-0.4266723281226281,0,0.873302782400263,0,-0.10145134472512718,0,0.4894325940913149,0],[-0.6798246536627344,0,-0.6210840718312083,0,-0.1617551711110391,0,0.9958331210797722,0],[0.047044417429883856,0,-0.6396587798236185,0,-0.6021187759646099,0,-0.11714383603760292,0],[-0.34391585587184436,0,0.5046950092902644,0,0.9118386251774417,0,-0.5093720004293022,0],[-0.8817070824823066,0,-0.9124178852353014,0,0.11054584657987698,0,-0.5800049658183902,0],[0.4857083083987326,0,0.8342452518121286,0,0.4585524252874791,0,-0.12836706815718357,0],[0.9919012806038672,0,-0.8877407392276441,0,0.05969629469606441,0,0.29280514980908556,0],[0.03868801754742446,0,0.8928428804959645,0,-0.07174455257820211,0,0.3713830078977707,0],[-0.36545088590773133,0,-0.48643567952089417,0,-0.02619930995191344,0,0.0436920692519549,0],[0.6803258174255591,0,0.43341900727737026,0,-0.34120473404890605,0,0.3722030825722047,0],[-0.6096603548623267,0,-0.10803781293451076,0,-0.03818559117830944,0,-0.09896162368632177,0],[0.09216101166150237,0,0.6673813557696187,0,0.015587081870091168,0,-0.5882817188092991,0],[0.665829612775203,0,-0.025903050171599773,0,-0.41211099081143543,0,-0.12147500386160403,0],[0.9634083200172911,0,-0.05131712577820102,0,-0.565354510962837,0,-0.13768566716930808,0],[0.6923297506381039,0,-0.8563986704525067,0,-0.5215702403537399,0,-0.4164409058447265,0],[-0.5489266497620631,0,-0.018549989899999897,0,-0.2481290042583264,0,-0.5201390588418076,0],[-0.1267115849627285,0,0.2181220088563438,0,-0.9056855605775615,0,-0.8198792806875388,0],[-0.8334427164327282,0,0.12148309535982893,0,-0.2985960626024923,0,0.5170101101174536,0],[0.7245703953605869,0,-0.7071269969245033,0,-0.1989144803866626,0,-0.5486588983263615,0],[-0.0534366880600714,0,-0.15805886870892094,0,-0.03414156521228129,0,0.5963823140584172,0],[0.9154440948648173,0,-0.028969870339332515,0,0.869928820928282,0,0.4071247582161859,0],[-0.8338826761191276,0,-0.06647624272102648,0,-0.33875146553013713,0,-0.9610472649411197,0],[0.41808899215827266,0,0.8012786695691645,0,0.5422504661374941,0,0.3821281157382763,0],[-0.14848463032849768,0,-0.49053710647152926,0,0.6394193124268175,0,0.8429503601676935,0],[-0.7265638979396002,0,-0.7571731012818136,0,0.7906651709409562,0,0.06940694627496269,0],[0.3510104996712795,0,0.38563623859902995,0,0.4907954128487826,0,-0.9914178908281533,0],[0.9811541731509437,0,-0.02180215639161387,0,0.9092081607421678,0,0.4350455101950641,0],[0.8210510071650063,0,0.9061154321712905,0,-0.3697406215518372,0,0.4038947185585373,0],[-0.9784064416160985,0,-0.10588799365842116,0,-0.4344169507606107,0,-0.04092066269951766,0],[0.2858834221333515,0,-0.2155385859296508,0,0.3489724304575521,0,0.8670868875511966,0],[0.5175009207619925,0,0.5507732715449549,0,-0.5517414152836009,0,-0.8519753024380563,0],[0.5283318179301664,0,-0.9689208880357426,0,0.2149500919654148,0,-0.2594159829901934,0],[-0.4566833268060392,0,-0.5401293117233904,0,-0.8587736012203107,0,0.7643268780773069,0],[-0.43043330469219576,0,-0.46305564615913086,0,0.7052052307833001,0,0.5321882184378301,0],[-0.9101318568329135,0,-0.00839137000260226,0,-0.640767642049685,0,0.7180399528079913,0],[-0.004324658949887983,0,-0.6159846313503395,0,0.45227089314744573,0,0.8986159313366691,0],[-0.807729452378265,0,0.23107767550663238,0,-0.8237058777560962,0,-0.9339495179453741,0],[-0.11115317120324153,0,-0.547358713076085,0,0.987915690713117,0,-0.3532641365971223,0],[-0.7711512685925836,0,-0.39572111471001003,0,0.38031732488252356,0,-0.9358423431358787,0],[0.6209832687459271,0,-0.6037197791632691,0,-0.6331360741199742,0,0.9478195247538195,0],[0.8988915833438305,0,0.5941138385288882,0,0.5866228506120463,0,0.7173224966926188,0],[0.26755079419400096,0,-0.446160582537369,0,0.553333091247306,0,0.4601169440171229,0],[0.8870522695308876,0,-0.633347006539017,0,0.24319776832973794,0,-0.2266017942654136,0],[-0.10051795193853707,0,0.8699500274453298,0,0.9532014274252876,0,0.5550702323503982,0],[0.7222062500852395,0,-0.37200498798746284,0,-0.839517611954872,0,-0.3943451300627778,0],[0.5109429644596402,0,-0.6065110991129499,0,0.9746175566043544,0,0.34247711383999446,0],[-0.16142001202068223,0,0.5320291420057284,0,0.6985060053294738,0,-0.07058976496801616,0],[0.8407763013515133,0,0.42465994520936556,0,0.9998654050993594,0,0.6899173640167358,0],[0.3469624875237649,0,-0.04058633705990222,0,0.24418366171584038,0,0.798079695448342,0],[0.8454345330967043,0,-0.11905243144033173,0,-0.3487039179074165,0,0.9317542525856788,0],[0.5238124892128659,0,0.9880825408052734,0,-0.8884133444315395,0,0.8239575101130585,0],[0.08121437266934928,0,0.9522547360626559,0,-0.2658599902498978,0,0.4630239246572496,0],[0.5260735553314211,0,-0.1244071714624132,0,-0.5020009053694983,0,-0.9309577814621064,0],[0.7536056142953553,0,0.6155379911275896,0,-0.2609888567020954,0,0.9135246601146074,0],[0.3395097463827903,0,0.37362565048172103,0,0.6285731875159937,0,0.551218206143818,0],[-0.30843332194354467,0,-0.9207477999212897,0,-0.7130837143400213,0,-0.9025808534297319,0],[0.46837430900106636,0,-0.30504741523631895,0,0.7223955281021406,0,-0.18889352581897678,0],[0.00453955465814504,0,-0.27208281394495115,0,-0.6004183592814842,0,-0.5663382721014178,0],[0.37422375503214633,0,-0.04681909966557951,0,-0.0872228479558339,0,-0.5151032952461685,0],[-0.31998368415792466,0,-0.36288092249775105,0,0.9779093937316094,0,-0.9674365863801917,0],[0.17169014732742527,0,-0.604410902488034,0,-0.24542037318051413,0,-0.6715266589663228,0],[0.8794700451021769,0,-0.7707413361374964,0,-0.6286234997784931,0,-0.856192844985241,0],[-0.4109763633412473,0,0.24936606722033838,0,-0.5486101870376698,0,-0.36185199586274097,0],[0.19046239143799348,0,0.14035933791606458,0,-0.5788114610759906,0,-0.838774325943136,0],[0.7012183111675423,0,0.5015660553605943,0,-0.5646442111363902,0,-0.48668893638942145,0],[0.5927405039469544,0,0.8682471036449437,0,-0.13999925694314141,0,-0.12034537328789307,0],[-0.5564667835078426,0,-0.5669081242056432,0,-0.5675036839731763,0,0.9063144073244869,0],[0.3961356468466093,0,0.27241513221471303,0,0.4510191325529287,0,-0.8008266207568995,0],[-0.5867782802548299,0,-0.7729811510521978,0,0.6462965681228026,0,-0.09510163071651556,0],[0.9080761111675235,0,-0.5041145432962626,0,-0.25070613103335837,0,-0.027953977394434615,0],[-0.032718887262480845,0,-0.5284276508992765,0,0.1924023442718954,0,-0.8075250717913794,0],[-0.9114731953357548,0,-0.6206198533852907,0,-0.13198240076276713,0,0.187675015332184,0],[-0.8759646480503136,0,-0.1219291512272237,0,0.4172255569516139,0,0.1315799938352078,0],[-0.049831766957409984,0,0.9381146198530486,0,-0.8673589186193603,0,0.1908801172449992,0],[0.2763633298358137,0,-0.9658524555628006,0,0.2332732671124118,0,-0.5841929497516114,0],[-0.038372872609216735,0,0.9715255002622625,0,0.005618731633769691,0,0.12881489263262002,0],[0.22438506087081933,0,-0.4874374213660123,0,0.10401284083277184,0,-0.264465213067243,0],[-0.7884285765378736,0,-0.6237544780613679,0,0.1645966617943997,0,-0.6781663386997596,0],[0.5354184078944342,0,0.15591878625061684,0,0.8110858204712459,0,0.4027611284201005,0],[0.5914818104438231,0,-0.7673619253201593,0,-0.883144623106109,0,-0.246379248554358,0],[0.739018903525573,0,0.8575931067021667,0,0.6366828536786231,0,0.38035624105740306,0],[0.7549128603334372,0,-0.7647962497711248,0,-0.7671798882721007,0,0.3758952680453107,0],[0.3649149569248298,0,-0.34080356668324885,0,0.09389229557960865,0,0.6610470842413689,0],[0.11105556067684663,0,0.5371714613160772,0,0.5814508050189135,0,-0.576996478723518,0],[-0.6683488875627752,0,0.4848741534168117,0,-0.16216513525990261,0,-0.5585543698438146,0],[-0.389585626452126,0,0.5795867092275078,0,-0.5496753475171012,0,0.43171144204015466,0],[0.693751821756345,0,0.33276012805043775,0,-0.10960290511071013,0,0.03643383345085338,0],[0.5804109191949376,0,0.9752092813298638,0,0.9332234387395539,0,0.16150995612533547,0],[0.25521823967981216,0,-0.7561035084768576,0,0.8113757767482244,0,-0.02078256236010556,0],[0.36872692294717035,0,-0.9824667849495695,0,0.4680382391611704,0,-0.8892546613942542,0],[0.05717055725128861,0,0.8689315950011647,0,-0.05115397982474157,0,0.2523610663644149,0],[-0.9478010515115598,0,0.8852411234777873,0,-0.2921958688161439,0,-0.17611257684829207,0],[-0.7525517890044077,0,-0.047090966869732576,0,0.4015656152678182,0,0.09511755801526744,0],[0.9690774443330095,0,-0.8875943032699819,0,0.6076771261965064,0,0.6852479337176034,0],[0.33998071301014,0,-0.44154021263153753,0,0.8262278532443668,0,-0.6676365073336127,0],[-0.6675375745544043,0,-0.6052491606654126,0,0.11066605838882859,0,-0.6055385368896716,0],[-0.6282584923254909,0,-0.6522897165843999,0,0.7223754931964914,0,0.670453817665982,0],[0.682728488202919,0,0.3022847287754109,0,0.314931887542961,0,0.819041730977591,0],[0.9650972495640504,0,0.743218761516701,0,0.3277885049216418,0,0.9053077965051308,0],[0.43675160729937445,0,-0.031382483778394143,0,-0.49453313842264623,0,0.41932557866624975,0],[-0.19663486070265756,0,-0.7117476229576393,0,0.7571578343421588,0,0.48803903084928457,0],[-0.7082498777787319,0,0.32727618556144366,0,-0.06703402652429102,0,0.9411169684110892,0],[0.5273907342551576,0,-0.973282160094962,0,0.5168577844682267,0,-0.6065581972960389,0],[0.741552473650962,0,-0.03467120743290408,0,0.7227034936857735,0,0.5713438540861615,0],[0.5609588634501552,0,0.22305755572913455,0,-0.9713704808192926,0,-0.26335347614697146,0],[0.46310434329453165,0,-0.8353690644101811,0,0.7962267071469768,0,-0.7479597568668397,0],[0.8728499368250984,0,0.24242442751097304,0,0.2949883647478777,0,0.08325642778216635,0],[0.8310273477123462,0,-0.798993253333607,0,-0.8113204459246761,0,0.3479657879077269,0],[0.18335422610474472,0,-0.08855283107213063,0,0.33916708107589954,0,0.8982783433799584,0],[0.31804215571300886,0,0.4716769042591771,0,0.6445688177545925,0,-0.636824215148297,0],[0.6230568619646268,0,0.1798992358783389,0,0.5524077105518201,0,-0.9208400983039549,0],[0.03906823204413756,0,0.5212463066878805,0,0.8747849698663812,0,-0.09814626653228375,0],[-0.6482943298435435,0,0.4035832497643801,0,-0.41858523492520216,0,0.018245649970341393,0],[0.19681298008287218,0,-0.4634362787891031,0,0.35769054757605523,0,-0.4312808825627278,0],[-0.855025535306506,0,0.06874404144960921,0,0.8887819344512584,0,0.1399646104772585,0],[-0.31333750628983137,0,-0.6192339149327937,0,0.0670883740728101,0,-0.9956771048651297,0],[-0.5430654310638673,0,0.278322375668715,0,-0.3807951393171596,0,-0.6419381149411871,0],[0.6186866538188669,0,0.7368198404919173,0,-0.9901178682975464,0,-0.24945679458288206,0],[-0.033953391013665235,0,-0.17963805907038732,0,0.9042926903140516,0,-0.6018135221878949,0],[0.014571025508746338,0,-0.5691281913469016,0,-0.043758154739714006,0,-0.8584062911158565,0],[-0.8875145082078052,0,-0.8611176871157155,0,0.2387906587958597,0,0.4311483316858258,0],[-0.5627121332645308,0,-0.4942778143113524,0,0.24508679203325778,0,0.9158571971521465,0],[0.6346107688334643,0,0.02753009623007685,0,-0.9389737225288964,0,0.9621566396925636,0],[-0.18868094535609214,0,-0.8852678714620519,0,-0.9523018050068915,0,0.7438568381803221,0],[-0.38760493317868616,0,-0.6336790394319861,0,-0.8296081832777981,0,0.4213521359189276,0],[-0.8087568267024671,0,-0.1935217172209408,0,0.972274372191861,0,0.36767763803693753,0],[0.025623061954647363,0,-0.27821500865325577,0,0.11467521630279465,0,0.40094589642683775,0],[-0.2635006172301547,0,0.2704670703434775,0,0.392240750915438,0,0.5471505989065033,0],[0.33467335879128024,0,0.1308278552518385,0,0.1800523026583054,0,0.9842769454460603,0],[0.650140469771717,0,0.1142208583512212,0,-0.6188727070130985,0,-0.49188791333240944,0],[0.09169590673848793,0,0.8886202235207967,0,0.1165524964111262,0,-0.887898527377171,0],[0.33938794564978924,0,-0.2579511358088272,0,0.6368257025221853,0,0.08805086549150065,0],[-0.91000239420612,0,0.6608281537091589,0,-0.768189207042135,0,0.4314258896693981,0],[-0.4441990711718865,0,0.9058150149469846,0,-0.7219608661068303,0,-0.7255446499557632,0],[-0.9405519136594035,0,0.7404966722224038,0,-0.014081793195062975,0,0.5721963459148567,0],[-0.22712774877710462,0,0.9980153853254796,0,-0.10426325115077073,0,0.33117352529140165,0],[0.41571875421203286,0,-0.2301007940150377,0,-0.2798164405525121,0,0.2971572067735311,0],[-0.44113651155037836,0,0.6574777972663042,0,-0.2575743904158958,0,0.20809818134602653,0],[-0.9288326981030709,0,0.7476653514301925,0,0.6526187045603837,0,-0.5298089971274053,0],[0.20269192866933383,0,0.7579959148171205,0,-0.5579474676292946,0,-0.5705104666206633,0],[0.8151801288995206,0,0.6414994876216109,0,-0.22704004145245382,0,-0.71154772810117,0],[0.3506817982915238,0,-0.6497896048986457,0,-0.8966517977138049,0,0.15624846263033087,0],[-0.7282146286855181,0,-0.5731973900694843,0,0.7700382400002983,0,0.7236078828625432,0],[-0.08800791862242474,0,-0.37295034006921457,0,0.21942634501329938,0,0.6174521132580506,0],[-0.05765111322618477,0,-0.1284898779517012,0,0.6243102167244254,0,-0.3825037575131641,0],[-0.009466190244225458,0,0.4830427073289598,0,0.23645009977800768,0,0.6064648650055802,0],[-0.6588342467356167,0,-0.11254213409896796,0,-0.001636805145385778,0,-0.6224819148210535,0],[0.10118889992149205,0,-0.2621834799328615,0,-0.8258215882386458,0,-0.7630630545891223,0],[0.7317598142377535,0,-0.2314110590198899,0,-0.9417940183392546,0,0.7170710004227023,0],[0.42814355529458936,0,0.5940905128304976,0,0.18120477430995274,0,0.6540031576410903,0],[0.47170365714769913,0,-0.8636860720673369,0,0.8581586428292227,0,0.38634068962143963,0],[-0.6168520253684722,0,0.4004805527645541,0,0.4077007444022085,0,-0.10400554292796604,0],[-0.5262283155031059,0,0.9123368816610047,0,0.9221530952511685,0,-0.6612391694410491,0],[-0.778484190152674,0,-0.7105749230240799,0,-0.9215229838197089,0,-0.3980253186738608,0],[0.7912386421764066,0,0.13925967152192786,0,0.1542575827605388,0,-0.7215453467334755,0],[0.9736749575826491,0,0.760545774682134,0,0.14917427483912293,0,0.7604148465155731,0],[0.8351361524208172,0,-0.030722913970822052,0,0.7112371174150192,0,-0.9660296039637188,0],[0.4500829266055042,0,0.7797552905294445,0,-0.5716035258785691,0,-0.8056822162095816,0],[0.23127975772359988,0,-0.35872466819602333,0,0.9699625984866267,0,0.7036230822671969,0],[-0.4226812248352464,0,0.46442458813665066,0,0.548598871468823,0,-0.021894567918923857,0],[0.8248790006838489,0,-0.2333536483724895,0,0.22248116114145988,0,0.01775537547988626,0],[-0.17683560900165474,0,-0.07507771117715511,0,0.6685436950459436,0,0.4815813152656052,0],[-0.1594569613215897,0,0.7441303156687751,0,0.23155996778661825,0,-0.13677003936288634,0],[0.9684874433895998,0,-0.6671613381699402,0,-0.7098646032919494,0,-0.7637193089854749,0],[0.705494117164823,0,0.623999165227102,0,-0.7204836706601358,0,0.41546554600443563,0],[0.9837387427215454,0,-0.21379341155074882,0,0.07244859609707,0,0.31952095169785854,0],[0.5438017357852565,0,-0.7581066828063967,0,0.8431463321471402,0,-0.17667034360573874,0],[-0.7321238046383842,0,-0.9579677267818355,0,0.025760602881248484,0,-0.5485353322506099,0],[0.8494497044169802,0,-0.057375807495977926,0,-0.4724353433621563,0,-0.10779978482982133,0],[0.0075280967772783924,0,-0.3135522361708054,0,0.9684015850705516,0,0.5005078315211775,0],[0.346048796679681,0,0.7142551759761229,0,-0.6082320800948362,0,-0.2894914431363791,0],[0.9142082412875514,0,-0.18720174591853633,0,0.6292344417862843,0,-0.40769413661335563,0],[-0.45899273489961245,0,-0.947226724076659,0,0.29873442946705353,0,0.6650764414744217,0],[-0.9026048929367603,0,0.7779764326809035,0,-0.7214228868590446,0,0.5177497220584573,0],[0.9819720372050309,0,-0.6223358569081135,0,0.4228721663050887,0,0.7905594962404949,0],[0.3312879747604589,0,-0.8926837214721395,0,0.27037979538879364,0,-0.36479525206526464,0],[-0.27664718051550663,0,0.3187029482810215,0,-0.45237176538593193,0,0.8983095292883214,0],[0.4730523203566621,0,0.11835904958374765,0,-0.6215304518662215,0,0.9623247826054742,0],[-0.9892583024638225,0,-0.3057264676754522,0,0.28607181242644586,0,-0.5700314939720761,0],[0.29036673707671245,0,-0.6661961861978001,0,0.30967473940385126,0,0.6527537090449975,0],[0.6910408542097208,0,-0.4984715604480705,0,0.8572632221462642,0,-0.5188938813860446,0],[-0.5439156248212749,0,0.25395496374244897,0,0.27664188243339493,0,0.553027648526307,0],[0.3561105842759513,0,-0.26129787825277906,0,-0.4487783456544284,0,-0.059785821079166856,0],[-0.032179016876127786,0,-0.44102052686768833,0,0.013157421721357476,0,-0.9650106000103957,0],[-0.27224939257267433,0,0.3798901695933825,0,-0.4846959031972261,0,-0.8116303166028405,0],[-0.24971772187044927,0,-0.6887139684753005,0,-0.8852132683655375,0,-0.20097172405553665,0],[-0.7081733877402222,0,-0.6773932680397164,0,0.9948077115632583,0,0.3048794598723965,0],[-0.3018569499949292,0,0.22833888237026967,0,0.08764326510249587,0,-0.15654226724878073,0],[0.6893549808901627,0,0.6284327788583017,0,0.6606085472778633,0,-0.7757812859323894,0],[-0.08270951959989026,0,0.5962187465192872,0,0.9880997803989806,0,0.29534297333499104,0],[0.8723579472341867,0,-0.12293235591270302,0,0.15664879234663553,0,-0.21042399409635293,0],[-0.5777556578645947,0,-0.10575688741706846,0,-0.963745245082415,0,0.2980914044656364,0],[0.5323017884217172,0,-0.04590344444306482,0,0.5000850910449937,0,0.14831718942538496,0],[0.04756629997561612,0,0.7009589094664694,0,0.08596592138815895,0,0.6511181937122932,0],[-0.19106943685531197,0,-0.9072137608691473,0,-0.5330892832443929,0,-0.5653191312128241,0],[-0.16892889582630954,0,0.9518194774260804,0,-0.6657361806240984,0,0.39689968154592714,0],[0.7873077207430121,0,-0.5097784352590446,0,-0.4041364492115933,0,0.18501768805127972,0],[-0.37334807950158655,0,-0.8811412587969563,0,-0.8470422629081882,0,0.0507267223351886,0],[0.7908783853963572,0,-0.6819046719250752,0,0.9434329812870006,0,0.4308860295961412,0],[-0.7954674491784267,0,-0.6173250290263463,0,0.42524646697135093,0,-0.33152902952067986,0],[0.9783645721719743,0,-0.5515359602743212,0,-0.7772221430315768,0,-0.08468309172710031,0],[-0.40324114496836094,0,0.36703650567734813,0,0.2701465406221082,0,0.4476762673798027,0],[-0.7476941214738907,0,0.7147818672599218,0,0.4593679172905005,0,-0.6224399971923753,0],[0.9457417483707811,0,-0.49357785516361785,0,-0.46244978986479434,0,-0.9427123238920929,0],[0.987058213482999,0,0.028525460533499913,0,-0.20383838389528264,0,0.3516238127533451,0],[-0.3863351029245873,0,-0.3831914091198818,0,-0.043274061781215734,0,0.39133080375757423,0],[-0.41593691426276613,0,0.17172218569030928,0,0.5811323357057798,0,-0.5760777375310243,0],[0.8105686743037976,0,0.740017417119256,0,-0.6789262687964699,0,0.941853712471632,0],[-0.6378001733610259,0,0.5856939989835721,0,0.3699559008851767,0,-0.6046598630678189,0],[-0.5010763294057443,0,0.8319342041534021,0,-0.4080521833917371,0,-0.5135558589128401,0],[-0.20896667853812767,0,0.9763298062311905,0,0.976671680472573,0,0.29303009554637227,0],[0.8325059690380261,0,-0.6350878962095354,0,-0.695640739914133,0,0.2856343458385906,0],[0.5747698260788558,0,0.05619856139573942,0,0.20512970168460742,0,-0.32274652261447423,0],[-0.11261351151690291,0,0.41467252541533295,0,0.1573709265800376,0,0.48550618520680855,0],[-0.40526681832469113,0,0.24381565952816553,0,-0.6059633317380516,0,0.18857778559804972,0],[0.9428472829558965,0,0.30201559876710315,0,0.1719973432602213,0,-0.07919122029542136,0],[0.21817417598815636,0,-0.3596247424546416,0,-0.5915871765735545,0,0.7807428185442253,0],[-0.9299630409438755,0,-0.6403477487544604,0,0.2994219212192877,0,0.013901602654565525,0],[0.9812252221393618,0,-0.8957391975908164,0,0.21027255608981177,0,0.5845085514552919,0],[-0.7138221165552177,0,-0.10552860437835998,0,-0.1376559288504331,0,0.9648349676718233,0],[-0.846186754886629,0,0.7436464821335305,0,-0.3586587051573007,0,0.8477966542323085,0],[-0.9678622331362288,0,0.9155537607991906,0,0.712268781740502,0,0.9278810147761778,0],[0.1943429692987524,0,0.6475017972305745,0,-0.4493793133646461,0,0.8974387864257696,0],[0.2311778572228631,0,0.6982454666214077,0,0.4855509054409062,0,-0.6301729062088429,0],[-0.3980368381325543,0,-0.8246876817999013,0,-0.10038468751613316,0,0.5678435326623661,0],[-0.3133096047523579,0,0.7546037470874802,0,-0.15899300399944405,0,-0.6946553306933677,0],[0.1742285693042489,0,0.6258282976818488,0,-0.02196732365711107,0,0.041894963097672155,0],[-0.9232620547961731,0,-0.7194729487448185,0,-0.9380930352141474,0,-0.395254450995723,0],[0.1779696473745387,0,0.6051545977555386,0,0.3627696077201161,0,0.549395106844246,0],[0.3032068891131261,0,0.6498823657786199,0,-0.09484192009068482,0,-0.9305613286182827,0],[0.4411829037992414,0,-0.08550655545370933,0,-0.24700289525394547,0,-0.13163716133381276,0],[0.4533876746242922,0,0.025942070313681675,0,-0.9195061342597156,0,0.47039930682854325,0],[0.8737543488058228,0,0.27785341846606126,0,-0.6858436068040756,0,-0.9254982723400408,0],[-0.8682056044728263,0,0.6604428195629497,0,0.24248047899066227,0,-0.7550363377791038,0],[-0.5751718349808431,0,-0.26996350227736043,0,-0.3363213620408534,0,-0.5158506592380645,0],[-0.5799639209934111,0,-0.049420946234707164,0,-0.12184715672841562,0,0.04726097395579876,0],[0.9846337400615497,0,-0.01478390595980561,0,0.13124073227597988,0,-0.7639795172527423,0],[0.22255220646975937,0,0.8242435345443622,0,0.9730932300735615,0,0.8475959976355583,0],[0.23858291255546415,0,0.6064182334990833,0,0.4263697278966223,0,-0.5429431120877968,0],[0.2560250134074811,0,-0.47617251443055075,0,0.8387647245281755,0,0.7760940910821161,0],[0.9814504333371856,0,-0.7037812903198106,0,-0.6537915269566187,0,0.4576958078517477,0],[0.4402811025733495,0,-0.6411072278041571,0,-0.016088011767610766,0,0.4059214338132273,0],[0.8994497533452961,0,0.1289685333848547,0,-0.3437452394391015,0,0.9018701520855517,0],[-0.05150524052097438,0,0.49802866228523745,0,-0.5871579072303228,0,-0.32860683174379024,0],[-0.6719830015688332,0,0.04486009633374177,0,0.7768866797949077,0,-0.6029475305181351,0],[-0.32549454766420504,0,0.37020571413203784,0,0.23339748603175314,0,-0.8837186423693687,0],[-0.00688464568595426,0,0.4261467828976242,0,-0.591513324249811,0,0.4496554346831574,0],[-0.6249376847776611,0,-0.25406089727188263,0,-0.04256590405690275,0,0.6676360896680653,0],[-0.7561275835458566,0,-0.9241716495941055,0,0.7279765098792936,0,-0.7688987607583215,0],[-0.7551924025799298,0,0.06857414635870906,0,0.3766166411426397,0,0.6304314050334383,0],[0.7843631229470662,0,0.41911456621662424,0,-0.7104238300549103,0,0.09987246971236963,0],[-0.8181878764348874,0,0.10600639691605118,0,0.39634381794867757,0,0.09834911884578345,0],[0.4123507432566178,0,0.24797981697473936,0,-0.7374013821651021,0,0.32485686496074883,0],[-0.49852514068301556,0,0.49314861633921403,0,-0.28938394844043036,0,0.47601274315414477,0],[0.772798220514344,0,-0.17087911233049435,0,0.1390933408128796,0,0.9552986913953858,0],[-0.6434007229842205,0,-0.7645423790350851,0,-0.2993420928784163,0,0.30798422858915764,0],[0.6339626605778141,0,0.6956306184672993,0,0.5441510793761854,0,-0.7173312813993466,0],[-0.37854098909132594,0,-0.2561670488806992,0,0.44010804978211193,0,0.10983571069430842,0],[-0.3061147567757272,0,-0.05730005759533152,0,-0.7183180851094317,0,-0.16023389222592121,0],[-0.502334779253926,0,-0.5287997789243607,0,-0.8104110090793356,0,0.39660913561959354,0],[0.4250891922094566,0,0.3476606319380475,0,-0.7515201424192377,0,-0.6176362143379498,0],[0.5996482352846164,0,-0.27890849841133835,0,0.2634692638066949,0,0.6039759879344801,0],[0.9652982360304061,0,0.1346814586008067,0,0.34938576787404995,0,-0.20128939105238097,0],[0.7775659764537264,0,-0.30146468554097894,0,0.6516304074377013,0,-0.9025902953297525,0],[-0.43801190073547724,0,-0.295569928587745,0,0.04636159521012706,0,-0.6077977133350745,0],[0.43545162396423187,0,0.373568658393836,0,0.2790515433676837,0,0.9646833485259005,0],[-0.42141661073153114,0,-0.8509866793589744,0,0.6742881621964529,0,-0.5174662379030397,0],[0.6024129391593567,0,0.2276836530673596,0,0.2860234995963111,0,0.7870048933797329,0],[0.5701126788794866,0,0.8725083251168761,0,-0.8437008868562479,0,-0.2293543151671369,0],[0.5146961176685221,0,-0.5464788613086411,0,-0.7881943387903476,0,0.08410279189828262,0],[-0.563865991658299,0,0.13739686813230323,0,-0.7485365439734706,0,0.4127771305490868,0],[0.9664260010684089,0,-0.3218759957362375,0,-0.5354625801135682,0,-0.37142582906582666,0],[0.15874325692269453,0,0.8572156361948435,0,0.967629309452684,0,-0.7510626294460194,0],[0.18683600139945722,0,0.7800624402441263,0,0.9602172156961519,0,-0.6751917276494784,0],[-0.8665217592577303,0,0.4557347292092633,0,0.2722412017306963,0,-0.8688908905695548,0],[-0.4982006622257513,0,0.8707439260773779,0,-0.6864386363219881,0,0.8477975371174693,0],[-0.3990691989858294,0,0.11297702340573923,0,0.7339435410690562,0,0.7964955979354378,0],[0.5374748718707252,0,0.010220081259169067,0,0.46355521904270547,0,0.7371488981644554,0],[-0.8131208791755052,0,-0.7816090875492222,0,-0.77221722464024,0,-0.768875774244504,0],[0.22387956622978744,0,0.7278032872218392,0,0.11650938757608964,0,0.14160783629597695,0],[-0.9412465340298659,0,-0.6485112229110255,0,0.33682057000789744,0,-0.03088090186538983,0],[0.3562001294439039,0,0.9178052161849015,0,0.8894331104037145,0,-0.09059243651121873,0],[-0.29375288140559596,0,-0.38973623909356925,0,0.5829706638201939,0,0.27295495510444656,0],[0.9716565799614321,0,-0.8192899673119746,0,0.5365377159597191,0,0.21975586552649595,0],[0.8538853936693949,0,-0.39230250686343115,0,0.11987191767904082,0,0.6400051534000934,0],[-0.7002700724851646,0,-0.8199053054769315,0,-0.8583176646256923,0,0.45077221415879664,0],[-0.48663471062683683,0,0.9566710157241967,0,0.020609955244554,0,0.5806960176372669,0],[0.5435666517434297,0,0.08560864939655177,0,-0.3404255015481641,0,-0.5208123714129424,0],[0.6834779834084665,0,0.5635915779203082,0,-0.20690015664402284,0,-0.8864198160234006,0],[-0.7496274281003822,0,0.6723258085245538,0,0.6885382907414514,0,-0.8928804984171893,0],[-0.29457308742432586,0,-0.44895227301318063,0,0.25594262115689625,0,0.9226412950050147,0],[0.5286082284156999,0,-0.8532190331684587,0,0.8576621002764546,0,-0.1887655562643331,0],[-0.2186461660889304,0,0.12980521672269996,0,-0.5924322990675124,0,-0.37785723408264215,0],[0.8697986756940219,0,-0.7299967098152073,0,0.7111389995627775,0,0.5096109662562527,0],[0.6638854631421487,0,-0.7595436662459485,0,-0.5785258491510538,0,0.07433297327770294,0],[0.8327700974701933,0,-0.15214044657400205,0,0.47261188825028766,0,0.541615242095328,0],[-0.9754869633829372,0,0.2850348876281097,0,-0.5996170950649445,0,0.20531926606854234,0],[0.34812548101046436,0,-0.84098091346999,0,0.5723360173842245,0,0.5561017285517402,0],[-0.49138261499076685,0,0.7689096211159159,0,-0.9778872906696312,0,-0.7355764548119447,0],[-0.09922778402158805,0,0.39085368634704243,0,0.3199714900570516,0,-0.49674833983762134,0],[-0.015047948781202302,0,0.1732684283246635,0,0.7099922301195765,0,-0.027668211248089713,0],[-0.6516861234162404,0,0.6535843245984192,0,0.6058180091807466,0,-0.5746382759619931,0],[0.9973969886178531,0,0.8785058464518278,0,0.460620736896755,0,0.5033499489848388,0],[0.6331188069793283,0,0.6429875892072012,0,-0.9866953614368378,0,0.24189536764459318,0],[-0.07320497811613236,0,-0.5411735602499252,0,-0.03821011576337907,0,0.747078873729917,0],[-0.85412213462351,0,0.5219740696134094,0,0.22554682565674078,0,-0.7758906433321788,0],[0.8706841951640918,0,0.1683764893809987,0,-0.8666207787166765,0,-0.2051794482990793,0],[0.9984641182084681,0,0.091351407088331,0,-0.8912165850896885,0,0.35456801060865883,0],[-0.25126229447239545,0,0.939216376758687,0,0.7240377951717045,0,0.09602850586904488,0],[-0.03609345076077708,0,-0.17991559303785753,0,0.35550596714747984,0,-0.7331423333075581,0],[0.641724628404208,0,0.7114465583488931,0,-0.9035357226741131,0,0.23011435843787042,0],[0.34129073140945154,0,-0.1946354163979508,0,-0.9299069680540499,0,-0.039186282217034685,0],[-0.1281963529431277,0,-0.5842009796640736,0,-0.16590147775750086,0,0.7389236674693516,0],[0.5033986082738289,0,0.23280203424407486,0,-0.8202383190092893,0,-0.01142691964216025,0],[0.8319621210690109,0,0.42900731228870725,0,-0.6979636603971111,0,-0.03480714255096862,0],[0.3849001614576699,0,-0.5929483376615876,0,-0.9463508792612227,0,-0.6932359715453232,0],[-0.9275867502143289,0,-0.17773261648577188,0,-0.20501924559991835,0,-0.657699574190353,0],[0.6689092376470005,0,-0.07681349504956247,0,0.21283646140042256,0,0.49014655511816496,0],[-0.34823614804556213,0,-0.7768984461799351,0,0.4050417668928339,0,0.0806243147565513,0],[-0.07028384492196615,0,0.049130743670843024,0,-0.48587244256786,0,0.5020152345105004,0],[-0.7392350561895724,0,-0.3890615541287913,0,0.24219714946506077,0,-0.30418152604807413,0],[0.48950965361267906,0,-0.11053530090842267,0,-0.3096048916950255,0,0.7166773364333032,0],[0.12645801683078073,0,-0.13327870718074952,0,-0.8597729105848905,0,-0.6756793401365968,0],[0.24690041348530545,0,0.4009143659493033,0,-0.36969329622452906,0,0.38931851660076955,0],[-0.7954708398498721,0,0.39685691939796097,0,-0.519065254633419,0,-0.7285957336339265,0],[0.235059056984682,0,-0.17016190553313282,0,0.280243218489713,0,-0.7314309793232894,0],[0.6676838171037271,0,0.6518181454394323,0,-0.7305343768172805,0,0.7370867166912338,0],[0.16728074639760093,0,0.6420227887299763,0,0.5512221730924733,0,-0.4529178184771617,0],[0.19785453695658717,0,-0.14028808254460046,0,-0.9064620938687012,0,0.16520651840685718,0],[0.7277890913124339,0,0.5151022648824799,0,0.11363831020975778,0,-0.15456162136105056,0],[0.09005413130566264,0,0.7951259246884894,0,0.09939660792911886,0,-0.8390179296833125,0],[-0.1344081265101026,0,-0.5360899866824188,0,0.46263418874127993,0,0.42468669372778933,0],[0.6756869314895619,0,0.9035658488158251,0,0.6173036908636251,0,-0.5776357738946116,0],[0.8492008628150236,0,-0.330920835889432,0,0.13691318639217975,0,-0.6771634701550137,0],[0.07313056394343498,0,-0.3982039739385279,0,-0.43062306433562314,0,0.6304953832416857,0],[0.34002861251722294,0,-0.9207979734697406,0,0.4738072891974259,0,-0.3893878045233533,0],[0.7734006641620001,0,-0.9256040385272002,0,-0.7074101680182542,0,-0.2554126074604247,0],[-0.7577256641909229,0,0.3568616069939847,0,0.7834122293315726,0,0.4617825049381601,0],[0.06871110267057112,0,0.3868450941376338,0,0.9097452388926701,0,0.6465311537470852,0],[-0.41288838943027517,0,-0.761152218222904,0,0.3246026703322764,0,-0.7666217302230646,0],[-0.16825764026612377,0,-0.7645516053416977,0,-0.11876495296205935,0,-0.4194500682076595,0],[-0.791009620698077,0,0.8808704915889285,0,0.9657396806552754,0,0.25110963571507216,0],[-0.3465698471840435,0,0.15441535012164653,0,-0.12960144544205754,0,0.33320916219887353,0],[0.471865551404389,0,-0.7429174774324986,0,0.9128829786223991,0,0.4952965346954543,0],[-0.15291265159829126,0,0.5004046124072934,0,-0.44470799550183504,0,-0.4009046609065271,0],[-0.19683484072374813,0,-0.8152756027329373,0,0.3883208080785048,0,0.8826240501050828,0],[-0.6733288495653548,0,0.034847245052870734,0,-0.48031839902936624,0,-0.5225238640796769,0],[-0.7066900791902039,0,-0.9557963056783839,0,0.64222948823465,0,0.33903555495720083,0],[-0.13299152967842953,0,0.4243604496376907,0,0.8560727721175405,0,0.5452547024620178,0],[0.11859725664587506,0,0.7649216705358175,0,0.18027544485933156,0,0.3590760097018917,0],[0.7537917017267441,0,-0.5204351366342244,0,-0.38641178676993637,0,-0.5484698383786725,0],[0.045262113937079684,0,0.14715925821722076,0,0.5899720568677496,0,0.24699816768799776,0],[0.33115749963242513,0,-0.5473824155187649,0,-0.27649333404463017,0,-0.5209227131827935,0],[-0.22747306281212065,0,-0.9096648300597696,0,0.8486039839098891,0,-0.2650564242428587,0],[-0.5453388629343442,0,-0.7862264819920361,0,-0.4647242507442475,0,-0.9819425345946905,0],[-0.6275466311151773,0,-0.20205134705768557,0,-0.5044687133443595,0,0.17351163208275122,0],[0.35745883780250365,0,0.6272875635251236,0,-0.40418935840929593,0,-0.6027263913984652,0],[0.584408311058656,0,-0.4704807546367703,0,0.5516859234213627,0,-0.009971314407569043,0],[0.9375106211967159,0,-0.053029904090654556,0,-0.19510842019140972,0,0.01828170191473144,0],[-0.7780432557730681,0,0.9698361286818744,0,-0.43092670008544,0,0.6098298504907011,0],[0.9736160499934265,0,-0.44829171689314406,0,0.5794723094948515,0,-0.7623290065345849,0],[0.4499936740886481,0,-0.21417048948209472,0,0.6930909118486936,0,-0.46413399549181056,0],[-0.721904262350165,0,-0.15873421127598675,0,-0.8402876594953125,0,-0.05717410582375981,0],[0.18992799730025633,0,-0.5586233603966818,0,0.12047713718440778,0,-0.21805152696904861,0],[-0.7060694186596003,0,-0.38732691687550935,0,0.68954522438354,0,-0.7335183606348619,0],[0.410730544945876,0,-0.15964515016177638,0,-0.16429774499790362,0,-0.6450560056041381,0],[-0.855828340875142,0,-0.2624786346929904,0,0.2045955211388133,0,0.38538658456119035,0],[0.5636588193595688,0,0.8682542128842763,0,0.008614412485961065,0,0.9812322673400864,0],[0.6414331225350591,0,-0.5395278968149781,0,0.1602568732318237,0,0.8483831776235688,0],[-0.08152884770091606,0,0.4026621589570851,0,0.9361529672017759,0,0.7727387131434729,0],[0.26528061327699315,0,-0.8607050960303989,0,0.6327436977912257,0,0.37922074075393053,0],[0.05894246485281096,0,0.8629328315355809,0,-0.08905828991832687,0,-0.9721449410743193,0],[-0.38467245724541976,0,-0.25325362952254604,0,-0.17407094352206498,0,-0.4005882158923638,0],[-0.7045056652724007,0,0.8693533642863094,0,0.8995743888475838,0,0.8625599052503086,0],[-0.6521479165134304,0,-0.04539796333287749,0,-0.9832188679535866,0,-0.3835549036471142,0],[-0.7472480240177195,0,-0.9178801913322706,0,-0.5865947019430345,0,0.8670522048728,0],[-0.8962529155367548,0,0.12015432879793053,0,0.5722107890759465,0,0.9226676542581069,0],[0.3898400992470723,0,-0.20956485361835986,0,-0.5453429499713469,0,0.483209733828009,0],[0.43561539443583275,0,0.995488727471133,0,0.17014293848942197,0,0.5501479186538569,0],[-0.28876900489882173,0,0.3220417053548843,0,-0.07934158050767048,0,-0.7018145108552207,0],[0.24182337888001637,0,-0.5201492136248228,0,0.8576237735513099,0,0.9268331772477634,0],[0.42595651807612245,0,0.8435009722119999,0,0.349024368768873,0,-0.050546002474126106,0],[0.7153247644491674,0,0.2354165182706609,0,-0.9212231571684911,0,0.379313300473084,0],[-0.18700302131899993,0,-0.37846737926694074,0,0.3865911090721772,0,0.8366206108416394,0],[0.31506767861508367,0,0.48677846876077213,0,-0.6945798008098863,0,-0.2724965856127777,0],[0.050659254216540495,0,-0.684274138983912,0,-0.13508146429230483,0,-0.6646942346748382,0],[0.7677969512566138,0,-0.17553970614340297,0,0.40315716558667747,0,-0.08344195693470302,0],[-0.7322432244031284,0,0.37293517470745296,0,0.8651724531740528,0,0.7084170940527823,0],[-0.39193526784151866,0,-0.6672280243814324,0,-0.6342467526583351,0,0.1313292319556738,0],[0.5744035295825287,0,0.09367333985393911,0,-0.344800781484378,0,0.4101216303680524,0],[0.2642613347184892,0,0.8623185142351768,0,0.5506116347961187,0,0.3386809736745664,0],[-0.6697649459814352,0,0.4408138032893252,0,0.8816053753945934,0,-0.02216923913500246,0],[0.19847920336322788,0,-0.23252571702570368,0,-0.9518400473428872,0,0.7029728127850645,0],[-0.5921314270681174,0,0.16091525195511225,0,0.8996544825473467,0,-0.7924896332455585,0],[0.10802245886285311,0,0.9291359365222906,0,-0.6820395011906652,0,0.8200246604650461,0],[-0.290585130897962,0,-0.7115192981614639,0,-0.3762060301360235,0,-0.19237135913408654,0],[-0.3036256546496555,0,0.3830658281782622,0,0.7243566661332705,0,0.21487573286223993,0],[0.6938545699508556,0,0.6034637249595192,0,0.7816243226133195,0,0.22705411596643277,0],[0.021435234401494973,0,-0.6258610022180236,0,0.10446811048530602,0,0.04864986010773542,0],[-0.8269090548237933,0,-0.8876658445585657,0,0.9541231960843453,0,-0.1477836158018867,0],[0.9288435770362622,0,0.1568059019096366,0,0.0013468740924755806,0,0.4798396103996203,0],[0.13449221235025632,0,-0.8769840676497598,0,0.28493676861683425,0,-0.731157934332373,0],[0.5781924664483142,0,-0.637916580775161,0,-0.3048927564159878,0,0.625322228636688,0],[0.8477353967534638,0,0.9840094575897638,0,0.2415512109636886,0,-0.21642166537388818,0],[0.5699541352681756,0,-0.7486132578968709,0,0.6648417083746174,0,0.5664190368017741,0],[-0.986235384995223,0,0.05801110418594435,0,0.31115633408863896,0,-0.09918326736408245,0],[0.6809249682104179,0,-0.32248546904470176,0,0.6141355974559337,0,-0.6546882648410858,0],[-0.7863240296796675,0,-0.9996577691039212,0,0.014014226286469533,0,0.9500297634272923,0],[-0.2839964747263424,0,0.07309996471958557,0,0.6929927826628803,0,-0.6028727559866975,0],[0.41534181720239327,0,0.9125002565194911,0,-0.8828548422036422,0,0.5589325145536623,0],[-0.5158858511067779,0,-0.7131599882061422,0,-0.9510149362757683,0,0.363004383537215,0],[-0.20441327504812978,0,-0.5588556191863353,0,-0.5688563840504802,0,-0.8322179535822342,0],[-0.593911625456235,0,-0.41218436316568263,0,0.34043764551584843,0,-0.2705458717315774,0],[0.6357277115416409,0,0.3928282744242657,0,0.07293644354795137,0,-0.7198730050570254,0],[-0.2376828720263744,0,-0.34178481426457063,0,-0.655536684624644,0,0.23932657732206541,0],[0.5482912635085282,0,-0.06520756350819801,0,0.5772959360648726,0,-0.35468011740710003,0],[0.08798568269905349,0,-0.10522625382599981,0,-0.7073423361585454,0,0.5196967867044453,0],[0.7927195569389611,0,0.9521285348927628,0,0.739920503663023,0,-0.931895423436963,0],[-0.2762956912139727,0,-0.1607593112208041,0,0.06726802373188412,0,-0.12801805833196111,0],[-0.062121522837434995,0,-0.36837159457375146,0,0.5748949713104443,0,-0.9594085888007119,0],[0.02934680261462974,0,0.05818819376201656,0,-0.10935153652735563,0,0.669602678597855,0],[-0.37082006581491167,0,0.8426300323545122,0,0.26934339866138734,0,0.8919326593362755,0],[0.26890953808106,0,-0.7075271734950208,0,0.6408134723395922,0,0.3085006394876726,0],[0.7181307958034364,0,-0.6148268208421613,0,0.5180867090488137,0,-0.3489894656658393,0],[-0.32579634638465793,0,0.19666330222165706,0,-0.5740972147162748,0,-0.8441748644484925,0],[0.5121212409080198,0,0.6757770440662549,0,0.12111782299161389,0,-0.6825495701413805,0],[0.6951925907867174,0,-0.5112537873858204,0,-0.44963023106556465,0,-0.557898840508968,0],[0.40226481766228517,0,0.9411524527662982,0,0.2267065036066258,0,0.7362719293599798,0],[0.9447877255346486,0,0.8304228620889256,0,0.5057059729142361,0,0.542191377095143,0],[-0.372897370914973,0,-0.509838776384342,0,-0.8970532640115525,0,-0.2285100876834396,0],[-0.1540855953450303,0,-0.7416908570792953,0,-0.8814855754785625,0,0.5903646282650401,0],[-0.5700154210741415,0,0.1343350016970839,0,-0.17944108499764788,0,-0.02602156924075083,0],[0.48866124033782077,0,0.4863515596727548,0,0.4887438313300181,0,0.8747831732602411,0],[0.3679395117635751,0,-0.672733750801564,0,-0.27024061211818484,0,0.4389097799999071,0],[-0.29467544929619316,0,0.8997712503064688,0,-0.14910338005954282,0,-0.043278316354526836,0],[0.029847351581139492,0,-0.9068163040991461,0,-0.8859900088455854,0,0.04808108690334656,0],[-0.12883883578653032,0,0.5608490770352721,0,0.9910230126836774,0,0.9598298784577386,0],[0.9217254676277968,0,-0.684975070188664,0,0.9034598228138067,0,-0.20755855687749813,0],[0.43866143864360785,0,0.046863835522237274,0,-0.6476862498631034,0,-0.025248232179407526,0],[0.7769417385226958,0,0.45231869249202994,0,-0.1691079542762669,0,-0.6298685776512013,0],[-0.2868445184624653,0,0.4404964841125123,0,0.4621039816285055,0,0.02441390371383223,0],[0.04916686378548851,0,0.2591888960208526,0,-0.08701205917998322,0,0.755347882337472,0],[-0.12243519719757734,0,0.2930125236565262,0,0.8131007006227695,0,-0.46470512258068586,0],[-0.15412150939416091,0,0.5727935445339256,0,-0.3602790460575582,0,-0.06665346103964975,0],[0.7741120063812106,0,-0.1194646672424956,0,0.8316464334259872,0,0.7599889476388382,0],[0.06022962308091895,0,0.7425106145373537,0,0.7546930219176984,0,0.4968946691534728,0],[0.45080093793673925,0,-0.42627734394551164,0,0.065831431445035,0,0.09637598665075497,0],[-0.04090631943285228,0,0.7701833989359952,0,-0.9907741006264541,0,-0.7005135327350396,0],[0.980479843321526,0,-0.35884088257039415,0,-0.7737328724060081,0,0.7487104422367163,0],[-0.014901111557904744,0,-0.26826189342577244,0,-0.22698023554520508,0,0.8606337469466312,0],[0.5603001559365204,0,-0.6932230815021078,0,0.2123331294315176,0,0.6759417784167061,0],[0.030464434978025423,0,-0.4495140832374417,0,-0.11580827193628606,0,-0.28145583708250154,0],[-0.6006169122273594,0,-0.6183826665019134,0,-0.24328963193635278,0,-0.7274213170581558,0],[-0.05954913844383547,0,0.6924220943205674,0,-0.3784931995330557,0,0.42549968199554033,0],[-0.5974930522877587,0,-0.7097543547695605,0,0.8210129212638324,0,0.727409988870835,0],[0.504237172077235,0,0.8538347445896397,0,-0.8183863357799559,0,-0.6187521124921846,0],[0.15762730973024075,0,-0.18786815741268503,0,0.3753308988768973,0,0.5053943374092324,0],[-0.30896268493814605,0,0.21153556807681584,0,0.5440977849000066,0,-0.8002817570217197,0],[0.23504266399942097,0,-0.6416904172384081,0,0.6944970058162845,0,-0.10196871653176476,0],[-0.610731691770498,0,-0.6939747387615531,0,0.10716461837880375,0,0.804376219578355,0],[-0.6939816931610224,0,0.1036260739547723,0,-0.19611071752003017,0,0.08752653422385803,0],[0.4065826366979157,0,0.12790591561439735,0,-0.023235127566403113,0,0.9475276293064261,0],[-0.911319575492003,0,0.7948951656029679,0,-0.7924176824805468,0,-0.32993655156151846,0],[-0.011422529736906161,0,-0.5221469754314202,0,0.29197500610975635,0,-0.6511145500168581,0],[-0.3710065081386089,0,-0.44473363100210417,0,-0.4683401723320212,0,0.08349350917737519,0],[0.6139931595384183,0,0.17045959140759992,0,-0.5305552318298586,0,0.1487121620315306,0],[-0.07536709638294059,0,0.5051221772774399,0,-0.7844993165044458,0,-0.11524167763471349,0],[-0.6757866894560824,0,0.15226467246180864,0,-0.25027503450263566,0,0.8708495180503393,0],[0.39956577298729545,0,0.5198160723867837,0,-0.11614892536875842,0,-0.6776444963616011,0],[-0.6551206926938931,0,0.1042792288801544,0,-0.07171271486577213,0,0.5909485490827906,0],[-0.7628477300913732,0,0.9445640871735734,0,0.5324954819161642,0,-0.8508389717114967,0],[0.2574315448065314,0,0.5993212556446819,0,-0.3459507658308072,0,-0.49478753380336415,0],[-0.9204201698739282,0,-0.41319802505801473,0,-0.8396614534693318,0,0.12092050361222473,0],[-0.5216101232390032,0,0.38447327762290406,0,0.17821635642819045,0,0.5949644491644126,0],[-0.8985570722590271,0,0.8063207875739315,0,0.9807107941317259,0,0.12572190120924698,0],[0.3041858609425776,0,-0.14102588589132592,0,0.9362543654965445,0,0.5823534055428812,0],[-0.03471902655361403,0,0.023493339225378884,0,0.8447102965934459,0,0.38976220109180204,0],[0.27935919477168136,0,0.3178580836261693,0,-0.15419640109852684,0,-0.12749025590538632,0],[-0.33311348303087706,0,-0.5340961573840551,0,0.00939310272689653,0,0.7047206416115541,0],[0.1459310207438047,0,0.031653319479610253,0,-0.2966514999658345,0,-0.3225360596230967,0],[0.7781965767127519,0,0.47369348549239354,0,-0.11637524845988312,0,0.1220505874818889,0],[0.1317664422641962,0,0.7324526136924931,0,-0.4375457132272589,0,-0.9828597858875493,0],[0.09557952098980715,0,0.1839342417347758,0,-0.11559459115812909,0,0.05950328359645107,0],[0.8357386835909013,0,0.5766684672695352,0,0.47638371455076234,0,0.7927380738152532,0],[0.20132982464861726,0,0.9143436474329321,0,-0.9635188282819816,0,-0.7348049475634827,0],[0.46750773364430653,0,0.1547854738524712,0,-0.5120940338272591,0,0.6278137577135106,0],[0.946183416055645,0,-0.9333473498624106,0,-0.5519460747781282,0,0.5845314188348851,0],[0.699725497602723,0,0.618422094682507,0,0.249110747484657,0,0.6723747064225831,0],[-0.6393338903978996,0,0.8699395670875725,0,0.2954024820719199,0,-0.024700138550096784,0],[-0.10951950279219746,0,-0.5049853684343947,0,-0.8459605650635755,0,-0.9347010004477316,0],[-0.9969127499001459,0,0.7842421637598154,0,-0.5507728114673853,0,0.7162440861214485,0],[0.9337939574348151,0,0.2604356271167658,0,0.36694634669373416,0,0.25039254152414436,0],[0.2519918316452159,0,0.8847605383664048,0,0.37553076452450673,0,0.2544323176746026,0],[-0.5040194634815877,0,0.2398595064300486,0,-0.3709977260911467,0,-0.15860345281856514,0],[-0.4491173265767805,0,0.04696354635165778,0,0.443847777206261,0,-0.3632680087472262,0],[0.8956855295383304,0,-0.09281237760471661,0,-0.7737470063694725,0,0.23125755367359835,0],[0.11302584797575266,0,0.25291078741179484,0,-0.7243648490036135,0,-0.029296682605729152,0],[0.3854114523783667,0,-0.8466544737412064,0,-0.9983550180810532,0,-0.3590272896362231,0],[-0.9058483924921523,0,-0.16089696934876063,0,0.265636448553346,0,0.8602244223090452,0],[0.09234640995778953,0,0.5937647225066218,0,0.7939312200092776,0,-0.19667712128489423,0],[0.7408632214445121,0,0.0061735548835231135,0,0.9090321692196799,0,0.2611603364039281,0],[0.3763066265572932,0,0.48536145399610753,0,0.1862693046391415,0,-0.023194384098811915,0],[-0.4774336343068196,0,-0.5892674430154897,0,0.06718877709706872,0,-0.29761151964098287,0],[-0.13739421199218382,0,0.32332511169042854,0,-0.05267562459606856,0,-0.5149187031969463,0],[-0.24526841141712297,0,0.15967763429714021,0,0.8048187425108777,0,-0.6825069068331081,0],[0.9076636853230489,0,0.6880287627678938,0,0.04768952474076338,0,-0.5227560361498335,0],[0.72130215865905,0,-0.9727175432574976,0,-0.06863566861715697,0,-0.3675589944318479,0],[-0.24483351083102522,0,-0.587625809705078,0,-0.3655640424642058,0,-0.895769803379295,0],[0.8040600502731565,0,0.21537628445915136,0,-0.12058247687200663,0,-0.44544843162659,0],[-0.8594085199725968,0,0.6398839754873968,0,0.8466057671213782,0,-0.19332186544894148,0],[0.6267622752884165,0,0.47692681170392714,0,-0.9470116330886262,0,0.5080727591256182,0],[-0.3980917420269656,0,-0.15614681288731214,0,0.854459318986315,0,-0.0904510164551271,0],[-0.2781395415981548,0,-0.07666119342832644,0,-0.7215651651165036,0,-0.8383234626368143,0],[0.25426956239481724,0,0.37787317180412394,0,-0.9947097792756327,0,0.21882401154951525,0],[-0.27238435166285624,0,0.33578113902582807,0,-0.5091340616622946,0,-0.30681468452443083,0],[0.2865034499096568,0,-0.37196013172082276,0,0.4586200409076535,0,-0.18441101608931976,0],[-0.3765786705362132,0,-0.6991454747637551,0,-0.7111688420422021,0,-0.9631572877306554,0],[0.9372201470637504,0,-0.6628408086127917,0,0.19358550954093645,0,-0.2571809638775726,0],[-0.9888530833304768,0,0.9909126775737724,0,0.4901085426949545,0,-0.9415595810164608,0],[0.20834528881670433,0,-0.8287379941644201,0,-0.22866937644626384,0,0.7801759571351159,0]],"vb_b":[[0,0,0,0,1,0,0,0],[0,0,0,0,1,0,0,0],[0,0,0,0,1,0,0,0],[0,0,0,0,1,0,0,0],[0,0,0,0,1,0,0,0],[0,0,0,0,1,0,0,0],[0,0,0,0,1,0,0,0],[0,0,0,0,1,0,0,0],[0,0,0,0,1,0,0,0],[0,0,0,0,1,0,0,0],[0,0,0,0,1,0,0,0],[0,0,0,0,1,0,0,0],[0,0,0,0,1,0,0,0],[0,0,0,0,1,0,0,0],[0,0,0,0,1,0,0,0],[0,0,0,0,1,0,0,0],[0,0,0,0,1,0,0,0],[0,0,0,0,1,0,0,0],[0,0,0,0,1,0,0,0],[0,0,0,0,1,0,0,0],[0,0,0,0,1,0,0,0],[0,0,0,0,1,0,0,0],[0,0,0,0,1,0,0,0],[0,0,0,0,1,0,0,0],[0,0,0,0,1,0,0,0],[0,0,0,0,1,0,0,0],[0,0,0,0,1,0,0,0],[0,0,0,0,1,0,0,0],[0,0,0,0,1,0,0,0],[0,0,0,0,1,0,0,0],[0,0,0,0,1,0,0,0],[0,0,0,0,1,0,0,0],[0,0,0,0,1,0,0,0],[0,0,0,0,1,0,0,0],[0,0,0,0,1,0,0,0],[0,0,0,0,1,0,0,0],[0,0,0,0,1,0,0,0],[0,0,0,0,1,0,0,0],[0,0,0,0,1,0,0,0],[0,0,0,0,1,0,0,0],[0,0,0,0,1,0,0,0],[0,0,0,0,1,0,0,0],[0,0,0,0,1,0,0,0],[0,0,0,0,1,0,0,0],[0,0,0,0,1,0,0,0],[0,0,0,0,1,0,0,0],[0,0,0,0,1,0,0,0],[0,0,0,0,1,0,0,0],[0,0,0,0,1,0,0,0],[0,0,0,0,1,0,0,0],[0,0,0,0,1,0,0,0],[0,0,0,0,1,0,0,0],[0,0,0,0,1,0,0,0],[0,0,0,0,1,0,0,0],[0,0,0,0,1,0,0,0],[0,0,0,0,1,0,0,0],[0,0,0,0,1,0,0,0],[0,0,0,0,1,0,0,0],[0,0,0,0,1,0,0,0],[0,0,0,0,1,0,0,0],[0,0,0,0,1,0,0,0],[0,0,0,0,1,0,0,0],[0,0,0,0,1,0,0,0],[0,